{"learner":{"attributes":{"best_iteration":"118","best_score":"0.2297090705363981"},"feature_names":[],"feature_types":[],"gradient_booster":{"model":{"gbtree_model_param":{"num_parallel_tree":"1","num_trees":"129"},"iteration_indptr":[0,1,2,3,4,5,6,7,8,9,10,11,12,13,14,15,16,17,18,19,20,21,22,23,24,25,26,27,28,29,30,31,32,33,34,35,36,37,38,39,40,41,42,43,44,45,46,47,48,49,50,51,52,53,54,55,56,57,58,59,60,61,62,63,64,65,66,67,68,69,70,71,72,73,74,75,76,77,78,79,80,81,82,83,84,85,86,87,88,89,90,91,92,93,94,95,96,97,98,99,100,101,102,103,104,105,106,107,108,109,110,111,112,113,114,115,116,117,118,119,120,121,122,123,124,125,126,127,128,129],"tree_info":[0,0,0,0,0,0,0,0,0,0,0,0,0,0,0,0,0,0,0,0,0,0,0,0,0,0,0,0,0,0,0,0,0,0,0,0,0,0,0,0,0,0,0,0,0,0,0,0,0,0,0,0,0,0,0,0,0,0,0,0,0,0,0,0,0,0,0,0,0,0,0,0,0,0,0,0,0,0,0,0,0,0,0,0,0,0,0,0,0,0,0,0,0,0,0,0,0,0,0,0,0,0,0,0,0,0,0,0,0,0,0,0,0,0,0,0,0,0,0,0,0,0,0,0,0,0,0,0,0],"trees":[{"base_weights":[4.1297216E-2,8.3646625E-1,-2.695298E-1,-6.321456E-3,9.372496E-1,-2.3153607E-2,-6.938456E-1,2.5395858E-3,1.0290759E0,-1.073129E-1,2.4833469E-2,-7.6758826E-1,-3.9172065E-3,3.279944E-2,7.287788E-1,9.940387E-2,-2.1376953E-1,-3.0619688E-3,-1.6281174E-2,3.798934E-4,9.230746E-1,-1.5934081E-1,2.8058475E-1,-2.6038706E-1,2.8199118E-3,2.3729624E-2,1.1294188E-2,-6.3573746E-3,2.4930532E-3,-2.7512859E-5,7.2749364E-3,-1.02219224E-1,-3.2466555E-1,-4.2270795E-3,1.7864282E-3,-7.2299116E-3,-0E0],"categories":[],"categories_nodes":[],"categories_segments":[],"categories_sizes":[],"default_left":[0,0,0,0,0,0,0,0,0,0,0,0,0,0,0,0,0,0,0,0,0,0,0,0,0,0,0,0,0,0,0,0,0,0,0,0,0],"id":0,"left_children":[1,3,5,-1,7,9,11,-1,13,15,-1,17,-1,-1,19,21,23,-1,-1,-1,25,27,29,31,-1,-1,-1,-1,-1,-1,-1,33,35,-1,-1,-1,-1],"loss_changes":[2.5492466E1,3.726904E0,7.6482925E0,0E0,1.7626343E0,5.1292653E0,7.448292E-1,0E0,2.9707546E0,1.0449791E0,0E0,4.354334E-1,0E0,0E0,2.3706055E0,8.0690646E-1,5.6133926E-1,0E0,0E0,0E0,4.7640514E-1,3.740911E-1,2.7122158E-1,2.0879447E-1,0E0,0E0,0E0,0E0,0E0,0E0,0E0,2.4011911E-1,2.187972E-1,0E0,0E0,0E0,0E0],"parents":[2147483647,0,0,1,1,2,2,4,4,5,5,6,6,8,8,9,9,11,11,14,14,15,15,16,16,20,20,21,21,22,22,23,23,31,31,32,32],"right_children":[2,4,6,-1,8,10,12,-1,14,16,-1,18,-1,-1,20,22,24,-1,-1,-1,26,28,30,32,-1,-1,-1,-1,-1,-1,-1,34,36,-1,-1,-1,-1],"split_conditions":[-4.0496716E-1,-1.3242344E0,4.182415E-1,-6.321456E-3,-6.9728804E-1,3.457944E0,1.4107988E0,2.5395858E-3,-5.998287E-1,-1.9920069E-1,2.4833469E-2,-1.635031E-2,-3.9172065E-3,3.279944E-2,-2.1556886E-1,-2.4299066E-1,1.2139006E0,-3.0619688E-3,-1.6281174E-2,3.798934E-4,-5.245218E-1,-2.8002982E-3,-4.5649314E-1,-2.1324579E-2,2.8199118E-3,2.3729624E-2,1.1294188E-2,-6.3573746E-3,2.4930532E-3,-2.7512859E-5,7.2749364E-3,1.3460815E-1,1.245509E0,-4.2270795E-3,1.7864282E-3,-7.2299116E-3,-0E0],"split_indices":[1,15,1,0,1,7,15,0,1,1,0,0,0,0,2,7,3,0,0,0,1,11,0,1,0,0,0,0,0,0,0,0,2,0,0,0,0],"split_type":[0,0,0,0,0,0,0,0,0,0,0,0,0,0,0,0,0,0,0,0,0,0,0,0,0,0,0,0,0,0,0,0,0,0,0,0,0],"sum_hessian":[1.01E2,2.8E1,7.3E1,2E0,2.6E1,4.7E1,2.6E1,3E0,2.3E1,4.5E1,2E0,2.2E1,4E0,6E0,1.7E1,1.5E1,3E1,2E0,2E1,4E0,1.3E1,6E0,9E0,2.7E1,3E0,6E0,7E0,4E0,2E0,2E0,7E0,9E0,1.8E1,6E0,3E0,1.6E1,2E0],"tree_param":{"num_deleted":"0","num_feature":"16","num_nodes":"37","size_leaf_vector":"1"}},{"base_weights":[-1.9465435E-2,9.327901E-1,-2.6466602E-1,-6.23717E-3,1.0939654E0,1.5095744E-2,-6.704203E-1,3.872498E-1,1.3282983E0,-4.9471904E-2,2.0238237E-2,-7.282077E-1,-3.8545309E-3,-6.2191784E-3,1.6781878E-2,3.1107258E-2,8.071244E-3,-1.2504865E-1,1.1203036E-2,-4.8045328E-1,-1.7087502E-2,-4.7178445E-3,-3.4963536E-1,-1.082103E-2,-1.6994955E-3,-1.4803037E-1,1.22688375E-1,-8.186881E-3,-1.4605512E-3,-2.8639358E-1,1.3503901E-3,4.8042936E-3,-0E0,-0E0,-7.1738367E-3],"categories":[],"categories_nodes":[],"categories_segments":[],"categories_sizes":[],"default_left":[0,0,0,0,0,0,0,0,0,0,0,0,0,0,0,0,0,0,0,0,0,0,0,0,0,0,0,0,0,0,0,0,0,0,0],"id":1,"left_children":[1,3,5,-1,7,9,11,13,15,17,-1,19,-1,-1,-1,-1,-1,21,-1,23,-1,25,27,-1,-1,29,31,-1,-1,33,-1,-1,-1,-1,-1],"loss_changes":[2.2828947E1,4.431505E0,8.929787E0,0E0,2.294983E0,3.1713223E0,6.509123E-1,2.206626E0,1.9060955E0,2.099838E0,0E0,3.3126736E-1,0E0,0E0,0E0,0E0,0E0,1.0709279E0,0E0,1.7900538E-1,0E0,5.319452E-1,1.5309215E-1,0E0,0E0,4.5876297E-1,2.3583819E-1,0E0,0E0,1.624273E-1,0E0,0E0,0E0,0E0,0E0],"parents":[2147483647,0,0,1,1,2,2,4,4,5,5,6,6,7,7,8,8,9,9,11,11,17,17,19,19,21,21,22,22,25,25,26,26,29,29],"right_children":[2,4,6,-1,8,10,12,14,16,18,-1,20,-1,-1,-1,-1,-1,22,-1,24,-1,26,28,-1,-1,30,32,-1,-1,34,-1,-1,-1,-1,-1],"split_conditions":[-3.580247E-1,-1.3242344E0,3.4027976E-1,-6.23717E-3,-4.3604818E-1,3.0322582E-1,1.4107988E0,1.0314103E0,-5.261205E-1,1.9316121E0,2.0238237E-2,7.777778E-1,-3.8545309E-3,-6.2191784E-3,1.6781878E-2,3.1107258E-2,8.071244E-3,0E0,1.1203036E-2,2.8383234E0,-1.7087502E-2,-3.2364273E-1,4.6153846E-1,-1.082103E-2,-1.6994955E-3,-3.090106E-1,-2.0618261E-1,-8.186881E-3,-1.4605512E-3,-2.1556886E-1,1.3503901E-3,4.8042936E-3,-0E0,-0E0,-7.1738367E-3],"split_indices":[9,15,1,0,14,1,15,8,1,8,0,9,0,0,0,0,0,1,0,2,0,15,12,0,0,8,13,0,0,2,0,0,0,0,0],"split_type":[0,0,0,0,0,0,0,0,0,0,0,0,0,0,0,0,0,0,0,0,0,0,0,0,0,0,0,0,0,0,0,0,0,0,0],"sum_hessian":[9.6E1,1.9E1,7.7E1,2E0,1.7E1,4.6E1,3.1E1,5E0,1.2E1,4.4E1,2E0,2.7E1,4E0,2E0,3E0,9E0,3E0,4E1,4E0,1.1E1,1.6E1,2.7E1,1.3E1,9E0,2E0,1.3E1,1.4E1,1E1,3E0,8E0,5E0,7E0,7E0,2E0,6E0],"tree_param":{"num_deleted":"0","num_feature":"16","num_nodes":"35","size_leaf_vector":"1"}},{"base_weights":[-5.415554E-2,4.57958E-1,-3.9632866E-1,2.0179716E-1,7.54277E-1,-1.5077774E-1,-6.6800195E-1,7.716964E-1,-3.8855296E-2,2.3156E-2,1.0046439E-2,-2.603524E-1,1.9968394E-2,-7.3565996E-1,-3.7928587E-3,2.0896357E-2,5.185733E-4,-2.2573781E-1,4.9216454E-3,-1.8783072E-1,-4.3287346E-1,-4.309171E-3,-1.5899053E-2,-4.506089E-1,1.142293E-1,3.0929022E-4,-2.1156049E-1,-1.0497451E-2,-1.4250161E-3,-1.1334617E-2,-1.4707209E-3,-8.4819726E-4,5.3225076E-3,-5.174343E-3,-1.1853038E-3],"categories":[],"categories_nodes":[],"categories_segments":[],"categories_sizes":[],"default_left":[0,0,0,0,0,0,0,0,0,0,0,0,0,0,0,0,0,0,0,0,0,0,0,0,0,0,0,0,0,0,0,0,0,0,0],"id":2,"left_children":[1,3,5,7,9,11,13,15,17,-1,-1,19,-1,21,-1,-1,-1,23,-1,25,27,-1,-1,29,31,-1,33,-1,-1,-1,-1,-1,-1,-1,-1],"loss_changes":[1.7523256E1,2.788395E0,3.8199787E0,3.2576642E0,1.0824528E0,4.341591E0,6.741724E-1,1.2916303E0,9.5876306E-1,0E0,0E0,2.4447966E-1,0E0,4.6793842E-1,0E0,0E0,0E0,9.260473E-1,0E0,1.3866091E-1,1.6914177E-1,0E0,0E0,2.0080304E-1,1.5262225E-1,0E0,1.1086708E-1,0E0,0E0,0E0,0E0,0E0,0E0,0E0,0E0],"parents":[2147483647,0,0,1,1,2,2,3,3,4,4,5,5,6,6,7,7,8,8,11,11,13,13,17,17,19,19,20,20,23,23,24,24,26,26],"right_children":[2,4,6,8,10,12,14,16,18,-1,-1,20,-1,22,-1,-1,-1,24,-1,26,28,-1,-1,30,32,-1,34,-1,-1,-1,-1,-1,-1,-1,-1],"split_conditions":[-1.9920069E-1,4.343886E-2,4.182415E-1,-5.312753E-1,-5.245218E-1,1.7692307E0,1.2317709E0,-4.1311187E-1,-1.4152423E-1,2.3156E-2,1.0046439E-2,2.132458E-1,1.9968394E-2,2.8366378E-1,-3.7928587E-3,2.0896357E-2,5.185733E-4,5.82742E-1,4.9216454E-3,-3.283922E-1,3.0322582E-1,-4.309171E-3,-1.5899053E-2,-3.2447562E-1,-4.600628E-1,3.0929022E-4,3.473054E-1,-1.0497451E-2,-1.4250161E-3,-1.1334617E-2,-1.4707209E-3,-8.4819726E-4,5.3225076E-3,-5.174343E-3,-1.1853038E-3],"split_indices":[1,8,1,11,1,12,15,15,11,0,0,1,0,0,0,0,0,13,0,0,1,0,0,15,1,0,2,0,0,0,0,0,0,0,0],"split_type":[0,0,0,0,0,0,0,0,0,0,0,0,0,0,0,0,0,0,0,0,0,0,0,0,0,0,0,0,0,0,0,0,0,0,0],"sum_hessian":[9.8E1,3.9E1,5.9E1,2.2E1,1.7E1,3.2E1,2.7E1,6E0,1.6E1,5E0,1.2E1,3E1,2E0,2.3E1,4E0,4E0,2E0,1E1,6E0,2.3E1,7E0,3E0,2E1,6E0,4E0,2E0,2.1E1,5E0,2E0,4E0,2E0,2E0,2E0,1.5E1,6E0],"tree_param":{"num_deleted":"0","num_feature":"16","num_nodes":"35","size_leaf_vector":"1"}},{"base_weights":[2.6044466E-2,5.636655E-1,-3.759387E-1,8.127456E-1,2.857304E-1,-1.2863855E-1,-6.697264E-1,1.0918629E-1,9.9655724E-1,-0E0,4.4249606E-1,-2.3215729E-1,1.970215E-2,-5.082846E-3,-1.49615975E-2,5.8221975E-3,-2.728812E-3,1.1861466E0,2.2915672E-4,-4.51289E-3,2.7897875E-3,1.2710428E-2,1.8165869E-1,-1.277866E-1,-7.7425246E-3,2.696902E-2,1.1436949E-2,6.1791814E-3,4.6973283E-4,-1.6456273E-1,2.2878218E-3,-2.112318E-1,7.650842E-4,-6.5396437E-3,-1.4752247E-3],"categories":[],"categories_nodes":[],"categories_segments":[],"categories_sizes":[],"default_left":[0,0,0,0,0,0,0,0,0,0,0,0,0,0,0,0,0,0,0,0,0,0,0,0,0,0,0,0,0,0,0,0,0,0,0],"id":3,"left_children":[1,3,5,7,9,11,13,15,17,19,21,23,-1,-1,-1,-1,-1,25,-1,-1,-1,-1,27,29,-1,-1,-1,-1,-1,31,-1,33,-1,-1,-1],"loss_changes":[2.2706593E1,2.7731915E0,4.1932344E0,2.7550306E0,1.0592788E0,4.073387E0,5.8884716E-1,3.232981E-1,3.228405E0,3.2040548E-1,5.580573E-1,4.1661394E-1,0E0,0E0,0E0,0E0,0E0,5.324154E-1,0E0,0E0,0E0,0E0,1.20581895E-1,2.1087524E-1,0E0,0E0,0E0,0E0,0E0,2.052185E-1,0E0,1.904034E-1,0E0,0E0,0E0],"parents":[2147483647,0,0,1,1,2,2,3,3,4,4,5,5,6,6,7,7,8,8,9,9,10,10,11,11,17,17,22,22,23,23,29,29,31,31],"right_children":[2,4,6,8,10,12,14,16,18,20,22,24,-1,-1,-1,-1,-1,26,-1,-1,-1,-1,28,30,-1,-1,-1,-1,-1,32,-1,34,-1,-1,-1],"split_conditions":[-2.5555238E-1,-4.6491578E-1,3.4027976E-1,-5.66106E-1,-3.2447562E-1,3.0322582E-1,2.8366378E-1,-4.1311187E-1,2.3812916E0,-4.0743157E-1,-2.345679E-1,7.522124E-2,1.970215E-2,-5.082846E-3,-1.49615975E-2,5.8221975E-3,-2.728812E-3,-5.245218E-1,2.2915672E-4,-4.51289E-3,2.7897875E-3,1.2710428E-2,-3.934913E-1,7.185629E-1,-7.7425246E-3,2.696902E-2,1.1436949E-2,6.1791814E-3,4.6973283E-4,1.3460815E-1,2.2878218E-3,-2.3076923E-1,7.650842E-4,-6.5396437E-3,-1.4752247E-3],"split_indices":[1,1,1,0,15,1,0,15,13,11,9,1,0,0,0,0,0,1,0,0,0,0,1,2,0,0,0,0,0,0,0,12,0,0,0],"split_type":[0,0,0,0,0,0,0,0,0,0,0,0,0,0,0,0,0,0,0,0,0,0,0,0,0,0,0,0,0,0,0,0,0,0,0],"sum_hessian":[1.03E2,4.4E1,5.9E1,2.2E1,2.2E1,3.3E1,2.6E1,5E0,1.7E1,8E0,1.4E1,3.1E1,2E0,5E0,2.1E1,3E0,2E0,1.4E1,3E0,3E0,5E0,7E0,7E0,2E1,1.1E1,1E1,4E0,3E0,4E0,1.8E1,2E0,1.5E1,3E0,7E0,8E0],"tree_param":{"num_deleted":"0","num_feature":"16","num_nodes":"35","size_leaf_vector":"1"}},{"base_weights":[-3.6946524E-2,7.2275054E-1,-3.7917352E-1,8.0796444E-1,-6.1713397E-3,-1.4864431E-1,-7.2856545E-1,1.0569707E0,4.9842715E-1,1.6776016E-2,-2.1970995E-1,-2.907804E-3,-1.5308077E-2,-0E0,1.2123065E0,9.692666E-2,1.4884268E-2,5.8899177E-3,-3.406095E-1,2.850816E-2,5.662626E-1,6.04499E-3,-2.1525568E-3,2.9733714E-3,-7.036626E-2,2.1855189E-3,-7.6994277E-3,3.5596783E-3,1.46490745E-2,1.7760874E-3,-2.6751894E-3],"categories":[],"categories_nodes":[],"categories_segments":[],"categories_sizes":[],"default_left":[0,0,0,0,0,0,0,0,0,0,0,0,0,0,0,0,0,0,0,0,0,0,0,0,0,0,0,0,0,0,0],"id":4,"left_children":[1,3,5,7,-1,9,11,13,15,-1,17,-1,-1,-1,19,21,-1,23,25,-1,27,-1,-1,-1,29,-1,-1,-1,-1,-1,-1],"loss_changes":[2.5978584E1,3.023611E0,5.3615904E0,1.5528622E0,0E0,3.1398408E0,3.776865E-1,2.3481255E0,1.3240013E0,0E0,1.1537502E0,0E0,0E0,0E0,7.834263E-1,3.459906E-1,0E0,1.8160781E-1,6.0849714E-1,0E0,1.0123348E-1,0E0,0E0,0E0,1.1727731E-1,0E0,0E0,0E0,0E0,0E0,0E0],"parents":[2147483647,0,0,1,1,2,2,3,3,5,5,6,6,7,7,8,8,10,10,14,14,15,15,17,17,18,18,20,20,24,24],"right_children":[2,4,6,8,-1,10,12,14,16,-1,18,-1,-1,-1,20,22,-1,24,26,-1,28,-1,-1,-1,30,-1,-1,-1,-1,-1,-1],"split_conditions":[-3.8044533E-1,9.775054E-1,8.735435E-1,-5.580931E-1,-6.1713397E-3,-1.290993E0,1.1884099E-1,-6.2602884E-1,-3.2364273E-1,1.6776016E-2,0E0,-2.907804E-3,-1.5308077E-2,-0E0,-5.998287E-1,-5.168671E-1,1.4884268E-2,-4.876719E-1,-8.832497E-1,2.850816E-2,-2.3076923E-1,6.04499E-3,-2.1525568E-3,2.9733714E-3,-9.943465E-1,2.1855189E-3,-7.6994277E-3,3.5596783E-3,1.46490745E-2,1.7760874E-3,-2.6751894E-3],"split_indices":[1,3,0,1,0,14,1,14,15,0,1,0,0,0,1,0,0,13,15,0,12,0,0,0,3,0,0,0,0,0,0],"split_type":[0,0,0,0,0,0,0,0,0,0,0,0,0,0,0,0,0,0,0,0,0,0,0,0,0,0,0,0,0,0,0],"sum_hessian":[9.8E1,3E1,6.8E1,2.8E1,2E0,4.2E1,2.6E1,1.4E1,1.4E1,2E0,4E1,2E0,2.4E1,2E0,1.2E1,6E0,8E0,1.4E1,2.6E1,8E0,4E0,3E0,3E0,5E0,9E0,2E0,2.4E1,2E0,2E0,2E0,7E0],"tree_param":{"num_deleted":"0","num_feature":"16","num_nodes":"31","size_leaf_vector":"1"}},{"base_weights":[-5.4197192E-2,7.438348E-1,-3.1017813E-1,1.2893091E0,4.3750364E-1,6.345663E-2,-4.892113E-1,3.335943E-2,1.4170349E-2,-2.6618548E-2,2.2372475E-2,-7.079617E-2,5.170565E-1,-2.9751888E-1,-6.7267066E-1,-2.7783766E-1,6.2082387E-3,-4.773361E-3,5.2674096E-2,1.4825266E-2,2.4857296E-4,-3.3825865E-1,2.1563794E-3,-4.860024E-1,-1.713951E-2,-1.30835455E-2,-0E0,4.6882126E-3,-1.9267849E-3,-1.0465844E-2,-1.7335014E-1,-1.0541171E-2,-2.2551664E-3,4.3672576E-4,-4.255017E-3],"categories":[],"categories_nodes":[],"categories_segments":[],"categories_sizes":[],"default_left":[0,0,0,0,0,0,0,0,0,0,0,0,0,0,0,0,0,0,0,0,0,0,0,0,0,0,0,0,0,0,0,0,0,0,0],"id":5,"left_children":[1,3,5,7,9,11,13,-1,-1,15,-1,17,19,21,23,25,-1,-1,27,-1,-1,29,-1,31,-1,-1,-1,-1,-1,-1,33,-1,-1,-1,-1],"loss_changes":[2.0206892E1,3.2735386E0,5.0905957E0,3.3995628E-1,5.5130663E0,1.6036582E0,1.4964046E0,0E0,0E0,1.0143403E0,0E0,4.4571483E-1,5.942639E-1,5.053756E-1,3.093071E-1,7.434875E-1,0E0,0E0,3.6136413E-1,0E0,0E0,6.0246325E-1,0E0,1.0644722E-1,0E0,0E0,0E0,0E0,0E0,0E0,1.3909432E-1,0E0,0E0,0E0,0E0],"parents":[2147483647,0,0,1,1,2,2,3,3,4,4,5,5,6,6,9,9,11,11,12,12,13,13,14,14,15,15,18,18,21,21,23,23,30,30],"right_children":[2,4,6,8,10,12,14,-1,-1,16,-1,18,20,22,24,26,-1,-1,28,-1,-1,30,-1,32,-1,-1,-1,-1,-1,-1,34,-1,-1,-1,-1],"split_conditions":[-3.5439768E-1,-3.5514018E-1,-1.2345679E-2,8.2360655E-2,5.942779E-1,9.104012E-1,8.735435E-1,3.335943E-2,1.4170349E-2,-4.068315E-1,2.2372475E-2,-9.962402E-2,1.4552337E0,9.517188E-1,1.1728395E0,-7.838977E-2,6.2082387E-3,-4.773361E-3,-1.495327E-1,1.4825266E-2,2.4857296E-4,1.07939444E-1,2.1563794E-3,3.046729E0,-1.713951E-2,-1.30835455E-2,-0E0,4.6882126E-3,-1.9267849E-3,-1.0465844E-2,-3.126527E-1,-1.0541171E-2,-2.2551664E-3,4.3672576E-4,-4.255017E-3],"split_indices":[0,7,9,3,8,8,0,0,0,8,0,11,13,3,9,13,0,0,7,0,0,8,0,7,0,0,0,0,0,0,0,0,0,0,0],"split_type":[0,0,0,0,0,0,0,0,0,0,0,0,0,0,0,0,0,0,0,0,0,0,0,0,0,0,0,0,0,0,0,0,0,0,0],"sum_hessian":[9.7E1,2.3E1,7.4E1,7E0,1.6E1,2.4E1,5E1,3E0,4E0,1E1,6E0,1.9E1,5E0,2.6E1,2.4E1,6E0,4E0,8E0,1.1E1,3E0,2E0,2.4E1,2E0,1.4E1,1E1,2E0,4E0,5E0,6E0,1E1,1.4E1,1.2E1,2E0,2E0,1.2E1],"tree_param":{"num_deleted":"0","num_feature":"16","num_nodes":"35","size_leaf_vector":"1"}},{"base_weights":[-1.694103E-2,5.238307E-1,-3.7883982E-1,1.3330364E0,3.3888155E-1,-1.3684243E-1,-6.1294246E-1,3.309764E-2,1.30586345E-2,-0E0,6.820384E-1,-2.499097E-1,1.936844E-2,-6.714856E-1,-3.3185957E-3,-9.151755E-3,1.5823269E-1,1.8045051E-3,7.9526806E-1,-1.0433965E-1,-3.4064505E-1,-4.008347E-3,-1.4397353E-2,3.342825E-1,-3.0899672E-3,5.2180896E-3,1.7085064E-2,-1.611525E-1,2.1084135E-3,-7.645382E-3,-0E0,9.313445E-3,-0E0,-3.4097051E-3,3.6385327E-3,-6.210819E-3,-1.0762844E-3],"categories":[],"categories_nodes":[],"categories_segments":[],"categories_sizes":[],"default_left":[0,0,0,0,0,0,0,0,0,0,0,0,0,0,0,0,0,0,0,0,0,0,0,0,0,0,0,0,0,0,0,0,0,0,0,0,0],"id":6,"left_children":[1,3,5,7,9,11,13,-1,-1,15,17,19,-1,21,-1,-1,23,-1,25,27,29,-1,-1,31,33,-1,-1,35,-1,-1,-1,-1,-1,-1,-1,-1,-1],"loss_changes":[1.9558706E1,5.367543E0,3.2402792E0,2.2091484E-1,4.003416E0,4.044213E0,5.899248E-1,0E0,0E0,1.3974589E0,9.788804E-1,3.0300093E-1,0E0,3.5626984E-1,0E0,0E0,4.3176368E-1,0E0,1.06879234E-1,1.7748404E-1,2.192812E-1,0E0,0E0,3.0203956E-1,2.7763894E-1,0E0,0E0,1.2323904E-1,0E0,0E0,0E0,0E0,0E0,0E0,0E0,0E0,0E0],"parents":[2147483647,0,0,1,1,2,2,3,3,4,4,5,5,6,6,9,9,10,10,11,11,13,13,16,16,18,18,19,19,20,20,23,23,24,24,27,27],"right_children":[2,4,6,8,10,12,14,-1,-1,16,18,20,-1,22,-1,-1,24,-1,26,28,30,-1,-1,32,34,-1,-1,36,-1,-1,-1,-1,-1,-1,-1,-1,-1],"split_conditions":[-1.9920069E-1,-3.5514018E-1,4.182415E-1,2.3251069E-1,-1.0261774E-1,1.3457944E0,1.4107988E0,3.309764E-2,1.30586345E-2,-4.2497864E-1,-9.510725E-1,0E0,1.936844E-2,2.8366378E-1,-3.3185957E-3,-9.151755E-3,-2.0766962E-1,1.8045051E-3,-5.168671E-1,1.3460815E-1,8.8461536E-1,-4.008347E-3,-1.4397353E-2,-9.091336E-2,4.771754E-1,5.2180896E-3,1.7085064E-2,-2.3076923E-1,2.1084135E-3,-7.645382E-3,-0E0,9.313445E-3,-0E0,-3.4097051E-3,3.6385327E-3,-6.210819E-3,-1.0762844E-3],"split_indices":[1,7,1,3,8,7,15,0,0,11,3,1,0,0,0,0,13,0,0,0,12,0,0,0,3,0,0,12,0,0,0,0,0,0,0,0,0],"split_type":[0,0,0,0,0,0,0,0,0,0,0,0,0,0,0,0,0,0,0,0,0,0,0,0,0,0,0,0,0,0,0,0,0,0,0,0,0],"sum_hessian":[9.8E1,3.9E1,5.9E1,6E0,3.3E1,3E1,2.9E1,3E0,3E0,1.7E1,1.6E1,2.8E1,2E0,2.5E1,4E0,4E0,1.3E1,3E0,1.3E1,1.2E1,1.6E1,3E0,2.2E1,6E0,7E0,2E0,1.1E1,1E1,2E0,1.4E1,2E0,4E0,2E0,4E0,3E0,3E0,7E0],"tree_param":{"num_deleted":"0","num_feature":"16","num_nodes":"37","size_leaf_vector":"1"}},{"base_weights":[5.065199E-2,6.296026E-1,-1.6576912E-1,7.321496E-1,2.6399335E-3,-8.157191E-3,-5.433906E-1,8.61643E-1,1.9908634E-3,-1.5914276E-1,4.4934896E-1,-0E0,-6.3772166E-1,2.6629465E-3,9.9179906E-1,-4.1205455E-2,-6.9258246E-3,-6.3544594E-2,1.0749823E0,-1.385709E-2,-4.9308604E-3,1.1657243E0,5.199571E-1,-9.4602846E-2,7.32751E-3,-4.2136936E-3,4.3716757E-3,7.955166E-3,2.5783092E-2,2.7482549E-2,9.691748E-3,1.6053148E-2,-0E0,-0E0,-2.88926E-1,1.3845773E-1,-2.133444E-3,-7.150376E-3,-4.419678E-4,6.3018487E-3,-2.1083171E-4],"categories":[],"categories_nodes":[],"categories_segments":[],"categories_sizes":[],"default_left":[0,0,0,0,0,0,0,0,0,0,0,0,0,0,0,0,0,0,0,0,0,0,0,0,0,0,0,0,0,0,0,0,0,0,0,0,0,0,0,0,0],"id":7,"left_children":[1,3,5,7,-1,9,11,13,-1,15,17,-1,19,-1,21,23,-1,25,27,-1,-1,29,31,33,-1,-1,-1,-1,-1,-1,-1,-1,-1,35,37,39,-1,-1,-1,-1,-1],"loss_changes":[1.242987E1,1.1947012E0,4.2256827E0,1.6203146E0,0E0,3.634485E0,1.1196604E0,1.4621754E0,0E0,8.298528E-1,4.3409357E0,0E0,1.23445034E-1,0E0,4.5628452E-1,5.7334065E-1,0E0,3.7736154E-1,1.887927E-1,0E0,0E0,5.677538E-1,9.54903E-1,4.5303315E-1,0E0,0E0,0E0,0E0,0E0,0E0,0E0,0E0,0E0,2.6715395E-1,1.0055733E-1,2.4432431E-1,0E0,0E0,0E0,0E0,0E0],"parents":[2147483647,0,0,1,1,2,2,3,3,5,5,6,6,7,7,9,9,10,10,12,12,14,14,15,15,17,17,18,18,21,21,22,22,23,23,33,33,34,34,35,35],"right_children":[2,4,6,8,-1,10,12,14,-1,16,18,-1,20,-1,22,24,-1,26,28,-1,-1,30,32,34,-1,-1,-1,-1,-1,-1,-1,-1,-1,36,38,40,-1,-1,-1,-1,-1],"split_conditions":[-3.5439768E-1,-1.8691589E-1,8.735435E-1,2.3812916E0,2.6399335E-3,5.82742E-1,9.3457945E-2,-5.66106E-1,1.9908634E-3,2.114969E-1,-2.8308007E-1,-0E0,1.0225195E0,2.6629465E-3,-4.5475474E-1,1.6540594E-1,-6.9258246E-3,-1.6977541E-1,-6.078708E-1,-1.385709E-2,-4.9308604E-3,-2.990654E-1,1.0485889E-1,2.4089402E-1,7.32751E-3,-4.2136936E-3,4.3716757E-3,7.955166E-3,2.5783092E-2,2.7482549E-2,9.691748E-3,1.6053148E-2,-0E0,-1.8691589E-1,9.517188E-1,-3.8273975E-1,-2.133444E-3,-7.150376E-3,-4.419678E-4,6.3018487E-3,-2.1083171E-4],"split_indices":[0,7,0,13,0,13,7,0,0,0,15,0,15,0,0,0,0,0,3,0,0,7,3,3,0,0,0,0,0,0,0,0,0,7,3,3,0,0,0,0,0],"split_type":[0,0,0,0,0,0,0,0,0,0,0,0,0,0,0,0,0,0,0,0,0,0,0,0,0,0,0,0,0,0,0,0,0,0,0,0,0,0,0,0,0],"sum_hessian":[9.7E1,2.6E1,7.1E1,2.1E1,5E0,5.1E1,2E1,1.7E1,4E0,3.9E1,1.2E1,3E0,1.7E1,3E0,1.4E1,2.5E1,1.4E1,7E0,5E0,1.4E1,3E0,9E0,5E0,2.3E1,2E0,5E0,2E0,2E0,3E0,6E0,3E0,3E0,2E0,1.6E1,7E0,7E0,9E0,5E0,2E0,3E0,4E0],"tree_param":{"num_deleted":"0","num_feature":"16","num_nodes":"41","size_leaf_vector":"1"}},{"base_weights":[6.535909E-2,7.504009E-1,-2.9802808E-1,-6.0374895E-3,8.2872665E-1,-7.976476E-2,-5.9047174E-1,1.0892149E0,4.542257E-1,-1.5268105E-1,1.5769713E-2,-6.1994594E-1,-2.293919E-3,3.5345027E-1,1.2670441E0,1.13071546E-1,1.2069912E-2,-0E0,-3.3881414E-1,-3.9897177E-1,-1.4261165E-2,-3.676154E-3,1.6124496E-2,2.937902E-2,5.8982134E-1,-1.3455536E-3,4.9013114E-3,-9.732872E-2,3.1581932E-1,-6.6867686E-4,-7.458178E-3,-9.288612E-3,-1.1618194E-3,1.6268803E-2,2.7252405E-3,-4.851804E-3,8.391422E-2,9.255644E-3,6.05E-4,6.3301073E-3,-5.940076E-4],"categories":[],"categories_nodes":[],"categories_segments":[],"categories_sizes":[],"default_left":[0,0,0,0,0,0,0,0,0,0,0,0,0,0,0,0,0,0,0,0,0,0,0,0,0,0,0,0,0,0,0,0,0,0,0,0,0,0,0,0,0],"id":8,"left_children":[1,3,5,-1,7,9,11,13,15,17,-1,19,-1,21,23,25,-1,27,29,31,-1,-1,-1,-1,33,-1,-1,35,37,-1,-1,-1,-1,-1,-1,-1,39,-1,-1,-1,-1],"loss_changes":[2.4415613E1,3.1051464E0,3.9709797E0,0E0,2.4726048E0,2.462571E0,2.3405552E-1,1.7452431E0,6.2396574E-1,9.9750614E-1,0E0,1.18691444E-1,0E0,1.4267159E0,8.420067E-1,1.7709635E-1,0E0,6.597482E-1,1.1348796E-1,1.4390528E-1,0E0,0E0,0E0,0E0,3.0131102E-1,0E0,0E0,4.837939E-1,1.4653808E-1,0E0,0E0,0E0,0E0,0E0,0E0,0E0,2.4948686E-1,0E0,0E0,0E0,0E0],"parents":[2147483647,0,0,1,1,2,2,4,4,5,5,6,6,7,7,8,8,9,9,11,11,13,13,14,14,15,15,17,17,18,18,19,19,24,24,27,27,28,28,36,36],"right_children":[2,4,6,-1,8,10,12,14,16,18,-1,20,-1,22,24,26,-1,28,30,32,-1,-1,-1,-1,34,-1,-1,36,38,-1,-1,-1,-1,-1,-1,-1,40,-1,-1,-1,-1],"split_conditions":[-3.8044533E-1,-1.3242344E0,3.4027976E-1,-6.0374895E-3,-5.245218E-1,7.9041916E-1,1.263473E1,-6.9728804E-1,-2.8308007E-1,-1.2345679E-2,1.5769713E-2,7.777778E-1,-2.293919E-3,2.1772158E-1,-3.8271606E-1,-6.8438274E-1,1.2069912E-2,6.4457804E-1,-1.1056305E0,2.8383234E0,-1.4261165E-2,-3.676154E-3,1.6124496E-2,2.937902E-2,-2.3368563E-1,-1.3455536E-3,4.9013114E-3,4.4549536E-3,-1.9920069E-1,-6.6867686E-4,-7.458178E-3,-9.288612E-3,-1.1618194E-3,1.6268803E-2,2.7252405E-3,-4.851804E-3,-1.0778443E-1,9.255644E-3,6.05E-4,6.3301073E-3,-5.940076E-4],"split_indices":[1,15,1,0,1,2,2,1,15,9,0,9,0,3,9,8,0,8,3,2,0,0,0,0,3,0,0,11,1,0,0,0,0,0,0,0,2,0,0,0,0],"split_type":[0,0,0,0,0,0,0,0,0,0,0,0,0,0,0,0,0,0,0,0,0,0,0,0,0,0,0,0,0,0,0,0,0,0,0,0,0,0,0,0,0],"sum_hessian":[9.6E1,3.3E1,6.3E1,2E0,3.1E1,3.7E1,2.6E1,1.7E1,1.4E1,3.5E1,2E0,2.4E1,2E0,4E0,1.3E1,5E0,9E0,2E1,1.5E1,9E0,1.5E1,2E0,2E0,9E0,4E0,2E0,3E0,1.6E1,4E0,2E0,1.3E1,7E0,2E0,2E0,2E0,9E0,7E0,2E0,2E0,2E0,5E0],"tree_param":{"num_deleted":"0","num_feature":"16","num_nodes":"41","size_leaf_vector":"1"}},{"base_weights":[-1.3169654E-3,4.237808E-1,-4.8160785E-1,7.729567E-1,1.7512473E-1,-3.548832E-1,-7.06627E-1,-5.95699E-3,8.999298E-1,5.282186E-1,5.589874E-2,-4.5122728E-1,-1.8475711E-1,-1.532952E-2,-3.169121E-3,1.1452143E0,2.6651376E-1,1.9336827E-3,1.495605E-2,-8.250485E-2,2.0834117E-1,-1.0136894E-2,-1.5409274E-3,-9.80236E-4,-5.9843003E-3,2.5537618E-2,4.069528E-3,1.0166701E-2,-3.8405263E-3,3.1050758E-3,-3.4110602E-3,1.5020522E-2,8.294237E-3,3.765518E-3,-1.1488784E-3],"categories":[],"categories_nodes":[],"categories_segments":[],"categories_sizes":[],"default_left":[0,0,0,0,0,0,0,0,0,0,0,0,0,0,0,0,0,0,0,0,0,0,0,0,0,0,0,0,0,0,0,0,0,0,0],"id":9,"left_children":[1,3,5,7,9,11,13,-1,15,17,19,21,23,-1,-1,25,27,-1,-1,29,31,-1,-1,-1,-1,-1,-1,-1,-1,-1,-1,33,-1,-1,-1],"loss_changes":[2.0831108E1,4.4583616E0,1.0118217E0,3.3194523E0,1.3012944E0,3.9392567E-1,3.109746E-1,0E0,2.6609535E0,6.013148E-1,5.783359E-1,3.1877995E-1,1.6803202E-1,0E0,0E0,1.328085E0,9.054378E-1,0E0,0E0,3.2108793E-1,4.6944183E-1,0E0,0E0,0E0,0E0,0E0,0E0,0E0,0E0,0E0,0E0,1.2433735E-1,0E0,0E0,0E0],"parents":[2147483647,0,0,1,1,2,2,3,3,4,4,5,5,6,6,8,8,9,9,10,10,11,11,12,12,15,15,16,16,19,19,20,20,31,31],"right_children":[2,4,6,8,10,12,14,-1,16,18,20,22,24,-1,-1,26,28,-1,-1,30,32,-1,-1,-1,-1,-1,-1,-1,-1,-1,-1,34,-1,-1,-1],"split_conditions":[-1.2345679E-2,-3.3333334E-1,1.5185186E0,-1.3242344E0,-3.0769232E-1,3.0287153E-1,1.4107988E0,-5.95699E-3,-4.266755E-2,-3.4414175E-1,-2.2222222E-1,3.046729E0,6.296296E-1,-1.532952E-2,-3.169121E-3,-1.8691589E-1,-3.8273975E-1,1.9336827E-3,1.495605E-2,-1.9350716E-1,7.186571E-2,-1.0136894E-2,-1.5409274E-3,-9.80236E-4,-5.9843003E-3,2.5537618E-2,4.069528E-3,1.0166701E-2,-3.8405263E-3,3.1050758E-3,-3.4110602E-3,-6.167375E-2,8.294237E-3,3.765518E-3,-1.1488784E-3],"split_indices":[9,9,9,15,12,8,15,0,15,15,9,7,9,0,0,7,3,0,0,14,8,0,0,0,0,0,0,0,0,0,0,14,0,0,0],"split_type":[0,0,0,0,0,0,0,0,0,0,0,0,0,0,0,0,0,0,0,0,0,0,0,0,0,0,0,0,0,0,0,0,0,0,0],"sum_hessian":[1E2,5.3E1,4.7E1,2.1E1,3.2E1,3.2E1,1.5E1,2E0,1.9E1,7E0,2.5E1,1.9E1,1.3E1,1.3E1,2E0,1.3E1,6E0,3E0,4E0,1.3E1,1.2E1,1.6E1,3E0,7E0,6E0,1.1E1,2E0,4E0,2E0,3E0,1E1,7E0,5E0,2E0,5E0],"tree_param":{"num_deleted":"0","num_feature":"16","num_nodes":"35","size_leaf_vector":"1"}},{"base_weights":[2.1494582E-2,8.4043235E-1,-2.5740182E-1,1.2122386E0,5.0280076E-1,-4.2971484E-2,-6.221792E-1,2.6724292E-2,7.231435E-3,-9.094328E-3,6.792115E-1,-1.17686436E-1,2.3167264E-2,-3.9924306E-1,-1.5003573E-2,7.0519797E-3,1.882334E-2,1.5279661E-1,-2.3310241E-1,-9.325019E-3,-2.1382493E-3,-1.9360101E-3,5.945504E-3,-2.8141245E-1,6.1262894E-4,3.308973E-4,-3.0685744E-1,-3.925869E-3,-3.9625758E-1,-8.8802595E-3,-7.9633726E-4],"categories":[],"categories_nodes":[],"categories_segments":[],"categories_sizes":[],"default_left":[0,0,0,0,0,0,0,0,0,0,0,0,0,0,0,0,0,0,0,0,0,0,0,0,0,0,0,0,0,0,0],"id":10,"left_children":[1,3,5,7,9,11,13,-1,-1,-1,15,17,-1,19,-1,-1,-1,21,23,-1,-1,-1,-1,25,-1,-1,27,-1,29,-1,-1],"loss_changes":[2.4256504E1,2.608387E0,6.0860777E0,6.1263275E-1,3.0339599E0,4.6098967E0,4.1308975E-1,0E0,0E0,0E0,7.365804E-1,1.5733333E0,0E0,1.474855E-1,0E0,0E0,0E0,5.8974546E-1,4.7963297E-1,0E0,0E0,0E0,0E0,2.6155376E-1,0E0,0E0,1.3972616E-1,0E0,1.7224526E-1,0E0,0E0],"parents":[2147483647,0,0,1,1,2,2,3,3,4,4,5,5,6,6,10,10,11,11,13,13,17,17,18,18,23,23,26,26,28,28],"right_children":[2,4,6,8,10,12,14,-1,-1,-1,16,18,-1,20,-1,-1,-1,22,24,-1,-1,-1,-1,26,-1,-1,28,-1,30,-1,-1],"split_conditions":[-4.0496716E-1,-3.364486E-1,4.568941E-1,-5.998287E-1,-5.872395E-1,2.8076923E0,1.5675992E0,2.6724292E-2,7.231435E-3,-9.094328E-3,1.0314103E0,-2.5555238E-1,2.3167264E-2,3.046729E0,-1.5003573E-2,7.0519797E-3,1.882334E-2,5.5189285E-2,5.420561E-1,-9.325019E-3,-2.1382493E-3,-1.9360101E-3,5.945504E-3,-5.0976133E-1,6.1262894E-4,3.308973E-4,-2.4546394E-1,-3.925869E-3,1.2139006E0,-8.8802595E-3,-7.9633726E-4],"split_indices":[1,7,1,1,1,12,1,0,0,0,8,1,0,7,0,0,0,11,7,0,0,0,0,8,0,0,3,0,3,0,0],"split_type":[0,0,0,0,0,0,0,0,0,0,0,0,0,0,0,0,0,0,0,0,0,0,0,0,0,0,0,0,0,0,0],"sum_hessian":[1.04E2,2.6E1,7.8E1,1.1E1,1.5E1,5E1,2.8E1,9E0,2E0,2E0,1.3E1,4.8E1,2E0,1.2E1,1.6E1,7E0,6E0,1.4E1,3.4E1,9E0,3E0,5E0,9E0,2.9E1,5E0,2E0,2.7E1,1.4E1,1.3E1,1.1E1,2E0],"tree_param":{"num_deleted":"0","num_feature":"16","num_nodes":"31","size_leaf_vector":"1"}},{"base_weights":[4.3935094E-2,5.431191E-1,-3.2738745E-1,1.0140172E0,3.523949E-1,-9.832137E-2,-6.104974E-1,-5.936826E-3,2.631746E-2,9.055633E-2,7.405653E-1,-1.9459574E-1,1.8560912E-2,-6.3837683E-1,-3.0125864E-3,-1.4010681E-1,3.6829647E-1,2.0407628E-2,8.512652E-3,-3.3182662E-2,-2.7280343E-1,-6.0606343E-3,-1.4108267E-2,-8.915494E-3,1.1189795E-3,8.933942E-3,6.2586616E-5,-2.3711107E-3,2.8440391E-3,-6.2486804E-3,-2.5296322E-5],"categories":[],"categories_nodes":[],"categories_segments":[],"categories_sizes":[],"default_left":[0,0,0,0,0,0,0,0,0,0,0,0,0,0,0,0,0,0,0,0,0,0,0,0,0,0,0,0,0,0,0],"id":11,"left_children":[1,3,5,7,9,11,13,-1,-1,15,17,19,-1,21,-1,23,25,-1,-1,27,29,-1,-1,-1,-1,-1,-1,-1,-1,-1,-1],"loss_changes":[1.9105925E1,3.457737E0,3.6952953E0,5.2407923E0,3.2038784E0,3.466885E0,1.5828323E-1,0E0,0E0,1.4197725E0,5.666938E-1,3.643087E-1,0E0,2.2492123E-1,0E0,7.830588E-1,2.3991275E-1,0E0,0E0,1.9417128E-1,1.9422102E-1,0E0,0E0,0E0,0E0,0E0,0E0,0E0,0E0,0E0,0E0],"parents":[2147483647,0,0,1,1,2,2,3,3,4,4,5,5,6,6,9,9,10,10,11,11,13,13,15,15,16,16,19,19,20,20],"right_children":[2,4,6,8,10,12,14,-1,-1,16,18,20,-1,22,-1,24,26,-1,-1,28,30,-1,-1,-1,-1,-1,-1,-1,-1,-1,-1],"split_conditions":[-1.9920069E-1,-3.5514018E-1,4.182415E-1,-6.2602884E-1,4.7422862E-1,1.6448598E0,1.4107988E0,-5.936826E-3,2.631746E-2,-3.2364273E-1,-5.245218E-1,0E0,1.8560912E-2,7.777778E-1,-3.0125864E-3,-4.2497864E-1,-1.2345679E-2,2.0407628E-2,8.512652E-3,4.9193907E-1,5.420561E-1,-6.0606343E-3,-1.4108267E-2,-8.915494E-3,1.1189795E-3,8.933942E-3,6.2586616E-5,-2.3711107E-3,2.8440391E-3,-6.2486804E-3,-2.5296322E-5],"split_indices":[1,7,1,14,8,7,15,0,0,15,1,1,0,9,0,11,9,0,0,3,7,0,0,0,0,0,0,0,0,0,0],"split_type":[0,0,0,0,0,0,0,0,0,0,0,0,0,0,0,0,0,0,0,0,0,0,0,0,0,0,0,0,0,0,0],"sum_hessian":[1.01E2,4.3E1,5.8E1,1.1E1,3.2E1,3.3E1,2.5E1,2E0,9E0,2E1,1.2E1,3.1E1,2E0,2.3E1,2E0,1.1E1,9E0,5E0,7E0,1.1E1,2E1,5E0,1.8E1,4E0,7E0,7E0,2E0,8E0,3E0,1.7E1,3E0],"tree_param":{"num_deleted":"0","num_feature":"16","num_nodes":"31","size_leaf_vector":"1"}},{"base_weights":[-1.0682722E-2,7.688548E-1,-2.748931E-1,2.2452984E-2,4.4920558E-1,-4.766418E-2,-5.628256E-1,-1.5701838E-3,5.847174E-1,-1.2940483E-1,2.2675067E-2,-6.09312E-1,-2.840897E-3,7.4453557E-1,3.2020235E-3,-1.4547073E-2,-2.8894675E-1,-4.0116697E-3,-1.3174633E-2,4.814763E-3,1.6796017E-2,-1.2629297E-1,1.5038268E-1,-3.192473E-3,-8.362954E-3,-3.6290812E-3,3.1655352E-3,2.5266364E-1,-3.4650879E-3,1.6174351E-3,8.44371E-3],"categories":[],"categories_nodes":[],"categories_segments":[],"categories_sizes":[],"default_left":[0,0,0,0,0,0,0,0,0,0,0,0,0,0,0,0,0,0,0,0,0,0,0,0,0,0,0,0,0,0,0],"id":12,"left_children":[1,3,5,-1,7,9,11,-1,13,15,-1,17,-1,19,-1,21,23,-1,-1,-1,-1,25,27,-1,-1,-1,-1,29,-1,-1,-1],"loss_changes":[2.199392E1,2.3919477E0,5.1462526E0,0E0,1.2407122E0,4.4884915E0,5.229349E-1,0E0,6.725335E-1,7.71731E-1,0E0,4.0811348E-1,0E0,1.21723175E-1,0E0,5.1419944E-1,1.7623246E-1,0E0,0E0,0E0,0E0,2.9788965E-1,4.1583705E-1,0E0,0E0,0E0,0E0,1.7765373E-1,0E0,0E0,0E0],"parents":[2147483647,0,0,1,1,2,2,4,4,5,5,6,6,8,8,9,9,11,11,13,13,15,15,16,16,21,21,22,22,27,27],"right_children":[2,4,6,-1,8,10,12,-1,14,16,-1,18,-1,20,-1,22,24,-1,-1,-1,-1,26,28,-1,-1,-1,-1,30,-1,-1,-1],"split_conditions":[-3.8044533E-1,-3.364486E-1,3.4027976E-1,2.2452984E-2,-6.8438274E-1,1.6448598E0,1.4107988E0,-1.5701838E-3,1.0485889E-1,0E0,2.2675067E-2,2.8366378E-1,-2.840897E-3,-6.078708E-1,3.2020235E-3,2.5057748E-1,-1.09825626E-1,-4.0116697E-3,-1.3174633E-2,4.814763E-3,1.6796017E-2,1.3460815E-1,1.529098E0,-3.192473E-3,-8.362954E-3,-3.6290812E-3,3.1655352E-3,-7.476635E-2,-3.4650879E-3,1.6174351E-3,8.44371E-3],"split_indices":[1,7,1,0,8,7,15,0,3,1,0,0,0,3,0,8,3,0,0,0,0,0,11,0,0,0,0,7,0,0,0],"split_type":[0,0,0,0,0,0,0,0,0,0,0,0,0,0,0,0,0,0,0,0,0,0,0,0,0,0,0,0,0,0,0],"sum_hessian":[1.05E2,2.6E1,7.9E1,1.1E1,1.5E1,4.5E1,3.4E1,3E0,1.2E1,4.3E1,2E0,3E1,4E0,8E0,4E0,2.6E1,1.7E1,4E0,2.6E1,2E0,6E0,1.6E1,1E1,1E1,7E0,1.4E1,2E0,8E0,2E0,5E0,3E0],"tree_param":{"num_deleted":"0","num_feature":"16","num_nodes":"31","size_leaf_vector":"1"}},{"base_weights":[2.814436E-3,5.1745796E-1,-3.3008412E-1,3.6237386E-1,2.1212246E-2,-1.8733652E-1,-1.4093629E-2,7.788004E-1,1.8694831E-1,1.5930764E-2,-2.5394785E-1,-6.1570406E-3,2.2950742E-2,-2.7437443E-1,3.6152112E-1,1.591803E-3,-2.9276177E-1,-1.0037019E-2,-0E0,-0E0,8.045786E-3,-4.0176142E-2,-3.638649E-1,-2.739732E-3,1.2806326E-3,-8.062882E-3,-2.457815E-3],"categories":[],"categories_nodes":[],"categories_segments":[],"categories_sizes":[],"default_left":[0,0,0,0,0,0,0,0,0,0,0,0,0,0,0,0,0,0,0,0,0,0,0,0,0,0,0],"id":13,"left_children":[1,3,5,7,-1,9,-1,11,13,-1,15,-1,-1,17,19,-1,21,-1,-1,-1,-1,23,25,-1,-1,-1,-1],"loss_changes":[1.6979301E1,2.7585144E0,2.9871583E0,2.0954885E0,0E0,3.0971951E0,0E0,4.043438E0,2.0407326E0,0E0,6.012924E-1,0E0,0E0,4.804482E-1,2.368319E-1,0E0,6.454029E-1,0E0,0E0,0E0,0E0,1.1695099E-1,1.8181205E-1,0E0,0E0,0E0,0E0],"parents":[2147483647,0,0,1,1,2,2,3,3,5,5,7,7,8,8,10,10,13,13,14,14,16,16,21,21,22,22],"right_children":[2,4,6,8,-1,10,-1,12,14,-1,16,-1,-1,18,20,-1,22,-1,-1,-1,-1,24,26,-1,-1,-1,-1],"split_conditions":[-1.9920069E-1,2.784287E-1,1.5675992E0,-5.312753E-1,2.1212246E-2,-1.290993E0,-1.4093629E-2,-6.2602884E-1,-4.2497864E-1,1.5930764E-2,-8.832497E-1,-6.1570406E-3,2.2950742E-2,-2.8395063E-1,-6.8438274E-1,1.591803E-3,-2.1324579E-2,-1.0037019E-2,-0E0,-0E0,8.045786E-3,6.904354E-2,1.3457944E0,-2.739732E-3,1.2806326E-3,-8.062882E-3,-2.457815E-3],"split_indices":[1,14,1,11,0,14,0,14,11,0,15,0,0,9,8,0,1,0,0,0,0,14,7,0,0,0,0],"split_type":[0,0,0,0,0,0,0,0,0,0,0,0,0,0,0,0,0,0,0,0,0,0,0,0,0,0,0],"sum_hessian":[9.7E1,3.8E1,5.9E1,3.1E1,7E0,4.4E1,1.5E1,8E0,2.3E1,2E0,4.2E1,2E0,6E0,6E0,1.7E1,4E0,3.8E1,3E0,3E0,2E0,1.5E1,9E0,2.9E1,5E0,4E0,2.4E1,5E0],"tree_param":{"num_deleted":"0","num_feature":"16","num_nodes":"27","size_leaf_vector":"1"}},{"base_weights":[4.8504323E-3,6.396777E-1,-2.189472E-1,-6.845373E-3,7.322224E-1,-4.0330883E-2,-5.776524E-1,2.0191528E-2,3.1617787E-1,-1.0762759E-1,2.2125116E-2,-6.152166E-1,-1.0250927E-3,-9.210351E-3,1.3195355E-2,2.8306958E-1,-1.8736957E-1,-4.2896736E-3,-1.359278E-2,-3.998389E-3,3.176027E-3,4.750705E-1,-4.5191143E-3,-2.1525607E-1,4.6432894E-3,2.2460653E-3,1.1554334E-2,-2.4693318E-1,-0E0,-5.4142598E-2,-3.033965E-1,-2.5145358E-3,2.4292558E-3,-3.6363017E-3,-8.840408E-3],"categories":[],"categories_nodes":[],"categories_segments":[],"categories_sizes":[],"default_left":[0,0,0,0,0,0,0,0,0,0,0,0,0,0,0,0,0,0,0,0,0,0,0,0,0,0,0,0,0,0,0,0,0,0,0],"id":14,"left_children":[1,3,5,-1,7,9,11,-1,13,15,-1,17,-1,19,-1,21,23,-1,-1,-1,-1,25,-1,27,-1,-1,-1,29,-1,31,33,-1,-1,-1,-1],"loss_changes":[1.524185E1,2.8340816E0,4.9764824E0,0E0,2.5484009E0,4.1859226E0,4.1593647E-1,0E0,1.4127342E0,1.6635268E0,0E0,3.8440514E-1,0E0,2.6014885E-1,0E0,1.0118562E0,5.630547E-1,0E0,0E0,0E0,0E0,1.267755E-1,0E0,3.1003463E-1,0E0,0E0,0E0,3.5058618E-1,0E0,1.4140323E-1,3.2916522E-1,0E0,0E0,0E0,0E0],"parents":[2147483647,0,0,1,1,2,2,4,4,5,5,6,6,8,8,9,9,11,11,13,13,15,15,16,16,21,21,23,23,27,27,29,29,30,30],"right_children":[2,4,6,-1,8,10,12,-1,14,16,-1,18,-1,20,-1,22,24,-1,-1,-1,-1,26,-1,28,-1,-1,-1,30,-1,32,34,-1,-1,-1,-1],"split_conditions":[-3.5439768E-1,-1.4836497E0,7.777778E-1,-6.845373E-3,-3.8271606E-1,4.3076925E0,1.4107988E0,2.0191528E-2,-4.486234E-1,-3.3333334E-1,2.2125116E-2,2.9179195E-1,-1.0250927E-3,-4.6123496E-1,1.3195355E-2,-1.0128116E-1,1.9316121E0,-4.2896736E-3,-1.359278E-2,-3.998389E-3,3.176027E-3,3.03133E-1,-4.5191143E-3,1.4615384E0,4.6432894E-3,2.2460653E-3,1.1554334E-2,-2.1736985E-1,-0E0,4.4549536E-3,-2.4546394E-1,-2.5145358E-3,2.4292558E-3,-3.6363017E-3,-8.840408E-3],"split_indices":[0,15,9,0,9,12,15,0,0,9,0,0,0,8,0,3,8,0,0,0,0,8,0,12,0,0,0,0,0,11,3,0,0,0,0],"split_type":[0,0,0,0,0,0,0,0,0,0,0,0,0,0,0,0,0,0,0,0,0,0,0,0,0,0,0,0,0,0,0,0,0,0,0],"sum_hessian":[1.05E2,2.7E1,7.8E1,2E0,2.5E1,5.3E1,2.5E1,1.4E1,1.1E1,5.1E1,2E0,2.3E1,2E0,6E0,5E0,8E0,4.3E1,4E0,1.9E1,3E0,3E0,6E0,2E0,4.1E1,2E0,2E0,4E0,3.6E1,5E0,9E0,2.7E1,7E0,2E0,1.6E1,1.1E1],"tree_param":{"num_deleted":"0","num_feature":"16","num_nodes":"35","size_leaf_vector":"1"}},{"base_weights":[1.7308373E-2,4.8710558E-1,-3.07185E-1,9.476285E-1,2.526247E-1,-1.2026738E-1,-5.2628964E-1,2.5127926E-1,2.3820804E-2,-1.6214596E-1,4.4286668E-1,-2.112538E-1,1.7746782E-2,-5.8178407E-1,-2.693173E-3,-4.9445317E-3,1.3987173E-2,-3.6675912E-1,9.5819026E-2,1.3095652E-2,5.659914E-3,-2.4696498E-1,-0E0,-1.6012181E-3,-1.2384213E-2,-9.785438E-3,-9.564473E-4,-8.0086244E-4,4.6614963E-3,-1.4173128E-1,-6.698643E-3,-4.343927E-3,1.9019343E-3],"categories":[],"categories_nodes":[],"categories_segments":[],"categories_sizes":[],"default_left":[0,0,0,0,0,0,0,0,0,0,0,0,0,0,0,0,0,0,0,0,0,0,0,0,0,0,0,0,0,0,0,0,0],"id":15,"left_children":[1,3,5,7,9,11,13,15,-1,17,19,21,-1,23,-1,-1,-1,25,27,-1,-1,29,-1,-1,-1,-1,-1,-1,-1,31,-1,-1,-1],"loss_changes":[1.6022015E1,4.283885E0,2.4112291E0,1.9294796E0,2.4670854E0,3.3285935E0,4.5854664E-1,1.3349645E0,0E0,5.900668E-1,4.3238497E-1,2.350378E-1,0E0,3.311653E-1,0E0,0E0,0E0,1.573354E-1,1.21875554E-1,0E0,0E0,1.640625E-1,0E0,0E0,0E0,0E0,0E0,0E0,0E0,3.0094817E-1,0E0,0E0,0E0],"parents":[2147483647,0,0,1,1,2,2,3,3,4,4,5,5,6,6,7,7,9,9,10,10,11,11,13,13,17,17,18,18,21,21,29,29],"right_children":[2,4,6,8,10,12,14,16,-1,18,20,22,-1,24,-1,-1,-1,26,28,-1,-1,30,-1,-1,-1,-1,-1,-1,-1,32,-1,-1,-1],"split_conditions":[-2.5555238E-1,-3.364486E-1,4.182415E-1,-6.9728804E-1,-2.2127584E-1,1.6448598E0,1.4107988E0,2.1772158E-1,2.3820804E-2,9.192118E-1,-4.6491578E-1,4.8598132E-1,1.7746782E-2,2.8366378E-1,-2.693173E-3,-4.9445317E-3,1.3987173E-2,-2.4299066E-1,-4.600628E-1,1.3095652E-2,5.659914E-3,4.0422495E-2,-0E0,-1.6012181E-3,-1.2384213E-2,-9.785438E-3,-9.564473E-4,-8.0086244E-4,4.6614963E-3,1.3460815E-1,-6.698643E-3,-4.343927E-3,1.9019343E-3],"split_indices":[1,7,1,1,11,7,15,3,0,13,1,7,0,0,0,0,0,7,1,0,0,1,0,0,0,0,0,0,0,0,0,0,0],"split_type":[0,0,0,0,0,0,0,0,0,0,0,0,0,0,0,0,0,0,0,0,0,0,0,0,0,0,0,0,0,0,0,0,0],"sum_hessian":[1.03E2,4.2E1,6.1E1,1.3E1,2.9E1,3.4E1,2.7E1,4E0,9E0,9E0,2E1,3.2E1,2E0,2.3E1,4E0,2E0,2E0,5E0,4E0,7E0,1.3E1,2.7E1,5E0,2E0,2.1E1,3E0,2E0,2E0,2E0,1.4E1,1.3E1,1.1E1,3E0],"tree_param":{"num_deleted":"0","num_feature":"16","num_nodes":"33","size_leaf_vector":"1"}},{"base_weights":[5.0169174E-2,5.121981E-1,-3.5215008E-1,9.3102336E-1,3.2717666E-1,-1.4782073E-1,-5.403312E-1,-1.9740094E-3,2.4598414E-2,-1.1601992E-2,6.533344E-1,-1.7886554E-1,1.1632896E-3,-3.4110832E-3,-5.9068763E-1,-9.288912E-3,6.778131E-2,1.8703615E-2,8.522921E-3,3.7917073E-4,-4.024795E-3,-1.2610421E-2,-4.1778004E-3,5.7656947E-3,-4.956433E-2,1.3528007E-1,-4.8562936E-3,-1.3023218E-3,5.5351434E-3],"categories":[],"categories_nodes":[],"categories_segments":[],"categories_sizes":[],"default_left":[0,0,0,0,0,0,0,0,0,0,0,0,0,0,0,0,0,0,0,0,0,0,0,0,0,0,0,0,0],"id":16,"left_children":[1,3,5,7,9,11,13,-1,-1,15,17,19,-1,-1,21,-1,23,-1,-1,-1,-1,-1,-1,-1,25,27,-1,-1,-1],"loss_changes":[1.9156454E1,3.2891712E0,1.9661126E0,4.543462E0,3.9390872E0,2.0152724E-1,3.4451103E-1,0E0,0E0,7.182151E-1,6.1792326E-1,1.3269728E-1,0E0,0E0,1.4934921E-1,0E0,4.521626E-1,0E0,0E0,0E0,0E0,0E0,0E0,0E0,4.3653515E-1,2.0929429E-1,0E0,0E0,0E0],"parents":[2147483647,0,0,1,1,2,2,3,3,4,4,5,5,6,6,9,9,10,10,11,11,14,14,16,16,24,24,25,25],"right_children":[2,4,6,8,10,12,14,-1,-1,16,18,20,-1,-1,22,-1,24,-1,-1,-1,-1,-1,-1,-1,26,28,-1,-1,-1],"split_conditions":[-1.9920069E-1,-3.364486E-1,3.3399943E-1,-6.2602884E-1,4.343886E-2,7.185629E-1,4.1949353E-1,-1.9740094E-3,2.4598414E-2,-5.1625633E-1,-3.8404435E-1,-3.283922E-1,1.1632896E-3,-3.4110832E-3,1.2719873E0,-9.288912E-3,-6.167375E-2,1.8703615E-2,8.522921E-3,3.7917073E-4,-4.024795E-3,-1.2610421E-2,-4.1778004E-3,5.7656947E-3,-2.1556886E-1,-4.3257847E-1,-4.8562936E-3,-1.3023218E-3,5.5351434E-3],"split_indices":[1,7,1,14,8,2,0,0,0,0,0,0,0,0,14,0,14,0,0,0,0,0,0,0,2,0,0,0,0],"split_type":[0,0,0,0,0,0,0,0,0,0,0,0,0,0,0,0,0,0,0,0,0,0,0,0,0,0,0,0,0],"sum_hessian":[1.01E2,4.7E1,5.4E1,1.3E1,3.4E1,2.7E1,2.7E1,3E0,1E1,1.7E1,1.7E1,2.4E1,3E0,4E0,2.3E1,2E0,1.5E1,6E0,1.1E1,2E0,2.2E1,2E1,3E0,5E0,1E1,5E0,5E0,2E0,3E0],"tree_param":{"num_deleted":"0","num_feature":"16","num_nodes":"29","size_leaf_vector":"1"}},{"base_weights":[-0E0,5.54127E-1,-2.2417511E-1,6.285694E-1,-5.840901E-3,-7.1452685E-2,-5.7736206E-1,8.175447E-1,2.5310355E-1,1.5559352E-2,-1.21978335E-1,-6.4823907E-3,-1.3345345E-2,1.7931366E-1,1.0415325E0,-1.284957E-3,6.837517E-3,1.873242E-2,-2.3281865E-1,-7.663719E-3,1.1627199E-2,2.4120674E-2,6.8979296E-3,-7.151968E-2,2.4952574E-1,-2.6016766E-1,1.1519091E-3,-4.9805893E-3,6.7640126E-2,7.881163E-3,-8.240701E-4,-3.1465362E-3,-7.345496E-3,-0E0,4.6688146E-3],"categories":[],"categories_nodes":[],"categories_segments":[],"categories_sizes":[],"default_left":[0,0,0,0,0,0,0,0,0,0,0,0,0,0,0,0,0,0,0,0,0,0,0,0,0,0,0,0,0,0,0,0,0,0,0],"id":17,"left_children":[1,3,5,7,-1,9,11,13,15,-1,17,-1,-1,19,21,-1,-1,23,25,-1,-1,-1,-1,27,29,31,-1,-1,33,-1,-1,-1,-1,-1,-1],"loss_changes":[1.29305315E1,2.1069574E0,3.8853924E0,1.6727171E0,0E0,2.3039246E0,1.8547964E-1,2.2643623E0,3.5961962E-1,0E0,8.2118756E-1,0E0,0E0,1.5994917E0,9.1871643E-1,0E0,0E0,5.14727E-1,2.6557553E-1,0E0,0E0,0E0,0E0,4.549212E-1,3.4566054E-1,1.871624E-1,0E0,0E0,1.17731854E-1,0E0,0E0,0E0,0E0,0E0,0E0],"parents":[2147483647,0,0,1,1,2,2,3,3,5,5,6,6,7,7,8,8,10,10,13,13,14,14,17,17,18,18,23,23,24,24,25,25,28,28],"right_children":[2,4,6,8,-1,10,12,14,16,-1,18,-1,-1,20,22,-1,-1,24,26,-1,-1,-1,-1,28,30,32,-1,-1,34,-1,-1,-1,-1,-1,-1],"split_conditions":[-3.934913E-1,5.810396E-1,8.735435E-1,-3.3333334E-1,-5.840901E-3,-1.290993E0,1.2349129E0,-4.3604818E-1,-5.48644E-1,1.5559352E-2,-3.0602342E-2,-6.4823907E-3,-1.3345345E-2,1.0314103E0,-5.812161E-1,-1.284957E-3,6.837517E-3,2.5192434E-1,1.2139006E0,-7.663719E-3,1.1627199E-2,2.4120674E-2,6.8979296E-3,-1.9161677E-1,1.0430456E0,-1.09825626E-1,1.1519091E-3,-4.9805893E-3,9.104012E-1,7.881163E-3,-8.240701E-4,-3.1465362E-3,-7.345496E-3,-0E0,4.6688146E-3],"split_indices":[1,3,0,9,0,14,1,14,1,0,1,0,0,8,1,0,0,14,3,0,0,0,0,2,14,3,0,0,8,0,0,0,0,0,0],"split_type":[0,0,0,0,0,0,0,0,0,0,0,0,0,0,0,0,0,0,0,0,0,0,0,0,0,0,0,0,0,0,0,0,0,0,0],"sum_hessian":[1.02E2,2.9E1,7.3E1,2.7E1,2E0,5.2E1,2.1E1,1.7E1,1E1,2E0,5E1,7E0,1.4E1,5E0,1.2E1,2E0,8E0,2.2E1,2.8E1,2E0,3E0,9E0,3E0,1.6E1,6E0,2.6E1,2E0,7E0,9E0,4E0,2E0,1.5E1,1.1E1,7E0,2E0],"tree_param":{"num_deleted":"0","num_feature":"16","num_nodes":"35","size_leaf_vector":"1"}},{"base_weights":[3.8186397E-2,8.166417E-1,-2.8087997E-1,1.0694329E0,8.884131E-3,-4.5707177E-2,-5.057587E-1,2.4057874E-2,4.88548E-1,-8.433192E-2,7.7363444E-3,-3.604959E-1,-1.3762223E-2,1.3792294E-2,1.8259718E-3,4.6061095E-2,-1.5018126E-1,-8.950026E-3,-4.5460547E-4,1.8275474E-1,-1.2679866E-3,-6.069626E-3,-1.5333125E-3,5.834819E-3,-0E0],"categories":[],"categories_nodes":[],"categories_segments":[],"categories_sizes":[],"default_left":[0,0,0,0,0,0,0,0,0,0,0,0,0,0,0,0,0,0,0,0,0,0,0,0,0],"id":18,"left_children":[1,3,5,7,-1,9,11,-1,13,15,-1,17,-1,-1,-1,19,21,-1,-1,23,-1,-1,-1,-1,-1],"loss_changes":[2.5617601E1,2.1980362E0,3.7823677E0,5.611172E-1,0E0,6.2049985E-1,6.2717247E-1,0E0,2.5831604E-1,3.178498E-1,0E0,6.18716E-1,0E0,0E0,0E0,2.030726E-1,2.0919758E-1,0E0,0E0,1.4005539E-1,0E0,0E0,0E0,0E0,0E0],"parents":[2147483647,0,0,1,1,2,2,3,3,5,5,6,6,8,8,9,9,11,11,15,15,16,16,19,19],"right_children":[2,4,6,8,-1,10,12,-1,14,16,-1,18,-1,-1,-1,20,22,-1,-1,24,-1,-1,-1,-1,-1],"split_conditions":[-3.8044533E-1,-5.245218E-1,2.132458E-1,-4.5475474E-1,8.884131E-3,9.7659695E-1,1.4715102E0,2.4057874E-2,-2.3368563E-1,-4.876719E-1,7.7363444E-3,3.046729E0,-1.3762223E-2,1.3792294E-2,1.8259718E-3,-4.2153156E-1,-1.9161677E-1,-8.950026E-3,-4.5460547E-4,-2.035928E-1,-1.2679866E-3,-6.069626E-3,-1.5333125E-3,5.834819E-3,-0E0],"split_indices":[1,1,1,0,0,15,1,0,3,13,0,7,0,0,0,8,2,0,0,2,0,0,0,0,0],"split_type":[0,0,0,0,0,0,0,0,0,0,0,0,0,0,0,0,0,0,0,0,0,0,0,0,0],"sum_hessian":[1.01E2,2.9E1,7.2E1,1.6E1,1.3E1,3.6E1,3.6E1,1.2E1,4E0,3.4E1,2E0,2.2E1,1.4E1,2E0,2E0,1.1E1,2.3E1,1.7E1,5E0,5E0,6E0,6E0,1.7E1,3E0,2E0],"tree_param":{"num_deleted":"0","num_feature":"16","num_nodes":"25","size_leaf_vector":"1"}},{"base_weights":[-2.459295E-2,3.906762E-1,-2.9080614E-1,-5.728258E-3,4.8445708E-1,1.0589456E-2,-3.3134243E-1,2.7127359E-2,3.487204E-1,-1.2640591E-1,-4.3890697E-1,1.0198368E-1,4.8093727E-1,-0E0,-4.026222E-3,1.6397382E-3,-4.7490036E-1,5.2228337E-3,-1.6806254E-3,6.07042E-1,3.275033E-3,-1.4357254E-3,3.1001624E-3,-1.0142745E-2,-1.6267784E-3,1.3799966E-2,1.3437661E-3],"categories":[],"categories_nodes":[],"categories_segments":[],"categories_sizes":[],"default_left":[0,0,0,0,0,0,0,0,0,0,0,0,0,0,0,0,0,0,0,0,0,0,0,0,0,0,0],"id":19,"left_children":[1,3,5,-1,7,-1,9,-1,11,13,15,17,19,21,-1,-1,23,-1,-1,25,-1,-1,-1,-1,-1,-1,-1],"loss_changes":[1.0495337E1,2.507986E0,2.0841842E0,0E0,3.2620573E0,0E0,1.122447E0,0E0,8.7134266E-1,1.9129264E-1,7.53181E-1,3.949243E-1,5.834899E-1,1.0815544E-1,0E0,0E0,3.3126783E-1,0E0,0E0,4.6011686E-1,0E0,0E0,0E0,0E0,0E0,0E0,0E0],"parents":[2147483647,0,0,1,1,2,2,4,4,6,6,8,8,9,9,10,10,11,11,12,12,13,13,16,16,19,19],"right_children":[2,4,6,-1,8,-1,10,-1,12,14,16,18,20,22,-1,-1,24,-1,-1,26,-1,-1,-1,-1,-1,-1,-1],"split_conditions":[-1.9920069E-1,-5.66106E-1,-1.6823477E0,-5.728258E-3,-5.998287E-1,1.0589456E-2,2.132458E-1,2.7127359E-2,-2.7973124E-1,-1.2345679E-2,-8.832497E-1,-7.5374216E-2,-1.3056757E-1,1.3460815E-1,-4.026222E-3,1.6397382E-3,1.2317709E0,5.2228337E-3,-1.6806254E-3,2.3812916E0,3.275033E-3,-1.4357254E-3,3.1001624E-3,-1.0142745E-2,-1.6267784E-3,1.3799966E-2,1.3437661E-3],"split_indices":[1,0,14,0,1,0,1,0,15,9,15,14,0,0,0,0,15,0,0,13,0,0,0,0,0,0,0],"split_type":[0,0,0,0,0,0,0,0,0,0,0,0,0,0,0,0,0,0,0,0,0,0,0,0,0,0,0],"sum_hessian":[9.3E1,3.6E1,5.7E1,4E0,3.2E1,2E0,5.5E1,3E0,2.9E1,2E1,3.5E1,1.1E1,1.8E1,8E0,1.2E1,2E0,3.3E1,6E0,5E0,1.2E1,6E0,6E0,2E0,3E1,3E0,1E1,2E0],"tree_param":{"num_deleted":"0","num_feature":"16","num_nodes":"27","size_leaf_vector":"1"}},{"base_weights":[3.9662078E-2,6.881406E-1,-2.0066534E-1,2.3977283E-1,8.153588E-1,-3.2890983E-2,-4.7956368E-1,1.0794789E-2,-8.135027E-3,2.4058094E-2,4.4683433E-1,-1.0276143E-1,2.1253329E-2,-5.289399E-1,-2.3353945E-3,1.8581893E-1,1.9253284E-2,6.882569E-2,-1.7838041E-1,-1.3450565E-3,-1.1236295E-2,-6.551906E-4,8.618986E-3,-2.3853618E-3,1.5715688E-1,-2.1189494E-1,2.019046E-3,8.2317006E-4,8.388662E-3,-6.5051E-2,-2.6446515E-1,-3.2148724E-3,1.8734772E-3,-7.034426E-3,-2.722868E-3],"categories":[],"categories_nodes":[],"categories_segments":[],"categories_sizes":[],"default_left":[0,0,0,0,0,0,0,0,0,0,0,0,0,0,0,0,0,0,0,0,0,0,0,0,0,0,0,0,0,0,0,0,0,0,0],"id":20,"left_children":[1,3,5,7,9,11,13,-1,-1,-1,15,17,-1,19,-1,21,-1,23,25,-1,-1,-1,-1,-1,27,29,-1,-1,-1,31,33,-1,-1,-1,-1],"loss_changes":[1.6706633E1,1.3531628E0,3.5827563E0,1.7843239E0,2.4395695E0,3.8405652E0,3.9315367E-1,0E0,0E0,0E0,1.4565845E0,6.4604425E-1,0E0,2.787571E-1,0E0,5.897389E-1,0E0,2.7175093E-1,3.507836E-1,0E0,0E0,0E0,0E0,0E0,2.713374E-1,1.8915272E-1,0E0,0E0,0E0,1.7365244E-1,1.4965999E-1,0E0,0E0,0E0,0E0],"parents":[2147483647,0,0,1,1,2,2,3,3,4,4,5,5,6,6,10,10,11,11,13,13,15,15,17,17,18,18,24,24,25,25,29,29,30,30],"right_children":[2,4,6,8,10,12,14,-1,-1,-1,16,18,-1,20,-1,22,-1,24,26,-1,-1,-1,-1,-1,28,30,-1,-1,-1,32,34,-1,-1,-1,-1],"split_conditions":[-3.8044533E-1,-4.064593E-1,4.182415E-1,-6.3589895E-1,-3.364486E-1,3.457944E0,1.4107988E0,1.0794789E-2,-8.135027E-3,2.4058094E-2,2.784287E-1,-1.976306E-1,2.1253329E-2,2.8366378E-1,-2.3353945E-3,-2.035928E-1,1.9253284E-2,-2.4299066E-1,1.2139006E0,-1.3450565E-3,-1.1236295E-2,-6.551906E-4,8.618986E-3,-2.3853618E-3,2.4148041E-1,-2.1324579E-2,2.019046E-3,8.2317006E-4,8.388662E-3,1.3460815E-1,7.643055E-2,-3.2148724E-3,1.8734772E-3,-7.034426E-3,-2.722868E-3],"split_indices":[1,14,1,14,7,7,15,0,0,0,14,1,0,0,0,2,0,7,3,0,0,0,0,0,14,1,0,0,0,0,15,0,0,0,0],"split_type":[0,0,0,0,0,0,0,0,0,0,0,0,0,0,0,0,0,0,0,0,0,0,0,0,0,0,0,0,0,0,0,0,0,0,0],"sum_hessian":[1.05E2,2.8E1,7.7E1,7E0,2.1E1,4.9E1,2.8E1,5E0,2E0,9E0,1.2E1,4.7E1,2E0,2.4E1,4E0,9E0,3E0,1.4E1,3.3E1,2E0,2.2E1,5E0,4E0,4E0,1E1,3E1,3E0,8E0,2E0,9E0,2.1E1,6E0,3E0,1.1E1,1E1],"tree_param":{"num_deleted":"0","num_feature":"16","num_nodes":"35","size_leaf_vector":"1"}},{"base_weights":[-6.142597E-3,3.819421E-1,-2.8012934E-1,7.559628E-1,1.910774E-1,1.0381483E-2,-3.2044718E-1,1.9288678E-1,9.7367585E-1,-6.4919614E-3,2.902677E-1,-2.355694E-3,-4.4895598E-1,-5.489695E-3,1.2585921E-2,2.2738865E-2,4.6965335E-3,6.2540537E-3,-4.044944E-3,3.305288E-1,-2.6021153E-5,-5.624313E-4,-4.867687E-1,7.68096E-3,7.115866E-4,-1.0510808E-2,-1.5673459E-3],"categories":[],"categories_nodes":[],"categories_segments":[],"categories_sizes":[],"default_left":[0,0,0,0,0,0,0,0,0,0,0,0,0,0,0,0,0,0,0,0,0,0,0,0,0,0,0],"id":21,"left_children":[1,3,5,7,9,-1,11,13,15,17,19,-1,21,-1,-1,-1,-1,-1,-1,23,-1,-1,25,-1,-1,-1,-1],"loss_changes":[1.0304498E1,2.616342E0,1.9831362E0,1.2891917E0,5.78977E-1,0E0,1.3228607E0,1.2280397E0,6.8150806E-1,6.770379E-1,2.5639153E-1,0E0,4.5994806E-1,0E0,0E0,0E0,0E0,0E0,0E0,2.12726E-1,0E0,0E0,3.7345695E-1,0E0,0E0,0E0,0E0],"parents":[2147483647,0,0,1,1,2,2,3,3,4,4,6,6,7,7,8,8,9,9,10,10,12,12,19,19,22,22],"right_children":[2,4,6,8,10,-1,12,14,16,18,20,-1,22,-1,-1,-1,-1,-1,-1,24,-1,-1,26,-1,-1,-1,-1],"split_conditions":[-1.9920069E-1,-5.261205E-1,-1.6823477E0,-5.66106E-1,-1.4152423E-1,1.0381483E-2,2.0336854E-1,2.1772158E-1,-4.1042784E-1,-6.921238E-1,5.810396E-1,-2.355694E-3,-9.479588E-1,-5.489695E-3,1.2585921E-2,2.2738865E-2,4.6965335E-3,6.2540537E-3,-4.044944E-3,-9.091336E-2,-2.6021153E-5,-5.624313E-4,1.2317709E0,7.68096E-3,7.115866E-4,-1.0510808E-2,-1.5673459E-3],"split_indices":[1,1,14,0,11,0,1,3,11,14,3,0,14,0,0,0,0,0,0,0,0,0,15,0,0,0,0],"split_type":[0,0,0,0,0,0,0,0,0,0,0,0,0,0,0,0,0,0,0,0,0,0,0,0,0,0,0],"sum_hessian":[9.5E1,3.9E1,5.6E1,1.2E1,2.7E1,2E0,5.4E1,4E0,8E0,9E0,1.8E1,2.2E1,3.2E1,2E0,2E0,6E0,2E0,3E0,6E0,1.6E1,2E0,3E0,2.9E1,1.3E1,3E0,2.6E1,3E0],"tree_param":{"num_deleted":"0","num_feature":"16","num_nodes":"27","size_leaf_vector":"1"}},{"base_weights":[-3.1058282E-2,2.7858043E-1,-2.3876078E-1,1.4133331E-1,5.6856626E-1,-1.0906947E-1,-4.4878253E-1,-2.6063712E-2,6.1370575E-1,1.63815E-2,2.0662986E-1,-1.4415526E-1,5.59795E-3,-1.179482E-2,-5.9466353E-3,4.6610754E-2,-9.735119E-3,1.8789465E-2,-2.009508E-3,-0E0,8.101335E-3,-2.3714663E-1,-3.680182E-2,-6.5340684E-3,1.4972049E-1,-5.683652E-3,-4.742376E-2,2.3015502E-3,-2.36016E-3,9.311882E-3,-4.4775728E-2,1.4766933E-3,-3.7241518E-3,3.955433E-3,-3.8252685E-3],"categories":[],"categories_nodes":[],"categories_segments":[],"categories_sizes":[],"default_left":[0,0,0,0,0,0,0,0,0,0,0,0,0,0,0,0,0,0,0,0,0,0,0,0,0,0,0,0,0,0,0,0,0,0,0],"id":22,"left_children":[1,3,5,7,9,11,13,15,17,-1,19,21,-1,-1,-1,23,-1,-1,-1,-1,-1,25,27,-1,29,-1,31,-1,-1,-1,33,-1,-1,-1,-1],"loss_changes":[5.7863655E0,1.2814426E0,1.366118E0,2.130677E0,7.255349E-1,5.044271E-1,1.6290998E-1,7.363138E-1,1.8068926E0,0E0,2.3606181E-1,2.9331487E-1,0E0,0E0,0E0,7.2407776E-1,0E0,0E0,0E0,0E0,0E0,1.05067015E-1,2.2354332E-1,0E0,9.844724E-1,0E0,1.0912942E-1,0E0,0E0,0E0,3.9247775E-1,0E0,0E0,0E0,0E0],"parents":[2147483647,0,0,1,1,2,2,3,3,4,4,5,5,6,6,7,7,8,8,10,10,11,11,15,15,21,21,22,22,24,24,26,26,30,30],"right_children":[2,4,6,8,10,12,14,16,18,-1,20,22,-1,-1,-1,24,-1,-1,-1,-1,-1,26,28,-1,30,-1,32,-1,-1,-1,34,-1,-1,-1,-1],"split_conditions":[-2.0179477E-1,4.1309137E-2,6.858908E-1,2.7769598E-1,4.4548157E-1,1.1037085E0,-4.0181436E-2,2.5130153E-1,-3.8404435E-1,1.63815E-2,-3.0964813E-1,1.8941449E-1,5.59795E-3,-1.179482E-2,-5.9466353E-3,4.2467196E-2,-9.735119E-3,1.8789465E-2,-2.009508E-3,-0E0,8.101335E-3,1.6540594E-1,3.3028457E-1,-6.5340684E-3,-3.17757E-1,-5.683652E-3,2.3376715E-1,2.3015502E-3,-2.36016E-3,9.311882E-3,-5.168671E-1,1.4766933E-3,-3.7241518E-3,3.955433E-3,-3.8252685E-3],"split_indices":[0,15,0,14,15,3,11,14,0,0,3,11,0,0,0,3,0,0,0,0,0,0,15,0,7,0,0,0,0,0,0,0,0,0,0],"split_type":[0,0,0,0,0,0,0,0,0,0,0,0,0,0,0,0,0,0,0,0,0,0,0,0,0,0,0,0,0,0,0,0,0,0,0],"sum_hessian":[8.8E1,3.5E1,5.3E1,2.5E1,1E1,3.4E1,1.9E1,1.9E1,6E0,5E0,5E0,3.2E1,2E0,8E0,1.1E1,1.7E1,2E0,4E0,2E0,3E0,2E0,1.6E1,1.6E1,3E0,1.4E1,1.2E1,4E0,5E0,1.1E1,5E0,9E0,2E0,2E0,3E0,6E0],"tree_param":{"num_deleted":"0","num_feature":"16","num_nodes":"35","size_leaf_vector":"1"}},{"base_weights":[4.1133054E-3,3.0524063E-1,-3.216501E-1,6.546881E-1,1.2887591E-1,1.0361339E-2,-3.7508035E-1,-6.169641E-3,8.214612E-1,2.4671307E-2,4.5195696E-1,-2.5555456E-1,-1.19454535E-2,2.0258587E-2,1.2911685E-3,-5.7890847E-2,4.1952297E-1,1.166194E-2,1.13821174E-4,-2.8642154E-1,1.6877748E-3,-5.072717E-3,7.891922E-2,-0E0,1.3759852E-2,-7.0788017E-3,-2.389882E-3,4.8243073E-3,-2.071011E-3],"categories":[],"categories_nodes":[],"categories_segments":[],"categories_sizes":[],"default_left":[0,0,0,0,0,0,0,0,0,0,0,0,0,0,0,0,0,0,0,0,0,0,0,0,0,0,0,0,0],"id":23,"left_children":[1,3,5,7,9,-1,11,-1,13,15,17,19,-1,-1,-1,21,23,-1,-1,25,-1,-1,27,-1,-1,-1,-1,-1,-1],"loss_changes":[9.219492E0,2.8571506E0,2.1990013E0,2.8747973E0,1.0858489E0,0E0,9.040632E-1,0E0,1.8557768E0,9.4064444E-1,4.0598965E-1,3.591647E-1,0E0,0E0,0E0,6.5342575E-1,5.400041E-1,0E0,0E0,2.2594261E-1,0E0,0E0,4.5334244E-1,0E0,0E0,0E0,0E0,0E0,0E0],"parents":[2147483647,0,0,1,1,2,2,3,3,4,4,6,6,8,8,9,9,10,10,11,11,15,15,16,16,19,19,22,22],"right_children":[2,4,6,8,10,-1,12,-1,14,16,18,20,-1,-1,-1,22,24,-1,-1,26,-1,-1,28,-1,-1,-1,-1,-1,-1],"split_conditions":[-1.2345679E-2,-3.580247E-1,-1.6823477E0,-1.3242344E0,1.3357111E0,1.0361339E-2,1.5185186E0,-6.169641E-3,-3.9778706E-1,6.186188E-1,1.4552337E0,9.517188E-1,-1.19454535E-2,2.0258587E-2,1.2911685E-3,-9.962402E-2,-1.274235E0,1.166194E-2,1.13821174E-4,3.043891E-1,1.6877748E-3,-5.072717E-3,-1.9058281E-1,-0E0,1.3759852E-2,-7.0788017E-3,-2.389882E-3,4.8243073E-3,-2.071011E-3],"split_indices":[9,9,14,15,8,0,9,0,0,15,13,3,0,0,0,11,3,0,0,8,0,0,8,0,0,0,0,0,0],"split_type":[0,0,0,0,0,0,0,0,0,0,0,0,0,0,0,0,0,0,0,0,0,0,0,0,0,0,0,0,0],"sum_hessian":[9.2E1,4.8E1,4.4E1,1.5E1,3.3E1,2E0,4.2E1,2E0,1.3E1,2.6E1,7E0,2.9E1,1.3E1,1E1,3E0,2.2E1,4E0,5E0,2E0,2.7E1,2E0,9E0,1.3E1,2E0,2E0,1.8E1,9E0,7E0,6E0],"tree_param":{"num_deleted":"0","num_feature":"16","num_nodes":"29","size_leaf_vector":"1"}},{"base_weights":[-5.24344E-3,3.459294E-1,-2.6585877E-1,4.406607E-2,5.6098086E-1,-8.5454814E-2,-4.7185433E-1,9.819662E-3,-5.7800643E-2,-3.7322578E-3,6.3522255E-1,-1.743925E-1,1.7167311E-2,-2.9457759E-3,-1.0312898E-2,-1.976561E-1,2.1487704E-1,2.656301E-2,4.2522943E-1,-9.002647E-3,-2.558347E-1,3.3136471E-3,-2.9689202E-1,5.560655E-4,7.186994E-3,4.855081E-1,2.545834E-3,4.1488037E-3,-1.6607046E-3,-5.6539495E-3,-0E0,-1.2112309E-2,-2.6301842E-3,5.266749E-1,1.964539E-3,3.1521444E-3,1.2078218E-2],"categories":[],"categories_nodes":[],"categories_segments":[],"categories_sizes":[],"default_left":[0,0,0,0,0,0,0,0,0,0,0,0,0,0,0,0,0,0,0,0,0,0,0,0,0,0,0,0,0,0,0,0,0,0,0,0,0],"id":24,"left_children":[1,3,5,7,9,11,13,-1,15,-1,17,19,-1,-1,-1,21,23,-1,25,27,29,-1,31,-1,-1,33,-1,-1,-1,-1,-1,-1,-1,35,-1,-1,-1],"loss_changes":[9.693669E0,2.8360023E0,2.1708546E0,9.8221684E-1,1.6064692E0,2.935296E0,2.557187E-1,0E0,6.890525E-1,0E0,2.7521353E0,4.0224385E-1,0E0,0E0,0E0,4.9498546E-1,1.1345586E-1,0E0,2.3610473E-1,1.9707021E-1,1.4396012E-1,0E0,3.572191E-1,0E0,0E0,1.4086652E-1,0E0,0E0,0E0,0E0,0E0,0E0,0E0,2.2774172E-1,0E0,0E0,0E0],"parents":[2147483647,0,0,1,1,2,2,3,3,4,4,5,5,6,6,8,8,10,10,11,11,15,15,16,16,18,18,19,19,20,20,22,22,25,25,33,33],"right_children":[2,4,6,8,10,12,14,-1,16,-1,18,20,-1,-1,-1,22,24,-1,26,28,30,-1,32,-1,-1,34,-1,-1,-1,-1,-1,-1,-1,36,-1,-1,-1],"split_conditions":[-1.9920069E-1,-2.7973124E-1,4.182415E-1,-6.803597E-1,-4.9142548E-1,1.3457944E0,4.1949353E-1,9.819662E-3,-2.4299066E-1,-3.7322578E-3,-5.998287E-1,0E0,1.7167311E-2,-2.9457759E-3,-1.0312898E-2,-7.5374216E-2,-4.5649314E-1,2.656301E-2,-1.3056757E-1,-2.035928E-1,4.6153846E-1,3.3136471E-3,-4.486234E-1,5.560655E-4,7.186994E-3,-2.4691358E-2,2.545834E-3,4.1488037E-3,-1.6607046E-3,-5.6539495E-3,-0E0,-1.2112309E-2,-2.6301842E-3,-2.1556886E-1,1.964539E-3,3.1521444E-3,1.2078218E-2],"split_indices":[1,15,1,1,0,7,0,0,7,0,1,1,0,0,0,14,0,0,0,2,12,0,0,0,0,9,0,0,0,0,0,0,0,2,0,0,0],"split_type":[0,0,0,0,0,0,0,0,0,0,0,0,0,0,0,0,0,0,0,0,0,0,0,0,0,0,0,0,0,0,0,0,0,0,0,0,0],"sum_hessian":[1.04E2,4.4E1,6E1,1.9E1,2.5E1,3.3E1,2.7E1,3E0,1.6E1,2E0,2.3E1,3.1E1,2E0,4E0,2.3E1,1.1E1,5E0,4E0,1.9E1,1.1E1,2E1,2E0,9E0,3E0,2E0,1.5E1,4E0,2E0,9E0,1.8E1,2E0,2E0,7E0,1.3E1,2E0,3E0,1E1],"tree_param":{"num_deleted":"0","num_feature":"16","num_nodes":"37","size_leaf_vector":"1"}},{"base_weights":[1.4817303E-2,6.3588816E-1,-2.082752E-1,2.104866E-2,3.0352062E-1,-2.7413148E-2,-4.5723495E-1,9.288942E-2,9.800812E-3,-9.31592E-2,1.693841E-2,-3.336271E-1,-1.3221759E-2,-1.9365359E-3,4.41104E-3,9.6329354E-2,-1.9868398E-1,-7.939945E-3,-1.847376E-3,-3.6966568E-3,4.4892807E-3,-2.2088487E-1,3.843619E-4,-6.593094E-3,-2.3945596E-3],"categories":[],"categories_nodes":[],"categories_segments":[],"categories_sizes":[],"default_left":[0,0,0,0,0,0,0,0,0,0,0,0,0,0,0,0,0,0,0,0,0,0,0,0,0],"id":25,"left_children":[1,3,5,-1,7,9,11,13,-1,15,-1,17,-1,-1,-1,19,21,-1,-1,-1,-1,23,-1,-1,-1],"loss_changes":[1.3615157E1,3.1445656E0,3.1809716E0,0E0,5.2477837E-1,2.4753337E0,4.359069E-1,2.517048E-1,0E0,8.491999E-1,0E0,2.354536E-1,0E0,0E0,0E0,5.858509E-1,1.5502739E-1,0E0,0E0,0E0,0E0,1.9066334E-1,0E0,0E0,0E0],"parents":[2147483647,0,0,1,1,2,2,4,4,5,5,6,6,7,7,9,9,11,11,15,15,16,16,21,21],"right_children":[2,4,6,-1,8,10,12,14,-1,16,-1,18,-1,-1,-1,20,22,-1,-1,-1,-1,24,-1,-1,-1],"split_conditions":[-3.8044533E-1,-5.812161E-1,4.182415E-1,2.104866E-2,-2.8308007E-1,1.3457944E0,2.2791607E0,-4.068315E-1,9.800812E-3,-1.976306E-1,1.693841E-2,5.64486E0,-1.3221759E-2,-1.9365359E-3,4.41104E-3,-2.4299066E-1,9.517188E-1,-7.939945E-3,-1.847376E-3,-3.6966568E-3,4.4892807E-3,7.692308E-2,3.843619E-4,-6.593094E-3,-2.3945596E-3],"split_indices":[1,1,1,0,15,7,1,8,0,1,0,7,0,0,0,7,3,0,0,0,0,12,0,0,0],"split_type":[0,0,0,0,0,0,0,0,0,0,0,0,0,0,0,0,0,0,0,0,0,0,0,0,0],"sum_hessian":[9.6E1,2.5E1,7.1E1,1E1,1.5E1,4.2E1,2.9E1,8E0,7E0,4E1,2E0,2E1,9E0,3E0,5E0,1.4E1,2.6E1,1.5E1,5E0,4E0,1E1,2.4E1,2E0,1E1,1.4E1],"tree_param":{"num_deleted":"0","num_feature":"16","num_nodes":"25","size_leaf_vector":"1"}},{"base_weights":[1.4556242E-2,4.3921307E-1,-1.4024888E-1,-1.1183355E-2,5.797635E-1,-2.2889179E-1,2.8051406E-1,1.033542E0,3.5292178E-1,-1.0874041E-1,-3.8449937E-1,-1.4540668E-1,7.414929E-1,5.132956E-3,2.466131E-2,1.5587083E-1,7.3722035E-1,-1.4380783E-1,6.5334267E-3,-3.1401473E-3,-9.574641E-3,-0E0,-6.207596E-3,2.1191332E-2,4.260921E-3,6.3961325E-3,-3.946594E-2,1.8088697E-2,4.703885E-3,-1.2815749E-2,-5.8255987E-3,-2.6019975E-3,3.123769E-3,-4.158995E-3,9.903508E-4,3.2306942E-3,-2.3734404E-3],"categories":[],"categories_nodes":[],"categories_segments":[],"categories_sizes":[],"default_left":[0,0,0,0,0,0,0,0,0,0,0,0,0,0,0,0,0,0,0,0,0,0,0,0,0,0,0,0,0,0,0,0,0,0,0,0,0],"id":26,"left_children":[1,3,5,-1,7,9,11,13,15,17,19,21,23,-1,-1,25,27,29,-1,-1,-1,31,-1,-1,-1,-1,33,-1,-1,35,-1,-1,-1,-1,-1,-1,-1],"loss_changes":[7.125574E0,4.395606E0,3.0055602E0,0E0,2.1729279E0,1.142832E0,2.916193E0,7.7463436E-1,1.2345815E0,6.241735E-1,4.6150255E-1,2.1619765E-1,8.2359695E-1,0E0,0E0,4.8897323E-1,1.7699552E-1,6.8061155E-1,0E0,0E0,0E0,1.2396243E-1,0E0,0E0,0E0,0E0,1.3108632E-1,0E0,0E0,4.0246132E-1,0E0,0E0,0E0,0E0,0E0,0E0,0E0],"parents":[2147483647,0,0,1,1,2,2,4,4,5,5,6,6,7,7,8,8,9,9,10,10,11,11,12,12,15,15,16,16,17,17,21,21,26,26,29,29],"right_children":[2,4,6,-1,8,10,12,14,16,18,20,22,24,-1,-1,26,28,30,-1,-1,-1,32,-1,-1,-1,-1,34,-1,-1,36,-1,-1,-1,-1,-1,-1,-1],"split_conditions":[-3.5439768E-1,-5.66106E-1,5.82742E-1,-1.1183355E-2,-3.364486E-1,4.4859812E-1,-2.8308007E-1,-9.059892E-1,2.3070048E-1,3.6164505E0,4.1949353E-1,-3.4825653E-1,1.3064774E-2,5.132956E-3,2.466131E-2,-1.7832683E-1,-1.8691589E-1,-1.8976842E-1,6.5334267E-3,-3.1401473E-3,-9.574641E-3,-6.793578E-1,-6.207596E-3,2.1191332E-2,4.260921E-3,6.3961325E-3,9.192118E-1,1.8088697E-2,4.703885E-3,-5.1728997E-2,-5.8255987E-3,-2.6019975E-3,3.123769E-3,-4.158995E-3,9.903508E-4,3.2306942E-3,-2.3734404E-3],"split_indices":[0,0,13,0,7,7,15,14,14,8,0,14,11,0,0,14,7,3,0,0,0,14,0,0,0,0,13,0,0,0,0,0,0,0,0,0,0],"split_type":[0,0,0,0,0,0,0,0,0,0,0,0,0,0,0,0,0,0,0,0,0,0,0,0,0,0,0,0,0,0,0,0,0,0,0,0,0],"sum_hessian":[1.06E2,2.8E1,7.8E1,3E0,2.5E1,6.5E1,1.3E1,7E0,1.8E1,3.8E1,2.7E1,7E0,6E0,2E0,5E0,1.3E1,5E0,3.6E1,2E0,9E0,1.8E1,4E0,3E0,3E0,3E0,7E0,6E0,3E0,2E0,2E1,1.6E1,2E0,2E0,2E0,4E0,7E0,1.3E1],"tree_param":{"num_deleted":"0","num_feature":"16","num_nodes":"37","size_leaf_vector":"1"}},{"base_weights":[7.103429E-3,3.4987196E-1,-2.438331E-1,4.246503E-1,-1.529064E-1,-7.535946E-2,-4.681777E-1,6.8024164E-1,2.865062E-1,-9.093106E-3,1.7326374E-3,-1.6077474E-1,1.6550465E-2,-6.038068E-3,-1.2019201E-2,-1.8611877E-3,8.5420775E-1,1.419397E-1,1.2886764E-2,-4.4246975E-2,-2.433937E-1,2.0926544E-2,5.5889348E-3,2.0677894E-1,-1.4786754E-3,-2.2181936E-3,2.8360575E-3,-5.824481E-3,-0E0,5.2374178E-3,2.6404913E-4],"categories":[],"categories_nodes":[],"categories_segments":[],"categories_sizes":[],"default_left":[0,0,0,0,0,0,0,0,0,0,0,0,0,0,0,0,0,0,0,0,0,0,0,0,0,0,0,0,0,0,0],"id":27,"left_children":[1,3,5,7,9,11,13,15,17,-1,-1,19,-1,-1,-1,-1,21,23,-1,25,27,-1,-1,29,-1,-1,-1,-1,-1,-1,-1],"loss_changes":[8.525203E0,1.6711769E0,2.0647454E0,1.0148435E0,5.098724E-1,2.688449E0,2.581606E-1,1.7699456E0,1.1749089E0,0E0,0E0,2.6854342E-1,0E0,0E0,0E0,0E0,6.792569E-1,3.0851388E-1,0E0,1.9867678E-1,2.0584285E-1,0E0,0E0,1.3966739E-1,0E0,0E0,0E0,0E0,0E0,0E0,0E0],"parents":[2147483647,0,0,1,1,2,2,3,3,4,4,5,5,6,6,7,7,8,8,11,11,16,16,17,17,19,19,20,20,23,23],"right_children":[2,4,6,8,10,12,14,16,18,-1,-1,20,-1,-1,-1,-1,22,24,-1,26,28,-1,-1,30,-1,-1,-1,-1,-1,-1,-1],"split_conditions":[-2.0713674E-1,4.1816723E-1,4.568941E-1,-5.580931E-1,-4.996254E-1,2.6923077E0,1.3971528E0,-6.2602884E-1,2.5192434E-1,-9.093106E-3,1.7326374E-3,4.0422495E-2,1.6550465E-2,-6.038068E-3,-1.2019201E-2,-1.8611877E-3,-6.029689E-1,1.6057515E-1,1.2886764E-2,4.9193907E-1,8.8461536E-1,2.0926544E-2,5.5889348E-3,-5.1728997E-2,-1.4786754E-3,-2.2181936E-3,2.8360575E-3,-5.824481E-3,-0E0,5.2374178E-3,2.6404913E-4],"split_indices":[1,3,1,1,8,12,0,14,14,0,0,1,0,0,0,0,1,14,0,3,12,0,0,0,0,0,0,0,0,0,0],"split_type":[0,0,0,0,0,0,0,0,0,0,0,0,0,0,0,0,0,0,0,0,0,0,0,0,0,0,0,0,0,0,0],"sum_hessian":[9.7E1,4.1E1,5.6E1,3.6E1,5E0,3.3E1,2.3E1,1.1E1,2.5E1,2E0,3E0,3.1E1,2E0,1.2E1,1.1E1,2E0,9E0,1.9E1,6E0,1.4E1,1.7E1,6E0,3E0,1.5E1,4E0,1.1E1,3E0,1.4E1,3E0,1.1E1,4E0],"tree_param":{"num_deleted":"0","num_feature":"16","num_nodes":"31","size_leaf_vector":"1"}},{"base_weights":[-2.6606824E-2,3.6048165E-1,-2.7573213E-1,2.4844053E-1,1.7098082E-2,-1.01174325E-1,-4.668585E-1,3.3192372E-1,-1.9371557E-1,1.47516895E-2,-1.7738953E-1,-1.893808E-3,-1.0019994E-2,4.618507E-1,3.1769468E-4,-8.024535E-3,2.2840914E-3,2.6202463E-3,-2.0473844E-1,-1.4067257E-3,5.600117E-1,-1.4082591E-1,-7.789268E-3,7.5951034E-1,5.300237E-3,-3.9800135E-3,-3.960343E-2,7.1262997E-3,1.9045094E-2,3.0976066E-3,-2.2228416E-3],"categories":[],"categories_nodes":[],"categories_segments":[],"categories_sizes":[],"default_left":[0,0,0,0,0,0,0,0,0,0,0,0,0,0,0,0,0,0,0,0,0,0,0,0,0,0,0,0,0,0,0],"id":28,"left_children":[1,3,5,7,-1,9,11,13,15,-1,17,-1,-1,19,-1,-1,-1,-1,21,-1,23,25,-1,27,-1,-1,29,-1,-1,-1,-1],"loss_changes":[1.0120009E1,1.9484944E0,2.0311694E0,1.3700609E0,0E0,2.3122365E0,2.7417994E-1,1.1767497E0,4.5790547E-1,0E0,3.125329E-1,0E0,0E0,1.1853967E0,0E0,0E0,0E0,0E0,2.581179E-1,0E0,7.556057E-1,1.1547333E-1,0E0,3.069768E-1,0E0,0E0,1.6588408E-1,0E0,0E0,0E0,0E0],"parents":[2147483647,0,0,1,1,2,2,3,3,5,5,6,6,7,7,8,8,10,10,13,13,18,18,20,20,21,21,23,23,26,26],"right_children":[2,4,6,8,-1,10,12,14,16,-1,18,-1,-1,20,-1,-1,-1,-1,22,-1,24,26,-1,28,-1,-1,30,-1,-1,-1,-1],"split_conditions":[-2.5555238E-1,2.784287E-1,4.182415E-1,2.0962137E-1,1.7098082E-2,-1.290993E0,2.8366378E-1,-4.3508422E-1,-3.4561172E-1,1.47516895E-2,-1.168656E0,-1.893808E-3,-1.0019994E-2,-6.9728804E-1,3.1769468E-4,-8.024535E-3,2.2840914E-3,2.6202463E-3,2.132458E-1,-1.4067257E-3,-5.245218E-1,1.3460815E-1,-7.789268E-3,-1.4424166E-1,5.300237E-3,-3.9800135E-3,-3.2379946E-1,7.1262997E-3,1.9045094E-2,3.0976066E-3,-2.2228416E-3],"split_indices":[1,14,1,14,0,14,0,1,0,0,15,0,0,1,0,0,0,0,1,0,1,0,0,15,0,0,8,0,0,0,0],"split_type":[0,0,0,0,0,0,0,0,0,0,0,0,0,0,0,0,0,0,0,0,0,0,0,0,0,0,0,0,0,0,0],"sum_hessian":[1.03E2,4E1,6.3E1,3.4E1,6E0,3.4E1,2.9E1,2.9E1,5E0,2E0,3.2E1,3E0,2.6E1,2E1,9E0,3E0,2E0,2E0,3E1,3E0,1.7E1,2.4E1,6E0,9E0,8E0,1.4E1,1E1,4E0,5E0,2E0,8E0],"tree_param":{"num_deleted":"0","num_feature":"16","num_nodes":"31","size_leaf_vector":"1"}},{"base_weights":[-2.9153453E-2,3.4096974E-1,-2.295405E-1,5.5411714E-1,1.2704997E-1,-2.872274E-1,2.7518326E-1,-6.284821E-2,8.2475674E-1,-9.364843E-2,3.4504336E-1,-2.026431E-1,-5.374881E-1,1.597368E-2,-7.3953845E-2,-5.9855985E-3,2.1037527E-3,2.6199254E-3,9.404092E-1,-3.3713775E-3,7.174893E-4,8.9885555E-3,1.0221953E-3,-1.0355359E-1,-6.425635E-3,-2.0409364E-3,-1.1864488E-2,-4.4282097E-3,1.2964148E-3,2.4435371E-2,3.9469612E-1,-2.3739325E-2,-6.2783468E-3,1.1224325E-2,1.2655457E-3,5.7064644E-3,-7.65524E-2,1.2489511E-3,-2.255357E-3],"categories":[],"categories_nodes":[],"categories_segments":[],"categories_sizes":[],"default_left":[0,0,0,0,0,0,0,0,0,0,0,0,0,0,0,0,0,0,0,0,0,0,0,0,0,0,0,0,0,0,0,0,0,0,0,0,0,0,0],"id":29,"left_children":[1,3,5,7,9,11,13,15,17,19,21,23,25,-1,27,-1,-1,-1,29,-1,-1,-1,-1,31,-1,-1,-1,-1,-1,-1,33,35,-1,-1,-1,-1,37,-1,-1],"loss_changes":[7.4097447E0,1.4573579E0,1.9727807E0,2.9666057E0,9.715572E-1,1.0659881E0,1.4109538E0,2.8926384E-1,7.3249054E-1,1.1635591E-1,2.3379707E-1,4.650153E-1,2.0971394E-1,0E0,1.3232712E-1,0E0,0E0,0E0,8.915405E-1,0E0,0E0,0E0,0E0,4.1211295E-1,0E0,0E0,0E0,0E0,0E0,0E0,1.7797792E-1,3.437385E-1,0E0,0E0,0E0,0E0,1.0771911E-1,0E0,0E0],"parents":[2147483647,0,0,1,1,2,2,3,3,4,4,5,5,6,6,7,7,8,8,9,9,10,10,11,11,12,12,14,14,18,18,23,23,30,30,31,31,36,36],"right_children":[2,4,6,8,10,12,14,16,18,20,22,24,26,-1,28,-1,-1,-1,30,-1,-1,-1,-1,32,-1,-1,-1,-1,-1,-1,34,36,-1,-1,-1,-1,38,-1,-1],"split_conditions":[-2.0179477E-1,-2.8395063E-1,8.6629343E-1,-4.074074E-1,-3.2364273E-1,1.5185186E0,1.0837848E0,2.1772158E-1,-1.3242344E0,-1.9161677E-1,-2.4691358E-2,2.784287E-1,4.1949353E-1,1.597368E-2,-1.6766468E-1,-5.9855985E-3,2.1037527E-3,2.6199254E-3,-1.6168648E-1,-3.3713775E-3,7.174893E-4,8.9885555E-3,1.0221953E-3,2.4089402E-1,-6.425635E-3,-2.0409364E-3,-1.1864488E-2,-4.4282097E-3,1.2964148E-3,2.4435371E-2,1.4552337E0,-3.3333334E-1,-6.2783468E-3,1.1224325E-2,1.2655457E-3,5.7064644E-3,-7.24971E-1,1.2489511E-3,-2.255357E-3],"split_indices":[0,9,13,9,15,9,13,3,15,2,9,14,0,0,2,0,0,0,11,0,0,0,0,3,0,0,0,0,0,0,13,9,0,0,0,0,13,0,0],"split_type":[0,0,0,0,0,0,0,0,0,0,0,0,0,0,0,0,0,0,0,0,0,0,0,0,0,0,0,0,0,0,0,0,0,0,0,0,0,0,0],"sum_hessian":[9.8E1,3.4E1,6.4E1,1.6E1,1.8E1,5.8E1,6E0,5E0,1.1E1,9E0,9E0,4.5E1,1.3E1,2E0,4E0,2E0,3E0,2E0,9E0,6E0,3E0,6E0,3E0,2.6E1,1.9E1,2E0,1.1E1,2E0,2E0,5E0,4E0,2E1,6E0,2E0,2E0,2E0,1.8E1,3E0,1.5E1],"tree_param":{"num_deleted":"0","num_feature":"16","num_nodes":"39","size_leaf_vector":"1"}},{"base_weights":[-3.9205793E-2,-1.1886022E-1,3.461191E-1,3.14389E-2,-2.4870034E-1,3.3381645E-2,7.738324E-1,-1.181126E-2,8.7566115E-3,-2.789519E-1,2.1223284E-3,3.1582038E-3,-1.6008769E-3,2.2086445E-2,4.4976873E-3,2.4334688E-1,-8.524071E-2,-2.0640604E-1,-9.110887E-3,1.2921365E-2,-1.2197564E-2,-2.933854E-1,1.21920034E-1,-6.47713E-2,-3.3774257E-1,-3.4624022E-1,2.2806228E-6,2.4223606E-1,-1.6452002E-3,-1.3726977E-1,4.2896398E-4,-8.07015E-3,-1.847164E-3,-9.07244E-3,-2.5738226E-3,1.2440543E-1,8.847447E-3,-3.8859537E-3,5.445585E-4,-1.1761965E-3,5.321931E-3],"categories":[],"categories_nodes":[],"categories_segments":[],"categories_sizes":[],"default_left":[0,0,0,0,0,0,0,0,0,0,0,0,0,0,0,0,0,0,0,0,0,0,0,0,0,0,0,0,0,0,0,0,0,0,0,0,0,0,0,0,0],"id":30,"left_children":[1,3,5,7,9,11,13,15,-1,17,-1,-1,-1,-1,-1,19,21,23,-1,-1,-1,25,27,29,31,33,-1,35,-1,37,-1,-1,-1,-1,-1,39,-1,-1,-1,-1,-1],"loss_changes":[3.0570045E0,1.6492782E0,2.1674004E0,7.33257E-1,5.2990437E-1,1.757982E-1,8.8868713E-1,6.7943275E-1,0E0,3.778422E-1,0E0,0E0,0E0,0E0,0E0,3.1465383E0,1.3033788E0,5.3313065E-1,0E0,0E0,0E0,2.6734507E-1,4.044159E-1,1.20789625E-1,1.7134929E-1,1.8708205E-1,0E0,1.2411058E-1,0E0,1.1580691E-1,0E0,0E0,0E0,0E0,0E0,2.4405757E-1,0E0,0E0,0E0,0E0,0E0],"parents":[2147483647,0,0,1,1,2,2,3,3,4,4,5,5,6,6,7,7,9,9,15,15,16,16,17,17,21,21,22,22,23,23,24,24,25,25,27,27,29,29,35,35],"right_children":[2,4,6,8,10,12,14,16,-1,18,-1,-1,-1,-1,-1,20,22,24,-1,-1,-1,26,28,30,32,34,-1,36,-1,38,-1,-1,-1,-1,-1,40,-1,-1,-1,-1,-1],"split_conditions":[9.192118E-1,4.7904193E-2,-2.715696E-1,3.6164505E0,1.5658804E0,1.1319659E-1,-4.266755E-2,-5.312753E-1,8.7566115E-3,2.8076923E0,2.1223284E-3,3.1582038E-3,-1.6008769E-3,2.2086445E-2,4.4976873E-3,-3.900968E-1,-3.2447562E-1,2.4148041E-1,-9.110887E-3,1.2921365E-2,-1.2197564E-2,6.47181E-1,-1.15384616E-1,6.5384614E-1,-1.788041E-2,-7.838977E-2,2.2806228E-6,-2.3076923E-1,-1.6452002E-3,6.904354E-2,4.2896398E-4,-8.07015E-3,-1.847164E-3,-9.07244E-3,-2.5738226E-3,-2.0796745E-1,8.847447E-3,-3.8859537E-3,5.445585E-4,-1.1761965E-3,5.321931E-3],"split_indices":[13,2,15,8,15,14,15,11,0,12,0,0,0,0,0,15,15,14,0,0,0,14,12,12,8,13,0,12,0,14,0,0,0,0,0,11,0,0,0,0,0],"split_type":[0,0,0,0,0,0,0,0,0,0,0,0,0,0,0,0,0,0,0,0,0,0,0,0,0,0,0,0,0,0,0,0,0,0,0,0,0,0,0,0,0],"sum_hessian":[9.8E1,8.2E1,1.6E1,3.8E1,4.4E1,1E1,6E0,3.5E1,3E0,4.1E1,3E0,5E0,5E0,3E0,3E0,7E0,2.8E1,3.1E1,1E1,5E0,2E0,1.4E1,1.4E1,1.6E1,1.5E1,1.2E1,2E0,9E0,5E0,9E0,7E0,1.1E1,4E0,7E0,5E0,7E0,2E0,7E0,2E0,3E0,4E0],"tree_param":{"num_deleted":"0","num_feature":"16","num_nodes":"41","size_leaf_vector":"1"}},{"base_weights":[-3.1525723E-3,3.6107358E-1,-2.6857233E-1,-5.554579E-3,4.3825617E-1,-1.3378069E-1,-4.3714604E-1,2.3265203E-2,2.9012647E-1,-1.6698268E-1,1.4437475E-3,-6.3904705E-3,-1.199278E-2,1.0913406E-1,4.1248223E-1,-1.6710842E-4,-2.1974008E-1,3.5707545E-3,-3.893196E-3,2.2206672E-3,1.0101374E-2,-2.660382E-3,-6.8474878E-3],"categories":[],"categories_nodes":[],"categories_segments":[],"categories_sizes":[],"default_left":[0,0,0,0,0,0,0,0,0,0,0,0,0,0,0,0,0,0,0,0,0,0,0],"id":31,"left_children":[1,3,5,-1,7,9,11,-1,13,15,-1,-1,-1,17,19,-1,21,-1,-1,-1,-1,-1,-1],"loss_changes":[9.658333E0,2.2085562E0,1.2023206E0,0E0,3.598165E0,2.5404423E-1,1.9430542E-1,0E0,6.336229E-1,2.264173E-1,0E0,0E0,0E0,3.4940797E-1,4.1260195E-1,0E0,1.4088762E-1,0E0,0E0,0E0,0E0,0E0,0E0],"parents":[2147483647,0,0,1,1,2,2,4,4,5,5,6,6,8,8,9,9,13,13,14,14,16,16],"right_children":[2,4,6,-1,8,10,12,-1,14,16,-1,-1,-1,18,20,-1,22,-1,-1,-1,-1,-1,-1],"split_conditions":[-1.9920069E-1,-6.581216E-1,4.568941E-1,-5.554579E-3,-5.998287E-1,9.517188E-1,2.2791607E0,2.3265203E-2,4.343886E-2,-2.1324579E-2,1.4437475E-3,-6.3904705E-3,-1.199278E-2,-2.5555238E-1,-8.878787E-1,-1.6710842E-4,2.4089402E-1,3.5707545E-3,-3.893196E-3,2.2206672E-3,1.0101374E-2,-2.660382E-3,-6.8474878E-3],"split_indices":[1,1,1,0,1,3,1,0,8,1,0,0,0,1,3,0,3,0,0,0,0,0,0],"split_type":[0,0,0,0,0,0,0,0,0,0,0,0,0,0,0,0,0,0,0,0,0,0,0],"sum_hessian":[9.8E1,4.1E1,5.7E1,4E0,3.7E1,3.3E1,2.4E1,5E0,3.2E1,2.9E1,4E0,1.6E1,8E0,1.4E1,1.8E1,8E0,2.1E1,1.2E1,2E0,5E0,1.3E1,1.4E1,7E0],"tree_param":{"num_deleted":"0","num_feature":"16","num_nodes":"23","size_leaf_vector":"1"}},{"base_weights":[-4.6584136E-3,5.6934226E-1,-1.8751106E-1,-6.078144E-3,6.6283816E-1,-5.335255E-2,-4.5508984E-1,8.6175334E-1,1.6965315E-1,-1.4903359E-1,3.251309E-1,-5.110438E-3,-1.1151993E-2,1.9792952E-2,4.113168E-3,-1.6850703E-3,5.699952E-3,-6.427378E-2,-2.623381E-1,-2.436536E-2,1.53879905E-2,1.6688427E-3,-2.722496E-3,-3.0409023E-1,-3.0366192E-4,-3.012117E-3,1.6593296E-3,-2.536942E-4,-6.8050753E-3],"categories":[],"categories_nodes":[],"categories_segments":[],"categories_sizes":[],"default_left":[0,0,0,0,0,0,0,0,0,0,0,0,0,0,0,0,0,0,0,0,0,0,0,0,0,0,0,0,0],"id":32,"left_children":[1,3,5,-1,7,9,11,13,15,17,19,-1,-1,-1,-1,-1,-1,21,23,25,-1,-1,-1,27,-1,-1,-1,-1,-1],"loss_changes":[1.0879202E1,2.2784662E0,2.7608151E0,0E0,2.0070057E0,1.986385E0,3.081088E-1,1.0195131E0,2.7838033E-1,3.7303877E-1,1.8012226E0,0E0,0E0,0E0,0E0,0E0,0E0,3.0319238E-1,1.4920199E-1,1.1410656E-1,0E0,0E0,0E0,1.1846399E-1,0E0,0E0,0E0,0E0,0E0],"parents":[2147483647,0,0,1,1,2,2,4,4,5,5,6,6,7,7,8,8,9,9,10,10,17,17,18,18,19,19,23,23],"right_children":[2,4,6,-1,8,10,12,14,16,18,20,-1,-1,-1,-1,-1,-1,22,24,26,-1,-1,-1,28,-1,-1,-1,-1,-1],"split_conditions":[-4.3040252E-1,-1.3242344E0,9.692257E-1,-6.078144E-3,-3.3333334E-1,5.82742E-1,1.2349129E0,-5.245218E-1,-5.48644E-1,8.424908E-3,-4.7310883E-1,-5.110438E-3,-1.1151993E-2,1.9792952E-2,4.113168E-3,-1.6850703E-3,5.699952E-3,-1.976306E-1,6.5384614E-1,1.2139006E0,1.53879905E-2,1.6688427E-3,-2.722496E-3,-3.6697116E-1,-3.0366192E-4,-3.012117E-3,1.6593296E-3,-2.536942E-4,-6.8050753E-3],"split_indices":[1,15,0,0,9,13,1,1,1,3,15,0,0,0,0,0,0,1,12,3,0,0,0,1,0,0,0,0,0],"split_type":[0,0,0,0,0,0,0,0,0,0,0,0,0,0,0,0,0,0,0,0,0,0,0,0,0,0,0,0,0],"sum_hessian":[1.02E2,2.4E1,7.8E1,2E0,2.2E1,5.3E1,2.5E1,1.5E1,7E0,4.3E1,1E1,1E1,1.5E1,1.2E1,3E0,2E0,5E0,2.6E1,1.7E1,6E0,4E0,8E0,1.8E1,1.4E1,3E0,3E0,3E0,2E0,1.2E1],"tree_param":{"num_deleted":"0","num_feature":"16","num_nodes":"29","size_leaf_vector":"1"}},{"base_weights":[-5.149215E-2,3.4394872E-1,-2.1649848E-1,1.5471163E-1,6.941216E-1,-1.0481168E-1,-3.5676992E-1,-1.0683635E-2,2.7306274E-1,1.7685277E-2,4.2075566E-3,-2.4306132E-2,-2.5006804E-1,2.7114176E-3,-8.074054E-3,1.3217876E-2,-5.450839E-2,-1.3225783E-3,3.945028E-3,-2.3651074E-4,-6.207165E-3,-1.841528E-1,5.520923E-3,-1.1580187E-2,5.460187E-4],"categories":[],"categories_nodes":[],"categories_segments":[],"categories_sizes":[],"default_left":[0,0,0,0,0,0,0,0,0,0,0,0,0,0,0,0,0,0,0,0,0,0,0,0,0],"id":33,"left_children":[1,3,5,7,9,11,13,-1,15,-1,-1,17,19,-1,-1,-1,21,-1,-1,-1,-1,23,-1,-1,-1],"loss_changes":[5.999492E0,1.5969021E0,9.3476844E-1,1.6688479E0,5.323272E-1,4.108543E-1,7.285373E-1,0E0,2.256381E0,0E0,0E0,2.4085175E-1,1.5083933E-1,0E0,0E0,0E0,4.7019085E-1,0E0,0E0,0E0,0E0,7.389294E-1,0E0,0E0,0E0],"parents":[2147483647,0,0,1,1,2,2,3,3,4,4,5,5,6,6,8,8,11,11,12,12,16,16,21,21],"right_children":[2,4,6,8,10,12,14,-1,16,-1,-1,18,20,-1,-1,-1,22,-1,-1,-1,-1,24,-1,-1,-1],"split_conditions":[-3.5439768E-1,-1.0261774E-1,4.1949353E-1,4.2467196E-2,-1.15384616E-1,2.4089402E-1,-7.692308E-2,-1.0683635E-2,-3.5514018E-1,1.7685277E-2,4.2075566E-3,5.82742E-1,-8.172835E-1,2.7114176E-3,-8.074054E-3,1.3217876E-2,-4.3257847E-1,-1.3225783E-3,3.945028E-3,-2.3651074E-4,-6.207165E-3,-7.838977E-2,5.520923E-3,-1.1580187E-2,5.460187E-4],"split_indices":[0,8,0,3,12,3,12,0,7,0,0,13,15,0,0,0,0,0,0,0,0,13,0,0,0],"split_type":[0,0,0,0,0,0,0,0,0,0,0,0,0,0,0,0,0,0,0,0,0,0,0,0,0],"sum_hessian":[9E1,2.6E1,6.4E1,1.8E1,8E0,3.7E1,2.7E1,2E0,1.6E1,5E0,3E0,2.5E1,1.2E1,2E0,2.5E1,7E0,9E0,2.2E1,3E0,3E0,9E0,7E0,2E0,2E0,5E0],"tree_param":{"num_deleted":"0","num_feature":"16","num_nodes":"25","size_leaf_vector":"1"}},{"base_weights":[4.7767248E-2,5.997386E-1,-1.5024601E-1,8.318433E-1,3.176526E-1,2.6233966E-2,-3.7868217E-1,9.685815E-1,3.7199828E-1,3.4024061E-3,1.0583733E-2,-4.020264E-2,1.9175792E-2,-2.771572E-1,-1.1489477E-2,1.2489642E-2,2.60722E-2,1.065864E-2,1.0746345E-3,5.6003198E-2,-1.851993E-1,-3.513113E-4,-6.463945E-3,-7.9912454E-2,1.4370029E-1,-5.5501927E-3,-0E0,-3.8150044E-3,4.179182E-3,4.2193797E-3,2.5575608E-4],"categories":[],"categories_nodes":[],"categories_segments":[],"categories_sizes":[],"default_left":[0,0,0,0,0,0,0,0,0,0,0,0,0,0,0,0,0,0,0,0,0,0,0,0,0,0,0,0,0,0,0],"id":34,"left_children":[1,3,5,7,9,11,13,15,17,-1,-1,19,-1,21,-1,-1,-1,-1,-1,23,25,-1,-1,27,29,-1,-1,-1,-1,-1,-1],"loss_changes":[1.1174121E1,1.3885965E0,3.0687594E0,3.859291E-1,2.769574E-1,2.7945054E0,4.1158295E-1,1.4594078E-1,1.687975E-1,0E0,0E0,5.9522194E-1,0E0,2.4708521E-1,0E0,0E0,0E0,0E0,0E0,3.1584737E-1,2.6404816E-1,0E0,0E0,3.5821694E-1,1.1582753E-1,0E0,0E0,0E0,0E0,0E0,0E0],"parents":[2147483647,0,0,1,1,2,2,3,3,4,4,5,5,6,6,7,7,8,8,11,11,13,13,19,19,20,20,23,23,24,24],"right_children":[2,4,6,8,10,12,14,16,18,-1,-1,20,-1,22,-1,-1,-1,-1,-1,24,26,-1,-1,28,30,-1,-1,-1,-1,-1,-1],"split_conditions":[-3.8044533E-1,-5.245218E-1,3.4027976E-1,-4.5475474E-1,-5.6236215E-2,2.8076923E0,2.2791607E0,-2.0766962E-1,-2.3368563E-1,3.4024061E-3,1.0583733E-2,0E0,1.9175792E-2,-7.1703136E-1,-1.1489477E-2,1.2489642E-2,2.60722E-2,1.065864E-2,1.0746345E-3,-9.962402E-2,1.15384616E-1,-3.513113E-4,-6.463945E-3,1.6970254E0,5.2751815E-1,-5.5501927E-3,-0E0,-3.8150044E-3,4.179182E-3,4.2193797E-3,2.5575608E-4],"split_indices":[1,1,1,0,14,12,1,13,3,0,0,1,0,14,0,0,0,0,0,11,12,0,0,3,15,0,0,0,0,0,0],"split_type":[0,0,0,0,0,0,0,0,0,0,0,0,0,0,0,0,0,0,0,0,0,0,0,0,0,0,0,0,0,0,0],"sum_hessian":[1E2,2.6E1,7.4E1,1.3E1,1.3E1,4.2E1,3.2E1,9E0,4E0,9E0,4E0,4E1,2E0,2.3E1,9E0,6E0,3E0,2E0,2E0,2.4E1,1.6E1,4E0,1.9E1,9E0,1.5E1,1E1,6E0,7E0,2E0,9E0,6E0],"tree_param":{"num_deleted":"0","num_feature":"16","num_nodes":"31","size_leaf_vector":"1"}},{"base_weights":[4.8282832E-2,3.967099E-1,-2.1932955E-1,6.1466795E-1,2.0879032E-1,-6.631323E-2,-4.1891637E-1,-0E0,8.5538757E-1,1.0945868E-1,4.626723E-1,1.4213413E-2,-1.3586143E-1,-4.8255324E-3,-1.0528675E-2,-6.283884E-3,2.039591E-1,2.2077594E-2,3.9941388E-1,4.053402E-3,-3.3409023E-3,1.1270439E-2,2.1406405E-3,-1.6842625E-1,1.3339963E-3,1.0768157E-2,-3.302854E-3,8.351995E-4,1.0282469E-2,2.009859E-3,-2.1195794E-3,-9.6671455E-2,-5.193383E-3,-3.1675252E-3,3.489532E-4],"categories":[],"categories_nodes":[],"categories_segments":[],"categories_sizes":[],"default_left":[0,0,0,0,0,0,0,0,0,0,0,0,0,0,0,0,0,0,0,0,0,0,0,0,0,0,0,0,0,0,0,0,0,0,0],"id":35,"left_children":[1,3,5,7,9,11,13,15,17,19,21,-1,23,-1,-1,-1,25,-1,27,-1,29,-1,-1,31,-1,-1,-1,-1,-1,-1,-1,33,-1,-1,-1],"loss_changes":[1.0081792E1,1.7143703E0,1.7866397E0,3.0411696E0,5.7304335E-1,1.9844332E0,2.9279613E-1,5.041506E-1,1.1083527E0,2.4140841E-1,1.2369311E-1,0E0,2.4568331E-1,0E0,0E0,0E0,7.434689E-1,0E0,2.1012616E-1,0E0,1.1777181E-1,0E0,0E0,1.3567686E-1,0E0,0E0,0E0,0E0,0E0,0E0,0E0,1.5064843E-1,0E0,0E0,0E0],"parents":[2147483647,0,0,1,1,2,2,3,3,4,4,5,5,6,6,7,7,8,8,9,9,10,10,12,12,16,16,18,18,20,20,23,23,31,31],"right_children":[2,4,6,8,10,12,14,16,18,20,22,-1,24,-1,-1,-1,26,-1,28,-1,30,-1,-1,32,-1,-1,-1,-1,-1,-1,-1,34,-1,-1,-1],"split_conditions":[-1.9920069E-1,-4.6491578E-1,9.692257E-1,-5.66106E-1,2.5192434E-1,-1.290993E0,1.2349129E0,2.1772158E-1,-4.5475474E-1,-6.167375E-2,8.2360655E-2,1.4213413E-2,9.517188E-1,-4.8255324E-3,-1.0528675E-2,-6.283884E-3,-6.9728804E-1,2.2077594E-2,-4.2696393E-1,4.053402E-3,4.636001E-2,1.1270439E-2,2.1406405E-3,2.132458E-1,1.3339963E-3,1.0768157E-2,-3.302854E-3,8.351995E-4,1.0282469E-2,2.009859E-3,-2.1195794E-3,1.3460815E-1,-5.193383E-3,-3.1675252E-3,3.489532E-4],"split_indices":[1,1,0,0,14,14,1,3,0,14,3,0,3,0,0,0,1,0,0,0,3,0,0,1,0,0,0,0,0,0,0,0,0,0,0],"split_type":[0,0,0,0,0,0,0,0,0,0,0,0,0,0,0,0,0,0,0,0,0,0,0,0,0,0,0,0,0,0,0,0,0,0,0],"sum_hessian":[1.06E2,4.6E1,6E1,2E1,2.6E1,3.5E1,2.5E1,6E0,1.4E1,2E1,6E0,2E0,3.3E1,1.1E1,1.4E1,2E0,4E0,8E0,6E0,1.1E1,9E0,4E0,2E0,2.9E1,4E0,2E0,2E0,2E0,4E0,4E0,5E0,1.8E1,1.1E1,1.2E1,6E0],"tree_param":{"num_deleted":"0","num_feature":"16","num_nodes":"35","size_leaf_vector":"1"}},{"base_weights":[1.0177682E-2,4.5051557E-1,-1.5888867E-1,-5.5504087E-2,5.6241566E-1,-1.9270083E-1,1.367007E-2,-4.9552745E-3,1.5513332E-3,2.1881381E-2,3.5966113E-1,-2.5525901E-2,-3.5196492E-1,8.907297E-3,1.6615137E-3,-8.144459E-2,1.2359903E-1,-2.8861496E-1,-1.0117486E-2,-1.5184537E-1,3.2069806E-2,7.8065777E-3,-0E0,-3.3119926E-4,-6.3104564E-3,-0E0,-3.8754635E-3,-3.1526148E-4,3.9642365E-3],"categories":[],"categories_nodes":[],"categories_segments":[],"categories_sizes":[],"default_left":[0,0,0,0,0,0,0,0,0,0,0,0,0,0,0,0,0,0,0,0,0,0,0,0,0,0,0,0,0],"id":36,"left_children":[1,3,5,7,9,11,-1,-1,-1,-1,13,15,17,-1,-1,19,21,23,-1,25,27,-1,-1,-1,-1,-1,-1,-1,-1],"loss_changes":[7.768716E0,1.7239928E0,2.218864E0,1.8974271E-1,2.0482163E0,1.8968887E0,0E0,0E0,0E0,0E0,3.605404E-1,3.143893E-1,1.3530445E-1,0E0,0E0,2.4060923E-1,3.043027E-1,1.7385912E-1,0E0,1.1064637E-1,1.08786866E-1,0E0,0E0,0E0,0E0,0E0,0E0,0E0,0E0],"parents":[2147483647,0,0,1,1,2,2,3,3,4,4,5,5,10,10,11,11,12,12,15,15,16,16,17,17,19,19,20,20],"right_children":[2,4,6,8,10,12,-1,-1,-1,-1,14,16,18,-1,-1,20,22,24,-1,26,28,-1,-1,-1,-1,-1,-1,-1,-1],"split_conditions":[-3.8044533E-1,-6.581216E-1,2.026923E1,-9.472458E-2,-5.998287E-1,2.132458E-1,1.367007E-2,-4.9552745E-3,1.5513332E-3,2.1881381E-2,2.134343E0,5.379528E-1,2.2791607E0,8.907297E-3,1.6615137E-3,3.043891E-1,-2.2126749E-1,-9.479588E-1,-1.0117486E-2,-3.1658578E-1,5.144766E-1,7.8065777E-3,-0E0,-3.3119926E-4,-6.3104564E-3,-0E0,-3.8754635E-3,-3.1526148E-4,3.9642365E-3],"split_indices":[1,1,12,14,1,1,0,0,0,0,13,14,1,0,0,8,1,14,0,1,13,0,0,0,0,0,0,0,0],"split_type":[0,0,0,0,0,0,0,0,0,0,0,0,0,0,0,0,0,0,0,0,0,0,0,0,0,0,0,0,0],"sum_hessian":[1.02E2,2.8E1,7.4E1,5E0,2.3E1,7.2E1,2E0,2E0,3E0,5E0,1.8E1,3.6E1,3.6E1,1.3E1,5E0,2.7E1,9E0,2.8E1,8E0,1.7E1,1E1,2E0,7E0,3E0,2.5E1,4E0,1.3E1,8E0,2E0],"tree_param":{"num_deleted":"0","num_feature":"16","num_nodes":"29","size_leaf_vector":"1"}},{"base_weights":[6.4629614E-2,4.3797532E-1,-2.3729931E-1,7.890571E-1,2.0939374E-1,1.00051435E-2,-2.743595E-1,9.122289E-1,-1.9509031E-3,1.32998E-1,9.522874E-3,-2.1866862E-1,-1.137342E-2,1.9386336E-2,6.168179E-3,4.324005E-3,-0E0,2.3196827E-4,-2.3611209E-1,2.379719E-3,-2.1065648E-3,-6.022232E-3,-2.9394235E-3],"categories":[],"categories_nodes":[],"categories_segments":[],"categories_sizes":[],"default_left":[0,0,0,0,0,0,0,0,0,0,0,0,0,0,0,0,0,0,0,0,0,0,0],"id":37,"left_children":[1,3,5,7,9,-1,11,13,-1,15,-1,17,-1,-1,-1,-1,19,-1,21,-1,-1,-1,-1],"loss_changes":[1.18472805E1,3.5067196E0,1.7000318E0,2.1361322E0,4.8711658E-1,0E0,7.147813E-1,1.2481403E-1,0E0,2.5892654E-1,0E0,2.2200608E-1,0E0,0E0,0E0,0E0,1.5151018E-1,0E0,1.7746639E-1,0E0,0E0,0E0,0E0],"parents":[2147483647,0,0,1,1,2,2,3,3,4,4,6,6,7,7,9,9,11,11,16,16,18,18],"right_children":[2,4,6,8,10,-1,12,14,-1,16,-1,18,-1,-1,-1,-1,20,-1,22,-1,-1,-1,-1],"split_conditions":[-1.9920069E-1,-5.245218E-1,-1.6823477E0,-3.3333334E-1,2.5192434E-1,1.00051435E-2,2.2791607E0,-1.7964073E-1,-1.9509031E-3,-6.167375E-2,9.522874E-3,-8.832497E-1,-1.137342E-2,1.9386336E-2,6.168179E-3,4.324005E-3,4.636001E-2,2.3196827E-4,1.2049703E-1,2.379719E-3,-2.1065648E-3,-6.022232E-3,-2.9394235E-3],"split_indices":[1,1,14,9,14,0,1,2,0,14,0,15,0,0,0,0,3,0,8,0,0,0,0],"split_type":[0,0,0,0,0,0,0,0,0,0,0,0,0,0,0,0,0,0,0,0,0,0,0],"sum_hessian":[1.03E2,4.6E1,5.7E1,1.7E1,2.9E1,2E0,5.5E1,1.5E1,2E0,2.4E1,5E0,4.8E1,7E0,1.3E1,2E0,1.4E1,1E1,3E0,4.5E1,5E0,5E0,2.4E1,2.1E1],"tree_param":{"num_deleted":"0","num_feature":"16","num_nodes":"23","size_leaf_vector":"1"}},{"base_weights":[-0E0,4.1240713E-1,-1.6331366E-1,-6.169895E-3,5.495781E-1,-2.0763151E-2,-3.6560184E-1,8.9772975E-1,2.7417168E-1,-8.009754E-2,1.5274557E-2,-2.3924042E-1,-9.900563E-3,2.31791E-2,3.8230584E-3,-0E0,8.406708E-3,-1.2824545E-3,-3.708162E-3,-6.106531E-3,-0E0,-5.270714E-2,1.9495772E-1,3.5024213E-3,-9.116911E-2,6.3749687E-3,-0E0,-1.8194848E-1,-0E0,-4.818393E-3,-0E0],"categories":[],"categories_nodes":[],"categories_segments":[],"categories_sizes":[],"default_left":[0,0,0,0,0,0,0,0,0,0,0,0,0,0,0,0,0,0,0,0,0,0,0,0,0,0,0,0,0,0,0],"id":38,"left_children":[1,3,5,-1,7,9,11,13,15,17,-1,19,-1,-1,-1,-1,-1,21,-1,-1,-1,23,25,-1,27,-1,-1,29,-1,-1,-1],"loss_changes":[6.6558957E0,2.9624796E0,2.0011487E0,0E0,1.9378743E0,1.9943434E0,2.8242278E-1,1.4892101E0,6.3926685E-1,3.2139573E-1,0E0,2.389043E-1,0E0,0E0,0E0,0E0,0E0,2.4834034E-1,0E0,0E0,0E0,1.9158761E-1,1.1475915E-1,0E0,1.4002292E-1,0E0,0E0,1.0834867E-1,0E0,0E0,0E0],"parents":[2147483647,0,0,1,1,2,2,4,4,5,5,6,6,7,7,8,8,9,9,11,11,17,17,21,21,22,22,24,24,27,27],"right_children":[2,4,6,-1,8,10,12,14,16,18,-1,20,-1,-1,-1,-1,-1,22,-1,-1,-1,24,26,-1,28,-1,-1,30,-1,-1,-1],"split_conditions":[-3.8044533E-1,-5.66106E-1,3.4027976E-1,-6.169895E-3,-3.8271606E-1,7.9041916E-1,1.5185186E0,-5.261205E-1,-2.715696E-1,0E0,1.5274557E-2,3.046729E0,-9.900563E-3,2.31791E-2,3.8230584E-3,-0E0,8.406708E-3,1.3460815E-1,-3.708162E-3,-6.106531E-3,-0E0,-2.1556886E-1,2.114969E-1,3.5024213E-3,-1.9161677E-1,6.3749687E-3,-0E0,4.9193907E-1,-0E0,-4.818393E-3,-0E0],"split_indices":[1,0,1,0,9,2,9,1,15,1,0,7,0,0,0,0,0,0,0,0,0,2,0,0,2,0,0,3,0,0,0],"split_type":[0,0,0,0,0,0,0,0,0,0,0,0,0,0,0,0,0,0,0,0,0,0,0,0,0,0,0,0,0,0,0],"sum_hessian":[9.7E1,2.7E1,7E1,4E0,2.3E1,4.2E1,2.8E1,9E0,1.4E1,4E1,2E0,1.6E1,1.2E1,6E0,3E0,5E0,9E0,2.4E1,1.6E1,1.2E1,4E0,2E1,4E0,2E0,1.8E1,2E0,2E0,8E0,1E1,6E0,2E0],"tree_param":{"num_deleted":"0","num_feature":"16","num_nodes":"31","size_leaf_vector":"1"}},{"base_weights":[-0E0,4.433848E-1,-1.7238237E-1,-0E0,5.7010156E-1,3.8477004E-2,-3.001283E-1,-5.065423E-3,1.5181401E-1,8.803499E-1,1.9893494E-1,-9.6170746E-2,1.16699256E-1,-2.0532367E-1,-4.6306235E-1,1.0427679E-2,-4.7005448E-3,2.468948E-2,9.7470805E-3,-4.405109E-2,1.0386567E-2,-3.603921E-3,9.983248E-4,7.501673E-3,5.4708473E-2,-3.4290398E-4,-4.765471E-3,-1.5139597E-3,-1.0182832E-2,-3.7246936E-3,1.6829057E-3,3.3217557E-3,-1.958692E-3],"categories":[],"categories_nodes":[],"categories_segments":[],"categories_sizes":[],"default_left":[0,0,0,0,0,0,0,0,0,0,0,0,0,0,0,0,0,0,0,0,0,0,0,0,0,0,0,0,0,0,0,0,0],"id":39,"left_children":[1,3,5,7,9,11,13,-1,15,17,19,21,23,25,27,-1,-1,-1,-1,29,-1,-1,-1,-1,31,-1,-1,-1,-1,-1,-1,-1,-1],"loss_changes":[7.38803E0,1.5173993E0,1.9232631E0,3.0767632E-1,2.135171E0,2.9765204E-1,5.177474E-1,0E0,8.659996E-1,7.570534E-1,9.2676723E-1,1.4477274E-1,2.2481464E-1,1.563865E-1,1.7071724E-1,0E0,0E0,0E0,0E0,1.5347165E-1,0E0,0E0,0E0,0E0,2.9510155E-1,0E0,0E0,0E0,0E0,0E0,0E0,0E0,0E0],"parents":[2147483647,0,0,1,1,2,2,3,3,4,4,5,5,6,6,8,8,9,9,10,10,11,11,12,12,13,13,14,14,19,19,24,24],"right_children":[2,4,6,8,10,12,14,-1,16,18,20,22,24,26,28,-1,-1,-1,-1,30,-1,-1,-1,-1,32,-1,-1,-1,-1,-1,-1,-1,-1],"split_conditions":[-3.6647245E-1,-5.66106E-1,-1.2345679E-2,-9.472458E-2,-3.580247E-1,-2.0796745E-1,1.5185186E0,-5.065423E-3,1.3082567E-1,-4.3719667E-1,-4.486234E-1,-1.9161677E-1,-3.670504E-2,-7.1703136E-1,4.1949353E-1,1.0427679E-2,-4.7005448E-3,2.468948E-2,9.7470805E-3,-4.6123496E-1,1.0386567E-2,-3.603921E-3,9.983248E-4,7.501673E-3,2.784287E-1,-3.4290398E-4,-4.765471E-3,-1.5139597E-3,-1.0182832E-2,-3.7246936E-3,1.6829057E-3,3.3217557E-3,-1.958692E-3],"split_indices":[0,0,9,14,9,11,9,0,14,11,0,2,11,14,0,0,0,0,0,8,0,0,0,0,14,0,0,0,0,0,0,0,0],"split_type":[0,0,0,0,0,0,0,0,0,0,0,0,0,0,0,0,0,0,0,0,0,0,0,0,0,0,0,0,0,0,0,0,0],"sum_hessian":[9.5E1,2.6E1,6.9E1,6E0,2E1,2.6E1,4.3E1,2E0,4E0,1E1,1E1,9E0,1.7E1,2.9E1,1.4E1,2E0,2E0,4E0,6E0,6E0,4E0,6E0,3E0,2E0,1.5E1,5E0,2.4E1,2E0,1.2E1,3E0,3E0,9E0,6E0],"tree_param":{"num_deleted":"0","num_feature":"16","num_nodes":"33","size_leaf_vector":"1"}},{"base_weights":[-2.8176922E-2,-1.4775747E-1,4.2513865E-1,7.821106E-3,-3.581906E-1,1.8631233E-2,2.1551058E-1,1.734025E-1,-4.2041995E-2,-2.6997945E-1,-1.1010831E-2,6.454509E-2,1.7303355E-2,-5.8057928E-3,3.0516988E-1,1.0839866E-1,-7.1151145E-2,-3.0377147E-1,1.3656085E-3,3.9521605E-3,-3.026347E-3,9.203142E-3,-3.530383E-3,-8.318545E-4,6.1117522E-3,-4.911385E-3,-1.95927E-2,-6.7091617E-3,-5.710424E-4,2.1265342E-3,-1.4796166E-3],"categories":[],"categories_nodes":[],"categories_segments":[],"categories_sizes":[],"default_left":[0,0,0,0,0,0,0,0,0,0,0,0,0,0,0,0,0,0,0,0,0,0,0,0,0,0,0,0,0,0,0],"id":40,"left_children":[1,3,5,7,9,-1,11,13,15,17,-1,19,-1,-1,21,23,25,27,-1,-1,-1,-1,-1,-1,-1,-1,29,-1,-1,-1,-1],"loss_changes":[5.7268896E0,2.7879052E0,2.0200627E0,4.2498994E-1,3.801427E-1,0E0,1.5184753E0,8.232697E-1,1.7039752E-1,3.529135E-1,0E0,4.6537992E-1,0E0,0E0,8.561465E-1,2.1656957E-1,2.6543242E-1,1.7204046E-1,0E0,0E0,0E0,0E0,0E0,0E0,0E0,0E0,1.8954164E-1,0E0,0E0,0E0,0E0],"parents":[2147483647,0,0,1,1,2,2,3,3,4,4,6,6,7,7,8,8,9,9,11,11,14,14,15,15,16,16,17,17,26,26],"right_children":[2,4,6,8,10,-1,12,14,16,18,-1,20,-1,-1,22,24,26,28,-1,-1,-1,-1,-1,-1,-1,-1,30,-1,-1,-1,-1],"split_conditions":[9.192118E-1,2.132458E-1,-5.580931E-1,-4.0496716E-1,2.2791607E0,1.8631233E-2,-9.580839E-2,-6.2602884E-1,-2.035928E-1,9.517188E-1,-1.1010831E-2,-3.934913E-1,1.7303355E-2,-5.8057928E-3,2.5539315E-1,-2.4299066E-1,-1.9161677E-1,5.64486E0,1.3656085E-3,3.9521605E-3,-3.026347E-3,9.203142E-3,-3.530383E-3,-8.318545E-4,6.1117522E-3,-4.911385E-3,-1.9920069E-1,-6.7091617E-3,-5.710424E-4,2.1265342E-3,-1.4796166E-3],"split_indices":[13,1,1,1,1,0,2,14,2,3,0,1,0,0,3,7,2,7,0,0,0,0,0,0,0,0,1,0,0,0,0],"split_type":[0,0,0,0,0,0,0,0,0,0,0,0,0,0,0,0,0,0,0,0,0,0,0,0,0,0,0,0,0,0,0],"sum_hessian":[1.04E2,8.3E1,2.1E1,4.8E1,3.5E1,5E0,1.6E1,1.1E1,3.7E1,2.6E1,9E0,1.4E1,2E0,2E0,9E0,5E0,3.2E1,2.4E1,2E0,9E0,5E0,7E0,2E0,3E0,2E0,6E0,2.6E1,2.1E1,3E0,7E0,1.9E1],"tree_param":{"num_deleted":"0","num_feature":"16","num_nodes":"31","size_leaf_vector":"1"}},{"base_weights":[2.3474544E-2,3.3510286E-1,-2.0234735E-1,2.8126037E-1,1.851832E-2,-4.392054E-2,-3.8478208E-1,4.0687364E-1,1.3749185E-1,-1.2417747E-1,1.5334157E-2,-2.1689679E-3,-8.475542E-3,1.1031811E-1,5.4012865E-1,2.3540927E-2,6.9549E-3,9.322487E-3,-3.5073077E-3,-8.375161E-3,7.46273E-3,1.4456226E-2,3.1883318E-3,7.6277025E-2,-3.589916E-3,2.8229188E-3,-1.268938E-3,-1.7724592E-3,2.8921862E-3],"categories":[],"categories_nodes":[],"categories_segments":[],"categories_sizes":[],"default_left":[0,0,0,0,0,0,0,0,0,0,0,0,0,0,0,0,0,0,0,0,0,0,0,0,0,0,0,0,0],"id":41,"left_children":[1,3,5,7,-1,9,11,13,15,17,-1,-1,-1,19,21,23,-1,25,-1,-1,-1,-1,-1,27,-1,-1,-1,-1,-1],"loss_changes":[7.1887054E0,9.867258E-1,1.6454804E0,6.300497E-1,0E0,2.177887E0,1.9176221E-1,7.052374E-1,4.5781454E-1,2.3008025E-1,0E0,0E0,0E0,1.2640995E0,7.7024174E-1,1.6398002E-1,0E0,1.030596E-1,0E0,0E0,0E0,0E0,0E0,1.6489828E-1,0E0,0E0,0E0,0E0,0E0],"parents":[2147483647,0,0,1,1,2,2,3,3,5,5,6,6,7,7,8,8,9,9,13,13,14,14,15,15,17,17,23,23],"right_children":[2,4,6,8,-1,10,12,14,16,18,-1,-1,-1,20,22,24,-1,26,-1,-1,-1,-1,-1,28,-1,-1,-1,-1,-1],"split_conditions":[-1.9920069E-1,1.7784747E0,4.182415E-1,-3.3333334E-1,1.851832E-2,1.7692307E0,2.8366378E-1,-4.3604818E-1,4.343886E-2,0E0,1.5334157E-2,-2.1689679E-3,-8.475542E-3,-5.188639E-1,-5.812161E-1,-2.5555238E-1,6.9549E-3,-7.4074075E-2,-3.5073077E-3,-8.375161E-3,7.46273E-3,1.4456226E-2,3.1883318E-3,-4.600628E-1,-3.589916E-3,2.8229188E-3,-1.268938E-3,-1.7724592E-3,2.8921862E-3],"split_indices":[1,14,1,9,0,12,0,14,8,1,0,0,0,0,1,1,0,9,0,0,0,0,0,1,0,0,0,0,0],"split_type":[0,0,0,0,0,0,0,0,0,0,0,0,0,0,0,0,0,0,0,0,0,0,0,0,0,0,0,0,0],"sum_hessian":[1E2,4.2E1,5.8E1,4E1,2E0,3.2E1,2.6E1,2E1,2E1,3E1,2E0,4E0,2.2E1,7E0,1.3E1,1.4E1,6E0,8E0,2.2E1,2E0,5E0,8E0,5E0,1.2E1,2E0,3E0,5E0,3E0,9E0],"tree_param":{"num_deleted":"0","num_feature":"16","num_nodes":"29","size_leaf_vector":"1"}},{"base_weights":[-6.743739E-4,2.681683E-1,-2.1755442E-1,3.0610815E-1,-6.3809147E-3,-1.5761016E-1,-9.906257E-3,4.963704E-1,2.0025365E-1,1.2478429E-3,-1.8185206E-1,-3.2669322E-3,6.2826884E-1,-1.5266799E-2,3.1975216E-1,-2.8565378E-6,-2.2700618E-1,1.4280068E-2,1.9946124E-3,-1.9278995E-3,3.9974665E-3,1.6937396E-1,1.0781227E-2,-2.5187156E-1,-1.0464502E-3,4.605908E-3,-5.4634734E-6,-3.762711E-4,-5.483862E-3],"categories":[],"categories_nodes":[],"categories_segments":[],"categories_sizes":[],"default_left":[0,0,0,0,0,0,0,0,0,0,0,0,0,0,0,0,0,0,0,0,0,0,0,0,0,0,0,0,0],"id":42,"left_children":[1,3,5,7,-1,9,-1,11,13,-1,15,-1,17,19,21,-1,23,-1,-1,-1,-1,25,-1,27,-1,-1,-1,-1,-1],"loss_changes":[5.767328E0,1.0766366E0,7.723925E-1,6.768222E-1,0E0,2.7395594E-1,0E0,1.3673365E0,7.822068E-1,0E0,3.300643E-1,0E0,3.9118624E-1,2.0091215E-1,4.644605E-1,0E0,1.0408354E-1,0E0,0E0,0E0,0E0,1.5742207E-1,0E0,1.1640513E-1,0E0,0E0,0E0,0E0,0E0],"parents":[2147483647,0,0,1,1,2,2,3,3,5,5,7,7,8,8,10,10,12,12,13,13,14,14,16,16,21,21,23,23],"right_children":[2,4,6,8,-1,10,-1,12,14,-1,16,-1,18,20,22,-1,24,-1,-1,-1,-1,26,-1,28,-1,-1,-1,-1,-1],"split_conditions":[-1.9920069E-1,1.8895582E0,2.2791607E0,-5.580931E-1,-6.3809147E-3,-8.832497E-1,-9.906257E-3,-6.2602884E-1,-3.2364273E-1,1.2478429E-3,-2.1324579E-2,-3.2669322E-3,1.4552337E0,4.343886E-2,2.5192434E-1,-2.8565378E-6,1.1346316E0,1.4280068E-2,1.9946124E-3,-1.9278995E-3,3.9974665E-3,1.6057515E-1,1.0781227E-2,-9.491341E-1,-1.0464502E-3,4.605908E-3,-5.4634734E-6,-3.762711E-4,-5.483862E-3],"split_indices":[1,3,1,1,0,15,0,14,15,0,1,0,13,8,14,0,15,0,0,0,0,14,0,14,0,0,0,0,0],"split_type":[0,0,0,0,0,0,0,0,0,0,0,0,0,0,0,0,0,0,0,0,0,0,0,0,0,0,0,0,0],"sum_hessian":[9.7E1,4.3E1,5.4E1,4.1E1,2E0,4.6E1,8E0,1.3E1,2.8E1,4E0,4.2E1,2E0,1.1E1,1E1,1.8E1,9E0,3.3E1,9E0,2E0,8E0,2E0,1.2E1,6E0,2.8E1,5E0,9E0,3E0,3E0,2.5E1],"tree_param":{"num_deleted":"0","num_feature":"16","num_nodes":"29","size_leaf_vector":"1"}},{"base_weights":[1.9558357E-2,3.4868982E-1,-2.4464525E-1,6.642214E-1,2.3981379E-1,-1.5297693E-1,-8.909089E-3,-7.261251E-3,9.439581E-1,-4.3456547E-4,4.600589E-1,1.2278768E-3,-1.8051414E-1,2.2329537E-2,8.483806E-3,-9.403443E-3,8.1418395E-2,1.416656E-2,5.665881E-3,-2.057911E-3,-2.6970756E-1,4.314621E-3,-0E0,-1.7294783E-6,-6.0215164E-3,-2.7999112E-3,2.8276045E-3],"categories":[],"categories_nodes":[],"categories_segments":[],"categories_sizes":[],"default_left":[0,0,0,0,0,0,0,0,0,0,0,0,0,0,0,0,0,0,0,0,0,0,0,0,0,0,0],"id":43,"left_children":[1,3,5,7,9,11,-1,-1,13,15,17,-1,19,-1,-1,-1,21,-1,-1,-1,23,-1,25,-1,-1,-1,-1],"loss_changes":[8.965398E0,1.3305826E0,9.212594E-1,3.5618649E0,1.9510491E0,2.6502454E-1,0E0,0E0,1.793623E-1,7.6924556E-1,5.339923E-1,0E0,1.9114149E-1,0E0,0E0,0E0,1.7317605E-1,0E0,0E0,0E0,1.05178475E-1,0E0,2.3752278E-1,0E0,0E0,0E0,0E0],"parents":[2147483647,0,0,1,1,2,2,3,3,4,4,5,5,8,8,9,9,10,10,12,12,16,16,20,20,22,22],"right_children":[2,4,6,8,10,12,-1,-1,14,16,18,-1,20,-1,-1,-1,22,-1,-1,-1,24,-1,26,-1,-1,-1,-1],"split_conditions":[-1.9920069E-1,-3.5514018E-1,1.0541251E0,-6.2602884E-1,-1.0261774E-1,-8.832497E-1,-8.909089E-3,-7.261251E-3,2.3251069E-1,-5.872395E-1,-5.245218E-1,1.2278768E-3,-2.4546394E-1,2.2329537E-2,8.483806E-3,-9.403443E-3,-4.3040252E-1,1.416656E-2,5.665881E-3,-2.057911E-3,-1.0762938E0,4.314621E-3,-3.6522725E-1,-1.7294783E-6,-6.0215164E-3,-2.7999112E-3,2.8276045E-3],"split_indices":[1,7,1,14,8,15,0,0,3,1,1,0,3,0,0,0,1,0,0,0,14,0,11,0,0,0,0],"split_type":[0,0,0,0,0,0,0,0,0,0,0,0,0,0,0,0,0,0,0,0,0,0,0,0,0,0,0],"sum_hessian":[1.01E2,4.5E1,5.6E1,1E1,3.5E1,4E1,1.6E1,2E0,8E0,1.7E1,1.8E1,4E0,3.6E1,5E0,3E0,2E0,1.5E1,6E0,1.2E1,2.1E1,1.5E1,5E0,1E1,2E0,1.3E1,5E0,5E0],"tree_param":{"num_deleted":"0","num_feature":"16","num_nodes":"27","size_leaf_vector":"1"}},{"base_weights":[2.4630101E-3,1.256212E-1,-3.5378644E-1,3.252211E-1,6.959614E-3,-2.2767845E-1,-9.093768E-3,-1.2181052E-1,4.3204582E-1,-4.7621995E-2,1.3158165E-2,-0E0,-5.320654E-3,-6.5255845E-3,7.398726E-4,5.22074E-1,-0E0,3.8139187E-2,-1.3938923E-1,1.2909366E-2,5.184466E-3,-3.1870205E-3,1.0376035E-1,-3.6197721E-3,5.3132494E-4,4.3989747E-4,5.211728E-3],"categories":[],"categories_nodes":[],"categories_segments":[],"categories_sizes":[],"default_left":[0,0,0,0,0,0,0,0,0,0,0,0,0,0,0,0,0,0,0,0,0,0,0,0,0,0,0],"id":44,"left_children":[1,3,5,7,9,11,-1,13,15,17,-1,-1,-1,-1,-1,19,-1,21,23,-1,-1,-1,25,-1,-1,-1,-1],"loss_changes":[4.4530053E0,1.7645664E0,1.590786E-1,1.4207642E0,1.833321E0,1.2355602E-1,0E0,2.3582166E-1,8.854017E-1,3.774643E-1,0E0,0E0,0E0,0E0,0E0,3.5846186E-1,0E0,3.2200417E-1,1.7903426E-1,0E0,0E0,0E0,2.0964648E-1,0E0,0E0,0E0,0E0],"parents":[2147483647,0,0,1,1,2,2,3,3,4,4,5,5,7,7,8,8,9,9,15,15,17,17,18,18,22,22],"right_children":[2,4,6,8,10,12,-1,14,16,18,-1,-1,-1,-1,-1,20,-1,22,24,-1,-1,-1,26,-1,-1,-1,-1],"split_conditions":[6.296296E-1,-3.8044533E-1,1.366496E0,-5.66106E-1,3.457944E0,-7.1703136E-1,-9.093768E-3,2.1772158E-1,2.3812916E0,-1.1475878E-2,1.3158165E-2,-0E0,-5.320654E-3,-6.5255845E-3,7.398726E-4,-2.990654E-1,-0E0,-2.4299066E-1,5.420561E-1,1.2909366E-2,5.184466E-3,-3.1870205E-3,2.4148041E-1,-3.6197721E-3,5.3132494E-4,4.3989747E-4,5.211728E-3],"split_indices":[9,1,0,0,7,14,0,3,13,1,0,0,0,0,0,7,0,7,7,0,0,0,14,0,0,0,0],"split_type":[0,0,0,0,0,0,0,0,0,0,0,0,0,0,0,0,0,0,0,0,0,0,0,0,0,0,0],"sum_hessian":[1E2,7.5E1,2.5E1,2.7E1,4.8E1,1.3E1,1.2E1,5E0,2.2E1,4.5E1,3E0,2E0,1.1E1,2E0,3E0,1.8E1,4E0,2.3E1,2.2E1,1.1E1,7E0,5E0,1.8E1,1.8E1,4E0,1.3E1,5E0],"tree_param":{"num_deleted":"0","num_feature":"16","num_nodes":"27","size_leaf_vector":"1"}},{"base_weights":[5.4782853E-3,2.228474E-1,-2.101074E-1,4.1738987E-1,9.891516E-2,9.919273E-3,-2.4948204E-1,-2.4158484E-3,5.25351E-1,2.9442355E-1,2.3588594E-2,-1.9308081E-1,-9.602463E-3,6.370891E-1,-0E0,9.673738E-3,5.2550895E-4,-9.9401645E-2,1.0043058E-1,-2.094131E-1,1.2230803E-3,1.5901053E-2,3.4748837E-3,1.1446269E-3,-3.7798334E-3,1.9360466E-4,4.9705235E-3,-5.673088E-3,-2.4087566E-3],"categories":[],"categories_nodes":[],"categories_segments":[],"categories_sizes":[],"default_left":[0,0,0,0,0,0,0,0,0,0,0,0,0,0,0,0,0,0,0,0,0,0,0,0,0,0,0,0,0],"id":45,"left_children":[1,3,5,7,9,-1,11,-1,13,15,17,19,-1,21,-1,-1,-1,23,25,27,-1,-1,-1,-1,-1,-1,-1,-1,-1],"loss_changes":[4.968571E0,1.1849179E0,1.5725539E0,1.2659695E0,4.6197084E-1,0E0,5.034075E-1,0E0,9.904628E-1,3.930502E-1,2.55807E-1,2.0617843E-1,0E0,7.896676E-1,0E0,0E0,0E0,1.6431984E-1,2.002489E-1,1.9625926E-1,0E0,0E0,0E0,0E0,0E0,0E0,0E0,0E0,0E0],"parents":[2147483647,0,0,1,1,2,2,3,3,4,4,6,6,8,8,9,9,10,10,11,11,13,13,17,17,18,18,19,19],"right_children":[2,4,6,8,10,-1,12,-1,14,16,18,20,-1,22,-1,-1,-1,24,26,28,-1,-1,-1,-1,-1,-1,-1,-1,-1],"split_conditions":[-1.2345679E-2,-3.3333334E-1,-1.6823477E0,-5.66106E-1,-9.113585E-1,9.919273E-3,2.7654321E0,-2.4158484E-3,-2.5183236E-2,-3.6647245E-1,-1.9161677E-1,9.517188E-1,-9.602463E-3,1.4552337E0,-0E0,9.673738E-3,5.2550895E-4,-4.6151155E-1,4.4941974E-1,1.07939444E-1,1.2230803E-3,1.5901053E-2,3.4748837E-3,1.1446269E-3,-3.7798334E-3,1.9360466E-4,4.9705235E-3,-5.673088E-3,-2.4087566E-3],"split_indices":[9,9,14,0,13,0,9,0,0,0,2,3,0,13,0,0,0,11,13,8,0,0,0,0,0,0,0,0,0],"split_type":[0,0,0,0,0,0,0,0,0,0,0,0,0,0,0,0,0,0,0,0,0,0,0,0,0,0,0,0,0],"sum_hessian":[1.04E2,5.2E1,5.2E1,1.9E1,3.3E1,2E0,5E1,3E0,1.6E1,8E0,2.5E1,4.2E1,8E0,1.3E1,3E0,4E0,4E0,9E0,1.6E1,4E1,2E0,9E0,4E0,3E0,6E0,1.1E1,5E0,2E1,2E1],"tree_param":{"num_deleted":"0","num_feature":"16","num_nodes":"29","size_leaf_vector":"1"}},{"base_weights":[-7.664526E-3,3.5033917E-1,-1.6241376E-1,-8.8932656E-2,4.4575083E-1,-5.563784E-2,-3.6058268E-1,-6.4063636E-3,1.6367931E-3,6.9904727E-1,4.4723344E-3,-1.0554037E-1,1.3562254E-2,-4.367791E-3,-9.128168E-3,1.6238248E-2,1.882055E-3,-3.689325E-2,-4.9553323E-3,7.5448364E-2,-1.7696241E-3,-3.765161E-3,1.7740722E-1,5.1071458E-3,-8.590634E-5],"categories":[],"categories_nodes":[],"categories_segments":[],"categories_sizes":[],"default_left":[0,0,0,0,0,0,0,0,0,0,0,0,0,0,0,0,0,0,0,0,0,0,0,0,0],"id":46,"left_children":[1,3,5,7,9,11,13,-1,-1,15,-1,17,-1,-1,-1,-1,-1,19,-1,21,-1,-1,23,-1,-1],"loss_changes":[5.5227857E0,1.3326733E0,1.4194927E0,2.8714806E-1,1.1580601E0,1.7352635E0,1.5986371E-1,0E0,0E0,5.84044E-1,0E0,4.0174705E-1,0E0,0E0,0E0,0E0,0E0,1.9343418E-1,0E0,3.0118534E-1,0E0,0E0,1.395128E-1,0E0,0E0],"parents":[2147483647,0,0,1,1,2,2,3,3,4,4,5,5,6,6,9,9,11,11,17,17,19,19,22,22],"right_children":[2,4,6,8,10,12,14,-1,-1,16,-1,18,-1,-1,-1,-1,-1,20,-1,22,-1,-1,24,-1,-1],"split_conditions":[-3.6697116E-1,-5.66106E-1,8.1058544E-1,2.1772158E-1,-5.245218E-1,6.727354E-1,1.4715102E0,-6.4063636E-3,1.6367931E-3,1.4552337E0,4.4723344E-3,2.8178275E-1,1.3562254E-2,-4.367791E-3,-9.128168E-3,1.6238248E-2,1.882055E-3,-2.1736985E-1,-4.9553323E-3,-1.4152423E-1,-1.7696241E-3,-3.765161E-3,-2.0713674E-1,5.1071458E-3,-8.590634E-5],"split_indices":[1,0,0,3,1,0,1,0,0,13,0,3,0,0,0,0,0,0,0,11,0,0,1,0,0],"split_type":[0,0,0,0,0,0,0,0,0,0,0,0,0,0,0,0,0,0,0,0,0,0,0,0,0],"sum_hessian":[9.8E1,2.9E1,6.9E1,5E0,2.4E1,4.6E1,2.3E1,2E0,3E0,1E1,1.4E1,4.4E1,2E0,1.1E1,1.2E1,8E0,2E0,3.1E1,1.3E1,9E0,2.2E1,2E0,7E0,5E0,2E0],"tree_param":{"num_deleted":"0","num_feature":"16","num_nodes":"25","size_leaf_vector":"1"}},{"base_weights":[4.934622E-3,1.3460273E-1,-3.226645E-1,4.1424066E-1,2.8650701E-2,-6.9818688E-3,-9.042038E-4,-9.2935465E-2,5.961617E-1,-1.7742801E-2,1.7441047E-2,-8.43409E-3,3.0375032E-3,8.0880845E-1,3.5341856E-1,-7.605928E-2,2.6469994E-1,2.3216223E-2,8.316902E-3,-4.3067145E-3,5.6096774E-1,1.4594708E-1,-1.3070787E-1,-0E0,3.4202528E-1,1.4613144E-2,4.5207273E-3,-0E0,8.340172E-3,-1.6357643E-4,-1.7838638E-1,9.158438E-3,3.0449379E-5,-1.5245955E-3,-4.831051E-3],"categories":[],"categories_nodes":[],"categories_segments":[],"categories_sizes":[],"default_left":[0,0,0,0,0,0,0,0,0,0,0,0,0,0,0,0,0,0,0,0,0,0,0,0,0,0,0,0,0,0,0,0,0,0,0],"id":47,"left_children":[1,3,5,7,9,-1,-1,11,13,15,-1,-1,-1,17,19,21,23,-1,-1,-1,25,27,29,-1,31,-1,-1,-1,-1,-1,33,-1,-1,-1,-1],"loss_changes":[4.3574996E0,2.1363297E0,1.57439E-1,1.9510481E0,2.2529633E0,0E0,0E0,5.7394636E-1,3.7220716E-1,8.742354E-1,0E0,0E0,0E0,3.278861E-1,1.2177601E0,5.635076E-1,1.8827456E-1,0E0,0E0,0E0,1.3701558E-1,3.299836E-1,1.9603842E-1,0E0,2.2960025E-1,0E0,0E0,0E0,0E0,0E0,1.1758226E-1,0E0,0E0,0E0,0E0],"parents":[2147483647,0,0,1,1,2,2,3,3,4,4,7,7,8,8,9,9,13,13,14,14,15,15,16,16,20,20,21,21,22,22,24,24,30,30],"right_children":[2,4,6,8,10,-1,-1,12,14,16,-1,-1,-1,18,20,22,24,-1,-1,-1,26,28,30,-1,32,-1,-1,-1,-1,-1,34,-1,-1,-1,-1],"split_conditions":[6.296296E-1,-3.580247E-1,1.4107988E0,-4.3604818E-1,4.3076925E0,-6.9818688E-3,-9.042038E-4,-3.9506173E-1,-5.312753E-1,1.3357111E0,1.7441047E-2,-8.43409E-3,3.0375032E-3,-1.5225005E-1,-5.8696234E-1,-2.1556886E-1,-2.1556886E-1,2.3216223E-2,8.316902E-3,-4.3067145E-3,-1.6168648E-1,7.643055E-2,-6.167375E-2,-0E0,-1.3173653E-1,1.4613144E-2,4.5207273E-3,-0E0,8.340172E-3,-1.6357643E-4,-2.4546394E-1,9.158438E-3,3.0449379E-5,-1.5245955E-3,-4.831051E-3],"split_indices":[9,9,15,14,12,0,0,9,11,8,0,0,0,3,8,2,2,0,0,0,11,15,14,0,2,0,0,0,0,0,3,0,0,0,0],"split_type":[0,0,0,0,0,0,0,0,0,0,0,0,0,0,0,0,0,0,0,0,0,0,0,0,0,0,0,0,0,0,0,0,0,0,0],"sum_hessian":[1.01E2,7.3E1,2.8E1,1.9E1,5.4E1,2.5E1,3E0,5E0,1.4E1,5.2E1,2E0,2E0,3E0,6E0,8E0,4.4E1,8E0,2E0,4E0,2E0,6E0,8E0,3.6E1,2E0,6E0,3E0,3E0,6E0,2E0,1.1E1,2.5E1,4E0,2E0,1.1E1,1.4E1],"tree_param":{"num_deleted":"0","num_feature":"16","num_nodes":"35","size_leaf_vector":"1"}},{"base_weights":[-1.7519133E-2,2.6239407E-1,-2.0242092E-1,1.529479E-1,1.3371205E-2,-1.3820656E-1,-7.66929E-3,1.5358905E-2,4.1763872E-1,7.39714E-4,-1.532648E-1,7.696363E-2,-7.7532097E-3,1.8262794E-2,1.0518339E-1,-8.530017E-2,-2.128067E-1,-5.8877897E-3,1.3681078E-1,-9.266807E-4,3.601564E-3,1.0484363E-3,-2.271591E-3,-4.9280412E-3,-5.8604055E-4,6.722172E-3,-2.9597512E-2,-2.9825598E-3,9.14478E-4],"categories":[],"categories_nodes":[],"categories_segments":[],"categories_sizes":[],"default_left":[0,0,0,0,0,0,0,0,0,0,0,0,0,0,0,0,0,0,0,0,0,0,0,0,0,0,0,0,0],"id":48,"left_children":[1,3,5,7,-1,9,-1,11,13,-1,15,17,-1,-1,19,21,23,-1,25,-1,-1,-1,-1,-1,-1,-1,27,-1,-1],"loss_changes":[5.222762E0,1.5937276E0,6.0399723E-1,1.1520977E0,0E0,1.4128667E-1,0E0,5.698078E-1,1.5051616E0,0E0,1.3009357E-1,4.9123073E-1,