{"learner":{"attributes":{"best_iteration":"36","best_score":"0.4217914413003361"},"feature_names":[],"feature_types":[],"gradient_booster":{"model":{"gbtree_model_param":{"num_parallel_tree":"1","num_trees":"47"},"iteration_indptr":[0,1,2,3,4,5,6,7,8,9,10,11,12,13,14,15,16,17,18,19,20,21,22,23,24,25,26,27,28,29,30,31,32,33,34,35,36,37,38,39,40,41,42,43,44,45,46,47],"tree_info":[0,0,0,0,0,0,0,0,0,0,0,0,0,0,0,0,0,0,0,0,0,0,0,0,0,0,0,0,0,0,0,0,0,0,0,0,0,0,0,0,0,0,0,0,0,0,0],"trees":[{"base_weights":[-1.1740999E-2,-3.4082505E-1,2.7023157E-1,-1.2672142E-3,-5.2838594E-1,7.300528E-3,-4.1374643E-4,-6.8968177E-1,-9.294101E-2,-1.842749E-2,-3.3173103E-5,1.5249382E-3,-6.391714E-3],"categories":[],"categories_nodes":[],"categories_segments":[],"categories_sizes":[],"default_left":[0,0,0,0,0,0,0,0,0,0,0,0,0],"id":0,"left_children":[1,3,5,-1,7,-1,-1,9,11,-1,-1,-1,-1],"loss_changes":[1.1068148E1,2.6948428E0,5.2390575E-1,0E0,1.7452536E0,0E0,0E0,4.3561268E-1,4.7062692E-1,0E0,0E0,0E0,0E0],"parents":[2147483647,0,0,1,1,2,2,4,4,7,7,8,8],"right_children":[2,4,6,-1,8,-1,-1,10,12,-1,-1,-1,-1],"split_conditions":[-5.490896E-2,-1.946088E-1,2.7502139E0,-1.2672142E-3,-3.713583E-1,7.300528E-3,-4.1374643E-4,0E0,-2.9549292E-1,-1.842749E-2,-3.3173103E-5,1.5249382E-3,-6.391714E-3],"split_indices":[15,14,1,0,15,0,0,12,15,0,0,0,0],"split_type":[0,0,0,0,0,0,0,0,0,0,0,0,0],"sum_hessian":[1.12E2,5.2E1,6E1,2.3E1,2.9E1,5.7E1,3E0,1.9E1,1E1,1.7E1,2E0,5E0,5E0],"tree_param":{"num_deleted":"0","num_feature":"16","num_nodes":"13","size_leaf_vector":"1"}},{"base_weights":[2.2496652E-2,-3.6288136E-1,3.2323268E-1,-4.6657767E-2,-5.2569795E-1,8.650668E-3,-1.2359837E-4,-1.8534148E-1,9.361096E-4,-6.642236E-1,-1.7537256E-1,-0E0,-7.1811504E-3,-1.984155E-2,-2.6906535E-3,2.2653092E-3,-9.771335E-3],"categories":[],"categories_nodes":[],"categories_segments":[],"categories_sizes":[],"default_left":[0,0,0,0,0,0,0,0,0,0,0,0,0,0,0,0,0],"id":1,"left_children":[1,3,5,7,9,-1,-1,11,-1,13,15,-1,-1,-1,-1,-1,-1],"loss_changes":[1.3201297E1,2.233789E0,6.2491083E-1,3.3421618E-1,7.851238E-1,0E0,0E0,2.581367E-1,0E0,8.1744385E-1,1.0751153E0,0E0,0E0,0E0,0E0,0E0,0E0],"parents":[2147483647,0,0,1,1,2,2,3,3,4,4,7,7,9,9,10,10],"right_children":[2,4,6,8,10,-1,-1,12,-1,14,16,-1,-1,-1,-1,-1,-1],"split_conditions":[-5.490896E-2,-2.87203E-1,3.2090082E0,6.535948E-2,-3.713583E-1,8.650668E-3,-1.2359837E-4,1.9763832E-3,9.361096E-4,-1.6748802E-1,-2.9549292E-1,-0E0,-7.1811504E-3,-1.984155E-2,-2.6906535E-3,2.2653092E-3,-9.771335E-3],"split_indices":[15,14,1,9,15,0,0,8,0,8,15,0,0,0,0,0,0],"split_type":[0,0,0,0,0,0,0,0,0,0,0,0,0,0,0,0,0],"sum_hessian":[1.07E2,4.6E1,6.1E1,1.8E1,2.8E1,5.8E1,3E0,7E0,1.1E1,1.7E1,1.1E1,3E0,4E0,1.2E1,5E0,5E0,6E0],"tree_param":{"num_deleted":"0","num_feature":"16","num_nodes":"17","size_leaf_vector":"1"}},{"base_weights":[1.3134419E-2,-2.9614642E-1,2.6556844E-1,-4.3047076E-1,-5.0089596E-4,7.922557E-3,6.192361E-4,-4.760859E-1,-0E0,-1.3552536E-2,-0E0],"categories":[],"categories_nodes":[],"categories_segments":[],"categories_sizes":[],"default_left":[0,0,0,0,0,0,0,0,0,0,0],"id":2,"left_children":[1,3,5,7,-1,-1,-1,9,-1,-1,-1],"loss_changes":[9.0462475E0,1.6996613E0,6.33152E-1,7.0534277E-1,0E0,0E0,0E0,8.7459755E-1,0E0,0E0,0E0],"parents":[2147483647,0,0,1,1,2,2,3,3,7,7],"right_children":[2,4,6,8,-1,-1,-1,10,-1,-1,-1],"split_conditions":[-5.490896E-2,-8.3333336E-2,1.3138052E0,1.1885103E0,-5.0089596E-4,7.922557E-3,6.192361E-4,1.3980432E0,-0E0,-1.3552536E-2,-0E0],"split_indices":[15,12,1,11,0,0,0,13,0,0,0],"split_type":[0,0,0,0,0,0,0,0,0,0,0],"sum_hessian":[1.09E2,4.8E1,6.1E1,3E1,1.8E1,4.8E1,1.3E1,2.7E1,3E0,2.3E1,4E0],"tree_param":{"num_deleted":"0","num_feature":"16","num_nodes":"11","size_leaf_vector":"1"}},{"base_weights":[-1.70879E-2,-3.6900592E-1,2.651628E-1,-5.414456E-1,-1.2802009E-3,7.1503925E-3,-4.1468177E-4,-5.784016E-1,-0E0,-7.036383E-1,-2.3414241E-1,-0E0,-1.9035675E-2,1.2009385E-3,-9.893682E-3],"categories":[],"categories_nodes":[],"categories_segments":[],"categories_sizes":[],"default_left":[0,0,0,0,0,0,0,0,0,0,0,0,0,0,0],"id":3,"left_children":[1,3,5,7,-1,-1,-1,9,-1,11,13,-1,-1,-1,-1],"loss_changes":[1.1856512E1,2.5977478E0,5.092087E-1,7.173042E-1,0E0,0E0,0E0,4.063444E-1,0E0,5.7607174E-1,8.668455E-1,0E0,0E0,0E0,0E0],"parents":[2147483647,0,0,1,1,2,2,3,3,7,7,9,9,10,10],"right_children":[2,4,6,8,-1,-1,-1,10,-1,12,14,-1,-1,-1,-1],"split_conditions":[-1.788141E-1,-8.3333336E-2,3.2090082E0,1E0,-1.2802009E-3,7.1503925E-3,-4.1468177E-4,-3.713583E-1,-0E0,-1.1867843E0,-3.3968085E-1,-0E0,-1.9035675E-2,1.2009385E-3,-9.893682E-3],"split_indices":[15,12,1,4,0,0,0,15,0,15,15,0,0,0,0],"split_type":[0,0,0,0,0,0,0,0,0,0,0,0,0,0,0],"sum_hessian":[1.12E2,5E1,6.2E1,3E1,2E1,5.9E1,3E0,2.8E1,2E0,1.7E1,1.1E1,2E0,1.5E1,4E0,7E0],"tree_param":{"num_deleted":"0","num_feature":"16","num_nodes":"15","size_leaf_vector":"1"}},{"base_weights":[8.601879E-3,-3.5220358E-1,2.7867246E-1,-1.570002E-2,-5.142224E-1,7.4432716E-3,-0E0,-4.1527036E-3,1.1130142E-3,-5.5808336E-1,-0E0,-1.697767E-2,-2.0895383E-1,1.1767343E-3,-9.404993E-3],"categories":[],"categories_nodes":[],"categories_segments":[],"categories_sizes":[],"default_left":[0,0,0,0,0,0,0,0,0,0,0,0,0,0,0],"id":4,"left_children":[1,3,5,7,9,-1,-1,-1,-1,11,-1,-1,13,-1,-1],"loss_changes":[1.1373885E1,2.45851E0,4.755783E-1,2.602005E-1,5.941801E-1,0E0,0E0,0E0,0E0,3.9457798E-1,0E0,0E0,7.716823E-1,0E0,0E0],"parents":[2147483647,0,0,1,1,2,2,3,3,4,4,9,9,12,12],"right_children":[2,4,6,8,10,-1,-1,-1,-1,12,-1,-1,14,-1,-1],"split_conditions":[-1.788141E-1,-2.87203E-1,2.531762E0,-2.4876265E-1,1E0,7.4432716E-3,-0E0,-4.1527036E-3,1.1130142E-3,-3.713583E-1,-0E0,-1.697767E-2,-3.389845E-1,1.1767343E-3,-9.404993E-3],"split_indices":[15,14,1,0,4,0,0,0,0,15,0,0,15,0,0],"split_type":[0,0,0,0,0,0,0,0,0,0,0,0,0,0,0],"sum_hessian":[1.1E2,4.6E1,6.4E1,1.7E1,2.9E1,6.1E1,3E0,5E0,1.2E1,2.6E1,3E0,1.6E1,1E1,4E0,6E0],"tree_param":{"num_deleted":"0","num_feature":"16","num_nodes":"15","size_leaf_vector":"1"}},{"base_weights":[4.6823807E-3,2.3621583E-1,-2.3235528E-1,2.5571844E-1,-0E0,6.219416E-2,-4.5302147E-1,-0E0,6.7347E-3,6.687837E-3,-0E0,-5.543167E-1,6.52371E-4,-1.4782729E-2,-0E0],"categories":[],"categories_nodes":[],"categories_segments":[],"categories_sizes":[],"default_left":[0,0,0,0,0,0,0,0,0,0,0,0,0,0,0],"id":5,"left_children":[1,3,5,7,-1,9,11,-1,-1,-1,-1,13,-1,-1,-1],"loss_changes":[6.367887E0,3.7466693E-1,3.9272807E0,2.604158E-1,0E0,4.342209E-1,1.8877435E0,0E0,0E0,0E0,0E0,5.0852203E-1,0E0,0E0,0E0],"parents":[2147483647,0,0,1,1,2,2,3,3,5,5,6,6,11,11],"right_children":[2,4,6,8,-1,10,12,-1,-1,-1,-1,14,-1,-1,-1],"split_conditions":[-1.0408747E-2,3.006536E0,-2.6745507E-1,-8.581451E0,-0E0,2.701164E-1,8.3584934E-1,-0E0,6.7347E-3,6.687837E-3,-0E0,7.842326E-1,6.52371E-4,-1.4782729E-2,-0E0],"split_indices":[3,9,14,3,0,3,13,0,0,0,0,14,0,0,0],"split_type":[0,0,0,0,0,0,0,0,0,0,0,0,0,0,0],"sum_hessian":[1.09E2,5.6E1,5.3E1,5.3E1,3E0,2.3E1,3E1,2E0,5.1E1,4E0,1.9E1,2.5E1,5E0,2.3E1,2E0],"tree_param":{"num_deleted":"0","num_feature":"16","num_nodes":"15","size_leaf_vector":"1"}},{"base_weights":[1.1680184E-2,-2.7595606E-1,2.6364273E-1,1.3880899E-4,-4.4314718E-1,3.2956347E-1,1.3201616E-3,-6.0125536E-1,-1.464482E-1,-0E0,8.752122E-3,-1.6181065E-2,-0E0,2.6725358E-3,-3.4594843E-1,-1.1500238E-2,-0E0],"categories":[],"categories_nodes":[],"categories_segments":[],"categories_sizes":[],"default_left":[0,0,0,0,0,0,0,0,0,0,0,0,0,0,0,0,0],"id":6,"left_children":[1,3,5,-1,7,9,-1,11,13,-1,-1,-1,-1,-1,15,-1,-1],"loss_changes":[8.402988E0,2.701665E0,6.547966E-1,0E0,1.0111475E0,3.8948488E-1,0E0,3.3916092E-1,1.1095651E0,0E0,0E0,0E0,0E0,0E0,4.2235088E-1,0E0,0E0],"parents":[2147483647,0,0,1,1,2,2,4,4,5,5,7,7,8,8,14,14],"right_children":[2,4,6,-1,8,10,-1,12,14,-1,-1,-1,-1,-1,16,-1,-1],"split_conditions":[-5.310812E-2,-2.87203E-1,7.798514E-1,1.3880899E-4,-3.713583E-1,-8.581451E0,1.3201616E-3,0E0,-3.389845E-1,-0E0,8.752122E-3,-1.6181065E-2,-0E0,2.6725358E-3,-2.0833333E-1,-1.1500238E-2,-0E0],"split_indices":[15,14,1,0,15,3,0,12,15,0,0,0,0,0,12,0,0],"split_type":[0,0,0,0,0,0,0,0,0,0,0,0,0,0,0,0,0],"sum_hessian":[1.09E2,5E1,5.9E1,1.9E1,3.1E1,4.2E1,1.7E1,1.7E1,1.4E1,2E0,4E1,1.5E1,2E0,6E0,8E0,5E0,3E0],"tree_param":{"num_deleted":"0","num_feature":"16","num_nodes":"17","size_leaf_vector":"1"}},{"base_weights":[2.06481E-2,-2.7002275E-1,2.7349573E-1,-3.8987178E-1,-6.7799956E-5,3.367195E-1,2.6695216E-3,-4.2553997E-1,-0E0,8.902135E-3,-0E0,-1.5177021E-2,-1.750367E-1,1.6558664E-3,-3.018076E-1,-1.0412051E-2,-0E0],"categories":[],"categories_nodes":[],"categories_segments":[],"categories_sizes":[],"default_left":[0,0,0,0,0,0,0,0,0,0,0,0,0,0,0,0,0],"id":7,"left_children":[1,3,5,7,-1,9,-1,11,-1,-1,-1,-1,13,-1,15,-1,-1],"loss_changes":[8.234119E0,1.4891677E0,3.3444738E-1,6.412387E-1,0E0,2.897854E-1,0E0,7.932267E-1,0E0,0E0,0E0,0E0,7.606253E-1,0E0,5.0052786E-1,0E0,0E0],"parents":[2147483647,0,0,1,1,2,2,3,3,5,5,7,7,12,12,14,14],"right_children":[2,4,6,8,-1,10,-1,12,-1,-1,-1,-1,14,-1,16,-1,-1],"split_conditions":[-5.310812E-2,-8.3333336E-2,5.810313E-1,9.432137E-1,-6.7799956E-5,3.0900854E-1,2.6695216E-3,-3.713583E-1,-0E0,8.902135E-3,-0E0,-1.5177021E-2,-3.389845E-1,1.6558664E-3,-2.0833333E-1,-1.0412051E-2,-0E0],"split_indices":[15,12,0,3,0,3,0,15,0,0,0,0,15,0,12,0,0],"split_type":[0,0,0,0,0,0,0,0,0,0,0,0,0,0,0,0,0],"sum_hessian":[1.05E2,4.8E1,5.7E1,3.1E1,1.7E1,3.7E1,2E1,2.9E1,2E0,3.5E1,2E0,1.3E1,1.6E1,5E0,1.1E1,7E0,4E0],"tree_param":{"num_deleted":"0","num_feature":"16","num_nodes":"17","size_leaf_vector":"1"}},{"base_weights":[-1.1689156E-2,-2.9866296E-1,2.2191562E-1,-4.5460272E-1,-4.0277123E-4,2.4671374E-1,-3.7810515E-4,-4.9828672E-1,-0E0,2.6073653E-1,-0E0,-1.6126042E-2,-1.2749231E-1,-0E0,6.8864287E-3,1.3796157E-3,-2.6684538E-1,-0E0,-9.676776E-3],"categories":[],"categories_nodes":[],"categories_segments":[],"categories_sizes":[],"default_left":[0,0,0,0,0,0,0,0,0,0,0,0,0,0,0,0,0,0,0],"id":8,"left_children":[1,3,5,7,-1,9,-1,11,-1,13,-1,-1,15,-1,-1,-1,17,-1,-1],"loss_changes":[7.469306E0,2.0111666E0,4.6132326E-1,8.1464005E-1,0E0,2.6607895E-1,0E0,1.0084233E0,0E0,2.784207E-1,0E0,0E0,4.798684E-1,0E0,0E0,0E0,4.4721878E-1,0E0,0E0],"parents":[2147483647,0,0,1,1,2,2,3,3,5,5,7,7,9,9,12,12,16,16],"right_children":[2,4,6,8,-1,10,-1,12,-1,14,-1,-1,16,-1,-1,-1,18,-1,-1],"split_conditions":[-1.8614879E-1,-8.3333336E-2,3.2090082E0,9.432137E-1,-4.0277123E-4,3.0900854E-1,-3.7810515E-4,-3.9376307E-1,-0E0,-8.581451E0,-0E0,-1.6126042E-2,-3.6663437E-1,-0E0,6.8864287E-3,1.3796157E-3,-3.5274893E-1,-0E0,-9.676776E-3],"split_indices":[15,12,1,3,0,3,0,15,0,3,0,0,11,0,0,0,15,0,0],"split_type":[0,0,0,0,0,0,0,0,0,0,0,0,0,0,0,0,0,0,0],"sum_hessian":[1.04E2,4.7E1,5.7E1,2.8E1,1.9E1,5.3E1,4E0,2.6E1,2E0,5.1E1,2E0,1.6E1,1E1,2E0,4.9E1,4E0,6E0,2E0,4E0],"tree_param":{"num_deleted":"0","num_feature":"16","num_nodes":"19","size_leaf_vector":"1"}},{"base_weights":[5.032134E-3,-2.8307542E-1,2.365332E-1,-3.9145824E-1,-0E0,7.3037767E-3,1.7372413E-3,-1.512249E-2,-1.02082185E-1,7.150013E-4,-6.1960556E-3],"categories":[],"categories_nodes":[],"categories_segments":[],"categories_sizes":[],"default_left":[0,0,0,0,0,0,0,0,0,0,0],"id":9,"left_children":[1,3,5,7,-1,-1,-1,-1,9,-1,-1],"loss_changes":[7.65247E0,1.5465937E0,3.8353276E-1,1.7554994E0,0E0,0E0,0E0,0E0,5.0299495E-1,0E0,0E0],"parents":[2147483647,0,0,1,1,2,2,3,3,8,8],"right_children":[2,4,6,8,-1,-1,-1,-1,10,-1,-1],"split_conditions":[-5.310812E-2,7.334351E-1,1.0196079E0,-3.713583E-1,-0E0,7.3037767E-3,1.7372413E-3,-1.512249E-2,-3.001572E-1,7.150013E-4,-6.1960556E-3],"split_indices":[15,3,9,15,0,0,0,0,15,0,0],"split_type":[0,0,0,0,0,0,0,0,0,0,0],"sum_hessian":[1.08E2,4.7E1,6.1E1,3.3E1,1.4E1,4.2E1,1.9E1,1.6E1,1.7E1,9E0,8E0],"tree_param":{"num_deleted":"0","num_feature":"16","num_nodes":"11","size_leaf_vector":"1"}},{"base_weights":[-8.403614E-3,2.0553067E-1,-2.3199941E-1,5.6251097E-3,-4.7161613E-4,3.18688E-2,-4.1951662E-1,8.244331E-3,-6.785247E-2,-1.1462827E-2,-3.560414E-5,-4.9360828E-3,5.9296115E-4],"categories":[],"categories_nodes":[],"categories_segments":[],"categories_sizes":[],"default_left":[0,0,0,0,0,0,0,0,0,0,0,0,0],"id":10,"left_children":[1,3,5,-1,-1,7,9,-1,11,-1,-1,-1,-1],"loss_changes":[5.8459024E0,3.660555E-1,3.1953824E0,0E0,0E0,1.0000378E0,4.0884018E-1,0E0,3.528825E-1,0E0,0E0,0E0,0E0],"parents":[2147483647,0,0,1,1,2,2,5,5,6,6,8,8],"right_children":[2,4,6,-1,-1,8,10,-1,12,-1,-1,-1,-1],"split_conditions":[-1.0408747E-2,3.2090082E0,-2.6745507E-1,5.6251097E-3,-4.7161613E-4,2.701164E-1,1.1637957E0,8.244331E-3,6.535948E-2,-1.1462827E-2,-3.560414E-5,-4.9360828E-3,5.9296115E-4],"split_indices":[3,1,14,0,0,3,13,0,9,0,0,0,0],"split_type":[0,0,0,0,0,0,0,0,0,0,0,0,0],"sum_hessian":[1.15E2,5.8E1,5.7E1,5.5E1,3E0,2.4E1,3.3E1,5E0,1.9E1,2.9E1,4E0,8E0,1.1E1],"tree_param":{"num_deleted":"0","num_feature":"16","num_nodes":"13","size_leaf_vector":"1"}},{"base_weights":[2.8949582E-3,-2.926408E-1,2.2749868E-1,-3.914121E-1,-3.978825E-2,2.7548936E-1,8.621517E-4,-5.829144E-1,-5.750853E-4,1.6911362E-3,-7.4145845E-3,-0E0,7.2892704E-3,-1.6171861E-2,-3.9046945E-4],"categories":[],"categories_nodes":[],"categories_segments":[],"categories_sizes":[],"default_left":[0,0,0,0,0,0,0,0,0,0,0,0,0,0,0],"id":11,"left_children":[1,3,5,7,9,11,-1,13,-1,-1,-1,-1,-1,-1,-1],"loss_changes":[8.006423E0,1.0592031E0,4.8652267E-1,2.2152653E0,6.997687E-1,3.178482E-1,0E0,5.16037E-1,0E0,0E0,0E0,0E0,0E0,0E0,0E0],"parents":[2147483647,0,0,1,1,2,2,3,3,4,4,5,5,7,7],"right_children":[2,4,6,8,10,12,-1,14,-1,-1,-1,-1,-1,-1,-1],"split_conditions":[-1.788141E-1,-3.9527804E-1,1.0196079E0,7.334351E-1,-2.9549292E-1,-8.581451E0,8.621517E-4,7.6934165E-1,-5.750853E-4,1.6911362E-3,-7.4145845E-3,-0E0,7.2892704E-3,-1.6171861E-2,-3.9046945E-4],"split_indices":[15,15,9,3,15,3,0,1,0,0,0,0,0,0,0],"split_type":[0,0,0,0,0,0,0,0,0,0,0,0,0,0,0],"sum_hessian":[1.14E2,4.8E1,6.6E1,3.2E1,1.6E1,5E1,1.6E1,1.9E1,1.3E1,1.2E1,4E0,2E0,4.8E1,1.6E1,3E0],"tree_param":{"num_deleted":"0","num_feature":"16","num_nodes":"15","size_leaf_vector":"1"}},{"base_weights":[-1.09541295E-2,-3.038912E-1,2.2020751E-1,-4.2386127E-1,2.9187146E-4,2.3681355E-1,-4.0258237E-5,-6.402416E-1,-1.0981134E-1,-0E0,6.2206765E-3,-1.7827032E-2,-3.8596886E-4,2.636793E-3,-2.4276938E-1,-7.4668797E-3,-0E0],"categories":[],"categories_nodes":[],"categories_segments":[],"categories_sizes":[],"default_left":[0,0,0,0,0,0,0,0,0,0,0,0,0,0,0,0,0],"id":12,"left_children":[1,3,5,7,-1,9,-1,11,13,-1,-1,-1,-1,-1,15,-1,-1],"loss_changes":[8.292014E0,2.245481E0,3.4405375E-1,2.2060552E0,0E0,2.5247884E-1,0E0,6.9404507E-1,7.599453E-1,0E0,0E0,0E0,0E0,0E0,2.9076982E-1,0E0,0E0],"parents":[2147483647,0,0,1,1,2,2,3,3,5,5,7,7,8,8,14,14],"right_children":[2,4,6,8,-1,10,-1,12,14,-1,-1,-1,-1,-1,16,-1,-1],"split_conditions":[-5.310812E-2,7.334351E-1,3.2090082E0,-3.713583E-1,2.9187146E-4,-8.581451E0,-4.0258237E-5,7.6934165E-1,-3.389845E-1,-0E0,6.2206765E-3,-1.7827032E-2,-3.8596886E-4,2.636793E-3,3.1894338E-1,-7.4668797E-3,-0E0],"split_indices":[15,3,1,15,0,3,0,1,15,0,0,0,0,0,3,0,0],"split_type":[0,0,0,0,0,0,0,0,0,0,0,0,0,0,0,0,0],"sum_hessian":[1.15E2,5.1E1,6.4E1,3.7E1,1.4E1,6.1E1,3E0,1.9E1,1.8E1,2E0,5.9E1,1.6E1,3E0,6E0,1.2E1,1E1,2E0],"tree_param":{"num_deleted":"0","num_feature":"16","num_nodes":"17","size_leaf_vector":"1"}},{"base_weights":[-0E0,-2.4978636E-1,2.2714975E-1,-0E0,-3.727872E-1,6.8699545E-3,8.063488E-4,-4.047484E-1,-0E0,-1.1472307E-2,-1.1348588E-3],"categories":[],"categories_nodes":[],"categories_segments":[],"categories_sizes":[],"default_left":[0,0,0,0,0,0,0,0,0,0,0],"id":13,"left_children":[1,3,5,-1,7,-1,-1,9,-1,-1,-1],"loss_changes":[6.52205E0,1.8109548E0,4.079895E-1,0E0,6.042695E-1,0E0,0E0,4.1609335E-1,0E0,0E0,0E0],"parents":[2147483647,0,0,1,1,2,2,4,4,7,7],"right_children":[2,4,6,-1,8,-1,-1,10,-1,-1,-1],"split_conditions":[-5.310812E-2,-3.4804776E-1,7.748968E-1,-0E0,1.3980432E0,6.8699545E-3,8.063488E-4,0E0,-0E0,-1.1472307E-2,-1.1348588E-3],"split_indices":[15,14,1,0,13,0,0,12,0,0,0],"split_type":[0,0,0,0,0,0,0,0,0,0,0],"sum_hessian":[1.08E2,5.1E1,5.7E1,1.7E1,3.4E1,4.3E1,1.4E1,3.2E1,2E0,2.6E1,6E0],"tree_param":{"num_deleted":"0","num_feature":"16","num_nodes":"11","size_leaf_vector":"1"}},{"base_weights":[-1.6362544E-2,-3.358943E-1,2.179342E-1,-4.7870988E-1,-6.6993583E-4,2.6668403E-1,1.0636059E-3,-1.3128856E-2,-1.6970484E-3,-0E0,7.067259E-3],"categories":[],"categories_nodes":[],"categories_segments":[],"categories_sizes":[],"default_left":[0,0,0,0,0,0,0,0,0,0,0],"id":14,"left_children":[1,3,5,7,-1,9,-1,-1,-1,-1,-1],"loss_changes":[9.399522E0,2.114595E0,4.4793916E-1,3.1537724E-1,0E0,3.1062245E-1,0E0,0E0,0E0,0E0,0E0],"parents":[2147483647,0,0,1,1,2,2,3,3,5,5],"right_children":[2,4,6,8,-1,10,-1,-1,-1,-1,-1],"split_conditions":[-5.490896E-2,-1.25E-1,1.0196079E0,4.6636358E-1,-6.6993583E-4,-8.581451E0,1.0636059E-3,-1.3128856E-2,-1.6970484E-3,-0E0,7.067259E-3],"split_indices":[15,12,9,11,0,3,0,0,0,0,0],"split_type":[0,0,0,0,0,0,0,0,0,0,0],"sum_hessian":[1.18E2,5E1,6.8E1,3.2E1,1.8E1,5E1,1.8E1,2.7E1,5E0,2E0,4.8E1],"tree_param":{"num_deleted":"0","num_feature":"16","num_nodes":"11","size_leaf_vector":"1"}},{"base_weights":[-1.3290675E-2,-3.046754E-1,2.2457956E-1,-5.3310907E-1,-1.1215275E-1,2.4739668E-1,-4.258397E-4,-1.5580793E-2,-1.285798E-1,4.1524702E-4,-3.9963387E-3,-0E0,6.509607E-3,1.2437989E-3,-7.480369E-3],"categories":[],"categories_nodes":[],"categories_segments":[],"categories_sizes":[],"default_left":[0,0,0,0,0,0,0,0,0,0,0,0,0,0,0],"id":15,"left_children":[1,3,5,7,9,11,-1,-1,13,-1,-1,-1,-1,-1,-1],"loss_changes":[8.484965E0,1.9734468E0,4.7350335E-1,2.755475E-1,2.8463435E-1,2.765789E-1,0E0,0E0,4.409694E-1,0E0,0E0,0E0,0E0,0E0,0E0],"parents":[2147483647,0,0,1,1,2,2,3,3,4,4,5,5,8,8],"right_children":[2,4,6,8,10,12,-1,-1,14,-1,-1,-1,-1,-1,-1],"split_conditions":[-5.310812E-2,-2.9247594E-1,3.2090082E0,-3.9376307E-1,-3.037917E-1,-8.581451E0,-4.258397E-4,-1.5580793E-2,-3.9440423E-1,4.1524702E-4,-3.9963387E-3,-0E0,6.509607E-3,1.2437989E-3,-7.480369E-3],"split_indices":[15,8,1,15,11,3,0,0,11,0,0,0,0,0,0],"split_type":[0,0,0,0,0,0,0,0,0,0,0,0,0,0,0],"sum_hessian":[1.15E2,5.2E1,6.3E1,2E1,3.2E1,5.9E1,4E0,1.4E1,6E0,7E0,2.5E1,2E0,5.7E1,3E0,3E0],"tree_param":{"num_deleted":"0","num_feature":"16","num_nodes":"15","size_leaf_vector":"1"}},{"base_weights":[-4.6009682E-2,-2.1665159E-1,1.1201219E-1,-2.8653064E-1,1.7709516E-4,-1.0939765E-3,4.822618E-3,1.5508753E-3,-3.4627622E-1,-3.7556672E-1,2.65494E-5,-1.1824484E-2,-1.46785E-1,-0E0,-6.6252635E-3],"categories":[],"categories_nodes":[],"categories_segments":[],"categories_sizes":[],"default_left":[0,0,0,0,0,0,0,0,0,0,0,0,0,0,0],"id":16,"left_children":[1,3,5,7,-1,-1,-1,-1,9,11,-1,-1,13,-1,-1],"loss_changes":[3.1603723E0,1.0022275E0,8.389463E-1,1.1156051E0,0E0,0E0,0E0,0E0,5.530591E-1,3.4483576E-1,0E0,0E0,3.6036894E-1,0E0,0E0],"parents":[2147483647,0,0,1,1,2,2,3,3,8,8,9,9,12,12],"right_children":[2,4,6,8,-1,-1,-1,-1,10,12,-1,-1,14,-1,-1],"split_conditions":[1.3888889E-2,6.1061126E-1,2.0439394E-2,-7.850484E-1,1.7709516E-4,-1.0939765E-3,4.822618E-3,1.5508753E-3,1E0,-2.9247594E-1,2.65494E-5,-1.1824484E-2,5.114972E-1,-0E0,-6.6252635E-3],"split_indices":[2,14,8,14,0,0,0,0,4,8,0,0,8,0,0],"split_type":[0,0,0,0,0,0,0,0,0,0,0,0,0,0,0],"sum_hessian":[1.09E2,5.3E1,5.6E1,4.1E1,1.2E1,1.8E1,3.8E1,5E0,3.6E1,3.4E1,2E0,2E1,1.4E1,7E0,7E0],"tree_param":{"num_deleted":"0","num_feature":"16","num_nodes":"15","size_leaf_vector":"1"}},{"base_weights":[-9.514813E-3,1.707185E-1,-1.7028454E-1,4.8584375E-3,-4.4501494E-4,5.184596E-2,-3.5661647E-1,7.408517E-3,-5.850084E-2,-1.05295315E-1,-4.3489093E-1,-7.2887437E-3,1.4213611E-3,3.1268194E-3,-3.1472638E-1,-1.313399E-2,-1.171598E-3,-9.962718E-3,-0E0],"categories":[],"categories_nodes":[],"categories_segments":[],"categories_sizes":[],"default_left":[0,0,0,0,0,0,0,0,0,0,0,0,0,0,0,0,0,0,0],"id":17,"left_children":[1,3,5,-1,-1,7,9,-1,11,13,15,-1,-1,-1,17,-1,-1,-1,-1],"loss_changes":[3.4772851E0,3.2984352E-1,2.856275E0,0E0,0E0,1.0056576E0,3.4168243E-1,0E0,7.8365415E-1,9.132049E-1,5.8009815E-1,0E0,0E0,0E0,2.500683E-1,0E0,0E0,0E0,0E0],"parents":[2147483647,0,0,1,1,2,2,5,5,6,6,8,8,9,9,10,10,14,14],"right_children":[2,4,6,-1,-1,8,10,-1,12,14,16,-1,-1,-1,18,-1,-1,-1,-1],"split_conditions":[-1.0408747E-2,2.7502139E0,-1.946088E-1,4.8584375E-3,-4.4501494E-4,-2.875817E-1,-3.8399488E-1,7.408517E-3,7.8431375E-2,3.0900854E-1,3.6993206E-1,-7.2887437E-3,1.4213611E-3,3.1268194E-3,5.367098E-2,-1.313399E-2,-1.171598E-3,-9.962718E-3,-0E0],"split_indices":[3,1,14,0,0,9,11,0,9,3,11,0,0,0,14,0,0,0,0],"split_type":[0,0,0,0,0,0,0,0,0,0,0,0,0,0,0,0,0,0,0],"sum_hessian":[1.13E2,5.2E1,6.1E1,4.8E1,4E0,2.8E1,3.3E1,8E0,2E1,1.1E1,2.2E1,6E0,1.4E1,5E0,6E0,1.6E1,6E0,4E0,2E0],"tree_param":{"num_deleted":"0","num_feature":"16","num_nodes":"19","size_leaf_vector":"1"}},{"base_weights":[4.5331122E-4,-2.4842674E-1,2.1361935E-1,-3.577307E-1,-0E0,3.2662734E-1,3.2507281E-3,-1.4147113E-2,-6.898871E-2,9.920039E-3,8.729347E-4,3.0283767E-3,-5.112158E-3],"categories":[],"categories_nodes":[],"categories_segments":[],"categories_sizes":[],"default_left":[0,0,0,0,0,0,0,0,0,0,0,0,0],"id":18,"left_children":[1,3,5,7,-1,9,-1,-1,11,-1,-1,-1,-1],"loss_changes":[6.3524666E0,1.4354081E0,2.8742528E-1,1.8632655E0,0E0,2.59876E-1,0E0,0E0,6.481441E-1,0E0,0E0,0E0,0E0],"parents":[2147483647,0,0,1,1,2,2,3,3,5,5,8,8],"right_children":[2,4,6,8,-1,10,-1,-1,12,-1,-1,-1,-1],"split_conditions":[-5.310812E-2,7.334351E-1,3.2040977E-1,-3.9376307E-1,-0E0,5.16778E-1,3.2507281E-3,-1.4147113E-2,-3.389845E-1,9.920039E-3,8.729347E-4,3.0283767E-3,-5.112158E-3],"split_indices":[15,3,15,15,0,1,0,0,15,0,0,0,0],"split_type":[0,0,0,0,0,0,0,0,0,0,0,0,0],"sum_hessian":[1.13E2,5.1E1,6.2E1,3.4E1,1.7E1,2E1,4.2E1,1.7E1,1.7E1,1.4E1,6E0,6E0,1.1E1],"tree_param":{"num_deleted":"0","num_feature":"16","num_nodes":"13","size_leaf_vector":"1"}},{"base_weights":[1.5706873E-2,-1.945012E-1,2.0034723E-1,-2.9832754E-2,-3.0969277E-1,5.4540695E-3,-8.981629E-5,1.4722719E-3,-3.2975578E-3,-0E0,-3.3864865E-1,-9.368046E-3,-0E0],"categories":[],"categories_nodes":[],"categories_segments":[],"categories_sizes":[],"default_left":[0,0,0,0,0,0,0,0,0,0,0,0,0],"id":19,"left_children":[1,3,5,7,9,-1,-1,-1,-1,-1,11,-1,-1],"loss_changes":[4.3499246E0,8.087268E-1,3.083861E-1,2.963755E-1,3.0567312E-1,0E0,0E0,0E0,0E0,0E0,2.606895E-1,0E0,0E0],"parents":[2147483647,0,0,1,1,2,2,3,3,4,4,10,10],"right_children":[2,4,6,8,10,-1,-1,-1,-1,-1,12,-1,-1],"split_conditions":[-5.310812E-2,-1.0061036E-1,3.2090082E0,9.85276E-2,-8.452154E-2,5.4540695E-3,-8.981629E-5,1.4722719E-3,-3.2975578E-3,-0E0,1.3980432E0,-9.368046E-3,-0E0],"split_indices":[15,14,1,13,3,0,0,0,0,0,13,0,0],"split_type":[0,0,0,0,0,0,0,0,0,0,0,0,0],"sum_hessian":[1.05E2,4.8E1,5.7E1,2.3E1,2.5E1,5.4E1,3E0,1.1E1,1.2E1,2E0,2.3E1,2E1,3E0],"tree_param":{"num_deleted":"0","num_feature":"16","num_nodes":"13","size_leaf_vector":"1"}},{"base_weights":[-7.0309946E-3,-2.5602975E-1,2.0202303E-1,-4.5558897E-1,-2.0448954E-3,5.509933E-3,-5.473966E-4,-1.4219184E-2,-7.700004E-2,1.3018446E-3,-5.1566004E-3],"categories":[],"categories_nodes":[],"categories_segments":[],"categories_sizes":[],"default_left":[0,0,0,0,0,0,0,0,0,0,0],"id":20,"left_children":[1,3,5,7,-1,-1,-1,-1,9,-1,-1],"loss_changes":[6.3710585E0,1.6191218E0,3.6578083E-1,6.3818836E-1,0E0,0E0,0E0,0E0,2.7445763E-1,0E0,0E0],"parents":[2147483647,0,0,1,1,2,2,3,3,8,8],"right_children":[2,4,6,8,-1,-1,-1,-1,10,-1,-1],"split_conditions":[-5.310812E-2,-2.9247594E-1,3.2090082E0,-3.713583E-1,-2.0448954E-3,5.509933E-3,-5.473966E-4,-1.4219184E-2,-3.3968085E-1,1.3018446E-3,-5.1566004E-3],"split_indices":[15,8,1,15,0,0,0,0,15,0,0],"split_type":[0,0,0,0,0,0,0,0,0,0,0],"sum_hessian":[1.15E2,5.3E1,6.2E1,2.1E1,3.2E1,5.9E1,3E0,1.4E1,7E0,3E0,4E0],"tree_param":{"num_deleted":"0","num_feature":"16","num_nodes":"11","size_leaf_vector":"1"}},{"base_weights":[-5.049368E-3,-2.341457E-1,1.8364705E-1,-3.146048E-1,-6.282484E-4,5.834383E-3,9.2115806E-4,-1.0918951E-2,-1.3114372E-1,1.2244101E-3,-6.6716634E-3],"categories":[],"categories_nodes":[],"categories_segments":[],"categories_sizes":[],"default_left":[0,0,0,0,0,0,0,0,0,0,0],"id":21,"left_children":[1,3,5,7,-1,-1,-1,-1,9,-1,-1],"loss_changes":[4.861118E0,7.025218E-1,3.034737E-1,3.6793423E-1,0E0,0E0,0E0,0E0,6.340531E-1,0E0,0E0],"parents":[2147483647,0,0,1,1,2,2,3,3,8,8],"right_children":[2,4,6,8,-1,-1,-1,-1,10,-1,-1],"split_conditions":[-5.310812E-2,7.334351E-1,7.798514E-1,-3.713583E-1,-6.282484E-4,5.834383E-3,9.2115806E-4,-1.0918951E-2,-3.001572E-1,1.2244101E-3,-6.6716634E-3],"split_indices":[15,3,1,15,0,0,0,0,15,0,0],"split_type":[0,0,0,0,0,0,0,0,0,0,0],"sum_hessian":[1.05E2,4.8E1,5.7E1,3.2E1,1.6E1,3.9E1,1.8E1,1.5E1,1.7E1,7E0,1E1],"tree_param":{"num_deleted":"0","num_feature":"16","num_nodes":"11","size_leaf_vector":"1"}},{"base_weights":[-4.243731E-2,-3.1324214E-1,4.3046996E-3,-0E0,-4.169248E-1,-4.6902338E-1,-4.3445925E-4,-1.7897657E-1,-1.4650039E-2,1.8792298E-3,-8.473641E-3],"categories":[],"categories_nodes":[],"categories_segments":[],"categories_sizes":[],"default_left":[0,0,0,0,0,0,0,0,0,0,0],"id":22,"left_children":[1,3,-1,-1,5,7,-1,9,-1,-1,-1],"loss_changes":[6.0864162E0,1.4343977E0,0E0,0E0,4.9505663E-1,3.27837E-1,0E0,7.8418857E-1,0E0,0E0,0E0],"parents":[2147483647,0,0,1,1,4,4,5,5,7,7],"right_children":[2,4,-1,-1,6,8,-1,10,-1,-1,-1],"split_conditions":[-5.490896E-2,-4.0666932E-1,4.3046996E-3,-0E0,-8.3333336E-2,2.6375386E-1,-4.3445925E-4,-2.6966292E-1,-1.4650039E-2,1.8792298E-3,-8.473641E-3],"split_indices":[15,14,0,0,12,3,0,7,0,0,0],"split_type":[0,0,0,0,0,0,0,0,0,0,0],"sum_hessian":[9.7E1,4.3E1,5.4E1,1.2E1,3.1E1,2.6E1,5E0,1.1E1,1.5E1,4E0,7E0],"tree_param":{"num_deleted":"0","num_feature":"16","num_nodes":"11","size_leaf_vector":"1"}},{"base_weights":[-5.3438456E-3,-3.668656E-1,1.6180684E-1,-5.496371E-1,-3.8923437E-4,-0E0,2.1593446E-1,-1.5427031E-2,-0E0,3.8644955E-3,-1.6623479E-1,2.6904443E-1,1.4676411E-4,-7.0918235E-3,-0E0,-0E0,7.260946E-3],"categories":[],"categories_nodes":[],"categories_segments":[],"categories_sizes":[],"default_left":[0,0,0,0,0,0,0,0,0,0,0,0,0,0,0,0,0],"id":23,"left_children":[1,3,5,7,-1,9,11,-1,-1,-1,13,15,-1,-1,-1,-1,-1],"loss_changes":[6.7254353E0,2.0233126E0,6.8394625E-1,6.281185E-1,0E0,6.441116E-1,5.148475E-1,0E0,0E0,0E0,2.5810236E-1,3.5195374E-1,0E0,0E0,0E0,0E0,0E0],"parents":[2147483647,0,0,1,1,2,2,3,3,5,5,6,6,10,10,11,11],"right_children":[2,4,6,8,-1,10,12,-1,-1,-1,14,16,-1,-1,-1,-1,-1],"split_conditions":[-3.9376307E-1,7.334351E-1,-2.9773133E-2,5.2287585E-1,-3.8923437E-4,-3.001572E-1,1.8202248E0,-1.5427031E-2,-0E0,3.8644955E-3,-1.788141E-1,-8.581451E0,1.4676411E-4,-7.0918235E-3,-0E0,-0E0,7.260946E-3],"split_indices":[15,3,15,9,0,15,7,0,0,0,15,3,0,0,0,0,0],"split_type":[0,0,0,0,0,0,0,0,0,0,0,0,0,0,0,0,0],"sum_hessian":[1.03E2,3.2E1,7.1E1,1.9E1,1.3E1,1.8E1,5.3E1,1.6E1,3E0,9E0,9E0,4E1,1.3E1,4E0,5E0,2E0,3.8E1],"tree_param":{"num_deleted":"0","num_feature":"16","num_nodes":"17","size_leaf_vector":"1"}},{"base_weights":[-2.0011587E-2,-2.6831183E-1,1.792581E-1,-0E0,-9.814419E-3,5.7316343E-3,1.4128421E-3],"categories":[],"categories_nodes":[],"categories_segments":[],"categories_sizes":[],"default_left":[0,0,0,0,0,0,0],"id":24,"left_children":[1,3,5,-1,-1,-1,-1],"loss_changes":[6.1166673E0,1.7838547E0,2.5466275E-1,0E0,0E0,0E0,0E0],"parents":[2147483647,0,0,1,1,2,2],"right_children":[2,4,6,-1,-1,-1,-1],"split_conditions":[-5.490896E-2,-2.87203E-1,6.013072E-1,-0E0,-9.814419E-3,5.7316343E-3,1.4128421E-3],"split_indices":[15,14,9,0,0,0,0],"split_type":[0,0,0,0,0,0,0],"sum_hessian":[1.16E2,5.2E1,6.4E1,1.8E1,3.4E1,4.1E1,2.3E1],"tree_param":{"num_deleted":"0","num_feature":"16","num_nodes":"7","size_leaf_vector":"1"}},{"base_weights":[-3.1606745E-2,-2.3896112E-1,1.2547459E-1,-3.5465366E-1,-0E0,4.1260757E-3,-0E0,-4.721385E-1,-9.3380965E-2,-1.2990584E-2,-0E0,1.8941548E-3,-2.1005665E-1,-8.966559E-3,8.960709E-4],"categories":[],"categories_nodes":[],"categories_segments":[],"categories_sizes":[],"default_left":[0,0,0,0,0,0,0,0,0,0,0,0,0,0,0],"id":25,"left_children":[1,3,5,7,-1,-1,-1,9,11,-1,-1,-1,13,-1,-1],"loss_changes":[3.7169163E0,1.2612553E0,2.6688695E-1,6.1708784E-1,0E0,0E0,0E0,4.2540312E-1,4.1531742E-1,0E0,0E0,0E0,5.943556E-1,0E0,0E0],"parents":[2147483647,0,0,1,1,2,2,3,3,7,7,8,8,12,12],"right_children":[2,4,6,8,-1,-1,-1,10,12,-1,-1,-1,14,-1,-1],"split_conditions":[-5.490896E-2,7.334351E-1,7.798514E-1,-3.9376307E-1,-0E0,4.1260757E-3,-0E0,7.6934165E-1,-1.0106537E-1,-1.2990584E-2,-0E0,1.8941548E-3,-2.0833333E-1,-8.966559E-3,8.960709E-4],"split_indices":[15,3,1,15,0,0,0,1,11,0,0,0,12,0,0],"split_type":[0,0,0,0,0,0,0,0,0,0,0,0,0,0,0],"sum_hessian":[1.06E2,4.6E1,6E1,2.9E1,1.7E1,4.3E1,1.7E1,1.7E1,1.2E1,1.5E1,2E0,4E0,8E0,5E0,3E0],"tree_param":{"num_deleted":"0","num_feature":"16","num_nodes":"15","size_leaf_vector":"1"}},{"base_weights":[-8.584832E-4,-2.277027E-1,1.7977646E-1,-3.1798908E-1,-3.638485E-4,2.4086864E-1,1.3140299E-3,-1.18172495E-2,-8.9485176E-2,-0E0,6.51626E-3,1.4525101E-3,-6.436307E-3],"categories":[],"categories_nodes":[],"categories_segments":[],"categories_sizes":[],"default_left":[0,0,0,0,0,0,0,0,0,0,0,0,0],"id":26,"left_children":[1,3,5,7,-1,9,-1,-1,11,-1,-1,-1,-1],"loss_changes":[5.059076E0,9.188504E-1,3.6291718E-1,9.527006E-1,0E0,2.8576207E-1,0E0,0E0,6.4027923E-1,0E0,0E0,0E0,0E0],"parents":[2147483647,0,0,1,1,2,2,3,3,5,5,8,8],"right_children":[2,4,6,8,-1,10,-1,-1,12,-1,-1,-1,-1],"split_conditions":[-5.310812E-2,7.334351E-1,5.810313E-1,-3.713583E-1,-3.638485E-4,-8.726226E-1,1.3140299E-3,-1.18172495E-2,-2.9549292E-1,-0E0,6.51626E-3,1.4525101E-3,-6.436307E-3],"split_indices":[15,3,0,15,0,14,0,0,15,0,0,0,0],"split_type":[0,0,0,0,0,0,0,0,0,0,0,0,0],"sum_hessian":[1.16E2,5.2E1,6.4E1,3.4E1,1.8E1,3.9E1,2.5E1,1.7E1,1.7E1,2E0,3.7E1,9E0,8E0],"tree_param":{"num_deleted":"0","num_feature":"16","num_nodes":"13","size_leaf_vector":"1"}},{"base_weights":[-7.801334E-3,3.2240965E-3,-1.4623317E-1,1.1434231E-1,-2.8823644E-1,7.431175E-3,-0E0,-6.000513E-4,-9.562758E-3],"categories":[],"categories_nodes":[],"categories_segments":[],"categories_sizes":[],"default_left":[0,0,0,0,0,0,0,0,0],"id":27,"left_children":[1,-1,3,5,7,-1,-1,-1,-1],"loss_changes":[2.22177E0,0E0,2.3865623E0,4.5685542E-1,8.141327E-1,0E0,0E0,0E0,0E0],"parents":[2147483647,0,0,2,2,3,3,4,4],"right_children":[2,-1,4,6,8,-1,-1,-1,-1],"split_conditions":[-1.0408747E-2,3.2240965E-3,-3.4804776E-1,-2.460476E-1,-3.398844E-1,7.431175E-3,-0E0,-6.000513E-4,-9.562758E-3],"split_indices":[3,0,14,1,1,0,0,0,0],"split_type":[0,0,0,0,0,0,0,0,0],"sum_hessian":[1.1E2,5.4E1,5.6E1,1.9E1,3.7E1,5E0,1.4E1,1.2E1,2.5E1],"tree_param":{"num_deleted":"0","num_feature":"16","num_nodes":"9","size_leaf_vector":"1"}},{"base_weights":[-3.2208674E-3,-2.1133167E-1,1.7910424E-1,-1.9241458E-2,-3.3499792E-1,5.811565E-3,1.1157743E-3,9.5350755E-4,-4.6030437E-3,-4.311971E-1,-1.0010923E-1,-1.2203471E-2,-0E0,2.2977453E-3,-6.506968E-3],"categories":[],"categories_nodes":[],"categories_segments":[],"categories_sizes":[],"default_left":[0,0,0,0,0,0,0,0,0,0,0,0,0,0,0],"id":28,"left_children":[1,3,5,7,9,-1,-1,-1,-1,11,13,-1,-1,-1,-1],"loss_changes":[4.603767E0,1.2016609E0,3.084798E-1,3.43152E-1,3.9336276E-1,0E0,0E0,0E0,0E0,4.1065598E-1,6.2778676E-1,0E0,0E0,0E0,0E0],"parents":[2147483647,0,0,1,1,2,2,3,3,4,4,9,9,10,10],"right_children":[2,4,6,8,10,-1,-1,-1,-1,12,14,-1,-1,-1,-1],"split_conditions":[-5.310812E-2,-1.0524151E-1,6.013072E-1,5.114972E-1,-3.713583E-1,5.811565E-3,1.1157743E-3,9.5350755E-4,-4.6030437E-3,7.6934165E-1,-3.389845E-1,-1.2203471E-2,-0E0,2.2977453E-3,-6.506968E-3],"split_indices":[15,14,9,8,15,0,0,0,0,1,15,0,0,0,0],"split_type":[0,0,0,0,0,0,0,0,0,0,0,0,0,0,0],"sum_hessian":[1.14E2,5.4E1,6E1,2.4E1,3E1,3.9E1,2.1E1,1.8E1,6E0,1.8E1,1.2E1,1.5E1,3E0,5E0,7E0],"tree_param":{"num_deleted":"0","num_feature":"16","num_nodes":"15","size_leaf_vector":"1"}},{"base_weights":[-0E0,-1.9769554E-1,1.6982034E-1,-2.9993978E-1,-8.738716E-4,2.3364015E-1,7.36613E-4,-4.1701016E-1,-8.610258E-4,-2.5428155E-6,6.4045363E-3,-1.1947676E-2,-0E0],"categories":[],"categories_nodes":[],"categories_segments":[],"categories_sizes":[],"default_left":[0,0,0,0,0,0,0,0,0,0,0,0,0],"id":29,"left_children":[1,3,5,7,-1,9,-1,11,-1,-1,-1,-1,-1],"loss_changes":[3.9324863E0,7.3618865E-1,4.3050623E-1,7.482357E-1,0E0,3.1591153E-1,0E0,4.3201685E-1,0E0,0E0,0E0,0E0,0E0],"parents":[2147483647,0,0,1,1,2,2,3,3,5,5,7,7],"right_children":[2,4,6,8,-1,10,-1,12,-1,-1,-1,-1,-1],"split_conditions":[-2.9773133E-2,-1.388889E-1,4.9673203E-1,-3.713583E-1,-8.738716E-4,-8.581451E0,7.36613E-4,7.334351E-1,-8.610258E-4,-2.5428155E-6,6.4045363E-3,-1.1947676E-2,-0E0],"split_indices":[15,2,9,15,0,3,0,3,0,0,0,0,0],"split_type":[0,0,0,0,0,0,0,0,0,0,0,0,0],"sum_hessian":[1.1E2,5.1E1,5.9E1,2.8E1,2.3E1,3.7E1,2.2E1,1.7E1,1.1E1,2E0,3.5E1,1.4E1,3E0],"tree_param":{"num_deleted":"0","num_feature":"16","num_nodes":"13","size_leaf_vector":"1"}},{"base_weights":[1.4373602E-3,-1.8648207E-1,4.2905654E-3,1.8968401E-4,-2.709782E-1,-1.0040817E-2,-4.4372905E-2,3.907166E-3,-6.6577564E-3],"categories":[],"categories_nodes":[],"categories_segments":[],"categories_sizes":[],"default_left":[0,0,0,0,0,0,0,0,0],"id":30,"left_children":[1,3,-1,-1,5,-1,7,-1,-1],"loss_changes":[3.7359288E0,1.0062499E0,0E0,0E0,9.2869806E-1,0E0,1.0580919E0,0E0,0E0],"parents":[2147483647,0,0,1,1,4,4,6,6],"right_children":[2,4,-1,-1,6,-1,8,-1,-1],"split_conditions":[-2.9773133E-2,-3.4804776E-1,4.2905654E-3,1.8968401E-4,-3.713583E-1,-1.0040817E-2,-2.9549292E-1,3.907166E-3,-6.6577564E-3],"split_indices":[15,14,0,0,15,0,15,0,0],"split_type":[0,0,0,0,0,0,0,0,0],"sum_hessian":[1.1E2,5.1E1,5.9E1,1.5E1,3.6E1,2E1,1.6E1,8E0,8E0],"tree_param":{"num_deleted":"0","num_feature":"16","num_nodes":"9","size_leaf_vector":"1"}},{"base_weights":[5.677737E-3,1.4132701E-1,-1.2571974E-1,4.075418E-3,-7.226041E-4,-2.133521E-1,1.6170093E-4,-2.5981554E-1,3.528567E-3,-2.9561123E-1,-0E0,-8.561104E-3,-0E0],"categories":[],"categories_nodes":[],"categories_segments":[],"categories_sizes":[],"default_left":[0,0,0,0,0,0,0,0,0,0,0,0,0],"id":31,"left_children":[1,3,5,-1,-1,7,-1,9,-1,11,-1,-1,-1],"loss_changes":[2.0736263E0,2.8613424E-1,7.5365925E-1,0E0,0E0,7.770114E-1,0E0,4.2376637E-1,0E0,4.722116E-1,0E0,0E0,0E0],"parents":[2147483647,0,0,1,1,2,2,5,5,7,7,9,9],"right_children":[2,4,6,-1,-1,8,-1,10,-1,12,-1,-1,-1],"split_conditions":[-1.1744144E-2,2.7502139E0,0E0,4.075418E-3,-7.226041E-4,1E0,1.6170093E-4,9.432137E-1,3.528567E-3,3.6993206E-1,-0E0,-8.561104E-3,-0E0],"split_indices":[3,1,12,0,0,4,0,3,0,11,0,0,0],"split_type":[0,0,0,0,0,0,0,0,0,0,0,0,0],"sum_hessian":[1.09E2,5.5E1,5.4E1,5.1E1,4E0,3.3E1,2.1E1,3.1E1,2E0,2.8E1,3E0,2.4E1,4E0],"tree_param":{"num_deleted":"0","num_feature":"16","num_nodes":"13","size_leaf_vector":"1"}},{"base_weights":[1.5013195E-3,-1.7927207E-1,3.7657265E-3,-3.0195418E-1,-0E0,-3.4989744E-1,-0E0,-1.17314225E-2,-1.18021876E-1,1.9219862E-3,-2.4399434E-1,-9.134815E-3,-0E0],"categories":[],"categories_nodes":[],"categories_segments":[],"categories_sizes":[],"default_left":[0,0,0,0,0,0,0,0,0,0,0,0,0],"id":32,"left_children":[1,3,-1,5,-1,7,-1,-1,9,-1,11,-1,-1],"loss_changes":[3.2506588E0,1.2438223E0,0E0,5.259738E-1,0E0,3.6003065E-1,0E0,0E0,5.130586E-1,0E0,4.5021755E-1,0E0,0E0],"parents":[2147483647,0,0,1,1,3,3,5,5,8,8,10,10],"right_children":[2,4,-1,6,-1,8,-1,-1,10,-1,12,-1,-1],"split_conditions":[-5.310812E-2,-1.25E-1,3.7657265E-3,5.0170225E-1,-0E0,-3.713583E-1,-0E0,-1.17314225E-2,-3.3968085E-1,1.9219862E-3,-2.0833333E-1,-9.134815E-3,-0E0],"split_indices":[15,12,0,13,0,15,0,0,15,0,12,0,0],"split_type":[0,0,0,0,0,0,0,0,0,0,0,0,0],"sum_hessian":[1.14E2,5E1,6.4E1,2.9E1,2.1E1,2.5E1,4E0,1.3E1,1.2E1,4E0,8E0,5E0,3E0],"tree_param":{"num_deleted":"0","num_feature":"16","num_nodes":"13","size_leaf_vector":"1"}},{"base_weights":[-1.616872E-2,-2.2170444E-1,3.4032208E-3,-8.688905E-3,-0E0],"categories":[],"categories_nodes":[],"categories_segments":[],"categories_sizes":[],"default_left":[0,0,0,0,0],"id":33,"left_children":[1,3,-1,-1,-1],"loss_changes":[3.3796792E0,1.2778542E0,0E0,0E0,0E0],"parents":[2147483647,0,0,1,1],"right_children":[2,4,-1,-1,-1],"split_conditions":[-5.490896E-2,-8.3333336E-2,3.4032208E-3,-8.688905E-3,-0E0],"split_indices":[15,12,0,0,0],"split_type":[0,0,0,0,0],"sum_hessian":[1E2,4.3E1,5.7E1,2.6E1,1.7E1],"tree_param":{"num_deleted":"0","num_feature":"16","num_nodes":"5","size_leaf_vector":"1"}},{"base_weights":[-1.5238449E-2,-1.751703E-1,1.2574589E-1,-2.6657975E-1,-0E0,3.650529E-3,-8.08562E-4,-3.9699396E-1,-7.113974E-2,-1.2283221E-2,-1.6160741E-3,2.7848317E-3,-1.8098111E-1,2.5690076E-4,-2.4160929E-1,-8.751406E-3,-0E0],"categories":[],"categories_nodes":[],"categories_segments":[],"categories_sizes":[],"default_left":[0,0,0,0,0,0,0,0,0,0,0,0,0,0,0,0,0],"id":34,"left_children":[1,3,5,7,-1,-1,-1,9,11,-1,-1,-1,13,-1,15,-1,-1],"loss_changes":[2.6335013E0,9.6193135E-1,2.5592047E-1,6.6970515E-1,0E0,0E0,0E0,3.0917E-1,5.0941384E-1,0E0,0E0,0E0,2.8095436E-1,0E0,2.5352168E-1,0E0,0E0],"parents":[2147483647,0,0,1,1,2,2,3,3,7,7,8,8,12,12,14,14],"right_children":[2,4,6,8,-1,-1,-1,10,12,-1,-1,-1,14,-1,16,-1,-1],"split_conditions":[-2.9773133E-2,7.334351E-1,3.2090082E0,-3.9527804E-1,-0E0,3.650529E-3,-8.08562E-4,8.262131E-2,-3.6663437E-1,-1.2283221E-2,-1.6160741E-3,2.7848317E-3,-3.5274893E-1,2.5690076E-4,-2.0833333E-1,-8.751406E-3,-0E0],"split_indices":[15,3,1,15,0,0,0,14,11,0,0,0,15,0,12,0,0],"split_type":[0,0,0,0,0,0,0,0,0,0,0,0,0,0,0,0,0],"sum_hessian":[1.09E2,5.2E1,5.7E1,3.4E1,1.8E1,5.3E1,4E0,1.7E1,1.7E1,1.1E1,6E0,5E0,1.2E1,2E0,1E1,5E0,5E0],"tree_param":{"num_deleted":"0","num_feature":"16","num_nodes":"17","size_leaf_vector":"1"}},{"base_weights":[-8.415135E-3,8.91565E-2,-1.8060803E-1,2.2105467E-1,2.8509345E-2,-2.110205E-4,-3.1064758E-1,7.9414835E-3,-0E0,-6.567396E-3,2.5192075E-3,-9.479771E-3,-0E0],"categories":[],"categories_nodes":[],"categories_segments":[],"categories_sizes":[],"default_left":[0,0,0,0,0,0,0,0,0,0,0,0,0],"id":35,"left_children":[1,3,5,7,9,-1,11,-1,-1,-1,-1,-1,-1],"loss_changes":[2.0838745E0,4.900595E-1,8.818661E-1,4.12557E-1,1.2588465E0,0E0,4.3952394E-1,0E0,0E0,0E0,0E0,0E0,0E0],"parents":[2147483647,0,0,1,1,2,2,3,3,4,4,6,6],"right_children":[2,4,6,8,10,-1,12,-1,-1,-1,-1,-1,-1],"split_conditions":[2.701164E-1,-2.6966292E-1,-2.87203E-1,1.2825517E1,-1.6666667E-1,-2.110205E-4,-8.3333336E-2,7.9414835E-3,-0E0,-6.567396E-3,2.5192075E-3,-9.479771E-3,-0E0],"split_indices":[3,7,14,14,12,0,12,0,0,0,0,0,0],"split_type":[0,0,0,0,0,0,0,0,0,0,0,0,0],"sum_hessian":[1.15E2,7.3E1,4.2E1,1.8E1,5.5E1,2.1E1,2.1E1,1.1E1,7E0,8E0,4.7E1,1.6E1,5E0],"tree_param":{"num_deleted":"0","num_feature":"16","num_nodes":"13","size_leaf_vector":"1"}},{"base_weights":[-1.8376289E-2,-1.5668504E-1,7.464986E-2,-0E0,-8.424025E-3,-5.7630404E-4,3.1991017E-3,-1.6103162E-1,4.516858E-3,-2.5590208E-1,3.4019498E-3,-8.147801E-3,-0E0],"categories":[],"categories_nodes":[],"categories_segments":[],"categories_sizes":[],"default_left":[0,0,0,0,0,0,0,0,0,0,0,0,0],"id":36,"left_children":[1,3,5,7,-1,-1,-1,9,-1,11,-1,-1,-1],"loss_changes":[1.5340804E0,1.3640267E0,4.0909928E-1,9.597654E-1,0E0,0E0,0E0,6.630801E-1,0E0,3.1270206E-1,0E0,0E0,0E0],"parents":[2147483647,0,0,1,1,2,2,3,3,7,7,9,9],"right_children":[2,4,6,8,-1,-1,-1,10,-1,12,-1,-1,-1],"split_conditions":[-8.3333336E-2,-2.6966292E-1,2.0439394E-2,8.262131E-2,-8.424025E-3,-5.7630404E-4,3.1991017E-3,-3.0403122E-1,4.516858E-3,5.0170225E-1,3.4019498E-3,-8.147801E-3,-0E0],"split_indices":[12,7,8,14,0,0,0,1,0,13,0,0,0],"split_type":[0,0,0,0,0,0,0,0,0,0,0,0,0],"sum_hessian":[1.1E2,4.5E1,6.5E1,2.6E1,1.9E1,2.1E1,4.4E1,1.4E1,1.2E1,1.2E1,2E0,9E0,3E0],"tree_param":{"num_deleted":"0","num_feature":"16","num_nodes":"13","size_leaf_vector":"1"}},{"base_weights":[-1.201055E-3,-1.5911986E-1,1.428049E-1,-2.290814E-1,-0E0,1.9551261E-1,2.2980974E-4,-3.8391423E-1,-4.415524E-2,8.073279E-3,2.187222E-3,-1.0923551E-2,-0E0,2.5639862E-3,-1.9767973E-1,-7.7855284E-3,-0E0],"categories":[],"categories_nodes":[],"categories_segments":[],"categories_sizes":[],"default_left":[0,0,0,0,0,0,0,0,0,0,0,0,0,0,0,0,0],"id":37,"left_children":[1,3,5,7,-1,9,-1,11,13,-1,-1,-1,-1,-1,15,-1,-1],"loss_changes":[2.780895E0,7.2383904E-1,3.5197818E-1,9.863281E-1,0E0,3.219266E-1,0E0,3.63101E-1,6.6085213E-1,0E0,0E0,0E0,0E0,0E0,2.5773603E-1,0E0,0E0],"parents":[2147483647,0,0,1,1,2,2,3,3,5,5,7,7,8,8,14,14],"right_children":[2,4,6,8,-1,10,-1,12,14,-1,-1,-1,-1,-1,16,-1,-1],"split_conditions":[-2.9773133E-2,7.334351E-1,7.4509805E-1,-3.713583E-1,-0E0,3.2040977E-1,2.2980974E-4,7.6934165E-1,-2.9549292E-1,8.073279E-3,2.187222E-3,-1.0923551E-2,-0E0,2.5639862E-3,-2.0833333E-1,-7.7855284E-3,-0E0],"split_indices":[15,3,9,15,0,15,0,1,15,0,0,0,0,0,12,0,0],"split_type":[0,0,0,0,0,0,0,0,0,0,0,0,0,0,0,0,0],"sum_hessian":[1.15E2,5.6E1,5.9E1,3.9E1,1.7E1,3.9E1,2E1,1.8E1,2.1E1,1.3E1,2.6E1,1.5E1,3E0,1E1,1.1E1,5E0,6E0],"tree_param":{"num_deleted":"0","num_feature":"16","num_nodes":"17","size_leaf_vector":"1"}},{"base_weights":[-1.0716735E-2,-1.8320759E-1,1.2285601E-1,-7.02665E-3,-0E0,4.1928776E-3,1.6022194E-4],"categories":[],"categories_nodes":[],"categories_segments":[],"categories_sizes":[],"default_left":[0,0,0,0,0,0,0],"id":38,"left_children":[1,3,5,-1,-1,-1,-1],"loss_changes":[2.6258078E0,9.5140254E-1,2.5307047E-1,0E0,0E0,0E0,0E0],"parents":[2147483647,0,0,1,1,2,2],"right_children":[2,4,6,-1,-1,-1,-1],"split_conditions":[-5.490896E-2,7.0445305E-1,6.405229E-1,-7.02665E-3,-0E0,4.1928776E-3,1.6022194E-4],"split_indices":[15,3,9,0,0,0,0],"split_type":[0,0,0,0,0,0,0],"sum_hessian":[1.06E2,4.7E1,5.9E1,3E1,1.7E1,3.9E1,2E1],"tree_param":{"num_deleted":"0","num_feature":"16","num_nodes":"7","size_leaf_vector":"1"}},{"base_weights":[-3.5985447E-2,-1.6204809E-1,4.866529E-2,-2.738785E-1,1.5394941E-3,2.1725697E-3,-5.510813E-2,-3.3202225E-1,-0E0,1.9381384E-3,-3.6033958E-3,-9.327843E-3,-0E0],"categories":[],"categories_nodes":[],"categories_segments":[],"categories_sizes":[],"default_left":[0,0,0,0,0,0,0,0,0,0,0,0,0],"id":39,"left_children":[1,3,5,7,-1,-1,9,11,-1,-1,-1,-1,-1],"loss_changes":[1.2628039E0,1.3318472E0,2.9732198E-1,5.187502E-1,0E0,0E0,2.7239507E-1,5.183871E-1,0E0,0E0,0E0,0E0,0E0],"parents":[2147483647,0,0,1,1,2,2,3,3,6,6,7,7],"right_children":[2,4,6,8,-1,-1,10,12,-1,-1,-1,-1,-1],"split_conditions":[-8.3333336E-2,1.6647757E0,5.539864E-1,5.0170225E-1,1.5394941E-3,2.1725697E-3,-3.006536E-1,2.4134927E0,-0E0,1.9381384E-3,-3.6033958E-3,-9.327843E-3,-0E0],"split_indices":[12,14,13,13,0,0,9,11,0,0,0,0,0],"split_type":[0,0,0,0,0,0,0,0,0,0,0,0,0],"sum_hessian":[1.08E2,4.4E1,6.4E1,3E1,1.4E1,5E1,1.4E1,2.4E1,6E0,4E0,1E1,2.2E1,2E0],"tree_param":{"num_deleted":"0","num_feature":"16","num_nodes":"13","size_leaf_vector":"1"}},{"base_weights":[-7.1783346E-4,2.2708431E-3,-1.4098902E-1,-2.2835693E-1,3.474365E-4,-0E0,-6.8210955E-3],"categories":[],"categories_nodes":[],"categories_segments":[],"categories_sizes":[],"default_left":[0,0,0,0,0,0,0],"id":40,"left_children":[1,-1,3,5,-1,-1,-1],"loss_changes":[1.5738256E0,0E0,7.6673067E-1,3.7472582E-1,0E0,0E0,0E0],"parents":[2147483647,0,0,2,2,3,3],"right_children":[2,-1,4,6,-1,-1,-1],"split_conditions":[2.701164E-1,2.2708431E-3,8.3333336E-2,-7.18105E-1,3.474365E-4,-0E0,-6.8210955E-3],"split_indices":[3,0,12,14,0,0,0],"split_type":[0,0,0,0,0,0,0],"sum_hessian":[1.14E2,6.8E1,4.6E1,3E1,1.6E1,5E0,2.5E1],"tree_param":{"num_deleted":"0","num_feature":"16","num_nodes":"7","size_leaf_vector":"1"}},{"base_weights":[-4.7323992E-3,-1.6882928E-1,1.2094164E-1,-2.4012227E-1,-0E0,2.2531685E-1,1.3183054E-3,2.9250016E-4,-2.833533E-1,8.939531E-3,3.701185E-4,-1.0236236E-2,-4.2340748E-2,2.2365998E-3,-6.25723E-3],"categories":[],"categories_nodes":[],"categories_segments":[],"categories_sizes":[],"default_left":[0,0,0,0,0,0,0,0,0,0,0,0,0,0,0],"id":41,"left_children":[1,3,5,7,-1,9,-1,-1,11,-1,-1,-1,13,-1,-1],"loss_changes":[2.451921E0,6.657771E-1,3.135143E-1,5.285096E-1,0E0,4.589901E-1,0E0,0E0,7.7669644E-1,0E0,0E0,0E0,5.9494334E-1,0E0,0E0],"parents":[2147483647,0,0,1,1,2,2,3,3,5,5,8,8,12,12],"right_children":[2,4,6,8,-1,10,-1,-1,12,-1,-1,-1,14,-1,-1],"split_conditions":[-5.310812E-2,8.3333336E-2,2.6163575E-1,-7.18105E-1,-0E0,2.5E-1,1.3183054E-3,2.9250016E-4,-3.713583E-1,8.939531E-3,3.701185E-4,-1.0236236E-2,-2.9549292E-1,2.2365998E-3,-6.25723E-3],"split_indices":[15,12,15,14,0,12,0,0,15,0,0,0,15,0,0],"split_type":[0,0,0,0,0,0,0,0,0,0,0,0,0,0,0],"sum_hessian":[1.11E2,4.9E1,6.2E1,3.4E1,1.5E1,1.9E1,4.3E1,4E0,3E1,9E0,1E1,1.7E1,1.3E1,8E0,5E0],"tree_param":{"num_deleted":"0","num_feature":"16","num_nodes":"15","size_leaf_vector":"1"}},{"base_weights":[-8.36889E-3,-1.8909912E-1,7.196588E-2,-9.086693E-3,-0E0,2.5898865E-3,-1.0675028E-3],"categories":[],"categories_nodes":[],"categories_segments":[],"categories_sizes":[],"default_left":[0,0,0,0,0,0,0],"id":42,"left_children":[1,3,5,-1,-1,-1,-1],"loss_changes":[1.6988244E0,1.2709365E0,3.2092044E-1,0E0,0E0,0E0,0E0],"parents":[2147483647,0,0,1,1,2,2],"right_children":[2,4,6,-1,-1,-1,-1],"split_conditions":[-3.713583E-1,7.0445305E-1,1.2598153E0,-9.086693E-3,-0E0,2.5898865E-3,-1.0675028E-3],"split_indices":[15,3,1,0,0,0,0],"split_type":[0,0,0,0,0,0,0],"sum_hessian":[1.07E2,3.3E1,7.4E1,1.6E1,1.7E1,6.1E1,1.3E1],"tree_param":{"num_deleted":"0","num_feature":"16","num_nodes":"7","size_leaf_vector":"1"}},{"base_weights":[-8.120038E-3,-1.7352149E-1,1.3241328E-1,6.115142E-5,-2.8737402E-1,4.3973713E-3,-0E0,-7.241925E-4,-8.66158E-3],"categories":[],"categories_nodes":[],"categories_segments":[],"categories_sizes":[],"default_left":[0,0,0,0,0,0,0,0,0],"id":43,"left_children":[1,3,5,-1,7,-1,-1,-1,-1],"loss_changes":[2.7118578E0,1.2083035E0,2.9848886E-1,0E0,3.4148192E-1,0E0,0E0,0E0,0E0],"parents":[2147483647,0,0,1,1,2,2,4,4],"right_children":[2,4,6,-1,8,-1,-1,-1,-1],"split_conditions":[-6.8871714E-2,-2.87203E-1,8.5032654E-1,6.115142E-5,-3.8399488E-1,4.3973713E-3,-0E0,-7.241925E-4,-8.66158E-3],"split_indices":[15,14,1,0,11,0,0,0,0],"split_type":[0,0,0,0,0,0,0,0,0],"sum_hessian":[1.09E2,5.1E1,5.8E1,2E1,3.1E1,4.1E1,1.7E1,8E0,2.3E1],"tree_param":{"num_deleted":"0","num_feature":"16","num_nodes":"9","size_leaf_vector":"1"}},{"base_weights":[-3.6724824E-2,2.1301864E-3,-1.5911327E-1,-0E0,-6.218293E-3],"categories":[],"categories_nodes":[],"categories_segments":[],"categories_sizes":[],"default_left":[0,0,0,0,0],"id":44,"left_children":[1,-1,3,-1,-1],"loss_changes":[1.8006325E0,0E0,7.883495E-1,0E0,0E0],"parents":[2147483647,0,0,2,2],"right_children":[2,-1,4,-1,-1],"split_conditions":[-2.0850202E-2,2.1301864E-3,-2.6745507E-1,-0E0,-6.218293E-3],"split_indices":[3,0,14,0,0],"split_type":[0,0,0,0,0],"sum_hessian":[1.12E2,5.5E1,5.7E1,2.3E1,3.4E1],"tree_param":{"num_deleted":"0","num_feature":"16","num_nodes":"5","size_leaf_vector":"1"}},{"base_weights":[-2.353202E-3,2.6921304E-3,-1.0652332E-1,-0E0,-2.9040447E-1,-3.8263618E-3,2.270126E-3,-8.391696E-3,1.7098771E-4],"categories":[],"categories_nodes":[],"categories_segments":[],"categories_sizes":[],"default_left":[0,0,0,0,0,0,0,0,0],"id":45,"left_children":[1,-1,3,5,7,-1,-1,-1,-1],"loss_changes":[1.3980154E0,0E0,1.3343059E0,6.38013E-1,4.6919608E-1,0E0,0E0,0E0,0E0],"parents":[2147483647,0,0,2,2,3,3,4,4],"right_children":[2,-1,4,6,8,-1,-1,-1,-1],"split_conditions":[-2.0850202E-2,2.6921304E-3,1.8817017E-2,-3.8510302E-1,3.4490705E0,-3.8263618E-3,2.270126E-3,-8.391696E-3,1.7098771E-4],"split_indices":[3,0,14,0,14,0,0,0,0],"split_type":[0,0,0,0,0,0,0,0,0],"sum_hessian":[1.15E2,5.4E1,6.1E1,4E1,2.1E1,1.3E1,2.7E1,1.9E1,2E0],"tree_param":{"num_deleted":"0","num_feature":"16","num_nodes":"9","size_leaf_vector":"1"}},{"base_weights":[-0E0,2.3803299E-3,-1.0060337E-1,3.651034E-2,-2.0044246E-1,5.443005E-3,-3.78117E-2,-0E0,-3.0625677E-1,-5.6673572E-3,1.3613332E-3,4.3237E-3,-5.3707478E-3,-0E0,-9.357573E-3],"categories":[],"categories_nodes":[],"categories_segments":[],"categories_sizes":[],"default_left":[0,0,0,0,0,0,0,0,0,0,0,0,0,0,0],"id":46,"left_children":[1,-1,3,5,7,-1,9,11,13,-1,-1,-1,-1,-1,-1],"loss_changes":[1.1032289E0,0E0,8.783218E-1,4.442078E-1,6.8405735E-1,0E0,4.519328E-1,7.525085E-1,4.8155236E-1,0E0,0E0,0E0,0E0,0E0,0E0],"parents":[2147483647,0,0,2,2,3,3,4,4,6,6,7,7,8,8],"right_children":[2,-1,4,6,8,-1,10,12,14,-1,-1,-1,-1,-1,-1],"split_conditions":[-2.0850202E-2,2.3803299E-3,-1.946088E-1,-2.875817E-1,-3.6663437E-1,5.443005E-3,-2.0231622E-1,3.3853292E-1,-1.0524151E-1,-5.6673572E-3,1.3613332E-3,4.3237E-3,-5.3707478E-3,-0E0,-9.357573E-3],"split_indices":[3,0,14,9,11,0,0,3,14,0,0,0,0,0,0],"split_type":[0,0,0,0,0,0,0,0,0,0,0,0,0,0,0],"sum_hessian":[1.08E2,5.4E1,5.4E1,2.2E1,3.2E1,6E0,1.6E1,1.3E1,1.9E1,5E0,1.1E1,7E0,6E0,4E0,1.5E1],"tree_param":{"num_deleted":"0","num_feature":"16","num_nodes":"15","size_leaf_vector":"1"}}]},"name":"gbtree"},"learner_model_param":{"base_score":"8.949904E0","boost_from_average":"1","num_class":"0","num_feature":"16","num_target":"1"},"objective":{"name":"reg:squarederror","reg_loss_param":{"scale_pos_weight":"1"}}},"version":[3,0,0]}