{"learner":{"attributes":{"best_iteration":"316","best_score":"0.2975129831221796"},"feature_names":[],"feature_types":[],"gradient_booster":{"model":{"gbtree_model_param":{"num_parallel_tree":"1","num_trees":"327"},"iteration_indptr":[0,1,2,3,4,5,6,7,8,9,10,11,12,13,14,15,16,17,18,19,20,21,22,23,24,25,26,27,28,29,30,31,32,33,34,35,36,37,38,39,40,41,42,43,44,45,46,47,48,49,50,51,52,53,54,55,56,57,58,59,60,61,62,63,64,65,66,67,68,69,70,71,72,73,74,75,76,77,78,79,80,81,82,83,84,85,86,87,88,89,90,91,92,93,94,95,96,97,98,99,100,101,102,103,104,105,106,107,108,109,110,111,112,113,114,115,116,117,118,119,120,121,122,123,124,125,126,127,128,129,130,131,132,133,134,135,136,137,138,139,140,141,142,143,144,145,146,147,148,149,150,151,152,153,154,155,156,157,158,159,160,161,162,163,164,165,166,167,168,169,170,171,172,173,174,175,176,177,178,179,180,181,182,183,184,185,186,187,188,189,190,191,192,193,194,195,196,197,198,199,200,201,202,203,204,205,206,207,208,209,210,211,212,213,214,215,216,217,218,219,220,221,222,223,224,225,226,227,228,229,230,231,232,233,234,235,236,237,238,239,240,241,242,243,244,245,246,247,248,249,250,251,252,253,254,255,256,257,258,259,260,261,262,263,264,265,266,267,268,269,270,271,272,273,274,275,276,277,278,279,280,281,282,283,284,285,286,287,288,289,290,291,292,293,294,295,296,297,298,299,300,301,302,303,304,305,306,307,308,309,310,311,312,313,314,315,316,317,318,319,320,321,322,323,324,325,326,327],"tree_info":[0,0,0,0,0,0,0,0,0,0,0,0,0,0,0,0,0,0,0,0,0,0,0,0,0,0,0,0,0,0,0,0,0,0,0,0,0,0,0,0,0,0,0,0,0,0,0,0,0,0,0,0,0,0,0,0,0,0,0,0,0,0,0,0,0,0,0,0,0,0,0,0,0,0,0,0,0,0,0,0,0,0,0,0,0,0,0,0,0,0,0,0,0,0,0,0,0,0,0,0,0,0,0,0,0,0,0,0,0,0,0,0,0,0,0,0,0,0,0,0,0,0,0,0,0,0,0,0,0,0,0,0,0,0,0,0,0,0,0,0,0,0,0,0,0,0,0,0,0,0,0,0,0,0,0,0,0,0,0,0,0,0,0,0,0,0,0,0,0,0,0,0,0,0,0,0,0,0,0,0,0,0,0,0,0,0,0,0,0,0,0,0,0,0,0,0,0,0,0,0,0,0,0,0,0,0,0,0,0,0,0,0,0,0,0,0,0,0,0,0,0,0,0,0,0,0,0,0,0,0,0,0,0,0,0,0,0,0,0,0,0,0,0,0,0,0,0,0,0,0,0,0,0,0,0,0,0,0,0,0,0,0,0,0,0,0,0,0,0,0,0,0,0,0,0,0,0,0,0,0,0,0,0,0,0,0,0,0,0,0,0,0,0,0,0,0,0,0,0,0,0,0,0,0,0,0,0,0,0,0,0,0,0,0,0,0,0,0,0,0,0,0,0,0,0,0,0],"trees":[{"base_weights":[-1.1921451E-2,6.635527E-1,-3.6088726E-1,-6.109117E-3,7.3456705E-1,-1.3920616E-1,-7.0978725E-1,3.4246635E-1,9.105053E-1,-2.1223249E-1,1.743778E-2,-5.630403E-3,-1.54062435E-2,-5.6331027E-3,5.0545615E-1,1.0395993E0,8.936484E-4,3.734061E-3,-3.4081835E-1,1.2059235E-2,3.6691462E-3,2.6278976E-2,5.7766104E-1,-8.6905085E-2,6.4475555E-3,5.77233E-4,-7.5398847E-3,1.45499045E-2,4.321749E-5,-6.044863E-3,7.29616E-2,4.669725E-3,-5.588658E-5],"categories":[],"categories_nodes":[],"categories_segments":[],"categories_sizes":[],"default_left":[0,0,0,0,0,0,0,0,0,0,0,0,0,0,0,0,0,0,0,0,0,0,0,0,0,0,0,0,0,0,0,0,0],"id":0,"left_children":[1,3,5,-1,7,9,11,13,15,17,-1,-1,-1,-1,19,21,-1,23,25,-1,-1,-1,27,29,-1,-1,-1,-1,-1,-1,31,-1,-1],"loss_changes":[2.4252377E1,2.6757593E0,5.0757217E0,0E0,1.839407E0,3.2940497E0,3.519001E-1,1.3854498E0,2.3041172E0,1.1735611E0,0E0,0E0,0E0,0E0,1.2470722E-1,1.4597397E0,0E0,5.136691E-1,3.934052E-1,0E0,0E0,0E0,7.0152926E-1,4.9251026E-1,0E0,0E0,0E0,0E0,0E0,0E0,1.2100719E-1,0E0,0E0],"parents":[2147483647,0,0,1,1,2,2,4,4,5,5,6,6,7,7,8,8,9,9,14,14,15,15,17,17,18,18,22,22,23,23,30,30],"right_children":[2,4,6,-1,8,10,12,14,16,18,-1,-1,-1,-1,20,22,-1,24,26,-1,-1,-1,28,30,-1,-1,-1,-1,-1,-1,32,-1,-1],"split_conditions":[-3.6697116E-1,-1.3242344E0,4.182415E-1,-6.109117E-3,-3.6141413E-1,8.785047E-1,2.8366378E-1,-5.261464E-1,2.3812916E0,-4.0622324E-2,1.743778E-2,-5.630403E-3,-1.54062435E-2,-5.6331027E-3,-4.3604818E-1,-4.3719667E-1,8.936484E-4,4.9193907E-1,-3.283922E-1,1.2059235E-2,3.6691462E-3,2.6278976E-2,-4.6491578E-1,-1.9161677E-1,6.4475555E-3,5.77233E-4,-7.5398847E-3,1.45499045E-2,4.321749E-5,-6.044863E-3,-6.167375E-2,4.669725E-3,-5.588658E-5],"split_indices":[1,15,1,0,14,7,0,0,13,1,0,0,0,0,14,11,0,3,0,0,0,0,1,2,0,0,0,0,0,0,14,0,0],"split_type":[0,0,0,0,0,0,0,0,0,0,0,0,0,0,0,0,0,0,0,0,0,0,0,0,0,0,0,0,0,0,0,0,0],"sum_hessian":[1.01E2,3.4E1,6.7E1,2E0,3.2E1,4.2E1,2.5E1,1.1E1,2.1E1,4E1,2E0,4E0,2.1E1,2E0,9E0,1.8E1,3E0,1.5E1,2.5E1,6E0,3E0,1E1,8E0,1.2E1,3E0,2E0,2.3E1,6E0,2E0,5E0,7E0,2E0,5E0],"tree_param":{"num_deleted":"0","num_feature":"16","num_nodes":"33","size_leaf_vector":"1"}},{"base_weights":[-3.1831875E-2,5.5011016E-1,-4.176608E-1,3.987995E-1,1.0740889E0,1.7670404E-2,-4.8057103E-1,4.881018E-1,-1.6105318E-1,2.5737254E-2,1.0291989E-2,-2.59583E-1,-1.3932183E-2,8.5891646E-1,3.1883422E-1,-1.0021649E-2,3.986544E-3,2.9658317E-3,-3.140984E-1,2.5438427E-3,2.505025E-2,9.175634E-3,2.1571878E-2,-9.4843E-3,-2.2934683E-1,-5.9181964E-3,3.8676816E-3,-1.3729763E-4,-2.623222E-1,-5.853493E-3,-0E0],"categories":[],"categories_nodes":[],"categories_segments":[],"categories_sizes":[],"default_left":[0,0,0,0,0,0,0,0,0,0,0,0,0,0,0,0,0,0,0,0,0,0,0,0,0,0,0,0,0,0,0],"id":1,"left_children":[1,3,5,7,9,-1,11,13,15,-1,-1,17,-1,19,21,-1,-1,-1,23,-1,-1,-1,25,-1,27,-1,-1,-1,29,-1,-1],"loss_changes":[2.1995932E1,2.5164242E0,5.2138968E0,1.7111912E0,1.0999203E-1,0E0,2.4448385E0,1.3658462E0,7.427544E-1,0E0,0E0,7.302222E-1,0E0,2.006751E0,8.15691E-1,0E0,0E0,0E0,1.872778E-1,0E0,0E0,0E0,4.8334947E-1,0E0,1.1800897E-1,0E0,0E0,0E0,1.1505723E-1,0E0,0E0],"parents":[2147483647,0,0,1,1,2,2,3,3,4,4,6,6,7,7,8,8,11,11,13,13,14,14,18,18,22,22,24,24,28,28],"right_children":[2,4,6,8,10,-1,12,14,16,-1,-1,18,-1,20,22,-1,-1,-1,24,-1,-1,-1,26,-1,28,-1,-1,-1,30,-1,-1],"split_conditions":[-1.662004E-1,3.213736E-1,-1.7205244E0,2.0962137E-1,-1.8691589E-1,1.7670404E-2,4.182415E-1,-3.9506173E-1,-7.670981E-1,2.5737254E-2,1.0291989E-2,-1.168656E0,-1.3932183E-2,-6.9728804E-1,-7.862729E-2,-1.0021649E-2,3.986544E-3,2.9658317E-3,-7.698428E-2,2.5438427E-3,2.505025E-2,9.175634E-3,-4.090892E-1,-9.4843E-3,-1.0665144E-1,-5.9181964E-3,3.8676816E-3,-1.3729763E-4,6.5384614E-1,-5.853493E-3,-0E0],"split_indices":[1,14,14,14,7,0,1,9,8,0,0,15,0,1,14,0,0,0,15,0,0,0,15,0,1,0,0,0,12,0,0],"split_type":[0,0,0,0,0,0,0,0,0,0,0,0,0,0,0,0,0,0,0,0,0,0,0,0,0,0,0,0,0,0,0],"sum_hessian":[9.6E1,3.8E1,5.8E1,3.1E1,7E0,2E0,5.6E1,2.7E1,4E0,4E0,3E0,2.9E1,2.7E1,7E0,2E1,2E0,2E0,3E0,2.6E1,3E0,4E0,1.3E1,7E0,7E0,1.9E1,2E0,5E0,3E0,1.6E1,1.4E1,2E0],"tree_param":{"num_deleted":"0","num_feature":"16","num_nodes":"31","size_leaf_vector":"1"}},{"base_weights":[4.8802428E-2,6.8714786E-1,-3.4161577E-1,-6.0220216E-3,7.531923E-1,-1.7571822E-1,-6.109326E-1,9.944792E-1,3.4242538E-1,-2.6759097E-1,2.0264855E-2,-1.2947311E-2,-2.3784828E-3,1.1068103E0,3.7457214E-3,1.2967545E-2,1.6313583E-1,1.62447E-1,-3.259027E-1,2.5538607E-2,7.1017677E-3,-3.2327423E-4,2.4489363E-1,5.890473E-3,-0E0,-8.739657E-3,-1.6737612E-1,6.8759504E-3,7.008065E-4,-2.1954286E-1,-0E0,-6.748968E-4,-5.9144753E-3],"categories":[],"categories_nodes":[],"categories_segments":[],"categories_sizes":[],"default_left":[0,0,0,0,0,0,0,0,0,0,0,0,0,0,0,0,0,0,0,0,0,0,0,0,0,0,0,0,0,0,0,0,0],"id":2,"left_children":[1,3,5,-1,7,9,11,13,15,17,-1,-1,-1,19,-1,-1,21,23,25,-1,-1,-1,27,-1,-1,-1,29,-1,-1,31,-1,-1,-1],"loss_changes":[2.494224E1,2.7521935E0,2.5840807E0,0E0,3.09383E0,4.565893E0,2.58667E-1,1.6581059E0,6.3588476E-1,1.0221853E0,0E0,0E0,0E0,1.8131485E0,0E0,0E0,1.8808186E-1,1.2828739E-1,4.651351E-1,0E0,0E0,0E0,1.16111934E-1,0E0,0E0,0E0,1.3015264E-1,0E0,0E0,1.2692511E-1,0E0,0E0,0E0],"parents":[2147483647,0,0,1,1,2,2,4,4,5,5,6,6,7,7,8,8,9,9,13,13,16,16,17,17,18,18,22,22,26,26,29,29],"right_children":[2,4,6,-1,8,10,12,14,16,18,-1,-1,-1,20,-1,-1,22,24,26,-1,-1,-1,28,-1,-1,-1,30,-1,-1,32,-1,-1,-1],"split_conditions":[-2.5555238E-1,-1.3242344E0,5.316586E-1,-6.0220216E-3,-2.8395063E-1,2.6923077E0,1.5658804E0,2.3812916E0,-3.0769232E-1,-8.813082E-1,2.0264855E-2,-1.2947311E-2,-2.3784828E-3,-3.846154E-2,3.7457214E-3,1.2967545E-2,-4.600628E-1,-1.1475878E-2,2.8742516E-1,2.5538607E-2,7.1017677E-3,-3.2327423E-4,-3.934913E-1,5.890473E-3,-0E0,-8.739657E-3,8.8461536E-1,6.8759504E-3,7.008065E-4,-2.1324579E-2,-0E0,-6.748968E-4,-5.9144753E-3],"split_indices":[1,15,1,0,9,12,15,13,12,15,0,0,0,12,0,0,1,1,2,0,0,0,1,0,0,0,12,0,0,1,0,0,0],"split_type":[0,0,0,0,0,0,0,0,0,0,0,0,0,0,0,0,0,0,0,0,0,0,0,0,0,0,0,0,0,0,0,0,0],"sum_hessian":[9.8E1,3.7E1,6.1E1,2E0,3.5E1,3.9E1,2.2E1,2.1E1,1.4E1,3.7E1,2E0,2E1,2E0,1.8E1,3E0,4E0,1E1,4E0,3.3E1,1.4E1,4E0,3E0,7E0,2E0,2E0,1.8E1,1.5E1,4E0,3E0,1.1E1,4E0,4E0,7E0],"tree_param":{"num_deleted":"0","num_feature":"16","num_nodes":"33","size_leaf_vector":"1"}},{"base_weights":[5.0586734E-2,5.6621253E-1,-3.3530906E-1,7.8602844E-1,2.4714129E-1,-1.4576198E-1,-6.756221E-1,-2.7699376E-2,9.85854E-1,6.37083E-2,7.6468047E-3,-2.3499152E-1,1.9994656E-2,-2.7509558E-3,-1.4395179E-2,-9.059052E-3,1.0304094E-2,1.1036127E0,3.6895364E-3,5.5217496E-3,-2.1445153E-3,-2.6202673E-1,2.6885604E-3,1.2685581E0,1.0912576E-2,-1.1620631E-1,-3.3504668E-1,2.734715E-2,9.002148E-3,-1.9504207E-1,2.0928723E-3,-7.582308E-3,-1.18826734E-4,-6.7089098E-3,-1.0929949E-4],"categories":[],"categories_nodes":[],"categories_segments":[],"categories_sizes":[],"default_left":[0,0,0,0,0,0,0,0,0,0,0,0,0,0,0,0,0,0,0,0,0,0,0,0,0,0,0,0,0,0,0,0,0,0,0],"id":3,"left_children":[1,3,5,7,9,11,13,15,17,19,-1,21,-1,-1,-1,-1,-1,23,-1,-1,-1,25,-1,27,-1,29,31,-1,-1,33,-1,-1,-1,-1,-1],"loss_changes":[2.0906641E1,2.8585863E0,3.689702E0,4.3508205E0,4.270358E-1,4.246933E0,3.1399536E-1,1.6123685E0,1.6493492E0,4.0951824E-1,0E0,4.275024E-1,0E0,0E0,0E0,0E0,0E0,7.8308296E-1,0E0,0E0,0E0,2.9926085E-1,0E0,2.5400734E-1,0E0,2.7320197E-1,2.9281664E-1,0E0,0E0,2.568657E-1,0E0,0E0,0E0,0E0,0E0],"parents":[2147483647,0,0,1,1,2,2,3,3,4,4,5,5,6,6,7,7,8,8,9,9,11,11,17,17,21,21,23,23,25,25,26,26,29,29],"right_children":[2,4,6,8,10,12,14,16,18,20,-1,22,-1,-1,-1,-1,-1,24,-1,-1,-1,26,-1,28,-1,30,32,-1,-1,34,-1,-1,-1,-1,-1],"split_conditions":[-2.5555238E-1,-4.6491578E-1,4.182415E-1,-6.581216E-1,-2.2127584E-1,2.3551402E0,-1.635031E-2,-4.074074E-1,2.3812916E0,-2.1556886E-1,7.6468047E-3,9.693706E-1,1.9994656E-2,-2.7509558E-3,-1.4395179E-2,-9.059052E-3,1.0304094E-2,-5.245218E-1,3.6895364E-3,5.5217496E-3,-2.1445153E-3,4.0422495E-2,2.6885604E-3,-3.3333334E-1,1.0912576E-2,1.290171E-1,8.8461536E-1,2.734715E-2,9.002148E-3,-9.3457945E-2,2.0928723E-3,-7.582308E-3,-1.18826734E-4,-6.7089098E-3,-1.0929949E-4],"split_indices":[1,1,1,1,11,7,0,9,13,2,0,15,0,0,0,0,0,1,0,0,0,1,0,9,0,0,12,0,0,7,0,0,0,0,0],"split_type":[0,0,0,0,0,0,0,0,0,0,0,0,0,0,0,0,0,0,0,0,0,0,0,0,0,0,0,0,0,0,0,0,0,0,0],"sum_hessian":[1.03E2,4.4E1,5.9E1,2.5E1,1.9E1,3.9E1,2E1,5E0,2E1,9E0,1E1,3.7E1,2E0,2E0,1.8E1,3E0,2E0,1.7E1,3E0,4E0,5E0,3.5E1,2E0,1.2E1,5E0,1.3E1,2.2E1,1E1,2E0,1E1,3E0,1.9E1,3E0,5E0,5E0],"tree_param":{"num_deleted":"0","num_feature":"16","num_nodes":"35","size_leaf_vector":"1"}},{"base_weights":[-5.2807797E-2,5.019319E-1,-4.234208E-1,5.672685E-1,-4.058285E-3,-2.3038276E-1,-6.322363E-1,7.491278E-1,3.2813203E-1,-2.7995542E-1,1.6643043E-3,-5.1676217E-3,-1.3958548E-2,8.702307E-1,4.4317316E-4,1.829578E-1,1.5310047E-2,-0E0,-6.989369E-3,2.2584933E-3,2.0346032E-2,-0E0,6.730289E-3,3.4572023E-3,-2.3980509E-3,3.6353783E-3,-2.6992979E-3],"categories":[],"categories_nodes":[],"categories_segments":[],"categories_sizes":[],"default_left":[0,0,0,0,0,0,0,0,0,0,0,0,0,0,0,0,0,0,0,0,0,0,0,0,0,0,0],"id":4,"left_children":[1,3,5,7,-1,9,11,13,15,17,-1,-1,-1,19,-1,21,-1,23,-1,-1,-1,25,-1,-1,-1,-1,-1],"loss_changes":[2.0558458E1,1.9936314E0,2.1866426E0,1.2555618E0,0E0,5.5598474E-1,4.116888E-1,1.6522379E0,9.0800774E-1,5.3607273E-1,0E0,0E0,0E0,1.6655216E0,0E0,4.0383255E-1,0E0,1.6152495E-1,0E0,0E0,0E0,2.232374E-1,0E0,0E0,0E0,0E0,0E0],"parents":[2147483647,0,0,1,1,2,2,3,3,5,5,6,6,7,7,8,8,9,9,13,13,15,15,17,17,21,21],"right_children":[2,4,6,8,-1,10,12,14,16,18,-1,-1,-1,20,-1,22,-1,24,-1,-1,-1,26,-1,-1,-1,-1,-1],"split_conditions":[-2.0713674E-1,1.0711144E0,4.182415E-1,-4.6491578E-1,-4.058285E-3,8.8461536E-1,2.8366378E-1,1.7639197E0,2.5192434E-1,-4.0622324E-2,1.6643043E-3,-5.1676217E-3,-1.3958548E-2,-6.9728804E-1,4.4317316E-4,-1.3460454E-1,1.5310047E-2,-7.937639E-1,-6.989369E-3,2.2584933E-3,2.0346032E-2,-4.3508422E-1,6.730289E-3,3.4572023E-3,-2.3980509E-3,3.6353783E-3,-2.6992979E-3],"split_indices":[1,3,1,1,0,12,0,13,14,1,0,0,0,1,0,15,0,13,0,0,0,1,0,0,0,0,0],"split_type":[0,0,0,0,0,0,0,0,0,0,0,0,0,0,0,0,0,0,0,0,0,0,0,0,0,0,0],"sum_hessian":[9.8E1,3.9E1,5.9E1,3.6E1,3E0,3.2E1,2.7E1,1.9E1,1.7E1,2.8E1,4E0,5E0,2.2E1,1.6E1,3E0,1.4E1,3E0,6E0,2.2E1,3E0,1.3E1,7E0,7E0,2E0,4E0,3E0,4E0],"tree_param":{"num_deleted":"0","num_feature":"16","num_nodes":"27","size_leaf_vector":"1"}},{"base_weights":[3.9461356E-2,4.1583845E-1,-3.9287448E-1,2.7232882E-1,8.2876587E-1,1.712629E-2,-4.713902E-1,6.813214E-1,9.632085E-2,2.2514552E-2,2.7802247E-1,-2.981145E-1,-5.991985E-1,-1.19529475E-4,9.2219585E-1,-8.947765E-3,1.7700662E-1,8.015357E-3,-0E0,4.4565852E-4,-6.7655295E-3,-1.3249831E-2,-5.64475E-3,2.1425331E-2,4.6726447E-3,9.217037E-3,2.7974319E-2,2.4545291E-1,-1.1100927E-1,-0E0,6.405282E-3,-3.8999252E-3,1.6142757E-3],"categories":[],"categories_nodes":[],"categories_segments":[],"categories_sizes":[],"default_left":[0,0,0,0,0,0,0,0,0,0,0,0,0,0,0,0,0,0,0,0,0,0,0,0,0,0,0,0,0,0,0,0,0],"id":5,"left_children":[1,3,5,7,9,-1,11,13,15,-1,17,19,21,-1,23,-1,25,-1,-1,-1,-1,-1,-1,-1,-1,-1,27,29,31,-1,-1,-1,-1],"loss_changes":[1.6112358E1,2.804923E0,4.8768907E0,2.808034E0,1.6727943E0,0E0,7.060671E-1,2.0837636E0,1.36824E0,0E0,1.7868054E-1,3.0936086E-1,2.0002174E-1,0E0,5.430298E-1,0E0,1.0803823E0,0E0,0E0,0E0,0E0,0E0,0E0,0E0,0E0,0E0,6.149851E-1,1.3343748E-1,2.2039406E-1,0E0,0E0,0E0,0E0],"parents":[2147483647,0,0,1,1,2,2,3,3,4,4,6,6,7,7,8,8,10,10,11,11,12,12,14,14,16,16,26,26,27,27,28,28],"right_children":[2,4,6,8,10,-1,12,14,16,-1,18,20,22,-1,24,-1,26,-1,-1,-1,-1,-1,-1,-1,-1,-1,28,30,32,-1,-1,-1,-1],"split_conditions":[-1.2345679E-2,1.3357111E0,-1.7205244E0,-3.364486E-1,1.4552337E0,1.712629E-2,3.5388085E-1,-6.2602884E-1,-4.3504855E-1,2.2514552E-2,-4.4261286E-1,-2.9865158E-1,1.4795028E0,-1.19529475E-4,3.9971173E-1,-8.947765E-3,-3.580247E-1,8.015357E-3,-0E0,4.4565852E-4,-6.7655295E-3,-1.3249831E-2,-5.64475E-3,2.1425331E-2,4.6726447E-3,9.217037E-3,-2.0618261E-1,-3.0864197E-1,2.3251069E-1,-0E0,6.405282E-3,-3.8999252E-3,1.6142757E-3],"split_indices":[9,8,14,7,13,0,0,14,11,0,14,0,11,0,3,0,9,0,0,0,0,0,0,0,0,0,13,9,3,0,0,0,0],"split_type":[0,0,0,0,0,0,0,0,0,0,0,0,0,0,0,0,0,0,0,0,0,0,0,0,0,0,0,0,0,0,0,0,0],"sum_hessian":[9.7E1,5.2E1,4.5E1,4E1,1.2E1,2E0,4.3E1,1.1E1,2.9E1,7E0,5E0,2E1,2.3E1,3E0,8E0,3E0,2.6E1,3E0,2E0,2E0,1.8E1,1.8E1,5E0,6E0,2E0,8E0,1.8E1,7E0,1.1E1,2E0,5E0,8E0,3E0],"tree_param":{"num_deleted":"0","num_feature":"16","num_nodes":"33","size_leaf_vector":"1"}},{"base_weights":[-1.5139469E-2,5.9841335E-1,-3.6158887E-1,2.053626E-2,3.6484495E-1,-1.7539318E-1,-6.2312895E-1,-1.13477305E-1,5.62719E-1,2.1401188E-1,-2.4189427E-1,-1.3074377E-2,-2.7473387E-3,9.665581E-2,-1.0585022E-2,1.8364064E-2,8.474839E-3,6.6761933E-3,-0E0,-2.8409454E-1,7.9372607E-4,-1.0275468E-3,4.1703344E-3,-6.0859613E-2,-3.2230717E-1,-4.8200656E-3,3.325703E-3,-6.930224E-3,-0E0],"categories":[],"categories_nodes":[],"categories_segments":[],"categories_sizes":[],"default_left":[0,0,0,0,0,0,0,0,0,0,0,0,0,0,0,0,0,0,0,0,0,0,0,0,0,0,0,0,0],"id":6,"left_children":[1,3,5,-1,7,9,11,13,15,17,19,-1,-1,21,-1,-1,-1,-1,-1,23,-1,-1,-1,25,27,-1,-1,-1,-1],"loss_changes":[2.1236631E1,3.0883884E0,2.9275045E0,0E0,2.4749694E0,1.064495E0,2.1743584E-1,7.9335743E-1,3.6599874E-1,1.7090914E-1,4.3973017E-1,0E0,0E0,1.2578171E-1,0E0,0E0,0E0,0E0,0E0,1.9797969E-1,0E0,0E0,0E0,2.9305926E-1,1.6456246E-1,0E0,0E0,0E0,0E0],"parents":[2147483647,0,0,1,1,2,2,4,4,5,5,6,6,7,7,8,8,9,9,10,10,13,13,19,19,23,23,24,24],"right_children":[2,4,6,-1,8,10,12,14,16,18,20,-1,-1,22,-1,-1,-1,-1,-1,24,-1,-1,-1,26,28,-1,-1,-1,-1],"split_conditions":[-3.2255208E-1,-3.364486E-1,5.316586E-1,2.053626E-2,-4.068315E-1,-8.813082E-1,1.1346316E0,2.144776E-1,-5.245218E-1,-3.5248148E-1,9.125604E-1,-1.3074377E-2,-2.7473387E-3,-5.555809E-1,-1.0585022E-2,1.8364064E-2,8.474839E-3,6.6761933E-3,-0E0,-7.937639E-1,7.9372607E-4,-1.0275468E-3,4.1703344E-3,1.290171E-1,1E0,-4.8200656E-3,3.325703E-3,-6.930224E-3,-0E0],"split_indices":[1,7,1,0,8,15,15,3,1,11,15,0,0,1,0,0,0,0,0,13,0,0,0,0,4,0,0,0,0],"split_type":[0,0,0,0,0,0,0,0,0,0,0,0,0,0,0,0,0,0,0,0,0,0,0,0,0,0,0,0,0],"sum_hessian":[9.8E1,3.5E1,6.3E1,1.1E1,2.4E1,3.8E1,2.5E1,7E0,1.7E1,5E0,3.3E1,2.3E1,2E0,5E0,2E0,3E0,1.4E1,3E0,2E0,2.9E1,4E0,2E0,3E0,5E0,2.4E1,3E0,2E0,2.2E1,2E0],"tree_param":{"num_deleted":"0","num_feature":"16","num_nodes":"29","size_leaf_vector":"1"}},{"base_weights":[6.534439E-3,6.035298E-1,-2.516742E-1,6.8111986E-1,3.2596623E-3,-6.37807E-2,-5.2095467E-1,7.511006E-1,2.0189155E-3,-1.6940741E-1,2.4020432E-1,-7.5114295E-2,-6.102628E-1,3.006055E-1,1.6579095E-2,3.3098787E-2,-2.4245526E-1,-4.839388E-2,5.054351E-1,-5.1831813E-3,3.2396698E-3,-1.303461E-2,-1.6646864E-3,-3.1470293E-3,1.3833879E-2,5.4751104E-3,-1.1618884E-1,-2.9669973E-1,1.5588404E-3,1.9423153E-3,-3.4085526E-3,1.3249462E-2,1.8847896E-3,-4.922047E-3,1.2485092E-3,-3.1804687E-3,-8.444826E-3],"categories":[],"categories_nodes":[],"categories_segments":[],"categories_sizes":[],"default_left":[0,0,0,0,0,0,0,0,0,0,0,0,0,0,0,0,0,0,0,0,0,0,0,0,0,0,0,0,0,0,0,0,0,0,0,0,0],"id":7,"left_children":[1,3,5,7,-1,9,11,13,-1,15,17,19,21,23,-1,25,27,29,31,-1,-1,-1,-1,-1,-1,-1,33,35,-1,-1,-1,-1,-1,-1,-1,-1,-1],"loss_changes":[1.5293716E1,8.30039E-1,3.3994265E0,8.5400105E-1,0E0,1.3821881E0,1.0005035E0,4.0946007E-1,0E0,5.023251E-1,9.121607E-1,3.135167E-1,3.7491512E-1,1.0577816E0,0E0,3.7090766E-1,4.62116E-1,1.3042493E-1,2.4933743E-1,0E0,0E0,0E0,0E0,0E0,0E0,0E0,1.7295721E-1,2.3769343E-1,0E0,0E0,0E0,0E0,0E0,0E0,0E0,0E0,0E0],"parents":[2147483647,0,0,1,1,2,2,3,3,5,5,6,6,7,7,9,9,10,10,11,11,12,12,13,13,15,15,16,16,17,17,18,18,26,26,27,27],"right_children":[2,4,6,8,-1,10,12,14,-1,16,18,20,22,24,-1,26,28,30,32,-1,-1,-1,-1,-1,-1,-1,34,36,-1,-1,-1,-1,-1,-1,-1,-1,-1],"split_conditions":[-3.5439768E-1,2.134343E0,3.5388085E-1,-1.682243E-1,3.2596623E-3,6.4457804E-1,1.1214953E-1,-5.66106E-1,2.0189155E-3,-4.2494428E-1,5.144766E-1,1.2988865E0,1.1346316E0,2.1772158E-1,1.6579095E-2,1.1623301E-2,1.0864407E0,-8.878787E-1,-2.3368563E-1,-5.1831813E-3,3.2396698E-3,-1.303461E-2,-1.6646864E-3,-3.1470293E-3,1.3833879E-2,5.4751104E-3,-7.055679E-1,2.4089402E-1,1.5588404E-3,1.9423153E-3,-3.4085526E-3,1.3249462E-2,1.8847896E-3,-4.922047E-3,1.2485092E-3,-3.1804687E-3,-8.444826E-3],"split_indices":[0,13,0,7,0,8,7,0,0,13,13,0,15,3,0,15,3,3,3,0,0,0,0,0,0,0,13,3,0,0,0,0,0,0,0,0,0],"split_type":[0,0,0,0,0,0,0,0,0,0,0,0,0,0,0,0,0,0,0,0,0,0,0,0,0,0,0,0,0,0,0,0,0,0,0,0,0],"sum_hessian":[9.7E1,2.9E1,6.8E1,2.4E1,5E0,4.1E1,2.7E1,2.1E1,3E0,3.1E1,1E1,5E0,2.2E1,4E0,1.7E1,8E0,2.3E1,5E0,5E0,3E0,2E0,2E1,2E0,2E0,2E0,3E0,5E0,2E1,3E0,2E0,3E0,3E0,2E0,3E0,2E0,1.1E1,9E0],"tree_param":{"num_deleted":"0","num_feature":"16","num_nodes":"37","size_leaf_vector":"1"}},{"base_weights":[5.085777E-2,5.2837396E-1,-3.3731943E-1,-3.3466958E-3,6.046282E-1,-1.548728E-1,-6.1188453E-1,9.6732605E-1,2.901417E-1,-2.600914E-1,1.9714996E-2,-6.566227E-1,-1.8249585E-3,2.4072478E-2,8.195379E-3,1.4401813E-2,9.015435E-2,-3.5296816E-1,-2.4926635E-3,-4.592884E-3,-1.43215675E-2,-3.0664206E-3,5.7183844E-3,-1.6010989E-1,-8.554429E-3,3.0942867E-4,-6.413275E-3],"categories":[],"categories_nodes":[],"categories_segments":[],"categories_sizes":[],"default_left":[0,0,0,0,0,0,0,0,0,0,0,0,0,0,0,0,0,0,0,0,0,0,0,0,0,0,0],"id":8,"left_children":[1,3,5,-1,7,9,11,13,15,17,-1,19,-1,-1,-1,-1,21,23,-1,-1,-1,-1,-1,25,-1,-1,-1],"loss_changes":[1.8177341E1,2.4791384E0,2.5336084E0,0E0,4.1561337E0,4.2643194E0,3.544364E-1,1.7169437E0,1.8316965E0,3.1083798E-1,0E0,2.2332478E-1,0E0,0E0,0E0,0E0,8.6738396E-1,1.3223672E-1,0E0,0E0,0E0,0E0,0E0,2.328122E-1,0E0,0E0,0E0],"parents":[2147483647,0,0,1,1,2,2,4,4,5,5,6,6,7,7,8,8,9,9,11,11,16,16,17,17,23,23],"right_children":[2,4,6,-1,8,10,12,14,16,18,-1,20,-1,-1,-1,-1,22,24,-1,-1,-1,-1,-1,26,-1,-1,-1],"split_conditions":[-1.662004E-1,-6.594348E-1,4.182415E-1,-3.3466958E-3,-3.3333334E-1,1.7307693E0,1.5658804E0,-5.245218E-1,-3.0769232E-1,7.692308E-2,1.9714996E-2,-8.819599E-2,-1.8249585E-3,2.4072478E-2,8.195379E-3,1.4401813E-2,-1.9161677E-1,4.0422495E-2,-2.4926635E-3,-4.592884E-3,-1.43215675E-2,-3.0664206E-3,5.7183844E-3,-7.4074075E-2,-8.554429E-3,3.0942867E-4,-6.413275E-3],"split_indices":[1,1,1,0,9,12,15,1,12,12,0,13,0,0,0,0,2,1,0,0,0,0,0,9,0,0,0],"split_type":[0,0,0,0,0,0,0,0,0,0,0,0,0,0,0,0,0,0,0,0,0,0,0,0,0,0,0],"sum_hessian":[9.6E1,4.3E1,5.3E1,4E0,3.9E1,3.3E1,2E1,1.7E1,2.2E1,3.1E1,2E0,1.8E1,2E0,1.1E1,6E0,6E0,1.6E1,1.7E1,1.4E1,3E0,1.5E1,7E0,9E0,6E0,1.1E1,3E0,3E0],"tree_param":{"num_deleted":"0","num_feature":"16","num_nodes":"27","size_leaf_vector":"1"}},{"base_weights":[1.822877E-2,3.8884798E-1,-3.6557978E-1,1.6988337E-1,6.330615E-1,1.6902607E-2,-4.3571624E-1,5.105103E-1,1.1048795E-2,8.1725836E-1,2.834602E-1,-2.581775E-1,-5.6053615E-1,7.792367E-2,2.0135254E-2,-1.9753626E-1,1.3659391E-1,5.0493134E-3,9.2908436E-1,9.6615255E-3,-2.2346594E-3,-3.2691398E-1,4.1818863E-4,-5.905753E-1,-1.8006255E-3,1.2195278E-2,-1.2476756E-2,-1.1107697E-2,2.1649972E-3,6.15488E-3,-0E0,2.4301155E-2,1.0739047E-2,-7.447392E-3,-9.945376E-4,-5.3673415E-3,-1.3054179E-2,2.2998238E-3,-2.0364204E-3],"categories":[],"categories_nodes":[],"categories_segments":[],"categories_sizes":[],"default_left":[0,0,0,0,0,0,0,0,0,0,0,0,0,0,0,0,0,0,0,0,0,0,0,0,0,0,0,0,0,0,0,0,0,0,0,0,0,0,0],"id":9,"left_children":[1,3,5,7,9,-1,11,13,15,17,19,21,23,25,-1,27,29,-1,31,-1,-1,33,-1,35,-1,-1,-1,-1,-1,-1,37,-1,-1,-1,-1,-1,-1,-1,-1],"loss_changes":[1.4511411E1,2.5928135E0,4.573042E0,1.5112002E0,1.2037582E0,0E0,8.371086E-1,1.7451303E0,5.7081157E-1,5.9466076E-1,8.79979E-1,4.5947206E-1,2.6037502E-1,2.6183364E0,0E0,9.802349E-1,3.0702764E-1,0E0,5.1804256E-1,0E0,0E0,1.6606855E-1,0E0,2.3322678E-1,0E0,0E0,0E0,0E0,0E0,0E0,1.1795248E-1,0E0,0E0,0E0,0E0,0E0,0E0,0E0,0E0],"parents":[2147483647,0,0,1,1,2,2,3,3,4,4,6,6,7,7,8,8,9,9,10,10,11,11,12,12,13,13,15,15,16,16,18,18,21,21,23,23,30,30],"right_children":[2,4,6,8,10,-1,12,14,16,18,20,22,24,26,-1,28,30,-1,32,-1,-1,34,-1,36,-1,-1,-1,-1,-1,-1,38,-1,-1,-1,-1,-1,-1,-1,-1],"split_conditions":[-1.2345679E-2,8.185175E-2,-1.7205244E0,-3.364486E-1,-3.3333334E-1,1.6902607E-2,6.296296E-1,7.701411E-2,-5.471458E-1,-2.2219972E-1,4.9447772E-1,9.7196263E-1,1.5658804E0,2.3686724E-2,2.0135254E-2,-5.143934E-1,-4.876719E-1,5.0493134E-3,-1.5384616E-1,9.6615255E-3,-2.2346594E-3,5.591735E-1,4.1818863E-4,1.682243E-1,-1.8006255E-3,1.2195278E-2,-1.2476756E-2,-1.1107697E-2,2.1649972E-3,6.15488E-3,-2.1556886E-1,2.4301155E-2,1.0739047E-2,-7.447392E-3,-9.945376E-4,-5.3673415E-3,-1.3054179E-2,2.2998238E-3,-2.0364204E-3],"split_indices":[9,8,14,7,9,0,9,15,15,13,14,7,15,15,0,8,13,0,12,0,0,8,0,7,0,0,0,0,0,0,2,0,0,0,0,0,0,0,0],"split_type":[0,0,0,0,0,0,0,0,0,0,0,0,0,0,0,0,0,0,0,0,0,0,0,0,0,0,0,0,0,0,0,0,0,0,0,0,0,0,0],"sum_hessian":[1E2,5.1E1,4.9E1,2.8E1,2.3E1,2E0,4.7E1,8E0,2E1,1.4E1,9E0,2.1E1,2.6E1,5E0,3E0,7E0,1.3E1,3E0,1.1E1,6E0,3E0,1.7E1,4E0,2.4E1,2E0,3E0,2E0,3E0,4E0,5E0,8E0,5E0,6E0,1.4E1,3E0,5E0,1.9E1,4E0,4E0],"tree_param":{"num_deleted":"0","num_feature":"16","num_nodes":"39","size_leaf_vector":"1"}},{"base_weights":[-4.0502537E-2,5.2240837E-1,-3.5594538E-1,2.9024518E-1,7.862426E-1,1.6677238E-2,-4.0614957E-1,1.395276E-2,1.2350384E-1,1.0694973E0,8.090329E-3,-1.9127157E-1,-5.666952E-1,-9.734747E-3,2.4398516E-1,7.668394E-3,2.3929192E-2,-2.2801146E-1,3.60602E-4,-4.589934E-1,-1.4889824E-2,9.375909E-3,7.470045E-2,-2.6579338E-1,-4.110614E-2,-9.802423E-3,-2.805208E-3,4.9873507E-3,-2.149509E-2,-3.3715526E-3,-7.803935E-3,2.4801844E-3,-3.5933224E-3,-2.5303136E-3,2.5474185E-3],"categories":[],"categories_nodes":[],"categories_segments":[],"categories_sizes":[],"default_left":[0,0,0,0,0,0,0,0,0,0,0,0,0,0,0,0,0,0,0,0,0,0,0,0,0,0,0,0,0,0,0,0,0,0,0],"id":10,"left_children":[1,3,5,7,9,-1,11,-1,13,15,-1,17,19,-1,21,-1,-1,23,-1,25,-1,-1,27,29,31,-1,-1,-1,33,-1,-1,-1,-1,-1,-1],"loss_changes":[1.8813755E1,1.9917479E0,4.357766E0,1.3261677E0,1.2581072E0,0E0,2.0926619E0,0E0,1.3443668E0,1.6721916E-1,0E0,2.5580072E-1,2.4644661E-1,0E0,4.814855E-1,0E0,0E0,1.4198709E-1,0E0,1.2617493E-1,0E0,0E0,1.9616938E-1,1.3231742E-1,1.6511624E-1,0E0,0E0,0E0,1.2546687E-1,0E0,0E0,0E0,0E0,0E0,0E0],"parents":[2147483647,0,0,1,1,2,2,3,3,4,4,6,6,8,8,9,9,11,11,12,12,14,14,17,17,19,19,22,22,23,23,24,24,28,28],"right_children":[2,4,6,8,10,-1,12,-1,14,16,-1,18,20,-1,22,-1,-1,24,-1,26,-1,-1,28,30,32,-1,-1,-1,34,-1,-1,-1,-1,-1,-1],"split_conditions":[-2.5555238E-1,-2.6345325E-1,-1.7205244E0,-3.5514018E-1,-5.245218E-1,1.6677238E-2,2.2994576E-1,1.395276E-2,-4.8993346E-1,-3.109867E-1,8.090329E-3,5.769231E-1,1.5560663E0,-9.734747E-3,-2.0766962E-1,7.668394E-3,2.3929192E-2,9.0582186E-1,3.60602E-4,5.64486E0,-1.4889824E-2,9.375909E-3,-3.580247E-1,-1.09825626E-1,1.1211376E0,-9.802423E-3,-2.805208E-3,4.9873507E-3,-2.4691358E-1,-3.3715526E-3,-7.803935E-3,2.4801844E-3,-3.5933224E-3,-2.5303136E-3,2.5474185E-3],"split_indices":[1,8,14,7,1,0,1,0,11,13,0,12,1,0,13,0,0,14,0,7,0,0,9,3,14,0,0,0,9,0,0,0,0,0,0],"split_type":[0,0,0,0,0,0,0,0,0,0,0,0,0,0,0,0,0,0,0,0,0,0,0,0,0,0,0,0,0,0,0,0,0,0,0],"sum_hessian":[1.04E2,3.7E1,6.7E1,2.1E1,1.6E1,2E0,6.5E1,5E0,1.6E1,8E0,8E0,2.9E1,3.6E1,2E0,1.4E1,2E0,6E0,2.5E1,4E0,2.5E1,1.1E1,5E0,9E0,2E1,5E0,2.2E1,3E0,3E0,6E0,1.3E1,7E0,2E0,3E0,4E0,2E0],"tree_param":{"num_deleted":"0","num_feature":"16","num_nodes":"35","size_leaf_vector":"1"}},{"base_weights":[4.5961518E-2,5.648852E-1,-2.8265607E-1,-5.9067784E-3,6.205638E-1,1.6454875E-2,-3.3402565E-1,8.122305E-1,3.000077E-1,-1.3954428E-1,-4.8142132E-1,1.4465565E-3,9.1459954E-1,-0E0,3.6704737E-1,-1.8667513E-1,5.642089E-3,-5.0045127E-1,-1.6925654E-3,1.1844691E0,4.4204018E-1,1.131849E-2,2.0466591E-1,-2.2497155E-1,-0E0,-2.1494029E-3,-1.0394686E-2,2.6543314E-2,1.0845684E-2,-0E0,1.133579E-2,5.6270943E-3,-1.8326615E-4,-6.3392213E-3,-2.584251E-3],"categories":[],"categories_nodes":[],"categories_segments":[],"categories_sizes":[],"default_left":[0,0,0,0,0,0,0,0,0,0,0,0,0,0,0,0,0,0,0,0,0,0,0,0,0,0,0,0,0,0,0,0,0,0,0],"id":11,"left_children":[1,3,5,-1,7,-1,9,11,13,15,17,-1,19,-1,21,23,-1,25,-1,27,29,-1,31,33,-1,-1,-1,-1,-1,-1,-1,-1,-1,-1,-1],"loss_changes":[1.758169E1,2.1316433E0,3.8033323E0,0E0,1.9798164E0,0E0,1.6193328E0,1.5772495E0,3.113351E-1,5.9955347E-1,1.5587187E-1,0E0,1.8643532E0,0E0,2.2693694E-1,2.074306E-1,0E0,1.23916626E-1,0E0,1.9300652E-1,4.9015677E-1,0E0,1.7738205E-1,1.0822141E-1,0E0,0E0,0E0,0E0,0E0,0E0,0E0,0E0,0E0,0E0,0E0],"parents":[2147483647,0,0,1,1,2,2,4,4,6,6,7,7,8,8,9,9,10,10,12,12,14,14,15,15,17,17,19,19,20,20,22,22,23,23],"right_children":[2,4,6,-1,8,-1,10,12,14,16,18,-1,20,-1,22,24,-1,26,-1,28,30,-1,32,34,-1,-1,-1,-1,-1,-1,-1,-1,-1,-1,-1],"split_conditions":[-2.5555238E-1,-1.3242344E0,-1.7205244E0,-5.9067784E-3,-2.8395063E-1,1.6454875E-2,2.2994576E-1,-6.9728804E-1,-3.2364273E-1,1.6970254E0,1.5658804E0,1.4465565E-3,-2.990654E-1,-0E0,-2.035928E-1,9.0582186E-1,5.642089E-3,-8.813082E-1,-1.6925654E-3,1.4190148E0,-3.92151E-1,1.131849E-2,-1.8976842E-1,3.5928145E-2,-0E0,-2.1494029E-3,-1.0394686E-2,2.6543314E-2,1.0845684E-2,-0E0,1.133579E-2,5.6270943E-3,-1.8326615E-4,-6.3392213E-3,-2.584251E-3],"split_indices":[1,15,14,0,9,0,1,1,15,3,15,0,7,0,2,14,0,15,0,8,11,0,3,2,0,0,0,0,0,0,0,0,0,0,0],"split_type":[0,0,0,0,0,0,0,0,0,0,0,0,0,0,0,0,0,0,0,0,0,0,0,0,0,0,0,0,0,0,0,0,0,0,0],"sum_hessian":[1.01E2,3.9E1,6.2E1,2E0,3.7E1,2E0,6E1,2.2E1,1.5E1,2.7E1,3.3E1,3E0,1.9E1,3E0,1.2E1,2.5E1,2E0,3.1E1,2E0,1.1E1,8E0,4E0,8E0,2.1E1,4E0,2E0,2.9E1,8E0,3E0,2E0,6E0,6E0,2E0,9E0,1.2E1],"tree_param":{"num_deleted":"0","num_feature":"16","num_nodes":"35","size_leaf_vector":"1"}},{"base_weights":[1.2870748E-3,4.4030893E-1,-3.1576568E-1,7.2040254E-1,3.008833E-1,-1.2473715E-1,-5.550716E-1,1.4248575E-3,8.8187855E-1,1.0486101E-1,5.0938445E-1,-2.1970165E-1,1.9195454E-2,-3.3328752E-3,-6.1103106E-1,2.4615368E-2,4.9240312E-1,-2.077377E-2,5.5400245E-3,7.161513E-3,1.4407739E-2,-2.4749938E-1,-0E0,-1.3035426E-2,-4.5914454E-3,1.8828799E-3,1.2257559E-2,1.0989871E-1,-4.3912097E-3,5.820864E-4,-2.7186766E-1,-1.1903034E-3,4.191346E-3,-4.0137872E-2,-6.323015E-3,-3.4077698E-3,2.2715116E-3],"categories":[],"categories_nodes":[],"categories_segments":[],"categories_sizes":[],"default_left":[0,0,0,0,0,0,0,0,0,0,0,0,0,0,0,0,0,0,0,0,0,0,0,0,0,0,0,0,0,0,0,0,0,0,0,0,0],"id":12,"left_children":[1,3,5,7,9,11,13,-1,15,17,19,21,-1,-1,23,-1,25,27,-1,-1,-1,29,-1,-1,-1,-1,-1,31,-1,-1,33,-1,-1,35,-1,-1,-1],"loss_changes":[1.4905955E1,1.4384642E0,2.6970654E0,1.3093929E0,1.1930289E0,3.8444943E0,4.072857E-1,0E0,7.163725E-1,4.2065948E-1,1.1309886E-1,1.9653869E-1,0E0,0E0,1.1967373E-1,0E0,2.074604E-1,3.2083106E-1,0E0,0E0,0E0,2.3439944E-1,0E0,0E0,0E0,0E0,0E0,1.4567433E-1,0E0,0E0,2.3900914E-1,0E0,0E0,1.4516091E-1,0E0,0E0,0E0],"parents":[2147483647,0,0,1,1,2,2,3,3,4,4,5,5,6,6,8,8,9,9,10,10,11,11,14,14,16,16,17,17,21,21,27,27,30,30,33,33],"right_children":[2,4,6,8,10,12,14,-1,16,18,20,22,-1,-1,24,-1,26,28,-1,-1,-1,30,-1,-1,-1,-1,-1,32,-1,-1,34,-1,-1,36,-1,-1,-1],"split_conditions":[-1.662004E-1,-3.364486E-1,4.182415E-1,-5.66106E-1,3.153222E-1,2.3551402E0,2.8366378E-1,1.4248575E-3,-5.998287E-1,-1.0514274E-1,2.4459357E0,6.35514E-1,1.9195454E-2,-3.3328752E-3,1.1346316E0,2.4615368E-2,-2.7973124E-1,-4.0496716E-1,5.5400245E-3,7.161513E-3,1.4407739E-2,-3.283922E-1,-0E0,-1.3035426E-2,-4.5914454E-3,1.8828799E-3,1.2257559E-2,-5.555809E-1,-4.3912097E-3,5.820864E-4,-4.0622324E-2,-1.1903034E-3,4.191346E-3,1.290171E-1,-6.323015E-3,-3.4077698E-3,2.2715116E-3],"split_indices":[1,7,1,0,8,7,0,0,1,11,8,7,0,0,15,0,15,1,0,0,0,0,0,0,0,0,0,1,0,0,1,0,0,0,0,0,0],"split_type":[0,0,0,0,0,0,0,0,0,0,0,0,0,0,0,0,0,0,0,0,0,0,0,0,0,0,0,0,0,0,0,0,0,0,0,0,0],"sum_hessian":[1.05E2,4.4E1,6.1E1,1.3E1,3.1E1,3.5E1,2.6E1,3E0,1E1,1.7E1,1.4E1,3.3E1,2E0,4E0,2.2E1,4E0,6E0,1E1,7E0,1E1,4E0,2.9E1,4E0,1.9E1,3E0,2E0,4E0,6E0,4E0,2E0,2.7E1,2E0,4E0,5E0,2.2E1,3E0,2E0],"tree_param":{"num_deleted":"0","num_feature":"16","num_nodes":"37","size_leaf_vector":"1"}},{"base_weights":[4.160036E-2,5.158505E-1,-2.656889E-1,-3.4309363E-3,6.021686E-1,1.6107507E-2,-3.1823206E-1,9.3100214E-1,4.0849486E-1,-1.9634984E-1,-5.18865E-1,2.4192251E-2,5.5804984E-3,2.576578E-1,1.3309236E-2,2.2474045E-3,-2.3891602E-1,-1.1148915E-2,-1.3646366E-3,1.1232052E-1,7.2651063E-3,-8.119921E-3,-1.5852736E-1,4.16446E-3,-6.9226697E-4,3.1861067E-3,-1.9743913E-1,-4.487027E-3,-0E0],"categories":[],"categories_nodes":[],"categories_segments":[],"categories_sizes":[],"default_left":[0,0,0,0,0,0,0,0,0,0,0,0,0,0,0,0,0,0,0,0,0,0,0,0,0,0,0,0,0],"id":13,"left_children":[1,3,5,-1,7,-1,9,11,13,15,17,-1,-1,19,-1,-1,21,-1,-1,23,-1,-1,25,-1,-1,-1,27,-1,-1],"loss_changes":[1.4443804E1,2.4604225E0,3.5842085E0,0E0,1.7147646E0,0E0,1.2449079E0,1.6933966E0,6.6647005E-1,5.3886116E-1,2.6449776E-1,0E0,0E0,1.7254472E-1,0E0,0E0,3.358519E-1,0E0,0E0,1.5139017E-1,0E0,0E0,3.4445226E-1,0E0,0E0,0E0,1.10079646E-1,0E0,0E0],"parents":[2147483647,0,0,1,1,2,2,4,4,6,6,7,7,8,8,9,9,10,10,13,13,16,16,19,19,22,22,26,26],"right_children":[2,4,6,-1,8,-1,10,12,14,16,18,-1,-1,20,-1,-1,22,-1,-1,24,-1,-1,26,-1,-1,-1,28,-1,-1],"split_conditions":[-1.662004E-1,-6.594348E-1,-1.7205244E0,-3.4309363E-3,-4.2357105E-1,1.6107507E-2,5.316586E-1,-2.8395063E-1,1.599733E0,-8.813082E-1,1.2719873E0,2.4192251E-2,5.5804984E-3,5.5189285E-2,1.3309236E-2,2.2474045E-3,-5.407277E-1,-1.1148915E-2,-1.3646366E-3,-3.5419634E-1,7.2651063E-3,-8.119921E-3,-3.2379946E-1,4.16446E-3,-6.9226697E-4,3.1861067E-3,6.35514E-1,-4.487027E-3,-0E0],"split_indices":[1,1,14,0,11,0,1,9,8,15,14,0,0,11,0,0,15,0,0,15,0,0,8,0,0,0,7,0,0],"split_type":[0,0,0,0,0,0,0,0,0,0,0,0,0,0,0,0,0,0,0,0,0,0,0,0,0,0,0,0,0],"sum_hessian":[9.7E1,3.8E1,5.9E1,4E0,3.4E1,2E0,5.7E1,1.1E1,2.3E1,3.7E1,2E1,7E0,4E0,1.6E1,7E0,4E0,3.3E1,1.8E1,2E0,8E0,8E0,9E0,2.4E1,5E0,3E0,2E0,2.2E1,1.9E1,3E0],"tree_param":{"num_deleted":"0","num_feature":"16","num_nodes":"29","size_leaf_vector":"1"}},{"base_weights":[3.345332E-2,5.797507E-1,-2.092665E-1,-6.5534296E-3,6.520899E-1,-6.9731966E-2,-4.759649E-1,8.3876616E-1,3.903842E-1,-1.3181502E-1,1.3043538E-2,-5.266218E-3,-1.1093323E-2,2.7845237E-1,9.8205864E-1,1.21915145E-2,1.0989466E-1,-2.4587594E-1,2.1301897E-1,-3.2371467E-3,1.3185558E-2,2.2641005E-2,9.9132415E-3,-1.7269874E-3,5.298219E-3,-1.4391948E-1,-8.589244E-3,1.0610208E-2,-0E0,-8.4081857E-4,-2.27035E-1,-2.837393E-3,5.0326227E-3,-6.0200724E-3,-5.696889E-4],"categories":[],"categories_nodes":[],"categories_segments":[],"categories_sizes":[],"default_left":[0,0,0,0,0,0,0,0,0,0,0,0,0,0,0,0,0,0,0,0,0,0,0,0,0,0,0,0,0,0,0,0,0,0,0],"id":14,"left_children":[1,3,5,-1,7,9,11,13,15,17,-1,-1,-1,19,21,-1,23,25,27,-1,-1,-1,-1,-1,-1,29,-1,-1,31,-1,33,-1,-1,-1,-1],"loss_changes":[1.4213675E1,2.4123049E0,2.6660497E0,0E0,1.0641251E0,2.2748458E0,1.9055605E-1,9.6540165E-1,7.832775E-1,1.9042697E0,0E0,0E0,0E0,9.948569E-1,2.2453499E-1,0E0,2.8409922E-1,5.546949E-1,8.6268157E-1,0E0,0E0,0E0,0E0,0E0,0E0,1.7523986E-1,0E0,0E0,3.107167E-1,0E0,1.4940196E-1,0E0,0E0,0E0,0E0],"parents":[2147483647,0,0,1,1,2,2,4,4,5,5,6,6,7,7,8,8,9,9,13,13,14,14,16,16,17,17,18,18,25,25,28,28,30,30],"right_children":[2,4,6,-1,8,10,12,14,16,18,-1,-1,-1,20,22,-1,24,26,28,-1,-1,-1,-1,-1,-1,30,-1,-1,32,-1,34,-1,-1,-1,-1],"split_conditions":[-3.5897857E-1,-1.4836497E0,6.0493827E-1,-6.5534296E-3,-3.7037036E-1,2.3551402E0,2.9179195E-1,-5.66106E-1,-3.0769232E-1,6.205809E-1,1.3043538E-2,-5.266218E-3,-1.1093323E-2,2.1772158E-1,-1.15384616E-1,1.21915145E-2,-4.068315E-1,3.580247E-1,-3.3333334E-1,-3.2371467E-3,1.3185558E-2,2.2641005E-2,9.9132415E-3,-1.7269874E-3,5.298219E-3,-1.2568126E-2,-8.589244E-3,1.0610208E-2,1.9316121E0,-8.4081857E-4,8.311741E-1,-2.837393E-3,5.0326227E-3,-6.0200724E-3,-5.696889E-4],"split_indices":[0,15,9,0,9,7,0,0,12,8,0,0,0,3,12,0,8,9,9,0,0,0,0,0,0,0,0,0,8,0,11,0,0,0,0],"split_type":[0,0,0,0,0,0,0,0,0,0,0,0,0,0,0,0,0,0,0,0,0,0,0,0,0,0,0,0,0,0,0,0,0,0,0],"sum_hessian":[1.05E2,3.2E1,7.3E1,2E0,3E1,4.9E1,2.4E1,1.6E1,1.4E1,4.6E1,3E0,8E0,1.6E1,4E0,1.2E1,7E0,7E0,3.5E1,1.1E1,2E0,2E0,8E0,4E0,3E0,4E0,2.4E1,1.1E1,4E0,7E0,1.2E1,1.2E1,5E0,2E0,8E0,4E0],"tree_param":{"num_deleted":"0","num_feature":"16","num_nodes":"35","size_leaf_vector":"1"}},{"base_weights":[6.631467E-3,4.8251477E-1,-2.8478336E-1,5.340688E-1,-5.960169E-3,-1.2083919E-1,-5.2220577E-1,7.242578E-1,2.7695566E-1,-2.0342246E-1,1.8643236E-2,-4.0191007E-3,-1.1687257E-2,1.4213921E-3,8.2361865E-1,1.1806894E-2,1.6825488E-1,-6.9686035E-3,-1.277367E-1,1.8533805E-2,4.123907E-3,-1.4992717E-2,6.063938E-3,1.8732899E-3,-2.0021631E-1,-2.2168094E-3,2.3283553E-3,-4.6963356E-3,-0E0],"categories":[],"categories_nodes":[],"categories_segments":[],"categories_sizes":[],"default_left":[0,0,0,0,0,0,0,0,0,0,0,0,0,0,0,0,0,0,0,0,0,0,0,0,0,0,0,0,0],"id":15,"left_children":[1,3,5,7,-1,9,11,13,15,17,-1,-1,-1,-1,19,-1,21,-1,23,-1,-1,25,-1,-1,27,-1,-1,-1,-1],"loss_changes":[1.4579847E1,1.7923288E0,2.4026542E0,1.5574951E0,0E0,3.5951586E0,3.2320595E-1,1.2149248E0,4.3799305E-1,3.2492685E-1,0E0,0E0,0E0,0E0,8.4113026E-1,0E0,4.0428317E-1,0E0,4.6267927E-1,0E0,0E0,1.0051387E-1,0E0,0E0,1.5068275E-1,0E0,0E0,0E0,0E0],"parents":[2147483647,0,0,1,1,2,2,3,3,5,5,6,6,7,7,8,8,9,9,14,14,16,16,18,18,21,21,24,24],"right_children":[2,4,6,8,-1,10,12,14,16,18,-1,-1,-1,-1,20,-1,22,-1,24,-1,-1,26,-1,-1,28,-1,-1,-1,-1],"split_conditions":[-2.5555238E-1,7.571725E-1,4.182415E-1,-4.6491578E-1,-5.960169E-3,2.3551402E0,2.8366378E-1,-6.9728804E-1,-1.0061305E0,-9.962402E-2,1.8643236E-2,-4.0191007E-3,-1.1687257E-2,1.4213921E-3,3.9971173E-1,1.1806894E-2,-2.2127584E-1,-6.9686035E-3,-4.0622324E-2,1.8533805E-2,4.123907E-3,5.82742E-1,6.063938E-3,1.8732899E-3,6.35514E-1,-2.2168094E-3,2.3283553E-3,-4.6963356E-3,-0E0],"split_indices":[1,3,1,1,0,7,0,1,13,11,0,0,0,0,3,0,11,0,1,0,0,13,0,0,7,0,0,0,0],"split_type":[0,0,0,0,0,0,0,0,0,0,0,0,0,0,0,0,0,0,0,0,0,0,0,0,0,0,0,0,0],"sum_hessian":[1.03E2,3.9E1,6.4E1,3.7E1,2E0,3.9E1,2.5E1,2E1,1.7E1,3.7E1,2E0,5E0,2E1,3E0,1.7E1,3E0,1.4E1,1.1E1,2.6E1,1.4E1,3E0,6E0,8E0,6E0,2E1,4E0,2E0,1.7E1,3E0],"tree_param":{"num_deleted":"0","num_feature":"16","num_nodes":"29","size_leaf_vector":"1"}},{"base_weights":[4.7765702E-2,5.7476723E-1,-2.725597E-1,2.1729141E-2,4.2575827E-1,1.0705112E-2,-3.0886433E-1,1.0040597E-1,6.3782007E-1,-1.4092048E-1,-9.175658E-3,6.6082072E-3,-5.2975405E-2,9.318295E-1,7.6065753E-3,6.2934123E-4,-1.7132851E-1,-2.7626657E-1,1.6091084E-1,2.2281112E-2,4.4686813E-3,-4.3810485E-3,-0E0,-9.4505E-3,-0E0,6.171357E-3,-1.4099534E-4,2.2637926E-3,-3.944782E-3],"categories":[],"categories_nodes":[],"categories_segments":[],"categories_sizes":[],"default_left":[0,0,0,0,0,0,0,0,0,0,0,0,0,0,0,0,0,0,0,0,0,0,0,0,0,0,0,0,0],"id":16,"left_children":[1,3,5,-1,7,-1,9,11,13,15,-1,-1,17,19,-1,-1,21,23,25,-1,-1,-1,27,-1,-1,-1,-1,-1,-1],"loss_changes":[1.74057E1,2.3598194E0,2.0196376E0,0E0,2.0699701E0,0E0,1.4364076E0,5.391445E-1,9.527755E-1,1.8187833E-1,0E0,0E0,4.858201E-1,6.5003824E-1,0E0,0E0,2.1511972E-1,2.882235E-1,1.5632996E-1,0E0,0E0,0E0,1.8076926E-1,0E0,0E0,0E0,0E0,0E0,0E0],"parents":[2147483647,0,0,1,1,2,2,4,4,6,6,7,7,8,8,9,9,12,12,13,13,16,16,17,17,18,18,22,22],"right_children":[2,4,6,-1,8,-1,10,12,14,16,-1,-1,18,20,-1,-1,22,24,26,-1,-1,-1,28,-1,-1,-1,-1,-1,-1],"split_conditions":[-3.1658578E-1,-3.5514018E-1,-1.6823477E0,2.1729141E-2,-2.6345325E-1,1.0705112E-2,2.2994576E-1,-6.167375E-2,-5.245218E-1,-6.921238E-1,-9.175658E-3,6.6082072E-3,-2.4691358E-1,-3.7037036E-1,7.6065753E-3,6.2934123E-4,8.042924E-1,-5.555809E-1,-3.5439768E-1,2.2281112E-2,4.4686813E-3,-4.3810485E-3,1.2097303E0,-9.4505E-3,-0E0,6.171357E-3,-1.4099534E-4,2.2637926E-3,-3.944782E-3],"split_indices":[1,7,14,0,8,0,1,14,1,14,0,0,9,9,0,0,14,1,0,0,0,0,8,0,0,0,0,0,0],"split_type":[0,0,0,0,0,0,0,0,0,0,0,0,0,0,0,0,0,0,0,0,0,0,0,0,0,0,0,0,0],"sum_hessian":[1.01E2,3.8E1,6.3E1,7E0,3.1E1,2E0,6.1E1,1.3E1,1.8E1,3E1,3.1E1,5E0,8E0,7E0,1.1E1,4E0,2.6E1,4E0,4E0,5E0,2E0,2E1,6E0,2E0,2E0,2E0,2E0,4E0,2E0],"tree_param":{"num_deleted":"0","num_feature":"16","num_nodes":"29","size_leaf_vector":"1"}},{"base_weights":[-5.1915128E-2,3.510014E-1,-2.8462595E-1,-2.744297E-3,4.1541553E-1,1.5542558E-2,-3.3151087E-1,8.0613077E-1,2.385128E-1,-1.7495398E-1,-5.109777E-1,2.02224E-2,4.417339E-3,3.270498E-2,7.8148E-3,-2.211587E-1,4.4994685E-3,-3.7991873E-3,-1.1315497E-2,1.4308804E-1,-2.6089784E-3,-6.9386647E-3,-1.5537103E-1,-0E0,5.6822053E-3,-0E0,-2.0749922E-1,3.1766957E-3,-1.8816915E-3,-0E0,-4.7150394E-3],"categories":[],"categories_nodes":[],"categories_segments":[],"categories_sizes":[],"default_left":[0,0,0,0,0,0,0,0,0,0,0,0,0,0,0,0,0,0,0,0,0,0,0,0,0,0,0,0,0,0,0],"id":17,"left_children":[1,3,5,-1,7,-1,9,11,13,15,17,-1,-1,19,-1,21,-1,-1,-1,23,-1,-1,25,-1,-1,27,29,-1,-1,-1,-1],"loss_changes":[9.750859E0,1.2798462E0,3.4985614E0,0E0,2.0532947E0,0E0,1.640202E0,8.5320616E-1,7.281152E-1,7.146007E-1,3.2708836E-1,0E0,0E0,2.3604272E-1,0E0,1.6892183E-1,0E0,0E0,0E0,1.590811E-1,0E0,0E0,1.9564295E-1,0E0,0E0,1.19945005E-1,1.1425716E-1,0E0,0E0,0E0,0E0],"parents":[2147483647,0,0,1,1,2,2,4,4,6,6,7,7,8,8,9,9,10,10,13,13,15,15,19,19,22,22,25,25,26,26],"right_children":[2,4,6,-1,8,-1,10,12,14,16,18,-1,-1,20,-1,22,-1,-1,-1,24,-1,-1,26,-1,-1,28,30,-1,-1,-1,-1],"split_conditions":[-2.5555238E-1,-5.66106E-1,-1.7205244E0,-2.744297E-3,-5.580931E-1,1.5542558E-2,4.182415E-1,-3.3333334E-1,-2.2127584E-1,1.2139006E0,2.8366378E-1,2.02224E-2,4.417339E-3,-4.0496716E-1,7.8148E-3,-9.962402E-2,4.4994685E-3,-3.7991873E-3,-1.1315497E-2,-4.600628E-1,-2.6089784E-3,-6.9386647E-3,-4.0622324E-2,-0E0,5.6822053E-3,-3.2379946E-1,-1.0147544E0,3.1766957E-3,-1.8816915E-3,-0E0,-4.7150394E-3],"split_indices":[1,0,14,0,1,0,1,9,11,3,0,0,0,1,0,11,0,0,0,1,0,0,1,0,0,8,14,0,0,0,0],"split_type":[0,0,0,0,0,0,0,0,0,0,0,0,0,0,0,0,0,0,0,0,0,0,0,0,0,0,0,0,0,0,0],"sum_hessian":[1.02E2,3.7E1,6.5E1,4E0,3.3E1,2E0,6.3E1,9E0,2.4E1,3.5E1,2.8E1,6E0,3E0,1.1E1,1.3E1,3.2E1,3E0,5E0,2.3E1,7E0,4E0,9E0,2.3E1,4E0,3E0,6E0,1.7E1,2E0,4E0,2E0,1.5E1],"tree_param":{"num_deleted":"0","num_feature":"16","num_nodes":"31","size_leaf_vector":"1"}},{"base_weights":[2.2267971E-2,6.0379744E-1,-2.8903544E-1,1.9388886E-2,4.2203152E-1,-1.3427584E-1,-4.962265E-1,1.4447391E-1,6.8078345E-1,-2.160174E-1,1.8250851E-2,-5.242235E-1,-1.0968662E-3,4.0234006E-3,-1.9427045E-3,8.4138817E-1,6.730265E-3,-4.788564E-3,-0E0,-3.089023E-3,-1.1227831E-2,3.1557092E-3,2.052583E-2],"categories":[],"categories_nodes":[],"categories_segments":[],"categories_sizes":[],"default_left":[0,0,0,0,0,0,0,0,0,0,0,0,0,0,0,0,0,0,0,0,0,0,0],"id":18,"left_children":[1,3,5,-1,7,9,11,13,15,17,-1,19,-1,-1,-1,21,-1,-1,-1,-1,-1,-1,-1],"loss_changes":[1.867127E1,1.8443527E0,2.0186605E0,0E0,1.6864018E0,3.5502148E0,2.5935078E-1,2.217204E-1,3.1786013E-1,1.7586625E-1,0E0,1.990447E-1,0E0,0E0,0E0,7.3086166E-1,0E0,0E0,0E0,0E0,0E0,0E0,0E0],"parents":[2147483647,0,0,1,1,2,2,4,4,5,5,6,6,7,7,8,8,9,9,11,11,15,15],"right_children":[2,4,6,-1,8,10,12,14,16,18,-1,20,-1,-1,-1,22,-1,-1,-1,-1,-1,-1,-1],"split_conditions":[-3.1658578E-1,-3.364486E-1,4.182415E-1,1.9388886E-2,-1.0261774E-1,2.3551402E0,1.5658804E0,-9.307461E-2,-3.8404435E-1,8.037383E-1,1.8250851E-2,-1.635031E-2,-1.0968662E-3,4.0234006E-3,-1.9427045E-3,-2.1556886E-1,6.730265E-3,-4.788564E-3,-0E0,-3.089023E-3,-1.1227831E-2,3.1557092E-3,2.052583E-2],"split_indices":[1,7,1,0,8,7,15,0,0,7,0,0,0,0,0,2,0,0,0,0,0,0,0],"split_type":[0,0,0,0,0,0,0,0,0,0,0,0,0,0,0,0,0,0,0,0,0,0,0],"sum_hessian":[1.01E2,3.5E1,6.6E1,1E1,2.5E1,3.9E1,2.7E1,1.3E1,1.2E1,3.7E1,2E0,2.5E1,2E0,1.1E1,2E0,7E0,5E0,3.3E1,4E0,3E0,2.2E1,2E0,5E0],"tree_param":{"num_deleted":"0","num_feature":"16","num_nodes":"23","size_leaf_vector":"1"}},{"base_weights":[-1.8457563E-3,3.9871004E-1,-2.82557E-1,-3.3672953E-3,4.7118616E-1,1.52136525E-2,-3.371341E-1,8.34412E-1,3.095152E-1,-1.4630818E-1,-4.6062976E-1,1.9815005E-2,2.1207843E-3,1.7783281E-1,1.2544969E-2,-2.59015E-4,-3.9518527E-3,-3.7556013E-1,-1.3930254E-2,2.55844E-1,-3.0167324E-2,-8.103239E-3,-1.7291916E-3,5.9052208E-3,-0E0,-3.3021623E-3,2.5295233E-3],"categories":[],"categories_nodes":[],"categories_segments":[],"categories_sizes":[],"default_left":[0,0,0,0,0,0,0,0,0,0,0,0,0,0,0,0,0,0,0,0,0,0,0,0,0,0,0],"id":19,"left_children":[1,3,5,-1,7,-1,9,11,13,15,17,-1,-1,19,-1,-1,-1,21,-1,23,25,-1,-1,-1,-1,-1,-1],"loss_changes":[1.0670452E1,1.7124896E0,3.4025674E0,0E0,1.682651E0,0E0,1.144486E0,9.2398834E-1,8.957832E-1,1.3368744E-1,2.7333736E-1,0E0,0E0,3.5481256E-1,0E0,0E0,0E0,1.383133E-1,0E0,1.5148586E-1,1.5157102E-1,0E0,0E0,0E0,0E0,0E0,0E0],"parents":[2147483647,0,0,1,1,2,2,4,4,6,6,7,7,8,8,9,9,10,10,13,13,17,17,19,19,20,20],"right_children":[2,4,6,-1,8,-1,10,12,14,16,18,-1,-1,20,-1,-1,-1,22,-1,24,26,-1,-1,-1,-1,-1,-1],"split_conditions":[-1.662004E-1,-5.66106E-1,-1.7205244E0,-3.3672953E-3,-5.653154E-1,1.52136525E-2,2.2994576E-1,-3.3333334E-1,2.4148041E-1,-1.2345679E-2,1.7248073E0,1.9815005E-2,2.1207843E-3,-1.1111111E-1,1.2544969E-2,-2.59015E-4,-3.9518527E-3,1.1346316E0,-1.3930254E-2,1.1319659E-1,-1.3173653E-1,-8.103239E-3,-1.7291916E-3,5.9052208E-3,-0E0,-3.3021623E-3,2.5295233E-3],"split_indices":[1,0,14,0,1,0,1,9,14,9,1,0,0,9,0,0,0,15,0,14,2,0,0,0,0,0,0],"split_type":[0,0,0,0,0,0,0,0,0,0,0,0,0,0,0,0,0,0,0,0,0,0,0,0,0,0,0],"sum_hessian":[9.3E1,3.8E1,5.5E1,4E0,3.4E1,2E0,5.3E1,9E0,2.5E1,2.2E1,3.1E1,7E0,2E0,1.9E1,6E0,7E0,1.5E1,2.5E1,6E0,1.4E1,5E0,2.2E1,3E0,1.2E1,2E0,3E0,2E0],"tree_param":{"num_deleted":"0","num_feature":"16","num_nodes":"27","size_leaf_vector":"1"}},{"base_weights":[1.8251896E-2,5.569003E-1,-2.424557E-1,3.2579884E-1,8.7313837E-1,1.5010805E-2,-2.8297758E-1,1.0431861E-1,5.7114327E-1,9.95746E-1,1.1665671E-3,-4.9144644E-2,-4.3531516E-1,-7.5700306E-3,2.3560423E-1,1.5019338E-2,6.18866E-3,2.1592882E-2,7.01674E-3,5.6545567E-2,-1.3295805E-1,-3.381417E-1,-1.2834741E-2,6.73586E-3,-2.2632696E-3,5.556609E-3,-6.1562218E-2,-5.5612097E-3,-8.198732E-4,-7.6789963E-3,-1.1194956E-1,-3.3700245E-3,7.537848E-4,-4.4962703E-3,7.80357E-5],"categories":[],"categories_nodes":[],"categories_segments":[],"categories_sizes":[],"default_left":[0,0,0,0,0,0,0,0,0,0,0,0,0,0,0,0,0,0,0,0,0,0,0,0,0,0,0,0,0,0,0,0,0,0,0],"id":20,"left_children":[1,3,5,7,9,-1,11,13,15,17,-1,19,21,-1,23,-1,-1,-1,-1,25,27,29,-1,-1,-1,-1,31,-1,-1,-1,33,-1,-1,-1,-1],"loss_changes":[1.5052022E1,2.1535463E0,3.0627708E0,1.0683296E0,1.2351389E0,0E0,2.4236684E0,8.9892226E-1,1.3220286E-1,1.274519E-1,0E0,2.7204892E-1,5.274806E-1,0E0,4.4868082E-1,0E0,0E0,0E0,0E0,3.784918E-1,1.835483E-1,2.2863173E-1,0E0,0E0,0E0,0E0,1.1495656E-1,0E0,0E0,0E0,1.14496455E-1,0E0,0E0,0E0,0E0],"parents":[2147483647,0,0,1,1,2,2,3,3,4,4,6,6,7,7,8,8,9,9,11,11,12,12,14,14,19,19,20,20,21,21,26,26,30,30],"right_children":[2,4,6,8,10,-1,12,14,16,18,-1,20,22,-1,24,-1,-1,-1,-1,26,28,30,-1,-1,-1,-1,32,-1,-1,-1,34,-1,-1,-1,-1],"split_conditions":[-3.6697116E-1,-4.5627955E-2,-1.7205244E0,7.258865E-1,2.3812916E0,1.5010805E-2,1.0967742E-1,-1.8976842E-1,-5.245218E-1,1.4190148E0,1.1665671E-3,-2.0618261E-1,1.5560663E0,-7.5700306E-3,-7.5374216E-2,1.5019338E-2,6.18866E-3,2.1592882E-2,7.01674E-3,-2.2453487E-1,-2.95651E-1,1.4615384E0,-1.2834741E-2,6.73586E-3,-2.2632696E-3,5.556609E-3,1.290171E-1,-5.5612097E-3,-8.198732E-4,-7.6789963E-3,-9.9220484E-2,-3.3700245E-3,7.537848E-4,-4.4962703E-3,7.80357E-5],"split_indices":[1,14,14,8,13,0,1,3,1,8,0,13,1,0,14,0,0,0,0,0,8,12,0,0,0,0,0,0,0,0,13,0,0,0,0],"split_type":[0,0,0,0,0,0,0,0,0,0,0,0,0,0,0,0,0,0,0,0,0,0,0,0,0,0,0,0,0,0,0,0,0,0,0],"sum_hessian":[1.05E2,3.4E1,7.1E1,2.1E1,1.3E1,2E0,6.9E1,1.2E1,9E0,1.1E1,2E0,2.8E1,4.1E1,2E0,1E1,4E0,5E0,9E0,2E0,1.2E1,1.6E1,3E1,1.1E1,8E0,2E0,4E0,8E0,5E0,1.1E1,2.4E1,6E0,4E0,4E0,3E0,3E0],"tree_param":{"num_deleted":"0","num_feature":"16","num_nodes":"35","size_leaf_vector":"1"}},{"base_weights":[-1.0454053E-2,4.44877E-1,-3.1816882E-1,2.645509E-1,7.774868E-1,-1.5822619E-1,-4.9224272E-1,4.0652337E-3,4.1165626E-1,2.4468167E-2,4.322541E-1,2.280696E-3,-2.0476471E-1,-1.6351326E-3,-1.0719606E-2,-1.8490219E-1,8.119675E-3,1.47790285E-2,2.464153E-1,2.1242951E-4,5.369175E-1,3.6966454E-4,-2.362938E-1,-9.901472E-3,-0E0,-0E0,6.321608E-3,2.8042286E-3,1.2951152E-2,-5.406215E-3,-5.232759E-4,5.9420634E-3,-4.426531E-3],"categories":[],"categories_nodes":[],"categories_segments":[],"categories_sizes":[],"default_left":[0,0,0,0,0,0,0,0,0,0,0,0,0,0,0,0,0,0,0,0,0,0,0,0,0,0,0,0,0,0,0,0,0],"id":21,"left_children":[1,3,5,7,9,11,13,15,17,-1,19,-1,21,-1,-1,23,-1,-1,25,-1,27,-1,29,-1,31,-1,-1,-1,-1,-1,-1,-1,-1],"loss_changes":[1.3579635E1,2.0292635E0,1.4718943E0,9.913627E-1,1.3069177E0,4.3788338E-1,3.7915516E-1,9.326201E-1,6.387782E-1,0E0,3.3670878E-1,0E0,2.2323501E-1,0E0,0E0,4.6178305E-1,0E0,0E0,2.0970178E-1,0E0,1.3766956E-1,0E0,1.419797E-1,0E0,4.6075267E-1,0E0,0E0,0E0,0E0,0E0,0E0,0E0,0E0],"parents":[2147483647,0,0,1,1,2,2,3,3,4,4,5,5,6,6,7,7,8,8,10,10,12,12,15,15,18,18,20,20,22,22,24,24],"right_children":[2,4,6,8,10,12,14,16,18,-1,20,-1,22,-1,-1,24,-1,-1,26,-1,28,-1,30,-1,32,-1,-1,-1,-1,-1,-1,-1,-1],"split_conditions":[-1.662004E-1,2.0152391E-1,2.9179195E-1,-2.6923078E-1,-4.3719667E-1,-8.813082E-1,1.1070511E-1,3.1836373E-1,-5.245218E-1,2.4468167E-2,2.5130153E-1,2.280696E-3,-4.0622324E-2,-1.6351326E-3,-1.0719606E-2,-4.8317987E-1,8.119675E-3,1.47790285E-2,-3.6766878E-1,2.1242951E-4,-5.01433E-1,3.6966454E-4,9.7196263E-1,-9.901472E-3,-4.0496716E-1,-0E0,6.321608E-3,2.8042286E-3,1.2951152E-2,-5.406215E-3,-5.232759E-4,5.9420634E-3,-4.426531E-3],"split_indices":[1,14,0,12,11,15,1,3,1,0,14,0,1,0,0,0,0,0,11,0,0,0,7,0,1,0,0,0,0,0,0,0,0],"split_type":[0,0,0,0,0,0,0,0,0,0,0,0,0,0,0,0,0,0,0,0,0,0,0,0,0,0,0,0,0,0,0,0,0],"sum_hessian":[9.5E1,3.8E1,5.7E1,2.6E1,1.2E1,3.1E1,2.6E1,1E1,1.6E1,4E0,8E0,4E0,2.7E1,3E0,2.3E1,7E0,3E0,4E0,1.2E1,2E0,6E0,3E0,2.4E1,2E0,5E0,3E0,9E0,2E0,4E0,2E1,4E0,2E0,3E0],"tree_param":{"num_deleted":"0","num_feature":"16","num_nodes":"33","size_leaf_vector":"1"}},{"base_weights":[1.043784E-1,5.3834826E-1,-1.2371387E-1,-6.3580126E-3,6.118103E-1,1.4885615E-2,-1.6898178E-1,8.760369E-1,3.6788347E-1,5.9561646E-3,-3.9714056E-1,5.3231046E-3,1.9072752E-2,1.0134695E-1,1.1648659E-2,-7.810543E-2,2.1710838E-1,-4.1055612E-2,-9.164987E-3,-2.0761217E-3,4.7578225E-3,-1.1762569E-1,4.0882323E-3,1.1479306E-2,-3.539642E-3,2.660609E-3,-4.6957964E-3,-4.8810365E-3,-2.080706E-2,-2.6216335E-3,3.537539E-3,4.893031E-3,-2.4907365E-3],"categories":[],"categories_nodes":[],"categories_segments":[],"categories_sizes":[],"default_left":[0,0,0,0,0,0,0,0,0,0,0,0,0,0,0,0,0,0,0,0,0,0,0,0,0,0,0,0,0,0,0,0,0],"id":22,"left_children":[1,3,5,-1,7,-1,9,11,13,15,17,-1,-1,19,-1,21,23,25,-1,-1,-1,27,-1,-1,29,-1,-1,-1,31,-1,-1,-1,-1],"loss_changes":[8.917745E0,2.1738415E0,2.386485E0,0E0,1.4224348E0,0E0,2.3165607E0,2.3945904E-1,8.4474397E-1,6.166008E-1,4.752531E-1,0E0,0E0,2.9021513E-1,0E0,2.83329E-1,8.4647197E-1,2.1004227E-1,0E0,0E0,0E0,2.3772502E-1,0E0,0E0,1.7968068E-1,0E0,0E0,0E0,4.039601E-1,0E0,0E0,0E0,0E0],"parents":[2147483647,0,0,1,1,2,2,4,4,6,6,7,7,8,8,9,9,10,10,13,13,15,15,16,16,17,17,21,21,24,24,28,28],"right_children":[2,4,6,-1,8,-1,10,12,14,16,18,-1,-1,20,-1,22,24,26,-1,-1,-1,28,-1,-1,30,-1,-1,-1,32,-1,-1,-1,-1],"split_conditions":[-3.5439768E-1,-1.3242344E0,-1.7205244E0,-6.3580126E-3,-4.2357105E-1,1.4885615E-2,3.5388085E-1,-8.2474476E-1,-2.715696E-1,5.82742E-1,1.1214953E-1,5.3231046E-3,1.9072752E-2,-2.990654E-1,1.1648659E-2,1.0864407E0,-2.3368563E-1,2.679801E-1,-9.164987E-3,-2.0761217E-3,4.7578225E-3,-9.962402E-2,4.0882323E-3,1.1479306E-2,-1.6977541E-1,2.660609E-3,-4.6957964E-3,-4.8810365E-3,0E0,-2.6216335E-3,3.537539E-3,4.893031E-3,-2.4907365E-3],"split_indices":[0,15,14,0,11,0,0,14,15,13,7,0,0,7,0,3,3,13,0,0,0,11,0,0,0,0,0,0,2,0,0,0,0],"split_type":[0,0,0,0,0,0,0,0,0,0,0,0,0,0,0,0,0,0,0,0,0,0,0,0,0,0,0,0,0,0,0,0,0],"sum_hessian":[8.8E1,3E1,5.8E1,2E0,2.8E1,2E0,5.6E1,1.2E1,1.6E1,3.2E1,2.4E1,2E0,1E1,8E0,8E0,2.3E1,9E0,4E0,2E1,3E0,5E0,2.1E1,2E0,3E0,6E0,2E0,2E0,8E0,1.3E1,4E0,2E0,3E0,1E1],"tree_param":{"num_deleted":"0","num_feature":"16","num_nodes":"33","size_leaf_vector":"1"}},{"base_weights":[2.1650242E-2,3.320236E-1,-3.0051434E-1,6.373621E-1,1.40794E-1,1.0569105E-2,-3.5247785E-1,-6.2732385E-3,7.82094E-1,3.6792433E-1,-0E0,-2.2112677E-1,-9.1689015E-3,9.3785566E-1,1.1069031E-3,1.8450744E-3,8.76906E-3,2.7718085E-1,-1.42196E-1,4.0601744E-4,-2.5128457E-1,2.0324666E-2,6.0903826E-3,-4.226647E-3,1.0697052E-2,-0E0,-5.1218895E-3,-6.964492E-3,-2.624446E-3],"categories":[],"categories_nodes":[],"categories_segments":[],"categories_sizes":[],"default_left":[0,0,0,0,0,0,0,0,0,0,0,0,0,0,0,0,0,0,0,0,0,0,0,0,0,0,0,0,0],"id":23,"left_children":[1,3,5,7,9,-1,11,-1,13,15,17,19,-1,21,-1,-1,-1,23,25,-1,27,-1,-1,-1,-1,-1,-1,-1,-1],"loss_changes":[9.40212E0,2.6351566E0,2.1501746E0,2.76974E0,1.0099082E0,0E0,4.4310045E-1,0E0,1.6599684E0,1.3979256E-1,8.2088035E-1,1.8838E-1,0E0,2.037735E-1,0E0,0E0,0E0,1.0265162E0,2.4159926E-1,0E0,1.3913739E-1,0E0,0E0,0E0,0E0,0E0,0E0,0E0,0E0],"parents":[2147483647,0,0,1,1,2,2,3,3,4,4,6,6,8,8,9,9,10,10,11,11,13,13,17,17,18,18,20,20],"right_children":[2,4,6,8,10,-1,12,-1,14,16,18,20,-1,22,-1,-1,-1,24,26,-1,28,-1,-1,-1,-1,-1,-1,-1,-1],"split_conditions":[-1.2345679E-2,-3.7037036E-1,-1.6823477E0,-1.3242344E0,-6.167375E-2,1.0569105E-2,3.5388085E-1,-6.2732385E-3,-2.0179477E-1,-5.1625633E-1,-1.0061305E0,-2.9865158E-1,-9.1689015E-3,-1.682243E-1,1.1069031E-3,1.8450744E-3,8.76906E-3,-3.2098764E-1,5.4525487E-2,4.0601744E-4,-2.6193384E-2,2.0324666E-2,6.0903826E-3,-4.226647E-3,1.0697052E-2,-0E0,-5.1218895E-3,-6.964492E-3,-2.624446E-3],"split_indices":[9,9,14,15,14,0,0,0,0,0,13,0,0,7,0,0,0,9,3,0,0,0,0,0,0,0,0,0,0],"split_type":[0,0,0,0,0,0,0,0,0,0,0,0,0,0,0,0,0,0,0,0,0,0,0,0,0,0,0,0,0],"sum_hessian":[9.2E1,4.7E1,4.5E1,1.7E1,3E1,2E0,4.3E1,2E0,1.5E1,1.1E1,1.9E1,2.1E1,2.2E1,1.2E1,3E0,3E0,8E0,6E0,1.3E1,2E0,1.9E1,1E1,2E0,2E0,4E0,6E0,7E0,9E0,1E1],"tree_param":{"num_deleted":"0","num_feature":"16","num_nodes":"29","size_leaf_vector":"1"}},{"base_weights":[-9.882093E-3,3.38562E-1,-3.3462334E-1,7.047335E-1,2.5172237E-1,-1.369095E-1,-4.1683978E-1,2.544565E-4,2.0639036E-2,-6.2898956E-3,2.8945234E-1,6.90663E-4,-3.3349632E-3,-3.6012408E-1,-1.2852724E-2,5.6484056E-1,1.5257303E-1,-3.7876987E-1,-2.815256E-4,1.6188031E-2,7.1020434E-3,8.427299E-2,7.673554E-3,-7.935103E-3,-9.06439E-4,-6.98496E-2,2.0649266E-1,-3.0070832E-3,3.2322789E-3,5.517907E-3,1.2777433E-4],"categories":[],"categories_nodes":[],"categories_segments":[],"categories_sizes":[],"default_left":[0,0,0,0,0,0,0,0,0,0,0,0,0,0,0,0,0,0,0,0,0,0,0,0,0,0,0,0,0,0,0],"id":24,"left_children":[1,3,5,7,9,11,13,-1,-1,-1,15,-1,-1,17,-1,19,21,23,-1,-1,-1,25,-1,-1,-1,27,29,-1,-1,-1,-1],"loss_changes":[1.1994084E1,1.3486657E0,7.8159904E-1,1.9203496E0,1.0071514E0,1.1106098E-1,1.5493059E-1,0E0,0E0,0E0,1.3875723E0,0E0,0E0,1.6831112E-1,0E0,2.62949E-1,3.7862068E-1,1.2372208E-1,0E0,0E0,0E0,4.8017126E-1,0E0,0E0,0E0,2.2814594E-1,1.6443753E-1,0E0,0E0,0E0,0E0],"parents":[2147483647,0,0,1,1,2,2,3,3,4,4,5,5,6,6,10,10,13,13,15,15,16,16,17,17,21,21,25,25,26,26],"right_children":[2,4,6,8,10,12,14,-1,-1,-1,16,-1,-1,18,-1,20,22,24,-1,-1,-1,26,-1,-1,-1,28,30,-1,-1,-1,-1],"split_conditions":[-4.0622324E-2,-3.5514018E-1,2.2994576E-1,-6.9728804E-1,-5.2746195E-1,-3.283922E-1,1.9767057E0,2.544565E-4,2.0639036E-2,-6.2898956E-3,-3.7037036E-1,6.90663E-4,-3.3349632E-3,7.009346E0,-1.2852724E-2,-5.653154E-1,2.5192434E-1,1.1346316E0,-2.815256E-4,1.6188031E-2,7.1020434E-3,-1.9161677E-1,7.673554E-3,-7.935103E-3,-9.06439E-4,-7.692308E-2,-5.5922512E-2,-3.0070832E-3,3.2322789E-3,5.517907E-3,1.2777433E-4],"split_indices":[1,7,1,1,0,0,1,0,0,0,9,0,0,7,0,1,14,15,0,0,0,2,0,0,0,12,14,0,0,0,0],"split_type":[0,0,0,0,0,0,0,0,0,0,0,0,0,0,0,0,0,0,0,0,0,0,0,0,0,0,0,0,0,0,0],"sum_hessian":[1.04E2,5E1,5.4E1,8E0,4.2E1,1.7E1,3.7E1,3E0,5E0,2E0,4E1,2E0,1.5E1,3.2E1,5E0,1.2E1,2.8E1,3E1,2E0,4E0,8E0,2.3E1,5E0,2.8E1,2E0,1E1,1.3E1,8E0,2E0,9E0,4E0],"tree_param":{"num_deleted":"0","num_feature":"16","num_nodes":"31","size_leaf_vector":"1"}},{"base_weights":[-2.8221276E-2,3.9327455E-1,-2.9636493E-1,-4.169848E-3,4.352753E-1,-1.8642987E-1,-4.2910966E-1,1.6863013E-2,2.8505552E-1,-2.228394E-1,2.5290775E-3,-9.111415E-3,-8.2102633E-4,1.0101916E-1,8.623049E-3,-2.5126615E-1,-0E0,-1.2119713E-3,4.8461454E-3,-2.9653537E-3,-7.0202607E-3],"categories":[],"categories_nodes":[],"categories_segments":[],"categories_sizes":[],"default_left":[0,0,0,0,0,0,0,0,0,0,0,0,0,0,0,0,0,0,0,0,0],"id":25,"left_children":[1,3,5,-1,7,9,11,-1,13,15,-1,-1,-1,17,-1,19,-1,-1,-1,-1,-1],"loss_changes":[1.10699415E1,1.0738668E0,7.34045E-1,0E0,1.8525887E0,4.3653584E-1,1.9861507E-1,0E0,6.560683E-1,1.7873406E-1,0E0,0E0,0E0,3.5253966E-1,0E0,1.8569374E-1,0E0,0E0,0E0,0E0,0E0],"parents":[2147483647,0,0,1,1,2,2,4,4,5,5,6,6,8,8,9,9,13,13,15,15],"right_children":[2,4,6,-1,8,10,12,-1,14,16,-1,-1,-1,18,-1,20,-1,-1,-1,-1,-1],"split_conditions":[-1.662004E-1,-6.9728804E-1,4.182415E-1,-4.169848E-3,-5.653154E-1,9.517188E-1,1.1346316E0,1.6863013E-2,-2.7973124E-1,8.037383E-1,2.5290775E-3,-9.111415E-3,-8.2102633E-4,-4.068315E-1,8.623049E-3,-2.6205546E-1,-0E0,-1.2119713E-3,4.8461454E-3,-2.9653537E-3,-7.0202607E-3],"split_indices":[1,1,1,0,1,3,15,0,15,7,0,0,0,8,0,3,0,0,0,0,0],"split_type":[0,0,0,0,0,0,0,0,0,0,0,0,0,0,0,0,0,0,0,0,0],"sum_hessian":[9.6E1,3.7E1,5.9E1,2E0,3.5E1,3.4E1,2.5E1,8E0,2.7E1,3.1E1,3E0,2.3E1,2E0,1.3E1,1.4E1,2.7E1,4E0,6E0,7E0,1.5E1,1.2E1],"tree_param":{"num_deleted":"0","num_feature":"16","num_nodes":"21","size_leaf_vector":"1"}},{"base_weights":[-5.1299613E-3,4.191005E-1,-1.6951181E-1,-4.1171866E-3,5.27012E-1,1.4554138E-2,-2.040137E-1,3.2718292E-1,1.846459E-2,-7.416794E-2,-3.8688117E-1,5.736561E-1,2.5453782E-3,-1.5616655E-1,1.1726937E-1,-1.4933524E-1,-4.586652E-1,1.9714166E-3,1.6379861E-2,-1.8532038E-1,1.5305752E-3,2.2322191E-1,-1.9617917E-3,-0E0,-6.649656E-3,-9.89667E-3,-3.8531E-4,-2.0619852E-3,-6.589053E-3,2.8084272E-1,-0E0,7.0279026E-3,2.5580658E-4],"categories":[],"categories_nodes":[],"categories_segments":[],"categories_sizes":[],"default_left":[0,0,0,0,0,0,0,0,0,0,0,0,0,0,0,0,0,0,0,0,0,0,0,0,0,0,0,0,0,0,0,0,0],"id":26,"left_children":[1,3,5,-1,7,-1,9,11,-1,13,15,17,-1,19,21,23,25,-1,-1,27,-1,29,-1,-1,-1,-1,-1,-1,-1,31,-1,-1,-1],"loss_changes":[7.507813E0,2.163816E0,2.5106413E0,0E0,1.6314645E0,0E0,1.7297883E0,7.9309416E-1,0E0,7.4429256E-1,3.9931726E-1,7.599628E-1,0E0,2.4893212E-1,3.5385862E-1,2.4147019E-1,3.045802E-1,0E0,0E0,2.7830005E-1,0E0,1.3270086E-1,0E0,0E0,0E0,0E0,0E0,0E0,0E0,1.1038095E-1,0E0,0E0,0E0],"parents":[2147483647,0,0,1,1,2,2,4,4,6,6,7,7,9,9,10,10,11,11,13,13,14,14,15,15,16,16,19,19,21,21,29,29],"right_children":[2,4,6,-1,8,-1,10,12,-1,14,16,18,-1,20,22,24,26,-1,-1,28,-1,30,-1,-1,-1,-1,-1,-1,-1,32,-1,-1,-1],"split_conditions":[-3.5439768E-1,-5.66106E-1,-1.7205244E0,-4.1171866E-3,-1.3460454E-1,1.4554138E-2,3.5388085E-1,-7.838977E-2,1.846459E-2,6.4457804E-1,4.2307693E-1,-3.17757E-1,2.5453782E-3,1.0864407E0,1.1715025E0,-1.0128116E-1,1.2719873E0,1.9714166E-3,1.6379861E-2,2.4089402E-1,1.5305752E-3,1.5478395E0,-1.9617917E-3,-0E0,-6.649656E-3,-9.89667E-3,-3.8531E-4,-2.0619852E-3,-6.589053E-3,-3.5928145E-2,-0E0,7.0279026E-3,2.5580658E-4],"split_indices":[0,0,14,0,15,0,0,13,0,8,12,7,0,3,11,3,14,0,0,3,0,13,0,0,0,0,0,0,0,2,0,0,0],"split_type":[0,0,0,0,0,0,0,0,0,0,0,0,0,0,0,0,0,0,0,0,0,0,0,0,0,0,0,0,0,0,0,0,0],"sum_hessian":[1.06E2,2.9E1,7.7E1,4E0,2.5E1,2E0,7.5E1,1.8E1,7E0,4.5E1,3E1,7E0,1.1E1,3.2E1,1.3E1,8E0,2.2E1,3E0,4E0,2.9E1,3E0,9E0,4E0,5E0,3E0,2E1,2E0,2E1,9E0,7E0,2E0,5E0,2E0],"tree_param":{"num_deleted":"0","num_feature":"16","num_nodes":"33","size_leaf_vector":"1"}},{"base_weights":[9.776679E-3,3.5408875E-1,-2.0323373E-1,4.1483003E-1,-4.818389E-3,1.4360081E-2,-2.4832661E-1,6.074384E-1,2.6885965E-1,-1.8091914E-1,-1.1010626E-2,-0E0,7.6678896E-1,1.1692268E-2,1.6065809E-1,-2.0507614E-1,2.4631103E-3,1.8530874E-2,3.6977455E-1,-0E0,5.7776347E-3,-3.737561E-2,-2.3595381E-1,1.0422919E-2,1.236233E-3,2.0824294E-3,-3.108503E-3,2.0365492E-3,-3.7820712E-3,-5.531324E-3,-1.1747687E-3],"categories":[],"categories_nodes":[],"categories_segments":[],"categories_sizes":[],"default_left":[0,0,0,0,0,0,0,0,0,0,0,0,0,0,0,0,0,0,0,0,0,0,0,0,0,0,0,0,0,0,0],"id":27,"left_children":[1,3,5,7,-1,-1,9,11,13,15,-1,-1,17,-1,19,21,-1,-1,23,25,-1,27,29,-1,-1,-1,-1,-1,-1,-1,-1],"loss_changes":[7.2745705E0,1.4907103E0,2.6653492E0,7.330837E-1,0E0,0E0,1.0291343E0,1.3018789E0,5.8318126E-1,4.00725E-1,0E0,0E0,2.2543049E-1,0E0,3.6992827E-1,2.0722353E-1,0E0,0E0,1.425752E-1,1.616756E-1,0E0,2.1807252E-1,2.3091316E-1,0E0,0E0,0E0,0E0,0E0,0E0,0E0,0E0],"parents":[2147483647,0,0,1,1,2,2,3,3,6,6,7,7,8,8,9,9,12,12,14,14,15,15,18,18,19,19,21,21,22,22],"right_children":[2,4,6,8,-1,-1,10,12,14,16,-1,-1,18,-1,20,22,-1,-1,24,26,-1,28,30,-1,-1,-1,-1,-1,-1,-1,-1],"split_conditions":[-2.5555238E-1,1.0711144E0,-1.7205244E0,-5.653154E-1,-4.818389E-3,1.4360081E-2,1.2507279E0,-6.2602884E-1,-3.0769232E-1,1.2139006E0,-1.1010626E-2,-0E0,-5.998287E-1,1.1692268E-2,-2.3076923E-1,-4.0622324E-2,2.4631103E-3,1.8530874E-2,-3.9506173E-1,5.4525487E-2,5.7776347E-3,-2.0618261E-1,8.076923E-1,1.0422919E-2,1.236233E-3,2.0824294E-3,-3.108503E-3,2.0365492E-3,-3.7820712E-3,-5.531324E-3,-1.1747687E-3],"split_indices":[1,3,14,1,0,0,1,14,12,3,0,0,1,0,12,1,0,0,9,3,0,13,12,0,0,0,0,0,0,0,0],"split_type":[0,0,0,0,0,0,0,0,0,0,0,0,0,0,0,0,0,0,0,0,0,0,0,0,0,0,0,0,0,0,0],"sum_hessian":[9.7E1,3.7E1,6E1,3.4E1,3E0,2E0,5.8E1,1.3E1,2.1E1,4.9E1,9E0,3E0,1E1,4E0,1.7E1,4.6E1,3E0,6E0,4E0,8E0,9E0,8E0,3.8E1,2E0,2E0,5E0,3E0,4E0,4E0,3E1,8E0],"tree_param":{"num_deleted":"0","num_feature":"16","num_nodes":"31","size_leaf_vector":"1"}},{"base_weights":[1.6495598E-2,4.4613457E-1,-2.1605055E-1,-6.2650125E-3,5.013352E-1,1.4168614E-2,-2.5631407E-1,8.5854524E-1,2.976745E-1,-7.001881E-2,-3.5872045E-1,2.0765197E-2,4.2910203E-3,1.3235179E-1,5.0589114E-1,3.7510507E-3,-1.0491861E-1,-2.948668E-1,-1.2431583E-2,3.380093E-2,7.3983273E-3,5.841406E-1,1.9052435E-3,7.6581135E-2,-3.5872895E-3,-1.2159387E-1,-6.5810024E-3,4.8601166E-3,-2.2340633E-2,1.4602184E-2,4.612894E-3,-3.8925882E-3,4.879825E-3,-0E0,-4.7195167E-3,2.1514143E-3,-2.1533975E-3],"categories":[],"categories_nodes":[],"categories_segments":[],"categories_sizes":[],"default_left":[0,0,0,0,0,0,0,0,0,0,0,0,0,0,0,0,0,0,0,0,0,0,0,0,0,0,0,0,0,0,0,0,0,0,0,0,0],"id":28,"left_children":[1,3,5,-1,7,-1,9,11,13,15,17,-1,-1,19,21,-1,23,25,-1,27,-1,29,-1,31,-1,33,-1,-1,35,-1,-1,-1,-1,-1,-1,-1,-1],"loss_changes":[1.0510128E1,1.7268376E0,2.667525E0,0E0,2.1750479E0,0E0,1.1911454E0,1.040782E0,6.953707E-1,2.3614404E-1,4.300208E-1,0E0,0E0,2.9830766E-1,1.9772816E-1,0E0,3.347881E-1,1.2815475E-1,0E0,1.6843651E-1,0E0,1.4832306E-1,0E0,3.7024775E-1,0E0,1.04457855E-1,0E0,0E0,1.2244442E-1,0E0,0E0,0E0,0E0,0E0,0E0,0E0,0E0],"parents":[2147483647,0,0,1,1,2,2,4,4,6,6,7,7,8,8,9,9,10,10,13,13,14,14,16,16,17,17,19,19,21,21,23,23,25,25,28,28],"right_children":[2,4,6,-1,8,-1,10,12,14,16,18,-1,-1,20,22,-1,24,26,-1,28,-1,30,-1,32,-1,34,-1,-1,36,-1,-1,-1,-1,-1,-1,-1,-1],"split_conditions":[-3.1658578E-1,-1.3242344E0,-1.7205244E0,-6.2650125E-3,-3.8271606E-1,1.4168614E-2,3.580247E-1,-5.261205E-1,-1.3460454E-1,-1.168656E0,1.9767057E0,2.0765197E-2,4.2910203E-3,7.258865E-1,5.286451E-1,3.7510507E-3,-6.3340753E-1,-9.479588E-1,-1.2431583E-2,-4.6151155E-1,7.3983273E-3,-2.8395063E-1,1.9052435E-3,-3.2098764E-1,-3.5872895E-3,1.3700432E-1,-6.5810024E-3,4.8601166E-3,-6.7589855E-1,1.4602184E-2,4.612894E-3,-3.8925882E-3,4.879825E-3,-0E0,-4.7195167E-3,2.1514143E-3,-2.1533975E-3],"split_indices":[1,15,14,0,9,0,9,1,15,15,1,0,0,8,11,0,13,14,0,11,0,9,0,9,0,0,0,0,15,0,0,0,0,0,0,0,0],"split_type":[0,0,0,0,0,0,0,0,0,0,0,0,0,0,0,0,0,0,0,0,0,0,0,0,0,0,0,0,0,0,0,0,0,0,0,0,0],"sum_hessian":[1.03E2,3.6E1,6.7E1,2E0,3.4E1,2E0,6.5E1,1.1E1,2.3E1,2.4E1,4.1E1,8E0,3E0,1.4E1,9E0,2E0,2.2E1,3.5E1,6E0,1.1E1,3E0,7E0,2E0,6E0,1.6E1,7E0,2.8E1,2E0,9E0,4E0,3E0,2E0,4E0,4E0,3E0,3E0,6E0],"tree_param":{"num_deleted":"0","num_feature":"16","num_nodes":"37","size_leaf_vector":"1"}},{"base_weights":[-3.4892563E-2,4.5240507E-1,-2.1601781E-1,-6.5194536E-3,5.317142E-1,-5.363401E-2,-3.3900923E-1,6.856909E-1,1.7067893E-1,-1.3904256E-1,2.1814804E-1,-2.7733728E-1,-1.2717452E-2,7.701808E-1,3.8710642E-3,6.3427114E-3,-0E0,-1.1808951E-3,-4.382392E-3,5.8609038E-3,-0E0,-3.21599E-1,-2.401939E-3,9.161385E-3,1.8690117E-2,-6.8333265E-3,-2.767628E-4],"categories":[],"categories_nodes":[],"categories_segments":[],"categories_sizes":[],"default_left":[0,0,0,0,0,0,0,0,0,0,0,0,0,0,0,0,0,0,0,0,0,0,0,0,0,0,0],"id":29,"left_children":[1,3,5,-1,7,9,11,13,15,17,19,21,-1,23,-1,-1,-1,-1,-1,-1,-1,25,-1,-1,-1,-1,-1],"loss_changes":[8.8120165E0,1.8606749E0,1.400496E0,0E0,1.1871057E0,7.8843415E-1,4.8296165E-1,4.6142673E-1,2.4069321E-1,1.2580138E-1,1.345444E-1,1.6775727E-1,0E0,1.5070248E-1,0E0,0E0,0E0,0E0,0E0,0E0,0E0,1.26472E-1,0E0,0E0,0E0,0E0,0E0],"parents":[2147483647,0,0,1,1,2,2,4,4,5,5,6,6,7,7,8,8,9,9,10,10,11,11,13,13,21,21],"right_children":[2,4,6,-1,8,10,12,14,16,18,20,22,-1,24,-1,-1,-1,-1,-1,-1,-1,26,-1,-1,-1,-1,-1],"split_conditions":[-3.5439768E-1,-1.4836497E0,3.0864197E-1,-6.5194536E-3,-2.8395063E-1,6.187892E-1,2.7654321E0,2.3812916E0,-7.433864E-1,-1.8976842E-1,1.5478395E0,5.942779E-1,-1.2717452E-2,-1.2910028E-1,3.8710642E-3,6.3427114E-3,-0E0,-1.1808951E-3,-4.382392E-3,5.8609038E-3,-0E0,1.1706281E0,-2.401939E-3,9.161385E-3,1.8690117E-2,-6.8333265E-3,-2.767628E-4],"split_indices":[0,15,9,0,9,8,9,13,8,3,13,8,0,14,0,0,0,0,0,0,0,14,0,0,0,0,0],"split_type":[0,0,0,0,0,0,0,0,0,0,0,0,0,0,0,0,0,0,0,0,0,0,0,0,0,0,0],"sum_hessian":[9.8E1,2.6E1,7.2E1,2E0,2.4E1,3.2E1,4E1,1.6E1,8E0,2.5E1,7E0,3.5E1,5E0,1.3E1,3E0,4E0,4E0,1.4E1,1.1E1,5E0,2E0,2.6E1,9E0,6E0,7E0,2.4E1,2E0],"tree_param":{"num_deleted":"0","num_feature":"16","num_nodes":"27","size_leaf_vector":"1"}},{"base_weights":[2.8839614E-2,1.9647442E-1,-1.9171906E-1,3.7704113E-1,-4.573263E-2,1.4054471E-2,-2.5492904E-1,2.4589713E-1,6.440826E-1,6.938096E-3,-1.418019E-1,-1.6266757E-1,-4.8267233E-1,3.1722015E-1,-6.5154145E-3,1.7937262E-2,6.188368E-3,-1.0589336E-2,-1.3559157E-2,8.420754E-3,-2.268905E-1,-1.1789957E-2,-4.3316423E-3,4.168611E-1,-2.5983725E-5,-1.0056254E-1,5.3868494E-3,-9.968701E-4,3.4979424E-3,-2.1876372E-2,-5.841585E-3,5.662327E-1,6.3948793E-4,2.1384941E-2,-4.1439254E-3,1.1968298E-3,-3.6822804E-3,1.2934954E-2,4.370312E-3,-3.4370702E-3,4.685543E-3],"categories":[],"categories_nodes":[],"categories_segments":[],"categories_sizes":[],"default_left":[0,0,0,0,0,0,0,0,0,0,0,0,0,0,0,0,0,0,0,0,0,0,0,0,0,0,0,0,0,0,0,0,0,0,0,0,0,0,0,0,0],"id":30,"left_children":[1,3,5,7,9,-1,11,13,15,-1,17,19,21,23,-1,-1,-1,-1,25,27,29,-1,-1,31,-1,33,-1,-1,-1,35,-1,37,-1,39,-1,-1,-1,-1,-1,-1,-1],"loss_changes":[3.698501E0,2.5432417E0,2.5654857E0,9.083133E-1,9.7169113E-1,0E0,7.1844006E-1,1.0810399E0,4.4783163E-1,0E0,9.825377E-1,3.643791E-1,1.0439491E-1,7.40324E-1,0E0,0E0,0E0,0E0,4.2863557E-1,1.08519465E-1,2.6960075E-1,0E0,0E0,8.9942384E-1,0E0,2.0506404E-1,0E0,0E0,0E0,1.1624893E-1,0E0,1.0810685E-1,0E0,3.3447647E-1,0E0,0E0,0E0,0E0,0E0,0E0,0E0],"parents":[2147483647,0,0,1,1,2,2,3,3,4,4,6,6,7,7,8,8,10,10,11,11,12,12,13,13,18,18,19,19,20,20,23,23,25,25,29,29,31,31,33,33],"right_children":[2,4,6,8,10,-1,12,14,16,-1,18,20,22,24,-1,-1,-1,-1,26,28,30,-1,-1,32,-1,34,-1,-1,-1,36,-1,38,-1,40,-1,-1,-1,-1,-1,-1,-1],"split_conditions":[0E0,2.8178275E-1,-1.7205244E0,4.1309137E-2,-5.312753E-1,1.4054471E-2,2.8846154E0,1.1623301E-2,9.104012E-1,6.938096E-3,-5.143934E-1,-3.8617286E-1,9.4192994E-1,-1.4371258E-1,-6.5154145E-3,1.7937262E-2,6.188368E-3,-1.0589336E-2,1.13962E0,-4.1622913E-1,-2.0618261E-1,-1.1789957E-2,-4.3316423E-3,2.3812916E0,-2.5983725E-5,-1.9058281E-1,5.3868494E-3,-9.968701E-4,3.4979424E-3,1.8443114E0,-5.841585E-3,-2.035928E-1,6.3948793E-4,4.6472064E-1,-4.1439254E-3,1.1968298E-3,-3.6822804E-3,1.2934954E-2,4.370312E-3,-3.4370702E-3,4.685543E-3],"split_indices":[2,3,14,15,11,0,12,15,8,0,8,14,15,2,0,0,0,0,3,14,13,0,0,13,0,8,0,0,0,2,0,2,0,3,0,0,0,0,0,0,0],"split_type":[0,0,0,0,0,0,0,0,0,0,0,0,0,0,0,0,0,0,0,0,0,0,0,0,0,0,0,0,0,0,0,0,0,0,0,0,0,0,0,0,0],"sum_hessian":[9.8E1,5.6E1,4.2E1,3.2E1,2.4E1,2E0,4E1,2.3E1,9E0,4E0,2E1,3E1,1E1,2.1E1,2E0,4E0,5E0,4E0,1.6E1,8E0,2.2E1,6E0,4E0,1.6E1,5E0,1.3E1,3E0,6E0,2E0,6E0,1.6E1,1.1E1,5E0,6E0,7E0,4E0,2E0,8E0,3E0,3E0,3E0],"tree_param":{"num_deleted":"0","num_feature":"16","num_nodes":"41","size_leaf_vector":"1"}},{"base_weights":[-0E0,2.8044918E-1,-2.0203105E-1,-4.1574226E-3,3.3995318E-1,-6.98801E-2,-3.9574423E-1,5.2880764E-1,1.7402232E-1,-1.5381014E-1,1.742574E-2,-6.099137E-3,-1.1709645E-2,1.4599423E-2,6.099921E-3,8.012844E-3,7.791986E-2,-1.7750531E-1,8.6559966E-4,-2.1462352E-3,3.956036E-3,-0E0,-2.163054E-1,-4.8731333E-3,-0E0],"categories":[],"categories_nodes":[],"categories_segments":[],"categories_sizes":[],"default_left":[0,0,0,0,0,0,0,0,0,0,0,0,0,0,0,0,0,0,0,0,0,0,0,0,0],"id":31,"left_children":[1,3,5,-1,7,9,11,13,15,17,-1,-1,-1,-1,-1,-1,19,21,-1,-1,-1,-1,23,-1,-1],"loss_changes":[5.6707325E0,1.3042691E0,1.410547E0,0E0,1.028491E0,2.9059844E0,1.2860322E-1,4.3925095E-1,4.000579E-1,1.7988771E-1,0E0,0E0,0E0,0E0,0E0,0E0,4.077763E-1,1.9294858E-1,0E0,0E0,0E0,0E0,1.3640785E-1,0E0,0E0],"parents":[2147483647,0,0,1,1,2,2,4,4,5,5,6,6,7,7,8,8,9,9,16,16,17,17,22,22],"right_children":[2,4,6,-1,8,10,12,14,16,18,-1,-1,-1,-1,-1,-1,20,22,-1,-1,-1,-1,24,-1,-1],"split_conditions":[-1.662004E-1,-6.594348E-1,5.316586E-1,-4.1574226E-3,-3.3333334E-1,2.6923077E0,1.9767057E0,-5.653154E-1,-3.0769232E-1,7.964717E-1,1.742574E-2,-6.099137E-3,-1.1709645E-2,1.4599423E-2,6.099921E-3,8.012844E-3,-1.9161677E-1,-4.0622324E-2,8.6559966E-4,-2.1462352E-3,3.956036E-3,-0E0,8.8461536E-1,-4.8731333E-3,-0E0],"split_indices":[1,1,1,0,9,12,1,1,12,3,0,0,0,0,0,0,2,1,0,0,0,0,12,0,0],"split_type":[0,0,0,0,0,0,0,0,0,0,0,0,0,0,0,0,0,0,0,0,0,0,0,0,0],"sum_hessian":[9.8E1,4.1E1,5.7E1,4E0,3.7E1,3.5E1,2.2E1,1.6E1,2.1E1,3.3E1,2E0,1.7E1,5E0,7E0,9E0,5E0,1.6E1,3E1,3E0,6E0,1E1,6E0,2.4E1,2.1E1,3E0],"tree_param":{"num_deleted":"0","num_feature":"16","num_nodes":"25","size_leaf_vector":"1"}},{"base_weights":[3.2767773E-2,4.2016503E-1,-2.2857824E-1,-6.142089E-3,4.6670613E-1,-9.257854E-2,-4.3588698E-1,8.0376035E-1,2.8997713E-1,-1.6998844E-1,1.7193396E-2,-6.5714144E-3,-1.1938963E-2,1.9130269E-2,3.9187507E-3,2.0496443E-2,4.1128397E-1,-2.1384294E-1,6.4289925E-5,3.4011966E-3,-1.072214E-3,4.567107E-1,2.0351214E-3,-1.4169657E-1,-7.106586E-3,1.3830551E-3,9.999875E-3,-5.678762E-3,-1.2871971E-3],"categories":[],"categories_nodes":[],"categories_segments":[],"categories_sizes":[],"default_left":[0,0,0,0,0,0,0,0,0,0,0,0,0,0,0,0,0,0,0,0,0,0,0,0,0,0,0,0,0],"id":32,"left_children":[1,3,5,-1,7,9,11,13,15,17,-1,-1,-1,-1,-1,19,21,23,-1,-1,-1,25,-1,27,-1,-1,-1,-1,-1],"loss_changes":[1.0543406E1,1.5809002E0,1.6548228E0,0E0,2.040245E0,2.9519904E0,1.261363E-1,9.0434647E-1,8.637078E-1,3.027922E-1,0E0,0E0,0E0,0E0,0E0,1.315991E-1,1.6483617E-1,2.061801E-1,0E0,0E0,0E0,1.7690444E-1,0E0,1.8890688E-1,0E0,0E0,0E0,0E0,0E0],"parents":[2147483647,0,0,1,1,2,2,4,4,5,5,6,6,7,7,8,8,9,9,15,15,16,16,17,17,21,21,23,23],"right_children":[2,4,6,-1,8,10,12,14,16,18,-1,-1,-1,-1,-1,20,22,24,-1,-1,-1,26,-1,28,-1,-1,-1,-1,-1],"split_conditions":[-2.5555238E-1,-1.3242344E0,5.316586E-1,-6.142089E-3,-3.8271606E-1,2.6923077E0,1.9767057E0,-5.261205E-1,-3.2364273E-1,6.5384614E-1,1.7193396E-2,-6.5714144E-3,-1.1938963E-2,1.9130269E-2,3.9187507E-3,-5.188639E-1,1.5478395E0,2.2994576E-1,6.4289925E-5,3.4011966E-3,-1.072214E-3,-9.510725E-1,2.0351214E-3,-2.3076923E-1,-7.106586E-3,1.3830551E-3,9.999875E-3,-5.678762E-3,-1.2871971E-3],"split_indices":[1,15,1,0,9,12,1,1,15,12,0,0,0,0,0,0,13,1,0,0,0,3,0,12,0,0,0,0,0],"split_type":[0,0,0,0,0,0,0,0,0,0,0,0,0,0,0,0,0,0,0,0,0,0,0,0,0,0,0,0,0],"sum_hessian":[1.02E2,4.1E1,6.1E1,2E0,3.9E1,3.8E1,2.3E1,1.2E1,2.7E1,3.6E1,2E0,1.6E1,7E0,9E0,3E0,9E0,1.8E1,2.9E1,7E0,3E0,6E0,1.5E1,3E0,2.1E1,8E0,2E0,1.3E1,6E0,1.5E1],"tree_param":{"num_deleted":"0","num_feature":"16","num_nodes":"29","size_leaf_vector":"1"}},{"base_weights":[1.598302E-2,4.22701E-1,-1.893324E-1,-6.060194E-3,4.866469E-1,-2.5497666E-1,1.2313947E-1,7.198559E-1,2.7380195E-1,-1.0218195E-1,-3.8330597E-1,1.8638551E-2,-1.4902762E-1,1.6657036E-2,6.450503E-4,8.0283016E-2,1.1970789E-2,-2.897057E-3,8.083603E-4,-0E0,-4.1655606E-1,-5.3815437E-3,8.660729E-4,-2.446433E-3,4.1875113E-3,-9.866098E-3,-4.8420466E-3],"categories":[],"categories_nodes":[],"categories_segments":[],"categories_sizes":[],"default_left":[0,0,0,0,0,0,0,0,0,0,0,0,0,0,0,0,0,0,0,0,0,0,0,0,0,0,0],"id":33,"left_children":[1,3,5,-1,7,9,11,13,15,17,19,-1,21,-1,-1,23,-1,-1,-1,-1,25,-1,-1,-1,-1,-1,-1],"loss_changes":[7.702365E0,1.6044154E0,1.2958128E0,0E0,1.1430197E0,9.122944E-1,2.6385534E0,8.9668036E-1,9.523938E-1,1.6841984E-1,3.7104034E-1,0E0,2.4203296E-1,0E0,0E0,3.481736E-1,0E0,0E0,0E0,0E0,1.4175701E-1,0E0,0E0,0E0,0E0,0E0,0E0],"parents":[2147483647,0,0,1,1,2,2,4,4,5,5,6,6,7,7,8,8,9,9,10,10,12,12,15,15,20,20],"right_children":[2,4,6,-1,8,10,12,14,16,18,20,-1,22,-1,-1,24,-1,-1,-1,-1,26,-1,-1,-1,-1,-1,-1],"split_conditions":[-3.5439768E-1,-1.3242344E0,8.99599E-1,-6.060194E-3,-4.2357105E-1,3.5388085E-1,1.0786369E0,-7.838977E-2,-1.3460454E-1,6.187892E-1,-2.4299066E-1,1.8638551E-2,-4.7310883E-1,1.6657036E-2,6.450503E-4,-2.990654E-1,1.1970789E-2,-2.897057E-3,8.083603E-4,-0E0,4.3352726E-1,-5.3815437E-3,8.660729E-4,-2.446433E-3,4.1875113E-3,-9.866098E-3,-4.8420466E-3],"split_indices":[0,15,13,0,11,0,13,13,15,8,7,0,15,0,0,7,0,0,0,0,11,0,0,0,0,0,0],"split_type":[0,0,0,0,0,0,0,0,0,0,0,0,0,0,0,0,0,0,0,0,0,0,0,0,0,0,0],"sum_hessian":[9E1,3E1,6E1,2E0,2.8E1,5E1,1E1,1.2E1,1.6E1,2.4E1,2.6E1,2E0,8E0,1E1,2E0,1.1E1,5E0,1.9E1,5E0,2E0,2.4E1,5E0,3E0,4E0,7E0,1.5E1,9E0],"tree_param":{"num_deleted":"0","num_feature":"16","num_nodes":"27","size_leaf_vector":"1"}},{"base_weights":[3.4803934E-2,4.1615385E-1,-2.101767E-1,7.718172E-1,2.1261898E-1,1.3530911E-2,-2.5267655E-1,1.7180135E-2,2.649061E-3,1.4071225E-1,8.483476E-3,-1.1545487E-1,-3.7409505E-1,1.140801E-2,2.2166073E-1,-1.4900371E-1,2.297271E-3,-3.0159476E-1,-1.1305937E-2,-2.7024932E-3,2.965678E-3,5.623552E-3,-0E0,-4.83322E-3,-3.8560446E-2,-3.235614E-1,-0E0,-1.9041253E-3,3.3508595E-3,-4.5148464E-4,-6.9277994E-3],"categories":[],"categories_nodes":[],"categories_segments":[],"categories_sizes":[],"default_left":[0,0,0,0,0,0,0,0,0,0,0,0,0,0,0,0,0,0,0,0,0,0,0,0,0,0,0,0,0,0,0],"id":34,"left_children":[1,3,5,7,9,-1,11,-1,-1,13,-1,15,17,19,21,23,-1,25,-1,-1,-1,-1,-1,-1,27,29,-1,-1,-1,-1,-1],"loss_changes":[9.543821E0,2.633049E0,2.4650645E0,5.6751823E-1,2.9455483E-1,0E0,9.0752864E-1,0E0,0E0,2.0443794E-1,0E0,2.523366E-1,1.7254782E-1,2.2192065E-1,1.5187329E-1,2.3896044E-1,0E0,1.3393068E-1,0E0,0E0,0E0,0E0,0E0,0E0,1.7216603E-1,1.13319635E-1,0E0,0E0,0E0,0E0,0E0],"parents":[2147483647,0,0,1,1,2,2,3,3,4,4,6,6,9,9,11,11,12,12,13,13,14,14,15,15,17,17,24,24,25,25],"right_children":[2,4,6,8,10,-1,12,-1,-1,14,-1,16,18,20,22,24,-1,26,-1,-1,-1,-1,-1,-1,28,30,-1,-1,-1,-1,-1],"split_conditions":[-1.662004E-1,-3.8271606E-1,-1.7205244E0,-5.261205E-1,2.5130153E-1,1.3530911E-2,2.9179195E-1,1.7180135E-2,2.649061E-3,-2.4691358E-1,8.483476E-3,1.2139006E0,1.9767057E0,-4.068315E-1,1.1319659E-1,-3.0609848E-2,2.297271E-3,1.2575599E0,-1.1305937E-2,-2.7024932E-3,2.965678E-3,5.623552E-3,-0E0,-4.83322E-3,4.9193907E-1,1.1070511E-1,-0E0,-1.9041253E-3,3.3508595E-3,-4.5148464E-4,-6.9277994E-3],"split_indices":[1,9,14,1,14,0,0,0,0,9,0,3,1,8,14,0,0,14,0,0,0,0,0,0,3,1,0,0,0,0,0],"split_type":[0,0,0,0,0,0,0,0,0,0,0,0,0,0,0,0,0,0,0,0,0,0,0,0,0,0,0,0,0,0,0],"sum_hessian":[1E2,3.9E1,6.1E1,1.3E1,2.6E1,2E0,5.9E1,1.1E1,2E0,2.1E1,5E0,2.9E1,3E1,9E0,1.2E1,2.6E1,3E0,2.4E1,6E0,4E0,5E0,9E0,3E0,1.3E1,1.3E1,2.2E1,2E0,1.1E1,2E0,2E0,2E1],"tree_param":{"num_deleted":"0","num_feature":"16","num_nodes":"31","size_leaf_vector":"1"}},{"base_weights":[1.6010402E-2,3.7255388E-1,-1.8429694E-1,-5.4406226E-3,4.568502E-1,1.0480316E-2,-2.1475427E-1,6.2861156E-1,2.0734537E-1,-6.710102E-2,-6.7451685E-3,6.9342995E-1,-0E0,1.20850295E-1,1.0170811E-2,-1.00008525E-1,5.0201546E-3,7.3894614E-1,3.7240037E-3,4.7707348E-4,4.5907367E-3,-1.821275E-1,-2.1042871E-4,1.6155345E-2,6.110818E-3,6.915654E-4,-4.516381E-3],"categories":[],"categories_nodes":[],"categories_segments":[],"categories_sizes":[],"default_left":[0,0,0,0,0,0,0,0,0,0,0,0,0,0,0,0,0,0,0,0,0,0,0,0,0,0,0],"id":35,"left_children":[1,3,5,-1,7,-1,9,11,13,15,-1,17,-1,19,-1,21,-1,23,-1,-1,-1,25,-1,-1,-1,-1,-1],"loss_changes":[7.7292423E0,2.261869E0,1.5701675E0,0E0,1.2860003E0,0E0,1.148839E0,7.521601E-1,2.924341E-1,3.449843E-1,0E0,1.8546295E-1,0E0,1.1677684E-1,0E0,1.9927654E-1,0E0,1.1910248E-1,0E0,0E0,0E0,1.689556E-1,0E0,0E0,0E0,0E0,0E0],"parents":[2147483647,0,0,1,1,2,2,4,4,6,6,7,7,8,8,9,9,11,11,13,13,15,15,17,17,21,21],"right_children":[2,4,6,-1,8,-1,10,12,14,16,-1,18,-1,20,-1,22,-1,24,-1,-1,-1,26,-1,-1,-1,-1,-1],"split_conditions":[-3.1658578E-1,-5.66106E-1,-1.6823477E0,-5.4406226E-3,-4.6491578E-1,1.0480316E-2,2.2891808E-1,2.3812916E0,2.0152391E-1,1.6970254E0,-6.7451685E-3,-3.846154E-2,-0E0,5.82742E-1,1.0170811E-2,3.5928145E-2,5.0201546E-3,-1.7964073E-1,3.7240037E-3,4.7707348E-4,4.5907367E-3,-2.035928E-1,-2.1042871E-4,1.6155345E-2,6.110818E-3,6.915654E-4,-4.516381E-3],"split_indices":[1,0,14,0,1,0,1,13,14,3,0,12,0,13,0,2,0,2,0,0,0,2,0,0,0,0,0],"split_type":[0,0,0,0,0,0,0,0,0,0,0,0,0,0,0,0,0,0,0,0,0,0,0,0,0,0,0],"sum_hessian":[1.06E2,3.8E1,6.8E1,4E0,3.4E1,2E0,6.6E1,1.9E1,1.5E1,3.1E1,3.5E1,1.7E1,2E0,1.3E1,2E0,2.9E1,2E0,1.5E1,2E0,8E0,5E0,1.4E1,1.5E1,1.2E1,3E0,2E0,1.2E1],"tree_param":{"num_deleted":"0","num_feature":"16","num_nodes":"27","size_leaf_vector":"1"}},{"base_weights":[-2.7487779E-2,2.3322994E-1,-1.9156936E-1,-4.659373E-3,2.942789E-1,1.3210762E-2,-2.3132344E-1,5.6201947E-1,1.805128E-1,-1.5674193E-1,-9.853778E-3,1.3376095E-2,1.1317127E-3,1.0071221E-1,8.527257E-3,-1.8947491E-1,5.2581046E-4,4.3192366E-3,-1.1546986E-1,-8.5897826E-2,-5.9858733E-3,-4.0910244E-3,1.3569897E-3,-2.6611674E-3,1.221871E-3],"categories":[],"categories_nodes":[],"categories_segments":[],"categories_sizes":[],"default_left":[0,0,0,0,0,0,0,0,0,0,0,0,0,0,0,0,0,0,0,0,0,0,0,0,0],"id":36,"left_children":[1,3,5,-1,7,-1,9,11,13,15,-1,-1,-1,17,-1,19,-1,-1,21,23,-1,-1,-1,-1,-1],"loss_changes":[4.446748E0,1.2131264E0,2.2778606E0,0E0,9.2084813E-1,0E0,1.0663998E0,4.2934513E-1,4.3406504E-1,3.2085955E-1,0E0,0E0,0E0,5.8311415E-1,0E0,4.2488468E-1,0E0,0E0,1.5819158E-1,1.8169816E-1,0E0,0E0,0E0,0E0,0E0],"parents":[2147483647,0,0,1,1,2,2,4,4,6,6,7,7,8,8,9,9,13,13,15,15,18,18,19,19],"right_children":[2,4,6,-1,8,-1,10,12,14,16,-1,-1,-1,18,-1,20,-1,-1,22,24,-1,-1,-1,-1,-1],"split_conditions":[-1.662004E-1,-6.594348E-1,-1.7205244E0,-4.659373E-3,-5.653154E-1,1.3210762E-2,1.4257493E0,-3.3333334E-1,2.5192434E-1,1.4615384E0,-9.853778E-3,1.3376095E-2,1.1317127E-3,-6.167375E-2,8.527257E-3,2.0336854E-1,5.2581046E-4,4.3192366E-3,-1.9161677E-1,9.0582186E-1,-5.9858733E-3,-4.0910244E-3,1.3569897E-3,-2.6611674E-3,1.221871E-3],"split_indices":[1,1,14,0,1,0,1,9,14,12,0,0,0,14,0,1,0,0,2,14,0,0,0,0,0],"split_type":[0,0,0,0,0,0,0,0,0,0,0,0,0,0,0,0,0,0,0,0,0,0,0,0,0],"sum_hessian":[1.02E2,3.9E1,6.3E1,4E0,3.5E1,2E0,6.1E1,9E0,2.6E1,4.9E1,1.2E1,7E0,2E0,2.1E1,5E0,4.2E1,7E0,1.4E1,7E0,2.3E1,1.9E1,5E0,2E0,1.8E1,5E0],"tree_param":{"num_deleted":"0","num_feature":"16","num_nodes":"25","size_leaf_vector":"1"}},{"base_weights":[2.032454E-2,4.0429324E-1,-1.9625957E-1,3.354092E-1,1.7619109E-2,1.3034618E-2,-2.3391667E-1,1.8955442E-1,4.72811E-1,-2.6781198E-1,4.127784E-3,-8.28292E-3,2.908219E-1,2.338872E-3,5.335724E-1,-2.1827157E-1,-1.1124663E-2,8.713072E-3,1.0256553E-1,1.4340672E-2,5.876944E-3,-1.17002994E-1,-2.980892E-1,-1.5726568E-3,3.5971093E-3,-1.3819484E-4,-3.379977E-3,-6.553674E-3,6.858207E-4],"categories":[],"categories_nodes":[],"categories_segments":[],"categories_sizes":[],"default_left":[0,0,0,0,0,0,0,0,0,0,0,0,0,0,0,0,0,0,0,0,0,0,0,0,0,0,0,0,0],"id":37,"left_children":[1,3,5,7,-1,-1,9,11,13,15,-1,-1,17,-1,19,21,-1,-1,23,-1,-1,25,27,-1,-1,-1,-1,-1,-1],"loss_changes":[8.748948E0,8.305912E-1,2.2501714E0,5.455649E-1,0E0,0E0,1.0314951E0,1.2696795E0,2.4014091E-1,6.727381E-1,0E0,0E0,3.6500835E-1,0E0,3.0393767E-1,3.6009645E-1,0E0,0E0,1.503081E-1,0E0,0E0,1.3007557E-1,3.258381E-1,0E0,0E0,0E0,0E0,0E0,0E0],"parents":[2147483647,0,0,1,1,2,2,3,3,6,6,7,7,8,8,9,9,12,12,14,14,15,15,18,18,21,21,22,22],"right_children":[2,4,6,8,-1,-1,10,12,14,16,-1,-1,18,-1,20,22,-1,-1,24,-1,-1,26,28,-1,-1,-1,-1,-1,-1],"split_conditions":[-3.1658578E-1,1.1739593E0,-1.7205244E0,-1.0261774E-1,1.7619109E-2,1.3034618E-2,1.4093966E0,-1.9713198E-1,-5.168671E-1,1.7248073E0,4.127784E-3,-8.28292E-3,-2.0766962E-1,2.338872E-3,-1.9161677E-1,-2.4546394E-1,-1.1124663E-2,8.713072E-3,-5.555809E-1,1.4340672E-2,5.876944E-3,7.522124E-2,6.467066E-1,-1.5726568E-3,3.5971093E-3,-1.3819484E-4,-3.379977E-3,-6.553674E-3,6.858207E-4],"split_indices":[1,14,14,8,0,0,3,3,0,1,0,0,13,0,2,3,0,0,1,0,0,1,2,0,0,0,0,0,0],"split_type":[0,0,0,0,0,0,0,0,0,0,0,0,0,0,0,0,0,0,0,0,0,0,0,0,0,0,0,0,0],"sum_hessian":[1.03E2,3.7E1,6.6E1,3.4E1,3E0,2E0,6.4E1,1.8E1,1.6E1,6E1,4E0,2E0,1.6E1,3E0,1.3E1,5.3E1,7E0,8E0,8E0,6E0,7E0,2.5E1,2.8E1,2E0,6E0,9E0,1.6E1,2.6E1,2E0],"tree_param":{"num_deleted":"0","num_feature":"16","num_nodes":"29","size_leaf_vector":"1"}},{"base_weights":[6.373214E-3,2.9719475E-1,-2.0627375E-1,-5.350448E-3,3.663103E-1,-1.4076501E-1,-4.318678E-1,6.5498406E-1,2.040384E-1,2.1325208E-3,-1.6924572E-1,-1.0017414E-2,-2.8728878E-3,7.9477316E-1,2.3353046E-3,1.1130416E-1,1.1025227E-2,-1.6384232E-3,-5.1241335E-3,8.8843256E-1,4.935144E-3,4.049876E-3,-6.108943E-2,2.0644607E-2,5.427186E-3,1.993198E-3,-3.94942E-3],"categories":[],"categories_nodes":[],"categories_segments":[],"categories_sizes":[],"default_left":[0,0,0,0,0,0,0,0,0,0,0,0,0,0,0,0,0,0,0,0,0,0,0,0,0,0,0],"id":38,"left_children":[1,3,5,-1,7,9,11,13,15,-1,17,-1,-1,19,-1,21,-1,-1,-1,23,-1,-1,25,-1,-1,-1,-1],"loss_changes":[6.1309423E0,1.7471659E0,7.243128E-1,0E0,1.560514E0,3.4841824E-1,1.0226011E-1,7.94127E-1,7.095716E-1,0E0,2.641393E-1,0E0,0E0,1.8052197E-1,0E0,3.7236187E-1,0E0,0E0,0E0,2.9940653E-1,0E0,0E0,2.0484701E-1,0E0,0E0,0E0,0E0],"parents":[2147483647,0,0,1,1,2,2,4,4,5,5,6,6,7,7,8,8,10,10,13,13,15,15,19,19,22,22],"right_children":[2,4,6,-1,8,10,12,14,16,-1,18,-1,-1,20,-1,22,-1,-1,-1,24,-1,-1,26,-1,-1,-1,-1],"split_conditions":[-1.662004E-1,-5.66106E-1,1.3971528E0,-5.350448E-3,-5.245218E-1,-8.813082E-1,4.3352726E-1,-3.3333334E-1,2.5192434E-1,2.1325208E-3,2.2891808E-1,-1.0017414E-2,-2.8728878E-3,-1.8691589E-1,2.3353046E-3,-1.2910028E-1,1.1025227E-2,-1.6384232E-3,-5.1241335E-3,-1.9161677E-1,4.935144E-3,4.049876E-3,5.4525487E-2,2.0644607E-2,5.427186E-3,1.993198E-3,-3.94942E-3],"split_indices":[1,0,0,0,1,15,11,9,14,0,1,0,0,7,0,14,0,0,0,2,0,0,3,0,0,0,0],"split_type":[0,0,0,0,0,0,0,0,0,0,0,0,0,0,0,0,0,0,0,0,0,0,0,0,0,0,0],"sum_hessian":[9.7E1,4.1E1,5.6E1,4E0,3.7E1,4.5E1,1.1E1,1.2E1,2.5E1,4E0,4.1E1,8E0,3E0,9E0,3E0,2.1E1,4E0,2.2E1,1.9E1,7E0,2E0,1.4E1,7E0,5E0,2E0,3E0,4E0],"tree_param":{"num_deleted":"0","num_feature":"16","num_nodes":"27","size_leaf_vector":"1"}},{"base_weights":[-2.7123231E-2,1.9392115E-1,-2.4514379E-1,2.772623E-1,-1.02522925E-1,-2.5756666E-3,-3.3148253E-1,-5.2648406E-3,3.5153463E-1,-4.6976535E-3,-0E0,-9.684546E-3,-4.1453275E-3,5.560765E-1,8.04202E-2,3.194047E-3,-1.7297831E-3,1.8203383E-2,3.1494385E-1,6.483501E-3,-8.825021E-2,1.9997903E-3,8.485832E-3,-3.569796E-3,1.3346327E-3],"categories":[],"categories_nodes":[],"categories_segments":[],"categories_sizes":[],"default_left":[0,0,0,0,0,0,0,0,0,0,0,0,0,0,0,0,0,0,0,0,0,0,0,0,0],"id":39,"left_children":[1,3,5,7,9,-1,11,-1,13,-1,15,-1,-1,17,19,-1,-1,-1,21,-1,23,-1,-1,-1,-1],"loss_changes":[4.6791134E0,1.2317871E0,4.035585E-1,1.6268592E0,1.6022892E-1,0E0,3.4276748E-1,0E0,1.7770758E0,0E0,1.139164E-1,0E0,0E0,1.213119E0,7.100287E-1,0E0,0E0,0E0,2.1070921E-1,0E0,1.6294174E-1,0E0,0E0,0E0,0E0],"parents":[2147483647,0,0,1,1,2,2,3,3,4,4,6,6,8,8,10,10,13,13,14,14,18,18,20,20],"right_children":[2,4,6,8,10,-1,12,-1,14,-1,16,-1,-1,18,20,-1,-1,-1,22,-1,24,-1,-1,-1,-1],"split_conditions":[-2.4691358E-2,-2.5183236E-2,3.5388085E-1,-5.66106E-1,-5.143934E-1,-2.5756666E-3,-3.670504E-2,-5.2648406E-3,-2.8395063E-1,-4.6976535E-3,-3.2379946E-1,-9.684546E-3,-4.1453275E-3,-4.3719667E-1,-7.3298514E-1,3.194047E-3,-1.7297831E-3,1.8203383E-2,-2.1556886E-1,6.483501E-3,-1.9161677E-1,1.9997903E-3,8.485832E-3,-3.569796E-3,1.3346327E-3],"split_indices":[9,0,0,0,8,0,11,0,9,0,8,0,0,11,13,0,0,0,2,0,2,0,0,0,0],"split_type":[0,0,0,0,0,0,0,0,0,0,0,0,0,0,0,0,0,0,0,0,0,0,0,0,0],"sum_hessian":[9.5E1,4.7E1,4.8E1,3.7E1,1E1,2.2E1,2.6E1,4E0,3.3E1,4E0,6E0,1E1,1.6E1,1.8E1,1.5E1,2E0,4E0,6E0,1.2E1,6E0,9E0,5E0,7E0,6E0,3E0],"tree_param":{"num_deleted":"0","num_feature":"16","num_nodes":"25","size_leaf_vector":"1"}},{"base_weights":[-2.1758698E-2,2.3901868E-1,-2.0099153E-1,-4.904549E-3,2.9753694E-1,1.2973952E-2,-2.4112391E-1,6.9429374E-1,2.0132983E-1,-1.2202634E-1,-3.6488587E-1,1.7067771E-2,3.2874225E-3,9.112968E-3,9.772194E-2,-1.5168159E-1,2.1178913E-3,-0E0,-7.856019E-3,-7.784061E-2,1.9080082E-1,-9.658307E-2,-5.1680445E-3,-0E0,-4.0020924E-3,8.2020566E-2,6.4039645E-3,-2.5910488E-3,2.4414763E-3,1.3814563E-1,-1.6072291E-3,4.0679807E-3,-5.3655164E-4],"categories":[],"categories_nodes":[],"categories_segments":[],"categories_sizes":[],"default_left":[0,0,0,0,0,0,0,0,0,0,0,0,0,0,0,0,0,0,0,0,0,0,0,0,0,0,0,0,0,0,0,0,0],"id":40,"left_children":[1,3,5,-1,7,-1,9,11,13,15,17,-1,-1,-1,19,21,-1,-1,-1,23,25,27,-1,-1,-1,29,-1,-1,-1,31,-1,-1,-1],"loss_changes":[4.9519243E0,1.2966962E0,2.263963E0,0E0,1.2593176E0,0E0,8.059077E-1,3.481071E-1,7.696668E-1,2.436896E-1,3.047912E-1,0E0,0E0,0E0,4.3467724E-1,1.1594868E-1,0E0,0E0,0E0,1.0563502E-1,1.7280531E-1,1.7516042E-1,0E0,0E0,0E0,1.171307E-1,0E0,0E0,0E0,1.1999947E-1,0E0,0E0,0E0],"parents":[2147483647,0,0,1,1,2,2,4,4,6,6,7,7,8,8,9,9,10,10,14,14,15,15,19,19,20,20,21,21,25,25,29,29],"right_children":[2,4,6,-1,8,-1,10,12,14,16,18,-1,-1,-1,20,22,-1,-1,-1,24,26,28,-1,-1,-1,30,-1,-1,-1,32,-1,-1,-1],"split_conditions":[-1.662004E-1,-5.66106E-1,-1.7205244E0,-4.904549E-3,-3.5514018E-1,1.2973952E-2,3.5388085E-1,-2.8395063E-1,-3.7037036E-1,1.2139006E0,-1.0665144E-1,1.7067771E-2,3.2874225E-3,9.112968E-3,-2.990654E-1,7.1282196E-1,2.1178913E-3,-0E0,-7.856019E-3,-2.1556886E-1,3.153222E-1,1.0395117E0,-5.1680445E-3,-0E0,-4.0020924E-3,-9.307461E-2,6.4039645E-3,-2.5910488E-3,2.4414763E-3,-5.6074765E-2,-1.6072291E-3,4.0679807E-3,-5.3655164E-4],"split_indices":[1,0,14,0,7,0,0,9,9,3,1,0,0,0,7,3,0,0,0,2,8,14,0,0,0,0,0,0,0,7,0,0,0],"split_type":[0,0,0,0,0,0,0,0,0,0,0,0,0,0,0,0,0,0,0,0,0,0,0,0,0,0,0,0,0,0,0,0,0],"sum_hessian":[1.04E2,4.2E1,6.2E1,4E0,3.8E1,2E0,6E1,6E0,3.2E1,3.2E1,2.8E1,4E0,2E0,8E0,2.4E1,2.9E1,3E0,2E0,2.6E1,8E0,1.6E1,2.1E1,8E0,5E0,3E0,1E1,6E0,1.9E1,2E0,8E0,2E0,6E0,2E0],"tree_param":{"num_deleted":"0","num_feature":"16","num_nodes":"33","size_leaf_vector":"1"}},{"base_weights":[3.1627726E-2,3.4976557E-1,-1.5619831E-1,-9.431353E-3,4.6501398E-1,1.2800966E-2,-1.9381994E-1,-8.517832E-3,1.3542016E-1,7.351408E-1,2.5353977E-1,-2.2582318E-1,3.923631E-3,4.175434E-3,-4.617923E-4,1.6924007E-2,1.7312409E-3,1.0692653E-2,1.2789659E-1,-1.01921566E-1,-3.0147505E-1,-1.5602936E-4,4.8629064E-3,-4.376971E-3,-3.5019357E-2,-7.848501E-3,-4.1728253E-3,9.4755774E-4,-2.1487044E-3],"categories":[],"categories_nodes":[],"categories_segments":[],"categories_sizes":[],"default_left":[0,0,0,0,0,0,0,0,0,0,0,0,0,0,0,0,0,0,0,0,0,0,0,0,0,0,0,0,0],"id":41,"left_children":[1,3,5,7,9,-1,11,-1,13,15,17,19,-1,-1,-1,-1,-1,-1,21,23,25,-1,-1,-1,27,-1,-1,-1,-1],"loss_changes":[6.109201E0,1.6230245E0,1.9966217E0,6.899705E-1,1.3713655E0,0E0,8.211076E-1,0E0,1.16404146E-1,6.9784546E-1,5.010829E-1,4.7258997E-1,0E0,0E0,0E0,0E0,0E0,0E0,2.4437767E-1,1.5469347E-1,1.535306E-1,0E0,0E0,0E0,1.1253253E-1,0E0,0E0,0E0,0E0],"parents":[2147483647,0,0,1,1,2,2,3,3,4,4,6,6,8,8,9,9,10,10,11,11,18,18,19,19,20,20,24,24],"right_children":[2,4,6,8,10,-1,12,-1,14,16,18,20,-1,-1,-1,-1,-1,-1,22,24,26,-1,-1,-1,28,-1,-1,-1,-1],"split_conditions":[-2.5555238E-1,-2.631399E-1,-1.7205244E0,-3.9506173E-1,-3.8271606E-1,1.2800966E-2,1.4093966E0,-8.517832E-3,-4.064593E-1,-1.6168648E-1,-4.6306983E-1,2.2994576E-1,3.923631E-3,4.175434E-3,-4.617923E-4,1.6924007E-2,1.7312409E-3,1.0692653E-2,-1.0514274E-1,-9.962402E-2,-3.670504E-2,-1.5602936E-4,4.8629064E-3,-4.376971E-3,-2.1324579E-2,-7.848501E-3,-4.1728253E-3,9.4755774E-4,-2.1487044E-3],"split_indices":[1,14,14,9,9,0,3,0,14,11,11,1,0,0,0,0,0,0,11,11,11,0,0,0,1,0,0,0,0],"split_type":[0,0,0,0,0,0,0,0,0,0,0,0,0,0,0,0,0,0,0,0,0,0,0,0,0,0,0,0,0],"sum_hessian":[1E2,3.7E1,6.3E1,9E0,2.8E1,2E0,6.1E1,2E0,7E0,1.1E1,1.7E1,5.7E1,4E0,5E0,2E0,9E0,2E0,4E0,1.3E1,2.3E1,3.4E1,6E0,7E0,7E0,1.6E1,1.5E1,1.9E1,7E0,9E0],"tree_param":{"num_deleted":"0","num_feature":"16","num_nodes":"29","size_leaf_vector":"1"}},{"base_weights":[1.3987487E-2,2.366697E-1,-1.5546471E-1,-5.2711475E-3,2.9729703E-1,1.2630288E-2,-1.9815865E-1,1.735832E-1,4.5803675E-1,-1.1417606E-1,-6.211597E-3,6.6453884E-3,8.281419E-2,6.2633383E-1,4.928705E-3,2.0360623E-3,-1.5092501E-1,-3.23619E-2,3.5334725E-3,4.418565E-3,1.6107831E-2,-0E0,-1.7780377E-1,1.7693002E-3,-2.851021E-3,-2.6674217E-3,3.1225474E-3,-5.130477E-3,-1.5542838E-3],"categories":[],"categories_nodes":[],"categories_segments":[],"categories_sizes":[],"default_left":[0,0,0,0,0,0,0,0,0,0,0,0,0,0,0,0,0,0,0,0,0,0,0,0,0,0,0,0,0],"id":42,"left_children":[1,3,5,-1,7,-1,9,11,13,15,-1,-1,17,19,-1,-1,21,23,-1,-1,-1,25,27,-1,-1,-1,-1,-1,-1],"loss_changes":[3.7428455E0,1.3858082E0,1.9633614E0,0E0,6.328738E-1,0E0,4.3190074E-1,2.76666E-1,3.2816315E-1,2.821982E-1,0E0,0E0,2.0392485E-1,3.0016232E-1,0E0,0E0,1.2978208E-1,1.2452988E-1,0E0,0E0,0E0,1.2649082E-1,1.436171E-1,0E0,0E0,0E0,0E0,0E0,0E0],"parents":[2147483647,0,0,1,1,2,2,4,4,6,6,7,7,8,8,9,9,12,12,13,13,16,16,17,17,21,21,22,22],"right_children":[2,4,6,-1,8,-1,10,12,14,16,-1,-1,18,20,-1,-1,22,24,-1,-1,-1,26,28,-1,-1,-1,-1,-1,-1],"split_conditions":[-1.662004E-1,-6.594348E-1,-1.7205244E0,-5.2711475E-3,-1.3460454E-1,1.2630288E-2,5.316586E-1,-2.0766962E-1,-2.035928E-1,-8.813082E-1,-6.211597E-3,6.6453884E-3,-4.068315E-1,-8.2474476E-1,4.928705E-3,2.0360623E-3,-4.0622324E-2,6.0772162E-2,3.5334725E-3,4.418565E-3,1.6107831E-2,4.638612E-2,0E0,1.7693002E-3,-2.851021E-3,-2.6674217E-3,3.1225474E-3,-5.130477E-3,-1.5542838E-3],"split_indices":[1,1,14,0,15,0,1,13,2,15,0,0,8,14,0,0,1,3,0,0,0,14,13,0,0,0,0,0,0],"split_type":[0,0,0,0,0,0,0,0,0,0,0,0,0,0,0,0,0,0,0,0,0,0,0,0,0,0,0,0,0],"sum_hessian":[9.7E1,4.2E1,5.5E1,4E0,3.8E1,2E0,5.3E1,2.3E1,1.5E1,3.2E1,2.1E1,7E0,1.6E1,7E0,8E0,4E0,2.8E1,7E0,9E0,3E0,4E0,4E0,2.4E1,3E0,4E0,2E0,2E0,1.2E1,1.2E1],"tree_param":{"num_deleted":"0","num_feature":"16","num_nodes":"29","size_leaf_vector":"1"}},{"base_weights":[-8.600175E-3,2.3877575E-1,-1.6711505E-1,1.4053124E-1,1.20337475E-2,1.2461881E-2,-2.0487754E-1,1.982728E-1,-9.392837E-3,-1.5810232E-1,-8.352418E-3,1.1238398E-1,7.692501E-3,-1.833022E-1,9.796071E-4,1.839408E-1,-4.9699224E-3,-1.9462454E-3,-5.4409853E-3,9.761184E-3,4.3364033E-2,2.411405E-3,-2.3032494E-3],"categories":[],"categories_nodes":[],"categories_segments":[],"categories_sizes":[],"default_left":[0,0,0,0,0,0,0,0,0,0,0,0,0,0,0,0,0,0,0,0,0,0,0],"id":43,"left_children":[1,3,5,7,-1,-1,9,11,-1,13,-1,15,-1,17,-1,19,-1,-1,-1,-1,21,-1,-1],"loss_changes":[4.0324388E0,1.267385E0,1.9657735E0,1.2286476E0,0E0,0E0,4.8341894E-1,4.0324628E-1,0E0,2.9377007E-1,0E0,6.33192E-1,0E0,2.952639E-1,0E0,7.8073305E-1,0E0,0E0,0E0,0E0,1.9801445E-1,0E0,0E0],"parents":[2147483647,0,0,1,1,2,2,3,3,6,6,7,7,9,9,11,11,13,13,15,15,20,20],"right_children":[2,4,6,8,-1,-1,10,12,-1,14,-1,16,-1,18,-1,20,-1,-1,-1,-1,22,-1,-1],"split_conditions":[-1.662004E-1,2.784287E-1,-1.7205244E0,2.4148041E-1,1.20337475E-2,1.2461881E-2,1.5560663E0,1.0314103E0,-9.392837E-3,1.0864407E0,-8.352418E-3,2.3686724E-2,7.692501E-3,-2.4546394E-1,9.796071E-4,-4.6306983E-1,-4.9699224E-3,-1.9462454E-3,-5.4409853E-3,9.761184E-3,-6.167375E-2,2.411405E-3,-2.3032494E-3],"split_indices":[1,14,14,14,0,0,1,8,0,3,0,15,0,3,0,11,0,0,0,0,14,0,0],"split_type":[0,0,0,0,0,0,0,0,0,0,0,0,0,0,0,0,0,0,0,0,0,0,0],"sum_hessian":[1.01E2,3.9E1,6.2E1,3.2E1,7E0,2E0,6E1,3E1,2E0,5.1E1,9E0,2.2E1,8E0,4.6E1,5E0,1.9E1,3E0,2.5E1,2.1E1,5E0,1.4E1,1E1,4E0],"tree_param":{"num_deleted":"0","num_feature":"16","num_nodes":"23","size_leaf_vector":"1"}},{"base_weights":[-1.6917566E-2,2.2074851E-1,-1.6536295E-1,-9.439826E-3,2.9436547E-1,1.2295724E-2,-2.0265943E-1,6.608913E-1,1.9569726E-1,-1.4843248E-1,-9.08747E-3,1.624672E-2,3.0970615E-3,1.1930091E-1,9.2946505E-3,-1.7323837E-1,1.9878102E-3,4.718282E-3,5.5289444E-2,-1.8402522E-3,-2.605046E-1,2.9734748E-3,-2.4285378E-2,-6.804478E-3,-2.8152987E-3,2.017548E-3,-2.1324668E-3],"categories":[],"categories_nodes":[],"categories_segments":[],"categories_sizes":[],"default_left":[0,0,0,0,0,0,0,0,0,0,0,0,0,0,0,0,0,0,0,0,0,0,0,0,0,0,0],"id":44,"left_children":[1,3,5,-1,7,-1,9,11,13,15,-1,-1,-1,17,-1,19,-1,-1,21,-1,23,-1,25,-1,-1,-1,-1],"loss_changes":[3.5942888E0,2.110074E0,1.9164785E0,0E0,1.0869269E0,0E0,7.049067E-1,3.1394577E-1,5.0275314E-1,3.4427142E-1,0E0,0E0,0E0,1.444506E-1,0E0,2.810154E-1,0E0,0E0,1.4980814E-1,0E0,1.14011765E-1,0E0,1.1438697E-1,0E0,0E0,0E0,0E0],"parents":[2147483647,0,0,1,1,2,2,4,4,6,6,7,7,8,8,9,9,13,13,15,15,18,18,20,20,22,22],"right_children":[2,4,6,-1,8,-1,10,12,14,16,-1,-1,-1,18,-1,20,-1,-1,22,-1,24,-1,26,-1,-1,-1,-1],"split_conditions":[-1.662004E-1,-5.66106E-1,-1.7205244E0,-9.439826E-3,-3.5514018E-1,1.2295724E-2,1.5560663E0,-2.8395063E-1,2.361382E0,1.0864407E0,-9.08747E-3,1.624672E-2,3.0970615E-3,-9.47425E-2,9.2946505E-3,2.2994576E-1,1.9878102E-3,4.718282E-3,-2.1556886E-1,-1.8402522E-3,5.508982E-1,2.9734748E-3,-3.580247E-1,-6.804478E-3,-2.8152987E-3,2.017548E-3,-2.1324668E-3],"split_indices":[1,0,14,0,7,0,1,9,8,3,0,0,0,3,0,1,0,0,2,0,2,0,9,0,0,0,0],"split_type":[0,0,0,0,0,0,0,0,0,0,0,0,0,0,0,0,0,0,0,0,0,0,0,0,0,0,0],"sum_hessian":[1E2,3.8E1,6.2E1,3E0,3.5E1,2E0,6E1,6E0,2.9E1,5.1E1,9E0,4E0,2E0,2.4E1,5E0,4.7E1,4E0,7E0,1.7E1,2.6E1,2.1E1,8E0,9E0,1.1E1,1E1,3E0,6E0],"tree_param":{"num_deleted":"0","num_feature":"16","num_nodes":"27","size_leaf_vector":"1"}},{"base_weights":[-1.3388915E-2,1.9035324E-1,-1.9005518E-1,5.9295762E-2,3.5751104E-1,1.2131781E-2,-2.3187113E-1,-1.9597028E-1,1.3875517E-1,5.1001424E-1,8.6394034E-2,-1.8537016E-1,-1.0199356E-2,1.2660083E-4,-1.0022948E-2,3.0104318E-1,-2.6762428E-2,6.866635E-1,4.924402E-3,-1.1521735E-3,4.6623587E-3,-2.0283775E-1,2.3349111E-3,8.70011E-3,6.4948485E-3,-3.3602493E-3,1.6769305E-3,1.7823428E-2,5.709794E-3,-2.5387663E-1,-9.195286E-2,-2.96799E-3,3.8511513E-3,-5.4258774E-3,-0E0,-0E0,-3.940503E-3],"categories":[],"categories_nodes":[],"categories_segments":[],"categories_sizes":[],"default_left":[0,0,0,0,0,0,0,0,0,0,0,0,0,0,0,0,0,0,0,0,0,0,0,0,0,0,0,0,0,0,0,0,0,0,0,0,0],"id":45,"left_children":[1,3,5,7,9,-1,11,13,15,17,19,21,-1,-1,-1,23,25,27,-1,-1,-1,29,-1,-1,31,-1,-1,-1,-1,33,35,-1,-1,-1,-1,-1,-1],"loss_changes":[3.815556E0,1.0105772E0,2.0019877E0,6.096859E-1,7.645676E-1,0E0,5.4718065E-1,4.8481596E-1,6.532998E-1,3.4342885E-1,2.2113833E-1,2.9087424E-1,0E0,0E0,0E0,4.2652512E-1,2.0998605E-1,2.0221639E-1,0E0,0E0,0E0,2.080661E-1,0E0,0E0,1.7709158E-1,0E0,0E0,0E0,0E0,1.3635683E-1,1.6681077E-1,0E0,0E0,0E0,0E0,0E0,0E0],"parents":[2147483647,0,0,1,1,2,2,3,3,4,4,6,6,7,7,8,8,9,9,10,10,11,11,15,15,16,16,17,17,21,21,24,24,29,29,30,30],"right_children":[2,4,6,8,10,-1,12,14,16,18,20,22,-1,-1,-1,24,26,28,-1,-1,-1,30,-1,-1,32,-1,-1,-1,-1,34,36,-1,-1,-1,-1,-1,-1],"split_conditions":[-1.2345679E-2,8.185175E-2,-1.7205244E0,-1.9713198E-1,-3.3333334E-1,1.2131781E-2,2.7654321E0,-3.0028868E-1,-2.0766962E-1,-2.990654E-1,-1.682243E-1,1.0864407E0,-1.0199356E-2,1.2660083E-4,-1.0022948E-2,-3.6647245E-1,8.99599E-1,1.4190148E0,4.924402E-3,-1.1521735E-3,4.6623587E-3,3.043891E-1,2.3349111E-3,8.70011E-3,-7.303357E-1,-3.3602493E-3,1.6769305E-3,1.7823428E-2,5.709794E-3,1.2575599E0,6.296296E-1,-2.96799E-3,3.8511513E-3,-5.4258774E-3,-0E0,-0E0,-3.940503E-3],"split_indices":[9,8,14,3,9,0,9,3,13,7,7,3,0,0,0,0,13,8,0,0,0,8,0,0,8,0,0,0,0,14,9,0,0,0,0,0,0],"split_type":[0,0,0,0,0,0,0,0,0,0,0,0,0,0,0,0,0,0,0,0,0,0,0,0,0,0,0,0,0,0,0,0,0,0,0,0,0],"sum_hessian":[1.04E2,4.8E1,5.6E1,2.8E1,2E1,2E0,5.4E1,6E0,2.2E1,1.2E1,8E0,4.8E1,6E0,4E0,2E0,1.1E1,1.1E1,6E0,6E0,4E0,4E0,4.6E1,2E0,7E0,4E0,5E0,6E0,3E0,3E0,3E1,1.6E1,2E0,2E0,2.8E1,2E0,9E0,7E0],"tree_param":{"num_deleted":"0","num_feature":"16","num_nodes":"37","size_leaf_vector":"1"}},{"base_weights":[-0E0,2.8740442E-1,-1.6887747E-1,-1.7823598E-1,3.688556E-1,1.0327013E-2,-2.0144808E-1,-9.680182E-3,5.1108045E-3,7.0914316E-1,2.2171211E-1,-1.0089569E-1,-2.986557E-1,1.7225863E-2,5.5726473E-3,8.930505E-3,1.3378628E-1,-1.5926233E-1,6.687428E-4,-0E0,-6.660379E-3,-0E0,5.81807E-3,1.7536353E-4,-1.899053E-1,3.433897E-3,-1.9074297E-3,-5.2578184E-3,-1.6126119E-3],"categories":[],"categories_nodes":[],"categories_segments":[],"categories_sizes":[],"default_left":[0,0,0,0,0,0,0,0,0,0,0,0,0,0,0,0,0,0,0,0,0,0,0,0,0,0,0,0,0],"id":46,"left_children":[1,3,5,7,9,-1,11,-1,-1,13,15,17,19,-1,-1,-1,21,23,-1,-1,-1,25,-1,-1,27,-1,-1,-1,-1],"loss_changes":[4.852983E0,1.4881029E0,1.4785804E0,9.4235337E-1,1.3519645E0,0E0,5.261538E-1,0E0,0E0,2.3554325E-1,3.566352E-1,2.6880553E-1,3.1848717E-1,0E0,0E0,0E0,4.215471E-1,1.3820481E-1,0E0,0E0,0E0,1.9068226E-1,0E0,0E0,1.03960514E-1,0E0,0E0,0E0,0E0],"parents":[2147483647,0,0,1,1,2,2,3,3,4,4,6,6,9,9,10,10,11,11,12,12,16,16,17,17,21,21,24,24],"right_children":[2,4,6,8,10,-1,12,-1,-1,14,16,18,20,-1,-1,-1,22,24,-1,-1,-1,26,-1,-1,28,-1,-1,-1,-1],"split_conditions":[-3.1658578E-1,-6.581216E-1,-1.6823477E0,-4.074074E-1,-3.9506173E-1,1.0327013E-2,3.5388085E-1,-9.680182E-3,5.1108045E-3,-1.5384616E-1,-4.6306983E-1,6.5384614E-1,5.052812E-2,1.7225863E-2,5.5726473E-3,8.930505E-3,5.5189285E-2,-2.5555238E-1,6.687428E-4,-0E0,-6.660379E-3,-5.0817513E-1,5.81807E-3,1.7536353E-4,-7.838977E-2,3.433897E-3,-1.9074297E-3,-5.2578184E-3,-1.6126119E-3],"split_indices":[1,1,14,9,9,0,0,0,0,12,11,12,1,0,0,0,11,1,0,0,0,0,0,0,13,0,0,0,0],"split_type":[0,0,0,0,0,0,0,0,0,0,0,0,0,0,0,0,0,0,0,0,0,0,0,0,0,0,0,0,0],"sum_hessian":[9.8E1,3.6E1,6.2E1,5E0,3.1E1,2E0,6E1,3E0,2E0,8E0,2.3E1,3.1E1,2.9E1,5E0,3E0,5E0,1.8E1,2.2E1,9E0,3E0,2.6E1,1E1,8E0,3E0,1.9E1,3E0,7E0,1E1,9E0],"tree_param":{"num_deleted":"0","num_feature":"16","num_nodes":"29","size_leaf_vector":"1"}},{"base_weights":[3.444957E-2,2.4050407E-1,-1.5870468E-1,4.062729E-1,1.22572444E-1,8.317012E-3,-2.0349501E-1,-6.250303E-3,5.0905573E-1,3.6711812E-2,2.892086E-1,-5.8501225E-4,-2.6122275E-1,1.074051E-1,7.457966E-1,5.082265E-3,-7.2590564E-4,7.6679364E-3,-5.0059095E-4,-4.3315003E-3,-9.673064E-3,-9.5254155E-3,7.960177E-3,1.6784165E-2,3.672585E-3],"categories":[],"categories_nodes":[],"categories_segments":[],"categories_sizes":[],"default_left":[0,0,0,0,0,0,0,0,0,0,0,0,0,0,0,0,0,0,0,0,0,0,0,0,0],"id":47,"left_children":[1,3,5,7,9,-1,11,-1,13,15,17,-1,19,21,23,-1,-1,-1,-1,-1,-1,-1,-1,-1,-1],"loss_changes":[4.10598E0,8.747871E-1,1.4273176E0,1.6563234E0,4.0032262E-1,0E0,4.662485E-1,0E0,1.5461454E0,3.8018554E-1,3.4140837E-1,0E0,1.9267774E-1,1.5386811E0,3.2125664E-1,0E0,0E0,0E0,0E0,0E0,0E0,0E0,0E0,0E0,0E0],"parents":[2147483647,0,0,1,1,2,2,3,3,4,4,6,6,8,8,9,9,10,10,12,12,13,13,14,14],"right_children":[2,4,6,8,10,-1,12,-1,14,16,18,-1,20,22,24,-1,-1,-1,-1,-1,-1,-1,-1,-1,-1],"split_conditions":[-2.4691358E-2,-3.7037036E-1,-1.290993E0,-1.3242344E0,1.3357111E0,8.317012E-3,3.580247E-1,-6.250303E-3,-1.7832683E-1,-3.0769232E-1,4.9447772E-1,-5.8501225E-4,2.7654321E0,-2.3076923E-1,-1.6168648E-1,5.082265E-3,-7.2590564E-4,7.6679364E-3,-5.0059095E-4,-4.3315003E-3,-9.673064E-3,-9.5254155E-3,7.960177E-3,1.6784165E-2,3.672585E-3],"split_indices":[9,9,14,15,8,0,9,0,14,12,14,0,9,12,11,0,0,0,0,0,0,0,0,0,0],"split_type":[0,0,0,0,0,0,0,0,0,0,0,0,0,0,0,0,0,0,0,0,0,0,0,0,0],"sum_hessian":[1.01E2,4.9E1,5.2E1,1.9E1,3E1,3E0,4.9E1,2E0,1.7E1,2.1E1,9E0,1.3E1,3.6E1,7E0,1E1,5E0,1.6E1,7E0,2E0,3.2E1,4E0,2E0,5E0,8E0,2E0],"tree_param":{"num_deleted":"0","num_feature":"16","num_nodes":"25","size_leaf_vector":"1"}},{"base_weights":[-6.8609826E-3,2.6625115E-1,-1.5310436E-1,1.527494E-1,6.1772585E-1,1.1721436E-2,-1.8692349E-1,-5.0370074E-3,2.3484312E-1,3.6665935E-3,1.4306058E-2,-1.307949E-1,-8.727599E-3,5.215853E-1,1.0472989E-1,-3.7097766E-3,-1.6463564E-1,1.3810709E-2,6.561296E-4,3.0381952E-3,-0E0,1.3485958E-1,-3.1206976E-3,-1.8621252E-1,2.4551543E-4,-0E0,5.7652444E-3,-5.4390044E-3,-2.13902E-3],"categories":[],"categories_nodes":[],"categories_segments":[],"categories_sizes":[],"default_left":[0,0,0,0,0,0,0,0,0,0,0,0,0,0,0,0,0,0,0,0,0,0,0,0,0,0,0,0,0],"id":48,"left_children":[1,3,5,7,9,-1,11,-1,13,-1,-1,15,-1,17,19,21,23,-1,-1,-1,-1,25,-1,27,-1,-1,-1,-1,-1],"loss_changes":[4.023534E0,1.2248495E0,1.719523E0,9.874675E-1,1.1809778E-1,0E0,7.8231144E-1,0E0,7.781577E-1,0E0,0E0,2.1479005E-1,0E0,4.8306692E-1,1.0256517E-1,2.9755905E-1,1.8000197E-1,0E0,0E0,0E0,0E0,1.2197557E-1,0E0,1.9126117E-1,0E0,0E0,0E0,0E0,0E0],"parents":[2147483647,0,0,1,1,2,2,3,3,4,4,6,6,8,8,11,11,13,13,14,14,15,15,16,16,21,21,23,23],"right_children":[2,4,6,8,10,-1,12,-1,14,-1,-1,16,-1,18,20,22,24,-1,-1,-1,-1,26,-1,28,-1,-1,-1,-1,-1],"split_conditions":[-3.1658578E-1,3.213736E-1,-1.7205244E0,-4.074074E-1,-6.2318015E-1,1.1721436E-2,1.5560663E0,-5.0370074E-3,-5.653154E-1,3.6665935E-3,1.4306058E-2,-4.0622324E-2,-8.727599E-3,-3.3333334E-1,-4.0496716E-1,-2.0618261E-1,1.0864407E0,1.3810709E-2,6.561296E-4,3.0381952E-3,-0E0,1.9705145E-1,-3.1206976E-3,7.701411E-2,2.4551543E-4,-0E0,5.7652444E-3,-5.4390044E-3,-2.13902E-3],"split_indices":[1,14,14,9,1,0,1,0,1,0,0,1,0,9,1,13,3,0,0,0,0,14,0,15,0,0,0,0,0],"split_type":[0,0,0,0,0,0,0,0,0,0,0,0,0,0,0,0,0,0,0,0,0,0,0,0,0,0,0,0,0],"sum_hessian":[9.9E1,3.4E1,6.5E1,2.7E1,7E0,2E0,6.3E1,4E0,2.3E1,2E0,5E0,5.3E1,1E1,6E0,1.7E1,1.2E1,4.1E1,4E0,2E0,1.2E1,5E0,6E0,6E0,3.7E1,4E0,4E0,2E0,1.6E1,2.1E1],"tree_param":{"num_deleted":"0","num_feature":"16","num_nodes":"29","size_leaf_vector":"1"}},{"base_weights":[2.8593337E-2,3.4651935E-1,-1.4689879E-1,2.811988E-1,1.5149082E-2,1.156515E-2,-1.8179339E-1,4.8517826E-1,1.8882321E-1,-6.244432E-2,-2.717928E-1,1.2350406E-2,-0E0,-6.426152E-3,2.8176132E-1,4.8417557E-2,-1.0646579E-1,-1.918878E-1,-8.246633E-3,1.000334E-1,6.822338E-3,-1.7782254E-3,3.3719419E-3,-4.7380957E-3,-3.182986E-2,-5.7132184E-3,-1.0991317E-1,3.930148E-3,-1.2153547E-3,2.1993055E-3,-1.6955149E-3,6.115714E-4,-3.457437E-3],"categories":[],"categories_nodes":[],"categories_segments":[],"categories_sizes":[],"default_left":[0,0,0,0,0,0,0,0,0,0,0,0,0,0,0,0,0,0,0,0,0,0,0,0,0,0,0,0,0,0,0,0,0],"id":49,"left_children":[1,3,5,7,-1,-1,9,11,13,15,17,-1,-1,-1,19,21,23,25,-1,27,-1,-1,-1,-1,29,-1,31,-1,-1,-1,-1,-1,-1],"loss_changes":[5.4828362E0,6.226263E-1,1.6596315E0,4.4395423E-1,0E0,0E0,6.0482645E-1,5.507376E-1,1.2244315E0,1.4760807E-1,2.4226856E-1,0E0,0E0,0E0,1.4827979E-1,1.549917E-1,1.7003006E-1,1.1353308E-1,0E0,1.3410717E-1,0E0,0E0,0E0,0E0,1.1941548E-1,0E0,1.5219313E-1,0E0,0E0,0E0,0E0,0E0,0E0],"parents":[2147483647,0,0,1,1,2,2,3,3,6,6,7,7,8,8,9,9,10,10,14,14,15,