{"learner":{"attributes":{"best_iteration":"132","best_score":"0.3375541462052253"},"feature_names":[],"feature_types":[],"gradient_booster":{"model":{"gbtree_model_param":{"num_parallel_tree":"1","num_trees":"143"},"iteration_indptr":[0,1,2,3,4,5,6,7,8,9,10,11,12,13,14,15,16,17,18,19,20,21,22,23,24,25,26,27,28,29,30,31,32,33,34,35,36,37,38,39,40,41,42,43,44,45,46,47,48,49,50,51,52,53,54,55,56,57,58,59,60,61,62,63,64,65,66,67,68,69,70,71,72,73,74,75,76,77,78,79,80,81,82,83,84,85,86,87,88,89,90,91,92,93,94,95,96,97,98,99,100,101,102,103,104,105,106,107,108,109,110,111,112,113,114,115,116,117,118,119,120,121,122,123,124,125,126,127,128,129,130,131,132,133,134,135,136,137,138,139,140,141,142,143],"tree_info":[0,0,0,0,0,0,0,0,0,0,0,0,0,0,0,0,0,0,0,0,0,0,0,0,0,0,0,0,0,0,0,0,0,0,0,0,0,0,0,0,0,0,0,0,0,0,0,0,0,0,0,0,0,0,0,0,0,0,0,0,0,0,0,0,0,0,0,0,0,0,0,0,0,0,0,0,0,0,0,0,0,0,0,0,0,0,0,0,0,0,0,0,0,0,0,0,0,0,0,0,0,0,0,0,0,0,0,0,0,0,0,0,0,0,0,0,0,0,0,0,0,0,0,0,0,0,0,0,0,0,0,0,0,0,0,0,0,0,0,0,0,0,0],"trees":[{"base_weights":[1.7674914E-2,6.6357917E-1,-3.7463665E-1,1.0282695E0,2.972603E-1,-7.031434E-2,-6.5535414E-1,3.291472E-1,1.31793E0,8.496812E-3,2.433731E-2,-1.8307845E-1,2.094863E-2,-7.0001435E-1,-2.6312768E-3,-1.9960792E-3,5.4068846E-1,2.8601354E-2,8.682293E-3,-3.7091959E-3,4.146151E-3,-2.3364803E-1,6.3319444E-3,-4.1324706E-3,-1.4869582E-2,1.8367665E-2,-0E0,-2.782798E-1,1.5742524E-3,-6.3784197E-3,1.8545836E-3],"categories":[],"categories_nodes":[],"categories_segments":[],"categories_sizes":[],"default_left":[0,0,0,0,0,0,0,0,0,0,0,0,0,0,0,0,0,0,0,0,0,0,0,0,0,0,0,0,0,0,0],"id":0,"left_children":[1,3,5,7,9,11,13,15,17,-1,19,21,-1,23,-1,-1,25,-1,-1,-1,-1,27,-1,-1,-1,-1,-1,29,-1,-1,-1],"loss_changes":[2.6123856E1,4.771908E0,5.3487835E0,3.249155E0,6.7595387E-1,4.138658E0,5.9670067E-1,7.3323745E-1,4.8118782E-1,0E0,3.4772497E-1,8.237293E-1,0E0,3.9472294E-1,0E0,0E0,1.0685632E0,0E0,0E0,0E0,0E0,4.3221474E-1,0E0,0E0,0E0,0E0,0E0,4.2914867E-1,0E0,0E0,0E0],"parents":[2147483647,0,0,1,1,2,2,3,3,4,4,5,5,6,6,7,7,8,8,10,10,11,11,13,13,16,16,21,21,27,27],"right_children":[2,4,6,8,10,12,14,16,18,-1,20,22,-1,24,-1,-1,26,-1,-1,-1,-1,28,-1,-1,-1,-1,-1,30,-1,-1,-1],"split_conditions":[-2.5555238E-1,-4.7462174E-1,3.4027976E-1,-5.66106E-1,-1.3056757E-1,3.0322582E-1,1.2317709E0,2.1772158E-1,-5.261205E-1,8.496812E-3,-3.6522725E-1,1.6970254E0,2.094863E-2,2.8366378E-1,-2.6312768E-3,-1.9960792E-3,-6.9728804E-1,2.8601354E-2,8.682293E-3,-3.7091959E-3,4.146151E-3,9.0582186E-1,6.3319444E-3,-4.1324706E-3,-1.4869582E-2,1.8367665E-2,-0E0,6.5384614E-1,1.5742524E-3,-6.3784197E-3,1.8545836E-3],"split_indices":[1,1,1,0,0,1,15,3,1,0,11,3,0,0,0,0,1,0,0,0,0,14,0,0,0,0,0,12,0,0,0],"split_type":[0,0,0,0,0,0,0,0,0,0,0,0,0,0,0,0,0,0,0,0,0,0,0,0,0,0,0,0,0,0,0],"sum_hessian":[1.01E2,3.8E1,6.3E1,1.8E1,2E1,3.1E1,3.2E1,6E0,1.2E1,1.3E1,7E0,2.9E1,2E0,2.9E1,3E0,2E0,4E0,1E1,2E0,3E0,4E0,2.7E1,2E0,3E0,2.6E1,2E0,2E0,2.4E1,3E0,2.2E1,2E0],"tree_param":{"num_deleted":"0","num_feature":"16","num_nodes":"31","size_leaf_vector":"1"}},{"base_weights":[5.673794E-2,6.526671E-1,-3.535018E-1,9.109056E-1,3.438833E-1,1.8064585E-2,-4.1629985E-1,3.244696E-1,1.117182E0,2.0809661E-1,1.620012E-2,-1.1866027E-1,-6.0245895E-1,5.337406E-1,-1.9827725E-3,1.2669034E0,1.2532378E-3,6.2002395E-3,3.930078E-3,6.247519E-3,-1.7934829E-1,-1.3048425E-2,-3.2438627E-3,-0E0,1.8122762E-2,1.3738174E0,8.385021E-3,-4.5308527E-3,3.2285538E-3,-4.6765856E-3,4.351359E-4,2.9938502E-2,1.0264437E-2],"categories":[],"categories_nodes":[],"categories_segments":[],"categories_sizes":[],"default_left":[0,0,0,0,0,0,0,0,0,0,0,0,0,0,0,0,0,0,0,0,0,0,0,0,0,0,0,0,0,0,0,0,0],"id":1,"left_children":[1,3,5,7,9,-1,11,13,15,17,-1,19,21,23,-1,25,-1,-1,27,-1,29,-1,-1,-1,-1,31,-1,-1,-1,-1,-1,-1,-1],"loss_changes":[2.3974596E1,2.7508678E0,4.9046965E0,2.0336704E0,9.954953E-1,0E0,2.9592667E0,7.169168E-1,2.155922E0,3.2111847E-1,0E0,6.443722E-1,5.6060886E-1,1.0388639E0,0E0,4.2285538E-1,0E0,0E0,2.8415108E-1,0E0,2.563792E-1,0E0,0E0,0E0,0E0,1.9613457E-1,0E0,0E0,0E0,0E0,0E0,0E0,0E0],"parents":[2147483647,0,0,1,1,2,2,3,3,4,4,6,6,7,7,8,8,9,9,11,11,12,12,13,13,15,15,18,18,20,20,25,25],"right_children":[2,4,6,8,10,-1,12,14,16,18,-1,20,22,24,-1,26,-1,-1,28,-1,30,-1,-1,-1,-1,32,-1,-1,-1,-1,-1,-1,-1],"split_conditions":[-2.5555238E-1,-4.7462174E-1,-1.6823477E0,-6.581216E-1,2.5130153E-1,1.8064585E-2,2.3123038E-1,1.3568802E-1,2.3812916E0,-6.167375E-2,1.620012E-2,-1.3242344E0,1.2317709E0,-9.472458E-2,-1.9827725E-3,-3.3333334E-1,1.2532378E-3,6.2002395E-3,-2.8395063E-1,6.247519E-3,4.6153846E-1,-1.3048425E-2,-3.2438627E-3,-0E0,1.8122762E-2,2.5856328E0,8.385021E-3,-4.5308527E-3,3.2285538E-3,-4.6765856E-3,4.351359E-4,2.9938502E-2,1.0264437E-2],"split_indices":[1,1,14,1,14,0,1,14,13,14,0,15,15,14,0,9,0,0,9,0,12,0,0,0,0,8,0,0,0,0,0,0,0],"split_type":[0,0,0,0,0,0,0,0,0,0,0,0,0,0,0,0,0,0,0,0,0,0,0,0,0,0,0,0,0,0,0,0,0],"sum_hessian":[9.6E1,3.9E1,5.7E1,2E1,1.9E1,2E0,5.5E1,6E0,1.4E1,1.6E1,3E0,2.2E1,3.3E1,4E0,2E0,1.2E1,2E0,1E1,6E0,2E0,2E1,2.9E1,4E0,2E0,2E0,1E1,2E0,2E0,4E0,1.6E1,4E0,8E0,2E0],"tree_param":{"num_deleted":"0","num_feature":"16","num_nodes":"33","size_leaf_vector":"1"}},{"base_weights":[4.7276346E-3,8.8243294E-1,-3.35279E-1,1.0142584E0,3.2777673E-1,-3.0924084E-2,-6.532849E-1,1.1894456E0,1.0929999E-2,1.5769459E-3,9.39524E-3,-1.4272483E-1,1.8601269E-2,-4.672053E-3,-1.4572242E-2,5.8637224E-3,1.2970867E0,2.530732E-1,-2.05185E-1,2.7953278E-2,9.252156E-3,-0E0,7.9831E-3,-3.7738153E-1,-7.130395E-2,-8.899784E-3,-1.7803389E-3,3.0013358E-3,-1.9271097E-1,-4.7427053E-3,2.1635044E-5],"categories":[],"categories_nodes":[],"categories_segments":[],"categories_sizes":[],"default_left":[0,0,0,0,0,0,0,0,0,0,0,0,0,0,0,0,0,0,0,0,0,0,0,0,0,0,0,0,0,0,0],"id":2,"left_children":[1,3,5,7,9,11,13,15,-1,-1,-1,17,-1,-1,-1,-1,19,21,23,-1,-1,-1,-1,25,27,-1,-1,-1,29,-1,-1],"loss_changes":[2.989471E1,1.5806465E0,6.8800163E0,9.7916985E-1,1.5550977E-1,4.136696E0,8.400459E-1,9.078007E-1,0E0,0E0,0E0,9.123942E-1,0E0,0E0,0E0,0E0,2.584858E-1,1.5774393E-1,6.428921E-1,0E0,0E0,0E0,0E0,1.6043127E-1,5.438272E-1,0E0,0E0,0E0,1.3578022E-1,0E0,0E0],"parents":[2147483647,0,0,1,1,2,2,3,3,4,4,5,5,6,6,7,7,11,11,16,16,17,17,18,18,23,23,24,24,28,28],"right_children":[2,4,6,8,10,12,14,16,-1,-1,-1,18,-1,-1,-1,-1,20,22,24,-1,-1,-1,-1,26,28,-1,-1,-1,30,-1,-1],"split_conditions":[-3.8044533E-1,-2.8395063E-1,3.4027976E-1,-1.5384616E-1,-1.3460454E-1,8.99599E-1,5.3455645E-1,-1.07754E0,1.0929999E-2,1.5769459E-3,9.39524E-3,-1.0245935E0,1.8601269E-2,-4.672053E-3,-1.4572242E-2,5.8637224E-3,-3.6647245E-1,-3.283922E-1,3.1400722E-1,2.7953278E-2,9.252156E-3,-0E0,7.9831E-3,-1.23783976E-1,-1.2345679E-2,-8.899784E-3,-1.7803389E-3,3.0013358E-3,1.5808383E0,-4.7427053E-3,2.1635044E-5],"split_indices":[1,9,1,12,15,13,0,15,0,0,0,15,0,0,0,0,0,0,11,0,0,0,0,8,9,0,0,0,2,0,0],"split_type":[0,0,0,0,0,0,0,0,0,0,0,0,0,0,0,0,0,0,0,0,0,0,0,0,0,0,0,0,0,0,0],"sum_hessian":[9.8E1,2.7E1,7.1E1,2.1E1,6E0,3.7E1,3.4E1,1.4E1,7E0,3E0,3E0,3.4E1,3E0,6E0,2.8E1,2E0,1.2E1,4E0,3E1,1E1,2E0,2E0,2E0,1.2E1,1.8E1,9E0,3E0,6E0,1.2E1,1E1,2E0],"tree_param":{"num_deleted":"0","num_feature":"16","num_nodes":"31","size_leaf_vector":"1"}},{"base_weights":[3.5136417E-2,6.461114E-1,-3.8755813E-1,9.736642E-1,3.420628E-1,-8.8737555E-2,-6.618044E-1,1.1253145E0,5.169831E-1,1.3937874E-2,1.7951396E-1,-2.0412624E-1,2.0458642E-2,-7.1010435E-1,-2.4235684E-3,2.4794862E-2,5.183238E-3,-3.968899E-3,1.7256865E-2,-1.4997914E-1,6.509425E-3,-3.3066623E-2,-3.0127007E-1,-2.4930364E-3,-1.4903015E-2,7.318591E-5,-5.0542634E-3,-2.6590824E-3,1.133667E-1,-6.907579E-3,2.1347354E-5,4.857703E-3,-4.1214642E-4],"categories":[],"categories_nodes":[],"categories_segments":[],"categories_sizes":[],"default_left":[0,0,0,0,0,0,0,0,0,0,0,0,0,0,0,0,0,0,0,0,0,0,0,0,0,0,0,0,0,0,0,0,0],"id":3,"left_children":[1,3,5,7,9,11,13,15,17,-1,19,21,-1,23,-1,-1,-1,-1,-1,25,-1,27,29,-1,-1,-1,-1,-1,31,-1,-1,-1,-1],"loss_changes":[2.7134867E1,3.8178253E0,4.9471464E0,6.391201E-1,1.1715133E0,4.1034236E0,6.664133E-1,9.163914E-1,1.9697336E0,0E0,9.320177E-1,4.3850863E-1,0E0,4.1515827E-1,0E0,0E0,0E0,0E0,0E0,1.2053351E-1,0E0,1.9255362E-1,2.748437E-1,0E0,0E0,0E0,0E0,0E0,1.1399354E-1,0E0,0E0,0E0,0E0],"parents":[2147483647,0,0,1,1,2,2,3,3,4,4,5,5,6,6,7,7,8,8,10,10,11,11,13,13,19,19,21,21,22,22,28,28],"right_children":[2,4,6,8,10,12,14,16,18,-1,20,22,-1,24,-1,-1,-1,-1,-1,26,-1,28,30,-1,-1,-1,-1,-1,32,-1,-1,-1,-1],"split_conditions":[-1.9920069E-1,-3.7037036E-1,3.4027976E-1,-5.0558213E-2,-4.6151155E-1,3.019983E-1,1.4107988E0,-1.8691589E-1,-2.6923078E-1,1.3937874E-2,-2.6923078E-1,5.052812E-2,2.0458642E-2,-1.635031E-2,-2.4235684E-3,2.4794862E-2,5.183238E-3,-3.968899E-3,1.7256865E-2,-5.2202487E-1,6.509425E-3,-1.0665144E-1,2.3592815E0,-2.4930364E-3,-1.4903015E-2,7.318591E-5,-5.0542634E-3,-2.6590824E-3,-2.035928E-1,-6.907579E-3,2.1347354E-5,4.857703E-3,-4.1214642E-4],"split_indices":[1,9,1,15,11,1,15,7,12,0,12,1,0,0,0,0,0,0,0,13,0,1,2,0,0,0,0,0,2,0,0,0,0],"split_type":[0,0,0,0,0,0,0,0,0,0,0,0,0,0,0,0,0,0,0,0,0,0,0,0,0,0,0,0,0,0,0,0,0],"sum_hessian":[1.03E2,4.2E1,6.1E1,1.9E1,2.3E1,3E1,3.1E1,1.3E1,6E0,6E0,1.7E1,2.8E1,2E0,2.8E1,3E0,1.1E1,2E0,2E0,4E0,5E0,1.2E1,1.1E1,1.7E1,2E0,2.6E1,2E0,3E0,7E0,4E0,1.5E1,2E0,2E0,2E0],"tree_param":{"num_deleted":"0","num_feature":"16","num_nodes":"33","size_leaf_vector":"1"}},{"base_weights":[-1.7184049E-2,6.23943E-1,-4.2844257E-1,1.1048862E0,3.0641934E-1,-2.3016769E-1,-6.358435E-1,3.8567972E-3,2.6169889E-2,7.6268055E-2,8.497253E-3,-2.842071E-1,2.1858874E-3,-1.40638035E-2,-3.038832E-3,9.05736E-3,-2.710833E-3,-5.2287646E-2,-7.3061115E-3,-3.618807E-3,2.5752664E-3],"categories":[],"categories_nodes":[],"categories_segments":[],"categories_sizes":[],"default_left":[0,0,0,0,0,0,0,0,0,0,0,0,0,0,0,0,0,0,0,0,0],"id":4,"left_children":[1,3,5,7,9,11,13,-1,-1,15,-1,17,-1,-1,-1,-1,-1,19,-1,-1,-1],"loss_changes":[2.6351E1,5.476034E0,2.2755146E0,2.3830395E0,5.9898067E-1,6.53916E-1,7.527294E-1,0E0,0E0,8.907904E-1,0E0,4.84581E-1,0E0,0E0,0E0,0E0,0E0,2.3815045E-1,0E0,0E0,0E0],"parents":[2147483647,0,0,1,1,2,2,3,3,4,4,5,5,6,6,9,9,11,11,17,17],"right_children":[2,4,6,8,10,12,14,-1,-1,16,-1,18,-1,-1,-1,-1,-1,20,-1,-1,-1],"split_conditions":[-1.9920069E-1,-5.580931E-1,4.568941E-1,-6.2602884E-1,-2.3076923E-1,6.5384614E-1,1.4107988E0,3.8567972E-3,2.6169889E-2,-2.1556886E-1,8.497253E-3,-4.0622324E-2,2.1858874E-3,-1.40638035E-2,-3.038832E-3,9.05736E-3,-2.710833E-3,4.638612E-2,-7.3061115E-3,-3.618807E-3,2.5752664E-3],"split_indices":[1,1,1,14,12,12,15,0,0,2,0,1,0,0,0,0,0,14,0,0,0],"split_type":[0,0,0,0,0,0,0,0,0,0,0,0,0,0,0,0,0,0,0,0,0],"sum_hessian":[9.8E1,3.8E1,6E1,1.4E1,2.4E1,3.2E1,2.8E1,3E0,1.1E1,9E0,1.5E1,2.8E1,4E0,2.4E1,4E0,3E0,6E0,8E0,2E1,5E0,3E0],"tree_param":{"num_deleted":"0","num_feature":"16","num_nodes":"21","size_leaf_vector":"1"}},{"base_weights":[4.1437387E-2,6.355301E-1,-3.4374684E-1,8.578954E-1,3.2288754E-1,1.7533889E-2,-4.026706E-1,2.6266652E-1,1.0584396E0,-4.3692556E-3,4.1046026E-1,-1.0280729E-1,-5.939291E-1,4.7357246E-1,-2.8613107E-3,1.2680789E0,1.7500354E-3,2.0426701E-1,1.007499E-2,8.096038E-3,-1.7189912E-1,-4.32913E-1,-1.5947761E-2,-3.7647024E-4,1.6828885E-2,8.7670125E-3,2.7399952E-2,6.9911536E-3,-1.4527958E-3,-2.3362772E-1,1.2940727E-3,-0E0,-4.7813284E-1,-7.601606E-3,-6.845762E-2,-1.0650779E-2,-2.0474745E-3,3.0833457E-3,-3.117695E-3],"categories":[],"categories_nodes":[],"categories_segments":[],"categories_sizes":[],"default_left":[0,0,0,0,0,0,0,0,0,0,0,0,0,0,0,0,0,0,0,0,0,0,0,0,0,0,0,0,0,0,0,0,0,0,0,0,0,0,0],"id":5,"left_children":[1,3,5,7,9,-1,11,13,15,-1,17,19,21,23,-1,25,-1,27,-1,-1,29,31,-1,-1,-1,-1,-1,-1,-1,33,-1,-1,35,-1,37,-1,-1,-1,-1],"loss_changes":[2.2673485E1,2.3162308E0,4.620396E0,2.2160072E0,9.622053E-1,0E0,3.1956472E0,6.998018E-1,3.010231E0,0E0,1.3406897E-1,8.8801444E-1,6.783762E-1,1.0037941E0,0E0,3.1796837E-1,0E0,3.3470744E-1,0E0,0E0,3.5332233E-1,4.4911957E-1,0E0,0E0,0E0,0E0,0E0,0E0,0E0,3.645395E-1,0E0,0E0,2.9086256E-1,0E0,2.1883869E-1,0E0,0E0,0E0,0E0],"parents":[2147483647,0,0,1,1,2,2,3,3,4,4,6,6,7,7,8,8,10,10,11,11,12,12,13,13,15,15,17,17,20,20,21,21,29,29,32,32,34,34],"right_children":[2,4,6,8,10,-1,12,14,16,-1,18,20,22,24,-1,26,-1,28,-1,-1,30,32,-1,-1,-1,-1,-1,-1,-1,34,-1,-1,36,-1,38,-1,-1,-1,-1],"split_conditions":[-9.876543E-2,-2.8037384E-1,-1.6823477E0,-5.66106E-1,-4.3333542E-1,1.7533889E-2,3.5388085E-1,1.3568802E-1,-2.8395063E-1,-4.3692556E-3,4.642067E-1,-4.9505636E-1,1.4444444E0,-9.472458E-2,-2.8613107E-3,-8.2474476E-1,1.7500354E-3,-3.172571E-1,1.007499E-2,8.096038E-3,9.517188E-1,9.3457945E-2,-1.5947761E-2,-3.7647024E-4,1.6828885E-2,8.7670125E-3,2.7399952E-2,6.9911536E-3,-1.4527958E-3,2.5556502E-1,1.2940727E-3,-0E0,2.953271E0,-7.601606E-3,-1.682243E-1,-1.0650779E-2,-2.0474745E-3,3.0833457E-3,-3.117695E-3],"split_indices":[9,7,14,0,11,0,0,14,9,0,13,8,9,14,0,14,0,0,0,0,3,7,0,0,0,0,0,0,0,8,0,0,7,0,7,0,0,0,0],"split_type":[0,0,0,0,0,0,0,0,0,0,0,0,0,0,0,0,0,0,0,0,0,0,0,0,0,0,0,0,0,0,0,0,0,0,0,0,0,0,0],"sum_hessian":[9.7E1,3.8E1,5.9E1,2.1E1,1.7E1,2E0,5.7E1,6E0,1.5E1,2E0,1.5E1,2.3E1,3.4E1,4E0,2E0,1.2E1,3E0,6E0,9E0,2E0,2.1E1,2.1E1,1.3E1,2E0,2E0,2E0,1E1,4E0,2E0,1.7E1,4E0,2E0,1.9E1,8E0,9E0,1.6E1,3E0,2E0,7E0],"tree_param":{"num_deleted":"0","num_feature":"16","num_nodes":"39","size_leaf_vector":"1"}},{"base_weights":[-9.6380204E-2,5.280595E-1,-4.181161E-1,6.033218E-1,-8.348499E-3,-1.6378698E-1,-6.227296E-1,2.2504618E-2,3.10398E-1,-2.419081E-1,5.4164897E-3,-6.626445E-1,-2.2549792E-3,4.4457373E-1,-2.6346158E-2,-9.320418E-3,-1.509225E-1,-3.5504538E-3,-1.4038119E-2,2.1842751E-1,1.0968374E-2,-4.3109986E-3,1.448907E-3,5.332089E-2,-2.0799865E-1,-1.9922282E-3,7.711307E-3,-1.3012148E-3,3.7452444E-3,-5.610141E-5,-5.2645407E-3],"categories":[],"categories_nodes":[],"categories_segments":[],"categories_sizes":[],"default_left":[0,0,0,0,0,0,0,0,0,0,0,0,0,0,0,0,0,0,0,0,0,0,0,0,0,0,0,0,0,0,0],"id":6,"left_children":[1,3,5,7,-1,9,11,-1,13,15,-1,17,-1,19,21,-1,23,-1,-1,25,-1,-1,-1,27,29,-1,-1,-1,-1,-1,-1],"loss_changes":[2.0099358E1,2.689849E0,3.2539377E0,4.399315E0,0E0,1.1151454E0,5.805588E-1,0E0,1.047559E0,4.1853058E-1,0E0,4.1599083E-1,0E0,1.7927217E-1,1.6076815E-1,0E0,2.713644E-1,0E0,0E0,4.3909642E-1,0E0,0E0,0E0,1.0368454E-1,1.6531116E-1,0E0,0E0,0E0,0E0,0E0,0E0],"parents":[2147483647,0,0,1,1,2,2,3,3,5,5,6,6,8,8,9,9,11,11,13,13,14,14,16,16,19,19,23,23,24,24],"right_children":[2,4,6,8,-1,10,12,-1,14,16,-1,18,-1,20,22,-1,24,-1,-1,26,-1,-1,-1,28,30,-1,-1,-1,-1,-1,-1],"split_conditions":[-2.5555238E-1,7.571725E-1,3.3399943E-1,-5.580931E-1,-8.348499E-3,1.3453935E0,1.2317709E0,2.2504618E-2,-1.5326066E-1,-9.962402E-2,5.4164897E-3,2.8366378E-1,-2.2549792E-3,-2.7973124E-1,-4.3333542E-1,-9.320418E-3,-7.3298514E-1,-3.5504538E-3,-1.4038119E-2,1.2216149E-1,1.0968374E-2,-4.3109986E-3,1.448907E-3,-1.8600827E-1,-4.3958768E-1,-1.9922282E-3,7.711307E-3,-1.3012148E-3,3.7452444E-3,-5.610141E-5,-5.2645407E-3],"split_indices":[1,3,1,1,0,3,15,0,0,11,0,0,0,15,11,0,13,0,0,3,0,0,0,0,14,0,0,0,0,0,0],"split_type":[0,0,0,0,0,0,0,0,0,0,0,0,0,0,0,0,0,0,0,0,0,0,0,0,0,0,0,0,0,0,0],"sum_hessian":[9.8E1,3.3E1,6.5E1,3.1E1,2E0,3E1,3.5E1,1E1,2.1E1,2.6E1,4E0,3.2E1,3E0,1.5E1,6E0,6E0,2E1,3E0,2.9E1,6E0,9E0,2E0,4E0,4E0,1.6E1,2E0,4E0,2E0,2E0,4E0,1.2E1],"tree_param":{"num_deleted":"0","num_feature":"16","num_nodes":"31","size_leaf_vector":"1"}},{"base_weights":[-2.7791753E-2,4.4896287E-1,-4.2642447E-1,6.823365E-1,1.18128955E-1,-1.5299274E-1,-5.9276E-1,-7.2001754E-3,7.8836566E-1,3.579075E-1,-1.4744033E-1,-2.5665116E-1,7.052659E-3,-6.222807E-1,-1.1358509E-3,8.6564696E-1,3.2109474E-3,8.7192963E-4,9.156491E-3,8.097475E-4,-4.2396635E-3,-7.55251E-3,-2.5049858E-3,-2.5522292E-3,-1.2970943E-2,9.3650115E-1,6.107828E-3,6.36997E-3,1.0322018E0,2.4308825E-2,5.381025E-1,2.854285E-4,1.5429003E-2],"categories":[],"categories_nodes":[],"categories_segments":[],"categories_sizes":[],"default_left":[0,0,0,0,0,0,0,0,0,0,0,0,0,0,0,0,0,0,0,0,0,0,0,0,0,0,0,0,0,0,0,0,0],"id":7,"left_children":[1,3,5,7,9,11,13,-1,15,17,19,21,-1,23,-1,25,-1,-1,-1,-1,-1,-1,-1,-1,-1,27,-1,-1,29,-1,31,-1,-1],"loss_changes":[1.8814093E1,3.3137064E0,2.2907324E0,3.2001467E0,1.347373E0,1.2339776E0,4.1888332E-1,0E0,9.228506E-1,2.7535367E-1,1.470261E-1,2.0444417E-1,0E0,2.4241161E-1,0E0,4.2343712E-1,0E0,0E0,0E0,0E0,0E0,0E0,0E0,0E0,0E0,6.007538E-1,0E0,0E0,5.286913E-1,0E0,6.4382684E-1,0E0,0E0],"parents":[2147483647,0,0,1,1,2,2,3,3,4,4,5,5,6,6,8,8,9,9,10,10,11,11,13,13,15,15,25,25,28,28,30,30],"right_children":[2,4,6,8,10,12,14,-1,16,18,20,22,-1,24,-1,26,-1,-1,-1,-1,-1,-1,-1,-1,-1,28,-1,-1,30,-1,32,-1,-1],"split_conditions":[0E0,-3.5439768E-1,3.5388085E-1,-1.4836497E0,-1.0128116E-1,5.291759E-1,1.4107988E0,-7.2001754E-3,2.134343E0,-9.943465E-1,-5.263062E-1,-2.833114E-2,7.052659E-3,-5.9444094E-1,-1.1358509E-3,-1.15384616E-1,3.2109474E-3,8.7192963E-4,9.156491E-3,8.097475E-4,-4.2396635E-3,-7.55251E-3,-2.5049858E-3,-2.5522292E-3,-1.2970943E-2,-5.66106E-1,6.107828E-3,6.36997E-3,-4.5475474E-1,2.4308825E-2,-4.2604774E-1,2.854285E-4,1.5429003E-2],"split_indices":[7,0,0,15,3,13,15,0,13,3,15,0,0,13,0,12,0,0,0,0,0,0,0,0,0,0,0,0,0,0,0,0,0],"split_type":[0,0,0,0,0,0,0,0,0,0,0,0,0,0,0,0,0,0,0,0,0,0,0,0,0,0,0,0,0,0,0,0,0],"sum_hessian":[9.7E1,4.4E1,5.3E1,2.5E1,1.9E1,2.1E1,3.2E1,2E0,2.3E1,1E1,9E0,1.8E1,3E0,3E1,2E0,2E1,3E0,3E0,7E0,2E0,7E0,8E0,1E1,2E0,2.8E1,1.7E1,3E0,3E0,1.4E1,9E0,5E0,2E0,3E0],"tree_param":{"num_deleted":"0","num_feature":"16","num_nodes":"33","size_leaf_vector":"1"}},{"base_weights":[2.0855425E-2,7.500667E-1,-2.8447765E-1,-9.286819E-4,8.833642E-1,-2.3719142E-3,-5.891272E-1,1.2294557E0,1.032948E-2,-9.1628E-2,2.0128127E-2,-1.2504531E-2,-2.9220069E-3,2.6565E-2,9.139787E-3,-2.5110745E-1,1.3108508E-1,-6.2320348E-2,-3.5479793E-1,6.9887424E-3,-8.439632E-4,8.7888923E-4,-4.622749E-3,-9.009811E-3,-3.0281623E-3],"categories":[],"categories_nodes":[],"categories_segments":[],"categories_sizes":[],"default_left":[0,0,0,0,0,0,0,0,0,0,0,0,0,0,0,0,0,0,0,0,0,0,0,0,0],"id":8,"left_children":[1,3,5,-1,7,9,11,13,-1,15,-1,-1,-1,-1,-1,17,19,21,23,-1,-1,-1,-1,-1,-1],"loss_changes":[2.1857212E1,3.2036858E0,5.8695464E0,0E0,2.3648643E0,3.3322027E0,3.5929012E-1,1.3026428E-1,0E0,1.2880543E0,0E0,0E0,0E0,0E0,0E0,3.4726107E-1,6.1302066E-1,1.903304E-1,1.2461996E-1,0E0,0E0,0E0,0E0,0E0,0E0],"parents":[2147483647,0,0,1,1,2,2,4,4,5,5,6,6,7,7,9,9,15,15,16,16,17,17,18,18],"right_children":[2,4,6,-1,8,10,12,14,-1,16,-1,-1,-1,-1,-1,18,20,22,24,-1,-1,-1,-1,-1,-1],"split_conditions":[-3.8044533E-1,-6.581216E-1,3.4027976E-1,-9.286819E-4,-5.245218E-1,3.019983E-1,1.4107988E0,-1.5384616E-1,1.032948E-2,3.043891E-1,2.0128127E-2,-1.2504531E-2,-2.9220069E-3,2.6565E-2,9.139787E-3,-4.876719E-1,-1.9920069E-1,1.5547583E-1,0E0,6.9887424E-3,-8.439632E-4,8.7888923E-4,-4.622749E-3,-9.009811E-3,-3.0281623E-3],"split_indices":[1,1,1,0,1,1,15,12,0,8,0,0,0,0,0,13,1,3,13,0,0,0,0,0,0],"split_type":[0,0,0,0,0,0,0,0,0,0,0,0,0,0,0,0,0,0,0,0,0,0,0,0,0],"sum_hessian":[9.6E1,2.8E1,6.8E1,4E0,2.4E1,3.6E1,3.2E1,1.1E1,1.3E1,3.4E1,2E0,2.9E1,3E0,9E0,2E0,2E1,1.4E1,8E0,1.2E1,6E0,8E0,5E0,3E0,7E0,5E0],"tree_param":{"num_deleted":"0","num_feature":"16","num_nodes":"25","size_leaf_vector":"1"}},{"base_weights":[-1.4341333E-2,5.638215E-1,-3.5896394E-1,-7.0923558E-3,6.274742E-1,1.7368678E-2,-4.1417733E-1,7.94293E-1,2.1931218E-1,-7.175642E-2,-5.104718E-1,5.10601E-1,1.0998464E0,9.579879E-3,1.7097015E-2,1.5456891E-1,-2.1037598E-1,-4.2971513E-1,-1.6031206E-2,-5.411953E-3,8.2836396E-1,2.4157839E-2,7.515212E-3,3.849837E-3,-2.1327653E-3,5.1759803E-3,-5.1884002E-5,2.715903E-4,-7.5721913E-3,-4.798278E-1,-3.135718E-3,2.0179948E-2,7.796086E-3,-1.0779421E-2,-3.377425E-3],"categories":[],"categories_nodes":[],"categories_segments":[],"categories_sizes":[],"default_left":[0,0,0,0,0,0,0,0,0,0,0,0,0,0,0,0,0,0,0,0,0,0,0,0,0,0,0,0,0,0,0,0,0,0,0],"id":9,"left_children":[1,3,5,-1,7,-1,9,11,13,15,17,19,21,-1,23,25,27,29,-1,-1,31,-1,-1,-1,-1,-1,-1,-1,-1,33,-1,-1,-1,-1,-1],"loss_changes":[2.0305952E1,2.471321E0,4.6514616E0,0E0,2.1756496E0,0E0,1.9494905E0,1.4444475E0,5.723407E-1,5.0869507E-1,6.6078186E-1,4.0034695E0,2.4833393E-1,0E0,2.0273262E-1,1.2457861E-1,4.184127E-1,4.0819788E-1,0E0,0E0,3.382125E-1,0E0,0E0,0E0,0E0,0E0,0E0,0E0,0E0,4.4510174E-1,0E0,0E0,0E0,0E0,0E0],"parents":[2147483647,0,0,1,1,2,2,4,4,6,6,7,7,8,8,9,9,10,10,11,11,12,12,14,14,15,15,16,16,17,17,20,20,29,29],"right_children":[2,4,6,-1,8,-1,10,12,14,16,18,20,22,-1,24,26,28,30,-1,-1,32,-1,-1,-1,-1,-1,-1,-1,-1,34,-1,-1,-1,-1,-1],"split_conditions":[-8.6419754E-2,-1.4836497E0,-1.6823477E0,-7.0923558E-3,-2.8395063E-1,1.7368678E-2,1.3580246E-1,4.638612E-2,3.571799E-2,-4.876719E-1,2.7654321E0,-6.8438274E-1,-1.8691589E-1,9.579879E-3,9.2402086E-2,4.550898E-1,-3.6324972E-1,8.511159E-1,-1.6031206E-2,-5.411953E-3,-1.15384616E-1,2.4157839E-2,7.515212E-3,3.849837E-3,-2.1327653E-3,5.1759803E-3,-5.1884002E-5,2.715903E-4,-7.5721913E-3,5.64486E0,-3.135718E-3,2.0179948E-2,7.796086E-3,-1.0779421E-2,-3.377425E-3],"split_indices":[9,15,14,0,9,0,9,14,13,13,9,8,7,0,14,2,14,8,0,0,12,0,0,0,0,0,0,0,0,7,0,0,0,0,0],"split_type":[0,0,0,0,0,0,0,0,0,0,0,0,0,0,0,0,0,0,0,0,0,0,0,0,0,0,0,0,0,0,0,0,0,0,0],"sum_hessian":[1E2,3.7E1,6.3E1,2E0,3.5E1,2E0,6.1E1,2.4E1,1.1E1,1.4E1,4.7E1,1.4E1,1E1,4E0,7E0,5E0,9E0,3.9E1,8E0,4E0,1E1,8E0,2E0,3E0,4E0,3E0,2E0,4E0,5E0,3.2E1,7E0,6E0,4E0,2.6E1,6E0],"tree_param":{"num_deleted":"0","num_feature":"16","num_nodes":"35","size_leaf_vector":"1"}},{"base_weights":[3.0797044E-2,8.5159683E-1,-2.7743658E-1,1.0937203E0,4.61774E-1,-2.8587244E-3,-5.872931E-1,2.454169E-2,5.7985797E-4,1.1462433E-2,2.9798665E-3,-6.976578E-2,1.7137097E-2,-4.8851678E-1,-1.6364625E-2,1.5002927E-1,-2.1164398E-1,-1.1027551E-2,-2.9892842E-3,-2.0804766E-1,2.9505888E-1,-4.7398623E-2,-2.6732835E-1,-0E0,-6.530071E-3,-0E0,3.8568416E-1,-3.958375E-3,2.552024E-3,-5.9299436E-3,-0E0,1.0356903E-2,3.1277272E-3],"categories":[],"categories_nodes":[],"categories_segments":[],"categories_sizes":[],"default_left":[0,0,0,0,0,0,0,0,0,0,0,0,0,0,0,0,0,0,0,0,0,0,0,0,0,0,0,0,0,0,0,0,0],"id":10,"left_children":[1,3,5,7,9,11,13,-1,-1,-1,-1,15,-1,17,-1,19,21,-1,-1,23,25,27,29,-1,-1,-1,31,-1,-1,-1,-1,-1,-1],"loss_changes":[2.685848E1,2.0765724E0,6.490445E0,2.2527542E0,2.9515338E-1,2.3969479E0,2.9081059E-1,0E0,0E0,0E0,0E0,1.2852793E0,0E0,4.4427156E-1,0E0,9.009955E-1,1.8450391E-1,0E0,0E0,1.0339458E-1,2.9405344E-1,2.4301443E-1,1.2020934E-1,0E0,0E0,0E0,1.24331E-1,0E0,0E0,0E0,0E0,0E0,0E0],"parents":[2147483647,0,0,1,1,2,2,3,3,4,4,5,5,6,6,11,11,13,13,15,15,16,16,19,19,20,20,21,21,22,22,26,26],"right_children":[2,4,6,8,10,12,14,-1,-1,-1,-1,16,-1,18,-1,20,22,-1,-1,24,26,28,30,-1,-1,-1,32,-1,-1,-1,-1,-1,-1],"split_conditions":[-3.8044533E-1,-5.245218E-1,3.4027976E-1,2.3812916E0,1.5838514E-1,1.6448598E0,2.2791607E0,2.454169E-2,5.7985797E-4,1.1462433E-2,2.9798665E-3,-1.8509848E-1,1.7137097E-2,5.64486E0,-1.6364625E-2,-2.4299066E-1,-1.2345679E-2,-1.1027551E-2,-2.9892842E-3,-7.433864E-1,-3.3808166E-1,-1.1111111E-1,6.5384614E-1,-0E0,-6.530071E-3,-0E0,-1.1111111E-1,-3.958375E-3,2.552024E-3,-5.9299436E-3,-0E0,1.0356903E-2,3.1277272E-3],"split_indices":[1,1,1,13,3,7,1,0,0,0,0,1,0,7,0,7,9,0,0,8,1,9,12,0,0,0,9,0,0,0,0,0,0],"split_type":[0,0,0,0,0,0,0,0,0,0,0,0,0,0,0,0,0,0,0,0,0,0,0,0,0,0,0,0,0,0,0,0,0],"sum_hessian":[1.04E2,2.8E1,7.6E1,1.6E1,1.2E1,4.1E1,3.5E1,1.4E1,2E0,8E0,4E0,3.9E1,2E0,2.7E1,8E0,1.5E1,2.4E1,2.2E1,5E0,4E0,1.1E1,7E0,1.7E1,2E0,2E0,3E0,8E0,4E0,3E0,1.5E1,2E0,4E0,4E0],"tree_param":{"num_deleted":"0","num_feature":"16","num_nodes":"33","size_leaf_vector":"1"}},{"base_weights":[1.9372435E-2,5.989224E-1,-3.1820095E-1,8.2929444E-1,3.1964013E-1,-2.7602274E-2,-5.4874986E-1,2.1234621E-1,1.0713904E0,1.6211163E-1,1.4165951E-2,-1.237271E-1,1.6908603E-2,-5.934735E-1,-2.655366E-3,-3.4711966E-3,4.214206E-1,1.2156345E0,2.079011E-3,5.7493793E-3,-2.5219375E-3,1.5172035E-1,-1.9455133E-1,-4.2595217E-1,-1.3890967E-2,1.558256E-2,-8.685408E-4,2.6375482E-2,8.665812E-3,-1.797216E-3,6.399522E-3,-4.717884E-3,2.527319E-3,-9.629381E-3,-2.012302E-4],"categories":[],"categories_nodes":[],"categories_segments":[],"categories_sizes":[],"default_left":[0,0,0,0,0,0,0,0,0,0,0,0,0,0,0,0,0,0,0,0,0,0,0,0,0,0,0,0,0,0,0,0,0,0,0],"id":11,"left_children":[1,3,5,7,9,11,13,15,17,19,-1,21,-1,23,-1,-1,25,27,-1,-1,-1,29,31,33,-1,-1,-1,-1,-1,-1,-1,-1,-1,-1,-1],"loss_changes":[2.0173994E1,2.064907E0,4.282036E0,2.6313324E0,9.614035E-1,2.550035E0,5.1833344E-1,6.627093E-1,1.6953411E0,5.9432197E-1,0E0,5.800345E-1,0E0,1.3393593E-1,0E0,0E0,9.388026E-1,2.2166824E-1,0E0,0E0,0E0,2.956494E-1,3.4591776E-1,2.9233742E-1,0E0,0E0,0E0,0E0,0E0,0E0,0E0,0E0,0E0,0E0,0E0],"parents":[2147483647,0,0,1,1,2,2,3,3,4,4,5,5,6,6,7,7,8,8,9,9,11,11,13,13,16,16,17,17,21,21,22,22,23,23],"right_children":[2,4,6,8,10,12,14,16,18,20,-1,22,-1,24,-1,-1,26,28,-1,-1,-1,30,32,34,-1,-1,-1,-1,-1,-1,-1,-1,-1,-1,-1],"split_conditions":[-2.5555238E-1,-5.245218E-1,3.4027976E-1,-6.581216E-1,2.5964978E-1,3.6287425E0,1.4107988E0,2.1772158E-1,-3.3333334E-1,-6.167375E-2,1.4165951E-2,-1.1111111E-1,1.6908603E-2,1.0511562E0,-2.655366E-3,-3.4711966E-3,-6.9728804E-1,-1.8691589E-1,2.079011E-3,5.7493793E-3,-2.5219375E-3,0E0,5.546407E-1,2.4191616E0,-1.3890967E-2,1.558256E-2,-8.685408E-4,2.6375482E-2,8.665812E-3,-1.797216E-3,6.399522E-3,-4.717884E-3,2.527319E-3,-9.629381E-3,-2.012302E-4],"split_indices":[1,1,1,1,14,2,15,3,9,14,0,9,0,1,0,0,1,7,0,0,0,8,14,2,0,0,0,0,0,0,0,0,0,0,0],"split_type":[0,0,0,0,0,0,0,0,0,0,0,0,0,0,0,0,0,0,0,0,0,0,0,0,0,0,0,0,0,0,0,0,0,0,0],"sum_hessian":[1.01E2,3.7E1,6.4E1,1.9E1,1.8E1,2.9E1,3.5E1,6E0,1.3E1,1.4E1,4E0,2.7E1,2E0,3.1E1,4E0,2E0,4E0,1.1E1,2E0,1E1,4E0,5E0,2.2E1,1.4E1,1.7E1,2E0,2E0,9E0,2E0,2E0,3E0,2E1,2E0,1.2E1,2E0],"tree_param":{"num_deleted":"0","num_feature":"16","num_nodes":"35","size_leaf_vector":"1"}},{"base_weights":[-5.514468E-2,5.164791E-1,-2.6824653E-1,-6.6215913E-3,5.952271E-1,-5.083857E-2,-5.176992E-1,6.50123E-1,1.840905E-3,-1.2685162E-1,1.9432385E-2,-5.588735E-1,-2.6128797E-3,7.121889E-1,2.7349233E-3,-5.043619E-3,-2.4949783E-1,-2.976815E-3,-1.1854199E-2,8.649188E-1,4.476941E-1,-6.900285E-2,5.5004726E-3,-5.6029162E-3,-0E0,2.0552611E-2,5.1517547E-3,-4.8757093E-3,1.3270742E-2,-1.4719541E-1,4.7203624E-3,-5.972957E-3,-0E0],"categories":[],"categories_nodes":[],"categories_segments":[],"categories_sizes":[],"default_left":[0,0,0,0,0,0,0,0,0,0,0,0,0,0,0,0,0,0,0,0,0,0,0,0,0,0,0,0,0,0,0,0,0],"id":12,"left_children":[1,3,5,-1,7,9,11,13,-1,15,-1,17,-1,19,-1,21,23,-1,-1,25,27,29,-1,-1,-1,-1,-1,-1,-1,31,-1,-1,-1],"loss_changes":[1.3026014E1,2.1590462E0,4.1470013E0,0E0,6.1175346E-1,3.3807406E0,4.3175697E-1,5.8243275E-1,0E0,5.8579844E-1,0E0,2.8159523E-1,0E0,3.2984257E-1,0E0,3.9245886E-1,1.6768694E-1,0E0,0E0,7.926111E-1,1.6962469E0,4.7901562E-1,0E0,0E0,0E0,0E0,0E0,0E0,0E0,3.6686048E-1,0E0,0E0,0E0],"parents":[2147483647,0,0,1,1,2,2,4,4,5,5,6,6,7,7,9,9,11,11,13,13,15,15,16,16,19,19,20,20,21,21,29,29],"right_children":[2,4,6,-1,8,10,12,14,-1,16,-1,18,-1,20,-1,22,24,-1,-1,26,28,30,-1,-1,-1,-1,-1,-1,-1,32,-1,-1,-1],"split_conditions":[-3.6697116E-1,-7.8939664E-1,3.4027976E-1,-6.6215913E-3,-2.5183236E-2,3.019983E-1,1.4107988E0,2.3812916E0,1.840905E-3,5.052812E-2,1.9432385E-2,2.8366378E-1,-2.6128797E-3,-4.8456388E-3,2.7349233E-3,1.290171E-1,2.3592815E0,-2.976815E-3,-1.1854199E-2,-5.580931E-1,-4.8005545E-1,1.3224256E0,5.5004726E-3,-5.6029162E-3,-0E0,2.0552611E-2,5.1517547E-3,-4.8757093E-3,1.3270742E-2,-3.090106E-1,4.7203624E-3,-5.972957E-3,-0E0],"split_indices":[1,15,1,0,0,1,15,13,0,1,0,0,0,15,0,0,2,0,0,1,0,11,0,0,0,0,0,0,0,8,0,0,0],"split_type":[0,0,0,0,0,0,0,0,0,0,0,0,0,0,0,0,0,0,0,0,0,0,0,0,0,0,0,0,0,0,0,0,0],"sum_hessian":[1.05E2,2.8E1,7.7E1,2E0,2.6E1,4.2E1,3.5E1,2.3E1,3E0,4E1,2E0,3.1E1,4E0,2E1,3E0,2.1E1,1.9E1,3E0,2.8E1,1.1E1,9E0,1.8E1,3E0,1.7E1,2E0,8E0,3E0,2E0,7E0,1.5E1,3E0,7E0,8E0],"tree_param":{"num_deleted":"0","num_feature":"16","num_nodes":"33","size_leaf_vector":"1"}},{"base_weights":[1.6784325E-2,5.789287E-1,-3.1734675E-1,8.412969E-1,3.088509E-1,1.6553605E-2,-3.7097567E-1,3.3845767E-2,2.2831185E-2,7.95011E-3,1.4521691E-1,-1.7905289E-1,-5.66512E-1,4.1624424E-3,-3.5294264E-3,-3.6237023E-3,2.7864397E-1,2.4844503E-3,-2.303859E-1,-1.2003922E-2,-8.236783E-4,-0E0,7.4160793E-3,-0E0,-3.0461922E-1,-2.208516E-3,2.4916376E-3,-8.55247E-3,-2.8966276E-3],"categories":[],"categories_nodes":[],"categories_segments":[],"categories_sizes":[],"default_left":[0,0,0,0,0,0,0,0,0,0,0,0,0,0,0,0,0,0,0,0,0,0,0,0,0,0,0,0,0],"id":13,"left_children":[1,3,5,7,9,-1,11,13,-1,-1,15,17,19,-1,-1,-1,21,-1,23,-1,-1,-1,-1,25,27,-1,-1,-1,-1],"loss_changes":[1.861721E1,2.2469625E0,4.0685844E0,4.2078714E0,1.7814136E-1,0E0,2.0756798E0,2.5981244E-1,0E0,0E0,4.5218974E-1,5.3741276E-1,4.2430592E-1,0E0,0E0,0E0,1.439808E-1,0E0,4.6247578E-1,0E0,0E0,0E0,0E0,1.2305188E-1,2.9356742E-1,0E0,0E0,0E0,0E0],"parents":[2147483647,0,0,1,1,2,2,3,3,4,4,6,6,7,7,10,10,11,11,12,12,16,16,18,18,23,23,24,24],"right_children":[2,4,6,8,10,-1,12,14,-1,-1,16,18,20,-1,-1,-1,22,-1,24,-1,-1,-1,-1,26,28,-1,-1,-1,-1],"split_conditions":[-1.9920069E-1,-5.245218E-1,-1.6823477E0,-6.581216E-1,-3.8044533E-1,1.6553605E-2,4.568941E-1,-4.1150764E-1,2.2831185E-2,7.95011E-3,-2.4299066E-1,-8.832497E-1,1.4107988E0,4.1624424E-3,-3.5294264E-3,-3.6237023E-3,-3.3808166E-1,2.4844503E-3,-4.0622324E-2,-1.2003922E-2,-8.236783E-4,-0E0,7.4160793E-3,4.638612E-2,1.5437722E-2,-2.208516E-3,2.4916376E-3,-8.55247E-3,-2.8966276E-3],"split_indices":[1,1,14,1,1,0,1,15,0,0,7,15,15,0,0,0,1,0,1,0,0,0,0,14,8,0,0,0,0],"split_type":[0,0,0,0,0,0,0,0,0,0,0,0,0,0,0,0,0,0,0,0,0,0,0,0,0,0,0,0,0],"sum_hessian":[9.7E1,3.6E1,6.1E1,1.7E1,1.9E1,2E0,5.9E1,5E0,1.2E1,1.1E1,8E0,3.1E1,2.8E1,3E0,2E0,2E0,6E0,4E0,2.7E1,2.6E1,2E0,2E0,4E0,7E0,2E1,4E0,3E0,1E1,1E1],"tree_param":{"num_deleted":"0","num_feature":"16","num_nodes":"29","size_leaf_vector":"1"}},{"base_weights":[-0E0,7.900495E-1,-2.5275782E-1,9.7307E-1,4.4292423E-1,-7.160544E-2,-5.895246E-1,3.9898998E-1,1.1228476E0,1.0063665E-2,1.6234478E-3,-1.2040932E-1,1.5297273E-2,-6.761132E-3,-1.3364179E-2,-0E0,1.3083296E-2,2.481205E-2,6.4543025E-3,-2.095613E-1,2.2184458E-1,-8.844113E-2,-3.605859E-1,8.747317E-3,-2.7968295E-4,-1.4730406E-1,7.179765E-3,-8.034761E-3,-1.8223781E-3,-1.9424886E-1,-0E0,-4.794414E-3,-0E0],"categories":[],"categories_nodes":[],"categories_segments":[],"categories_sizes":[],"default_left":[0,0,0,0,0,0,0,0,0,0,0,0,0,0,0,0,0,0,0,0,0,0,0,0,0,0,0,0,0,0,0,0,0],"id":14,"left_children":[1,3,5,7,9,11,13,15,17,-1,-1,19,-1,-1,-1,-1,-1,-1,-1,21,23,25,27,-1,-1,29,-1,-1,-1,31,-1,-1,-1],"loss_changes":[2.1403442E1,1.0792103E0,4.833169E0,7.755604E-1,1.4050674E-1,2.23209E0,2.2750568E-1,4.878298E-1,5.7394123E-1,0E0,0E0,1.6319177E0,0E0,0E0,0E0,0E0,0E0,0E0,0E0,6.9147587E-1,6.075416E-1,6.9013697E-1,1.1371279E-1,0E0,0E0,1.4238942E-1,0E0,0E0,0E0,1.6306978E-1,0E0,0E0,0E0],"parents":[2147483647,0,0,1,1,2,2,3,3,4,4,5,5,6,6,7,7,8,8,11,11,19,19,20,20,21,21,22,22,25,25,29,29],"right_children":[2,4,6,8,10,12,14,16,18,-1,-1,20,-1,-1,-1,-1,-1,-1,-1,22,24,26,28,-1,-1,30,-1,-1,-1,32,-1,-1,-1],"split_conditions":[-3.5439768E-1,-2.8037384E-1,9.692257E-1,-5.66106E-1,7.571725E-1,1.4205607E1,9.0123457E-1,2.4089402E-1,-2.8395063E-1,1.0063665E-2,1.6234478E-3,7.930491E-1,1.5297273E-2,-6.761132E-3,-1.3364179E-2,-0E0,1.3083296E-2,2.481205E-2,6.4543025E-3,2.962963E-1,-9.876543E-2,1E0,7.009346E0,8.747317E-3,-2.7968295E-4,4.1184956E-1,7.179765E-3,-8.034761E-3,-1.8223781E-3,8.6419754E-2,-0E0,-4.794414E-3,-0E0],"split_indices":[0,7,0,0,3,7,9,3,9,0,0,8,0,0,0,0,0,0,0,9,9,4,7,0,0,11,0,0,0,9,0,0,0],"split_type":[0,0,0,0,0,0,0,0,0,0,0,0,0,0,0,0,0,0,0,0,0,0,0,0,0,0,0,0,0,0,0,0,0],"sum_hessian":[1.05E2,2.5E1,8E1,1.5E1,1E1,5.3E1,2.7E1,4E0,1.1E1,8E0,2E0,5.1E1,2E0,8E0,1.9E1,2E0,2E0,9E0,2E0,4.1E1,1E1,2.4E1,1.7E1,5E0,5E0,2.2E1,2E0,1.4E1,3E0,1.6E1,6E0,1.3E1,3E0],"tree_param":{"num_deleted":"0","num_feature":"16","num_nodes":"33","size_leaf_vector":"1"}},{"base_weights":[-1.8970912E-2,4.8787045E-1,-3.3211988E-1,9.090179E-1,2.4772471E-1,-1.0583761E-1,-5.2019507E-1,3.242701E-1,2.20098E-2,2.291555E-2,3.7273505E-1,-2.0053801E-1,1.6230907E-2,-5.633052E-1,-2.5774608E-3,-3.4823674E-3,1.4958037E-2,-4.437726E-3,5.6112963E-3,4.651543E-1,1.5997125E-1,-0E0,-2.6294833E-1,-2.7350879E-3,-1.2011031E-2,2.0363778E-3,1.0469424E-2,4.7496855E-3,-0E0,-2.1510029E-3,2.535059E-3,-8.823261E-3,-3.573982E-3],"categories":[],"categories_nodes":[],"categories_segments":[],"categories_sizes":[],"default_left":[0,0,0,0,0,0,0,0,0,0,0,0,0,0,0,0,0,0,0,0,0,0,0,0,0,0,0,0,0,0,0,0,0],"id":15,"left_children":[1,3,5,7,9,11,13,15,-1,17,19,21,-1,23,-1,-1,-1,-1,-1,25,27,29,31,-1,-1,-1,-1,-1,-1,-1,-1,-1,-1],"loss_changes":[1.6653008E1,3.7046108E0,2.6486158E0,1.0681486E0,7.1068704E-1,2.7948174E0,4.4863605E-1,1.2432678E0,0E0,7.619245E-1,1.9735503E-1,3.548708E-1,0E0,3.3665276E-1,0E0,0E0,0E0,0E0,0E0,1.1724639E-1,1.0285829E-1,1.2210041E-1,1.8949628E-1,0E0,0E0,0E0,0E0,0E0,0E0,0E0,0E0,0E0,0E0],"parents":[2147483647,0,0,1,1,2,2,3,3,4,4,5,5,6,6,7,7,9,9,10,10,11,11,13,13,19,19,20,20,21,21,22,22],"right_children":[2,4,6,8,10,12,14,16,-1,18,20,22,-1,24,-1,-1,-1,-1,-1,26,28,30,32,-1,-1,-1,-1,-1,-1,-1,-1,-1,-1],"split_conditions":[-1.9920069E-1,-5.580931E-1,3.4027976E-1,-6.9728804E-1,-3.2364273E-1,1.6448598E0,1.4107988E0,2.1772158E-1,2.20098E-2,3.1836373E-1,-1.8518518E-1,-4.0622324E-2,1.6230907E-2,2.8366378E-1,-2.5774608E-3,-3.4823674E-3,1.4958037E-2,-4.437726E-3,5.6112963E-3,-1.0414417E0,-3.0028868E-1,1.290171E-1,-1.6069314E-1,-2.7350879E-3,-1.2011031E-2,2.0363778E-3,1.0469424E-2,4.7496855E-3,-0E0,-2.1510029E-3,2.535059E-3,-8.823261E-3,-3.573982E-3],"split_indices":[1,1,1,1,15,7,15,3,0,3,9,1,0,0,0,0,0,0,0,3,3,0,8,0,0,0,0,0,0,0,0,0,0],"split_type":[0,0,0,0,0,0,0,0,0,0,0,0,0,0,0,0,0,0,0,0,0,0,0,0,0,0,0,0,0,0,0,0,0],"sum_hessian":[1.03E2,3.9E1,6.4E1,1.3E1,2.6E1,3E1,3.4E1,4E0,9E0,1E1,1.6E1,2.8E1,2E0,3E1,4E0,2E0,2E0,5E0,5E0,1E1,6E0,7E0,2.1E1,3E0,2.7E1,2E0,8E0,4E0,2E0,4E0,3E0,5E0,1.6E1],"tree_param":{"num_deleted":"0","num_feature":"16","num_nodes":"33","size_leaf_vector":"1"}},{"base_weights":[3.940601E-2,7.1531105E-1,-2.3753312E-1,1.0343481E0,4.396003E-1,1.4074925E-2,-5.294975E-1,2.7767739E-3,2.350911E-2,-1.1000184E-2,6.039271E-1,-5.8591284E-2,1.4154372E-2,-7.3816073E-3,-1.2629083E-2,8.234142E-1,2.690131E-1,3.0128947E-2,-4.6478477E-3,2.0310307E-2,6.08818E-3,-0E0,6.8928823E-3,-1.7584422E-1,9.541445E-2,-0E0,-5.624638E-3,2.4282156E-1,-1.4758757E-2,-0E0,7.093732E-3,-1.975748E-3,4.738459E-3],"categories":[],"categories_nodes":[],"categories_segments":[],"categories_sizes":[],"default_left":[0,0,0,0,0,0,0,0,0,0,0,0,0,0,0,0,0,0,0,0,0,0,0,0,0,0,0,0,0,0,0,0,0],"id":16,"left_children":[1,3,5,7,9,11,13,-1,-1,-1,15,17,-1,-1,-1,19,21,23,-1,-1,-1,-1,-1,25,27,-1,-1,29,31,-1,-1,-1,-1],"loss_changes":[1.9310514E1,2.036765E0,5.4216185E0,1.3480902E0,3.2647052E0,2.1225572E0,2.2297955E-1,0E0,0E0,0E0,8.453965E-1,5.97756E-1,0E0,0E0,0E0,4.5618916E-1,1.3373303E-1,3.449116E-1,0E0,0E0,0E0,0E0,0E0,1.3083844E-1,3.5119632E-1,0E0,0E0,2.2415471E-1,2.6337308E-1,0E0,0E0,0E0,0E0],"parents":[2147483647,0,0,1,1,2,2,3,3,4,4,5,5,6,6,10,10,11,11,15,15,16,16,17,17,23,23,24,24,27,27,28,28],"right_children":[2,4,6,8,10,12,14,-1,-1,-1,16,18,-1,-1,-1,20,22,24,-1,-1,-1,-1,-1,26,28,-1,-1,30,32,-1,-1,-1,-1],"split_conditions":[-3.8044533E-1,-3.364486E-1,4.568941E-1,-3.6141413E-1,-7.433864E-1,1.5808383E0,1.3971528E0,2.7767739E-3,2.350911E-2,-1.1000184E-2,-3.7037036E-1,5.052812E-2,1.4154372E-2,-7.3816073E-3,-1.2629083E-2,-5.245218E-1,-2.5567684E-1,-2.4299066E-1,-4.6478477E-3,2.0310307E-2,6.08818E-3,-0E0,6.8928823E-3,-2.035928E-1,-1.9920069E-1,-0E0,-5.624638E-3,-3.3808166E-1,1.0395117E0,-0E0,7.093732E-3,-1.975748E-3,4.738459E-3],"split_indices":[1,7,1,14,8,2,0,0,0,0,9,1,0,0,0,1,8,7,0,0,0,0,0,2,1,0,0,1,14,0,0,0,0],"split_type":[0,0,0,0,0,0,0,0,0,0,0,0,0,0,0,0,0,0,0,0,0,0,0,0,0,0,0,0,0,0,0,0,0],"sum_hessian":[1.01E2,2.9E1,7.2E1,1.2E1,1.7E1,3.9E1,3.3E1,2E0,1E1,2E0,1.5E1,3.6E1,3E0,1.5E1,1.8E1,8E0,7E0,2.4E1,1.2E1,5E0,3E0,2E0,5E0,5E0,1.9E1,2E0,3E0,8E0,1.1E1,3E0,5E0,9E0,2E0],"tree_param":{"num_deleted":"0","num_feature":"16","num_nodes":"33","size_leaf_vector":"1"}},{"base_weights":[-3.527879E-2,3.401022E-1,-3.1163687E-1,1.6831113E-1,5.520214E-1,1.582577E-2,-3.650358E-1,2.4640383E-1,-9.584016E-3,1.9502835E-2,3.2411113E-1,-1.287214E-1,-4.742987E-1,3.8541377E-1,-1.6992003E-2,2.0208384E-3,7.864692E-3,-3.423935E-3,2.7140903E-3,-9.798613E-3,-1.8014289E-3,-5.304676E-3,5.044515E-1,3.7733258E-3,-4.785038E-3,1.3398882E-2,-1.0353185E-3],"categories":[],"categories_nodes":[],"categories_segments":[],"categories_sizes":[],"default_left":[0,0,0,0,0,0,0,0,0,0,0,0,0,0,0,0,0,0,0,0,0,0,0,0,0,0,0],"id":17,"left_children":[1,3,5,7,9,-1,11,13,-1,-1,15,17,19,21,23,-1,-1,-1,-1,-1,-1,-1,25,-1,-1,-1,-1],"loss_changes":[1.0788317E1,1.4369116E0,3.7799277E0,1.409512E0,1.3862576E0,0E0,1.3762279E0,9.221424E-1,0E0,0E0,1.2670958E-1,2.514131E-1,1.3211346E-1,1.3969457E0,4.615837E-1,0E0,0E0,0E0,0E0,0E0,0E0,0E0,1.385196E0,0E0,0E0,0E0,0E0],"parents":[2147483647,0,0,1,1,2,2,3,3,4,4,6,6,7,7,10,10,11,11,12,12,13,13,14,14,22,22],"right_children":[2,4,6,8,10,-1,12,14,-1,-1,16,18,20,22,24,-1,-1,-1,-1,-1,-1,-1,26,-1,-1,-1,-1],"split_conditions":[-1.8509848E-1,4.343886E-2,-1.6823477E0,1.2139006E0,-5.580931E-1,1.582577E-2,2.2891808E-1,-5.979911E-1,-9.584016E-3,1.9502835E-2,-9.943465E-1,9.0582186E-1,7.8922157E0,-1.8976842E-1,-6.167375E-2,2.0208384E-3,7.864692E-3,-3.423935E-3,2.7140903E-3,-9.798613E-3,-1.8014289E-3,-5.304676E-3,-3.5439768E-1,3.7733258E-3,-4.785038E-3,1.3398882E-2,-1.0353185E-3],"split_indices":[1,8,14,3,1,0,1,8,0,0,3,14,2,3,14,0,0,0,0,0,0,0,0,0,0,0,0],"split_type":[0,0,0,0,0,0,0,0,0,0,0,0,0,0,0,0,0,0,0,0,0,0,0,0,0,0,0],"sum_hessian":[1.02E2,4.3E1,5.9E1,2.5E1,1.8E1,2E0,5.7E1,2.3E1,2E0,5E0,1.3E1,1.9E1,3.8E1,1.5E1,8E0,4E0,9E0,1.7E1,2E0,3.6E1,2E0,2E0,1.3E1,4E0,4E0,1E1,3E0],"tree_param":{"num_deleted":"0","num_feature":"16","num_nodes":"27","size_leaf_vector":"1"}},{"base_weights":[2.2080068E-2,7.700431E-1,-2.2946693E-1,1.0011623E0,4.086404E-1,1.1992649E-2,-5.075735E-1,2.1883003E-2,4.6232194E-3,1.3440765E-3,1.0077489E-2,-5.474927E-2,1.8624414E-2,-3.3040473E-3,-1.1084793E-2,1.4171086E-1,-1.6983207E-1,-3.799315E-3,2.8868106E-1,-1.0702306E-1,-6.8938313E-3,-0E0,6.9535975E-3,-2.922434E-3,2.8588532E-3],"categories":[],"categories_nodes":[],"categories_segments":[],"categories_sizes":[],"default_left":[0,0,0,0,0,0,0,0,0,0,0,0,0,0,0,0,0,0,0,0,0,0,0,0,0],"id":18,"left_children":[1,3,5,7,9,11,13,-1,-1,-1,-1,15,-1,-1,-1,17,19,-1,21,23,-1,-1,-1,-1,-1],"loss_changes":[1.9421837E1,1.6216097E0,5.2263093E0,6.885557E-1,2.9922628E-1,2.7153747E0,4.116726E-1,0E0,0E0,0E0,0E0,9.3124646E-1,0E0,0E0,0E0,7.959098E-1,2.034902E-1,0E0,1.712274E-1,2.2644468E-1,0E0,0E0,0E0,0E0,0E0],"parents":[2147483647,0,0,1,1,2,2,3,3,4,4,5,5,6,6,11,11,15,15,16,16,18,18,19,19],"right_children":[2,4,6,8,10,12,14,-1,-1,-1,-1,16,-1,-1,-1,18,20,-1,22,24,-1,-1,-1,-1,-1],"split_conditions":[-3.8044533E-1,-5.261205E-1,3.4027976E-1,1.4552337E0,-4.3286946E-1,3.0322582E-1,3.5388085E-1,2.1883003E-2,4.6232194E-3,1.3440765E-3,1.0077489E-2,-1.8509848E-1,1.8624414E-2,-3.3040473E-3,-1.1084793E-2,-2.4299066E-1,6.910975E-1,-3.799315E-3,-3.3808166E-1,5.083176E-1,-6.8938313E-3,-0E0,6.9535975E-3,-2.922434E-3,2.8588532E-3],"split_indices":[1,1,1,13,15,1,0,0,0,0,0,1,0,0,0,7,3,0,1,3,0,0,0,0,0],"split_type":[0,0,0,0,0,0,0,0,0,0,0,0,0,0,0,0,0,0,0,0,0,0,0,0,0],"sum_hessian":[1.01E2,2.5E1,7.6E1,1.4E1,1.1E1,4.1E1,3.5E1,1.2E1,2E0,3E0,8E0,3.9E1,2E0,5E0,3E1,1.4E1,2.5E1,4E0,1E1,2E1,5E0,2E0,8E0,1.8E1,2E0],"tree_param":{"num_deleted":"0","num_feature":"16","num_nodes":"25","size_leaf_vector":"1"}},{"base_weights":[-1.8218469E-2,4.8339465E-1,-2.743042E-1,5.6234264E-1,-8.677665E-3,1.5471539E-2,-3.229819E-1,8.7487954E-1,2.6599792E-1,-1.2563351E-1,-4.8359165E-1,9.158142E-4,2.175482E-2,-0E0,5.903243E-3,-3.5962113E-3,4.658514E-3,-3.545424E-1,-1.2162958E-2,-7.666968E-3,-7.958851E-4],"categories":[],"categories_nodes":[],"categories_segments":[],"categories_sizes":[],"default_left":[0,0,0,0,0,0,0,0,0,0,0,0,0,0,0,0,0,0,0,0,0],"id":19,"left_children":[1,3,5,7,-1,-1,9,11,13,15,17,-1,-1,-1,-1,-1,-1,19,-1,-1,-1],"loss_changes":[1.2186549E1,2.5741882E0,3.418324E0,2.431756E0,0E0,0E0,1.8117828E0,2.3075733E0,1.0397732E-1,5.9991574E-1,2.1855497E-1,0E0,0E0,0E0,0E0,0E0,0E0,1.1469674E-1,0E0,0E0,0E0],"parents":[2147483647,0,0,1,1,2,2,3,3,6,6,7,7,8,8,9,9,10,10,17,17],"right_children":[2,4,6,8,-1,-1,10,12,14,16,18,-1,-1,-1,-1,-1,-1,20,-1,-1,-1],"split_conditions":[-2.9003713E-1,9.775054E-1,-1.6823477E0,-5.580931E-1,-8.677665E-3,1.5471539E-2,3.5388085E-1,-6.2602884E-1,-5.48644E-1,1.3453935E0,1.5675992E0,9.158142E-4,2.175482E-2,-0E0,5.903243E-3,-3.5962113E-3,4.658514E-3,9.789786E-1,-1.2162958E-2,-7.666968E-3,-7.958851E-4],"split_indices":[1,3,14,1,0,0,0,14,1,3,1,0,0,0,0,0,0,15,0,0,0],"split_type":[0,0,0,0,0,0,0,0,0,0,0,0,0,0,0,0,0,0,0,0,0],"sum_hessian":[9.3E1,3.1E1,6.2E1,2.9E1,2E0,2E0,6E1,1.3E1,1.6E1,2.8E1,3.2E1,3E0,1E1,2E0,1.4E1,2.5E1,3E0,1.8E1,1.4E1,1.6E1,2E0],"tree_param":{"num_deleted":"0","num_feature":"16","num_nodes":"21","size_leaf_vector":"1"}},{"base_weights":[3.6222637E-2,6.212208E-1,-2.1252622E-1,4.099928E-1,8.907084E-1,3.2622877E-3,-4.7577888E-1,-1.9617772E-3,4.7745126E-1,2.2096569E-2,2.15462E-3,-6.248168E-2,1.8241888E-2,-5.225572E-1,-3.0744118E-3,1.30552715E-2,2.1849853E-1,5.812762E-2,-4.6992116E-3,-2.4405343E-3,-1.1204655E-2,6.734864E-3,3.655415E-2,-3.0002542E-2,6.883704E-3,-1.5844092E-3,3.4695475E-3,-5.824526E-3,5.2405547E-2,1.8912038E-1,-1.5671996E-3,-0E0,5.839306E-3],"categories":[],"categories_nodes":[],"categories_segments":[],"categories_sizes":[],"default_left":[0,0,0,0,0,0,0,0,0,0,0,0,0,0,0,0,0,0,0,0,0,0,0,0,0,0,0,0,0,0,0,0,0],"id":20,"left_children":[1,3,5,7,9,11,13,-1,15,-1,-1,17,-1,19,-1,-1,21,23,-1,-1,-1,-1,25,27,-1,-1,-1,-1,29,31,-1,-1,-1],"loss_changes":[1.5597763E1,1.326292E0,4.3093204E0,7.7025676E-1,1.9391861E0,2.65146E0,3.642664E-1,0E0,5.874033E-1,0E0,0E0,8.6344343E-1,0E0,3.0102634E-1,0E0,0E0,1.4398646E-1,6.467919E-1,0E0,0E0,0E0,0E0,1.0242982E-1,4.48156E-1,0E0,0E0,0E0,0E0,2.9405934E-1,1.4008653E-1,0E0,0E0,0E0],"parents":[2147483647,0,0,1,1,2,2,3,3,4,4,5,5,6,6,8,8,11,11,13,13,16,16,17,17,22,22,23,23,28,28,29,29],"right_children":[2,4,6,8,10,12,14,-1,16,-1,-1,18,-1,20,-1,-1,22,24,-1,-1,-1,-1,26,28,-1,-1,-1,-1,30,32,-1,-1,-1],"split_conditions":[-3.8044533E-1,-5.6236215E-2,3.4027976E-1,-5.66106E-1,1.4552337E0,3.0322582E-1,1.1346316E0,-1.9617772E-3,-4.7462174E-1,2.2096569E-2,2.15462E-3,5.052812E-2,1.8241888E-2,2.8366378E-1,-3.0744118E-3,1.30552715E-2,-4.4261286E-1,2.5964978E-1,-4.6992116E-3,-2.4405343E-3,-1.1204655E-2,6.734864E-3,3.1836373E-1,-1.9161677E-1,6.883704E-3,-1.5844092E-3,3.4695475E-3,-5.824526E-3,-1.9920069E-1,-3.3808166E-1,-1.5671996E-3,-0E0,5.839306E-3],"split_indices":[1,14,1,0,13,1,15,0,1,0,0,1,0,0,0,0,14,14,0,0,0,0,3,2,0,0,0,0,1,1,0,0,0],"split_type":[0,0,0,0,0,0,0,0,0,0,0,0,0,0,0,0,0,0,0,0,0,0,0,0,0,0,0,0,0,0,0,0,0],"sum_hessian":[1.05E2,3.1E1,7.4E1,1.9E1,1.2E1,4.1E1,3.3E1,2E0,1.7E1,9E0,3E0,3.9E1,2E0,2.8E1,5E0,9E0,8E0,2.3E1,1.6E1,3E0,2.5E1,4E0,4E0,1.8E1,5E0,2E0,2E0,4E0,1.4E1,7E0,7E0,3E0,4E0],"tree_param":{"num_deleted":"0","num_feature":"16","num_nodes":"33","size_leaf_vector":"1"}},{"base_weights":[-8.1421435E-3,4.9904078E-1,-3.0896908E-1,-5.0801143E-2,5.9258956E-1,-9.041841E-2,-4.3623874E-1,1.2773998E-3,-4.401912E-3,8.655039E-1,3.110422E-1,-1.3839641E-1,5.164529E-3,-4.8264587E-1,-1.8325285E-3,9.917181E-1,-0E0,1.8467543E-1,1.3011305E-2,-1.7561676E-1,2.4507602E-3,-1.5509444E-3,-5.0305396E-1,6.9335336E-3,2.136783E-2,4.912547E-3,-8.222412E-5,-5.7448023E-3,-1.3786238E-3,-1.1278045E-2,-6.1776466E-3],"categories":[],"categories_nodes":[],"categories_segments":[],"categories_sizes":[],"default_left":[0,0,0,0,0,0,0,0,0,0,0,0,0,0,0,0,0,0,0,0,0,0,0,0,0,0,0,0,0,0,0],"id":21,"left_children":[1,3,5,7,9,11,13,-1,-1,15,17,19,-1,21,-1,23,-1,25,-1,27,-1,-1,29,-1,-1,-1,-1,-1,-1,-1,-1],"loss_changes":[1.4782313E1,1.9360161E0,1.604598E0,1.4615919E-1,1.9951248E0,4.2520946E-1,5.0606346E-1,0E0,0E0,1.5491076E0,5.2570784E-1,2.4049315E-1,0E0,1.757493E-1,0E0,1.3105297E-1,0E0,1.8625817E-1,0E0,1.82755E-1,0E0,0E0,1.0480785E-1,0E0,0E0,0E0,0E0,0E0,0E0,0E0,0E0],"parents":[2147483647,0,0,1,1,2,2,3,3,4,4,5,5,6,6,9,9,10,10,11,11,13,13,15,15,17,17,19,19,22,22],"right_children":[2,4,6,8,10,12,14,-1,-1,16,18,20,-1,22,-1,24,-1,26,-1,28,-1,-1,30,-1,-1,-1,-1,-1,-1,-1,-1],"split_conditions":[-2.5555238E-1,-5.66106E-1,2.3123038E-1,1.2623854E-1,-4.7462174E-1,1.6970254E0,1.1346316E0,1.2773998E-3,-4.401912E-3,2.3812916E0,2.5130153E-1,9.0582186E-1,5.164529E-3,-8.832497E-1,-1.8325285E-3,-8.287326E-1,-0E0,-5.1728997E-2,1.3011305E-2,3.846154E-2,2.4507602E-3,-1.5509444E-3,5.992534E-1,6.9335336E-3,2.136783E-2,4.912547E-3,-8.222412E-5,-5.7448023E-3,-1.3786238E-3,-1.1278045E-2,-6.1776466E-3],"split_indices":[1,0,1,14,1,3,15,0,0,13,14,14,0,15,0,14,0,0,0,12,0,0,11,0,0,0,0,0,0,0,0],"split_type":[0,0,0,0,0,0,0,0,0,0,0,0,0,0,0,0,0,0,0,0,0,0,0,0,0,0,0,0,0,0,0],"sum_hessian":[9.5E1,3.5E1,6E1,5E0,3E1,2.3E1,3.7E1,3E0,2E0,1.4E1,1.6E1,2.1E1,2E0,3.2E1,5E0,1.2E1,2E0,1.3E1,3E0,1.9E1,2E0,2E0,3E1,2E0,1E1,1E1,3E0,8E0,1.1E1,2.1E1,9E0],"tree_param":{"num_deleted":"0","num_feature":"16","num_nodes":"31","size_leaf_vector":"1"}},{"base_weights":[6.259724E-2,4.7445765E-1,-1.988157E-1,-9.385462E-3,5.489041E-1,1.5262368E-2,-2.5140035E-1,8.2605934E-1,2.3357809E-1,-3.925378E-3,-3.757039E-1,2.1177055E-2,4.1931018E-1,-1.12420104E-1,3.9544567E-1,2.3979765E-1,-1.4255121E-1,-1.6739735E-1,-4.4833064E-1,1.999655E-1,1.3697922E-2,9.3683496E-4,-4.5752292E-3,9.70666E-3,1.3867534E-3,6.702954E-3,-0E0,-0E0,-6.133298E-3,-5.1232753E-3,2.4273533E-3,-9.602537E-3,-4.356497E-4,5.9606424E-3,-0E0,-3.4509578E-3,2.7080614E-3],"categories":[],"categories_nodes":[],"categories_segments":[],"categories_sizes":[],"default_left":[0,0,0,0,0,0,0,0,0,0,0,0,0,0,0,0,0,0,0,0,0,0,0,0,0,0,0,0,0,0,0,0,0,0,0,0,0],"id":22,"left_children":[1,3,5,-1,7,-1,9,11,13,15,17,-1,19,21,23,25,27,29,31,33,-1,-1,-1,-1,-1,-1,-1,35,-1,-1,-1,-1,-1,-1,-1,-1,-1],"loss_changes":[9.704136E0,2.7245603E0,2.9227402E0,0E0,2.5850973E0,0E0,1.5909495E0,1.0179005E0,1.0248587E0,6.6639864E-1,3.92879E-1,0E0,2.4059701E-1,1.4008E-1,2.626369E-1,1.5909955E-1,3.0008918E-1,3.2652858E-1,2.7841663E-1,1.15375414E-1,0E0,0E0,0E0,0E0,0E0,0E0,0E0,2.1076107E-1,0E0,0E0,0E0,0E0,0E0,0E0,0E0,0E0,0E0],"parents":[2147483647,0,0,1,1,2,2,4,4,6,6,7,7,8,8,9,9,10,10,12,12,13,13,14,14,15,15,16,16,17,17,18,18,19,19,27,27],"right_children":[2,4,6,-1,8,-1,10,12,14,16,18,-1,20,22,24,26,28,30,32,34,-1,-1,-1,-1,-1,-1,-1,36,-1,-1,-1,-1,-1,-1,-1,-1,-1],"split_conditions":[-1.6977541E-1,-1.3026099E0,-1.6823477E0,-9.385462E-3,-4.5475474E-1,1.5262368E-2,9.3457945E-2,-2.6923078E-1,-3.2364273E-1,-7.862729E-2,3.5388085E-1,2.1177055E-2,-1.3460454E-1,-7.8939664E-1,-2.3952097E-2,-9.580839E-2,-5.2202487E-1,9.517188E-1,1.2317709E0,-4.7780022E-1,1.3697922E-2,9.3683496E-4,-4.5752292E-3,9.70666E-3,1.3867534E-3,6.702954E-3,-0E0,-9.962402E-2,-6.133298E-3,-5.1232753E-3,2.4273533E-3,-9.602537E-3,-4.356497E-4,5.9606424E-3,-0E0,-3.4509578E-3,2.7080614E-3],"split_indices":[0,15,14,0,0,0,7,12,15,14,0,0,15,15,2,2,13,3,15,0,0,0,0,0,0,0,0,11,0,0,0,0,0,0,0,0,0],"split_type":[0,0,0,0,0,0,0,0,0,0,0,0,0,0,0,0,0,0,0,0,0,0,0,0,0,0,0,0,0,0,0,0,0,0,0,0,0],"sum_hessian":[8.8E1,3.4E1,5.4E1,2E0,3.2E1,2E0,5.2E1,1.6E1,1.6E1,1.8E1,3.4E1,9E0,7E0,5E0,1.1E1,6E0,1.2E1,1E1,2.4E1,5E0,2E0,2E0,3E0,8E0,3E0,4E0,2E0,7E0,5E0,8E0,2E0,2.2E1,2E0,3E0,2E0,3E0,4E0],"tree_param":{"num_deleted":"0","num_feature":"16","num_nodes":"37","size_leaf_vector":"1"}},{"base_weights":[-1.6084114E-2,5.492152E-1,-1.7985399E-1,7.379227E-1,5.209684E-2,-6.6340845E-3,-4.8888096E-1,1.6096255E-2,3.3751624E-3,-1.0545876E-2,1.2869265E-2,-5.6714848E-2,1.4602979E-2,-2.8696546E-1,-1.1817856E-2,7.417208E-2,-1.8395169E-1,-7.191434E-5,-6.768517E-3,-7.873467E-2,2.0554148E-1,-4.778041E-3,-6.337643E-4,-2.4890369E-1,3.1049775E-3,5.148382E-3,-3.9714112E-4,-0E0,-6.595432E-3],"categories":[],"categories_nodes":[],"categories_segments":[],"categories_sizes":[],"default_left":[0,0,0,0,0,0,0,0,0,0,0,0,0,0,0,0,0,0,0,0,0,0,0,0,0,0,0,0,0],"id":23,"left_children":[1,3,5,7,9,11,13,-1,-1,-1,-1,15,-1,17,-1,19,21,-1,-1,23,25,-1,-1,27,-1,-1,-1,-1,-1],"loss_changes":[8.671689E0,1.8525634E0,3.8548672E0,3.3789635E-1,2.7493362E0,1.7452024E0,2.781906E-1,0E0,0E0,0E0,0E0,7.906894E-1,0E0,1.2498659E-1,0E0,4.908711E-1,1.6617703E-1,0E0,0E0,4.8599172E-1,1.8087864E-1,0E0,0E0,1.10075295E-1,0E0,0E0,0E0,0E0,0E0],"parents":[2147483647,0,0,1,1,2,2,3,3,4,4,5,5,6,6,11,11,13,13,15,15,16,16,19,19,20,20,23,23],"right_children":[2,4,6,8,10,12,14,-1,-1,-1,-1,16,-1,18,-1,20,22,-1,-1,24,26,-1,-1,28,-1,-1,-1,-1,-1],"split_conditions":[-3.3333334E-1,2.5539315E-1,9.692257E-1,-1.8691589E-1,-7.433864E-1,7.1137724E0,9.0123457E-1,1.6096255E-2,3.3751624E-3,-1.0545876E-2,1.2869265E-2,-1.2345679E-2,1.4602979E-2,-2.2354983E-1,-1.1817856E-2,-3.2364273E-1,2.5556502E-1,-7.191434E-5,-6.768517E-3,5.334036E-1,8.274413E-1,-4.778041E-3,-6.337643E-4,-2.1556886E-1,3.1049775E-3,5.148382E-3,-3.9714112E-4,-0E0,-6.595432E-3],"split_indices":[9,3,0,7,8,2,9,0,0,0,0,9,0,13,0,15,8,0,0,3,14,0,0,2,0,0,0,0,0],"split_type":[0,0,0,0,0,0,0,0,0,0,0,0,0,0,0,0,0,0,0,0,0,0,0,0,0,0,0,0,0],"sum_hessian":[9.2E1,2E1,7.2E1,1.4E1,6E0,4.7E1,2.5E1,1.2E1,2E0,3E0,3E0,4.5E1,2E0,1E1,1.5E1,2.2E1,2.3E1,2E0,8E0,1E1,1.2E1,1.6E1,7E0,6E0,4E0,1E1,2E0,2E0,4E0],"tree_param":{"num_deleted":"0","num_feature":"16","num_nodes":"29","size_leaf_vector":"1"}},{"base_weights":[-1.5148366E-2,4.007895E-1,-2.894334E-1,-1.5086311E-1,4.6545985E-1,-1.3809733E-1,-4.638701E-1,-9.569224E-3,3.873787E-3,7.598172E-1,2.3610435E-1,2.4056286E-3,-1.7727847E-1,-7.2493604E-3,-1.3444842E-2,1.9105835E-3,8.980737E-1,1.4953779E-1,1.1698222E-2,-6.501721E-3,-1.18888915E-1,2.0540118E-2,6.5244916E-3,4.6348884E-3,1.2202517E-2,-2.8119509E-3,-3.349312E-3,-3.8690185E-3,3.2787547E-3,2.040145E-3,-2.541375E-3],"categories":[],"categories_nodes":[],"categories_segments":[],"categories_sizes":[],"default_left":[0,0,0,0,0,0,0,0,0,0,0,0,0,0,0,0,0,0,0,0,0,0,0,0,0,0,0,0,0,0,0],"id":24,"left_children":[1,3,5,7,9,11,13,-1,-1,15,17,-1,19,-1,-1,-1,21,23,-1,-1,25,-1,-1,-1,27,29,-1,-1,-1,-1,-1],"loss_changes":[1.2083848E1,1.6000543E0,1.5652523E0,6.855237E-1,2.2864847E0,3.9147168E-1,2.6561403E-1,0E0,0E0,1.2843208E0,5.33574E-1,0E0,1.9312692E-1,0E0,0E0,0E0,4.8812962E-1,1.9857484E-1,0E0,0E0,1.2346721E-1,0E0,0E0,0E0,3.096064E-1,1.3268858E-1,0E0,0E0,0E0,0E0,0E0],"parents":[2147483647,0,0,1,1,2,2,3,3,4,4,5,5,6,6,9,9,10,10,12,12,16,16,17,17,20,20,24,24,25,25],"right_children":[2,4,6,8,10,12,14,-1,-1,16,18,-1,20,-1,-1,-1,22,24,-1,-1,26,-1,-1,-1,28,30,-1,-1,-1,-1,-1],"split_conditions":[-1.9920069E-1,-8.172835E-1,4.568941E-1,-2.035928E-1,-5.245218E-1,-8.832497E-1,2.2791607E0,-9.569224E-3,3.873787E-3,-6.2602884E-1,2.5964978E-1,2.4056286E-3,-5.407277E-1,-7.2493604E-3,-1.3444842E-2,1.9105835E-3,-5.864973E-1,-6.167375E-2,1.1698222E-2,-6.501721E-3,-1.493006E-2,2.0540118E-2,6.5244916E-3,4.6348884E-3,-1.9753087E-1,-2.4691358E-2,-3.349312E-3,-3.8690185E-3,3.2787547E-3,2.040145E-3,-2.541375E-3],"split_indices":[1,15,1,2,1,15,1,0,0,14,14,0,15,0,0,0,1,14,0,0,1,0,0,0,9,9,0,0,0,0,0],"split_type":[0,0,0,0,0,0,0,0,0,0,0,0,0,0,0,0,0,0,0,0,0,0,0,0,0,0,0,0,0,0,0],"sum_hessian":[1.04E2,4.1E1,6.3E1,4E0,3.7E1,3.5E1,2.8E1,2E0,2E0,1.5E1,2.2E1,4E0,3.1E1,2.1E1,7E0,3E0,1.2E1,1.9E1,3E0,7E0,2.4E1,9E0,3E0,1.1E1,8E0,8E0,1.6E1,3E0,5E0,4E0,4E0],"tree_param":{"num_deleted":"0","num_feature":"16","num_nodes":"31","size_leaf_vector":"1"}},{"base_weights":[-2.3890438E-2,4.244149E-1,-3.0908564E-1,4.9913797E-1,-1.4858496E-1,-1.6652542E-1,-4.427617E-1,7.652766E-1,2.931818E-1,-9.441635E-3,3.8221357E-3,-2.1681751E-1,2.3671384E-3,-9.730413E-3,-3.3994478E-3,2.1315753E-1,1.909617E-2,7.992714E-2,4.1057488E-1,-7.022266E-3,-1.24607764E-1,-4.868097E-3,1.2640014E-2,-2.3159124E-3,3.3335176E-3,9.885783E-3,1.4729096E-3,-0E0,-3.43212E-3],"categories":[],"categories_nodes":[],"categories_segments":[],"categories_sizes":[],"default_left":[0,0,0,0,0,0,0,0,0,0,0,0,0,0,0,0,0,0,0,0,0,0,0,0,0,0,0,0,0],"id":25,"left_children":[1,3,5,7,9,11,13,15,17,-1,-1,19,-1,-1,-1,21,-1,23,25,-1,27,-1,-1,-1,-1,-1,-1,-1,-1],"loss_changes":[1.2521537E1,1.7362394E0,1.0087533E0,1.5334282E0,6.6776156E-1,4.796551E-1,2.0976496E-1,1.1446972E0,4.438609E-1,0E0,0E0,2.4302769E-1,0E0,0E0,0E0,1.1488321E0,0E0,1.771967E-1,2.734797E-1,0E0,1.0334435E-1,0E0,0E0,0E0,0E0,0E0,0E0,0E0,0E0],"parents":[2147483647,0,0,1,1,2,2,3,3,4,4,5,5,6,6,7,7,8,8,11,11,15,15,17,17,18,18,20,20],"right_children":[2,4,6,8,10,12,14,16,18,-1,-1,20,-1,-1,-1,22,-1,24,26,-1,28,-1,-1,-1,-1,-1,-1,-1,-1],"split_conditions":[-1.9920069E-1,9.775054E-1,4.568941E-1,-5.245218E-1,-2.035928E-1,9.517188E-1,1.1346316E0,-6.9728804E-1,-2.0517911E-1,-9.441635E-3,3.8221357E-3,-4.7310883E-1,2.3671384E-3,-9.730413E-3,-3.3994478E-3,2.1772158E-1,1.909617E-2,-4.3504855E-1,-3.5928145E-2,-7.022266E-3,-1.493006E-2,-4.868097E-3,1.2640014E-2,-2.3159124E-3,3.3335176E-3,9.885783E-3,1.4729096E-3,-0E0,-3.43212E-3],"split_indices":[1,3,1,1,2,3,15,1,15,0,0,15,0,0,0,3,0,11,2,0,1,0,0,0,0,0,0,0,0],"split_type":[0,0,0,0,0,0,0,0,0,0,0,0,0,0,0,0,0,0,0,0,0,0,0,0,0,0,0,0,0],"sum_hessian":[9.6E1,3.7E1,5.9E1,3.3E1,4E0,3E1,2.9E1,1.3E1,2E1,2E0,2E0,2.6E1,4E0,2.4E1,5E0,4E0,9E0,8E0,1.2E1,9E0,1.7E1,2E0,2E0,2E0,6E0,9E0,3E0,5E0,1.2E1],"tree_param":{"num_deleted":"0","num_feature":"16","num_nodes":"29","size_leaf_vector":"1"}},{"base_weights":[1.8611647E-2,4.7450915E-1,-1.3993512E-1,-7.3072133E-3,5.57013E-1,3.706448E-3,-4.257392E-1,1.3287984E-1,7.010158E-1,1.5056163E-2,-3.765916E-2,-4.7346542E-4,-9.416887E-3,1.0336363E-2,-7.1052597E-3,8.044732E-1,1.7386408E-3,-1.3891439E-1,2.6909995E-1,2.0211551E-2,7.616557E-3,-0E0,-2.0475148E-1,9.88911E-3,-0E0,1.9416551E-1,-1.3258655E-1,-1.4139655E-1,-6.500896E-3,5.742258E-3,-0E0,-5.041833E-3,1.0963542E-3,9.5435E-4,-3.4123152E-3],"categories":[],"categories_nodes":[],"categories_segments":[],"categories_sizes":[],"default_left":[0,0,0,0,0,0,0,0,0,0,0,0,0,0,0,0,0,0,0,0,0,0,0,0,0,0,0,0,0,0,0,0,0,0,0],"id":26,"left_children":[1,3,5,-1,7,9,11,13,15,-1,17,-1,-1,-1,-1,19,-1,21,23,-1,-1,25,27,-1,-1,29,31,33,-1,-1,-1,-1,-1,-1,-1],"loss_changes":[7.8339334E0,2.1628656E0,3.328049E0,0E0,1.4114447E0,1.7731657E0,4.290533E-1,1.6990957E0,1.0480242E0,0E0,1.6395334E0,0E0,0E0,0E0,0E0,8.730459E-1,0E0,3.6003715E-1,7.7001166E-1,0E0,0E0,3.8441423E-1,1.13167286E-1,0E0,0E0,1.03533775E-1,2.3510835E-1,1.309464E-1,0E0,0E0,0E0,0E0,0E0,0E0,0E0],"parents":[2147483647,0,0,1,1,2,2,4,4,5,5,6,6,7,7,8,8,10,10,15,15,17,17,18,18,21,21,22,22,25,25,26,26,27,27],"right_children":[2,4,6,-1,8,10,12,14,16,-1,18,-1,-1,-1,-1,20,-1,22,24,-1,-1,26,28,-1,-1,30,32,34,-1,-1,-1,-1,-1,-1,-1],"split_conditions":[-3.5439768E-1,-1.4836497E0,9.692257E-1,-7.3072133E-3,-2.876791E-1,-1.6823477E0,9.3457945E-2,-6.3589895E-1,2.3812916E0,1.5056163E-2,7.930491E-1,-4.7346542E-4,-9.416887E-3,1.0336363E-2,-7.1052597E-3,-2.3076923E-1,1.7386408E-3,-1.3056757E-1,5.043431E-1,2.0211551E-2,7.616557E-3,-3.0028868E-1,3.3812994E-1,9.88911E-3,-0E0,-1.0778443E-1,9.517188E-1,-7.3298514E-1,-6.500896E-3,5.742258E-3,-0E0,-5.041833E-3,1.0963542E-3,9.5435E-4,-3.4123152E-3],"split_indices":[0,15,0,0,14,14,7,14,13,0,8,0,0,0,0,12,0,0,11,0,0,3,3,0,0,2,3,13,0,0,0,0,0,0,0],"split_type":[0,0,0,0,0,0,0,0,0,0,0,0,0,0,0,0,0,0,0,0,0,0,0,0,0,0,0,0,0,0,0,0,0,0,0],"sum_hessian":[1.06E2,2.7E1,7.9E1,2E0,2.5E1,5.3E1,2.6E1,7E0,1.8E1,2E0,5.1E1,3E0,2.3E1,4E0,3E0,1.5E1,3E0,3.9E1,1.2E1,9E0,6E0,1.3E1,2.6E1,6E0,6E0,5E0,8E0,1.9E1,7E0,3E0,2E0,5E0,3E0,2E0,1.7E1],"tree_param":{"num_deleted":"0","num_feature":"16","num_nodes":"35","size_leaf_vector":"1"}},{"base_weights":[-5.4932046E-3,5.1731586E-1,-2.1300252E-1,7.177207E-1,3.1590474E-1,-1.1815746E-2,-4.2865235E-1,-0E0,9.249697E-1,1.1497436E-2,3.4668604E-3,-8.9443564E-2,1.7806467E-2,-1.2382929E-3,-4.5892003E-1,2.0577068E-2,6.1257975E-3,-0E0,-2.0633112E-1,-7.262165E-3,-1.2276279E-2,-6.984161E-2,1.9979922E-1,-6.6216695E-3,-1.2280669E-3,-5.3478293E-3,9.957639E-3,6.8942937E-3,3.2325636E-4,3.0003139E-3,-1.9445786E-3],"categories":[],"categories_nodes":[],"categories_segments":[],"categories_sizes":[],"default_left":[0,0,0,0,0,0,0,0,0,0,0,0,0,0,0,0,0,0,0,0,0,0,0,0,0,0,0,0,0,0,0],"id":27,"left_children":[1,3,5,7,9,11,13,-1,15,-1,-1,17,-1,-1,19,-1,-1,21,23,-1,-1,25,27,-1,-1,-1,29,-1,-1,-1,-1],"loss_changes":[1.0711557E1,8.0009127E-1,3.031287E0,1.8590903E0,4.1622913E-1,2.660727E0,2.9691267E-1,0E0,1.94067E-1,0E0,0E0,3.9315504E-1,0E0,0E0,1.3948679E-1,0E0,0E0,3.1756398E-1,2.2970301E-1,0E0,0E0,2.8063524E-1,1.1801122E-1,0E0,0E0,0E0,2.0001265E-1,0E0,0E0,0E0,0E0],"parents":[2147483647,0,0,1,1,2,2,3,3,4,4,5,5,6,6,8,8,11,11,14,14,17,17,18,18,21,21,22,22,26,26],"right_children":[2,4,6,8,10,12,14,-1,16,-1,-1,18,-1,-1,20,-1,-1,22,24,-1,-1,26,28,-1,-1,-1,30,-1,-1,-1,-1],"split_conditions":[-3.8044533E-1,-5.580931E-1,3.4027976E-1,-6.2602884E-1,-3.9688194E-1,3.0322582E-1,3.5388085E-1,-0E0,-5.872395E-1,1.1497436E-2,3.4668604E-3,5.052812E-2,1.7806467E-2,-1.2382929E-3,1.9767057E0,2.0577068E-2,6.1257975E-3,2.5964978E-1,1.5437722E-2,-7.262165E-3,-1.2276279E-2,-4.6123496E-1,-4.9505636E-1,-6.6216695E-3,-1.2280669E-3,-5.3478293E-3,0E0,6.8942937E-3,3.2325636E-4,3.0003139E-3,-1.9445786E-3],"split_indices":[1,1,1,14,13,1,0,0,1,0,0,1,0,0,1,0,0,14,8,0,0,8,8,0,0,0,12,0,0,0,0],"split_type":[0,0,0,0,0,0,0,0,0,0,0,0,0,0,0,0,0,0,0,0,0,0,0,0,0,0,0,0,0,0,0],"sum_hessian":[9.7E1,2.7E1,7E1,1.2E1,1.5E1,3.7E1,3.3E1,3E0,9E0,4E0,1.1E1,3.5E1,2E0,3E0,3E1,7E0,2E0,2E1,1.5E1,2.1E1,9E0,1.5E1,5E0,7E0,8E0,4E0,1.1E1,2E0,3E0,5E0,6E0],"tree_param":{"num_deleted":"0","num_feature":"16","num_nodes":"31","size_leaf_vector":"1"}},{"base_weights":[1.664659E-2,5.6685686E-1,-1.8234736E-1,8.223695E-1,2.8392124E-1,-0E0,-4.032074E-1,1.9039026E-2,4.7085453E-3,9.446578E-3,9.472405E-2,-6.253281E-2,1.7569046E-2,-3.1736332E-1,-1.2096554E-2,-2.8126042E-3,3.9268774E-3,-2.453317E-1,1.8119548E-2,-7.003587E-3,-1.6587363E-3,-6.2185475E-3,8.7259547E-4,2.107313E-1,-8.9083016E-2,-0E0,5.122161E-3,3.5177383E-3,-2.7296918E-3],"categories":[],"categories_nodes":[],"categories_segments":[],"categories_sizes":[],"default_left":[0,0,0,0,0,0,0,0,0,0,0,0,0,0,0,0,0,0,0,0,0,0,0,0,0,0,0,0,0],"id":28,"left_children":[1,3,5,7,9,11,13,-1,-1,-1,15,17,-1,19,-1,-1,-1,21,23,-1,-1,-1,-1,25,27,-1,-1,-1,-1],"loss_changes":[1.1528622E1,1.6801052E0,3.1298742E0,7.219448E-1,4.3324673E-1,2.47536E0,3.216071E-1,0E0,0E0,0E0,2.4843317E-1,6.316361E-1,0E0,1.3535547E-1,0E0,0E0,0E0,2.867058E-1,6.297431E-1,0E0,0E0,0E0,0E0,1.0183743E-1,2.587055E-1,0E0,0E0,0E0,0E0],"parents":[2147483647,0,0,1,1,2,2,3,3,4,4,5,5,6,6,10,10,11,11,13,13,17,17,18,18,23,23,24,24],"right_children":[2,4,6,8,10,12,14,-1,-1,-1,16,18,-1,20,-1,-1,-1,22,24,-1,-1,-1,-1,26,28,-1,-1,-1,-1],"split_conditions":[-3.8044533E-1,-3.7037036E-1,3.4027976E-1,-5.245218E-1,-4.6151155E-1,3.0322582E-1,2.2791607E0,1.9039026E-2,4.7085453E-3,9.446578E-3,-4.068315E-1,-9.962402E-2,1.7569046E-2,1.1346316E0,-1.2096554E-2,-2.8126042E-3,3.9268774E-3,-1.23783976E-1,-2.0713674E-1,-7.003587E-3,-1.6587363E-3,-6.2185475E-3,8.7259547E-4,5.5189285E-2,-7.3298514E-1,-0E0,5.122161E-3,3.5177383E-3,-2.7296918E-3],"split_indices":[1,9,1,1,11,1,1,0,0,0,8,11,0,15,0,0,0,8,1,0,0,0,0,11,13,0,0,0,0],"split_type":[0,0,0,0,0,0,0,0,0,0,0,0,0,0,0,0,0,0,0,0,0,0,0,0,0,0,0,0,0],"sum_hessian":[1.03E2,2.7E1,7.6E1,1.3E1,1.4E1,4.2E1,3.4E1,1E1,3E0,6E0,8E0,4E1,2E0,2.6E1,8E0,2E0,6E0,1.2E1,2.8E1,2.2E1,4E0,1E1,2E0,1E1,1.8E1,2E0,8E0,2E0,1.6E1],"tree_param":{"num_deleted":"0","num_feature":"16","num_nodes":"29","size_leaf_vector":"1"}},{"base_weights":[-2.4746275E-2,8.551607E-1,-1.8090932E-1,1.9664858E-2,7.6469523E-3,3.2192577E-2,-3.7327084E-1,-5.0533593E-2,3.4305602E-1,-2.533593E-1,-1.0109846E-2,1.0271789E-1,-1.6028295E-1,8.807463E-3,-0E0,-5.616621E-3,-1.4113616E-4,-4.8313112E-4,2.133933E-1,-4.388104E-3,-0E0,5.956044E-3,-0E0],"categories":[],"categories_nodes":[],"categories_segments":[],"categories_sizes":[],"default_left":[0,0,0,0,0,0,0,0,0,0,0,0,0,0,0,0,0,0,0,0,0,0,0],"id":29,"left_children":[1,3,5,-1,-1,7,9,11,13,15,-1,17,19,-1,-1,-1,-1,-1,21,-1,-1,-1,-1],"loss_changes":[1.3690768E1,3.958845E-1,3.530496E0,0E0,0E0,1.1009663E0,5.095129E-1,5.772558E-1,2.9831254E-1,1.4515495E-1,0E0,2.2066484E-1,2.0826733E-1,0E0,0E0,0E0,0E0,0E0,1.6782334E-1,0E0,0E0,0E0,0E0],"parents":[2147483647,0,0,1,1,2,2,5,5,6,6,7,7,8,8,9,9,11,11,12,12,18,18],"right_children":[2,4,6,-1,-1,8,10,12,14,16,-1,18,20,-1,-1,-1,-1,-1,22,-1,-1,-1,-1],"split_conditions":[-3.7037036E-1,1.4552337E0,2.962963E-1,1.9664858E-2,7.6469523E-3,9.104012E-1,1.3971528E0,-1.5194513E-1,3.9432204E-1,7.930491E-1,-1.0109846E-2,1.2216149E-1,8.311741E-1,8.807463E-3,-0E0,-5.616621E-3,-1.4113616E-4,-4.8313112E-4,-1.0502481E-1,-4.388104E-3,-0E0,5.956044E-3,-0E0],"split_indices":[9,13,9,0,0,8,0,0,11,8,0,3,11,0,0,0,0,0,8,0,0,0,0],"split_type":[0,0,0,0,0,0,0,0,0,0,0,0,0,0,0,0,0,0,0,0,0,0,0],"sum_hessian":[9.8E1,1.4E1,8.4E1,1E1,4E0,4E1,4.4E1,3.2E1,8E0,2.5E1,1.9E1,1.3E1,1.9E1,6E0,2E0,2.2E1,3E0,6E0,7E0,1.4E1,5E0,5E0,2E0],"tree_param":{"num_deleted":"0","num_feature":"16","num_nodes":"23","size_leaf_vector":"1"}},{"base_weights":[6.5308325E-3,2.5448665E-1,-2.2055398E-1,4.2000976E-1,-3.9163508E-2,-2.759504E-1,1.4858085E-2,2.621341E-1,1.43067045E-2,3.343648E-1,-1.7691195E-1,-1.8363877E-1,-8.0047175E-3,-6.5605836E-3,3.7784562E-1,1.1341631E-2,-0E0,-4.9558967E-1,4.408565E-2,-2.1476448E-1,1.1030186E-3,5.127648E-1,5.9017796E-2,-2.5374214E-3,-1.2464625E-2,-3.2327008E-3,3.811037E-3,-2.4102263E-1,1.0212184E-3,1.2532368E-2,1.4987899E-3,-2.8135853E-3,5.3792084E-3,-2.843781E-1,-0E0,-2.2857207E-1,-1.0565844E-2,-1.1966861E-3,-5.78943E-3],"categories":[],"categories_nodes":[],"categories_segments":[],"categories_sizes":[],"default_left":[0,0,0,0,0,0,0,0,0,0,0,0,0,0,0,0,0,0,0,0,0,0,0,0,0,0,0,0,0,0,0,0,0,0,0,0,0,0,0],"id":30,"left_children":[1,3,5,7,9,11,-1,13,-1,15,17,19,-1,-1,21,-1,-1,23,25,27,-1,29,31,-1,-1,-1,-1,33,-1,-1,-1,-1,-1,35,-1,37,-1,-1,-1],"loss_changes":[5.6339145E0,2.3876164E0,2.93366E0,1.1601052E0,9.6956086E-1,4.4176364E-1,0E0,1.6312773E0,0E0,4.057454E-1,1.052977E0,2.5821328E-1,0E0,0E0,7.298629E-1,0E0,0E0,1.2830257E-1,3.0487168E-1,2.2674537E-1,0E0,5.3091E-1,3.4413975E-1,0E0,0E0,0E0,0E0,2.6877034E-1,0E0,0E0,0E0,0E0,0E0,1.030221E-1,0E0,1.5326977E-1,0E0,0E0,0E0],"parents":[2147483647,0,0,1,1,2,2,3,3,4,4,5,5,7,7,9,9,10,10,11,11,14,14,17,17,18,18,19,19,21,21,22,22,27,27,33,33,35,35],"right_children":[2,4,6,8,10,12,-1,14,-1,16,18,20,-1,-1,22,-1,-1,24,26,28,-1,30,32,-1,-1,-1,-1,34,-1,-1,-1,-1,-1,36,-1,38,-1,-1,-1],"split_conditions":[-2.3952097E-2,2.9908404E-1,8.99599E-1,4.1309137E-2,-5.312753E-1,2.5130153E-1,1.4858085E-2,-1.09825626E-1,1.43067045E-2,-5.0223225E-1,-5.2656215E-1,4.8390198E-1,-8.0047175E-3,-6.5605836E-3,-2.035928E-1,1.1341631E-2,-0E0,4.638612E-2,-2.3118636E-1,1.1319659E-1,1.1030186E-3,2.3812916E0,-1.9161677E-1,-2.5374214E-3,-1.2464625E-2,-3.2327008E-3,3.811037E-3,9.7659695E-1,1.0212184E-3,1.2532368E-2,1.4987899E-3,-2.8135853E-3,5.3792084E-3,9.807693E0,-0E0,-7.679107E-1,-1.0565844E-2,-1.1966861E-3,-5.78943E-3],"split_indices":[2,3,13,15,11,14,0,3,0,15,8,13,0,0,2,0,0,14,14,14,0,13,2,0,0,0,0,15,0,0,0,0,0,12,0,14,0,0,0],"split_type":[0,0,0,0,0,0,0,0,0,0,0,0,0,0,0,0,0,0,0,0,0,0,0,0,0,0,0,0,0,0,0,0,0,0,0,0,0,0,0],"sum_hessian":[9.8E1,4.7E1,5.1E1,3E1,1.7E1,4.9E1,2E0,2.1E1,9E0,4E0,1.3E1,3E1,1.9E1,3E0,1.8E1,2E0,2E0,5E0,8E0,2.7E1,3E0,1.2E1,6E0,2E0,3E0,3E0,5E0,2.5E1,2E0,9E0,3E0,3E0,3E0,2.1E1,4E0,1.9E1,2E0,6E0,1.3E1],"tree_param":{"num_deleted":"0","num_feature":"16","num_nodes":"39","size_leaf_vector":"1"}},{"base_weights":[1.8118016E-2,3.5688663E-1,-2.2578542E-1,-5.5614943E-3,4.3367398E-1,-5.4376893E-2,-4.0392396E-1,1.7619E-2,2.610383E-1,-1.5067592E-1,1.722612E-2,-6.0786176E-3,-1.2068306E-2,3.4982532E-1,1.481821E-1,-3.4446586E-2,-2.2481155E-1,7.7062952E-3,9.219195E-4,-7.589167E-4,2.875947E-1,4.5393057E-2,-3.8253723E-3,-5.5019846E-3,-0E0,-0E0,7.180836E-3,4.455263E-3,-4.5643403E-4],"categories":[],"categories_nodes":[],"categories_segments":[],"categories_sizes":[],"default_left":[0,0,0,0,0,0,0,0,0,0,0,0,0,0,0,0,0,0,0,0,0,0,0,0,0,0,0,0,0],"id":31,"left_children":[1,3,5,-1,7,9,11,-1,13,15,-1,-1,-1,17,19,21,23,-1,-1,-1,25,27,-1,-1,-1,-1,-1,-1,-1],"loss_changes":[8.273746E0,2.183948E0,1.7032051E0,0E0,2.5900402E0,2.7922761E0,2.844057E-1,0E0,1.8894613E-1,2.1621543E-1,0E0,0E0,0E0,1.00785255E-1,4.251066E-1,1.8603784E-1,2.0033038E-1,0E0,0E0,0E0,1.5798068E-1,1.339713E-1,0E0,0E0,0E0,0E0,0E0,0E0,0E0],"parents":[2147483647,0,0,1,1,2,2,4,4,5,5,6,6,8,8,9,9,13,13,14,14,15,15,16,16,20,20,21,21],"right_children":[2,4,6,-1,8,10,12,-1,14,16,-1,-1,-1,18,20,22,24,-1,-1,-1,26,28,-1,-1,-1,-1,-1,-1,-1],"split_conditions":[-1.9920069E-1,-6.581216E-1,4.568941E-1,-5.5614943E-3,-5.580931E-1,2.6923077E0,2.2791607E0,1.7619E-2,-3.8044533E-1,7.522124E-2,1.722612E-2,-6.0786176E-3,-1.2068306E-2,-1.4814815E-1,-2.2429906E-1,-1.2345679E-2,6.5384614E-1,7.7062952E-3,9.219195E-4,-7.589167E-4,-3.3808166E-1,-2.035928E-1,-3.8253723E-3,-5.5019846E-3,-0E0,-0E0,7.180836E-3,4.455263E-3,-4.5643403E-4],"split_indices":[1,1,1,0,1,12,1,0,1,1,0,0,0,9,7,9,12,0,0,0,1,2,0,0,0,0,0,0,0],"split_type":[0,0,0,0,0,0,0,0,0,0,0,0,0,0,0,0,0,0,0,0,0,0,0,0,0,0,0,0,0],"sum_hessian":[9.8E1,4.1E1,5.7E1,4E0,3.7E1,3E1,2.7E1,9E0,2.8E1,2.8E1,2E0,2E1,7E0,1.4E1,1.4E1,1.2E1,1.6E1,1.2E1,2E0,6E0,8E0,8E0,4E0,1.3E1,3E0,2E0,6E0,2E0,6E0],"tree_param":{"num_deleted":"0","num_feature":"16","num_nodes":"29","size_leaf_vector":"1"}},{"base_weights":[4.365476E-2,5.9859604E-1,-1.8056001E-1,8.144502E-1,3.7973985E-1,-8.635354E-3,-3.9087138E-1,1.8927462E-2,4.4609946E-3,3.1579696E-2,1.0276833E-2,-7.530378E-2,1.6996441E-2,-2.9866776E-1,-1.1849026E-2,-2.8384542E-3,3.5762314E-3,-1.8241164E-1,7.445461E-2,-2.7280548E-6,-3.2027325E-1,-0E0,-4.4389023E-3,5.197095E-3,-8.2409993E-4,-7.0728194E-3,-9.673257E-4],"categories":[],"categories_nodes":[],"categories_segments":[],"categories_sizes":[],"default_left":[0,0,0,0,0,0,0,0,0,0,0,0,0,0,0,0,0,0,0,0,0,0,0,0,0,0,0],"id":32,"left_children":[1,3,5,7,9,11,13,-1,-1,15,-1,17,-1,19,-1,-1,-1,21,23,-1,25,-1,-1,-1,-1,-1,-1],"loss_changes":[1.2965767E1,9.8853207E-1,2.6323447E0,7.6424026E-1,7.229421E-1,2.3902872E0,3.472929E-1,0E0,0E0,1.8233684E-1,0E0,6.6598916E-1,0E0,1.2916303E-1,0E0,0E0,0E0,1.866166E-1,3.9710855E-1,0E0,1.513722E-1,0E0,0E0,0E0,0E0,0E0,0E0],"parents":[2147483647,0,0,1,1,2,2,3,3,4,4,5,5,6,6,9,9,11,11,13,13,17,17,18,18,20,20],"right_children":[2,4,6,8,10,12,14,-1,-1,16,-1,18,-1,20,-1,-1,-1,22,24,-1,26,-1,-1,-1,-1,-1,-1],"split_conditions":[-3.8044533E-1,-3.9506173E-1,3.4027976E-1,-1.5384616E-1,-3.2364273E-1,3.0322582E-1,2.2791607E0,1.8927462E-2,4.4609946E-3,-4.068315E-1,1.0276833E-2,2.5057748E-1,1.6996441E-2,2.8366378E-1,-1.1849026E-2,-2.8384542E-3,3.5762314E-3,-3.108764E-1,-1.9920069E-1,-2.7280548E-6,1.2317709E0,-0E0,-4.4389023E-3,5.197095E-3,-8.2409993E-4,-7.0728194E-3,-9.673257E-4],"split_indices":[1,9,1,12,15,1,1,0,0,8,0,8,0,0,0,0,0,1,1,0,15,0,0,0,0,0,0],"split_type":[0,0,0,0,0,0,0,0,0,0,0,0,0,0,0,0,0,0,0,0,0,0,0,0,0,0,0],"sum_hessian":[1.02E2,2.9E1,7.3E1,1.3E1,1.6E1,4.1E1,3.2E1,1E1,3E0,5E0,1.1E1,3.9E1,2E0,2.4E1,8E0,2E0,3E0,2.3E1,1.6E1,2E0,2.2E1,4E0,1.9E1,6E0,1E1,1.9E1,3E0],"tree_param":{"num_deleted":"0","num_feature":"16","num_nodes":"27","size_leaf_vector":"1"}},{"base_weights":[5.0381623E-2,5.7150424E-1,-1.5415731E-1,6.463377E-1,2.1587282E-3,-3.590958E-2,-3.8447508E-1,1.7426843E-2,3.778887E-1,-8.849172E-2,1.3928087E-2,-8.822337E-3,1.7592319E-3,5.1186204E-1,-0E0,-1.4407931E-1,9.935525E-2,2.1569498E-3,5.9760225E-1,2.0777859E-2,-4.16518E-3,7.0715845E-3,-9.1646984E-4,3.3563774E-3,1.4319035E-2,3.6961024E-3,-1.2326911E-3],"categories":[],"categories_nodes":[],"categories_segments":[],"categories_sizes":[],"default_left":[0,0,0,0,0,0,0,0,0,0,0,0,0,0,0,0,0,0,0,0,0,0,0,0,0,0,0],"id":33,"left_children":[1,3,5,7,-1,9,11,-1,13,15,-1,-1,-1,17,-1,19,21,-1,23,25,-1,-1,-1,-1,-1,-1,-1],"loss_changes":[9.8295145E0,7.5675964E-1,1.7416359E0,8.7465477E-1,0E0,1.7336334E0,6.628289E-1,0E0,6.444262E-1,4.6779174E-1,0E0,0E0,0E0,1.7676783E-1,0E0,3.8281173E-1,4.16057E-1,0E0,1.4752555E-1,1.5888628E-1,0E0,0E0,0E0,0E0,0E0,0E0,0E0],"parents":[2147483647,0,0,1,1,2,2,3,3,5,5,6,6,8,8,9,9,13,13,15,15,16,16,18,18,19,19],"right_children":[2,4,6,8,-1,10,12,-1,14,16,-1,-1,-1,18,-1,20,22,-1,24,26,-1,-1,-1,-1,-1,-1,-1],"split_conditions":[-3.5439768E-1,2.3812916E0,9.692257E-1,-4.3719667E-1,2.1587282E-3,6.727354E-1,8.9480746E-1,1.7426843E-2,1.5838514E-1,7.930491E-1,1.3928087E-2,-8.822337E-3,1.7592319E-3,-3.6766878E-1,-0E0,-1.5194513E-1,5.043431E-1,2.1569498E-3,5.1793414E-1,-3.0028868E-1,-4.16518E-3,7.0715845E-3,-9.1646984E-4,3.3563774E-3,1.4319035E-2,3.6961024E-3,-1.2326911E-3],"split_indices":[0,13,0,11,0,0,8,0,3,8,0,0,0,11,0,0,11,0,8,3,0,0,0,0,0,0,0],"split_type":[0,0,0,0,0,0,0,0,0,0,0,0,0,0,0,0,0,0,0,0,0,0,0,0,0,0,0],"sum_hessian":[9E1,2.5E1,6.5E1,2.1E1,4E0,4.4E1,2.1E1,1E1,1.1E1,4.2E1,2E0,1.9E1,2E0,8E0,3E0,3.3E1,9E0,2E0,6E0,9E0,2.4E1,3E0,6E0,2E0,4E0,3E0,6E0],"tree_param":{"num_deleted":"0","num_feature":"16","num_nodes":"27","size_leaf_vector":"1"}},{"base_weights":[6.6385284E-2,5.378797E-1,-1.3900502E-1,7.010818E-1,3.3481005E-1,1.429661E-2,-1.7556302E-1,7.800229E-1,4.885057E-3,1.895708E-1,1.735313E-2,8.922475E-3,-3.2026783E-1,1.6885882E-2,5.020417E-3,3.704821E-1,-1.12786265E-2,9.782818E-2,-9.8879315E-2,-0E0,-3.4891406E-1,1.2316704E-2,3.1665233E-3,-2.2087956E-3,1.7236473E-1,-3.1098332E-3,2.8242503E-4,-7.6390663E-3,-2.0678428E-3,4.1989936E-3,-4.1934796E-5],"categories":[],"categories_nodes":[],"categories_segments":[],"categories_sizes":[],"default_left":[0,0,0,0,0,0,0,0,0,0,0,0,0,0,0,0,0,0,0,0,0,0,0,0,0,0,0,0,0,0,0],"id":34,"left_children":[1,3,5,7,9,-1,11,13,-1,15,-1,17,19,-1,-1,21,-1,23,25,-1,27,-1,-1,-1,29,-1,-1,-1,-1,-1,-1],"loss_changes":[9.895534E0,6.89065E-1,2.2878017E0,2.8405046E-1,9.6803856E-1,0E0,1.8760118E0,1.20527744E-1,0E0,2.0980203E0,0E0,3.0667806E-1,3.8238907E-1,0E0,0E0,4.4971848E-1,0E0,3.0465275E-1,1.0589397E-1,0E0,2.040019E-1,0E0,0E0,0E0,1.1302528E-1,0E0,0E0,0E0,0E0,0E0,0E0],"parents":[2147483647,0,0,1,1,2,2,3,3,4,4,6,6,7,7,9,9,11,11,12,12,15,15,17,17,18,18,20,20,24,24],"right_children":[2,4,6,8,10,-1,12,14,-1,16,-1,18,20,-1,-1,22,-1,24,26,-1,28,-1,-1,-1,30,-1,-1,-1,-1,-1,-1],"split_conditions":[-3.8992292E-1,1.0485889E-1,-1.6823477E0,-2.8395063E-1,2.7769598E-1,1.429661E-2,2.2891808E-1,2.5856328E0,4.885057E-3,1.9523336E-1,1.735313E-2,-1.2345679E-2,-8.832497E-1,1.6885882E-2,5.020417E-3,-5.66106E-1,-1.12786265E-2,-5.412222E-1,6.3159746E-1,-0E0,1.1346316E0,1.2316704E-2,3.1665233E-3,-2.2087956E-3,-1.1475878E-2,-3.1098332E-3,2.8242503E-4,-7.6390663E-3,-2.0678428E-3,4.1989936E-3,-4.1934796E-5],"split_indices":[1,3,14,9,14,0,1,8,0,14,0,9,15,0,0,0,0,8,15,0,15,0,0,0,1,0,0,0,0,0,0],"split_type":[0,0,0,0,0,0,0,0,0,0,0,0,0,0,0,0,0,0,0,0,0,0,0,0,0,0,0,0,0,0,0],"sum_hessian":[1E2,3E1,7E1,1.5E1,1.5E1,2E0,6.8E1,1.2E1,3E0,1.3E1,2E0,3E1,3.8E1,1E1,2E0,1.1E1,2E0,1.7E1,1.3E1,3E0,3.5E1,4E0,7E0,4E0,1.3E1,9E0,4E0,3E1,5E0,1.1E1,2E0],"tree_param":{"num_deleted":"0","num_feature":"16","num_nodes":"31","size_leaf_vector":"1"}},{"base_weights":[2.739775E-3,3.8387698E-1,-2.1127604E-1,-1.2169232E-1,4.6474576E-1,-2.4908792E-2,-3.9945087E-1,-6.2133716E-3,5.0925923E-4,8.0325735E-1,2.3904593E-1,-1.0250582E-1,1.6589876E-2,-6.3721263E-3,-1.1032343E-2,1.8002579E-2,2.9395127E-3,3.354176E-1,-1.095826E-3,-1.3308759E-1,4.4906996E-3,1.5080791E-3,8.149436E-3,-3.5456237E-3,1.696691E-3,-1.6178423E-1,1.6646994E-3,8.9867023E-4,-2.0065641E-1,-6.756762E-3,-2.6858354E-3],"categories":[],"categories_nodes":[],"categories_segments":[],"categories_sizes":[],"default_left":[0,0,0,0,0,0,0,0,0,0,0,0,0,0,0,0,0,0,0,0,0,0,0,0,0,0,0,0,0,0,0],"id":35,"left_children":[1,3,5,7,9,11,13,-1,-1,15,17,19,-1,-1,-1,-1,-1,21,23,25,-1,-1,-1,-1,-1,27,-1,-1,29,-1,-1],"loss_changes":[8.826288E0,1.6853681E0,2.3674185E0,2.0328423E-1,2.301422E0,2.399097E0,1.554904E-1,0E0,0E0,5.8946896E-1,5.4294276E-1,3.6078858E-1,0E0,0E0,0E0,0E0,0E0,2.2074866E-1,1.3026196E-1,2.1996844E-1,0E0,0E0,0E0,0E0,0E0,2.576201E-1,0E0,0E0,1.3501847E-1,0E0,0E0],"parents":[2147483647,0,0,1,1,2,2,3,3,4,4,5,5,6,6,9,9,10,10,11,11,17,17,18,18,19,19,25,25,28,28],"right_children":[2,4,6,8,10,12,14,-1,-1,16,18,20,-1,-1,-1,-1,-1,22,24,26,-1,-1,-1,-1,-1,28,-1,-1,30,-1,-1],"split_conditions":[-2.5555238E-1,-5.66106E-1,4.568941E-1,1.2623854E-1,-5.245218E-1,2.6923077E0,2.2791607E0,-6.2133716E-3,5.0925923E-4,1.4552337E0,-1.3056757E-1,1.6970254E0,1.6589876E-2,-6.3721263E-3,-1.1032343E-2,1.8002579E-2,2.9395127E-3,-4.5649314E-1,-1.9161677E-1,6.5384614E-1,4.4906996E-3,1.5080791E-3,8.149436E-3,-3.5456237E-3,1.696691E-3,-7.3298514E-1,1.6646994E-3,8.9867023E-4,-1.6309188E-1,-6.756762E-3,-2.6858354E-3],"split_indices":[1,0,1,14,1,12,1,0,0,13,0,3,0,0,0,0,0,0,2,12,0,0,0,0,0,13,0,0,8,0,0],"split_type":[0,0,0,0,0,0,0,0,0,0,0,0,0,0,0,0,0,0,0,0,0,0,0,0,0,0,0,0,0,0,0],"sum_hessian":[1.06E2,3.8E1,6.8E1,5E0,3.3E1,3.5E1,3.3E1,2E0,3E0,1.2E1,2.1E1,3.3E1,2E0,2.4E1,9E0,1E1,2E0,1.5E1,6E0,3.1E1,2E0,4E0,1.1E1,2E0,4E0,2.8E1,3E0,4E0,2.4E1,6E0,1.8E1],"tree_param":{"num_deleted":"0","num_feature":"16","num_nodes":"31","size_leaf_vector":"1"}},{"base_weights":[-2.4174383E-2,2.4678686E-1,-2.4038202E-1,1.3840894E-1,5.035609E-1,1.3984291E-2,-2.8821072E-1,4.68688E-2,4.705111E-1,1.52840465E-2,5.8339546E-3,-1.05097406E-1,-7.0040207E-3,1.1494791E-1,-1.0508793E-2,1.1606866E-2,1.945742E-3,-2.9262148E-3,6.0240633E-4,2.742512E-1,8.596099E-3,-7.2842157E-3,9.83786E-3,5.1505826E-3,-5.599878E-2,-3.650207E-3,9.839741E-4],"categories":[],"categories_nodes":[],"categories_segments":[],"categories_sizes":[],"default_left":[0,0,0,0,0,0,0,0,0,0,0,0,0,0,0,0,0,0,0,0,0,0,0,0,0,0,0],"id":36,"left_children":[1,3,5,7,9,-1,11,13,15,-1,-1,17,-1,19,-1,-1,-1,-1,-1,21,23,-1,-1,-1,25,-1,-1],"loss_changes":[6.0928235E0,1.1462228E0,2.766923E0,9.5983285E-1,3.8935804E-1,0E0,5.533347E-1,1.110292E0,1.6272128E-1,0E0,0E0,1.0519038E-1,0E0,4.0985474E-1,0E0,0E0,0E0,0E0,0E0,1.5814812E0,3.0793098E-1,0E0,0E0,0E0,2.0863225E-1,0E0,0E0],"parents":[2147483647,0,0,1,1,2,2,3,3,4,4,6,6,7,7,8,8,11,11,13,13,19,19,20,20,24,24],"right_children":[2,4,6,8,10,-1,12,14,16,-1,-1,18,-1,20,-1,-1,-1,-1,-1,22,24,-1,-1,-1,26,-1,-1],"split_conditions":[-4.0622324E-2,9.192118E-1,-1.6823477E0,2.7769598E-1,-5.580931E-1,1.3984291E-2,2.3123038E-1,2.5130153E-1,-2.035928E-1,1.52840465E-2,5.8339546E-3,6.2803495E-1,-7.0040207E-3,-4.6337426E-1,-1.0508793E-2,1.1606866E-2,1.945742E-3,-2.9262148E-3,6.0240633E-4,-6.2602884E-1,-5.519383E-1,-7.2842157E-3,9.83786E-3,5.1505826E-3,-1.9161677E-1,-3.650207E-3,9.839741E-4],"split_indices":[1,13,14,14,1,0,1,14,2,0,0,8,0,1,0,0,0,0,0,14,14,0,0,0,2,0,0],"split_type":[0,0,0,0,0,0,0,0,0,0,0,0,0,0,0,0,0,0,0,0,0,0,0,0,0,0,0],"sum_hessian":[1.02E2,4.5E1,5.7E1,3.3E1,1.2E1,2E0,5.5E1,2.7E1,6E0,4E0,8E0,1.5E1,4E1,2.5E1,2E0,4E0,2E0,1.2E1,3E0,9E0,1.6E1,2E0,7E0,3E0,1.3E1,6E0,7E0],"tree_param":{"num_deleted":"0","num_feature":"16","num_nodes":"27","size_leaf_vector":"1"}},{"base_weights":[-1.8845466E-3,4.488549E-1,-1.8348852E-1,-0E0,5.5889267E-1,1.3797833E-2,-2.1823718E-1,-6.167861E-3,1.9548021E-1,6.716986E-1,1.7469285E-1,-5.052602E-2,-3.3844003E-1,1.0576544E-2,-3.3938717E-3,1.5482598E-2,6.4229504E-3,-0E0,5.0724754E-3,5.7282314E-2,-2.4615026E-3,-0E0,-3.6651468E-1,-8.7834165E-2,3.4291875E-3,-7.6908497E-3,-0E0,2.508521E-3,-5.0164154E-3],"categories":[],"categories_nodes":[],"categories_segments":[],"categories_sizes":[],"default_left":[0,0,0,0,0,0,0,0,0,0,0,0,0,0,0,0,0,0,0,0,0,0,0,0,0,0,0,0,0],"id":37,"left_children":[1,3,5,7,9,-1,11,-1,13,15,17,19,21,-1,-1,-1,-1,-1,-1,23,-1,-1,25,27,-1,-1,-1,-1,-1],"loss_changes":[8.568855E0,1.4525442E0,2.379554E0,4.7638136E-1,8.381791E-1,0E0,1.415637E0,0E0,7.343001E-1,2.8819656E-1,1.0800193E-1,2.6391405E-1,4.2823696E-1,0E0,0E0,0E0,0E0,0E0,0E0,2.3881918E-1,0E0,0E0,2.3231173E-1,2.5255036E-1,0E0,0E0,0E0,0E0,0E0],"parents":[2147483647,0,0,1,1,2,2,3,3,4,4,6,6,8,8,9,9,10,10,11,11,12,12,19,19,22,22,23,23],"right_children":[2,4,6,8,10,-1,12,-1,14,16,18,20,22,-1,-1,-1,-1,-1,-1,24,-1,-1,26,28,-1,-1,-1,-1,-1],"split_conditions":[-3.8044533E-1,-5.66106E-1,-1.6823477E0,2.1772158E-1,-2.8395063E-1,1.3797833E-2,2.3123038E-1,-6.167861E-3,-6.9728804E-1,-1.15384616E-1,-3.2364273E-1,-1.8509848E-1,-8.832497E-1,1.0576544E-2,-3.3938717E-3,1.5482598E-2,6.4229504E-3,-0E0,5.0724754E-3,-1.9161677E-1,-2.4615026E-3,-0E0,1.2317709E0,-2.035928E-1,3.4291875E-3,-7.6908497E-3,-0E0,2.508521E-3,-5.0164154E-3],"split_indices":[1,0,14,3,9,0,1,0,1,12,15,1,15,0,0,0,0,0,0,2,0,0,15,2,0,0,0,0,0],"split_type":[0,0,0,0,0,0,0,0,0,0,0,0,0,0,0,0,0,0,0,0,0,0,0,0,0,0,0,0,0],"sum_hessian":[1.03E2,2.9E1,7.4E1,6E0,2.3E1,2E0,7.2E1,2E0,4E0,1.7E1,6E0,3.1E1,4.1E1,2E0,2E0,1.2E1,5E0,2E0,4E0,1.2E1,1.9E1,3E0,3.8E1,5E0,7E0,3.6E1,2E0,2E0,3E0],"tree_param":{"num_deleted":"0","num_feature":"16","num_nodes":"29","size_leaf_vector":"1"}},{"base_weights":[2.5219768E-3,3.385699E-1,-1.8795814E-1,-1.2273314E-1,4.2015857E-1,-2.4900477E-2,-2.8509873E-1,-6.176941E-3,4.5071196E-4,1.8018305E-2,2.892086E-1,-6.001804E-2,4.3860194E-3,-2.1938744E-1,-8.466573E-3,1.8886425E-1,1.9244542E-2,-3.8975812E-3,-6.174473E-3,-2.506093E-1,2.0281037E-3,-0E0,2.681276E-1,3.2087364E-3,-1.4476066E-3,-5.844498E-3,-7.916769E-4,-4.0182522E-3,3.1128936E-3,6.7725996E-3,2.0949692E-3],"categories":[],"categories_nodes":[],"categories_segments":[],"categories_sizes":[],"default_left":[0,0,0,0,0,0,0,0,0,0,0,0,0,0,0,0,0,0,0,0,0,0,0,0,0,0,0,0,0,0,0],"id":38,"left_children":[1,3,5,7,9,11,13,-1,-1,-1,15,17,-1,19,-1,21,-1,-1,23,25,-1,27,29,-1,-1,-1,-1,-1,-1,-1,-1],"loss_changes":[6.3517222E0,1.4362454E0,9.597907E-1,1.9781041E-1,1.572043E0,2.1162774E-1,1.9710302E-1,0E0,0E0,0E0,1.4590344E0,1.4570354E-1,0E0,3.3079004E-1,0E0,3.6609793E-1,0E0,0E0,2.0135841E-1,1.9236445E-1,0E0,2.8258988E-1,1.16007805E-1,0E0,0E0,0E0,0E0,0E0,0E0,0E0,0E0],"parents":[2147483647,0,0,1,1,2,2,3,3,4,4,5,5,6,6,10,10,11,11,13,13,15,15,18,18,19,19,21,21,22,22],"right_children":[2,4,6,8,10,12,14,-1,-1,-1,16,18,-1,20,-1,22,-1,-1,24,26,-1,28,30,-1,-1,-1,-1,-1,-1,-1,-1],"split_conditions":[-2.5555238E-1,-5.66106E-1,2.2891808E-1,1.2623854E-1,-5.864973E-1,1.6970254E0,1.5675992E0,-6.176941E-3,4.5071196E-4,1.8018305E-2,8.274413E-1,-9.962402E-2,4.3860194E-3,1.0864407E0,-8.466573E-3,-3.2364273E-1,1.9244542E-2,-3.8975812E-3,-7.4074075E-2,9.789786E-1,2.0281037E-3,-4.3333542E-1,-1.4814815E-1,3.2087364E-3,-1.4476066E-3,-5.844498E-3,-7.916769E-4,-4.0182522E-3,3.1128936E-3,6.7725996E-3,2.0949692E-3],"split_indices":[1,0,1,14,1,3,1,0,0,0,14,11,0,3,0,15,0,0,9,15,0,11,9,0,0,0,0,0,0,0,0],"split_type":[0,0,0,0,0,0,0,0,0,0,0,0,0,0,0,0,0,0,0,0,0,0,0,0,0,0,0,0,0,0,0],"sum_hessian":[9.7E1,3.5E1,6.2E1,5E0,3E1,2.4E1,3.8E1,2E0,3E0,5E0,2.5E1,2.2E1,2E0,2.8E1,1E1,2.3E1,2E0,5E0,1.7E1,2.6E1,2E0,7E0,1.6E1,4E0,1.3E1,2.1E1,5E0,3E0,4E0,1E1,6E0],"tree_param":{"num_deleted":"0","num_feature":"16","num_nodes":"31","size_leaf_vector":"1"}},{"base_weights":[-3.0133301E-2,3.5487288E-1,-2.297438E-1,1.6308989E-1,5.674732E-1,1.0042848E-1,-2.7380756E-1,-1.8248476E-1,3.882155E-1,7.788574E-1,-0E0,5.243704E-3,-0E0,-1.3640964E-1,-6.947788E-3,-4.562033E-1,3.6056917E-3,8.983749E-3,4.4474378E-4,1.8096862E-2,2.158955E-3,-3.0209506E-3,2.6520595E-3,-3.2362528E-3,9.016062E-4,-1.2118136E-2,-2.4219744E-3],"categories":[],"categories_nodes":[],"categories_segments":[],"categories_sizes":[],"default_left":[0,0,0,0,0,0,0,0,0,0,0,0,0,0,0,0,0,0,0,0,0,0,0,0,0,0,0],"id":39,"left_children":[1,3,5,7,9,11,13,15,17,19,21,-1,-1,23,-1,25,-1,-1,-1,-1,-1,-1,-1,-1,-1,-1,-1],"loss_changes":[7.4467387E0,1.1799073E0,9.7594833E-1,1.5695727E0,1.8424206E0,1.2553623E-1,4.8050213E-1,9.042118E-1,2.1064198E-1,7.3082066E-1,1.21196724E-1,0E0,0E0,1.20396405E-1,0E0,1.04756474E-1,0E0,0E0,0E0,0E0,0E0,0E0,0E0,0E0,0E0,0E0,0E0],"parents":[2147483647,0,0,1,1,2,2,3,3,4,4,5,5,6,6,7,7,8,8,9,9,10,10,13,13,15,15],"right_children":[2,4,6,8,10,12,14,16,18,20,22,-1,-1,24,-1,26,-1,-1,-1,-1,-1,-1,-1,-1,-1,-1,-1],"split_conditions":[-9.876543E-2,9.2402086E-2,-5.9444094E-1,-2.6923078E-1,-3.6647245E-1,-4.9505636E-1,3.5388085E-1,-2.8395063E-1,-1.1111111E-1,-1.8691589E-1,-1.9161677E-1,5.243704E-3,-0E0,1E0,-6.947788E-3,-5.6286413E-2,3.6056917E-3,8.983749E-3,4.4474378E-4,1.8096862E-2,2.158955E-3,-3.0209506E-3,2.6520595E-3,-3.2362528E-3,9.016062E-4,-1.2118136E-2,-2.4219744E-3],"split_indices":[9,14,13,12,0,8,0,9,9,7,2,0,0,6,0,0,0,0,0,0,0,0,0,0,0,0,0],"split_type":[0,0,0,0,0,0,0,0,0,0,0,0,0,0,0,0,0,0,0,0,0,0,0,0,0,0,0],"sum_hessian":[9.5E1,3.2E1,6.3E1,1.8E1,1.4E1,7E0,5.6E1,7E0,1.1E1,1E1,4E0,2E0,5E0,2.1E1,3.5E1,4E0,3E0,9E0,2E0,8E0,2E0,2E0,2E0,1.9E1,2E0,2E0,2E0],"tree_param":{"num_deleted":"0","num_feature":"16","num_nodes":"27","size_leaf_vector":"1"}},{"base_weights":[-1.1017761E-3,3.2470956E-1,-1.7724551E-1,3.849163E-1,-9.052112E-3,1.3725996E-2,-2.147588E-1,5.181704E-1,1.1185776E-1,-1.4261891E-1,-8.973383E-3,1.5146922E-1,6.3280207E-1,-1.4245361E-3,3.2142384E-3,-1.8359327E-1,2.7716616E-3,-7.898341E-3,9.380142E-3,1.7046902E-2,1.8311991E-1,-9.068319E-2,-2.5130206E-1,5.2584214E-3,-0E0,5.434744E-4,-1.6711384E-1,-5.751757E-3,-1.3150285E-3,-0E0,-4.539151E-3],"categories":[],"categories_nodes":[],"categories_segments":[],"categories_sizes":[],"default_left":[0,0,0,0,0,0,0,0,0,0,0,0,0,0,0,0,0,0,0,0,0,0,0,0,0,0,0,0,0,0,0],"id":40,"left_children":[1,3,5,7,-1,-1,9,11,13,15,-1,17,19,-1,-1,21,-1,-1,-1,-1,23,25,27,-1,-1,-1,29,-1,-1,-1,-1],"loss_changes":[6.068718E0,1.8990319E0,2.3354504E0,1.1525521E0,0E0,0E0,1.0074589E0,7.92541E-1,1.3667329E-1,6.406138E-1,0E0,1.4071165E0,1.4186907E0,0E0,0E0,2.3868144E-1,0E0,0E0,0E0,0E0,1.1090715E-1,2.1670848E-1,1.2081087E-1,0E0,0E0,0E0,1.24118954E-1,0E0,0E0,0E0,0E0],"parents":[2147483647,0,0,1,1,2,2,3,3,6,6,7,7,8,8,9,9,11,11,12,12,15,15,20,20,21,21,22,22,26,26],"right_children":[2,4,6,8,-1,-1,10,12,14,16,-1,18,20,-1,-1,22,-1,-1,-1,-1,24,26,28,-1,-1,-1,30,-1,-1,-1,-1],"split_conditions":[-2.9865828E-1,9.775054E-1,-1.6823477E0,-2.8395063E-1,-9.052112E-3,1.3725996E-2,1.5675992E0,-6.2602884E-1,-2.4691358E-1,1.0864407E0,-8.973383E-3,-5.188639E-1,-3.364486E-1,-1.4245361E-3,3.2142384E-3,2.2891808E-1,2.7716616E-3,-7.898341E-3,9.380142E-3,1.7046902E-2,1.5838514E-1,-2.0618261E-1,2.8846154E0,5.2584214E-3,-0E0,5.434744E-4,-4.7981766E-1,-5.751757E-3,-1.3150285E-3,-0E0,-4.539151E-3],"split_indices":[1,3,14,9,0,0,1,14,9,3,0,0,7,0,0,1,0,0,0,0,3,13,12,0,0,0,3,0,0,0,0],"split_type":[0,0,0,0,0,0,0,0,0,0,0,0,0,0,0,0,0,0,0,0,0,0,0,0,0,0,0,0,0,0,0],"sum_hessian":[1.04E2,3.6E1,6.8E1,3.4E1,2E0,2E0,6.6E1,2.2E1,1.2E1,5.2E1,1.4E1,6E0,1.6E1,2E0,1E1,4.6E1,6E0,2E0,4E0,1E1,6E0,2.1E1,2.5E1,4E0,2E0,8E0,1.3E1,2E1,5E0,4E0,9E0],"tree_param":{"num_deleted":"0","num_feature":"16","num_nodes":"31","size_leaf_vector":"1"}},{"base_weights":[6.5910374E-3,3.0705652E-1,-1.630061E-1,1.9073538E-1,6.9237864E-1,-2.0254445E-1,1.3766029E-2,2.5577766E-1,-8.931417E-3,1.599029E-2,4.2796144E-3,-4.8401706E-2,-2.9359636E-1,4.1623223E-1,8.230154E-2,-8.445598E-2,4.216299E-3,-0E0,-3.2059872E-1,-7.327335E-2,6.293618E-1,-2.8828548E-3,3.1851567E-3,-1.329055E-1,6.197313E-4,-6.9583463E-3,-1.2327977E-3,-8.4541915E-3,5.3450796E-3,1.6534293E-2,4.93332E-3,-4.1552037E-3,4.4576294E-4],"categories":[],"categories_nodes":[],"categories_segments":[],"categories_sizes":[],"default_left":[0,0,0,0,0,0,0,0,0,0,0,0,0,0,0,0,0,0,0,0,0,0,0,0,0,0,0,0,0,0,0,0,0],"id":41,"left_children":[1,3,5,7,9,11,-1,13,-1,-1,-1,15,17,19,21,23,-1,-1,25,27,29,-1,-1,31,-1,-1,-1,-1,-1,-1,-1,-1,-1],"loss_changes":[5.2112236E0,1.4380081E0,2.2786908E0,1.3386986E0,1.3759828E-1,8.3579373E-1,0E0,6.9527125E-1,0E0,0E0,0E0,2.3881541E-1,3.3845353E-1,1.5623181E0,2.858621E-1,1.4295232E-1,0E0,0E0,1.9227695E-1,7.234794E-1,4.4400072E-1,0E0,0E0,2.2066638E-1,0E0,0E0,0E0,0E0,0E0,0E0,0E0,0E0,0E0],"parents":[2147483647,0,0,1,1,2,2,3,3,4,4,5,5,7,7,11,11,12,12,13,13,14,14,15,15,18,18,19,19,20,20,23,23],"right_children":[2,4,6,8,10,12,-1,14,-1,-1,-1,16,18,20,22,24,-1,-1,26,28,30,-1,-1,32,-1,-1,-1,-1,-1,-1,-1,-1,-1],"split_conditions":[-2.5555238E-1,2.784287E-1,2.026923E1,6.0894096E-1,5.043431E-1,2.2891808E-1,1.3766029E-2,-3.3333334E-1,-8.931417E-3,1.599029E-2,4.2796144E-3,1.6970254E0,-8.832497E-1,-4.3604818E-1,-2.4691358E-1,1.5309826E-1,4.216299E-3,-0E0,1.4107988E0,1.1288614E0,-5.872395E-1,-2.8828548E-3,3.1851567E-3,3.0769232E-1,6.197313E-4,-6.9583463E-3,-1.2327977E-3,-8.4541915E-3,5.3450796E-3,1.6534293E-2,4.93332E-3,-4.1552037E-3,4.4576294E-4],"split_indices":[1,14,12,3,11,1,0,9,0,0,0,3,15,14,9,14,0,0,15,8,1,0,0,12,0,0,0,0,0,0,0,0,0],"split_type":[0,0,0,0,0,0,0,0,0,0,0,0,0,0,0,0,0,0,0,0,0,0,0,0,0,0,0,0,0,0,0,0,0],"sum_hessian":[1E2,3.6E1,6.4E1,2.9E1,7E0,6.2E1,2E0,2.7E1,2E0,5E0,2E0,2.4E1,3.8E1,1.3E1,1.4E1,2.2E1,2E0,3E0,3.5E1,4E0,9E0,3E0,1.1E1,1.6E1,6E0,3.1E1,4E0,2E0,2E0,5E0,4E0,1.1E1,5E0],"tree_param":{"num_deleted":"0","num_feature":"16","num_nodes":"33","size_leaf_vector":"1"}},{"base_weights":[-1.6667042E-2,1.2853962E-1,-3.0960563E-1,1.6842548E-2,3.623266E-1,-2.3585758E-1,-9.9617215E-3,-3.7806153E-1,8.80297E-2,7.393298E-2,7.275255E-1,-5.44847E-3,-1.0380103E-3,-1.0559858E-2,-0E0,2.3079498E-1,-7.664745E-2,-1.8939661E-3,4.073296E-3,1.9568043E-2,6.222873E-3,9.401103E-2,9.9237515E-3,-2.2947206E-3,2.628073E-3,-7.040393E-3,1.9001682E-1,5.4676626E-3,-0E0],"categories":[],"categories_nodes":[],"categories_segments":[],"categories_sizes":[],"default_left":[0,0,0,0,0,0,0,0,0,0,0,0,0,0,0,0,0,0,0,0,0,0,0,0,0,0,0,0,0],"id":42,"left_children":[1,3,5,7,9,11,-1,13,15,17,19,-1,-1,-1,-1,21,23,-1,-1,-1,-1,25,-1,-1,-1,-1,27,-1,-1],"loss_changes":[4.226493E0,1.6794596E0,2.678306E-1,1.2974337E0,2.0778077E0,1.2831938E-1,0E0,3.9336896E-1,9.735118E-1,3.145824E-1,5.067663E-1,0E0,0E0,0E0,0E0,6.929648E-1,1.63973E-1,0E0,0E0,0E0,0E0,7.358339E-1,0E0,0E0,0E0,0E0,2.4189395E-1,0E0,0E0],"parents":[2147483647,0,0,1,1,2,2,3,3,4,4,5,5,7,7,8,8,9,9,10,10,15,15,16,16,21,21,26,26],"right_children":[2,4,6,8,10,12,-1,14,16,18,20,-1,-1,-1,-1,22,24,-1,-1,-1,-1,26,-1,-1,-1,-1,28,-1,-1],"split_conditions":[3.4027976E-1,4.9643648E-1,2.2791607E0,-7.172123E-1,-2.4420756E-1,5.64486E0,-9.9617215E-3,-1.6069314E-1,-2.0713674E-1,-3.090106E-1,1.4552337E0,-5.44847E-3,-1.0380103E-3,-1.0559858E-2,-0E0,1.4062494E-1,9.0582186E-1,-1.8939661E-3,4.073296E-3,1.9568043E-2,6.222873E-3,-5.8387095E-1,9.9237515E-3,-2.2947206E-3,2.628073E-3,-7.040393E-3,-1.0128116E-1,5.4676626E-3,-0E0],"split_indices":[1,13,1,15,15,7,0,8,1,8,13,0,0,0,0,3,14,0,0,0,0,1,0,0,0,0,3,0,0],"split_type":[0,0,0,0,0,0,0,0,0,0,0,0,0,0,0,0,0,0,0,0,0,0,0,0,0,0,0,0,0],"sum_hessian":[9.7E1,6.5E1,3.2E1,4.5E1,2E1,2.5E1,7E0,6E0,3.9E1,1.2E1,8E0,2E1,5E0,4E0,2E0,2.1E1,1.8E1,5E0,7E0,4E0,4E0,1.5E1,6E0,1.6E1,2E0,2E0,1.3E1,9E0,4E0],"tree_param":{"num_deleted":"0","num_feature":"16","num_nodes":"29","size_leaf_vector":"1"}},{"base_weights":[-2.1033327E-3,3.0752096E-1,-2.0843385E-1,2.4964961E-1,1.8480156E-2,1.3344272E-2,-2.5040898E-1,4.5753914E-1,1.1092992E-1,-1.90938E-1,-9.777526E-3,-1.514836E-1,7.0186406E-1,-3.2239696E-1,4.8076296E-3,-2.2019495E-1,1.9282723E-3,4.4439584E-3,-1.0160077E-2,1.605751E-2,2.6308345E-3,-1.1611634E-2,-4.6318304E-4,-2.3473085E-1,-0E0,-2.583524E-3,-5.8986573E-3],"categories":[],"categories_nodes":[],"categories_segments":[],"categories_sizes":[],"default_left":[0,0,0,0,0,0,0,0,0,0,0,0,0,0,0,0,0,0,0,0,0,0,0,0,0,0,0],"id":43,"left_children":[1,3,5,7,-1,-1,9,11,13,15,-1,17,19,21,-1,23,-1,-1,-1,-1,-1,-1,-1,25,-1,-1,-1],"loss_changes":[6.5704527E0,1.1147094E0,2.4042325E0,1.0170949E0,0E0,0E0,6.8958735E-1,2.3933508E0,1.471668E0,4.5395947E-1,0E0,8.0758333E-1,4.346466E-1,3.8973212E-1,0E0,1.3889122E-1,0E0,0E0,0E0,0E0,0E0,0E0,0E0,1.9273877E-1,0E0,0E0,0E0],"parents":[2147483647,0,0,1,1,2,2,3,3,6,6,7,7,8,8,9,9,11,11,12,12,13,13,15,15,23,23],"right_children":[2,4,6,8,-1,-1,10,12,14,16,-1,18,20,22,-1,24,-1,-1,-1,-1,-1,-1,-1,26,-1,-1,-1],"split_conditions":[-1.9920069E-1,1.7784747E0,-1.6823477E0,-3.364486E-1,1.8480156E-2,1.3344272E-2,1.9767057E0,-3.6141413E-1,-4.3333542E-1,1.0864407E0,-9.777526E-3,-8.2474476E-1,2.0962137E-1,-3.109867E-1,4.8076296E-3,1.1346316E0,1.9282723E-3,4.4439584E-3,-1.0160077E-2,1.605751E-2,2.6308345E-3,-1.1611634E-2,-4.6318304E-4,2.3123038E-1,-0E0,-2.583524E-3,-5.8986573E-3],"split_indices":[1,14,14,7,0,0,1,14,11,3,0,14,14,13,0,15,0,0,0,0,0,0,0,1,0,0,0],"split_type":[0,0,0,0,0,0,0,0,0,0,0,0,0,0,0,0,0,0,0,0,0,0,0,0,0,0,0],"sum_hessian":[1.01E2,4E1,6.1E1,3.8E1,2E0,2E0,5.9E1,1.4E1,2.4E1,4.9E1,1E1,4E0,1E1,5E0,1.9E1,4.5E1,4E0,2E0,2E0,8E0,2E0,2E0,3E0,4.2E1,3E0,1.7E1,2.5E1],"tree_param":{"num_deleted":"0","num_feature":"16","num_nodes":"27","size_leaf_vector":"1"}},{"base_weights":[5.9048412E-3,2.5780934E-1,-1.4854246E-1,-3.6926132E-3,3.3124554E-1,1.3166348E-2,-1.8742833E-1,6.247024E-1,2.1307793E-1,-4.9969792E-2,-2.6668033E-1,1.4242179E-2,3.5837253E-3,3.1176668E-1,8.2714826E-2,-1.7276243E-3,4.0074126E-3,-0E0,-5.5813054E-3,8.399329E-3,1.6167847E-3,2.93835E-3,-1.469412E-3],"categories":[],"categories_nodes":[],"categories_segments":[],"categories_sizes":[],"default_left":[0,0,0,0,0,0,0,0,0,0,0,0,0,0,0,0,0,0,0,0,0,0,0],"id":44,"left_children":[1,3,5,-1,7,-1,9,11,13,15,17,-1,-1,19,21,-1,-1,-1,-1,-1,-1,-1,-1],"loss_changes":[3.9787252E0,1.342973E0,2.0529513E0,0E0,9.621327E-1,0E0,6.1953473E-1,1.3373971E-1,2.6926386E-1,2.2467539E-1,1.01088524E-1,0E0,0E0,2.6577783E-1,1.4849663E-1,0E0,0E0,0E0,0E0,0E0,0E0,0E0,0E0],"parents":[2147483647,0,0,1,1,2,2,4,4,6,6,7,7,8,8,9,9,10,10,13,13,14,14],"right_children":[2,4,6,-1,8,-1,10,12,14,16,18,-1,-1,20,22,-1,-1,-1,-1,-1,-1,-1,-1],"split_conditions":[-1.9920069E-1,-5.66106E-1,-1.6823477E0,-3.6926132E-3,-5.580931E-1,1.3166348E-2,2.2891808E-1,-3.8271606E-1,-2.8395063E-1,1.0395117E0,-1.5194513E-1,1.4242179E-2,3.5837253E-3,1.0485889E-1,9.2402086E-2,-1.7276243E-3,4.0074126E-3,-0E0,-5.5813054E-3,8.399329E-3,1.6167847E-3,2.93835E-3,-1.469412E-3],"split_indices":[1,0,14,0,1,0,1,9,9,14,0,0,0,3,14,0,0,0,0,0,0,0,0],"split_type":[0,0,0,0,0,0,0,0,0,0,0,0,0,0,0,0,0,0,0,0,0,0,0],"sum_hessian":[1E2,3.8E1,6.2E1,5E0,3.3E1,2E0,6E1,8E0,2.5E1,2.3E1,3.7E1,6E0,2E0,1.3E1,1.2E1,2.1E1,2E0,2E0,3.5E1,8E0,5E0,9E0,3E0],"tree_param":{"num_deleted":"0","num_feature":"16","num_nodes":"23","size_leaf_vector":"1"}},{"base_weights":[4.0784087E-3,2.6766065E-1,-1.4791839E-1,-3.6310693E-3,3.4200254E-1,1.2990798E-2,-1.8398695E-1,6.849921E-1,1.6638221E-1,-7.260866E-2,-2.80461E-1,1.5990345E-2,1.5950538E-3,2.6934788E-1,1.1118431E-2,5.0897757E-3,-1.0623144E-1,-3.6119516E-3,-6.8906453E-3,2.2828188E-3,7.879265E-3,-1.8251635E-3,4.7618407E-3,-1.34537E-1,8.440743E-4,-4.8300162E-2,-5.1537184E-3,7.832493E-4,-2.1731637E-3],"categories":[],"categories_nodes":[],"categories_segments":[],"categories_sizes":[],"default_left":[0,0,0,0,0,0,0,0,0,0,0,0,0,0,0,0,0,0,0,0,0,0,0,0,0,0,0,0,0],"id":45,"left_children":[1,3,5,-1,7,-1,9,11,13,15,17,-1,-1,19,21,-1,23,-1,-1,-1,-1,-1,-1,25,-1,27,-1,-1,-1],"loss_changes":[4.2582498E0,1.3805583E0,2.000084E0,0E0,1.8489139E0,0E0,6.427617E-1,6.107755E-1,3.5264277E-1,3.641427E-1,1.02810144E-1,0E0,0E0,1.7499864E-1,2.920159E-1,0E0,1.409575E-1,0E0,0E0,0E0,0E0,0E0,0E0,2.3307443E-1,0E0,1.0094912E-1,0E0,0E0,0E0],"parents":[2147483647,0,0,1,1,2,2,4,4,6,6,7,7,8,8,9,9,10,10,13,13,14,14,16,16,23,23,25,25],"right_children":[2,4,6,-1,8,-1,10,12,14,16,18,-1,-1,20,22,-1,24,-1,-1,-1,-1,-1,-1,26,-1,28,-1,-1,-1],"split_conditions":[-9.876543E-2,-5.66106E-1,-1.6823477E0,-3.6310693E-3,-3.9506173E-1,1.2990798E-2,3.5388085E-1,-1.8691589E-1,-1.3056757E-1,-4.9505636E-1,9.0123457E-1,1.5990345E-2,1.5950538E-3,-4.1136533E-1,6.4457804E-1,5.0897757E-3,1.0864407E0,-3.6119516E-3,-6.8906453E-3,2.2828188E-3,7.879265E-3,-1.8251635E-3,4.7618407E-3,8.424908E-3,8.440743E-4,-9.3457945E-2,-5.1537184E-3,7.832493E-4,-2.1731637E-3],"split_indices":[9,0,14,0,9,0,0,7,0,8,9,0,0,0,8,0,3,0,0,0,0,0,0,3,0,7,0,0,0],"split_type":[0,0,0,0,0,0,0,0,0,0,0,0,0,0,0,0,0,0,0,0,0,0,0,0,0,0,0,0,0],"sum_hessian":[1.04E2,3.8E1,6.6E1,5E0,3.3E1,2E0,6.4E1,1E1,2.3E1,3.1E1,3.3E1,8E0,2E0,1.3E1,1E1,2E0,2.9E1,1.5E1,1.8E1,7E0,6E0,7E0,3E0,2.5E1,4E0,1.6E1,9E0,6E0,1E1],"tree_param":{"num_deleted":"0","num_feature":"16","num_nodes":"29","size_leaf_vector":"1"}},{"base_weights":[6.512444E-3,3.2508266E-1,-1.7910042E-1,5.5304277E-1,1.3997155E-1,1.0072222E-2,-2.1137968E-1,-2.3192992E-3,7.240419E-1,7.438175E-3,4.3995395E-2,-1.5303269E-1,-8.147012E-3,1.7756261E-2,7.3667997E-3,-5.5096988E-2,2.9862102E-3,-5.921898E-3,-1.011964E-1,1.4156128E-3,-3.7991044E-3,7.753182E-4,-1.3177577E-1,-7.293453E-4,-3.5040167E-3],"categories":[],"categories_nodes":[],"categories_segments":[],"categories_sizes":[],"default_left":[0,0,0,0,0,0,0,0,0,0,0,0,0,0,0,0,0,0,0,0,0,0,0,0,0],"id":46,"left_children":[1,3,5,7,9,-1,11,-1,13,-1,15,17,-1,-1,-1,19,-1,-1,21,-1,-1,-1,23,-1,-1],"loss_changes":[5.9267635E0,1.4146128E0,1.4655871E0,1.9751668E0,4.3177697E-1,0E0,5.791168E-1,0E0,3.0466604E-1,0E0,1.9505864E-1,2.9368198E-1,0E0,0E0,0E0,1.7814331E-1,0E0,0E0,1.7704785E-1,0E0,0E0,0E0,1.0488492E-1,0E0,0E0],"parents":[2147483647,0,0,1,1,2,2,3,3,4,4,6,6,8,8,10,10,11,11,15,15,18,18,22,22],"right_children":[2,4,6,8,10,-1,12,-1,14,-1,16,18,-1,-1,-1,20,-1,-1,22,-1,-1,-1,24,-1,-1],"split_conditions":[-2.5555238E-1,-3.7037036E-1,-1.290993E0,-6.9728804E-1,-3.0769232E-1,1.0072222E-2,1.5675992E0,-2.3192992E-3,9.465567E-2,7.438175E-3,-3.6522725E-1,-2.3952097E-2,-8.147012E-3,1.7756261E-2,7.3667997E-3,5.4525487E-2,2.9862102E-3,-5.921898E-3,-1.5194513E-1,1.4156128E-3,-3.7991044E-3,7.753182E-4,1.700828E-1,-7.293453E-4,-3.5040167E-3],"split_indices":[1,9,14,1,12,0,1,0,11,0,11,2,0,0,0,3,0,0,0,0,0,0,1,0,0],"split_type":[0,0,0,0,0,0,0,0,0,0,0,0,0,0,0,0,0,0,0,0,0,0,0,0,0],"sum_hessian":[9.8E1,3.6E1,6.2E1,1.5E1,2.1E1,2E0,6E1,3E0,1.2E1,5E0,1.6E1,4.8E1,1.2E1,7E0,5E0,8E0,8E0,1.1E1,3.7E1,4E0,4E0,6E0,3.1E1,1.1E1,2E1],"tree_param":{"num_deleted":"0","num_feature":"16","num_nodes":"25","size_leaf_vector":"1"}},{"base_weights":[6.9863116E-3,1.4863773E-1,-3.190101E-1,5.722401E-2,4.3513954E-1,-3.3812574E-1,-0E0,1.5555152E-2,1.428281E-2,6.582073E-1,1.6312028E-4,-4.9547437E-3,-9.088435E-3,2.7630454E-1,-4.2039417E-2,1.6953915E-2,6.8470165E-3,-6.7933695E-3,4.8525637E-1,-1.0276409E-2,-5.821216E-3,1.2118558E-2,9.765543E-4,5.7999836E-3,-6.433261E-2,1.18915655E-1,-9.317833E-2,-2.6112254E-4,4.891644E-3,-1.0994134E-1,1.5553102E-3,-2.7973014E-3,4.2770075E-4],"categories":[],"categories_nodes":[],"categories_segments":[],"categories_sizes":[],"default_left":[0,0,0,0,0,0,0,0,0,0,0,0,0,0,0,0,0,0,0,0,0,0,0,0,0,0,0,0,0,0,0,0,0],"id":47,"left_children":[1,3,5,7,9,11,-1,-1,13,15,-1,-1,-1,17,19,-1,-1,-1,21,-1,23,-1,-1,-1,25,27,29,-1,-1,31,-1,-1,-1],"loss_changes":[4.740521E0,1.8115574E0,1.6075039E-1,1.6423597E0,1.5471821E0,1.2204981E-1,0E0,0E0,8.3195513E-1,2.4914885E-1,0E0,0E0,0E0,1.4664719E0,7.139626E-1,0E0,0E0,0E0,3.262545E-1,0E0,7.40371E-1,0E0,0E0,0E0,2.04086E-1,1.0926813E-1,1.063298E-1,0E0,0E0,1.3666204E-1,0E0,0E0,0E0],"parents":[2147483647,0,0,1,1,2,2,3,3,4,4,5,5,8,8,9,9,13,13,14,14,18,18,20,20,24,24,25,25,26,26,29,29],"right_children":[2,4,6,8,10,12,-1,-1,14,16,-1,-1,-1,18,20,-1,-1,-1,22,-1,24,-1,-1,-1,26,28,30,-1,-1,32,-1,-1,-1],"split_conditions":[6.0493827E-1,6.4457804E-1,1.4107988E0,-1.8257923E0,-1.1111111E-1,2.0617285E0,-0E0,1.5555152E-2,-5.312753E-1,-1.9161677E-1,1.6312028E-4,-4.9547437E-3,-9.088435E-3,-1.8976842E-1,-4.8993346E-1,1.6953915E-2,6.8470165E-3,-6.7933695E-3,3.9971173E-1,-1.0276409E-2,-3.580247E-1,1.2118558E-2,9.765543E-4,5.7999836E-3,-7.433864E-1,7.123286E-2,1.4615384E0,-2.6112254E-4,4.891644E-3,3.043891E-1,1.5553102E-3,-2.7973014E-3,4.2770075E-4],"split_indices":[9,8,15,14,9,9,0,0,11,2,0,0,0,3,11,0,0,0,3,0,9,0,0,0,8,14,12,0,0,8,0,0,0],"split_type":[0,0,0,0,0,0,0,0,0,0,0,0,0,0,0,0,0,0,0,0,0,0,0,0,0,0,0,0,0,0,0,0,0],"sum_hessian":[1.01E2,7.1E1,3E1,5.5E1,1.6E1,2.8E1,2E0,2E0,5.3E1,1E1,6E0,1.8E1,1E1,9E0,4.4E1,5E0,5E0,2E0,7E0,2E0,4.2E1,5E0,2E0,6E0,3.6E1,4E0,3.2E1,2E0,2E0,3E1,2E0,2.5E1,5E0],"tree_param":{"num_deleted":"0","num_feature":"16","num_nodes":"33","size_leaf_vector":"1"}},{"base_weights":[3.9299693E-2,4.1175094E-1,-1.1721915E-1,2.3128417E-1,6.222626E-1,1.2569221E-2,-1.4939047E-1,-6.739274E-3,3.296254E-1,1.5750004E-2,5.7205505E-4,5.310405E-2,-2.2386117E-1,1.1641836E-2,3.0571918E-3,-2.6112622E-2,4.1384026E-3,-2.3892629E-1,1.2697905E-3,-1.4911899E-1,1.8052137E-1,-3.7624084E-3,-6.907218E-3,-0E0,-4.7390447E-3,-0E0,6.0983603E-3],"categories":[],"categories_nodes":[],"categories_segments":[],"categories_sizes":[],"default_left":[0,0,0,0,0,0,0,0,0,0,0,0,0,0,0,0,0,0,0,0,0,0,0,0,0,0,0],"id":48,"left_children":[1,3,5,7,9,-1,11,-1,13,-1,-1,15,17,-1,-1,19,-1,21,-1,23,25,-1,-1,-1,-1,-1,-1],"loss_changes":[5.9072824E0,9.1043615E-1,1.7492349E0,1.1162171E0,1.1710997E0,0E0,1.0694773E0,0E0,5.515653E-1,0E0,0E0,2.5499517E-1,2.534907E-1,0E0,0E0,3.5420382E-1,0E0,1.4665008E-1,0E0,1.3674988E-1,1.1598517E-1,0E0,0E0,0E0,0E0,0E0,0E0],"parents":[2147483647,0,0,1,1,2,2,3,3,4,4,6,6,8,8,11,11,12,12,15,15,17,17,19,19,20,20],"right_children":[2,4,6,8,10,-1,12,-1,14,-1,-1,16,18,-1,-1,20,-1,22,-1,24,26,-1,-1,-1,-1,-1,-1],"split_conditions":[-3.8044533E-1,-5.6236215E-2,-1.6823477E0,-4.074074E-1,1.4552337E0,1.2569221E-2,-4.0622324E-2,-6.739274E-3,-5.245218E-1,1.5750004E-2,5.7205505E-4,4.1184956E-1,1.4093966E0,1.1641836E-2,3.0571918E-3,5.083176E-1,4.1384026E-3,1.5675992E0,1.2697905E-3,8.424908E-3,-2.1327433E-1,-3.7624084E-3,-6.907218E-3,-0E0,-4.7390447E-3,-0E0,6.0983603E-3],"split_indices":[1,14,14,9,13,0,1,0,1,0,0,11,3,0,0,3,0,1,0,3,1,0,0,0,0,0,0],"split_type":[0,0,0,0,0,0,0,0,0,0,0,0,0,0,0,0,0,0,0,0,0,0,0,0,0,0,0],"sum_hessian":[9.9E1,2.9E1,7E1,1.7E1,1.2E1,2E0,6.8E1,2E0,1.5E1,9E0,3E0,1.8E1,5E1,5E0,1E1,1.2E1,6E0,4.8E1,2E0,8E0,4E0,3.5E1,1.3E1,3E0,5E0,2E0,2E0],"tree_param":{"num_deleted":"0","num_feature":"16","num_nodes":"27","size_leaf_vector":"1"}},{"base_weights":[3.380623E-2,4.4263458E-1,-1.2877949E-1,1.4127422E-2,2.7526617E-1,1.2401632E-2,-1.6139425E-1,-2.1867178E-1,4.2822775E-1,5.6371978E-3,-3.0419457E-1,-1.1074124E-2,3.1183981E-3,1.258748E-2,3.22106E-3,5.3682877E-3,-2.7354041E-2,-2.356639E-1,-9.11322E-3,-4.4534737E-3,8.804048E-3,-5.3895838E-3,-1.243554E-4,3.7828279E-3,-1.626084E-3],"categories":[],"categories_nodes":[],"categories_segments":[],"categories_sizes":[],"default_left":[0,0,0,0,0,0,0,0,0,0,0,0,0,0,0,0,0,0,0,0,0,0,0,0,0],"id":49,"left_children":[1,3,5,-1,7,-1,9,11,13,15,17,-1,-1,-1,-1,-1,19,21,-1,-1,23,-1,-1,-1,-1],"loss_changes":[6.5359445E0,9.433489E-1,1.7638837E0,0E0,1.5501138E0,0E0,1.6535164E0,7.5361806E-1,6.257129E-1,3.088673E-1,2.075479E-1,0E0,0E0,0E0,0E0,0E0,2.2815655E-1,1.8800092E-1,0E0,0E0,4.3240875E-1,0E0,0E0,0E0,0E0],"parents":[2147483647,0,0,1,1,2,2,4,4,6,6,7,7,8,8,9,9,10,10,16,16,17,17,20,20],"right_children":[2,4,6,-1,8,-1,10,12,14,16,18,-1,-1,-1,-1,-1,20,22,-1,-1,24,-1,-1,-1,-1],"split_conditions":[-3.8044533E-1,-3.5514018E-1,-1.6823477E0,1.4127422E-2,-4.509499E-1,1.2401632E-2,2.3123038E-1,-4.3257847E-1,-5.245218E-1,-2.035928E-1,2.2791607E0,-1.1074124E-2,3.1183981E-3,1.258748E-2,3.22106E-3,5.3682877E-3,-1.9161677E-1,5.64486E0,-9.11322E-3,-4.4534737E-3,-1.9920069E-1,-5.3895838E-3,-1.243554E-4,3.7828279E-3,-1.626084E-3],"split_indices":[1,7,14,0,11,0,1,0,1,2,1,0,0,0,0,0,2,7,0,0,1,0,0,0,0],"split_type":[0,0,0,0,0,0,0,0,0,0,0,0,0,0,0,0,0,0,0,0,0,0,0,0,0],"sum_hessian":[9.6E1,2.7E1,6.9E1,9E0,1.8E1,2E0,6.7E1,4E0,1.4E1,3.1E1,3.6E1,2E0,2E0,7E0,7E0,3E0,2.8E1,2.7E1,9E0,4E0,2.4E1,2.3E1,4E0,8E0,1.6E1],"tree_param":{"num_deleted":"0","num_feature":"16","num_nodes":"25","size_leaf_vector":"1"}},{"base_weights":[2.5226971E-2,4.3645805E-1,-1.2380636E-1,5.8126396E-1,1.9867869E-1,-2.3228006E-2,-6.564202E-3,1.3225566E-2,-0E0,7.306135E-2,6.7986143E-3,-7.699212E-2,1.2054967E-2,-1.7784399E-3,3.1708558E-3,-1.3476079E-2,-4.1832463E-3,1.8386814E-3,-7.2234586E-2,-5.0262306E-3,-2.9736836E-3,3.7777512E-3,-9.002362E-4],"categories":[],"categories_nodes":[],"categories_segments":[],"categories_sizes":[],"default_left":[0,0,0,0,0,0,0,0,0,0,0,0,0,0,0,0,0,0,0,0,0,0,0],"id":50,"left_children":[1,3,5,7,9,11,-1,-1,-1,13,-1,15,-1,-1,-1,17,-1,-1,19,-1,21,-1,-1],"loss_changes":[6.2140155E0,7.361803E-1,1.4785681E0,7.161622E-1,1.467894E-1,1.7102393E0,0E0,0E0,0E0,1.3183258E-1,0E0,3.77874E-1,0E0,0E0,0E0,2.1525812E-1,0E0,0E0,2.5909385E-1,0E0,1.3929337E-1,0E0,0E0],"parents":[2147483647,0,0,1,1,2,2,3,3,4,4,5,5,9,9,11,11,15,15,18,18,20,20],"right_children":[2,4,6,8,10,12,-1,-1,-1,14,-1,16,-1,-1,-1,18,-1,-1,20,-1,22,-1,-1],"split_conditions":[-3.8992292E-1,-5.245218E-1,6.441051E-1,-3.3333334E-1,-1.3460454E-1,2.3551402E0,-6.564202E-3,1.3225566E-2,-0E0,5.82742E-1,6.7986143E-3,2.2891808E-1,1.2054967E-2,-1.7784399E-3,3.1708558E-3,-4.876719E-1,-4.1832463E-3,1.8386814E-3,-3.090106E-1,-5.0262306E-3,-1.3173653E-1,3.7777512E-3,-9.002362E-4],"split_indices":[1,1,1,9,15,7,0,0,0,13,0,1,0,0,0,13,0,0,8,0,2,0,0],"split_type":[0,0,0,0,0,0,0,0,0,0,0,0,0,0,0,0,0,0,0,0,0,0,0],"sum_hessian":[9.9E1,2.6E1,7.3E1,1.5E1,1.1E1,5E1,2.3E1,1.3E1,2E0,7E0,4E0,4.7E1,3E0,2E0,5E0,3.3E1,1.4E1,1.1E1,2.2E1,5E0,1.7E1,