{"learner":{"attributes":{"best_iteration":"80","best_score":"0.2840027672903878"},"feature_names":[],"feature_types":[],"gradient_booster":{"model":{"gbtree_model_param":{"num_parallel_tree":"1","num_trees":"91"},"iteration_indptr":[0,1,2,3,4,5,6,7,8,9,10,11,12,13,14,15,16,17,18,19,20,21,22,23,24,25,26,27,28,29,30,31,32,33,34,35,36,37,38,39,40,41,42,43,44,45,46,47,48,49,50,51,52,53,54,55,56,57,58,59,60,61,62,63,64,65,66,67,68,69,70,71,72,73,74,75,76,77,78,79,80,81,82,83,84,85,86,87,88,89,90,91],"tree_info":[0,0,0,0,0,0,0,0,0,0,0,0,0,0,0,0,0,0,0,0,0,0,0,0,0,0,0,0,0,0,0,0,0,0,0,0,0,0,0,0,0,0,0,0,0,0,0,0,0,0,0,0,0,0,0,0,0,0,0,0,0,0,0,0,0,0,0,0,0,0,0,0,0,0,0,0,0,0,0,0,0,0,0,0,0,0,0,0,0,0,0],"trees":[{"base_weights":[2.6458502E-4,-2.9281178E-1,2.580872E-1,-5.14104E-1,-6.1412252E-2,3.5659185E-1,1.27516E-1,-5.8968085E-1,1.9246604E-3,-0E0,-5.1335916E-3,9.740985E-3,-0E0,-1.8576498E-3,4.1922946E-3,-6.4937127E-1,-3.2961037E-4,-8.558468E-2,2.708519E-3,-1.8177738E-2,-4.2291274E-4,1.5266946E-3,-4.9975864E-3],"categories":[],"categories_nodes":[],"categories_segments":[],"categories_sizes":[],"default_left":[0,0,0,0,0,0,0,0,0,0,0,0,0,0,0,0,0,0,0,0,0,0,0],"id":0,"left_children":[1,3,5,7,9,11,13,15,-1,17,-1,-1,-1,-1,-1,19,-1,21,-1,-1,-1,-1,-1],"loss_changes":[8.902425E0,2.450068E0,4.6393633E-1,1.5477967E0,3.2394207E-1,3.4602976E-1,3.6070436E-1,5.48089E-1,0E0,2.6466793E-1,0E0,0E0,0E0,0E0,0E0,7.164049E-1,0E0,3.4135544E-1,0E0,0E0,0E0,0E0,0E0],"parents":[2147483647,0,0,1,1,2,2,3,3,4,4,5,5,6,6,7,7,9,9,15,15,17,17],"right_children":[2,4,6,8,10,12,14,16,-1,18,-1,-1,-1,-1,-1,20,-1,22,-1,-1,-1,-1,-1],"split_conditions":[-5.1536072E-2,-1.6666667E-1,-4.0567525E-2,5.3712636E-1,-8.6849835E-3,2.693956E1,-1.0383596E-1,3.909949E-1,1.9246604E-3,-9.486773E-2,-5.1335916E-3,9.740985E-3,-0E0,-1.8576498E-3,4.1922946E-3,4.6636358E-1,-3.2961037E-4,-1.3483146E-1,2.708519E-3,-1.8177738E-2,-4.2291274E-4,1.5266946E-3,-4.9975864E-3],"split_indices":[15,12,1,3,14,14,11,14,0,0,0,0,0,0,0,11,0,7,0,0,0,0,0],"split_type":[0,0,0,0,0,0,0,0,0,0,0,0,0,0,0,0,0,0,0,0,0,0,0],"sum_hessian":[1.11E2,5.1E1,6E1,2.3E1,2.8E1,2.9E1,3.1E1,2.1E1,2E0,2.1E1,7E0,2.6E1,3E0,3E0,2.8E1,1.8E1,3E0,1.1E1,1E1,1.5E1,3E0,4E0,7E0],"tree_param":{"num_deleted":"0","num_feature":"16","num_nodes":"23","size_leaf_vector":"1"}},{"base_weights":[-3.1030495E-2,-4.6559507E-1,2.3677045E-1,-5.8912957E-1,-2.1767545E-4,7.206457E-3,-5.4781715E-4,-6.950405E-1,-1.8458784E-1,-1.2443107E-4,-7.378275E-1,9.848287E-4,-7.7984296E-3,-4.8257797E-3,-2.176867E-2],"categories":[],"categories_nodes":[],"categories_segments":[],"categories_sizes":[],"default_left":[0,0,0,0,0,0,0,0,0,0,0,0,0,0,0],"id":1,"left_children":[1,3,5,7,-1,-1,-1,9,11,-1,13,-1,-1,-1,-1],"loss_changes":[1.3220627E1,2.1981144E0,1.0543187E0,6.3443375E-1,0E0,0E0,0E0,4.1340542E-1,5.0857425E-1,0E0,6.155176E-1,0E0,0E0,0E0,0E0],"parents":[2147483647,0,0,1,1,2,2,3,3,7,7,8,8,10,10],"right_children":[2,4,6,8,-1,-1,-1,10,12,-1,14,-1,-1,-1,-1],"split_conditions":[-2.2641447E-1,5.2287585E-1,1.2598153E0,-3.713583E-1,-2.1767545E-4,7.206457E-3,-5.4781715E-4,-7.2404844E-1,-3.5155532E-1,-1.2443107E-4,-5.9044945E-1,9.848287E-4,-7.7984296E-3,-4.8257797E-3,-2.176867E-2],"split_indices":[15,9,1,15,0,0,0,14,15,0,15,0,0,0,0],"split_type":[0,0,0,0,0,0,0,0,0,0,0,0,0,0,0],"sum_hessian":[1.06E2,4E1,6.6E1,3E1,1E1,5.6E1,1E1,2.1E1,9E0,2E0,1.9E1,3E0,6E0,6E0,1.3E1],"tree_param":{"num_deleted":"0","num_feature":"16","num_nodes":"15","size_leaf_vector":"1"}},{"base_weights":[5.19159E-3,-3.5619876E-1,2.2230771E-1,-6.971692E-2,-5.2193135E-1,6.6432543E-3,2.458499E-4,1.993891E-3,-4.4601304E-3,-6.65056E-1,-1.10501796E-1,-1.840262E-2,-0E0,1.2964546E-3,-8.121405E-3],"categories":[],"categories_nodes":[],"categories_segments":[],"categories_sizes":[],"default_left":[0,0,0,0,0,0,0,0,0,0,0,0,0,0,0],"id":2,"left_children":[1,3,5,7,9,-1,-1,-1,-1,11,13,-1,-1,-1,-1],"loss_changes":[8.972293E0,1.6538587E0,5.4952216E-1,4.2230198E-1,9.3414783E-1,0E0,0E0,0E0,0E0,6.584382E-1,5.6839144E-1,0E0,0E0,0E0,0E0],"parents":[2147483647,0,0,1,1,2,2,3,3,4,4,9,9,10,10],"right_children":[2,4,6,8,10,-1,-1,-1,-1,12,14,-1,-1,-1,-1],"split_conditions":[-2.2641447E-1,-5.828051E-1,1.3138052E0,-5.1846817E-2,-3.713583E-1,6.6432543E-3,2.458499E-4,1.993891E-3,-4.4601304E-3,5.2287585E-1,-5.294346E-2,-1.840262E-2,-0E0,1.2964546E-3,-8.121405E-3],"split_indices":[15,15,1,8,15,0,0,0,0,9,11,0,0,0,0],"split_type":[0,0,0,0,0,0,0,0,0,0,0,0,0,0,0],"sum_hessian":[1.08E2,3.9E1,6.9E1,1.7E1,2.2E1,5.5E1,1.4E1,6E0,1.1E1,1.4E1,8E0,1.2E1,2E0,5E0,3E0],"tree_param":{"num_deleted":"0","num_feature":"16","num_nodes":"15","size_leaf_vector":"1"}},{"base_weights":[-7.64716E-3,-3.9714894E-1,2.5501385E-1,-6.6820435E-2,-5.713142E-1,7.965337E-3,-0E0,1.4265638E-3,-3.5176836E-3,-7.162644E-1,-1.7345652E-1,-1.9533198E-2,-0E0,1.3891113E-3,-3.3246276E-1,-0E0,-1.1056534E-2],"categories":[],"categories_nodes":[],"categories_segments":[],"categories_sizes":[],"default_left":[0,0,0,0,0,0,0,0,0,0,0,0,0,0,0,0,0],"id":3,"left_children":[1,3,5,7,9,-1,-1,-1,-1,11,13,-1,-1,-1,15,-1,-1],"loss_changes":[1.2227779E1,2.401422E0,1.2523236E0,2.5835645E-1,9.6819115E-1,0E0,0E0,0E0,0E0,7.7654266E-1,6.6702807E-1,0E0,0E0,0E0,4.1691387E-1,0E0,0E0],"parents":[2147483647,0,0,1,1,2,2,3,3,4,4,9,9,10,10,14,14],"right_children":[2,4,6,8,10,-1,-1,-1,-1,12,14,-1,-1,-1,16,-1,-1],"split_conditions":[-2.2641447E-1,-5.9044945E-1,1.2598153E0,-3.440571E-1,-3.713583E-1,7.965337E-3,-0E0,1.4265638E-3,-3.5176836E-3,5.2287585E-1,-3.389845E-1,-1.9533198E-2,-0E0,1.3891113E-3,-3.570108E-1,-0E0,-1.1056534E-2],"split_indices":[15,15,1,11,15,0,0,0,0,9,15,0,0,0,11,0,0],"split_type":[0,0,0,0,0,0,0,0,0,0,0,0,0,0,0,0,0],"sum_hessian":[1.12E2,4.5E1,6.7E1,1.8E1,2.7E1,5.4E1,1.3E1,5E0,1.3E1,1.7E1,1E1,1.5E1,2E0,4E0,6E0,2E0,4E0],"tree_param":{"num_deleted":"0","num_feature":"16","num_nodes":"17","size_leaf_vector":"1"}},{"base_weights":[-6.626872E-3,-3.7382677E-1,2.0849575E-1,-5.5831885E-1,-2.915928E-3,2.5749266E-1,-0E0,-1.5243215E-2,-0E0,7.1173497E-3,-0E0],"categories":[],"categories_nodes":[],"categories_segments":[],"categories_sizes":[],"default_left":[0,0,0,0,0,0,0,0,0,0,0],"id":4,"left_children":[1,3,5,7,-1,9,-1,-1,-1,-1,-1],"loss_changes":[9.22564E0,1.5661469E0,7.9338765E-1,6.676135E-1,0E0,4.722638E-1,0E0,0E0,0E0,0E0,0E0],"parents":[2147483647,0,0,1,1,2,2,3,3,5,5],"right_children":[2,4,6,8,-1,10,-1,-1,-1,-1,-1],"split_conditions":[-2.3860456E-1,-1.6666667E-1,1.2598153E0,1E0,-2.915928E-3,3.0900854E-1,-0E0,-1.5243215E-2,-0E0,7.1173497E-3,-0E0],"split_indices":[15,12,1,4,0,3,0,0,0,0,0],"split_type":[0,0,0,0,0,0,0,0,0,0,0],"sum_hessian":[1.09E2,4E1,6.9E1,2E1,2E1,5.6E1,1.3E1,1.8E1,2E0,5.1E1,5E0],"tree_param":{"num_deleted":"0","num_feature":"16","num_nodes":"11","size_leaf_vector":"1"}},{"base_weights":[5.5121495E-3,1.608593E-1,-2.5418922E-1,3.1992373E-1,6.3400075E-2,-3.864478E-1,-0E0,3.0954778E-3,1.2154828E-2,-1.0202705E-2,1.6576114E-1,-4.606536E-1,3.2697835E-3,1.480271E-3,-5.239576E-3,-1.1989357E-3,2.1936844E-1,-6.1619943E-1,-0E0,7.007985E-3,9.955185E-4,-6.9000566E-1,-0E0,-4.7391801E-4,-1.8760053E-2],"categories":[],"categories_nodes":[],"categories_segments":[],"categories_sizes":[],"default_left":[0,0,0,0,0,0,0,0,0,0,0,0,0,0,0,0,0,0,0,0,0,0,0,0,0],"id":5,"left_children":[1,3,5,7,9,11,13,-1,-1,-1,15,17,-1,-1,-1,-1,19,21,-1,-1,-1,23,-1,-1,-1],"loss_changes":[4.644464E0,9.150984E-1,1.3608851E0,3.7675261E-1,2.6254315E0,1.3983274E0,2.994355E-1,0E0,0E0,0E0,6.2667346E-1,1.6133375E0,0E0,0E0,0E0,0E0,2.5420392E-1,8.312969E-1,0E0,0E0,0E0,3.1119728E-1,0E0,0E0,0E0],"parents":[2147483647,0,0,1,1,2,2,3,3,4,4,5,5,6,6,10,10,11,11,16,16,17,17,21,21],"right_children":[2,4,6,8,10,12,14,-1,-1,-1,16,18,-1,-1,-1,-1,20,22,-1,-1,-1,24,-1,-1,-1],"split_conditions":[2.701164E-1,-2.6966292E-1,6.5249175E-1,-4.5800316E-1,-1.6666667E-1,5.28855E-1,3.349143E-1,3.0954778E-3,1.2154828E-2,-1.0202705E-2,-3.2074902E-2,-1.6666667E-1,3.2697835E-3,1.480271E-3,-5.239576E-3,-1.1989357E-3,1.8202248E0,4.6636358E-1,-0E0,7.007985E-3,9.955185E-4,-5.596348E-1,-0E0,-4.7391801E-4,-1.8760053E-2],"split_indices":[3,7,3,0,12,14,8,0,0,0,8,12,0,0,0,0,7,11,0,0,0,14,0,0,0],"split_type":[0,0,0,0,0,0,0,0,0,0,0,0,0,0,0,0,0,0,0,0,0,0,0,0,0],"sum_hessian":[1.09E2,7E1,3.9E1,2.2E1,4.8E1,2.4E1,1.5E1,1.4E1,8E0,6E0,4.2E1,2.2E1,2E0,1.3E1,2E0,7E0,3.5E1,1.5E1,7E0,2.3E1,1.2E1,1.3E1,2E0,2E0,1.1E1],"tree_param":{"num_deleted":"0","num_feature":"16","num_nodes":"25","size_leaf_vector":"1"}},{"base_weights":[-0E0,-3.5520697E-1,2.1754545E-1,-5.336788E-1,-1.2423385E-1,7.11703E-3,-0E0,-1.4625827E-2,-0E0,1.9614315E-3,-4.5973277E-3],"categories":[],"categories_nodes":[],"categories_segments":[],"categories_sizes":[],"default_left":[0,0,0,0,0,0,0,0,0,0,0],"id":6,"left_children":[1,3,5,7,9,-1,-1,-1,-1,-1,-1],"loss_changes":[8.8722925E0,1.2979469E0,1.1140971E0,6.081109E-1,3.889352E-1,0E0,0E0,0E0,0E0,0E0,0E0],"parents":[2147483647,0,0,1,1,2,2,3,3,4,4],"right_children":[2,4,6,8,10,-1,-1,-1,-1,-1,-1],"split_conditions":[-2.2641447E-1,-1.6666667E-1,1.0440058E0,1.1536585E0,-1.3483146E-1,7.11703E-3,-0E0,-1.4625827E-2,-0E0,1.9614315E-3,-4.5973277E-3],"split_indices":[15,12,1,11,7,0,0,0,0,0,0],"split_type":[0,0,0,0,0,0,0,0,0,0,0],"sum_hessian":[1.08E2,4E1,6.8E1,1.9E1,2.1E1,5.2E1,1.6E1,1.7E1,2E0,3E0,1.8E1],"tree_param":{"num_deleted":"0","num_feature":"16","num_nodes":"11","size_leaf_vector":"1"}},{"base_weights":[9.750505E-3,-2.74759E-1,1.7838182E-1,-0E0,-4.1098413E-1,3.995851E-3,5.5495407E-3,4.2551137E-3,-2.3154994E-3,-5.92163E-1,-5.3362146E-2,-3.8122055E-3,4.85116E-3,-1.7041694E-2,-0E0,2.0807052E-3,-7.670328E-3],"categories":[],"categories_nodes":[],"categories_segments":[],"categories_sizes":[],"default_left":[0,0,0,0,0,0,0,0,0,0,0,0,0,0,0,0,0],"id":7,"left_children":[1,3,5,7,9,11,-1,-1,-1,13,15,-1,-1,-1,-1,-1,-1],"loss_changes":[5.290541E0,1.4186141E0,4.4252992E-1,3.1268996E-1,1.3482227E0,7.001152E-1,0E0,0E0,0E0,9.518862E-1,6.461641E-1,0E0,0E0,0E0,0E0,0E0,0E0],"parents":[2147483647,0,0,1,1,2,2,3,3,4,4,5,5,9,9,10,10],"right_children":[2,4,6,8,10,12,-1,-1,-1,14,16,-1,-1,-1,-1,-1,-1],"split_conditions":[-2.3860456E-1,-5.828051E-1,2.4286933E-2,-2.0224719E-1,-3.713583E-1,1.0180282E-1,5.5495407E-3,4.2551137E-3,-2.3154994E-3,7.334351E-1,-2.9549292E-1,-3.8122055E-3,4.85116E-3,-1.7041694E-2,-0E0,2.0807052E-3,-7.670328E-3],"split_indices":[15,15,15,7,15,13,0,0,0,3,15,0,0,0,0,0,0],"split_type":[0,0,0,0,0,0,0,0,0,0,0,0,0,0,0,0,0],"sum_hessian":[1.04E2,3.7E1,6.7E1,1.4E1,2.3E1,1.6E1,5.1E1,3E0,1.1E1,1.3E1,1E1,8E0,8E0,1.1E1,2E0,7E0,3E0],"tree_param":{"num_deleted":"0","num_feature":"16","num_nodes":"17","size_leaf_vector":"1"}},{"base_weights":[1.8433815E-2,-2.8555194E-1,2.4278758E-1,-4.462173E-1,-4.48258E-2,2.9873022E-1,-4.092536E-4,-1.3752396E-2,-3.8892994E-4,3.1154647E-3,-4.184699E-3,1.0379112E-2,4.2606466E-3],"categories":[],"categories_nodes":[],"categories_segments":[],"categories_sizes":[],"default_left":[0,0,0,0,0,0,0,0,0,0,0,0,0],"id":8,"left_children":[1,3,5,7,9,11,-1,-1,-1,-1,-1,-1,-1],"loss_changes":[7.557081E0,1.532026E0,1.0651786E0,9.2929935E-1,5.781522E-1,3.3229923E-1,0E0,0E0,0E0,0E0,0E0,0E0,0E0],"parents":[2147483647,0,0,1,1,2,2,3,3,4,4,5,5],"right_children":[2,4,6,8,10,12,-1,-1,-1,-1,-1,-1,-1],"split_conditions":[-2.3860456E-1,6.5249175E-1,1.2598153E0,8.6233445E-2,-5.1846817E-2,3.1268972E-1,-4.092536E-4,-1.3752396E-2,-3.8892994E-4,3.1154647E-3,-4.184699E-3,1.0379112E-2,4.2606466E-3],"split_indices":[15,3,1,8,8,15,0,0,0,0,0,0,0],"split_type":[0,0,0,0,0,0,0,0,0,0,0,0,0],"sum_hessian":[1.04E2,4.3E1,6.1E1,2.3E1,2E1,5.1E1,1E1,1.7E1,6E0,7E0,1.3E1,2.1E1,3E1],"tree_param":{"num_deleted":"0","num_feature":"16","num_nodes":"13","size_leaf_vector":"1"}},{"base_weights":[-1.0702262E-3,-3.5075217E-1,1.8622045E-1,-3.4241326E-2,-5.808567E-1,5.8360314E-3,-5.4532964E-5,3.6159225E-3,-3.5842457E-3,-6.283626E-1,-0E0,-1.864062E-2,-1.0873498E-1,4.493515E-4,-6.550358E-3],"categories":[],"categories_nodes":[],"categories_segments":[],"categories_sizes":[],"default_left":[0,0,0,0,0,0,0,0,0,0,0,0,0,0,0],"id":9,"left_children":[1,3,5,7,9,-1,-1,-1,-1,11,-1,-1,13,-1,-1],"loss_changes":[7.531308E0,2.6339865E0,7.481775E-1,4.9176645E-1,5.0283384E-1,0E0,0E0,0E0,0E0,6.236124E-1,0E0,0E0,2.791852E-1,0E0,0E0],"parents":[2147483647,0,0,1,1,2,2,3,3,4,4,9,9,12,12],"right_children":[2,4,6,8,10,-1,-1,-1,-1,12,-1,-1,14,-1,-1],"split_conditions":[-2.3860456E-1,-5.828051E-1,1.3202615E0,-5.1846817E-2,5.2287585E-1,5.8360314E-3,-5.4532964E-5,3.6159225E-3,-3.5842457E-3,-3.9087927E-1,-0E0,-1.864062E-2,-2.247191E-1,4.493515E-4,-6.550358E-3],"split_indices":[15,15,9,8,9,0,0,0,0,15,0,0,7,0,0],"split_type":[0,0,0,0,0,0,0,0,0,0,0,0,0,0,0],"sum_hessian":[1.07E2,3.7E1,7E1,1.8E1,1.9E1,5.7E1,1.3E1,5E0,1.3E1,1.7E1,2E0,1.2E1,5E0,3E0,2E0],"tree_param":{"num_deleted":"0","num_feature":"16","num_nodes":"15","size_leaf_vector":"1"}},{"base_weights":[-1.2305492E-2,4.142335E-3,-1.8462336E-1,4.4766674E-3,-4.102494E-1,1.6148715E-1,-8.94102E-2,-4.4923797E-1,-0E0,1.1666373E-2,-0E0,-5.198838E-3,1.5698693E-3,-5.604772E-1,-1.2681729E-1,-1.3659312E-1,3.0963854E-3,-1.5174451E-2,-0E0,1.5139389E-3,-5.5197207E-3,-7.3135616E-3,7.8419753E-4],"categories":[],"categories_nodes":[],"categories_segments":[],"categories_sizes":[],"default_left":[0,0,0,0,0,0,0,0,0,0,0,0,0,0,0,0,0,0,0,0,0,0,0],"id":10,"left_children":[1,-1,3,5,7,9,11,13,-1,-1,15,-1,-1,17,19,21,-1,-1,-1,-1,-1,-1,-1],"loss_changes":[3.7186458E0,0E0,2.8353555E0,6.174205E-1,5.849204E-1,9.8519564E-1,5.2777565E-1,4.6261835E-1,0E0,0E0,2.922992E-1,0E0,0E0,2.674775E-1,3.3098775E-1,3.8542482E-1,0E0,0E0,0E0,0E0,0E0,0E0,0E0],"parents":[2147483647,0,0,2,2,3,3,4,4,5,5,6,6,7,7,10,10,13,13,14,14,15,15],"right_children":[2,-1,4,6,8,10,12,14,-1,-1,16,-1,-1,18,20,22,-1,-1,-1,-1,-1,-1,-1],"split_conditions":[-1.0408747E-2,4.142335E-3,-1.0524151E-1,4.2871076E-1,9.1985995E-1,-6.0012263E-1,7.8431375E-2,-1.7963083E-1,-0E0,1.1666373E-2,-2.4288951E-1,-5.198838E-3,1.5698693E-3,2.7414477E-1,-8.6849835E-3,-2.0224719E-1,3.0963854E-3,-1.5174451E-2,-0E0,1.5139389E-3,-5.5197207E-3,-7.3135616E-3,7.8419753E-4],"split_indices":[3,0,14,3,3,14,9,8,0,0,14,0,0,14,14,7,0,0,0,0,0,0,0],"split_type":[0,0,0,0,0,0,0,0,0,0,0,0,0,0,0,0,0,0,0,0,0,0,0],"sum_hessian":[1.14E2,5.5E1,5.9E1,3.3E1,2.6E1,1.3E1,2E1,2.4E1,2E0,3E0,1E1,1.2E1,8E0,1.5E1,9E0,6E0,4E0,1.3E1,2E0,2E0,7E0,3E0,3E0],"tree_param":{"num_deleted":"0","num_feature":"16","num_nodes":"23","size_leaf_vector":"1"}},{"base_weights":[-0E0,-3.3440802E-1,2.0760146E-1,-4.7783574E-1,-3.6892846E-2,6.249875E-3,-0E0,-5.211794E-1,-0E0,2.3640357E-3,-5.4795914E-3,-1.4317359E-2,-0E0],"categories":[],"categories_nodes":[],"categories_segments":[],"categories_sizes":[],"default_left":[0,0,0,0,0,0,0,0,0,0,0,0,0],"id":11,"left_children":[1,3,5,7,9,-1,-1,11,-1,-1,-1,-1,-1],"loss_changes":[8.299036E0,1.6739807E0,6.327677E-1,4.6249485E-1,5.896677E-1,0E0,0E0,5.0936127E-1,0E0,0E0,0E0,0E0,0E0],"parents":[2147483647,0,0,1,1,2,2,3,3,4,4,7,7],"right_children":[2,4,6,8,10,-1,-1,12,-1,-1,-1,-1,-1],"split_conditions":[-2.2641447E-1,6.5249175E-1,1.2598153E0,1E0,0E0,6.249875E-3,-0E0,1.2513537E0,-0E0,2.3640357E-3,-5.4795914E-3,-1.4317359E-2,-0E0],"split_indices":[15,3,1,4,8,0,0,8,0,0,0,0,0],"split_type":[0,0,0,0,0,0,0,0,0,0,0,0,0],"sum_hessian":[1.13E2,4.2E1,7.1E1,2.6E1,1.6E1,5.8E1,1.3E1,2.3E1,3E0,9E0,7E0,2E1,3E0],"tree_param":{"num_deleted":"0","num_feature":"16","num_nodes":"13","size_leaf_vector":"1"}},{"base_weights":[-5.7114265E-3,-3.274035E-1,1.7644918E-1,-5.097615E-1,3.7031737E-3,2.3347393E-1,-2.9078152E-4,-6.618582E-1,-1.6507502E-1,2.8234387E-3,-3.1063182E-3,6.5074945E-3,-0E0,-1.7837128E-2,-3.266924E-4,1.9071503E-3,-3.2054597E-1,-1.0720446E-2,-0E0],"categories":[],"categories_nodes":[],"categories_segments":[],"categories_sizes":[],"default_left":[0,0,0,0,0,0,0,0,0,0,0,0,0,0,0,0,0,0,0],"id":12,"left_children":[1,3,5,7,9,11,-1,13,15,-1,-1,-1,-1,-1,-1,-1,17,-1,-1],"loss_changes":[7.148033E0,2.8959384E0,9.187224E-1,8.333864E-1,3.031666E-1,4.6259713E-1,0E0,2.9640484E-1,7.2739726E-1,0E0,0E0,0E0,0E0,0E0,0E0,0E0,4.8414803E-1,0E0,0E0],"parents":[2147483647,0,0,1,1,2,2,3,3,4,4,5,5,7,7,8,8,16,16],"right_children":[2,4,6,8,10,12,-1,14,16,-1,-1,-1,-1,-1,-1,-1,18,-1,-1],"split_conditions":[-2.2641447E-1,6.5249175E-1,1.2598153E0,-3.713583E-1,0E0,3.0900854E-1,-2.9078152E-4,7.6934165E-1,-3.389845E-1,2.8234387E-3,-3.1063182E-3,6.5074945E-3,-0E0,-1.7837128E-2,-3.266924E-4,1.9071503E-3,3.1894338E-1,-1.0720446E-2,-0E0],"split_indices":[15,3,1,15,8,3,0,1,15,0,0,0,0,0,0,0,3,0,0],"split_type":[0,0,0,0,0,0,0,0,0,0,0,0,0,0,0,0,0,0,0],"sum_hessian":[1.14E2,4.1E1,7.3E1,2.6E1,1.5E1,5.7E1,1.6E1,1.5E1,1.1E1,1E1,5E0,5.2E1,5E0,1.3E1,2E0,4E0,7E0,5E0,2E0],"tree_param":{"num_deleted":"0","num_feature":"16","num_nodes":"19","size_leaf_vector":"1"}},{"base_weights":[-0E0,-2.782686E-1,1.7260253E-1,-4.9440853E-2,-4.4863084E-1,5.6426134E-3,-0E0,2.0871721E-3,-3.6946551E-3,-1.33599E-3,-1.3092686E-2],"categories":[],"categories_nodes":[],"categories_segments":[],"categories_sizes":[],"default_left":[0,0,0,0,0,0,0,0,0,0,0],"id":13,"left_children":[1,3,5,7,9,-1,-1,-1,-1,-1,-1],"loss_changes":[5.468664E0,1.4189258E0,6.7605805E-1,3.7611485E-1,3.6842394E-1,0E0,0E0,0E0,0E0,0E0,0E0],"parents":[2147483647,0,0,1,1,2,2,3,3,4,4],"right_children":[2,4,6,8,10,-1,-1,-1,-1,-1,-1],"split_conditions":[-2.2641447E-1,-5.828051E-1,1.0196079E0,-5.1846817E-2,-1.903483E-1,5.6426134E-3,-0E0,2.0871721E-3,-3.6946551E-3,-1.33599E-3,-1.3092686E-2],"split_indices":[15,15,9,8,14,0,0,0,0,0,0],"split_type":[0,0,0,0,0,0,0,0,0,0,0],"sum_hessian":[1.07E2,4E1,6.7E1,2E1,2E1,5.1E1,1.6E1,7E0,1.3E1,5E0,1.5E1],"tree_param":{"num_deleted":"0","num_feature":"16","num_nodes":"11","size_leaf_vector":"1"}},{"base_weights":[1.2302238E-2,-2.6386914E-1,1.6597176E-1,-3.9742213E-1,-2.666439E-2,5.3501045E-3,-0E0,-4.7807387E-1,-0E0,2.5805214E-3,-3.7600722E-3,-1.3294456E-2,-0E0],"categories":[],"categories_nodes":[],"categories_segments":[],"categories_sizes":[],"default_left":[0,0,0,0,0,0,0,0,0,0,0,0,0],"id":14,"left_children":[1,3,5,7,9,-1,-1,11,-1,-1,-1,-1,-1],"loss_changes":[5.228037E0,1.1713302E0,6.906564E-1,7.283993E-1,4.0268135E-1,0E0,0E0,6.0044193E-1,0E0,0E0,0E0,0E0,0E0],"parents":[2147483647,0,0,1,1,2,2,3,3,4,4,7,7],"right_children":[2,4,6,8,10,-1,-1,12,-1,-1,-1,-1,-1],"split_conditions":[-2.2641447E-1,6.5249175E-1,1.0196079E0,-1.6666667E-1,-5.1846817E-2,5.3501045E-3,-0E0,1E0,-0E0,2.5805214E-3,-3.7600722E-3,-1.3294456E-2,-0E0],"split_indices":[15,3,9,12,8,0,0,4,0,0,0,0,0],"split_type":[0,0,0,0,0,0,0,0,0,0,0,0,0],"sum_hessian":[1.17E2,4E1,7.7E1,2.3E1,1.7E1,6E1,1.7E1,1.8E1,5E0,7E0,1E1,1.6E1,2E0],"tree_param":{"num_deleted":"0","num_feature":"16","num_nodes":"13","size_leaf_vector":"1"}},{"base_weights":[5.2302997E-3,-2.9594246E-1,1.9833401E-1,-4.2625394E-1,-9.595517E-4,6.0979533E-3,-0E0,-1.3910701E-2,-9.808481E-2,1.3742625E-3,-2.248867E-1,-8.710507E-3,3.487656E-4],"categories":[],"categories_nodes":[],"categories_segments":[],"categories_sizes":[],"default_left":[0,0,0,0,0,0,0,0,0,0,0,0,0],"id":15,"left_children":[1,3,5,7,-1,-1,-1,-1,9,-1,11,-1,-1],"loss_changes":[6.9999056E0,1.3175669E0,6.689515E-1,8.073888E-1,0E0,0E0,0E0,0E0,3.732379E-1,0E0,4.310923E-1,0E0,0E0],"parents":[2147483647,0,0,1,1,2,2,3,3,8,8,10,10],"right_children":[2,4,6,8,-1,-1,-1,-1,10,-1,12,-1,-1],"split_conditions":[-2.2641447E-1,7.334351E-1,1.2598153E0,-3.713583E-1,-9.595517E-4,6.0979533E-3,-0E0,-1.3910701E-2,-5.294346E-2,1.3742625E-3,-3.1807876E-1,-8.710507E-3,3.487656E-4],"split_indices":[15,3,1,15,0,0,0,0,11,0,0,0,0],"split_type":[0,0,0,0,0,0,0,0,0,0,0,0,0],"sum_hessian":[1.14E2,4.3E1,7.1E1,2.6E1,1.7E1,5.7E1,1.4E1,1.6E1,1E1,4E0,6E0,4E0,2E0],"tree_param":{"num_deleted":"0","num_feature":"16","num_nodes":"13","size_leaf_vector":"1"}},{"base_weights":[-0E0,1.4780554E-1,-6.9506265E-2,3.490857E-1,8.318939E-3,-1.9722366E-1,6.409228E-2,-0E0,4.0929112E-1,-2.7519413E-3,3.0211702E-3,-4.5342386E-1,1.0077761E-2,-3.5182466E-3,2.842773E-3,1.193957E-2,-0E0,-1.312014E-2,-0E0,5.2628526E-3,-7.7084E-3],"categories":[],"categories_nodes":[],"categories_segments":[],"categories_sizes":[],"default_left":[0,0,0,0,0,0,0,0,0,0,0,0,0,0,0,0,0,0,0,0,0],"id":16,"left_children":[1,3,5,7,9,11,13,-1,15,-1,-1,17,19,-1,-1,-1,-1,-1,-1,-1,-1],"loss_changes":[1.2106701E0,9.277957E-1,1.4028031E0,3.270085E-1,4.1724673E-1,2.397424E0,4.3647653E-1,0E0,3.009057E-1,0E0,0E0,8.107991E-1,1.8155061E0,0E0,0E0,0E0,0E0,0E0,0E0,0E0,0E0],"parents":[2147483647,0,0,1,1,2,2,3,3,4,4,5,5,6,6,8,8,11,11,12,12],"right_children":[2,4,6,8,10,12,14,-1,16,-1,-1,18,20,-1,-1,-1,-1,-1,-1,-1,-1],"split_conditions":[-2.87203E-1,-1.4353277E-1,-7.881816E-2,-4.918932E-1,1.8055555E-1,1.0667091E-1,-3.3932054E-1,-0E0,-8.988764E-2,-2.7519413E-3,3.0211702E-3,4.6636358E-1,-2.6966292E-1,-3.5182466E-3,2.842773E-3,1.193957E-2,-0E0,-1.312014E-2,-0E0,5.2628526E-3,-7.7084E-3],"split_indices":[14,1,8,0,2,14,11,0,7,0,0,11,7,0,0,0,0,0,0,0,0],"split_type":[0,0,0,0,0,0,0,0,0,0,0,0,0,0,0,0,0,0,0,0,0],"sum_hessian":[1.08E2,3.5E1,7.3E1,1.1E1,2.4E1,3.8E1,3.5E1,2E0,9E0,1E1,1.4E1,1.6E1,2.2E1,4E0,3.1E1,7E0,2E0,1.4E1,2E0,1.5E1,7E0],"tree_param":{"num_deleted":"0","num_feature":"16","num_nodes":"21","size_leaf_vector":"1"}},{"base_weights":[-3.0258233E-2,3.5205632E-3,-1.6514349E-1,1.8463045E-2,-3.542344E-1,3.1976095E-1,-6.438779E-2,-4.0671223E-1,2.7139126E-3,-0E0,1.0724287E-2,-2.0741504E-1,1.9180842E-3,-4.574391E-1,-0E0,1.4685136E-3,-2.8082815E-1,-1.2993211E-2,-4.981132E-2,-8.823155E-3,5.303554E-5,1.8818658E-3,-5.966733E-3],"categories":[],"categories_nodes":[],"categories_segments":[],"categories_sizes":[],"default_left":[0,0,0,0,0,0,0,0,0,0,0,0,0,0,0,0,0,0,0,0,0,0,0],"id":17,"left_children":[1,-1,3,5,7,9,11,13,-1,-1,-1,15,-1,17,-1,-1,19,-1,21,-1,-1,-1,-1],"loss_changes":[2.7564335E0,0E0,2.5006862E0,1.0853513E0,1.1116686E0,4.0877658E-1,7.235478E-1,5.8765745E-1,0E0,0E0,0E0,4.88509E-1,0E0,4.052143E-1,0E0,0E0,4.5914423E-1,0E0,3.290376E-1,0E0,0E0,0E0,0E0],"parents":[2147483647,0,0,2,2,3,3,4,4,5,5,6,6,7,7,11,11,13,13,16,16,18,18],"right_children":[2,-1,4,6,8,10,12,14,-1,-1,-1,16,-1,18,-1,-1,20,-1,22,-1,-1,-1,-1],"split_conditions":[-1.0408747E-2,3.5205632E-3,-1.0524151E-1,-3.6663437E-1,3.4490705E0,-9.2216986E-1,-8.3333336E-2,5.857867E-1,2.7139126E-3,-0E0,1.0724287E-2,-7.850484E-1,1.9180842E-3,6.4388067E-1,-0E0,1.4685136E-3,-1.8517919E-1,-1.2993211E-2,2.6375386E-1,-8.823155E-3,5.303554E-5,1.8818658E-3,-5.966733E-3],"split_indices":[3,0,14,11,14,14,2,3,0,0,0,14,0,13,0,0,14,0,3,0,0,0,0],"split_type":[0,0,0,0,0,0,0,0,0,0,0,0,0,0,0,0,0,0,0,0,0,0,0],"sum_hessian":[1.12E2,4.8E1,6.4E1,3.3E1,3.1E1,6E0,2.7E1,2.9E1,2E0,2E0,4E0,1.4E1,1.3E1,2.5E1,4E0,2E0,1.2E1,2E1,5E0,1E1,2E0,3E0,2E0],"tree_param":{"num_deleted":"0","num_feature":"16","num_nodes":"23","size_leaf_vector":"1"}},{"base_weights":[8.562556E-3,-2.6537365E-1,1.8317655E-1,-3.1507697E-2,-3.9989403E-1,5.660699E-3,-0E0,2.4283763E-3,-3.6160925E-3,-4.4027296E-1,-0E0,-1.208779E-2,-0E0],"categories":[],"categories_nodes":[],"categories_segments":[],"categories_sizes":[],"default_left":[0,0,0,0,0,0,0,0,0,0,0,0,0],"id":18,"left_children":[1,3,5,7,9,-1,-1,-1,-1,11,-1,-1,-1],"loss_changes":[5.661979E0,1.2147582E0,6.356187E-1,3.8109207E-1,5.4525805E-1,0E0,0E0,0E0,0E0,5.509844E-1,0E0,0E0,0E0],"parents":[2147483647,0,0,1,1,2,2,3,3,4,4,9,9],"right_children":[2,4,6,8,10,-1,-1,-1,-1,12,-1,-1,-1],"split_conditions":[-2.2641447E-1,-5.9044945E-1,1.0440058E0,-5.1846817E-2,4.494382E-2,5.660699E-3,-0E0,2.4283763E-3,-3.6160925E-3,1E0,-0E0,-1.208779E-2,-0E0],"split_indices":[15,15,1,8,7,0,0,0,0,4,0,0,0],"split_type":[0,0,0,0,0,0,0,0,0,0,0,0,0],"sum_hessian":[1.12E2,4.2E1,7E1,1.8E1,2.4E1,5.7E1,1.3E1,7E0,1.1E1,2.2E1,2E0,2E1,2E0],"tree_param":{"num_deleted":"0","num_feature":"16","num_nodes":"13","size_leaf_vector":"1"}},{"base_weights":[-1.6194908E-2,-2.663798E-1,1.2825625E-1,-4.0328085E-1,-1.903077E-2,1.7470674E-1,-1.180369E-3,-1.23428535E-2,-2.6972229E-2,3.9440617E-3,-2.7220547E-3,5.004245E-3,-1.861056E-4,2.2002205E-3,-4.724206E-3],"categories":[],"categories_nodes":[],"categories_segments":[],"categories_sizes":[],"default_left":[0,0,0,0,0,0,0,0,0,0,0,0,0,0,0],"id":19,"left_children":[1,3,5,7,9,11,-1,-1,13,-1,-1,-1,-1,-1,-1],"loss_changes":[4.059822E0,1.2095008E0,6.4634216E-1,6.129036E-1,3.503291E-1,3.4899747E-1,0E0,0E0,2.755433E-1,0E0,0E0,0E0,0E0,0E0,0E0],"parents":[2147483647,0,0,1,1,2,2,3,3,4,4,5,5,8,8],"right_children":[2,4,6,8,10,12,-1,-1,14,-1,-1,-1,-1,-1,-1],"split_conditions":[-2.3860456E-1,6.5249175E-1,1.3202615E0,7.570336E-1,-4.6692672E-1,3.0900854E-1,-1.180369E-3,-1.23428535E-2,-1.5686275E-1,3.9440617E-3,-2.7220547E-3,5.004245E-3,-1.861056E-4,2.2002205E-3,-4.724206E-3],"split_indices":[15,3,9,13,0,3,0,0,9,0,0,0,0,0,0],"split_type":[0,0,0,0,0,0,0,0,0,0,0,0,0,0,0],"sum_hessian":[1.04E2,3.8E1,6.6E1,2.2E1,1.6E1,5.4E1,1.2E1,1.6E1,6E0,3E0,1.3E1,4.9E1,5E0,3E0,3E0],"tree_param":{"num_deleted":"0","num_feature":"16","num_nodes":"15","size_leaf_vector":"1"}},{"base_weights":[-0E0,-2.6766512E-1,1.6209915E-1,-4.1700587E-1,-0E0,4.945439E-3,-0E0,-5.62635E-1,-1.13003805E-1,2.6063393E-3,-2.9860241E-3,-1.5390985E-2,-0E0,1.0085051E-3,-8.207091E-3],"categories":[],"categories_nodes":[],"categories_segments":[],"categories_sizes":[],"default_left":[0,0,0,0,0,0,0,0,0,0,0,0,0,0,0],"id":20,"left_children":[1,3,5,7,9,-1,-1,11,13,-1,-1,-1,-1,-1,-1],"loss_changes":[5.2436786E0,1.6961458E0,5.010197E-1,7.689543E-1,3.0331808E-1,0E0,0E0,3.3491707E-1,6.4020014E-1,0E0,0E0,0E0,0E0,0E0,0E0],"parents":[2147483647,0,0,1,1,2,2,3,3,4,4,7,7,8,8],"right_children":[2,4,6,8,10,-1,-1,12,14,-1,-1,-1,-1,-1,-1],"split_conditions":[-2.2641447E-1,6.5249175E-1,1.2598153E0,-3.713583E-1,-5.1846817E-2,4.945439E-3,-0E0,7.6934165E-1,-2.9549292E-1,2.6063393E-3,-2.9860241E-3,-1.5390985E-2,-0E0,1.0085051E-3,-8.207091E-3],"split_indices":[15,3,1,15,8,0,0,1,15,0,0,0,0,0,0],"split_type":[0,0,0,0,0,0,0,0,0,0,0,0,0,0,0],"sum_hessian":[1.14E2,4.2E1,7.2E1,2.5E1,1.7E1,6E1,1.2E1,1.4E1,1.1E1,8E0,9E0,1.2E1,2E0,7E0,4E0],"tree_param":{"num_deleted":"0","num_feature":"16","num_nodes":"15","size_leaf_vector":"1"}},{"base_weights":[-3.929044E-2,-3.3182186E-1,1.2503636E-1,-4.510265E-1,-2.9763038E-4,-7.874763E-3,3.785975E-3,-4.9198517E-1,-0E0,-5.4557067E-3,1.6710022E-3,-1.3577829E-2,-0E0],"categories":[],"categories_nodes":[],"categories_segments":[],"categories_sizes":[],"default_left":[0,0,0,0,0,0,0,0,0,0,0,0,0],"id":21,"left_children":[1,3,5,7,-1,9,-1,11,-1,-1,-1,-1,-1],"loss_changes":[5.3955345E0,1.3405232E0,3.0899847E-1,6.167002E-1,0E0,3.080643E-1,0E0,5.175309E-1,0E0,0E0,0E0,0E0,0E0],"parents":[2147483647,0,0,1,1,2,2,3,3,5,5,7,7],"right_children":[2,4,6,8,-1,10,-1,12,-1,-1,-1,-1,-1],"split_conditions":[-2.2641447E-1,7.334351E-1,-5.1536072E-2,2.119095E0,-2.9763038E-4,0E0,3.785975E-3,1.7977528E-1,-0E0,-5.4557067E-3,1.6710022E-3,-1.3577829E-2,-0E0],"split_indices":[15,3,15,11,0,13,0,7,0,0,0,0,0],"split_type":[0,0,0,0,0,0,0,0,0,0,0,0,0],"sum_hessian":[1.04E2,3.7E1,6.7E1,2.5E1,1.2E1,9E0,5.8E1,2.3E1,2E0,2E0,7E0,2E1,3E0],"tree_param":{"num_deleted":"0","num_feature":"16","num_nodes":"13","size_leaf_vector":"1"}},{"base_weights":[-5.4078948E-2,-3.469659E-1,7.2007984E-2,-5.447526E-1,-6.84096E-4,-4.0962897E-2,3.3298612E-3,-1.528953E-2,-7.631324E-4,-1.8118292E-1,1.4188917E-2,-7.0896866E-3,2.5764786E-5,4.3483125E-3,-1.8068051E-3],"categories":[],"categories_nodes":[],"categories_segments":[],"categories_sizes":[],"default_left":[0,0,0,0,0,0,0,0,0,0,0,0,0,0,0],"id":22,"left_children":[1,3,5,7,-1,9,-1,-1,-1,11,13,-1,-1,-1,-1],"loss_changes":[3.8718855E0,1.7101908E0,5.502173E-1,3.1357145E-1,0E0,2.729968E-1,0E0,0E0,0E0,2.9131085E-1,3.5398716E-1,0E0,0E0,0E0,0E0],"parents":[2147483647,0,0,1,1,2,2,3,3,5,5,9,9,10,10],"right_children":[2,4,6,8,-1,10,-1,-1,-1,12,14,-1,-1,-1,-1],"split_conditions":[-3.713583E-1,7.334351E-1,2.4286933E-2,2.7414477E-1,-6.84096E-4,-2.4288951E-1,3.3298612E-3,-1.528953E-2,-7.631324E-4,3.1894338E-1,-5.294346E-2,-7.0896866E-3,2.5764786E-5,4.3483125E-3,-1.8068051E-3],"split_indices":[15,3,15,14,0,14,0,0,0,3,11,0,0,0,0],"split_type":[0,0,0,0,0,0,0,0,0,0,0,0,0,0,0],"sum_hessian":[9.6E1,2.8E1,6.8E1,1.5E1,1.3E1,2.2E1,4.6E1,1.2E1,3E0,6E0,1.6E1,4E0,2E0,6E0,1E1],"tree_param":{"num_deleted":"0","num_feature":"16","num_nodes":"15","size_leaf_vector":"1"}},{"base_weights":[-1.1714037E-2,-2.581989E-1,1.4650108E-1,-1.1002917E-2,-4.0022987E-1,4.719471E-3,-0E0,2.5540001E-3,-4.136E-3,-1.1060635E-2,-0E0],"categories":[],"categories_nodes":[],"categories_segments":[],"categories_sizes":[],"default_left":[0,0,0,0,0,0,0,0,0,0,0],"id":23,"left_children":[1,3,5,7,9,-1,-1,-1,-1,-1,-1],"loss_changes":[4.2913213E0,1.347357E0,3.9389312E-1,4.42736E-1,5.5076027E-1,0E0,0E0,0E0,0E0,0E0,0E0],"parents":[2147483647,0,0,1,1,2,2,3,3,4,4],"right_children":[2,4,6,8,10,-1,-1,-1,-1,-1,-1],"split_conditions":[-2.2641447E-1,-5.828051E-1,1.0196079E0,0E0,1.7977528E-1,4.719471E-3,-0E0,2.5540001E-3,-4.136E-3,-1.1060635E-2,-0E0],"split_indices":[15,15,9,8,7,0,0,0,0,0,0],"split_type":[0,0,0,0,0,0,0,0,0,0,0],"sum_hessian":[1.02E2,4E1,6.2E1,1.7E1,2.3E1,4.7E1,1.5E1,9E0,8E0,2.1E1,2E0],"tree_param":{"num_deleted":"0","num_feature":"16","num_nodes":"11","size_leaf_vector":"1"}},{"base_weights":[-4.403123E-3,-2.4473469E-1,1.4366615E-1,-3.769321E-1,-1.2614256E-3,6.238438E-3,3.3989314E-2,-4.1520143E-1,-0E0,-2.1979793E-3,2.1966684E-3,-0E0,-1.1504324E-2],"categories":[],"categories_nodes":[],"categories_segments":[],"categories_sizes":[],"default_left":[0,0,0,0,0,0,0,0,0,0,0,0,0],"id":24,"left_children":[1,3,5,7,-1,-1,9,11,-1,-1,-1,-1,-1],"loss_changes":[4.380396E0,9.824209E-1,7.219707E-1,4.5854735E-1,0E0,0E0,3.0616197E-1,5.409713E-1,0E0,0E0,0E0,0E0,0E0],"parents":[2147483647,0,0,1,1,2,2,3,3,6,6,7,7],"right_children":[2,4,6,8,-1,-1,10,12,-1,-1,-1,-1,-1],"split_conditions":[-2.2641447E-1,-8.3333336E-2,-4.0567525E-2,1E0,-1.2614256E-3,6.238438E-3,4.4444445E-1,-1.3218497E0,-0E0,-2.1979793E-3,2.1966684E-3,-0E0,-1.1504324E-2],"split_indices":[15,12,1,4,0,0,2,15,0,0,0,0,0],"split_type":[0,0,0,0,0,0,0,0,0,0,0,0,0],"sum_hessian":[1.15E2,4.4E1,7.1E1,2.3E1,2.1E1,3.2E1,3.9E1,2.1E1,2E0,9E0,3E1,2E0,1.9E1],"tree_param":{"num_deleted":"0","num_feature":"16","num_nodes":"13","size_leaf_vector":"1"}},{"base_weights":[2.9804176E-3,-2.2772297E-1,1.4966333E-1,-3.5629192E-1,-1.3421897E-3,6.0035363E-3,2.1917567E-2,-1.0000369E-2,-0E0,-3.6698726E-3,1.8500965E-3],"categories":[],"categories_nodes":[],"categories_segments":[],"categories_sizes":[],"default_left":[0,0,0,0,0,0,0,0,0,0,0],"id":25,"left_children":[1,3,5,7,-1,-1,9,-1,-1,-1,-1],"loss_changes":[3.7597291E0,7.2001934E-1,6.8004966E-1,4.2400336E-1,0E0,0E0,3.120779E-1,0E0,0E0,0E0,0E0],"parents":[2147483647,0,0,1,1,2,2,3,3,6,6],"right_children":[2,4,6,8,-1,-1,10,-1,-1,-1,-1],"split_conditions":[-2.2641447E-1,-8.3333336E-2,1.1140305E-1,1E0,-1.3421897E-3,6.0035363E-3,2.247191E-2,-1.0000369E-2,-0E0,-3.6698726E-3,1.8500965E-3],"split_indices":[15,12,1,4,0,0,7,0,0,0,0],"split_type":[0,0,0,0,0,0,0,0,0,0,0],"sum_hessian":[1.05E2,3.9E1,6.6E1,1.9E1,2E1,3.5E1,3.1E1,1.7E1,2E0,4E0,2.7E1],"tree_param":{"num_deleted":"0","num_feature":"16","num_nodes":"11","size_leaf_vector":"1"}},{"base_weights":[1.1897007E-2,-2.1426395E-1,1.5593468E-1,-1.0439926E-3,-1.01601975E-2,2.647698E-1,8.638204E-2,4.60688E-1,8.985297E-4,-3.4094888E-3,1.3299042E-1,-0E0,1.3592626E-2,-0E0,4.2085606E-3],"categories":[],"categories_nodes":[],"categories_segments":[],"categories_sizes":[],"default_left":[0,0,0,0,0,0,0,0,0,0,0,0,0,0,0],"id":26,"left_children":[1,3,5,-1,-1,7,9,11,-1,-1,13,-1,-1,-1,-1],"loss_changes":[3.9538276E0,1.3026054E0,3.5100698E-1,0E0,0E0,8.8660455E-1,6.175912E-1,4.5104146E-1,0E0,0E0,2.7929074E-1,0E0,0E0,0E0,0E0],"parents":[2147483647,0,0,1,1,2,2,5,5,6,6,7,7,10,10],"right_children":[2,4,6,-1,-1,8,10,12,-1,-1,14,-1,-1,-1,-1],"split_conditions":[-2.2641447E-1,1.8817017E-2,-2.6966292E-1,-1.0439926E-3,-1.01601975E-2,3.0880043E-1,-8.3333336E-2,-4.2189443E-1,8.985297E-4,-3.4094888E-3,1.1642884E-2,-0E0,1.3592626E-2,-0E0,4.2085606E-3],"split_indices":[15,14,7,0,0,15,12,0,0,0,8,0,0,0,0],"split_type":[0,0,0,0,0,0,0,0,0,0,0,0,0,0,0],"sum_hessian":[1.15E2,4.3E1,7.2E1,2.6E1,1.7E1,2.2E1,5E1,9E0,1.3E1,6E0,4.4E1,2E0,7E0,8E0,3.6E1],"tree_param":{"num_deleted":"0","num_feature":"16","num_nodes":"15","size_leaf_vector":"1"}},{"base_weights":[-1.0176264E-3,2.5551973E-3,-1.6967338E-1,2.1839316E-3,-2.3473741E-1,-2.7254382E-1,2.3202705E-3,-4.0795577E-1,-1.0497308E-3,-1.1529266E-2,-0E0],"categories":[],"categories_nodes":[],"categories_segments":[],"categories_sizes":[],"default_left":[0,0,0,0,0,0,0,0,0,0,0],"id":27,"left_children":[1,-1,3,-1,5,7,-1,9,-1,-1,-1],"loss_changes":[2.0462606E0,0E0,8.916402E-1,0E0,6.371875E-1,8.9959264E-1,0E0,5.690274E-1,0E0,0E0,0E0],"parents":[2147483647,0,0,2,2,4,4,5,5,7,7],"right_children":[2,-1,4,-1,6,8,-1,10,-1,-1,-1],"split_conditions":[2.701164E-1,2.5551973E-3,-7.18105E-1,2.1839316E-3,1.6647757E0,-8.3333336E-2,2.3202705E-3,5.857867E-1,-1.0497308E-3,-1.1529266E-2,-0E0],"split_indices":[3,0,14,0,14,12,0,3,0,0,0],"split_type":[0,0,0,0,0,0,0,0,0,0,0],"sum_hessian":[1.09E2,6.7E1,4.2E1,7E0,3.5E1,3.3E1,2E0,1.8E1,1.5E1,1.6E1,2E0],"tree_param":{"num_deleted":"0","num_feature":"16","num_nodes":"11","size_leaf_vector":"1"}},{"base_weights":[9.85762E-3,-1.9736551E-1,3.7666464E-3,-2.2977221E-4,-3.1850457E-1,-4.7336057E-1,-6.592176E-2,-1.3490163E-2,-0E0,1.6874513E-3,-7.326716E-3],"categories":[],"categories_nodes":[],"categories_segments":[],"categories_sizes":[],"default_left":[0,0,0,0,0,0,0,0,0,0,0],"id":28,"left_children":[1,3,-1,-1,5,7,9,-1,-1,-1,-1],"loss_changes":[3.4847183E0,9.41453E-1,0E0,0E0,7.507043E-1,4.5777678E-1,6.2920505E-1,0E0,0E0,0E0,0E0],"parents":[2147483647,0,0,1,1,4,4,5,5,6,6],"right_children":[2,4,-1,-1,6,8,10,-1,-1,-1,-1],"split_conditions":[-2.2641447E-1,-5.9044945E-1,3.7666464E-3,-2.2977221E-4,-3.713583E-1,-1.5277778E-1,-2.9549292E-1,-1.3490163E-2,-0E0,1.6874513E-3,-7.326716E-3],"split_indices":[15,15,0,0,15,2,15,0,0,0,0],"split_type":[0,0,0,0,0,0,0,0,0,0,0],"sum_hessian":[1.13E2,4.4E1,6.9E1,2E1,2.4E1,1.2E1,1.2E1,1E1,2E0,8E0,4E0],"tree_param":{"num_deleted":"0","num_feature":"16","num_nodes":"11","size_leaf_vector":"1"}},{"base_weights":[-7.7576796E-3,-2.4435897E-1,1.2906036E-1,-3.4789765E-1,-1.2321072E-3,4.482172E-3,-4.7798903E-4,-4.2917296E-1,-7.648589E-2,-4.878821E-1,-0E0,3.013368E-3,-7.278661E-3,-0E0,-1.3521144E-2],"categories":[],"categories_nodes":[],"categories_segments":[],"categories_sizes":[],"default_left":[0,0,0,0,0,0,0,0,0,0,0,0,0,0,0],"id":29,"left_children":[1,3,5,7,-1,-1,-1,9,11,13,-1,-1,-1,-1,-1],"loss_changes":[3.7982733E0,6.597197E-1,6.1565006E-1,2.674122E-1,0E0,0E0,0E0,2.8194404E-1,6.7743534E-1,2.594924E-1,0E0,0E0,0E0,0E0,0E0],"parents":[2147483647,0,0,1,1,2,2,3,3,7,7,8,8,9,9],"right_children":[2,4,6,8,-1,-1,-1,10,12,14,-1,-1,-1,-1,-1],"split_conditions":[-2.2641447E-1,-1.5277778E-1,1.0196079E0,-3.9087927E-1,-1.2321072E-3,4.482172E-3,-4.7798903E-4,7.334351E-1,-3.389845E-1,1.6488512E-1,-0E0,3.013368E-3,-7.278661E-3,-0E0,-1.3521144E-2],"split_indices":[15,2,9,15,0,0,0,3,15,3,0,0,0,0,0],"split_type":[0,0,0,0,0,0,0,0,0,0,0,0,0,0,0],"sum_hessian":[1.09E2,4E1,6.9E1,2.3E1,1.7E1,5.3E1,1.6E1,1.5E1,8E0,1.2E1,3E0,4E0,4E0,2E0,1E1],"tree_param":{"num_deleted":"0","num_feature":"16","num_nodes":"15","size_leaf_vector":"1"}},{"base_weights":[-6.7251637E-3,-2.0773573E-1,3.6983758E-3,-3.5675505E-1,-1.2346357E-4,-4.1095933E-1,-0E0,-4.57013E-1,-0E0,-1.2746562E-2,-0E0],"categories":[],"categories_nodes":[],"categories_segments":[],"categories_sizes":[],"default_left":[0,0,0,0,0,0,0,0,0,0,0],"id":30,"left_children":[1,3,-1,5,-1,7,-1,9,-1,-1,-1],"loss_changes":[3.628918E0,1.4055223E0,0E0,6.793189E-1,0E0,6.0159826E-1,0E0,6.8090343E-1,0E0,0E0,0E0],"parents":[2147483647,0,0,1,1,3,3,5,5,7,7],"right_children":[2,4,-1,6,-1,8,-1,10,-1,-1,-1],"split_conditions":[-5.1536072E-2,-8.3333336E-2,3.6983758E-3,1.0265602E0,-1.2346357E-4,4.6636358E-1,-0E0,5.857867E-1,-0E0,-1.2746562E-2,-0E0],"split_indices":[15,12,0,8,0,11,0,3,0,0,0],"split_type":[0,0,0,0,0,0,0,0,0,0,0],"sum_hessian":[1.09E2,4.8E1,6.1E1,2.5E1,2.3E1,2.2E1,3E0,2E1,2E0,1.8E1,2E0],"tree_param":{"num_deleted":"0","num_feature":"16","num_nodes":"11","size_leaf_vector":"1"}},{"base_weights":[3.4471743E-2,1.17827885E-1,-1.0115111E-1,6.2224944E-3,4.3683372E-2,-2.0325728E-1,3.4499527E-3,-5.6291698E-3,2.4248918E-3,-2.6999024E-1,-0E0,6.701728E-3,-1.2155563E-3,-9.033355E-3,2.578157E-3],"categories":[],"categories_nodes":[],"categories_segments":[],"categories_sizes":[],"default_left":[0,0,0,0,0,0,0,0,0,0,0,0,0,0,0],"id":31,"left_children":[1,3,5,-1,7,9,11,-1,-1,13,-1,-1,-1,-1,-1],"loss_changes":[1.3088926E0,5.494857E-1,5.362949E-1,0E0,7.7765584E-1,3.7768453E-1,4.4343248E-1,0E0,0E0,8.6421955E-1,0E0,0E0,0E0,0E0,0E0],"parents":[2147483647,0,0,1,1,2,2,4,4,5,5,6,6,9,9],"right_children":[2,4,6,-1,8,10,12,-1,-1,14,-1,-1,-1,-1,-1],"split_conditions":[2.701164E-1,-2.6966292E-1,-3.9215688E-2,6.2224944E-3,-8.3333336E-2,-1.5277778E-1,-3.6663437E-1,-5.6291698E-3,2.4248918E-3,9.1985995E-1,-0E0,6.701728E-3,-1.2155563E-3,-9.033355E-3,2.578157E-3],"split_indices":[3,7,9,0,2,2,11,0,0,3,0,0,0,0,0],"split_type":[0,0,0,0,0,0,0,0,0,0,0,0,0,0,0],"sum_hessian":[1.08E2,6.9E1,3.9E1,2E1,4.9E1,2E1,1.9E1,5E0,4.4E1,1.5E1,5E0,2E0,1.7E1,1.3E1,2E0],"tree_param":{"num_deleted":"0","num_feature":"16","num_nodes":"15","size_leaf_vector":"1"}},{"base_weights":[-3.324487E-2,-1.9450483E-1,2.8884166E-3,-2.6625377E-1,-0E0,-1.1983489E-2,-1.0192144E-1,2.0302E-3,-5.39492E-3,3.0348224E-3,-1.6929919E-1,-8.588712E-3,-1.6749747E-2,1.2566083E-3,-4.0836437E-3],"categories":[],"categories_nodes":[],"categories_segments":[],"categories_sizes":[],"default_left":[0,0,0,0,0,0,0,0,0,0,0,0,0,0,0],"id":32,"left_children":[1,3,-1,5,7,-1,9,-1,-1,-1,11,-1,13,-1,-1],"loss_changes":[2.9053674E0,7.996912E-1,0E0,1.0847204E0,4.1150683E-1,0E0,5.349629E-1,0E0,0E0,0E0,5.1357204E-1,0E0,2.557131E-1,0E0,0E0],"parents":[2147483647,0,0,1,1,3,3,4,4,6,6,10,10,12,12],"right_children":[2,4,-1,6,8,-1,10,-1,-1,-1,12,-1,14,-1,-1],"split_conditions":[2.4286933E-2,6.5249175E-1,2.8884166E-3,-3.713583E-1,1.6271023E-1,-1.1983489E-2,-3.389845E-1,2.0302E-3,-5.39492E-3,3.0348224E-3,-1.0114046E-1,-8.588712E-3,2.6375386E-1,1.2566083E-3,-4.0836437E-3],"split_indices":[15,3,0,15,8,0,15,0,0,0,13,0,3,0,0],"split_type":[0,0,0,0,0,0,0,0,0,0,0,0,0,0,0],"sum_hessian":[1.13E2,5.5E1,5.8E1,3.9E1,1.6E1,1.3E1,2.6E1,1.3E1,3E0,4E0,2.2E1,7E0,1.5E1,1E1,5E0],"tree_param":{"num_deleted":"0","num_feature":"16","num_nodes":"15","size_leaf_vector":"1"}},{"base_weights":[-6.3643535E-3,-2.907268E-1,1.0727396E-1,-4.748271E-1,-6.4060016E-4,2.2620067E-1,3.2473646E-2,-1.3033107E-2,-0E0,-0E0,6.905805E-3,-1.2781447E-1,9.0126164E-2,8.6427684E-4,-2.2382928E-1,-9.927455E-4,3.527414E-3,-0E0,-7.7520735E-3],"categories":[],"categories_nodes":[],"categories_segments":[],"categories_sizes":[],"default_left":[0,0,0,0,0,0,0,0,0,0,0,0,0,0,0,0,0,0,0],"id":33,"left_children":[1,3,5,7,-1,9,11,-1,-1,-1,-1,13,15,-1,17,-1,-1,-1,-1],"loss_changes":[3.5270848E0,1.2946088E0,5.424502E-1,2.6700997E-1,0E0,2.8462207E-1,5.103959E-1,0E0,0E0,0E0,0E0,3.1327042E-1,3.414211E-1,0E0,2.91242E-1,0E0,0E0,0E0,0E0],"parents":[2147483647,0,0,1,1,2,2,3,3,5,5,6,6,11,11,12,12,14,14],"right_children":[2,4,6,8,-1,10,12,-1,-1,-1,-1,14,16,-1,18,-1,-1,-1,-1],"split_conditions":[-3.713583E-1,6.5249175E-1,-1.5608929E-1,-1.6748802E-1,-6.4060016E-4,-1.188439E0,-8.3333336E-2,-1.3033107E-2,-0E0,-0E0,6.905805E-3,-3.1058523E-1,1.1642884E-2,8.6427684E-4,0E0,-9.927455E-4,3.527414E-3,-0E0,-7.7520735E-3],"split_indices":[15,3,11,8,0,3,12,0,0,0,0,13,8,0,3,0,0,0,0],"split_type":[0,0,0,0,0,0,0,0,0,0,0,0,0,0,0,0,0,0,0],"sum_hessian":[1E2,2.8E1,7.2E1,1.4E1,1.4E1,2.3E1,4.9E1,1.2E1,2E0,5E0,1.8E1,1E1,3.9E1,3E0,7E0,9E0,3E1,2E0,5E0],"tree_param":{"num_deleted":"0","num_feature":"16","num_nodes":"19","size_leaf_vector":"1"}},{"base_weights":[-1.2495156E-2,-1.9095053E-1,1.1498265E-1,-3.0524722E-1,-6.448555E-4,2.1551579E-1,1.6138847E-4,-3.5011023E-1,-0E0,3.3310112E-1,1.7575562E-3,-9.84042E-3,-0E0,-0E0,9.675665E-3],"categories":[],"categories_nodes":[],"categories_segments":[],"categories_sizes":[],"default_left":[0,0,0,0,0,0,0,0,0,0,0,0,0,0,0],"id":34,"left_children":[1,3,5,7,-1,9,-1,11,-1,13,-1,-1,-1,-1,-1],"loss_changes":[2.6665068E0,7.744281E-1,6.3189507E-1,4.4080472E-1,0E0,3.1161332E-1,0E0,4.8287797E-1,0E0,3.0233586E-1,0E0,0E0,0E0,0E0,0E0],"parents":[2147483647,0,0,1,1,2,2,3,3,5,5,7,7,9,9],"right_children":[2,4,6,8,-1,10,-1,12,-1,14,-1,-1,-1,-1,-1],"split_conditions":[-1.3385916E-1,-8.3333336E-2,-6.374897E-2,1.3980432E0,-6.448555E-4,3.1268972E-1,1.6138847E-4,1.1536585E0,-0E0,-4.295258E-1,1.7575562E-3,-9.84042E-3,-0E0,-0E0,9.675665E-3],"split_indices":[15,12,1,13,0,15,0,11,0,0,0,0,0,0,0],"split_type":[0,0,0,0,0,0,0,0,0,0,0,0,0,0,0],"sum_hessian":[1.09E2,4.6E1,6.3E1,2.4E1,2.2E1,2.9E1,3.4E1,2.1E1,3E0,1.2E1,1.7E1,1.9E1,2E0,2E0,1E1],"tree_param":{"num_deleted":"0","num_feature":"16","num_nodes":"15","size_leaf_vector":"1"}},{"base_weights":[-9.112817E-3,5.3918988E-2,-1.4348727E-1,2.1278833E-1,-1.1720064E-2,3.3148993E-2,-3.077306E-1,8.8944E-4,1.0399802E-2,-3.5252145E-1,7.574053E-2,6.506449E-3,-7.8239647E-4,-3.85912E-1,-0E0,-1.1242916E-2,5.773455E-5,-1.5380217E-3,3.1843816E-3,-1.1304743E-2,-0E0],"categories":[],"categories_nodes":[],"categories_segments":[],"categories_sizes":[],"default_left":[0,0,0,0,0,0,0,0,0,0,0,0,0,0,0,0,0,0,0,0,0],"id":35,"left_children":[1,3,5,7,9,11,13,-1,-1,15,17,-1,-1,19,-1,-1,-1,-1,-1,-1,-1],"loss_changes":[1.0581148E0,9.286126E-1,1.3204944E0,6.8582404E-1,1.9478544E0,4.3476638E-1,4.7553396E-1,0E0,0E0,6.481837E-1,3.9751008E-1,0E0,0E0,3.5865355E-1,0E0,0E0,0E0,0E0,0E0,0E0,0E0],"parents":[2147483647,0,0,1,1,2,2,3,3,4,4,5,5,6,6,9,9,10,10,13,13],"right_children":[2,4,6,8,10,12,14,-1,-1,16,18,-1,-1,20,-1,-1,-1,-1,-1,-1,-1],"split_conditions":[3.1293634E-1,-2.6966292E-1,-2.8925714E-1,-4.2096794E-1,-1.6666667E-1,-3.6663437E-1,6.5249175E-1,8.8944E-4,1.0399802E-2,2.4134927E0,1.1642884E-2,6.506449E-3,-7.8239647E-4,-1.6666667E-1,-0E0,-1.1242916E-2,5.773455E-5,-1.5380217E-3,3.1843816E-3,-1.1304743E-2,-0E0],"split_indices":[3,7,14,0,12,11,3,0,0,11,8,0,0,12,0,0,0,0,0,0,0],"split_type":[0,0,0,0,0,0,0,0,0,0,0,0,0,0,0,0,0,0,0,0,0],"sum_hessian":[1.14E2,7.7E1,3.7E1,2.2E1,5.5E1,1.8E1,1.9E1,1.5E1,7E0,1E1,4.5E1,3E0,1.5E1,1.4E1,5E0,8E0,2E0,1E1,3.5E1,1.1E1,3E0],"tree_param":{"num_deleted":"0","num_feature":"16","num_nodes":"21","size_leaf_vector":"1"}},{"base_weights":[-6.459703E-3,1.0728421E-1,-6.272112E-2,-2.7138363E-3,2.6543325E-1,-8.798215E-3,1.0672184E-2,-5.82654E-3,3.5748922E-3,9.162143E-3,-0E0,-3.916819E-3,1.1574639E-3],"categories":[],"categories_nodes":[],"categories_segments":[],"categories_sizes":[],"default_left":[0,0,0,0,0,0,0,0,0,0,0,0,0],"id":36,"left_children":[1,3,5,7,9,-1,11,-1,-1,-1,-1,-1,-1],"loss_changes":[7.3205733E-1,7.425661E-1,1.8583322E0,9.414209E-1,3.8208103E-1,0E0,3.7770426E-1,0E0,0E0,0E0,0E0,0E0,0E0],"parents":[2147483647,0,0,1,1,2,2,3,3,4,4,6,6],"right_children":[2,4,6,8,10,-1,12,-1,-1,-1,-1,-1,-1],"split_conditions":[-2.6966292E-1,-5.1368517E-1,-1.6666667E-1,6.0510304E-2,-3.1460676E-1,-8.798215E-3,-1.5277778E-1,-5.82654E-3,3.5748922E-3,9.162143E-3,-0E0,-3.916819E-3,1.1574639E-3],"split_indices":[7,1,12,14,7,0,2,0,0,0,0,0,0],"split_type":[0,0,0,0,0,0,0,0,0,0,0,0,0],"sum_hessian":[1.1E2,3.3E1,7.7E1,2E1,1.3E1,1.4E1,6.3E1,8E0,1.2E1,8E0,5E0,7E0,5.6E1],"tree_param":{"num_deleted":"0","num_feature":"16","num_nodes":"13","size_leaf_vector":"1"}},{"base_weights":[-1.8594105E-2,-2.0827578E-1,1.4236858E-1,-3.2896218E-1,-6.148283E-4,2.3305313E-1,9.873975E-4,-3.9907545E-1,9.412658E-4,1.0483557E-3,9.341501E-3,-1.1649373E-2,2.6122031E-3],"categories":[],"categories_nodes":[],"categories_segments":[],"categories_sizes":[],"default_left":[0,0,0,0,0,0,0,0,0,0,0,0,0],"id":37,"left_children":[1,3,5,7,-1,9,-1,11,-1,-1,-1,-1,-1],"loss_changes":[3.7176166E0,1.0827534E0,4.6048236E-1,1.032553E0,0E0,6.254084E-1,0E0,1.2751169E0,0E0,0E0,0E0,0E0,0E0],"parents":[2147483647,0,0,1,1,2,2,3,3,5,5,7,7],"right_children":[2,4,6,8,-1,10,-1,12,-1,-1,-1,-1,-1],"split_conditions":[-5.1536072E-2,-8.3333336E-2,-5.3749718E-2,1.2513537E0,-6.148283E-4,-4.918932E-1,9.873975E-4,9.1985995E-1,9.412658E-4,1.0483557E-3,9.341501E-3,-1.1649373E-2,2.6122031E-3],"split_indices":[15,12,1,8,0,0,0,3,0,0,0,0,0],"split_type":[0,0,0,0,0,0,0,0,0,0,0,0,0],"sum_hessian":[1.14E2,5.3E1,6.1E1,2.9E1,2.4E1,2.8E1,3.3E1,2.5E1,4E0,1.5E1,1.3E1,2.3E1,2E0],"tree_param":{"num_deleted":"0","num_feature":"16","num_nodes":"13","size_leaf_vector":"1"}},{"base_weights":[-2.5317172E-2,-1.9362862E-1,1.0300326E-1,-2.52624E-1,-0E0,1.9629684E-1,3.5669498E-5,-3.7537953E-1,-3.8832277E-2,3.5661012E-1,5.3359865E-4,-1.0774164E-2,-0E0,1.1197242E-3,-4.6365275E-3,-0E0,1.0454803E-2],"categories":[],"categories_nodes":[],"categories_segments":[],"categories_sizes":[],"default_left":[0,0,0,0,0,0,0,0,0,0,0,0,0,0,0,0,0],"id":38,"left_children":[1,3,5,7,-1,9,-1,11,13,15,-1,-1,-1,-1,-1,-1,-1],"loss_changes":[2.4494169E0,6.6498995E-1,5.122074E-1,8.1993866E-1,0E0,6.7761993E-1,0E0,4.961295E-1,3.2443705E-1,3.420819E-1,0E0,0E0,0E0,0E0,0E0,0E0,0E0],"parents":[2147483647,0,0,1,1,2,2,3,3,5,5,7,7,8,8,9,9],"right_children":[2,4,6,8,-1,10,-1,12,14,16,-1,-1,-1,-1,-1,-1,-1],"split_conditions":[-1.3385916E-1,9.432137E-1,-5.3749718E-2,-1.6666667E-1,-0E0,3.1268972E-1,3.5669498E-5,6.1061126E-1,-8.6849835E-3,-4.295258E-1,5.3359865E-4,-1.0774164E-2,-0E0,1.1197242E-3,-4.6365275E-3,-0E0,1.0454803E-2],"split_indices":[15,3,1,12,0,15,0,14,14,0,0,0,0,0,0,0,0],"split_type":[0,0,0,0,0,0,0,0,0,0,0,0,0,0,0,0,0],"sum_hessian":[1.05E2,4.6E1,5.9E1,3.6E1,1E1,2.7E1,3.2E1,2E1,1.6E1,1.1E1,1.6E1,1.7E1,3E0,1E1,6E0,2E0,9E0],"tree_param":{"num_deleted":"0","num_feature":"16","num_nodes":"17","size_leaf_vector":"1"}},{"base_weights":[-2.4518326E-3,1.06097475E-1,-6.5258764E-2,-0E0,7.4331327E-3,-3.892382E-1,1.234263E-2,-4.9734865E-3,2.8660027E-3,-1.1974078E-2,1.4913557E-4,-2.8220562E-3,6.129235E-2,-3.231259E-3,2.1814993E-3],"categories":[],"categories_nodes":[],"categories_segments":[],"categories_sizes":[],"default_left":[0,0,0,0,0,0,0,0,0,0,0,0,0,0,0],"id":39,"left_children":[1,3,5,7,-1,9,11,-1,-1,-1,-1,-1,13,-1,-1],"loss_changes":[7.6124793E-1,7.487931E-1,2.0405967E0,7.3769504E-1,0E0,7.488229E-1,3.866876E-1,0E0,0E0,0E0,0E0,0E0,2.676012E-1,0E0,0E0],"parents":[2147483647,0,0,1,1,2,2,3,3,5,5,6,6,12,12],"right_children":[2,4,6,8,-1,10,12,-1,-1,-1,-1,-1,14,-1,-1],"split_conditions":[-2.6966292E-1,-4.2096794E-1,-1.6666667E-1,6.0510304E-2,7.4331327E-3,2.4134927E0,-1.0383596E-1,-4.9734865E-3,2.8660027E-3,-1.1974078E-2,1.4913557E-4,-2.8220562E-3,-1.8055555E-1,-3.231259E-3,2.1814993E-3],"split_indices":[7,0,12,14,0,11,11,0,0,0,0,0,2,0,0],"split_type":[0,0,0,0,0,0,0,0,0,0,0,0,0,0,0],"sum_hessian":[1.07E2,3.6E1,7.1E1,2.6E1,1E1,1.2E1,5.9E1,8E0,1.8E1,1E1,2E0,1.3E1,4.6E1,2E0,4.4E1],"tree_param":{"num_deleted":"0","num_feature":"16","num_nodes":"15","size_leaf_vector":"1"}},{"base_weights":[-5.859605E-3,5.2244507E-2,-1.1676664E-1,4.5742197E-3,-1.5501004E-3,-2.3116717E-1,-0E0,-7.178956E-3,6.67408E-2,2.9272835E-3,-3.2163522E-1,-1.6864395E-3,2.7787078E-3,-9.679227E-3,-0E0],"categories":[],"categories_nodes":[],"categories_segments":[],"categories_sizes":[],"default_left":[0,0,0,0,0,0,0,0,0,0,0,0,0,0,0],"id":40,"left_children":[1,3,5,-1,7,9,-1,-1,11,-1,13,-1,-1,-1,-1],"loss_changes":[7.979043E-1,6.115281E-1,6.627006E-1,0E0,1.2377415E0,9.540274E-1,0E0,0E0,3.2083136E-1,0E0,5.0253963E-1,0E0,0E0,0E0,0E0],"parents":[2147483647,0,0,1,1,2,2,4,4,5,5,8,8,10,10],"right_children":[2,4,6,-1,8,10,-1,-1,12,-1,14,-1,-1,-1,-1],"split_conditions":[3.1293634E-1,-2.6966292E-1,-1.5277778E-1,4.5742197E-3,-1.6666667E-1,-7.228419E-1,-0E0,-7.178956E-3,1.1642884E-2,2.9272835E-3,7.334351E-1,-1.6864395E-3,2.7787078E-3,-9.679227E-3,-0E0],"split_indices":[3,7,2,0,12,14,0,0,8,0,3,0,0,0,0],"split_type":[0,0,0,0,0,0,0,0,0,0,0,0,0,0,0],"sum_hessian":[1.13E2,7.3E1,4E1,2.1E1,5.2E1,2E1,2E1,9E0,4.3E1,3E0,1.7E1,8E0,3.5E1,1.4E1,3E0],"tree_param":{"num_deleted":"0","num_feature":"16","num_nodes":"15","size_leaf_vector":"1"}},{"base_weights":[-1.51592E-2,-1.5743575E-1,8.766821E-2,-2.5585192E-1,1.0757753E-2,3.227107E-3,-1.0243518E-3,-9.079305E-3,2.52045E-2,2.0099017E-3,-3.9399695E-3,3.696546E-3,-3.2492534E-3],"categories":[],"categories_nodes":[],"categories_segments":[],"categories_sizes":[],"default_left":[0,0,0,0,0,0,0,0,0,0,0,0,0],"id":41,"left_children":[1,3,5,7,9,-1,-1,-1,11,-1,-1,-1,-1],"loss_changes":[1.7367115E0,9.435955E-1,4.080584E-1,1.1776872E0,2.5380838E-1,0E0,0E0,0E0,2.933014E-1,0E0,0E0,0E0,0E0],"parents":[2147483647,0,0,1,1,2,2,3,3,4,4,8,8],"right_children":[2,4,6,8,10,-1,-1,-1,12,-1,-1,-1,-1],"split_conditions":[-1.3385916E-1,6.5249175E-1,1.2598153E0,8.6233445E-2,3.349143E-1,3.227107E-3,-1.0243518E-3,-9.079305E-3,-1.5686275E-1,2.0099017E-3,-3.9399695E-3,3.696546E-3,-3.2492534E-3],"split_indices":[15,3,1,8,8,0,0,0,9,0,0,0,0],"split_type":[0,0,0,0,0,0,0,0,0,0,0,0,0],"sum_hessian":[1.1E2,4.7E1,6.3E1,3E1,1.7E1,5E1,1.3E1,2.2E1,8E0,1.5E1,2E0,6E0,2E0],"tree_param":{"num_deleted":"0","num_feature":"16","num_nodes":"13","size_leaf_vector":"1"}},{"base_weights":[-3.9603836E-3,-1.7918338E-1,1.04233555E-1,-3.3903882E-1,-5.6669506E-4,2.4379316E-1,1.6148759E-2,-9.662802E-3,-0E0,9.449067E-3,1.8581239E-3,-1.4727393E-1,1.5458845E-3,1.733545E-4,-7.092979E-3],"categories":[],"categories_nodes":[],"categories_segments":[],"categories_sizes":[],"default_left":[0,0,0,0,0,0,0,0,0,0,0,0,0,0,0],"id":42,"left_children":[1,3,5,7,-1,9,11,-1,-1,-1,-1,13,-1,-1,-1],"loss_changes":[2.1712573E0,9.418032E-1,7.2431976E-1,4.0732408E-1,0E0,2.778306E-1,3.5234416E-1,0E0,0E0,0E0,0E0,3.174889E-1,0E0,0E0,0E0],"parents":[2147483647,0,0,1,1,2,2,3,3,5,5,6,6,11,11],"right_children":[2,4,6,8,-1,10,12,-1,-1,-1,-1,14,-1,-1,-1],"split_conditions":[-2.2641447E-1,-1.7963083E-1,-3.4510922E-1,6.5249175E-1,-5.6669506E-4,1.3016371E-1,-1.6666667E-1,-9.662802E-3,-0E0,9.449067E-3,1.8581239E-3,-3.1058523E-1,1.5458845E-3,1.733545E-4,-7.092979E-3],"split_indices":[15,8,1,3,0,14,12,0,0,0,0,13,0,0,0],"split_type":[0,0,0,0,0,0,0,0,0,0,0,0,0,0,0],"sum_hessian":[1.06E2,4.1E1,6.5E1,1.7E1,2.4E1,2.1E1,4.4E1,1.5E1,2E0,8E0,1.3E1,6E0,3.8E1,3E0,3E0],"tree_param":{"num_deleted":"0","num_feature":"16","num_nodes":"15","size_leaf_vector":"1"}},{"base_weights":[-0E0,-1.9321907E-1,9.8250054E-2,-9.411343E-3,-1.0969145E-2,2.2691333E-1,1.8210512E-2,2.838725E-3,-3.167078E-3,8.867406E-3,5.5213686E-4,-3.5328579E-3,2.2876225E-3],"categories":[],"categories_nodes":[],"categories_segments":[],"categories_sizes":[],"default_left":[0,0,0,0,0,0,0,0,0,0,0,0,0],"id":43,"left_children":[1,3,5,-1,7,9,11,-1,-1,-1,-1,-1,-1],"loss_changes":[2.1481235E0,1.0828722E0,6.855943E-1,0E0,3.941997E-1,5.416409E-1,6.508713E-1,0E0,0E0,0E0,0E0,0E0,0E0],"parents":[2147483647,0,0,1,1,2,2,4,4,5,5,6,6],"right_children":[2,4,6,-1,8,10,12,-1,-1,-1,-1,-1,-1],"split_conditions":[-3.9087927E-1,6.5249175E-1,-3.4510922E-1,-9.411343E-3,-5.1846817E-2,4.7810665E-1,-3.2074902E-2,2.838725E-3,-3.167078E-3,8.867406E-3,5.5213686E-4,-3.5328579E-3,2.2876225E-3],"split_indices":[15,3,1,0,8,14,8,0,0,0,0,0,0],"split_type":[0,0,0,0,0,0,0,0,0,0,0,0,0],"sum_hessian":[1.08E2,3.4E1,7.4E1,1.4E1,2E1,2.4E1,5E1,8E0,1.2E1,1.2E1,1.2E1,1.3E1,3.7E1],"tree_param":{"num_deleted":"0","num_feature":"16","num_nodes":"13","size_leaf_vector":"1"}},{"base_weights":[-0E0,5.842142E-2,-1.20124266E-1,4.656082E-3,-2.488234E-3,2.4819945E-3,-2.5369528E-1,-2.4487789E-1,6.225265E-2,5.3434484E-3,-3.510799E-2,-3.33959E-1,-0E0,-0E0,-7.835867E-3,-2.0592625E-3,2.6900887E-3,-4.3072416E-3,8.9144474E-4,-1.0613762E-2,-0E0],"categories":[],"categories_nodes":[],"categories_segments":[],"categories_sizes":[],"default_left":[0,0,0,0,0,0,0,0,0,0,0,0,0,0,0,0,0,0,0,0,0],"id":44,"left_children":[1,3,5,-1,7,9,11,13,15,-1,17,19,-1,-1,-1,-1,-1,-1,-1,-1,-1],"loss_changes":[8.379041E-1,6.862924E-1,7.495665E-1,0E0,9.816475E-1,2.7639055E-1,5.2081573E-1,3.2024485E-1,3.329811E-1,0E0,2.7516413E-1,4.1281664E-1,0E0,0E0,0E0,0E0,0E0,0E0,0E0,0E0,0E0],"parents":[2147483647,0,0,1,1,2,2,4,4,5,5,6,6,7,7,8,8,10,10,11,11],"right_children":[2,4,6,-1,8,10,12,14,16,-1,18,20,-1,-1,-1,-1,-1,-1,-1,-1,-1],"split_conditions":[3.1293634E-1,-2.6966292E-1,-2.9014558E-1,4.656082E-3,-8.3333336E-2,-4.6002552E-1,5.857867E-1,-1.2769644E-1,-3.2074902E-2,5.3434484E-3,6.535948E-2,-1.5277778E-1,-0E0,-0E0,-7.835867E-3,-2.0592625E-3,2.6900887E-3,-4.3072416E-3,8.9144474E-4,-1.0613762E-2,-0E0],"split_indices":[3,7,14,0,2,1,3,3,8,0,9,2,0,0,0,0,0,0,0,0,0],"split_type":[0,0,0,0,0,0,0,0,0,0,0,0,0,0,0,0,0,0,0,0,0],"sum_hessian":[1.11E2,7.5E1,3.6E1,2.4E1,5.1E1,1.9E1,1.7E1,1E1,4.1E1,2E0,1.7E1,1.3E1,4E0,2E0,8E0,7E0,3.4E1,6E0,1.1E1,9E0,4E0],"tree_param":{"num_deleted":"0","num_feature":"16","num_nodes":"21","size_leaf_vector":"1"}},{"base_weights":[-0E0,5.6621302E-2,-9.862134E-2,1.8990032E-1,-0E0,-1.9053319E-1,1.1278686E-2,-0E0,8.07267E-3,-6.8207197E-3,5.516488E-2,-2.6973632E-1,2.3304706E-3,6.255144E-3,-8.8092824E-4,-2.6324773E-3,2.5468967E-3,-3.0644727E-1,-0E0,-8.63209E-3,-0E0],"categories":[],"categories_nodes":[],"categories_segments":[],"categories_sizes":[],"default_left":[0,0,0,0,0,0,0,0,0,0,0,0,0,0,0,0,0,0,0,0,0],"id":45,"left_children":[1,3,5,7,9,11,13,-1,-1,-1,15,17,-1,-1,-1,-1,-1,19,-1,-1,-1],"loss_changes":[6.911118E-1,6.0861516E-1,5.48925E-1,5.601683E-1,9.261235E-1,7.7664924E-1,3.6690778E-1,0E0,0E0,0E0,3.9220962E-1,3.092575E-1,0E0,0E0,0E0,0E0,0E0,3.057413E-1,0E0,0E0,0E0],"parents":[2147483647,0,0,1,1,2,2,3,3,4,4,5,5,6,6,10,10,11,11,17,17],"right_children":[2,4,6,8,10,12,14,-1,-1,-1,16,18,-1,-1,-1,-1,-1,20,-1,-1,-1],"split_conditions":[2.6375386E-1,-2.6966292E-1,-2.6143791E-2,-4.918932E-1,-8.3333336E-2,1.5347718E-1,-3.6663437E-1,-0E0,8.07267E-3,-6.8207197E-3,-3.2074902E-2,5.443648E-1,2.3304706E-3,6.255144E-3,-8.8092824E-4,-2.6324773E-3,2.5468967E-3,-8.3333336E-2,-0E0,-8.63209E-3,-0E0],"split_indices":[3,7,9,0,2,14,11,0,0,0,8,11,0,0,0,0,0,2,0,0,0],"split_type":[0,0,0,0,0,0,0,0,0,0,0,0,0,0,0,0,0,0,0,0,0],"sum_hessian":[1.14E2,7.1E1,4.3E1,2E1,5.1E1,2.4E1,1.9E1,1E1,1E1,7E0,4.4E1,2E1,4E0,2E0,1.7E1,7E0,3.7E1,1.8E1,2E0,1.6E1,2E0],"tree_param":{"num_deleted":"0","num_feature":"16","num_nodes":"21","size_leaf_vector":"1"}},{"base_weights":[-1.3225561E-2,1.5837416E-3,-1.2393459E-1,9.628964E-2,-1.8563354E-1,6.5626777E-3,-0E0,-2.5505167E-1,-6.317404E-3,-2.9850507E-1,-0E0,3.9043147E-3,-2.3503215E-3,-3.4452492E-1,1.7471139E-4,-9.7934855E-3,-0E0],"categories":[],"categories_nodes":[],"categories_segments":[],"categories_sizes":[],"default_left":[0,0,0,0,0,0,0,0,0,0,0,0,0,0,0,0,0],"id":46,"left_children":[1,-1,3,5,7,-1,-1,9,11,13,-1,-1,-1,15,-1,-1,-1],"loss_changes":[9.884847E-1,0E0,7.5729746E-1,2.723804E-1,3.9394844E-1,0E0,0E0,3.9416683E-1,2.6164287E-1,4.8788142E-1,0E0,0E0,0E0,3.2177353E-1,0E0,0E0,0E0],"parents":[2147483647,0,0,2,2,3,3,4,4,7,7,8,8,9,9,13,13],"right_children":[2,-1,4,6,8,-1,-1,10,12,14,-1,-1,-1,16,-1,-1,-1],"split_conditions":[1.4274679E-1,1.5837416E-3,-7.18105E-1,-3.6262342E-1,6.5249175E-1,6.5626777E-3,-0E0,4.6636358E-1,-4.6692672E-1,2.168865E0,-0E0,3.9043147E-3,-2.3503215E-3,-1.6666667E-1,1.7471139E-4,-9.7934855E-3,-0E0],"split_indices":[3,0,14,0,3,0,0,11,0,0,0,0,0,12,0,0,0],"split_type":[0,0,0,0,0,0,0,0,0,0,0,0,0,0,0,0,0],"sum_hessian":[1.07E2,6.2E1,4.5E1,8E0,3.7E1,2E0,6E0,2.4E1,1.3E1,2.1E1,3E0,2E0,1.1E1,1.9E1,2E0,1.6E1,3E0],"tree_param":{"num_deleted":"0","num_feature":"16","num_nodes":"17","size_leaf_vector":"1"}},{"base_weights":[-0E0,-1.7752966E-1,7.98893E-2,-4.502433E-4,-9.690664E-3,1.922816E-1,1.7359238E-2,9.221311E-3,1.21152865E-4,-1.9606116E-1,1.0220934E-1,-2.6643232E-1,-0E0,-1.5905496E-3,3.854785E-3,-0E0,-8.202265E-3],"categories":[],"categories_nodes":[],"categories_segments":[],"categories_sizes":[],"default_left":[0,0,0,0,0,0,0,0,0,0,0,0,0,0,0,0,0],"id":47,"left_children":[1,3,5,-1,-1,7,9,-1,-1,11,13,15,-1,-1,-1,-1,-1],"loss_changes":[1.67052E0,1.0365961E0,4.7723478E-1,0E0,0E0,7.2129875E-1,1.0919582E0,0E0,0E0,3.2405365E-1,4.6278426E-1,2.795862E-1,0E0,0E0,0E0,0E0,0E0],"parents":[2147483647,0,0,1,1,2,2,5,5,6,6,9,9,10,10,11,11],"right_children":[2,4,6,-1,-1,8,10,-1,-1,12,14,16,-1,-1,-1,-1,-1],"split_conditions":[-3.9087927E-1,-5.107161E-1,-3.570108E-1,-4.502433E-4,-9.690664E-3,3.0880043E-1,-8.3333336E-2,9.221311E-3,1.21152865E-4,1.1536585E0,1.1642884E-2,0E0,-0E0,-1.5905496E-3,3.854785E-3,-0E0,-8.202265E-3],"split_indices":[15,15,11,0,0,15,12,0,0,11,8,3,0,0,0,0,0],"split_type":[0,0,0,0,0,0,0,0,0,0,0,0,0,0,0,0,0],"sum_hessian":[1.11E2,3.3E1,7.8E1,2.2E1,1.1E1,2.3E1,5.5E1,9E0,1.4E1,1.3E1,4.2E1,1E1,3E0,8E0,3.4E1,2E0,8E0],"tree_param":{"num_deleted":"0","num_feature":"16","num_nodes":"17","size_leaf_vector":"1"}},{"base_weights":[-1.6715482E-2,-1.5039957E-1,8.26574E-2,-2.0860007E-1,8.391197E-4,1.6307895E-1,-0E0,-3.6365475E-4,-2.574403E-1,7.4567036E-3,3.3769445E-4,-9.293735E-3,-7.531796E-2,1.6592017E-3,-5.1055676E-3],"categories":[],"categories_nodes":[],"categories_segments":[],"categories_sizes":[],"default_left":[0,0,0,0,0,0,0,0,0,0,0,0,0,0,0],"id":48,"left_children":[1,3,5,7,-1,9,-1,-1,11,-1,-1,-1,13,-1,-1],"loss_changes":[1.5518374E0,6.35214E-1,4.236493E-1,2.619431E-1,0E0,5.1835155E-1,0E0,0E0,3.581314E-1,0E0,0E0,0E0,4.2220032E-1,0E0,0E0],"parents":[2147483647,0,0,1,1,2,2,3,3,5,5,8,8,12,12],"right_children":[2,4,6,8,-1,10,-1,-1,12,-1,-1,-1,14,-1,-1],"split_conditions":[-1.3385916E-1,9.432137E-1,-4.0567525E-2,-5.932665E-1,8.391197E-4,3.1268972E-1,-0E0,-3.6365475E-4,-3.713583E-1,7.4567036E-3,3.3769445E-4,-9.293735E-3,-2.9549292E-1,1.6592017E-3,-5.1055676E-3],"split_indices":[15,3,1,15,0,15,0,0,15,0,0,0,15,0,0],"split_type":[0,0,0,0,0,0,0,0,0,0,0,0,0,0,0],"sum_hessian":[1.08E2,4.7E1,6.1E1,3.7E1,1E1,2.9E1,3.2E1,1E1,2.7E1,1.2E1,1.7E1,1.3E1,1.4E1,6E0,8E0],"tree_param":{"num_deleted":"0","num_feature":"16","num_nodes":"15","size_leaf_vector":"1"}},{"base_weights":[7.1908865E-4,-7.195538E-2,7.035368E-2,9.391033E-2,-9.160335E-3,-2.030768E-3,3.1561602E-3,-5.640753E-3,7.7665932E-3,-5.8484334E-3,2.4446948E-3],"categories":[],"categories_nodes":[],"categories_segments":[],"categories_sizes":[],"default_left":[0,0,0,0,0,0,0,0,0,0,0],"id":49,"left_children":[1,3,5,7,-1,-1,-1,9,-1,-1,-1],"loss_changes":[5.7121944E-1,2.7935617E0,5.664833E-1,8.941628E-1,0E0,0E0,0E0,7.602547E-1,0E0,0E0,0E0],"parents":[2147483647,0,0,1,1,2,2,3,3,7,7],"right_children":[2,4,6,8,-1,-1,-1,10,-1,-1,-1],"split_conditions":[-8.3333336E-2,-3.8399488E-1,-7.9030916E-2,-4.531513E-1,-9.160335E-3,-2.030768E-3,3.1561602E-3,1.0308699E-1,7.7665932E-3,-5.8484334E-3,2.4446948E-3],"split_indices":[12,11,11,0,0,0,0,14,0,0,0],"split_type":[0,0,0,0,0,0,0,0,0,0,0],"sum_hessian":[1.06E2,4.9E1,5.7E1,3.2E1,1.7E1,1.3E1,4.4E1,2.3E1,9E0,7E0,1.6E1],"tree_param":{"num_deleted":"0","num_feature":"16","num_nodes":"11","size_leaf_vector":"1"}},{"base_weights":[-1.117132E-2,-1.2870322E-1,2.4086095E-3,-1.7613749E-1,6.723414E-4,-7.588364E-3,-1.1091229E-3],"categories":[],"categories_nodes":[],"categories_segments":[],"categories_sizes":[],"default_left":[0,0,0,0,0,0,0],"id":50,"left_children":[1,3,-1,5,-1,-1,-1],"loss_changes":[1.4905884E0,5.006628E-1,0E0,5.9432423E-1,0E0,0E0,0E0],"parents":[2147483647,0,0,1,1,3,3],"right_children":[2,4,-1,6,-1,-1,-1],"split_conditions":[-2.9773133E-2,9.432137E-1,2.4086095E-3,-1.7963083E-1,6.723414E-4,-7.588364E-3,-1.1091229E-3],"split_indices":[15,3,0,8,0,0,0],"split_type":[0,0,0,0,0,0,0],"sum_hessian":[1.1E2,5.4E1,5.6E1,4.3E1,1.1E1,1.8E1,2.5E1],"tree_param":{"num_deleted":"0","num_feature":"16","num_nodes":"7","size_leaf_vector":"1"}},{"base_weights":[-1.6641393E-2,-1.7436573E-1,2.0992265E-3,-0E0,-2.5424397E-1,-3.5063684E-1,-3.565674E-2,-9.874075E-3,-0E0,1.6723396E-3,-5.398018E-3],"categories":[],"categories_nodes":[],"categories_segments":[],"categories_sizes":[],"default_left":[0,0,0,0,0,0,0,0,0,0,0],"id":51,"left_children":[1,3,-1,-1,5,7,9,-1,-1,-1,-1],"loss_changes":[1.8726337E0,5.5776143E-1,0E0,0E0,4.4436622E-1,3.324752E-1,3.7821272E-1,0E0,0E0,0E0,0E0],"parents":[2147483647,0,0,1,1,4,4,5,5,6,6],"right_children":[2,4,-1,-1,6,8,10,-1,-1,-1,-1],"split_conditions":[-2.2641447E-1,-5.932665E-1,2.0992265E-3,-0E0,-3.713583E-1,5.443648E-1,-2.9549292E-1,-9.874075E-3,-0E0,1.6723396E-3,-5.398018E-3],"split_indices":[15,15,0,0,15,11,15,0,0,0,0],"split_type":[0,0,0,0,0,0,0,0,0,0,0],"sum_hessian":[1.09E2,4.3E1,6.6E1,1.6E1,2.7E1,1.6E1,1.1E1,1.4E1,2E0,7E0,4E0],"tree_param":{"num_deleted":"0","num_feature":"16","num_nodes":"11","size_leaf_vector":"1"}},{"base_weights":[-1.0672689E-2,-1.7881939E-1,8.655438E-2,-2.831823E-1,-4.896414E-4,1.698945E-1,3.409303E-4,-8.068156E-3,-0E0,9.611509E-3,3.1699955E-2,-2.4740787E-3,2.9787128E-3],"categories":[],"categories_nodes":[],"categories_segments":[],"categories_sizes":[],"default_left":[0,0,0,0,0,0,0,0,0,0,0,0,0],"id":52,"left_children":[1,3,5,7,-1,9,-1,-1,-1,-1,11,-1,-1],"loss_changes":[1.9139254E0,5.823679E-1,3.5297835E-1,3.7871623E-1,0E0,6.952609E-1,0E0,0E0,0E0,0E0,3.1786174E-1,0E0,0E0],"parents":[2147483647,0,0,1,1,2,2,3,3,5,5,10,10],"right_children":[2,4,6,8,-1,10,-1,-1,-1,-1,12,-1,-1],"split_conditions":[-2.2641447E-1,-1.6666667E-1,3.1268972E-1,1E0,-4.896414E-4,-4.63162E-1,3.409303E-4,-8.068156E-3,-0E0,9.611509E-3,-9.7222224E-2,-2.4740787E-3,2.9787128E-3],"split_indices":[15,12,15,4,0,11,0,0,0,0,2,0,0],"split_type":[0,0,0,0,0,0,0,0,0,0,0,0,0],"sum_hessian":[1.08E2,4E1,6.8E1,2.1E1,1.9E1,2.7E1,4.1E1,1.9E1,2E0,7E0,2E1,6E0,1.4E1],"tree_param":{"num_deleted":"0","num_feature":"16","num_nodes":"13","size_leaf_vector":"1"}},{"base_weights":[-3.068321E-2,-1.4049688E-1,1.9001438E-3,-2.3826806E-2,-2.2254913E-1,-3.4504652E-3,1.368339E-3,-2.6499033E-1,-0E0,-3.172004E-1,-0E0,-0E0,-8.7729E-3],"categories":[],"categories_nodes":[],"categories_segments":[],"categories_sizes":[],"default_left":[0,0,0,0,0,0,0,0,0,0,0,0,0],"id":53,"left_children":[1,3,-1,5,7,-1,-1,9,-1,11,-1,-1,-1],"loss_changes":[1.4046426E0,4.524864E-1,0E0,3.3336788E-1,3.2138312E-1,0E0,0E0,3.3281517E-1,0E0,2.6055002E-1,0E0,0E0,0E0],"parents":[2147483647,0,0,1,1,3,3,4,4,7,7,9,9],"right_children":[2,4,-1,6,8,-1,-1,10,-1,12,-1,-1,-1],"split_conditions":[-2.9773133E-2,-1.0524151E-1,1.9001438E-3,-2.0231622E-1,1.3980432E0,-3.4504652E-3,1.368339E-3,1.253088E0,-0E0,-1.009794E-1,-0E0,-0E0,-8.7729E-3],"split_indices":[15,14,0,0,13,0,0,11,0,3,0,0,0],"split_type":[0,0,0,0,0,0,0,0,0,0,0,0,0],"sum_hessian":[1.11E2,5.6E1,5.5E1,2.7E1,2.9E1,1.2E1,1.5E1,2.4E1,5E0,1.9E1,5E0,2E0,1.7E1],"tree_param":{"num_deleted":"0","num_feature":"16","num_nodes":"13","size_leaf_vector":"1"}},{"base_weights":[-1.6646968E-2,-1.7188016E-1,5.2053366E-2,-6.4060106E-3,2.1619548E-4,-2.9294807E-3,5.3586513E-3,-4.4216355E-3,9.158479E-4],"categories":[],"categories_nodes":[],"categories_segments":[],"categories_sizes":[],"default_left":[0,0,0,0,0,0,0,0,0],"id":54,"left_children":[1,3,5,-1,-1,7,-1,-1,-1],"loss_changes":[1.2576804E0,6.626655E-1,7.7832115E-1,0E0,0E0,4.8821908E-1,0E0,0E0,0E0],"parents":[2147483647,0,0,1,1,2,2,5,5],"right_children":[2,4,6,-1,-1,8,-1,-1,-1],"split_conditions":[-3.9087927E-1,9.432137E-1,1.94533E-1,-6.4060106E-3,2.1619548E-4,-5.1536072E-2,5.3586513E-3,-4.4216355E-3,9.158479E-4],"split_indices":[15,3,3,0,0,15,0,0,0],"split_type":[0,0,0,0,0,0,0,0,0],"sum_hessian":[1.07E2,3.3E1,7.4E1,2.3E1,1E1,5.6E1,1.8E1,1E1,4.6E1],"tree_param":{"num_deleted":"0","num_feature":"16","num_nodes":"9","size_leaf_vector":"1"}},{"base_weights":[-1.9089863E-2,-1.424176E-1,6.656722E-2,-2.0782043E-1,2.2697193E-3,1.3960576E-1,-0E0,-2.9433948E-1,-4.573996E-2,6.07476E-3,5.7831814E-4,1.1230208E-3,-3.4027626E-3,-8.420232E-3,-0E0,2.9345755E-3,-3.1135136E-3],"categories":[],"categories_nodes":[],"categories_segments":[],"categories_sizes":[],"default_left":[0,0,0,0,0,0,0,0,0,0,0,0,0,0,0,0,0],"id":55,"left_children":[1,3,5,7,-1,9,11,13,15,-1,-1,-1,-1,-1,-1,-1,-1],"loss_changes":[1.2097038E0,8.373366E-1,3.2811564E-1,3.7075782E-1,0E0,2.531851E-1,2.5405118E-1,4.030311E-1,3.0468592E-1,0E0,0E0,0E0,0E0,0E0,0E0,0E0,0E0],"parents":[2147483647,0,0,1,1,2,2,3,3,5,5,6,6,7,7,8,8],"right_children":[2,4,6,8,-1,10,12,14,16,-1,-1,-1,-1,-1,-1,-1,-1],"split_conditions":[-1.3385916E-1,9.647448E-1,1.3842805E-1,-1.6666667E-1,2.2697193E-3,3.106155E-1,-2.2853729E-1,1E0,-1.3483146E-1,6.07476E-3,5.7831814E-4,1.1230208E-3,-3.4027626E-3,-8.420232E-3,-0E0,2.9345755E-3,-3.1135136E-3],"split_indices":[15,3,1,12,0,15,3,4,7,0,0,0,0,0,0,0,0],"split_type":[0,0,0,0,0,0,0,0,0,0,0,0,0,0,0,0,0],"sum_hessian":[1.05E2,4.4E1,6.1E1,3.6E1,8E0,2.8E1,3.3E1,2E1,1.6E1,1.1E1,1.7E1,2.6E1,7E0,1.8E1,2E0,3E0,1.3E1],"tree_param":{"num_deleted":"0","num_feature":"16","num_nodes":"17","size_leaf_vector":"1"}},{"base_weights":[1.1790601E-3,-1.7584409E-1,8.11814E-2,-7.6353983E-3,-0E0,1.839534E-1,-1.8423802E-3,2.8341915E-3,-4.057025E-3,6.910704E-3,1.265804E-4,-6.3674734E-3,9.867223E-4],"categories":[],"categories_nodes":[],"categories_segments":[],"categories_sizes":[],"default_left":[0,0,0,0,0,0,0,0,0,0,0,0,0],"id":56,"left_children":[1,3,5,-1,7,9,11,-1,-1,-1,-1,-1,-1],"loss_changes":[1.64784E0,7.2123766E-1,7.8649616E-1,0E0,4.3717164E-1,5.3594637E-1,6.1745316E-1,0E0,0E0,0E0,0E0,0E0,0E0],"parents":[2147483647,0,0,1,1,2,2,4,4,5,5,6,6],"right_children":[2,4,6,-1,8,10,12,-1,-1,-1,-1,-1,-1],"split_conditions":[-3.713583E-1,6.5249175E-1,-2.3187448E-1,-7.6353983E-3,-4.7677547E-2,3.0880043E-1,-1.6666667E-1,2.8341915E-3,-4.057025E-3,6.910704E-3,1.265804E-4,-6.3674734E-3,9.867223E-4],"split_indices":[15,3,1,0,8,15,12,0,0,0,0,0,0],"split_type":[0,0,0,0,0,0,0,0,0,0,0,0,0],"sum_hessian":[1.12E2,3.2E1,8E1,1.6E1,1.6E1,3.6E1,4.4E1,9E0,7E0,2.1E1,1.5E1,5E0,3.9E1],"tree_param":{"num_deleted":"0","num_feature":"16","num_nodes":"13","size_leaf_vector":"1"}},{"base_weights":[-7.7920295E-3,5.0144456E-2,-8.6876355E-2,1.3136661E-1,-4.884981E-2,3.5006937E-4,-6.7568608E-3,7.582857E-3,1.3053672E-3,-4.170892E-3,1.202626E-3],"categories":[],"categories_nodes":[],"categories_segments":[],"categories_sizes":[],"default_left":[0,0,0,0,0,0,0,0,0,0,0],"id":57,"left_children":[1,3,5,7,9,-1,-1,-1,-1,-1,-1],"loss_changes":[5.3165454E-1,5.580001E-1,1.0500572E0,3.1273192E-1,4.0160203E-1,0E0,0E0,0E0,0E0,0E0,0E0],"parents":[2147483647,0,0,1,1,2,2,3,3,4,4],"right_children":[2,4,6,8,10,-1,-1,-1,-1,-1,-1],"split_conditions":[1.8817017E-2,4.007984E-1,-1.0408747E-2,-3.9594004E-1,7.8431375E-2,3.5006937E-4,-6.7568608E-3,7.582857E-3,1.3053672E-3,-4.170892E-3,1.202626E-3],"split_indices":[14,3,3,11,9,0,0,0,0,0,0],"split_type":[0,0,0,0,0,0,0,0,0,0,0],"sum_hessian":[1.06E2,5.9E1,4.7E1,3.4E1,2.5E1,3.1E1,1.6E1,6E0,2.8E1,1.2E1,1.3E1],"tree_param":{"num_deleted":"0","num_feature":"16","num_nodes":"11","size_leaf_vector":"1"}},{"base_weights":[-0E0,-1.4380948E-1,2.2140238E-3,-2.3985194E-1,-0E0,-7.8676585E-3,-5.9801404E-4],"categories":[],"categories_nodes":[],"categories_segments":[],"categories_sizes":[],"default_left":[0,0,0,0,0,0,0],"id":58,"left_children":[1,3,-1,5,-1,-1,-1],"loss_changes":[1.5017706E0,6.9858205E-1,0E0,2.9885852E-1,0E0,0E0,0E0],"parents":[2147483647,0,0,1,1,3,3],"right_children":[2,4,-1,6,-1,-1,-1],"split_conditions":[-2.2641447E-1,7.334351E-1,2.2140238E-3,-3.713583E-1,-0E0,-7.8676585E-3,-5.9801404E-4],"split_indices":[15,3,0,15,0,0,0],"split_type":[0,0,0,0,0,0,0],"sum_hessian":[1.1E2,4.2E1,6.8E1,2.5E1,1.7E1,1.6E1,9E0],"tree_param":{"num_deleted":"0","num_feature":"16","num_nodes":"7","size_leaf_vector":"1"}},{"base_weights":[-1.5166505E-2,-1.8533136E-1,4.922406E-2,-4.7921506E-4,-8.435989E-3,1.3406268E-1,-0E0,1.3564642E-4,7.1445117E-3],"categories":[],"categories_nodes":[],"categories_segments":[],"categories_sizes":[],"default_left":[0,0,0,0,0,0,0,0,0],"id":59,"left_children":[1,3,5,-1,-1,7,-1,-1,-1],"loss_changes":[1.2861654E0,6.5614617E-1,3.531183E-1,0E0,0E0,4.733435E-1,0E0,0E0,0E0],"parents":[2147483647,0,0,1,1,2,2,5,5],"right_children":[2,4,6,-1,-1,8,-1,-1,-1],"split_conditions":[-3.9087927E-1,-5.828051E-1,-2.7450982E-1,-4.7921506E-4,-8.435989E-3,-5.1368517E-1,-0E0,1.3564642E-4,7.1445117E-3],"split_indices":[15,15,9,0,0,1,0,0,0],"split_type":[0,0,0,0,0,0,0,0,0],"sum_hessian":[1.06E2,2.9E1,7.7E1,1.7E1,1.2E1,2.7E1,5E1,1.8E1,9E0],"tree_param":{"num_deleted":"0","num_feature":"16","num_nodes":"9","size_leaf_vector":"1"}},{"base_weights":[-5.5216113E-3,-1.657053E-1,1.15873694E-1,-6.354299E-4,-2.4899648E-1,6.0936417E-3,5.801238E-4,-2.7951342E-1,-0E0,-7.786546E-3,-0E0],"categories":[],"categories_nodes":[],"categories_segments":[],"categories_sizes":[],"default_left":[0,0,0,0,0,0,0,0,0,0,0],"id":60,"left_children":[1,3,5,-1,7,-1,-1,9,-1,-1,-1],"loss_changes":[2.2358687E0,4.5816422E-1,6.258816E-1,0E0,3.1953526E-1,0E0,0E0,3.2520318E-1,0E0,0E0,0E0],"parents":[2147483647,0,0,1,1,2,2,4,4,7,7],"right_children":[2,4,6,-1,8,-1,-1,10,-1,-1,-1],"split_conditions":[-2.2641447E-1,-5.828051E-1,-2.6966292E-1,-6.354299E-4,1E0,6.0936417E-3,5.801238E-4,1.7977528E-1,-0E0,-7.786546E-3,-0E0],"split_indices":[15,15,7,0,4,0,0,7,0,0,0],"split_type":[0,0,0,0,0,0,0,0,0,0,0],"sum_hessian":[1.07E2,4.7E1,6E1,2.1E1,2.6E1,2.1E1,3.9E1,2.4E1,2E0,2.2E1,2E0],"tree_param":{"num_deleted":"0","num_feature":"16","num_nodes":"11","size_leaf_vector":"1"}},{"base_weights":[7.998768E-3,-1.4583124E-1,8.3343916E-2,-1.3117546E-4,-7.064809E-3,2.2886585E-1,5.5997325E-3,9.691331E-3,1.170399E-3,-1.5471698E-1,1.9298493E-3,1.0438382E-3,-5.382567E-3],"categories":[],"categories_nodes":[],"categories_segments":[],"categories_sizes":[],"default_left":[0,0,0,0,0,0,0,0,0,0,0,0,0],"id":61,"left_children":[1,3,5,-1,-1,7,9,-1,-1,11,-1,-1,-1],"loss_changes":[1.3562293E0,6.0066664E-1,8.23777E-1,0E0,0E0,5.287347E-1,6.822406E-1,0E0,0E0,3.0919126E-1,0E0,0E0,0E0],"parents":[2147483647,0,0,1,1,2,2,5,5,6,6,9,9],"right_children":[2,4,6,-1,-1,8,10,-1,-1,12,-1,-1,-1],"split_conditions":[-3.713583E-1,-5.828051E-1,-3.570108E-1,-1.3117546E-4,-7.064809E-3,3.0880043E-1,-8.3333336E-2,9.691331E-3,1.170399E-3,-3.5155532E-1,1.9298493E-3,1.0438382E-3,-5.382567E-3],"split_indices":[15,15,11,0,0,15,12,0,0,15,0,0,0],"split_type":[0,0,0,0,0,0,0,0,0,0,0,0,0],"sum_hessian":[1.12E2,3.4E1,7.8E1,2E1,1.4E1,2.3E1,5.5E1,9E0,1.4E1,1.4E1,4.1E1,2E0,1.2E1],"tree_param":{"num_deleted":"0","num_feature":"16","num_nodes":"13","size_leaf_vector":"1"}},{"base_weights":[3.611272E-2,1.6679981E-1,-8.885477E-3,3.187982E-1,-0E0,-4.511512E-3,3.5878606E-2,-0E0,1.0109924E-2,-2.7598431E-3,1.9759624E-3],"categories":[],"categories_nodes":[],"categories_segments":[],"categories_sizes":[],"default_left":[0,0,0,0,0,0,0,0,0,0,0],"id":62,"left_children":[1,3,5,7,-1,-1,9,-1,-1,-1,-1],"loss_changes":[7.122879E-1,8.283565E-1,7.1412677E-1,3.6727822E-1,0E0,0E0,4.378176E-1,0E0,0E0,0E0,0E0],"parents":[2147483647,0,0,1,1,2,2,3,3,6,6],"right_children":[2,4,6,8,-1,-1,10,-1,-1,-1,-1],"split_conditions":[-3.6663437E-1,3.0880043E-1,-1.2253944E-1,-4.918932E-1,-0E0,-4.511512E-3,-7.881816E-2,-0E0,1.0109924E-2,-2.7598431E-3,1.9759624E-3],"split_indices":[11,15,11,0,0,0,8,0,0,0,0],"split_type":[0,0,0,0,0,0,0,0,0,0,0],"sum_hessian":[1.06E2,2.7E1,7.9E1,1.3E1,1.4E1,1.6E1,6.3E1,4E0,9E0,1.1E1,5.2E1],"tree_param":{"num_deleted":"0","num_feature":"16","num_nodes":"11","size_leaf_vector":"1"}},{"base_weights":[-1.27843125E-2,-1.1564666E-1,6.504492E-2,-4.357199E-3,8.52535E-4,1.3519405E-1,-0E0,6.170446E-3,3.527027E-4],"categories":[],"categories_nodes":[],"categories_segments":[],"categories_sizes":[],"default_left":[0,0,0,0,0,0,0,0,0],"id":63,"left_children":[1,3,5,-1,-1,7,-1,-1,-1],"loss_changes":[9.392037E-1,5.2912E-1,3.4363556E-1,0E0,0E0,3.3623058E-1,0E0,0E0,0E0],"parents":[2147483647,0,0,1,1,2,2,5,5],"right_children":[2,4,6,-1,-1,8,-1,-1,-1],"split_conditions":[-1.3385916E-1,9.432137E-1,-6.374897E-2,-4.357199E-3,8.52535E-4,3.1268972E-1,-0E0,6.170446E-3,3.527027E-4],"split_indices":[15,3,1,0,0,15,0,0,0],"split_type":[0,0,0,0,0,0,0,0,0],"sum_hessian":[1.08E2,4.8E1,6E1,3.6E1,1.2E1,3E1,3E1,1.2E1,1.8E1],"tree_param":{"num_deleted":"0","num_feature":"16","num_nodes":"9","size_leaf_vector":"1"}},{"base_weights":[-0E0,-1.3054414E-1,6.012224E-2,-6.4898855E-3,-0E0,1.4938802E-1,-0E0,3.1852056E-3,-2.099395E-3,1.0708554E-4,8.418691E-3,-3.0064264E-3,1.1220513E-3],"categories":[],"categories_nodes":[],"categories_segments":[],"categories_sizes":[],"default_left":[0,0,0,0,0,0,0,0,0,0,0,0,0],"id":64,"left_children":[1,3,5,-1,7,9,11,-1,-1,-1,-1,-1,-1],"loss_changes":[9.434757E-1,6.5799254E-1,4.1561118E-1,0E0,2.7974996E-1,7.149214E-1,2.9127863E-1,0E0,0E0,0E0,0E0,0E0,0E0],"parents":[2147483647,0,0,1,1,2,2,4,4,5,5,6,6],"right_children":[2,4,6,-1,8,10,12,-1,-1,-1,-1,-1,-1],"split_conditions":[-3.9087927E-1,6.5249175E-1,-3.752271E-1,-6.4898855E-3,-6.50475E-2,-5.1368517E-1,-8.3333336E-2,3.1852056E-3,-2.099395E-3,1.0708554E-4,8.418691E-3,-3.0064264E-3,1.1220513E-3],"split_indices":[15,3,1,0,8,1,2,0,0,0,0,0,0],"split_type":[0,0,0,0,0,0,0,0,0,0,0,0,0],"sum_hessian":[1.11E2,3.5E1,7.6E1,1.6E1,1.9E1,2.8E1,4.8E1,7E0,1.2E1,1.9E1,9E0,1.1E1,3.7E1],"tree_param":{"num_deleted":"0","num_feature":"16","num_nodes":"13","size_leaf_vector":"1"}},{"base_weights":[-5.125209E-3,-1.3601048E-1,7.277799E-2,-2.2667463E-4,-5.2913325E-3,2.1790454E-1,-0E0,1.0280623E-2,6.101787E-4],"categories":[],"categories_nodes":[],"categories_segments":[],"categories_sizes":[],"default_left":[0,0,0,0,0,0,0,0,0],"id":65,"left_children":[1,3,5,-1,-1,7,-1,-1,-1],"loss_changes":[1.1356562E0,3.1309563E-1,6.6864514E-1,0E0,0E0,5.9486854E-1,0E0,0E0,0E0],"parents":[2147483647,0,0,1,1,2,2,5,5],"right_children":[2,4,6,-1,-1,8,-1,-1,-1],"split_conditions":[-2.2641447E-1,-5.828051E-1,-4.63162E-1,-2.2667463E-4,-5.2913325E-3,3.0880043E-1,-0E0,1.0280623E-2,6.101787E-4],"split_indices":[15,15,11,0,0,15,0,0,0],"split_type":[0,0,0,0,0,0,0,0,0],"sum_hessian":[1.02E2,3.9E1,6.3E1,1.8E1,2.1E1,1.8E1,4.5E1,6E0,1.2E1],"tree_param":{"num_deleted":"0","num_feature":"16","num_nodes":"9","size_leaf_vector":"1"}},{"base_weights":[1.8800486E-2,-1.4829664E-1,8.351445E-2,-0E0,-7.151755E-3,1.8427847E-1,2.2938596E-2,7.862391E-3,1.0134925E-3,-3.8674623E-3,7.226245E-2,-2.6572985E-3,2.4806259E-3],"categories":[],"categories_nodes":[],"categories_segments":[],"categories_sizes":[],"default_left":[0,0,0,0,0,0,0,0,0,0,0,0,0],"id":66,"left_children":[1,3,5,-1,-1,7,9,-1,-1,-1,11,-1,-1],"loss_changes":[1.2555822E0,6.575519E-1,4.3030292E-1,0E0,0E0,3.6552155E-1,5.3623736E-1,0E0,0E0,0E0,2.8202286E-1,0E0,0E0],"parents":[2147483647,0,0,1,1,2,2,5,5,6,6,10,10],"right_children":[2,4,6,-1,-1,8,10,-1,-1,-1,12,-1,-1],"split_conditions":[-3.713583E-1,-5.828051E-1,-3.570108E-1,-0E0,-7.151755E-3,3.0880043E-1,-4.570799E-2,7.862391E-3,1.0134925E-3,-3.8674623E-3,-1.4451607E-1,-2.6572985E-3,2.4806259E-3],"split_indices":[15,15,11,0,0,15,8,0,0,0,11,0,0],"split_type":[0,0,0,0,0,0,0,0,0,0,0,0,0],"sum_hessian":[1.11E2,2.8E1,8.3E1,1.5E1,1.3E1,2.6E1,5.7E1,1E1,1.6E1,9E0,4.8E1,3E0,4.5E1],"tree_param":{"num_deleted":"0","num_feature":"16","num_nodes":"13","size_leaf_vector":"1"}},{"base_weights":[-1.0995739E-2,-9.844571E-2,1.7962026E-3,-1.5556276E-2,-1.9439408E-1,-8.832167E-2,8.655533E-2,1.617773E-4,-6.946826E-3,-4.753851E-3,1.1743424E-3,4.881356E-3,-9.07535E-4],"categories":[],"categories_nodes":[],"categories_segments":[],"categories_sizes":[],"default_left":[0,0,0,0,0,0,0,0,0,0,0,0,0],"id":67,"left_children":[1,3,-1,5,7,9,11,-1,-1,-1,-1,-1,-1],"loss_changes":[8.794016E-1,3.865986E-1,0E0,3.135254E-1,5.424387E-1,4.5363718E-1,2.9538223E-1,0E0,0E0,0E0,0E0,0E0,0E0],"parents":[2147483647,0,0,1,1,3,3,4,4,5,5,6,6],"right_children":[2,4,-1,6,8,10,12,-1,-1,-1,-1,-1,-1],"split_conditions":[2.4286933E-2,1.8817017E-2,1.7962026E-3,7.570336E-1,-2.6966292E-1,6.535948E-2,7.332901E-2,1.617773E-4,-6.946826E-3,-4.753851E-3,1.1743424E-3,4.881356E-3,-9.07535E-4],"split_indices":[15,14,0,13,7,9,11,0,0,0,0,0,0],"split_type":[0,0,0,0,0,0,0,0,0,0,0,0,0],"sum_hessian":[1.13E2,5.7E1,5.6E1,3.5E1,2.2E1,2.3E1,1.2E1,6E0,1.6E1,1.4E1,9E0,7E0,5E0],"tree_param":{"num_deleted":"0","num_feature":"16","num_nodes":"13","size_leaf_vector":"1"}},{"base_weights":[1.2800024E-3,-9.647286E-2,8.293102E-2,1.4504372E-3,-1.3874836E-1,1.6233629E-1,-0E0,-5.861049E-3,-0E0,2.8200638E-1,3.2376847E-4,-0E0,8.180512E-3],"categories":[],"categories_nodes":[],"categories_segments":[],"categories_sizes":[],"default_left":[0,0,0,0,0,0,0,0,0,0,0,0,0],"id":68,"left_children":[1,3,5,-1,7,9,-1,-1,-1,11,-1,-1,-1],"loss_changes":[9.3648094E-1,3.968213E-1,4.5182347E-1,0E0,6.190972E-1,4.8599035E-1,0E0,0E0,0E0,2.6790214E-1,0E0,0E0,0E0],"parents":[2147483647,0,0,1,1,2,2,4,4,5,5,9,9],"right_children":[2,4,6,-1,8,10,-1,-1,-1,12,-1,-1,-1],"split_conditions":[-1.3385916E-1,-3.8399488E-1,-4.0567525E-2,1.4504372E-3,2.2222222E-1,3.1268972E-1,-0E0,-5.861049E-3,-0E0,-5.2641696E-1,3.2376847E-4,-0E0,8.180512E-3],"split_indices":[15,11,1,0,9,15,0,0,0,1,0,0,0],"split_type":[0,0,0,0,0,0,0,0,0,0,0,0,0],"sum_hessian":[1.11E2,4.8E1,6.3E1,8E0,4E1,3.1E1,3.2E1,2.3E1,1.7E1,1.4E1,1.7E1,2E0,1.2E1],"tree_param":{"num_deleted":"0","num_feature":"16","num_nodes":"13","size_leaf_vector":"1"}},{"base_weights":[7.8384735E-4,1.3231792E-1,-3.402621E-2,-0E0,7.59129E-3,-1.6612169E-1,1.4903975E-2,7.5519434E-4,-2.2105978E-1,-2.789743E-3,1.2510186E-3,-7.5206347E-3,-2.871982E-4],"categories":[],"categories_nodes":[],"categories_segments":[],"categories_sizes":[],"default_left":[0,0,0,0,0,0,0,0,0,0,0,0,0],"id":69,"left_children":[1,3,5,-1,-1,7,9,-1,11,-1,-1,-1,-1],"loss_changes":[5.884941E-1,5.7887864E-1,6.6702235E-1,0E0,0E0,3.963269E-1,2.9937822E-1,0E0,2.5581992E-1,0E0,0E0,0E0,0E0],"parents":[2147483647,0,0,1,1,2,2,5,5,6,6,8,8],"right_children":[2,4,6,-1,-1,8,10,-1,12,-1,-1,-1,-1],"split_conditions":[-4.224163E-1,-4.918932E-1,-1.2253944E-1,-0E0,7.59129E-3,-3.398844E-1,-7.881816E-2,7.5519434E-4,5.2287585E-1,-2.789743E-3,1.2510186E-3,-7.5206347E-3,-2.871982E-4],"split_indices":[11,0,11,0,0,1,8,0,9,0,0,0,0],"split_type":[0,0,0,0,0,0,0,0,0,0,0,0,0],"sum_hessian":[1.13E2,2.4E1,8.9E1,1.6E1,8E0,2.4E1,6.5E1,4E0,2E1,1E1,5.5E1,1.2E1,8E0],"tree_param":{"num_deleted":"0","num_feature":"16","num_nodes":"13","size_leaf_vector":"1"}},{"base_weights":[-0E0,-7.5850196E-2,7.901843E-2,-2.9606475E-3,5.5734307E-4,4.379157E-3,2.2789394E-4],"categories":[],"categories_nodes":[],"categories_segments":[],"categories_sizes":[],"default_left":[0,0,0,0,0,0,0],"id":70,"left_children":[1,3,5,-1,-1,-1,-1],"loss_changes":[6.586174E-1,2.8795984E-1,2.735505E-1,0E0,0E0,0E0,0E0],"parents":[2147483647,0,0,1,1,2,2],"right_children":[2,4,6,-1,-1,-1,-1],"split_conditions":[2.4286933E-2,7.570336E-1,-2.875817E-1,-2.9606475E-3,5.5734307E-4,4.379157E-3,2.2789394E-4],"split_indices":[15,13,9,0,0,0,0],"split_type":[0,0,0,0,0,0,0],"sum_hessian":[1.03E2,5.4E1,4.9E1,4E1,1.4E1,1.6E1,3.3E1],"tree_param":{"num_deleted":"0","num_feature":"16","num_nodes":"7","size_leaf_vector":"1"}},{"base_weights":[-2.1409847E-2,-1.1571071E-1,1.0608432E-3,-0E0,-2.628913E-1,-7.1641214E-2,2.9854446E-3,-0E0,-7.795448E-3,-4.8291357E-3,4.6246644E-4],"categories":[],"categories_nodes":[],"categories_segments":[],"categories_sizes":[],"default_left":[0,0,0,0,0,0,0,0,0,0,0],"id":71,"left_children":[1,3,-1,5,7,9,-1,-1,-1,-1,-1],"loss_changes":[7.4788463E-1,9.4798505E-1,0E0,3.0686188E-1,3.6909544E-1,2.959797E-1,0E0,0E0,0E0,0E0,0E0],"parents":[2147483647,0,0,1,1,3,3,4,4,5,5],"right_children":[2,4,-1,6,8,10,-1,-1,-1,-1,-1],"split_conditions":[-8.3333336E-2,-5.24144E-1,1.0608432E-3,-5.615194E-1,0E0,2.1668886E1,2.9854446E-3,-0E0,-7.795448E-3,-4.8291357E-3,4.6246644E-4],"split_indices":[12,8,0,1,3,14,0,0,0,0,0],"split_type":[0,0,0,0,0,0,0,0,0,0,0],"sum_hessian":[1.13E2,4.7E1,6.6E1,2.7E1,2E1,1.6E1,1.1E1,3E0,1.7E1,7E0,9E0],"tree_param":{"num_deleted":"0","num_feature":"16","num_nodes":"11","size_leaf_vector":"1"}},{"base_weights":[1.3145083E-2,-1.08546704E-1,7.346889E-2,-2.3963226E-1,1.5164612E-2,1.7234972E-1,1.8188844E-2,-7.7252695E-3,-0E0,3.6864248E-3,-1.550785E-3,7.6093934E-3,-0E0,-3.2918237E-3,8.131376E-2,-3.783874E-3,3.0134153E-3],"categories":[],"categories_nodes":[],"categories_segments":[],"categories_sizes":[],"default_left":[0,0,0,0,0,0,0,0,0,0,0,0,0,0,0,0,0],"id":72,"left_children":[1,3,5,7,9,11,13,-1,-1,-1,-1,-1,-1,-1,15,-1,-1],"loss_changes":[8.3973324E-1,6.944177E-1,3.473705E-1,2.6481044E-1,2.7553973E-1,4.93239E-1,5.6128097E-1,0E0,0E0,0E0,0E0,0E0,0E0,0E0,4.5762992E-1,0E0,0E0],"parents":[2147483647,0,0,1,1,2,2,3,3,4,4,5,5,6,6,14,14],"right_children":[2,4,6,8,10,12,14,-1,-1,-1,-1,-1,-1,-1,16,-1,-1],"split_conditions":[-3.713583E-1,6.5249175E-1,-3.570108E-1,-2.9247594E-1,-5.1846817E-2,3.0880043E-1,1.1642884E-2,-7.7252695E-3,-0E0,3.6864248E-3,-1.550785E-3,7.6093934E-3,-0E0,-3.2918237E-3,-1.2253944E-1,-3.783874E-3,3.0134153E-3],"split_indices":[15,3,11,8,8,15,8,0,0,0,0,0,0,0,11,0,0],"split_type":[0,0,0,0,0,0,0,0,0,0,0,0,0,0,0,0,0],"sum_hessian":[1.09E2,3.3E1,7.6E1,1.6E1,1.7E1,2.2E1,5.4E1,1.1E1,5E0,7E0,1E1,1E1,1.2E1,1.3E1,4.1E1,3E0,3.8E1],"tree_param":{"num_deleted":"0","num_feature":"16","num_nodes":"17","size_leaf_vector":"1"}},{"base_weights":[-0E0],"categories":[],"categories_nodes":[],"categories_segments":[],"categories_sizes":[],"default_left":[0],"id":73,"left_children":[-1],"loss_changes":[0E0],"parents":[2147483647],"right_children":[-1],"split_conditions":[-0E0],"split_indices":[0],"split_type":[0],"sum_hessian":[1.1E2],"tree_param":{"num_deleted":"0","num_feature":"16","num_nodes":"1","size_leaf_vector":"1"}},{"base_weights":[-7.0964256E-3,-1.00709565E-1,6.0628366E-2,-1.7057855E-1,4.332221E-3,1.7862214E-1,1.2975659E-5,-5.979102E-3,-4.8524654E-3,3.2133055E-3,-1.9786197E-3,5.5559026E-4,8.607558E-3,3.4638774E-3,-3.5941047E-3],"categories":[],"categories_nodes":[],"categories_segments":[],"categories_sizes":[],"default_left":[0,0,0,0,0,0,0,0,0,0,0,0,0,0,0],"id":74,"left_children":[1,3,5,7,9,11,-1,-1,13,-1,-1,-1,-1,-1,-1],"loss_changes":[7.1260554E-1,4.250344E-1,3.642095E-1,2.563734E-1,2.6790005E-1,3.0598342E-1,0E0,0E0,3.6065543E-1,0E0,0E0,0E0,0E0,0E0,0E0],"parents":[2147483647,0,0,1,1,2,2,3,3,4,4,5,5,8,8],"right_children":[2,4,6,8,10,12,-1,-1,14,-1,-1,-1,-1,-1,-1],"split_conditions":[-2.2641447E-1,6.5249175E-1,-4.63162E-1,-3.713583E-1,-5.1846817E-2,-5.7932585E-1,1.2975659E-5,-5.979102E-3,-3.389845E-1,3.2133055E-3,-1.9786197E-3,5.5559026E-4,8.607558E-3,3.4638774E-3,-3.5941047E-3],"split_indices":[15,3,11,15,8,1,0,0,15,0,0,0,0,0,0],"split_type":[0,0,0,0,0,0,0,0,0,0,0,0,0,0,0],"sum_hessian":[1.03E2,4.5E1,5.8E1,2.8E1,1.7E1,1.5E1,4.3E1,1.7E1,1.1E1,8E0,9E0,1.1E1,4E0,4E0,7E0],"tree_param":{"num_deleted":"0","num_feature":"16","num_nodes":"15","size_leaf_vector":"1"}},{"base_weights":[-3.394578E-3,-1.1807335E-1,6.387677E-2,-4.697279E-4,-2.2127473E-1,1.9471222E-1,-0E0,-6.795461E-3,-0E0,9.931071E-5,8.617754E-3],"categories":[],"categories_nodes":[],"categories_segments":[],"categories_sizes":[],"default_left":[0,0,0,0,0,0,0,0,0,0,0],"id":75,"left_children":[1,3,5,-1,7,9,-1,-1,-1,-1,-1],"loss_changes":[9.468265E-1,3.6587453E-1,6.2896705E-1,0E0,2.8926075E-1,5.5669326E-1,0E0,0E0,0E0,0E0,0E0],"parents":[2147483647,0,0,1,1,2,2,4,4,5,5],"right_children":[2,4,6,-1,8,10,-1,-1,-1,-1,-1],"split_conditions":[-2.2641447E-1,1.8817017E-2,-2.6966292E-1,-4.697279E-4,1.2513537E0,-4.918932E-1,-0E0,-6.795461E-3,-0E0,9.931071E-5,8.617754E-3],"split_indices":[15,14,7,0,8,0,0,0,0,0,0],"split_type":[0,0,0,0,0,0,0,0,0,0,0],"sum_hessian":[1.13E2,4.3E1,7E1,2.6E1,1.7E1,2.1E1,4.9E1,1.4E1,3E0,1.2E1,9E0],"tree_param":{"num_deleted":"0","num_feature":"16","num_nodes":"11","size_leaf_vector":"1"}},{"base_weights":[-5.427397E-4,2.3801946E-3,-3.7620854E-2,-1.9627008E-1,-0E0,-0E0,-6.454727E-3],"categories":[],"categories_nodes":[],"categories_segments":[],"categories_sizes":[],"default_left":[0,0,0,0,0,0,0],"id":76,"left_children":[1,-1,3,5,-1,-1,-1],"loss_changes":[4.031055E-1,0E0,5.474621E-1,2.924592E-1,0E0,0E0,0E0],"parents":[2147483647,0,0,2,2,3,3],"right_children":[2,-1,4,6,-1,-1,-1],"split_conditions":[-4.224163E-1,2.3801946E-3,-1.7963083E-1,-1.0524151E-1,-0E0,-0E0,-6.454727E-3],"split_indices":[11,0,8,14,0,0,0],"split_type":[0,0,0,0,0,0,0],"sum_hessian":[1.13E2,2.7E1,8.6E1,1.4E1,7.2E1,3E0,1.1E1],"tree_param":{"num_deleted":"0","num_feature":"16","num_nodes":"7","size_leaf_vector":"1"}},{"base_weights":[3.0848777E-3,-7.4714564E-2,1.9920329E-3,3.8678943E-5,-1.8210287E-1,1.1620621E-2,-6.85608E-3,-2.956488E-3,4.3023448E-3],"categories":[],"categories_nodes":[],"categories_segments":[],"categories_sizes":[],"default_left":[0,0,0,0,0,0,0,0,0],"id":77,"left_children":[1,3,-1,-1,5,7,-1,-1,-1],"loss_changes":[7.349431E-1,5.52301E-1,0E0,0E0,5.8922136E-1,3.1160867E-1,0E0,0E0,0E0],"parents":[2147483647,0,0,1,1,4,4,5,5],"right_children":[2,4,-1,-1,6,8,-1,-1,-1],"split_conditions":[-5.1536072E-2,1.8817017E-2,1.9920329E-3,3.8678943E-5,-2.6966292E-1,-5.7932585E-1,-6.85608E-3,-2.956488E-3,4.3023448E-3],"split_indices":[15,14,0,0,7,1,0,0,0],"split_type":[0,0,0,0,0,0,0,0,0],"sum_hessian":[1.16E2,5.5E1,6.1E1,3.2E1,2.3E1,7E0,1.6E1,3E0,4E0],"tree_param":{"num_deleted":"0","num_feature":"16","num_nodes":"9","size_leaf_vector":"1"}},{"base_weights":[8.858445E-4,-9.9119216E-2,5.2441057E-2,-0E0,-7.2309785E-3,2.574593E-5,1.4928193E-1,-1.3790468E-3,5.4525873E-3],"categories":[],"categories_nodes":[],"categories_segments":[],"categories_sizes":[],"default_left":[0,0,0,0,0,0,0,0,0],"id":78,"left_children":[1,3,5,-1,-1,-1,7,-1,-1],"loss_changes":[5.743911E-1,6.8714225E-1,3.3016577E-1,0E0,0E0,0E0,4.5200354E-1,0E0,0E0],"parents":[2147483647,0,0,1,1,2,2,6,6],"right_children":[2,4,6,-1,-1,-1,8,-1,-1],"split_conditions":[-3.713583E-1,-4.90311E-1,7.6937824E-2,-0E0,-7.2309785E-3,2.574593E-5,-4.635688E-1,-1.3790468E-3,5.4525873E-3],"split_indices":[15,15,3,0,0,0,1,0,0],"split_type":[0,0,0,0,0,0,0,0,0],"sum_hessian":[1.08E2,3.3E1,7.5E1,2.4E1,9E0,5.4E1,2.1E1,4E0,1.7E1],"tree_param":{"num_deleted":"0","num_feature":"16","num_nodes":"9","size_leaf_vector":"1"}},{"base_weights":[-1.0934947E-2,-1.02480665E-1,1.3630462E-3,-1.5892199E-1,9.672005E-4,-6.202241E-3,-3.6024651E-4],"categories":[],"categories_nodes":[],"categories_segments":[],"categories_sizes":[],"default_left":[0,0,0,0,0,0,0],"id":79,"left_children":[1,3,-1,5,-1,-1,-1],"loss_changes":[7.248567E-1,4.7995198E-1,0E0,3.9147717E-1,0E0,0E0,0E0],"parents":[2147483647,0,0,1,1,3,3],"right_children":[2,4,-1,6,-1,-1,-1],"split_conditions":[-1.3385916E-1,9.432137E-1,1.3630462E-3,-1.6666667E-1,9.672005E-4,-6.202241E-3,-3.6024651E-4],"split_indices":[15,3,0,12,0,0,0],"split_type":[0,0,0,0,0,0,0],"sum_hessian":[1.11E2,4.8E1,6.3E1,3.6E1,1.2E1,1.9E1,1.7E1],"tree_param":{"num_deleted":"0","num_feature":"16","num_nodes":"7","size_leaf_vector":"1"}},{"base_weights":[-2.6130162E-2,-1.2923816E-1,2.5958987E-4,-6.1156913E-3,-0E0],"categories":[],"categories_nodes":[],"categories_segments":[],"categories_sizes":[],"default_left":[0,0,0,0,0],"id":80,"left_children":[1,3,-1,-1,-1],"loss_changes":[4.6072605E-1,4.612754E-1,0E0,0E0,0E0],"parents":[2147483647,0,0,1,1],"right_children":[2,4,-1,-1,-1],"split_conditions":[-3.713583E-1,7.8431375E-2,2.5958987E-4,-6.1156913E-3,-0E0],"split_indices":[15,9,0,0,0],"split_type":[0,0,0,0,0],"sum_hessian":[1.05E2,2.8E1,7.7E1,1.3E1,1.5E1],"tree_param":{"num_deleted":"0","num_feature":"16","num_nodes":"5","size_leaf_vector":"1"}},{"base_weights":[-0E0,-6.497825E-2,1.4038064E-3,1.1340339E-2,-1.6003607E-1,4.945112E-3,-7.3430734E-4,-5.0096964E-3,1.0372491E-3],"categories":[],"categories_nodes":[],"categories_segments":[],"categories_sizes":[],"default_left":[0,0,0,0,0,0,0,0,0],"id":81,"left_children":[1,3,-1,5,7,-1,-1,-1,-1],"loss_changes":[4.0189686E-1,4.394462E-1,0E0,3.1165537E-1,3.0002278E-1,0E0,0E0,0E0,0E0],"parents":[2147483647,0,0,1,1,3,3,4,4],"right_children":[2,4,-1,6,8,-1,-1,-1,-1],"split_conditions":[-5.1536072E-2,-1.0524151E-1,1.4038064E-3,-3.6663437E-1,6.1061126E-1,4.945112E-3,-7.3430734E-4,-5.0096964E-3,1.0372491E-3],"split_indices":[15,14,0,11,14,0,0,0,0],"split_type":[0,0,0,0,0,0,0,0,0],"sum_hessian":[1.03E2,4.8E1,5.5E1,2.6E1,2.2E1,4E0,2.2E1,2E1,2E0],"tree_param":{"num_deleted":"0","num_feature":"16","num_nodes":"9","size_leaf_vector":"1"}},{"base_weights":[-3.545952E-2,-1.4137979E-1,7.88402E-3,-6.234714E-3,-0E0,2.8626646E-3,-9.710385E-4],"categories":[],"categories_nodes":[],"categories_segments":[],"categories_sizes":[],"default_left":[0,0,0,0,0,0,0],"id":82,"left_children":[1,3,5,-1,-1,-1,-1],"loss_changes":[5.4164577E-1,4.8099476E-1,4.2197356E-1,0E0,0E0,0E0,0E0],"parents":[2147483647,0,0,1,1,2,2],"right_children":[2,4,6,-1,-1,-1,-1],"split_conditions":[-3.9087927E-1,-1.5277778E-1,-3.570108E-1,-6.234714E-3,-0E0,2.8626646E-3,-9.710385E-4],"split_indices":[15,2,11,0,0,0,0],"split_type":[0,0,0,0,0,0,0],"sum_hessian":[1.02E2,3E1,7.2E1,1.5E1,1.5E1,2.3E1,4.9E1],"tree_param":{"num_deleted":"0","num_feature":"16","num_nodes":"7","size_leaf_vector":"1"}},{"base_weights":[2.1188047E-2,1.1036242E-1,-1.5934154E-2,-0E0,8.215303E-3,-2.8100477E-3,8.4004615E-4,-3.114855E-3,2.2922356E-3],"categories":[],"categories_nodes":[],"categories_segments":[],"categories_sizes":[],"default_left":[0,0,0,0,0,0,0,0,0],"id":83,"left_children":[1,3,5,7,-1,-1,-1,-1,-1],"loss_changes":[4.03099E-1,8.094527E-1,4.1030416E-1,3.4957504E-1,0E0,0E0,0E0,0E0,0E0],"parents":[2147483647,0,0,1,1,2,2,3,3],"right_children":[2,4,6,8,-1,-1,-1,-1,-1],"split_conditions":[-3.4510922E-1,-4.2096794E-1,-2.208708E-2,1.0308699E-1,8.215303E-3,-2.8100477E-3,8.4004615E-4,-3.114855E-3,2.2922356E-3],"split_indices":[1,0,11,14,0,0,0,0,0],"split_type":[0,0,0,0,0,0,0,0,0],"sum_hessian":[1.05E2,3.2E1,7.3E1,2.4E1,8E0,2.6E1,4.7E1,9E0,1.5E1],"tree_param":{"num_deleted":"0","num_feature":"16","num_nodes":"9","size_leaf_vector":"1"}},{"base_weights":[1.2162213E-3,-8.517608E-2,4.530395E-2,-0E0,-6.6520995E-3,-2.0811908E-4,4.4450653E-3],"categories":[],"categories_nodes":[],"categories_segments":[],"categories_sizes":[],"default_left":[0,0,0,0,0,0,0],"id":84,"left_children":[1,3,5,-1,-1,-1,-1],"loss_changes":[4.2986038E-1,5.4940164E-1,6.4498323E-1,0E0,0E0,0E0,0E0],"parents":[2147483647,0,0,1,1,2,2],"right_children":[2,4,6,-1,-1,-1,-1],"split_conditions":[-3.713583E-1,-4.90311E-1,8.723617E-2,-0E0,-6.6520995E-3,-2.0811908E-4,4.4450653E-3],"split_indices":[15,15,3,0,0,0,0],"split_type":[0,0,0,0,0,0,0],"sum_hessian":[1.1E2,3.3E1,7.7E1,2.5E1,8E0,5.5E1,2.2E1],"tree_param":{"num_deleted":"0","num_feature":"16","num_nodes":"7","size_leaf_vector":"1"}},{"base_weights":[6.2593E-3,-8.162512E-2,1.243111E-3,1.6681527E-4,-6.585446E-3],"categories":[],"categories_nodes":[],"categories_segments":[],"categories_sizes":[],"default_left":[0,0,0,0,0],"id":85,"left_children":[1,3,-1,-1,-1],"loss_changes":[4.426448E-1,6.947439E-1,0E0,0E0,0E0],"parents":[2147483647,0,0,1,1],"right_children":[2,4,-1,-1,-1],"split_conditions":[-3.713583E-1,-4.90311E-1,1.243111E-3,1.6681527E-4,-6.585446E-3],"split_indices":[15,15,0,0,0],"split_type":[0,0,0,0,0],"sum_hessian":[1.12E2,3.3E1,7.9E1,2.3E1,1E1],"tree_param":{"num_deleted":"0","num_feature":"16","num_nodes":"5","size_leaf_vector":"1"}},{"base_weights":[-0E0,3.9456133E-2,-6.1688248E-2,-0E0,1.5763763E-1,-5.2203326E-3,-0E0,6.853673E-3,-0E0],"categories":[],"categories_nodes":[],"categories_segments":[],"categories_sizes":[],"default_left":[0,0,0,0,0,0,0,0,0],"id":86,"left_children":[1,3,5,-1,7,-1,-1,-1,-1],"loss_changes":[2.7217653E-1,3.033789E-1,3.358978E-1,0E0,3.7912473E-1,0E0,0E0,0E0,0E0],"parents":[2147483647,0,0,1,1,2,2,4,4],"right_children":[2,4,6,-1,8,-1,-1,-1,-1],"split_conditions":[2.701164E-1,1.1223961E-2,-2.9213482E-1,-0E0,-7.8431375E-2,-5.2203326E-3,-0E0,6.853673E-3,-0E0],"split_indices":[3,3,7,0,9,0,0,0,0],"split_type":[0,0,0,0,0,0,0,0,0],"sum_hessian":[1.05E2,6.5E1,4E1,5.2E1,1.3E1,8E0,3.2E1,7E0,6E0],"tree_param":{"num_deleted":"0","num_feature":"16","num_nodes":"9","size_leaf_vector":"1"}},{"base_weights":[-4.8279106E-3,-9.013657E-2,4.550938E-2,-3.8090155E-3,-0E0,1.1194382E-1,-3.5825174E-4,3.3084862E-3,-2.654075E-3,-0E0,1.9577481E-1,-1.0825876E-3,6.285882E-3],"categories":[],"categories_nodes":[],"categories_segments":[],"categories_sizes":[],"default_left":[0,0,0,0,0,0,0,0,0,0,0,0,0],"id":87,"left_children":[1,3,5,-1,7,9,-1,-1,-1,-1,11,-1,-1],"loss_changes":[5.1101214E-1,2.687091E-1,3.209504E-1,0E0,3.5356072E-1,3.2832256E-1,0E0,0E0,0E0,0E0,3.9415866E-1,0E0,0E0],"parents":[2147483647,0,0,1,1,2,2,4,4,5,5,10,10],"right_children":[2,4,6,-1,8,10,-1,-1,-1,-1,12,-1,-1],"split_conditions":[-2.2641447E-1,5.857867E-1,-4.0567525E-2,-3.8090155E-3,-5.1846817E-2,-3.709894E-1,-3.5825174E-4,3.3084862E-3,-2.654075E-3,-0E0,-1.5698962E-1,-1.0825876E-3,6.285882E-3],"split_indices":[15,3,1,0,8,3,0,0,0,0,15,0,0],"split_type":[0,0,0,0,0,0,0,0,0,0,0,0,0],"sum_hessian":[1.08E2,4.2E1,6.6E1,2.4E1,1.8E1,3.3E1,3.3E1,8E0,1E1,1.6E1,1.7E1,2E0,1.5E1],"tree_param":{"num_deleted":"0","num_feature":"16","num_nodes":"13","size_leaf_vector":"1"}},{"base_weights":[-0E0,1.2447174E-1,-3.6999438E-2,-0E0,2.5451484E-1,-4.014782E-3,-0E0,8.4719835E-3,-2.7800733E-4],"categories":[],"categories_nodes":[],"categories_segments":[],"categories_sizes":[],"default_left":[0,0,0,0,0,0,0,0,0],"id":88,"left_children":[1,3,5,-1,7,-1,-1,-1,-1],"loss_changes":[5.472162E-1,4.4843698E-1,4.0753323E-1,0E0,4.4683033E-1,0E0,0E0,0E0,0E0],"parents":[2147483647,0,0,1,1,2,2,4,4],"right_children":[2,4,6,-1,8,-1,-1,-1,-1],"split_conditions":[-4.224163E-1,-5.7932585E-1,-1.7963083E-1,-0E0,3.0880043E-1,-4.014782E-3,-0E0,8.4719835E-3,-2.7800733E-4],"split_indices":[11,1,8,0,15,0,0,0,0],"split_type":[0,0,0,0,0,0,0,0,0],"sum_hessian":[1.09E2,2.4E1,8.5E1,1.4E1,1E1,1.7E1,6.8E1,8E0,2E0],"tree_param":{"num_deleted":"0","num_feature":"16","num_nodes":"9","size_leaf_vector":"1"}},{"base_weights":[9.08831E-3,1.2297333E-1,-3.6834262E-2,-0E0,8.117059E-3,-2.1575283E-1,4.6506172E-4,-3.529795E-3,1.7641912E-3,-6.6023725E-3,5.052939E-4],"categories":[],"categories_nodes":[],"categories_segments":[],"categories_sizes":[],"default_left":[0,0,0,0,0,0,0,0,0,0,0],"id":89,"left_children":[1,3,5,7,-1,9,-1,-1,-1,-1,-1],"loss_changes":[6.5436196E-1,8.7118244E-1,9.11197E-1,2.914694E-1,0E0,3.6148655E-1,0E0,0E0,0E0,0E0,0E0],"parents":[2147483647,0,0,1,1,2,2,3,3,5,5],"right_children":[2,4,6,8,-1,10,-1,-1,-1,-1,-1],"split_conditions":[-2.6966292E-1,-4.4690967E-1,-8.3333336E-2,4.606406E-2,8.117059E-3,2.4134927E0,4.6506172E-4,-3.529795E-3,1.7641912E-3,-6.6023725E-3,5.052939E-4],"split_indices":[7,0,12,14,0,11,0,0,0,0,0],"split_type":[0,0,0,0,0,0,0,0,0,0,0],"sum_hessian":[1.12E2,3.3E1,7.9E1,2.3E1,1E1,1.8E1,6.1E1,6E0,1.7E1,1.6E1,2E0],"tree_param":{"num_deleted":"0","num_feature":"16","num_nodes":"11","size_leaf_vector":"1"}},{"base_weights":[-1.6865112E-3,-1.2836422E-1,7.974187E-2,-4.918769E-3,6.757499E-4,1.7032537E-1,-0E0,-0E0,5.1304465E-3],"categories":[],"categories_nodes":[],"categories_segments":[],"categories_sizes":[],"default_left":[0,0,0,0,0,0,0,0,0],"id":90,"left_children":[1,3,5,-1,-1,7,-1,-1,-1],"loss_changes":[1.1951002E0,5.806515E-1,5.1363206E-1,0E0,0E0,2.5741065E-1,0E0,0E0,0E0],"parents":[2147483647,0,0,1,1,2,2,5,5],"right_children":[2,4,6,-1,-1,8,-1,-1,-1],"split_conditions":[-1.3385916E-1,5.2287585E-1,-5.3749718E-2,-4.918769E-3,6.757499E-4,-3.1032076E0,-0E0,-0E0,5.1304465E-3],"split_indices":[15,9,1,0,0,3,0,0,0],"split_type":[0,0,0,0,0,0,0,0,0],"sum_hessian":[1.07E2,4.3E1,6.4E1,3.1E1,1.2E1,2.9E1,3.5E1,4E0,2.5E1],"tree_param":{"num_deleted":"0","num_feature":"16","num_nodes":"9","size_leaf_vector":"1"}}]},"name":"gbtree"},"learner_model_param":{"base_score":"9.000176E0","boost_from_average":"1","num_class":"0","num_feature":"16","num_target":"1"},"objective":{"name":"reg:squarederror","reg_loss_param":{"scale_pos_weight":"1"}}},"version":[3,0,0]}