{"learner":{"attributes":{"best_iteration":"31","best_score":"0.23981759127448588"},"feature_names":[],"feature_types":[],"gradient_booster":{"model":{"gbtree_model_param":{"num_parallel_tree":"1","num_trees":"42"},"iteration_indptr":[0,1,2,3,4,5,6,7,8,9,10,11,12,13,14,15,16,17,18,19,20,21,22,23,24,25,26,27,28,29,30,31,32,33,34,35,36,37,38,39,40,41,42],"tree_info":[0,0,0,0,0,0,0,0,0,0,0,0,0,0,0,0,0,0,0,0,0,0,0,0,0,0,0,0,0,0,0,0,0,0,0,0,0,0,0,0,0,0],"trees":[{"base_weights":[-0E0,-3.7703365E-1,2.785845E-1,-5.569799E-1,-2.5039654E-2,1.0141849E-2,1.8865366E-1,-8.107031E-1,-1.1473555E-1,3.264257E-3,-2.4149453E-3,-2.3221623E-3,5.942091E-3,-2.2628991E-2,-1.8214468E-3,2.6382445E-4,-9.3677E-3],"categories":[],"categories_nodes":[],"categories_segments":[],"categories_sizes":[],"default_left":[0,0,0,0,0,0,0,0,0,0,0,0,0,0,0,0,0],"id":0,"left_children":[1,3,5,7,9,-1,11,13,15,-1,-1,-1,-1,-1,-1,-1,-1],"loss_changes":[1.2495036E1,2.91705E0,2.7731133E-1,2.9510145E0,2.6996174E-1,0E0,8.0467975E-1,7.370148E-1,6.9693273E-1,0E0,0E0,0E0,0E0,0E0,0E0,0E0,0E0],"parents":[2147483647,0,0,1,1,2,2,3,3,4,4,6,6,7,7,8,8],"right_children":[2,4,6,8,10,-1,12,14,16,-1,-1,-1,-1,-1,-1,-1,-1],"split_conditions":[-2.2641447E-1,7.334351E-1,-3.4510922E-1,-3.713583E-1,-3.6752638E-1,1.0141849E-2,-1.2253944E-1,7.748968E-1,-2.9485896E-1,3.264257E-3,-2.4149453E-3,-2.3221623E-3,5.942091E-3,-2.2628991E-2,-1.8214468E-3,2.6382445E-4,-9.3677E-3],"split_indices":[15,3,1,15,11,0,11,1,15,0,0,0,0,0,0,0,0],"split_type":[0,0,0,0,0,0,0,0,0,0,0,0,0,0,0,0,0],"sum_hessian":[1.12E2,4.7E1,6.5E1,2.9E1,1.8E1,2E1,4.5E1,1.6E1,1.3E1,3E0,1.5E1,5E0,4E1,1.3E1,3E0,1E1,3E0],"tree_param":{"num_deleted":"0","num_feature":"16","num_nodes":"17","size_leaf_vector":"1"}},{"base_weights":[1.5402536E-2,-3.5270312E-1,2.741137E-1,-4.768766E-1,-7.1743777E-4,8.619244E-3,-1.4970662E-2,-5.8671206E-1,-1.0486051E-1,-5.120745E-3,1.965605E-3,-4.7000844E-2,-1.8487465E-2,1.7165951E-3,-9.088702E-3,2.5178068E-3,-4.668085E-3],"categories":[],"categories_nodes":[],"categories_segments":[],"categories_sizes":[],"default_left":[0,0,0,0,0,0,0,0,0,0,0,0,0,0,0,0,0],"id":1,"left_children":[1,3,5,7,-1,-1,9,11,13,-1,-1,15,-1,-1,-1,-1,-1],"loss_changes":[1.08302E1,1.6207018E0,1.5287099E0,8.360095E-1,0E0,0E0,3.8228077E-1,1.5015745E0,7.6643E-1,0E0,0E0,2.9629225E-1,0E0,0E0,0E0,0E0,0E0],"parents":[2147483647,0,0,1,1,2,2,3,3,6,6,7,7,8,8,11,11],"right_children":[2,4,6,8,-1,-1,10,12,14,-1,-1,16,-1,-1,-1,-1,-1],"split_conditions":[-2.2641447E-1,2.247191E-1,8.5032654E-1,-3.713583E-1,-7.1743777E-4,8.619244E-3,1.4583334E0,-7.3362297E-1,-3.389845E-1,-5.120745E-3,1.965605E-3,-1.8055555E-1,-1.8487465E-2,1.7165951E-3,-9.088702E-3,2.5178068E-3,-4.668085E-3],"split_indices":[15,7,1,15,0,0,2,15,15,0,0,2,0,0,0,0,0],"split_type":[0,0,0,0,0,0,0,0,0,0,0,0,0,0,0,0,0],"sum_hessian":[1.07E2,4.3E1,6.4E1,2.9E1,1.4E1,5.2E1,1.2E1,2E1,9E0,4E0,8E0,6E0,1.4E1,6E0,3E0,2E0,4E0],"tree_param":{"num_deleted":"0","num_feature":"16","num_nodes":"17","size_leaf_vector":"1"}},{"base_weights":[-3.410942E-3,-3.7402177E-1,2.3896807E-1,-6.093478E-1,-2.6105306E-4,7.2354437E-3,-0E0,-1.2677301E-1,-7.6406026E-1,2.4949186E-3,-6.3336096E-3,-2.1081427E-2,-2.2516677E-3],"categories":[],"categories_nodes":[],"categories_segments":[],"categories_sizes":[],"default_left":[0,0,0,0,0,0,0,0,0,0,0,0,0],"id":2,"left_children":[1,3,5,7,-1,-1,-1,9,11,-1,-1,-1,-1],"loss_changes":[1.0472531E1,3.708342E0,9.3126535E-1,1.3578091E0,0E0,0E0,0E0,4.796977E-1,4.01721E-1,0E0,0E0,0E0,0E0],"parents":[2147483647,0,0,1,1,2,2,3,3,7,7,8,8],"right_children":[2,4,6,8,-1,-1,-1,10,12,-1,-1,-1,-1],"split_conditions":[-2.2641447E-1,-1.25E-1,1.0326798E0,-3.8399488E-1,-2.6105306E-4,7.2354437E-3,-0E0,-7.3362297E-1,1.1536585E0,2.4949186E-3,-6.3336096E-3,-2.1081427E-2,-2.2516677E-3],"split_indices":[15,12,9,11,0,0,0,15,11,0,0,0,0],"split_type":[0,0,0,0,0,0,0,0,0,0,0,0,0],"sum_hessian":[1.09E2,4.3E1,6.6E1,2.4E1,1.9E1,5.5E1,1.1E1,8E0,1.6E1,2E0,6E0,1.3E1,3E0],"tree_param":{"num_deleted":"0","num_feature":"16","num_nodes":"13","size_leaf_vector":"1"}},{"base_weights":[-3.617061E-2,-3.600011E-1,2.521977E-1,-5.461924E-1,-1.5496386E-3,7.776797E-3,-0E0,-8.441417E-2,-1.7827505E-2,2.9113805E-3,-3.4398616E-3,-5.985205E-3,2.4492887E-3],"categories":[],"categories_nodes":[],"categories_segments":[],"categories_sizes":[],"default_left":[0,0,0,0,0,0,0,0,0,0,0,0,0],"id":3,"left_children":[1,3,5,7,-1,-1,9,11,-1,-1,-1,-1,-1],"loss_changes":[1.1146565E1,2.7732992E0,9.1143847E-1,2.0523014E0,0E0,0E0,3.033231E-1,5.202952E-1,0E0,0E0,0E0,0E0,0E0],"parents":[2147483647,0,0,1,1,2,2,3,3,6,6,7,7],"right_children":[2,4,6,8,-1,-1,10,12,-1,-1,-1,-1,-1],"split_conditions":[-1.4282532E-1,-1.25E-1,1.0326798E0,-3.8399488E-1,-1.5496386E-3,7.776797E-3,1.530562E0,-3.1460676E-1,-1.7827505E-2,2.9113805E-3,-3.4398616E-3,-5.985205E-3,2.4492887E-3],"split_indices":[15,12,9,11,0,0,0,7,0,0,0,0,0],"split_type":[0,0,0,0,0,0,0,0,0,0,0,0,0],"sum_hessian":[1.12E2,5.3E1,5.9E1,3E1,2.3E1,4.7E1,1.2E1,1E1,2E1,7E0,5E0,6E0,4E0],"tree_param":{"num_deleted":"0","num_feature":"16","num_nodes":"13","size_leaf_vector":"1"}},{"base_weights":[-6.2788874E-3,-3.7756965E-1,2.6040065E-1,-5.435869E-1,-3.0396186E-2,4.1185966E-1,7.200072E-2,-7.167674E-1,-1.280053E-1,3.8238473E-3,-2.881889E-3,1.4001069E-2,5.5336813E-3,1.5322195E-1,-2.7338653E-3,-1.9710824E-2,-1.6326485E-3,1.760277E-3,-3.0048114E-1,-5.9056154E-4,5.096566E-3,-1.0698244E-2,-0E0],"categories":[],"categories_nodes":[],"categories_segments":[],"categories_sizes":[],"default_left":[0,0,0,0,0,0,0,0,0,0,0,0,0,0,0,0,0,0,0,0,0,0,0],"id":4,"left_children":[1,3,5,7,9,11,13,15,17,-1,-1,-1,-1,19,-1,-1,-1,-1,21,-1,-1,-1,-1],"loss_changes":[1.1629261E1,2.565598E0,1.6287699E0,1.6800117E0,3.656742E-1,2.5576067E-1,5.9910285E-1,4.8206997E-1,6.622977E-1,0E0,0E0,0E0,0E0,3.3522797E-1,0E0,0E0,0E0,0E0,5.1568425E-1,0E0,0E0,0E0,0E0],"parents":[2147483647,0,0,1,1,2,2,3,3,4,4,5,5,6,6,7,7,8,8,13,13,18,18],"right_children":[2,4,6,8,10,12,14,16,18,-1,-1,-1,-1,20,-1,-1,-1,-1,22,-1,-1,-1,-1],"split_conditions":[-2.2641447E-1,5.3712636E-1,-4.0567525E-2,-3.713583E-1,-4.6692672E-1,3.1268972E-1,1.530562E0,7.748968E-1,-3.389845E-1,3.8238473E-3,-2.881889E-3,1.4001069E-2,5.5336813E-3,1.9974476E-1,-2.7338653E-3,-1.9710824E-2,-1.6326485E-3,1.760277E-3,5.0170225E-1,-5.9056154E-4,5.096566E-3,-1.0698244E-2,-0E0],"split_indices":[15,3,1,15,0,15,0,1,15,0,0,0,0,1,0,0,0,0,13,0,0,0,0],"split_type":[0,0,0,0,0,0,0,0,0,0,0,0,0,0,0,0,0,0,0,0,0,0,0],"sum_hessian":[1.1E2,4.6E1,6.4E1,2.9E1,1.7E1,3.2E1,3.2E1,1.8E1,1.1E1,3E0,1.4E1,1.3E1,1.9E1,2.4E1,8E0,1.5E1,3E0,5E0,6E0,4E0,2E1,4E0,2E0],"tree_param":{"num_deleted":"0","num_feature":"16","num_nodes":"23","size_leaf_vector":"1"}},{"base_weights":[-0E0,2.2649214E-1,-1.9899651E-1,6.1179562E-3,-3.8936615E-4,3.6938384E-2,-4.3306825E-1,9.718244E-3,-7.4745335E-2,-4.974509E-1,3.17061E-3,2.7563914E-3,-1.6292676E-1,-5.6401914E-1,-0E0,-2.1232021E-1,9.6147225E-5,-1.5747238E-2,-0E0,-8.378876E-3,-0E0],"categories":[],"categories_nodes":[],"categories_segments":[],"categories_sizes":[],"default_left":[0,0,0,0,0,0,0,0,0,0,0,0,0,0,0,0,0,0,0,0,0],"id":5,"left_children":[1,3,5,-1,-1,7,9,-1,11,13,-1,-1,15,17,-1,19,-1,-1,-1,-1,-1],"loss_changes":[5.2194552E0,3.4103632E-1,3.6660461E0,0E0,0E0,1.5434828E0,1.5406013E0,0E0,5.325664E-1,1.2007847E0,0E0,0E0,2.633534E-1,9.724035E-1,0E0,4.578048E-1,0E0,0E0,0E0,0E0,0E0],"parents":[2147483647,0,0,1,1,2,2,5,5,6,6,8,8,9,9,12,12,13,13,15,15],"right_children":[2,4,6,-1,-1,8,10,-1,12,14,-1,-1,16,18,-1,20,-1,-1,-1,-1,-1],"split_conditions":[-1.0408747E-2,3.006536E0,-1.0524151E-1,6.1179562E-3,-3.8936615E-4,-4.63162E-1,1.5341388E0,9.718244E-3,-7.850484E-1,5.857867E-1,3.17061E-3,2.7563914E-3,-2.4288951E-1,1.3440752E-1,-0E0,6.535948E-2,9.6147225E-5,-1.5747238E-2,-0E0,-8.378876E-3,-0E0],"split_indices":[3,9,14,0,0,11,14,0,14,3,0,0,14,8,0,9,0,0,0,0,0],"split_type":[0,0,0,0,0,0,0,0,0,0,0,0,0,0,0,0,0,0,0,0,0],"sum_hessian":[1.09E2,5E1,5.9E1,4.8E1,2E0,3E1,2.9E1,6E0,2.4E1,2.7E1,2E0,6E0,1.8E1,2.4E1,3E0,1.5E1,3E0,2.1E1,3E0,8E0,7E0],"tree_param":{"num_deleted":"0","num_feature":"16","num_nodes":"21","size_leaf_vector":"1"}},{"base_weights":[1.7500727E-2,-2.9413176E-1,2.3854145E-1,-4.6873432E-1,-0E0,7.596642E-3,-7.5427024E-3,-5.522173E-1,1.5619079E-3,2.8032702E-3,-2.2775333E-3,-5.224731E-3,1.544399E-3,-1.6012471E-2,-1.3618654E-3],"categories":[],"categories_nodes":[],"categories_segments":[],"categories_sizes":[],"default_left":[0,0,0,0,0,0,0,0,0,0,0,0,0,0,0],"id":6,"left_children":[1,3,5,7,9,-1,11,13,-1,-1,-1,-1,-1,-1,-1],"loss_changes":[7.9727235E0,2.3721094E0,1.2277062E0,1.624886E0,2.5236186E-1,0E0,3.3447814E-1,7.6434135E-1,0E0,0E0,0E0,0E0,0E0,0E0,0E0],"parents":[2147483647,0,0,1,1,2,2,3,3,4,4,6,6,7,7],"right_children":[2,4,6,8,10,-1,12,14,-1,-1,-1,-1,-1,-1,-1],"split_conditions":[-2.2641447E-1,5.857867E-1,8.5032654E-1,1.1637957E0,-6.50475E-2,7.596642E-3,-7.881816E-2,4.6636358E-1,1.5619079E-3,2.8032702E-3,-2.2775333E-3,-5.224731E-3,1.544399E-3,-1.6012471E-2,-1.3618654E-3],"split_indices":[15,3,1,13,8,0,8,11,0,0,0,0,0,0,0],"split_type":[0,0,0,0,0,0,0,0,0,0,0,0,0,0,0],"sum_hessian":[1.09E2,4.4E1,6.5E1,2.6E1,1.8E1,5.2E1,1.3E1,2.3E1,3E0,7E0,1.1E1,3E0,1E1,1.8E1,5E0],"tree_param":{"num_deleted":"0","num_feature":"16","num_nodes":"15","size_leaf_vector":"1"}},{"base_weights":[1.1540278E-2,-2.6484936E-1,2.0605664E-1,-3.9070994E-1,-0E0,6.1344323E-3,-5.1422836E-4,-1.2017043E-2,-0E0,-5.1644403E-3,2.4640174E-3],"categories":[],"categories_nodes":[],"categories_segments":[],"categories_sizes":[],"default_left":[0,0,0,0,0,0,0,0,0,0,0],"id":7,"left_children":[1,3,5,7,-1,-1,9,-1,-1,-1,-1],"loss_changes":[6.0007024E0,1.4643488E0,6.3853335E-1,1.0048904E0,0E0,0E0,3.696647E-1,0E0,0E0,0E0,0E0],"parents":[2147483647,0,0,1,1,2,2,3,3,6,6],"right_children":[2,4,6,8,-1,-1,10,-1,-1,-1,-1],"split_conditions":[-2.2641447E-1,5.3667134E-1,1.569499E0,7.1687627E-1,-0E0,6.1344323E-3,-7.881816E-2,-1.2017043E-2,-0E0,-5.1644403E-3,2.4640174E-3],"split_indices":[15,3,0,13,0,0,8,0,0,0,0],"split_type":[0,0,0,0,0,0,0,0,0,0,0],"sum_hessian":[1.05E2,4.2E1,6.3E1,2.7E1,1.5E1,5.4E1,9E0,2.1E1,6E0,3E0,6E0],"tree_param":{"num_deleted":"0","num_feature":"16","num_nodes":"11","size_leaf_vector":"1"}},{"base_weights":[-4.0395994E-2,-2.9335517E-1,2.3654681E-1,-5.349098E-1,-7.549525E-4,8.793993E-3,1.1545705E-1,-6.0349226E-1,1.891815E-3,-2.6732713E-3,4.6011517E-3,-6.6830486E-1,2.0789057E-4,-7.310877E-1,-7.3962065E-4,-1.9806216E-2,-2.310093E-3],"categories":[],"categories_nodes":[],"categories_segments":[],"categories_sizes":[],"default_left":[0,0,0,0,0,0,0,0,0,0,0,0,0,0,0,0,0],"id":8,"left_children":[1,3,5,7,-1,-1,9,11,-1,-1,-1,13,-1,15,-1,-1,-1],"loss_changes":[7.796533E0,3.436078E0,4.0340018E-1,1.6062851E0,0E0,0E0,5.9546113E-1,1.3739004E0,0E0,0E0,0E0,6.4259624E-1,0E0,2.6882267E-1,0E0,0E0,0E0],"parents":[2147483647,0,0,1,1,2,2,3,3,6,6,7,7,11,11,13,13],"right_children":[2,4,6,8,-1,-1,10,12,-1,-1,-1,14,-1,16,-1,-1,-1],"split_conditions":[-5.310812E-2,-1.25E-1,-5.3749718E-2,5.3712636E-1,-7.549525E-4,8.793993E-3,2.0850573E-2,1.2513537E0,1.891815E-3,-2.6732713E-3,4.6011517E-3,4.6636358E-1,2.0789057E-4,1.1637957E0,-7.3962065E-4,-1.9806216E-2,-2.310093E-3],"split_indices":[15,12,1,3,0,0,11,8,0,0,0,11,0,13,0,0,0],"split_type":[0,0,0,0,0,0,0,0,0,0,0,0,0,0,0,0,0],"sum_hessian":[1.04E2,5.5E1,4.9E1,2.6E1,2.9E1,2E1,2.9E1,2.4E1,2E0,5E0,2.4E1,2.2E1,2E0,1.9E1,3E0,1.6E1,3E0],"tree_param":{"num_deleted":"0","num_feature":"16","num_nodes":"17","size_leaf_vector":"1"}},{"base_weights":[8.036798E-3,-2.6688784E-1,1.8684557E-1,-0E0,-4.179152E-1,6.016684E-3,-0E0,4.2535034E-3,-1.6239956E-3,-4.9386248E-1,-0E0,-4.2087277E-3,2.3084104E-3,-1.3514447E-2,-0E0],"categories":[],"categories_nodes":[],"categories_segments":[],"categories_sizes":[],"default_left":[0,0,0,0,0,0,0,0,0,0,0,0,0,0,0],"id":9,"left_children":[1,3,5,7,9,-1,11,-1,-1,13,-1,-1,-1,-1,-1],"loss_changes":[5.6237383E0,1.8079176E0,7.5335884E-1,2.5778615E-1,9.9794006E-1,0E0,3.5600325E-1,0E0,0E0,5.9949684E-1,0E0,0E0,0E0,0E0,0E0],"parents":[2147483647,0,0,1,1,2,2,3,3,4,4,6,6,9,9],"right_children":[2,4,6,8,10,-1,12,-1,-1,14,-1,-1,-1,-1,-1],"split_conditions":[-2.2641447E-1,-6.1133295E-1,1.0326798E0,-2.0224719E-1,4.1666668E-2,6.016684E-3,1.4583334E0,4.2535034E-3,-1.6239956E-3,1E0,-0E0,-4.2087277E-3,2.3084104E-3,-1.3514447E-2,-0E0],"split_indices":[15,15,9,7,12,0,2,0,0,4,0,0,0,0,0],"split_type":[0,0,0,0,0,0,0,0,0,0,0,0,0,0,0],"sum_hessian":[1.08E2,4.1E1,6.7E1,1.6E1,2.5E1,5.2E1,1.5E1,3E0,1.3E1,2.1E1,4E0,5E0,1E1,1.9E1,2E0],"tree_param":{"num_deleted":"0","num_feature":"16","num_nodes":"15","size_leaf_vector":"1"}},{"base_weights":[-0E0,1.9733891E-1,-1.4140703E-1,5.367521E-3,-2.9426313E-4,1.7946464E-1,-2.710035E-1,-8.56361E-2,8.892532E-3,-8.7920815E-2,-5.445423E-1,-8.041426E-3,4.281725E-3,4.498479E-3,-1.9924246E-1,-0E0,-1.4808737E-2,-9.122632E-3,-0E0],"categories":[],"categories_nodes":[],"categories_segments":[],"categories_sizes":[],"default_left":[0,0,0,0,0,0,0,0,0,0,0,0,0,0,0,0,0,0,0],"id":10,"left_children":[1,3,5,-1,-1,7,9,11,-1,13,15,-1,-1,-1,17,-1,-1,-1,-1],"loss_changes":[3.4152603E0,2.7699018E-1,3.1385007E0,0E0,0E0,1.2191291E0,2.2086577E0,8.89637E-1,0E0,1.221581E0,3.581009E-1,0E0,0E0,0E0,1.0656916E0,0E0,0E0,0E0,0E0],"parents":[2147483647,0,0,1,1,2,2,5,5,6,6,7,7,9,9,10,10,14,14],"right_children":[2,4,6,-1,-1,8,10,12,-1,14,16,-1,-1,-1,18,-1,-1,-1,-1],"split_conditions":[-1.0408747E-2,2.55152E0,-3.4510922E-1,5.367521E-3,-2.9426313E-4,-3.529412E-1,1.8817017E-2,8.262131E-2,8.892532E-3,3.1293634E-1,-3.3932054E-1,-8.041426E-3,4.281725E-3,4.498479E-3,7.8431375E-2,-0E0,-1.4808737E-2,-9.122632E-3,-0E0],"split_indices":[3,1,1,0,0,9,14,14,0,3,11,0,0,0,9,0,0,0,0],"split_type":[0,0,0,0,0,0,0,0,0,0,0,0,0,0,0,0,0,0,0],"sum_hessian":[1.15E2,4.8E1,6.7E1,4.6E1,2E0,1.8E1,4.9E1,7E0,1.1E1,3.3E1,1.6E1,4E0,3E0,8E0,2.5E1,2E0,1.4E1,1.3E1,1.2E1],"tree_param":{"num_deleted":"0","num_feature":"16","num_nodes":"19","size_leaf_vector":"1"}},{"base_weights":[-8.012967E-3,-3.0555597E-1,1.9984472E-1,-4.4193575E-1,-3.1054147E-2,6.1626025E-3,-0E0,-5.8780396E-1,-9.1388084E-2,3.0573609E-3,-3.5959054E-3,-4.8518847E-3,1.8601047E-3,-6.47035E-1,-1.0293726E-3,2.3108106E-3,-6.607376E-3,-1.7431332E-2,-2.9758798E-4],"categories":[],"categories_nodes":[],"categories_segments":[],"categories_sizes":[],"default_left":[0,0,0,0,0,0,0,0,0,0,0,0,0,0,0,0,0,0,0],"id":11,"left_children":[1,3,5,7,9,-1,11,13,15,-1,-1,-1,-1,17,-1,-1,-1,-1,-1],"loss_changes":[7.5229826E0,1.6533136E0,7.3908734E-1,1.2021561E0,4.4202483E-1,0E0,3.1402394E-1,3.2758522E-1,6.151138E-1,0E0,0E0,0E0,0E0,2.7734852E-1,0E0,0E0,0E0,0E0,0E0],"parents":[2147483647,0,0,1,1,2,2,3,3,4,4,6,6,7,7,8,8,13,13],"right_children":[2,4,6,8,10,-1,12,14,16,-1,-1,-1,-1,18,-1,-1,-1,-1,-1],"split_conditions":[-2.2641447E-1,5.857867E-1,1.0326798E0,-3.713583E-1,-6.0629576E-2,6.1626025E-3,-7.881816E-2,7.748968E-1,-3.389845E-1,3.0573609E-3,-3.5959054E-3,-4.8518847E-3,1.8601047E-3,1.3440752E-1,-1.0293726E-3,2.3108106E-3,-6.607376E-3,-1.7431332E-2,-2.9758798E-4],"split_indices":[15,3,9,15,8,0,8,1,15,0,0,0,0,8,0,0,0,0,0],"split_type":[0,0,0,0,0,0,0,0,0,0,0,0,0,0,0,0,0,0,0],"sum_hessian":[1.14E2,4.7E1,6.7E1,2.9E1,1.8E1,5.5E1,1.2E1,1.8E1,1.1E1,6E0,1.2E1,3E0,9E0,1.5E1,3E0,5E0,6E0,1.3E1,2E0],"tree_param":{"num_deleted":"0","num_feature":"16","num_nodes":"19","size_leaf_vector":"1"}},{"base_weights":[-7.771336E-3,-3.216454E-1,1.9427074E-1,-4.5994464E-1,-3.4709588E-2,6.1771027E-3,-0E0,-1.565647E-2,-8.6203516E-2,3.3916538E-3,-4.1385777E-3,-4.7958964E-3,1.7280834E-3,2.4153222E-3,-2.6012215E-1,-9.56964E-3,-0E0],"categories":[],"categories_nodes":[],"categories_segments":[],"categories_sizes":[],"default_left":[0,0,0,0,0,0,0,0,0,0,0,0,0,0,0,0,0],"id":12,"left_children":[1,3,5,7,9,-1,11,-1,13,-1,-1,-1,-1,-1,15,-1,-1],"loss_changes":[7.7844205E0,1.670888E0,7.974856E-1,1.4840565E0,5.4751843E-1,0E0,3.1326604E-1,0E0,6.143929E-1,0E0,0E0,0E0,0E0,0E0,4.561326E-1,0E0,0E0],"parents":[2147483647,0,0,1,1,2,2,3,3,4,4,6,6,8,8,14,14],"right_children":[2,4,6,8,10,-1,12,-1,14,-1,-1,-1,-1,-1,16,-1,-1],"split_conditions":[-2.2641447E-1,5.857867E-1,7.798514E-1,-3.9376307E-1,-6.0629576E-2,6.1771027E-3,-7.881816E-2,-1.565647E-2,-3.3968085E-1,3.3916538E-3,-4.1385777E-3,-4.7958964E-3,1.7280834E-3,2.4153222E-3,5.0170225E-1,-9.56964E-3,-0E0],"split_indices":[15,3,1,15,8,0,8,0,15,0,0,0,0,0,13,0,0],"split_type":[0,0,0,0,0,0,0,0,0,0,0,0,0,0,0,0,0],"sum_hessian":[1.15E2,4.5E1,7E1,2.8E1,1.7E1,5.5E1,1.5E1,1.7E1,1.1E1,6E0,1.1E1,3E0,1.2E1,5E0,6E0,4E0,2E0],"tree_param":{"num_deleted":"0","num_feature":"16","num_nodes":"17","size_leaf_vector":"1"}},{"base_weights":[-5.5099847E-3,-3.1798568E-1,2.1666078E-1,-5.2933985E-1,-9.752934E-4,9.027555E-3,1.1875357E-1,-0E0,-6.2318164E-1,-2.4818056E-3,3.6337294E-3,-6.4228533E-4,-1.7249478E-2],"categories":[],"categories_nodes":[],"categories_segments":[],"categories_sizes":[],"default_left":[0,0,0,0,0,0,0,0,0,0,0,0,0],"id":13,"left_children":[1,3,5,7,-1,-1,9,-1,11,-1,-1,-1,-1],"loss_changes":[8.022324E0,2.5600543E0,5.984032E-1,1.3126779E0,0E0,0E0,3.3856428E-1,0E0,5.496826E-1,0E0,0E0,0E0,0E0],"parents":[2147483647,0,0,1,1,2,2,3,3,6,6,8,8],"right_children":[2,4,6,8,-1,-1,10,-1,12,-1,-1,-1,-1],"split_conditions":[-2.2641447E-1,-1.25E-1,-3.4510922E-1,-5.381278E-1,-9.752934E-4,9.027555E-3,-3.2721266E-1,-0E0,-3.8399488E-1,-2.4818056E-3,3.6337294E-3,-6.4228533E-4,-1.7249478E-2],"split_indices":[15,12,1,1,0,0,1,0,11,0,0,0,0],"split_type":[0,0,0,0,0,0,0,0,0,0,0,0,0],"sum_hessian":[1.08E2,4.5E1,6.3E1,2.3E1,2.2E1,2E1,4.3E1,4E0,1.9E1,2E0,4.1E1,3E0,1.6E1],"tree_param":{"num_deleted":"0","num_feature":"16","num_nodes":"13","size_leaf_vector":"1"}},{"base_weights":[-9.084149E-3,-2.6480255E-1,2.1758822E-1,-4.0850934E-1,-4.4287015E-2,6.3665914E-3,-0E0,-8.365472E-2,-1.37743605E-2,2.462923E-3,-2.450058E-3,-2.7310464E-1,2.362752E-3,-1.1356774E-2,1.8751733E-3],"categories":[],"categories_nodes":[],"categories_segments":[],"categories_sizes":[],"default_left":[0,0,0,0,0,0,0,0,0,0,0,0,0,0,0],"id":14,"left_children":[1,3,5,7,9,-1,-1,11,-1,-1,-1,13,-1,-1,-1],"loss_changes":[7.2632103E0,1.6410909E0,4.3344665E-1,1.1815028E0,2.5220284E-1,0E0,0E0,6.849531E-1,0E0,0E0,0E0,8.700907E-1,0E0,0E0,0E0],"parents":[2147483647,0,0,1,1,2,2,3,3,4,4,7,7,11,11],"right_children":[2,4,6,8,10,-1,-1,12,-1,-1,-1,14,-1,-1,-1],"split_conditions":[-5.310812E-2,-1.25E-1,1.0326798E0,-3.8399488E-1,0E0,6.3665914E-3,-0E0,-4.918932E-1,-1.37743605E-2,2.462923E-3,-2.450058E-3,5.289063E-1,2.362752E-3,-1.1356774E-2,1.8751733E-3],"split_indices":[15,12,9,11,12,0,0,0,0,0,0,3,0,0,0],"split_type":[0,0,0,0,0,0,0,0,0,0,0,0,0,0,0],"sum_hessian":[1.18E2,5.6E1,6.2E1,3.1E1,2.5E1,5.1E1,1.1E1,1.2E1,1.9E1,4E0,2.1E1,6E0,6E0,4E0,2E0],"tree_param":{"num_deleted":"0","num_feature":"16","num_nodes":"15","size_leaf_vector":"1"}},{"base_weights":[-2.102442E-3,-2.1372381E-1,2.2089441E-1,-3.069598E-1,-1.6965888E-2,3.3300138E-1,9.752999E-2,-5.3751314E-1,-3.3289324E-2,2.612789E-3,-2.9064473E-3,1.4021312E-2,4.433658E-3,-8.008846E-4,3.5694044E-3,-5.93342E-1,-6.911777E-4,3.0638706E-3,-4.679715E-3,-1.601904E-2,-1.9362164E-5],"categories":[],"categories_nodes":[],"categories_segments":[],"categories_sizes":[],"default_left":[0,0,0,0,0,0,0,0,0,0,0,0,0,0,0,0,0,0,0,0,0],"id":15,"left_children":[1,3,5,7,9,11,13,15,17,-1,-1,-1,-1,-1,-1,19,-1,-1,-1,-1,-1],"loss_changes":[5.75449E0,1.0171049E0,5.231712E-1,2.327521E0,3.547989E-1,3.3191252E-1,2.625556E-1,3.0619144E-1,6.697775E-1,0E0,0E0,0E0,0E0,0E0,0E0,2.61487E-1,0E0,0E0,0E0,0E0,0E0],"parents":[2147483647,0,0,1,1,2,2,3,3,4,4,5,5,6,6,7,7,8,8,15,15],"right_children":[2,4,6,8,10,12,14,16,18,-1,-1,-1,-1,-1,-1,20,-1,-1,-1,-1,-1],"split_conditions":[-5.1536072E-2,5.857867E-1,-4.0567525E-2,-3.713583E-1,-6.0629576E-2,2.6358297E-1,-4.3174032E-2,7.748968E-1,-5.93686E-2,2.612789E-3,-2.9064473E-3,1.4021312E-2,4.433658E-3,-8.008846E-4,3.5694044E-3,1.02340706E-1,-6.911777E-4,3.0638706E-3,-4.679715E-3,-1.601904E-2,-1.9362164E-5],"split_indices":[15,3,1,15,8,15,11,1,11,0,0,0,0,0,0,8,0,0,0,0,0],"split_type":[0,0,0,0,0,0,0,0,0,0,0,0,0,0,0,0,0,0,0,0,0],"sum_hessian":[1.15E2,6E1,5.5E1,3.8E1,2.2E1,2.4E1,3.1E1,1.8E1,2E1,8E0,1.4E1,5E0,1.9E1,6E0,2.5E1,1.5E1,3E0,9E0,1.1E1,1.3E1,2E0],"tree_param":{"num_deleted":"0","num_feature":"16","num_nodes":"21","size_leaf_vector":"1"}},{"base_weights":[-1.8137436E-2,-1.6201338E-1,1.3804333E-1,1.4405183E-1,-4.1164374E-1,-6.4590713E-4,5.0299163E-3,-4.799508E-2,7.223591E-3,-1.81924E-1,-1.47171235E-2,-9.340547E-3,5.473309E-3,-7.2729993E-3,-0E0],"categories":[],"categories_nodes":[],"categories_segments":[],"categories_sizes":[],"default_left":[0,0,0,0,0,0,0,0,0,0,0,0,0,0,0],"id":16,"left_children":[1,3,5,7,9,-1,-1,11,-1,13,-1,-1,-1,-1,-1],"loss_changes":[2.615814E0,5.0133743E0,6.523876E-1,9.6578485E-1,7.607002E-1,0E0,0E0,1.6084902E0,0E0,5.1562786E-1,0E0,0E0,0E0,0E0,0E0],"parents":[2147483647,0,0,1,1,2,2,3,3,4,4,7,7,9,9],"right_children":[2,4,6,8,10,-1,-1,12,-1,14,-1,-1,-1,-1,-1],"split_conditions":[1.3888889E-2,-3.8399488E-1,2.0439394E-2,8.262131E-2,-9.232541E-2,-6.4590713E-4,5.0299163E-3,-4.918932E-1,7.223591E-3,-2.4174634E-1,-1.47171235E-2,-9.340547E-3,5.473309E-3,-7.2729993E-3,-0E0],"split_indices":[2,11,8,14,14,0,0,0,0,14,0,0,0,0,0],"split_type":[0,0,0,0,0,0,0,0,0,0,0,0,0,0,0],"sum_hessian":[1.09E2,5.8E1,5.1E1,2.6E1,3.2E1,1.3E1,3.8E1,1.1E1,1.5E1,1.8E1,1.4E1,5E0,6E0,1.1E1,7E0],"tree_param":{"num_deleted":"0","num_feature":"16","num_nodes":"15","size_leaf_vector":"1"}},{"base_weights":[6.2791277E-3,5.095555E-3,-1.1793153E-1,1.00756906E-1,-3.670617E-1,7.841744E-3,-3.805911E-2,-3.67815E-2,-5.132161E-1,-3.6232506E-3,2.255418E-3,-9.135964E-3,5.0859875E-3,-1.6169293E-2,-0E0],"categories":[],"categories_nodes":[],"categories_segments":[],"categories_sizes":[],"default_left":[0,0,0,0,0,0,0,0,0,0,0,0,0,0,0],"id":17,"left_children":[1,-1,3,5,7,-1,9,11,13,-1,-1,-1,-1,-1,-1],"loss_changes":[2.9770412E0,0E0,4.185903E0,1.3490338E0,1.4275842E0,0E0,4.3093553E-1,1.548736E0,1.54912E0,0E0,0E0,0E0,0E0,0E0,0E0],"parents":[2147483647,0,0,2,2,3,3,4,4,6,6,7,7,8,8],"right_children":[2,-1,4,6,8,-1,10,12,14,-1,-1,-1,-1,-1,-1],"split_conditions":[0E0,5.095555E-3,-9.031347E-2,4.2871076E-1,-3.8399488E-1,7.841744E-3,3.1944445E-1,8.262131E-2,1.1536585E0,-3.6232506E-3,2.255418E-3,-9.135964E-3,5.0859875E-3,-1.6169293E-2,-0E0],"split_indices":[3,0,14,3,11,0,2,14,11,0,0,0,0,0,0],"split_type":[0,0,0,0,0,0,0,0,0,0,0,0,0,0,0],"sum_hessian":[1.13E2,4.4E1,6.9E1,3.7E1,3.2E1,1.4E1,2.3E1,1.2E1,2E1,1.4E1,9E0,5E0,7E0,1.5E1,5E0],"tree_param":{"num_deleted":"0","num_feature":"16","num_nodes":"15","size_leaf_vector":"1"}},{"base_weights":[-2.2184204E-2,-2.3915473E-1,1.9301514E-1,-0E0,-3.4297046E-1,3.3990008E-1,1.0244483E-1,-5.0734735E-1,-1.0015916E-1,2.446725E-3,1.1915926E-2,3.3881404E-3,-1.6563721E-3,-1.5049522E-2,-0E0,2.4197218E-3,-2.1655002E-1,-0E0,-6.890096E-3],"categories":[],"categories_nodes":[],"categories_segments":[],"categories_sizes":[],"default_left":[0,0,0,0,0,0,0,0,0,0,0,0,0,0,0,0,0,0,0],"id":18,"left_children":[1,3,5,-1,7,9,11,13,15,-1,-1,-1,-1,-1,-1,-1,17,-1,-1],"loss_changes":[5.6196256E0,1.5389242E0,4.9274158E-1,0E0,1.2754273E0,2.5227404E-1,3.0189684E-1,1.0174966E0,6.370295E-1,0E0,0E0,0E0,0E0,0E0,0E0,0E0,2.5167638E-1,0E0,0E0],"parents":[2147483647,0,0,1,1,2,2,4,4,5,5,6,6,7,7,8,8,16,16],"right_children":[2,4,6,-1,8,10,12,14,16,-1,-1,-1,-1,-1,-1,-1,18,-1,-1],"split_conditions":[-5.310812E-2,-6.1133295E-1,-3.3234182E-1,-0E0,-3.713583E-1,-3.709894E-1,1.2982452E-1,7.334351E-1,-2.9485896E-1,2.446725E-3,1.1915926E-2,3.3881404E-3,-1.6563721E-3,-1.5049522E-2,-0E0,2.4197218E-3,-1.1911204E-1,-0E0,-6.890096E-3],"split_indices":[15,15,0,0,15,3,3,3,15,0,0,0,0,0,0,0,3,0,0],"split_type":[0,0,0,0,0,0,0,0,0,0,0,0,0,0,0,0,0,0,0],"sum_hessian":[1.13E2,5.7E1,5.6E1,1.8E1,3.9E1,1.6E1,4E1,2E1,1.9E1,9E0,7E0,3.6E1,4E0,1.6E1,4E0,6E0,1.3E1,3E0,1E1],"tree_param":{"num_deleted":"0","num_feature":"16","num_nodes":"19","size_leaf_vector":"1"}},{"base_weights":[-1.0886646E-2,-2.333395E-1,1.9366612E-1,-5.8899987E-2,-3.9477938E-1,2.9906115E-1,1.5186489E-3,-2.7296066E-1,5.1407054E-2,-4.42744E-1,-0E0,1.1682413E-2,3.5446452E-3,-9.057261E-3,-0E0,3.0216079E-3,-3.0776744E-3,-0E0,-1.2160755E-2],"categories":[],"categories_nodes":[],"categories_segments":[],"categories_sizes":[],"default_left":[0,0,0,0,0,0,0,0,0,0,0,0,0,0,0,0,0,0,0],"id":19,"left_children":[1,3,5,7,9,11,-1,13,15,17,-1,-1,-1,-1,-1,-1,-1,-1,-1],"loss_changes":[5.1111474E0,1.2719457E0,5.980184E-1,8.8152444E-1,6.7249966E-1,3.0501938E-1,0E0,4.4682664E-1,3.2390875E-1,5.212774E-1,0E0,0E0,0E0,0E0,0E0,0E0,0E0,0E0,0E0],"parents":[2147483647,0,0,1,1,2,2,3,3,4,4,5,5,7,7,8,8,9,9],"right_children":[2,4,6,8,10,12,-1,14,16,18,-1,-1,-1,-1,-1,-1,-1,-1,-1],"split_conditions":[-5.310812E-2,1.8817017E-2,-4.0567525E-2,-1.5277778E-1,7.1687627E-1,3.1268972E-1,1.5186489E-3,-1.823432E-2,1.4695437E0,-8.452154E-2,-0E0,1.1682413E-2,3.5446452E-3,-9.057261E-3,-0E0,3.0216079E-3,-3.0776744E-3,-0E0,-1.2160755E-2],"split_indices":[15,14,1,2,13,15,0,14,3,3,0,0,0,0,0,0,0,0,0],"split_type":[0,0,0,0,0,0,0,0,0,0,0,0,0,0,0,0,0,0,0],"sum_hessian":[1.05E2,5.1E1,5.4E1,2.8E1,2.3E1,2.6E1,2.8E1,9E0,1.9E1,2.1E1,2E0,8E0,1.8E1,7E0,2E0,1.6E1,3E0,2E0,1.9E1],"tree_param":{"num_deleted":"0","num_feature":"16","num_nodes":"19","size_leaf_vector":"1"}},{"base_weights":[-1.2998341E-2,-3.126015E-1,1.3153444E-1,-5.0486225E-1,-4.1905142E-2,7.721243E-3,3.6504958E-2,-1.3922823E-2,-3.8307114E-4,2.413465E-3,-3.9907168E-3,-1.7680661E-1,1.1346328E-1,3.1122502E-3,-8.342287E-3,-1.4617516E-3,3.7186977E-3,-3.4750313E-3,3.9802445E-3],"categories":[],"categories_nodes":[],"categories_segments":[],"categories_sizes":[],"default_left":[0,0,0,0,0,0,0,0,0,0,0,0,0,0,0,0,0,0,0],"id":20,"left_children":[1,3,5,7,9,-1,11,-1,-1,-1,-1,13,15,17,-1,-1,-1,-1,-1],"loss_changes":[5.3476834E0,1.8150394E0,1.195687E0,3.1455755E-1,4.2958105E-1,0E0,1.0052183E0,0E0,0E0,0E0,0E0,5.7337797E-1,3.4864873E-1,2.9628354E-1,0E0,0E0,0E0,0E0,0E0],"parents":[2147483647,0,0,1,1,2,2,3,3,4,4,6,6,11,11,12,12,13,13],"right_children":[2,4,6,8,10,-1,12,-1,-1,-1,-1,14,16,18,-1,-1,-1,-1,-1],"split_conditions":[-3.713583E-1,5.857867E-1,-3.4510922E-1,7.748968E-1,-6.0629576E-2,7.721243E-3,-1.6666667E-1,-1.3922823E-2,-3.8307114E-4,2.413465E-3,-3.9907168E-3,-3.5815164E-1,-4.570799E-2,-3.2144338E-1,-8.342287E-3,-1.4617516E-3,3.7186977E-3,-3.4750313E-3,3.9802445E-3],"split_indices":[15,3,1,1,8,0,12,0,0,0,0,8,8,0,0,0,0,0,0],"split_type":[0,0,0,0,0,0,0,0,0,0,0,0,0,0,0,0,0,0,0],"sum_hessian":[1.15E2,3.7E1,7.8E1,1.9E1,1.8E1,2.3E1,5.5E1,1.6E1,3E0,7E0,1.1E1,1.2E1,4.3E1,6E0,6E0,5E0,3.8E1,2E0,4E0],"tree_param":{"num_deleted":"0","num_feature":"16","num_nodes":"19","size_leaf_vector":"1"}},{"base_weights":[-1.6976243E-2,-3.3650687E-1,1.268506E-1,-1.25683835E-2,-1.0531202E-3,-0E0,1.851726E-1,1.1370417E-1,-1.4868991E-1,5.3194594E-3,-6.6063117E-4,-8.9760975E-4,4.9242703E-3,-7.2333426E-3,1.530075E-4],"categories":[],"categories_nodes":[],"categories_segments":[],"categories_sizes":[],"default_left":[0,0,0,0,0,0,0,0,0,0,0,0,0,0,0],"id":21,"left_children":[1,3,5,-1,-1,7,9,11,13,-1,-1,-1,-1,-1,-1],"loss_changes":[5.2196064E0,1.4451156E0,5.691997E-1,0E0,0E0,5.2471846E-1,4.0089E-1,3.0718344E-1,4.1342E-1,0E0,0E0,0E0,0E0,0E0,0E0],"parents":[2147483647,0,0,1,1,2,2,5,5,6,6,7,7,8,8],"right_children":[2,4,6,-1,-1,8,10,12,14,-1,-1,-1,-1,-1,-1],"split_conditions":[-3.713583E-1,8.3333336E-2,2.4286933E-2,-1.25683835E-2,-1.0531202E-3,7.332901E-2,1.569499E0,-3.465843E-1,-2.0833333E-1,5.3194594E-3,-6.6063117E-4,-8.9760975E-4,4.9242703E-3,-7.2333426E-3,1.530075E-4],"split_indices":[15,12,15,0,0,11,0,14,12,0,0,0,0,0,0],"split_type":[0,0,0,0,0,0,0,0,0,0,0,0,0,0,0],"sum_hessian":[1.05E2,3.2E1,7.3E1,1.8E1,1.4E1,2.4E1,4.9E1,1.4E1,1E1,4.5E1,4E0,4E0,1E1,5E0,5E0],"tree_param":{"num_deleted":"0","num_feature":"16","num_nodes":"15","size_leaf_vector":"1"}},{"base_weights":[-5.372736E-3,-3.269287E-1,1.4201634E-1,-7.823158E-4,-1.22387605E-2,3.5318148E-3,4.9082944E-3,-3.093146E-3,1.7835642E-1,6.392095E-3,-0E0],"categories":[],"categories_nodes":[],"categories_segments":[],"categories_sizes":[],"default_left":[0,0,0,0,0,0,0,0,0,0,0],"id":22,"left_children":[1,3,5,-1,-1,7,-1,-1,9,-1,-1],"loss_changes":[4.999548E0,1.3486195E0,4.4791758E-1,0E0,0E0,6.664059E-1,0E0,0E0,2.5698033E-1,0E0,0E0],"parents":[2147483647,0,0,1,1,2,2,5,5,8,8],"right_children":[2,4,6,-1,-1,8,-1,-1,10,-1,-1],"split_conditions":[-3.713583E-1,-1.1626806E-1,2.4286933E-2,-7.823158E-4,-1.22387605E-2,1.94533E-1,4.9082944E-3,-3.093146E-3,7.332901E-2,6.392095E-3,-0E0],"split_indices":[15,14,15,0,0,3,0,0,11,0,0],"split_type":[0,0,0,0,0,0,0,0,0,0,0],"sum_hessian":[9.7E1,3E1,6.7E1,1.3E1,1.7E1,2.2E1,4.5E1,1.2E1,1E1,7E0,3E0],"tree_param":{"num_deleted":"0","num_feature":"16","num_nodes":"11","size_leaf_vector":"1"}},{"base_weights":[-4.522338E-3,-2.7657878E-1,1.9609381E-1,-7.679722E-2,-1.0920782E-2,3.6540163E-1,1.0173187E-1,-5.8280933E-3,-0E0,2.5232309E-3,1.3008848E-2,-5.7074454E-2,4.195853E-3,-4.801456E-3,1.0655669E-3],"categories":[],"categories_nodes":[],"categories_segments":[],"categories_sizes":[],"default_left":[0,0,0,0,0,0,0,0,0,0,0,0,0,0,0],"id":23,"left_children":[1,3,5,7,-1,9,11,-1,-1,-1,-1,13,-1,-1,-1],"loss_changes":[6.0346727E0,1.1978683E0,6.815543E-1,3.600014E-1,0E0,3.667922E-1,5.659622E-1,0E0,0E0,0E0,0E0,2.8355905E-1,0E0,0E0,0E0],"parents":[2147483647,0,0,1,1,2,2,3,3,5,5,6,6,11,11],"right_children":[2,4,6,8,-1,10,12,-1,-1,-1,-1,14,-1,-1,-1],"split_conditions":[-2.2641447E-1,-9.031347E-2,-4.63162E-1,-1.6666667E-1,-1.0920782E-2,-3.709894E-1,2.4286933E-2,-5.8280933E-3,-0E0,2.5232309E-3,1.3008848E-2,0E0,4.195853E-3,-4.801456E-3,1.0655669E-3],"split_indices":[15,14,11,2,0,3,15,0,0,0,0,13,0,0,0],"split_type":[0,0,0,0,0,0,0,0,0,0,0,0,0,0,0],"sum_hessian":[1.03E2,4.4E1,5.9E1,2.3E1,2.1E1,1.6E1,4.3E1,6E0,1.7E1,9E0,7E0,1.1E1,3.2E1,5E0,6E0],"tree_param":{"num_deleted":"0","num_feature":"16","num_nodes":"15","size_leaf_vector":"1"}},{"base_weights":[-0E0,-3.1770432E-1,1.5929967E-1,-4.441165E-1,-1.9304332E-4,2.921939E-1,7.908853E-2,-8.1641816E-2,-1.4406151E-2,-0E0,8.762176E-3,-2.0644902E-1,1.4791423E-1,1.0423701E-3,-6.987013E-3,-0E0,-7.26152E-3,4.477127E-3,-7.280339E-4],"categories":[],"categories_nodes":[],"categories_segments":[],"categories_sizes":[],"default_left":[0,0,0,0,0,0,0,0,0,0,0,0,0,0,0,0,0,0,0],"id":24,"left_children":[1,3,5,7,-1,9,11,13,-1,-1,-1,15,17,-1,-1,-1,-1,-1,-1],"loss_changes":[6.25702E0,1.4334631E0,6.3936234E-1,9.371524E-1,0E0,5.3889203E-1,1.2134731E0,4.409088E-1,0E0,0E0,0E0,3.113472E-1,3.5139692E-1,0E0,0E0,0E0,0E0,0E0,0E0],"parents":[2147483647,0,0,1,1,2,2,3,3,5,5,6,6,7,7,11,11,12,12],"right_children":[2,4,6,8,-1,10,12,14,-1,-1,-1,16,18,-1,-1,-1,-1,-1,-1],"split_conditions":[-3.713583E-1,5.2287585E-1,-2.6966292E-1,-6.3333577E-1,-1.9304332E-4,-2.2641447E-1,-8.3333336E-2,-1.3071896E-1,-1.4406151E-2,-0E0,8.762176E-3,-3.389845E-1,9.569472E-1,1.0423701E-3,-6.987013E-3,-0E0,-7.26152E-3,4.477127E-3,-7.280339E-4],"split_indices":[15,9,7,15,0,15,12,9,0,0,0,15,14,0,0,0,0,0,0],"split_type":[0,0,0,0,0,0,0,0,0,0,0,0,0,0,0,0,0,0,0],"sum_hessian":[1.16E2,3.8E1,7.8E1,2.5E1,1.3E1,2.4E1,5.4E1,9E0,1.6E1,4E0,2E1,8E0,4.6E1,6E0,3E0,2E0,6E0,4.1E1,5E0],"tree_param":{"num_deleted":"0","num_feature":"16","num_nodes":"19","size_leaf_vector":"1"}},{"base_weights":[-3.9994333E-2,-2.3008017E-1,3.637235E-3,-4.3735513E-1,-4.282803E-3,3.0004152E-4,-1.2198708E-2,-5.6023193E-3,5.91188E-4],"categories":[],"categories_nodes":[],"categories_segments":[],"categories_sizes":[],"default_left":[0,0,0,0,0,0,0,0,0],"id":25,"left_children":[1,3,-1,5,7,-1,-1,-1,-1],"loss_changes":[4.011729E0,2.4611104E0,0E0,8.588052E-1,2.921154E-1,0E0,0E0,0E0,0E0],"parents":[2147483647,0,0,1,1,3,3,4,4],"right_children":[2,4,-1,6,8,-1,-1,-1,-1],"split_conditions":[-5.490896E-2,-1.5277778E-1,3.637235E-3,-8.452154E-2,-3.361231E-1,3.0004152E-4,-1.2198708E-2,-5.6023193E-3,5.91188E-4],"split_indices":[15,2,0,3,8,0,0,0,0],"split_type":[0,0,0,0,0,0,0,0,0],"sum_hessian":[1.06E2,5.3E1,5.3E1,2.5E1,2.8E1,2E0,2.3E1,2E0,2.6E1],"tree_param":{"num_deleted":"0","num_feature":"16","num_nodes":"9","size_leaf_vector":"1"}},{"base_weights":[-2.5030805E-3,-2.4294108E-1,1.5957803E-1,-3.9465302E-1,-2.3087832E-4,3.3250895E-1,8.726941E-2,-4.9006465E-1,-6.1380353E-2,1.25327725E-2,2.759765E-3,-1.4391936E-1,1.3721079E-1,-5.280841E-1,-0E0,1.3833637E-3,-5.0696107E-3,-6.1660153E-3,8.422357E-4,-1.5490948E-3,4.448203E-3,-1.43511E-2,-0E0],"categories":[],"categories_nodes":[],"categories_segments":[],"categories_sizes":[],"default_left":[0,0,0,0,0,0,0,0,0,0,0,0,0,0,0,0,0,0,0,0,0,0,0],"id":26,"left_children":[1,3,5,7,-1,9,11,13,15,-1,-1,17,19,21,-1,-1,-1,-1,-1,-1,-1,-1,-1],"loss_changes":[4.826003E0,1.6162155E0,6.3709486E-1,6.121845E-1,0E0,2.5526834E-1,7.3032045E-1,2.74508E-1,2.8804895E-1,0E0,0E0,3.0582666E-1,4.9452126E-1,3.286929E-1,0E0,0E0,0E0,0E0,0E0,0E0,0E0,0E0,0E0],"parents":[2147483647,0,0,1,1,2,2,3,3,5,5,6,6,7,7,8,8,11,11,12,12,13,13],"right_children":[2,4,6,8,-1,10,12,14,16,-1,-1,18,20,22,-1,-1,-1,-1,-1,-1,-1,-1,-1],"split_conditions":[-2.3860456E-1,5.3667134E-1,-1.8055555E-1,-3.713583E-1,-2.3087832E-4,2.6358297E-1,-8.3333336E-2,4.0051872E-1,-3.389845E-1,1.25327725E-2,2.759765E-3,1.2413123E0,-1.5402721E-2,1.3440752E-1,-0E0,1.3833637E-3,-5.0696107E-3,-6.1660153E-3,8.422357E-4,-1.5490948E-3,4.448203E-3,-1.43511E-2,-0E0],"split_indices":[15,3,2,15,0,15,12,11,15,0,0,8,8,8,0,0,0,0,0,0,0,0,0],"split_type":[0,0,0,0,0,0,0,0,0,0,0,0,0,0,0,0,0,0,0,0,0,0,0],"sum_hessian":[1.16E2,4.7E1,6.9E1,2.6E1,2.1E1,1.5E1,5.4E1,1.8E1,8E0,5E0,1E1,7E0,4.7E1,1.6E1,2E0,4E0,4E0,5E0,2E0,6E0,4.1E1,1.4E1,2E0],"tree_param":{"num_deleted":"0","num_feature":"16","num_nodes":"23","size_leaf_vector":"1"}},{"base_weights":[-2.6382043E-3,3.2344093E-3,-9.5254436E-2,4.4862963E-2,-3.0887592E-1,2.0229732E-1,-8.452109E-2,-0E0,-1.10887345E-2,1.0799792E-2,1.2320977E-3,-2.0390892E-1,3.1852044E-4,-7.4252957E-3,5.0302623E-3,-0E0,-7.974432E-3],"categories":[],"categories_nodes":[],"categories_segments":[],"categories_sizes":[],"default_left":[0,0,0,0,0,0,0,0,0,0,0,0,0,0,0,0,0],"id":27,"left_children":[1,-1,3,5,7,9,11,13,-1,-1,-1,15,-1,-1,-1,-1,-1],"loss_changes":[1.4172136E0,0E0,2.2643173E0,1.0133975E0,1.2186608E0,5.2376604E-1,3.8166326E-1,9.5801795E-1,0E0,0E0,0E0,4.052772E-1,0E0,0E0,0E0,0E0,0E0],"parents":[2147483647,0,0,2,2,3,3,4,4,5,5,6,6,7,7,11,11],"right_children":[2,-1,4,6,8,10,12,14,-1,-1,-1,16,-1,-1,-1,-1,-1],"split_conditions":[-2.0850202E-2,3.2344093E-3,1.7775673E-3,4.2871076E-1,-4.2297125E-1,-5.8731514E-1,1.5413257E-1,8.262131E-2,-1.10887345E-2,1.0799792E-2,1.2320977E-3,-3.0352077E-1,3.1852044E-4,-7.4252957E-3,5.0302623E-3,-0E0,-7.974432E-3],"split_indices":[3,0,14,3,1,14,1,14,0,0,0,1,0,0,0,0,0],"split_type":[0,0,0,0,0,0,0,0,0,0,0,0,0,0,0,0,0],"sum_hessian":[1.1E2,4.3E1,6.7E1,4.1E1,2.6E1,1.9E1,2.2E1,9E0,1.7E1,4E0,1.5E1,1E1,1.2E1,3E0,6E0,4E0,6E0],"tree_param":{"num_deleted":"0","num_feature":"16","num_nodes":"17","size_leaf_vector":"1"}},{"base_weights":[-1.5756696E-2,-2.1401827E-1,1.5256776E-1,-7.388726E-4,-3.5475942E-1,2.4959454E-1,3.7430912E-2,-4.397068E-3,-4.6087095E-1,1.0151891E-2,2.4775576E-3,-2.9881622E-3,3.2768676E-3,-5.74554E-3,4.2436523E-3,-1.3402112E-2,-1.7297594E-3],"categories":[],"categories_nodes":[],"categories_segments":[],"categories_sizes":[],"default_left":[0,0,0,0,0,0,0,0,0,0,0,0,0,0,0,0,0],"id":28,"left_children":[1,3,5,-1,7,9,11,13,15,-1,-1,-1,-1,-1,-1,-1,-1],"loss_changes":[4.0601053E0,1.276407E0,5.7304335E-1,0E0,9.4071317E-1,4.2242694E-1,5.8123547E-1,6.120155E-1,2.909112E-1,0E0,0E0,0E0,0E0,0E0,0E0,0E0,0E0],"parents":[2147483647,0,0,1,1,2,2,4,4,5,5,6,6,7,7,8,8],"right_children":[2,4,6,-1,8,10,12,14,16,-1,-1,-1,-1,-1,-1,-1,-1],"split_conditions":[-1.4282532E-1,-9.031347E-2,5.3321954E-2,-7.388726E-4,-3.9440423E-1,3.1268972E-1,1.4671126E-1,8.262131E-2,1.1536585E0,1.0151891E-2,2.4775576E-3,-2.9881622E-3,3.2768676E-3,-5.74554E-3,4.2436523E-3,-1.3402112E-2,-1.7297594E-3],"split_indices":[15,14,0,0,11,15,11,14,11,0,0,0,0,0,0,0,0],"split_type":[0,0,0,0,0,0,0,0,0,0,0,0,0,0,0,0,0],"sum_hessian":[1.14E2,5.3E1,6.1E1,2.6E1,2.7E1,2.9E1,3.2E1,8E0,1.9E1,1E1,1.9E1,1E1,2.2E1,4E0,4E0,1.4E1,5E0],"tree_param":{"num_deleted":"0","num_feature":"16","num_nodes":"17","size_leaf_vector":"1"}},{"base_weights":[-3.912792E-3,-2.2128248E-1,1.4435181E-1,-3.600846E-1,-0E0,4.783819E-3,-8.4408344E-4,-1.065799E-2,-2.1472137E-2,2.2363788E-3,-3.058271E-3,2.27881E-3,-5.8528557E-3],"categories":[],"categories_nodes":[],"categories_segments":[],"categories_sizes":[],"default_left":[0,0,0,0,0,0,0,0,0,0,0,0,0],"id":29,"left_children":[1,3,5,7,9,-1,-1,-1,11,-1,-1,-1,-1],"loss_changes":[3.8004756E0,1.450149E0,6.591016E-1,4.504702E-1,2.8812784E-1,0E0,0E0,0E0,3.5938781E-1,0E0,0E0,0E0,0E0],"parents":[2147483647,0,0,1,1,2,2,3,3,4,4,8,8],"right_children":[2,4,6,8,10,-1,-1,-1,12,-1,-1,-1,-1],"split_conditions":[-2.2641447E-1,5.857867E-1,9.150327E-1,7.1687627E-1,0E0,4.783819E-3,-8.4408344E-4,-1.065799E-2,-1.5686275E-1,2.2363788E-3,-3.058271E-3,2.27881E-3,-5.8528557E-3],"split_indices":[15,3,9,13,8,0,0,0,9,0,0,0,0],"split_type":[0,0,0,0,0,0,0,0,0,0,0,0,0],"sum_hessian":[1.1E2,4.5E1,6.5E1,2.6E1,1.9E1,5.3E1,1.2E1,2E1,6E0,1.1E1,8E0,4E0,2E0],"tree_param":{"num_deleted":"0","num_feature":"16","num_nodes":"13","size_leaf_vector":"1"}},{"base_weights":[1.837889E-2,-1.8038298E-1,1.6400844E-1,2.113045E-3,-2.4989074E-1,2.8447053E-1,9.714432E-2,-4.3720147E-1,-3.563813E-4,1.2081288E-2,2.1354964E-3,-1.4322917E-1,1.5520987E-1,-1.2161966E-2,-0E0,-6.112332E-3,7.922112E-4,-5.651175E-4,4.6150456E-3],"categories":[],"categories_nodes":[],"categories_segments":[],"categories_sizes":[],"default_left":[0,0,0,0,0,0,0,0,0,0,0,0,0,0,0,0,0,0,0],"id":30,"left_children":[1,3,5,-1,7,9,11,13,-1,-1,-1,15,17,-1,-1,-1,-1,-1,-1],"loss_changes":[3.3823211E0,1.0330993E0,3.023721E-1,0E0,1.585155E0,4.3918777E-1,8.014064E-1,2.6861668E-1,0E0,0E0,0E0,2.9822373E-1,3.1197512E-1,0E0,0E0,0E0,0E0,0E0,0E0],"parents":[2147483647,0,0,1,1,2,2,4,4,5,5,6,6,7,7,11,11,12,12],"right_children":[2,4,6,-1,8,10,12,14,-1,-1,-1,16,18,-1,-1,-1,-1,-1,-1],"split_conditions":[-2.2641447E-1,-3.8399488E-1,-1.8055555E-1,2.113045E-3,-1.25E-1,2.6358297E-1,-8.3333336E-2,1.1536585E0,-3.563813E-4,1.2081288E-2,2.1354964E-3,1.2413123E0,-1.5402721E-2,-1.2161966E-2,-0E0,-6.112332E-3,7.922112E-4,-5.651175E-4,4.6150456E-3],"split_indices":[15,11,2,0,12,15,12,11,0,0,0,8,8,0,0,0,0,0,0],"split_type":[0,0,0,0,0,0,0,0,0,0,0,0,0,0,0,0,0,0,0],"sum_hessian":[1.1E2,4.5E1,6.5E1,8E0,3.7E1,1.7E1,4.8E1,1.8E1,1.9E1,5E0,1.2E1,7E0,4.1E1,1.5E1,3E0,5E0,2E0,4E0,3.7E1],"tree_param":{"num_deleted":"0","num_feature":"16","num_nodes":"19","size_leaf_vector":"1"}},{"base_weights":[1.3942906E-2,-9.698302E-2,9.051496E-2,1.3423644E-1,-3.9554557E-1,-7.1399804E-4,1.5113176E-1,-0E0,7.3792012E-3,7.1547506E-4,-1.161748E-2,4.265218E-3,-1.0131429E-3,2.5711246E-3,-5.605579E-3],"categories":[],"categories_nodes":[],"categories_segments":[],"categories_sizes":[],"default_left":[0,0,0,0,0,0,0,0,0,0,0,0,0,0,0],"id":31,"left_children":[1,3,5,7,9,-1,11,13,-1,-1,-1,-1,-1,-1,-1],"loss_changes":[9.8369265E-1,3.4313848E0,5.730005E-1,6.806422E-1,8.5162854E-1,0E0,2.6101112E-1,5.1986086E-1,0E0,0E0,0E0,0E0,0E0,0E0,0E0],"parents":[2147483647,0,0,1,1,2,2,3,3,4,4,6,6,7,7],"right_children":[2,4,6,8,10,-1,12,14,-1,-1,-1,-1,-1,-1,-1],"split_conditions":[-8.3333336E-2,-3.8399488E-1,2.0439394E-2,-5.615194E-1,-5.2641696E-1,-7.1399804E-4,1.0675312E0,3.0900854E-1,7.3792012E-3,7.1547506E-4,-1.161748E-2,4.265218E-3,-1.0131429E-3,2.5711246E-3,-5.605579E-3],"split_indices":[12,11,8,1,1,0,3,3,0,0,0,0,0,0,0],"split_type":[0,0,0,0,0,0,0,0,0,0,0,0,0,0,0],"sum_hessian":[1.09E2,4.2E1,6.7E1,2.4E1,1.8E1,2.1E1,4.6E1,1.4E1,1E1,2E0,1.6E1,4.4E1,2E0,1E1,4E0],"tree_param":{"num_deleted":"0","num_feature":"16","num_nodes":"15","size_leaf_vector":"1"}},{"base_weights":[2.646731E-3,-1.5569915E-1,4.0549147E-3,-2.2769366E-1,3.976926E-2,-3.1690207E-1,-0E0,4.105937E-3,-2.814725E-3,-1.0007989E-2,-1.1504509E-3],"categories":[],"categories_nodes":[],"categories_segments":[],"categories_sizes":[],"default_left":[0,0,0,0,0,0,0,0,0,0,0],"id":32,"left_children":[1,3,-1,5,7,9,-1,-1,-1,-1,-1],"loss_changes":[3.059515E0,9.44186E-1,0E0,8.0452776E-1,4.1724494E-1,4.6877694E-1,0E0,0E0,0E0,0E0,0E0],"parents":[2147483647,0,0,1,1,3,3,4,4,5,5],"right_children":[2,4,-1,6,8,10,-1,-1,-1,-1,-1],"split_conditions":[-5.1536072E-2,7.4215037E-1,4.0549147E-3,5.857867E-1,-2.4876265E-1,2.4713588E-1,-0E0,4.105937E-3,-2.814725E-3,-1.0007989E-2,-1.1504509E-3],"split_indices":[15,13,0,3,0,11,0,0,0,0,0],"split_type":[0,0,0,0,0,0,0,0,0,0,0],"sum_hessian":[1.14E2,5.6E1,5.8E1,4.2E1,1.4E1,2.8E1,1.4E1,9E0,5E0,1.9E1,9E0],"tree_param":{"num_deleted":"0","num_feature":"16","num_nodes":"11","size_leaf_vector":"1"}},{"base_weights":[-6.13092E-3,-2.0382354E-1,1.3397433E-1,-3.095551E-1,-0E0,7.841556E-3,1.0949838E-3,-9.028135E-3,3.4429695E-4],"categories":[],"categories_nodes":[],"categories_segments":[],"categories_sizes":[],"default_left":[0,0,0,0,0,0,0,0,0],"id":33,"left_children":[1,3,5,7,-1,-1,-1,-1,-1],"loss_changes":[2.9902341E0,1.0323894E0,8.054378E-1,6.649072E-1,0E0,0E0,0E0,0E0,0E0],"parents":[2147483647,0,0,1,1,2,2,3,3],"right_children":[2,4,6,8,-1,-1,-1,-1,-1],"split_conditions":[-2.2641447E-1,5.857867E-1,-3.3234182E-1,-1.6666667E-1,-0E0,7.841556E-3,1.0949838E-3,-9.028135E-3,3.4429695E-4],"split_indices":[15,3,0,12,0,0,0,0,0],"split_type":[0,0,0,0,0,0,0,0,0],"sum_hessian":[1E2,4.2E1,5.8E1,2.7E1,1.5E1,1.5E1,4.3E1,2.4E1,3E0],"tree_param":{"num_deleted":"0","num_feature":"16","num_nodes":"9","size_leaf_vector":"1"}},{"base_weights":[1.8948711E-3,-1.976572E-1,1.5634893E-1,-3.4101802E-1,-0E0,7.5905845E-3,2.1262967E-3,-4.1402873E-1,-0E0,-2.4780359E-3,2.9427293E-3,-1.1512272E-2,-0E0],"categories":[],"categories_nodes":[],"categories_segments":[],"categories_sizes":[],"default_left":[0,0,0,0,0,0,0,0,0,0,0,0,0],"id":34,"left_children":[1,3,5,7,9,-1,-1,11,-1,-1,-1,-1,-1],"loss_changes":[3.559072E0,1.3804746E0,4.524126E-1,7.1400595E-1,3.2548153E-1,0E0,0E0,3.186984E-1,0E0,0E0,0E0,0E0,0E0],"parents":[2147483647,0,0,1,1,2,2,3,3,4,4,7,7],"right_children":[2,4,6,8,10,-1,-1,12,-1,-1,-1,-1,-1],"split_conditions":[-2.2641447E-1,5.857867E-1,-3.3234182E-1,1.1637957E0,-4.7542027E-1,7.5905845E-3,2.1262967E-3,7.748968E-1,-0E0,-2.4780359E-3,2.9427293E-3,-1.1512272E-2,-0E0],"split_indices":[15,3,0,13,14,0,0,1,0,0,0,0,0],"split_type":[0,0,0,0,0,0,0,0,0,0,0,0,0],"sum_hessian":[1.09E2,4.6E1,6.3E1,2.5E1,2.1E1,1.5E1,4.8E1,2E1,5E0,1.2E1,9E0,1.7E1,3E0],"tree_param":{"num_deleted":"0","num_feature":"16","num_nodes":"13","size_leaf_vector":"1"}},{"base_weights":[-0E0,3.3536819E-3,-1.0032895E-1,7.380784E-2,-1.6471243E-1,6.3543417E-3,-0E0,-3.3625352E-1,-1.3377234E-4,-0E0,-3.8726908E-1,-1.1630489E-2,-7.3577266E-4],"categories":[],"categories_nodes":[],"categories_segments":[],"categories_sizes":[],"default_left":[0,0,0,0,0,0,0,0,0,0,0,0,0],"id":35,"left_children":[1,-1,3,5,7,-1,-1,9,-1,-1,11,-1,-1],"loss_changes":[1.6443431E0,0E0,8.5811305E-1,3.1369948E-1,1.3195932E0,0E0,0E0,4.5438504E-1,0E0,0E0,3.539319E-1,0E0,0E0],"parents":[2147483647,0,0,2,2,3,3,4,4,7,7,10,10],"right_children":[2,-1,4,6,8,-1,-1,10,-1,-1,12,-1,-1],"split_conditions":[-2.0850202E-2,3.3536819E-3,-3.4510922E-1,-7.228419E-1,-1.25E-1,6.3543417E-3,-0E0,-3.9594004E-1,-1.3377234E-4,-0E0,4.6636358E-1,-1.1630489E-2,-7.3577266E-4],"split_indices":[3,0,1,14,12,0,0,11,0,0,11,0,0],"split_type":[0,0,0,0,0,0,0,0,0,0,0,0,0],"sum_hessian":[1.15E2,4.9E1,6.6E1,1.6E1,5E1,3E0,1.3E1,2.1E1,2.9E1,3E0,1.8E1,1.3E1,5E0],"tree_param":{"num_deleted":"0","num_feature":"16","num_nodes":"13","size_leaf_vector":"1"}},{"base_weights":[-5.033775E-3,7.937613E-2,-9.018322E-2,2.6647782E-1,2.599463E-2,-1.6495213E-1,1.3423029E-3,-0E0,8.91229E-3,-1.4102878E-1,1.8632567E-3,-9.99398E-3,-2.5839914E-2,-6.7913993E-3,6.023759E-4,4.646554E-3,-4.7670226E-3],"categories":[],"categories_nodes":[],"categories_segments":[],"categories_sizes":[],"default_left":[0,0,0,0,0,0,0,0,0,0,0,0,0,0,0,0,0],"id":36,"left_children":[1,3,5,7,9,11,-1,-1,-1,13,-1,-1,15,-1,-1,-1,-1],"loss_changes":[8.451535E-1,4.2307547E-1,7.263249E-1,3.346238E-1,4.1146484E-1,1.1818485E0,0E0,0E0,0E0,3.4841526E-1,0E0,0E0,1.22523E0,0E0,0E0,0E0,0E0],"parents":[2147483647,0,0,1,1,2,2,3,3,4,4,5,5,9,9,12,12],"right_children":[2,4,6,8,10,12,-1,-1,-1,14,-1,-1,16,-1,-1,-1,-1],"split_conditions":[-8.407946E-2,-2.6808667E-1,1.3440752E-1,-9.491024E-1,-8.3333336E-2,1.0667091E-1,1.3423029E-3,-0E0,8.91229E-3,1.2413123E0,1.8632567E-3,-9.99398E-3,-4.2297125E-1,-6.7913993E-3,6.023759E-4,4.646554E-3,-4.7670226E-3],"split_indices":[14,8,8,14,12,14,0,0,0,8,0,0,1,0,0,0,0],"split_type":[0,0,0,0,0,0,0,0,0,0,0,0,0,0,0,0,0],"sum_hessian":[1.1E2,5.3E1,5.7E1,7E0,4.6E1,3.9E1,1.8E1,2E0,5E0,7E0,3.9E1,1.1E1,2.8E1,4E0,3E0,1.1E1,1.7E1],"tree_param":{"num_deleted":"0","num_feature":"16","num_nodes":"17","size_leaf_vector":"1"}},{"base_weights":[1.6487668E-3,-1.6070522E-1,1.2996264E-1,-0E0,-2.5103644E-1,2.3459949E-1,5.579192E-2,4.441524E-3,-1.2581936E-3,-3.5734466E-1,-1.4225965E-2,4.948971E-4,8.083089E-3,-4.130128E-3,2.7828703E-3,-1.1412232E-2,-0E0,1.534404E-3,-5.337325E-3],"categories":[],"categories_nodes":[],"categories_segments":[],"categories_sizes":[],"default_left":[0,0,0,0,0,0,0,0,0,0,0,0,0,0,0,0,0,0,0],"id":37,"left_children":[1,3,5,7,9,11,13,-1,-1,15,17,-1,-1,-1,-1,-1,-1,-1,-1],"loss_changes":[2.5294268E0,8.1829154E-1,3.7742162E-1,2.520205E-1,7.021136E-1,3.263358E-1,6.2565184E-1,0E0,0E0,7.735512E-1,3.4021622E-1,0E0,0E0,0E0,0E0,0E0,0E0,0E0,0E0],"parents":[2147483647,0,0,1,1,2,2,3,3,4,4,5,5,6,6,9,9,10,10],"right_children":[2,4,6,8,10,12,14,-1,-1,16,18,-1,-1,-1,-1,-1,-1,-1,-1],"split_conditions":[-2.2641447E-1,-6.1133295E-1,-3.4510922E-1,-4.1666668E-2,-3.713583E-1,-3.709894E-1,-1.6666667E-1,4.441524E-3,-1.2581936E-3,5.1588446E-1,-2.9485896E-1,4.948971E-4,8.083089E-3,-4.130128E-3,2.7828703E-3,-1.1412232E-2,-0E0,1.534404E-3,-5.337325E-3],"split_indices":[15,15,1,12,15,3,12,0,0,0,15,0,0,0,0,0,0,0,0],"split_type":[0,0,0,0,0,0,0,0,0,0,0,0,0,0,0,0,0,0,0],"sum_hessian":[1.15E2,4.9E1,6.6E1,1.8E1,3.1E1,2.2E1,4.4E1,3E0,1.5E1,1.9E1,1.2E1,9E0,1.3E1,6E0,3.8E1,1.4E1,5E0,9E0,3E0],"tree_param":{"num_deleted":"0","num_feature":"16","num_nodes":"19","size_leaf_vector":"1"}},{"base_weights":[-1.0191347E-3,-2.2744848E-1,1.0183365E-1,-1.11268E-2,-0E0,2.432922E-1,3.6914393E-2,7.1812565E-3,-0E0,-2.6750222E-3,8.2556784E-2,3.2726403E-3,-1.6034207E-4],"categories":[],"categories_nodes":[],"categories_segments":[],"categories_sizes":[],"default_left":[0,0,0,0,0,0,0,0,0,0,0,0,0],"id":38,"left_children":[1,3,5,-1,-1,7,9,-1,-1,-1,11,-1,-1],"loss_changes":[2.6814458E0,1.9744893E0,5.590128E-1,0E0,0E0,2.5387645E-1,4.0540543E-1,0E0,0E0,0E0,2.6136374E-1,0E0,0E0],"parents":[2147483647,0,0,1,1,2,2,5,5,6,6,10,10],"right_children":[2,4,6,-1,-1,8,10,-1,-1,-1,12,-1,-1],"split_conditions":[-3.9376307E-1,5.857867E-1,-3.6663437E-1,-1.11268E-2,-0E0,2.693956E1,-8.3333336E-2,7.1812565E-3,-0E0,-2.6750222E-3,1.0326798E0,3.2726403E-3,-1.6034207E-4],"split_indices":[15,3,11,0,0,14,12,0,0,0,9,0,0],"split_type":[0,0,0,0,0,0,0,0,0,0,0,0,0],"sum_hessian":[1.06E2,3.3E1,7.3E1,1.6E1,1.7E1,1.8E1,5.5E1,1.5E1,3E0,1E1,4.5E1,3.1E1,1.4E1],"tree_param":{"num_deleted":"0","num_feature":"16","num_nodes":"13","size_leaf_vector":"1"}},{"base_weights":[-3.8511986E-3,3.3038785E-3,-5.3130984E-2,-7.6092714E-3,4.8346415E-2,-1.5058309E-3,2.2098247E-3],"categories":[],"categories_nodes":[],"categories_segments":[],"categories_sizes":[],"default_left":[0,0,0,0,0,0,0],"id":39,"left_children":[1,-1,3,-1,5,-1,-1],"loss_changes":[7.402792E-1,0E0,2.3592453E0,0E0,3.0601197E-1,0E0,0E0],"parents":[2147483647,0,0,2,2,4,4],"right_children":[2,-1,4,-1,6,-1,-1],"split_conditions":[-3.9440423E-1,3.3038785E-3,-1.25E-1,-7.6092714E-3,-1.0383596E-1,-1.5058309E-3,2.2098247E-3],"split_indices":[11,0,12,0,11,0,0],"split_type":[0,0,0,0,0,0,0],"sum_hessian":[1.08E2,2.5E1,8.3E1,2.3E1,6E1,1.3E1,4.7E1],"tree_param":{"num_deleted":"0","num_feature":"16","num_nodes":"7","size_leaf_vector":"1"}},{"base_weights":[-4.721813E-3,8.056303E-2,-1.3565798E-1,2.3526824E-1,5.644666E-3,-0E0,-2.4868658E-1,7.0791678E-3,-2.8856276E-4,-7.231634E-3,2.4257342E-3,1.772287E-3,-3.6025923E-3,-3.452895E-1,-0E0,-1.00908745E-2,-0E0],"categories":[],"categories_nodes":[],"categories_segments":[],"categories_sizes":[],"default_left":[0,0,0,0,0,0,0,0,0,0,0,0,0,0,0,0,0],"id":40,"left_children":[1,3,5,7,9,11,13,-1,-1,-1,-1,-1,-1,15,-1,-1,-1],"loss_changes":[1.3723968E0,7.2769046E-1,8.516301E-1,3.7425923E-1,1.4631802E0,2.5876892E-1,8.007511E-1,0E0,0E0,0E0,0E0,0E0,0E0,2.8778696E-1,0E0,0E0,0E0],"parents":[2147483647,0,0,1,1,2,2,3,3,4,4,5,5,6,6,13,13],"right_children":[2,4,6,8,10,12,14,-1,-1,-1,-1,-1,-1,16,-1,-1,-1],"split_conditions":[2.6375386E-1,-2.6966292E-1,-3.6651197E-1,2.693956E1,-1.6666667E-1,9.3310076E-1,5.857867E-1,7.0791678E-3,-2.8856276E-4,-7.231634E-3,2.4257342E-3,1.772287E-3,-3.6025923E-3,8.262131E-2,-0E0,-1.00908745E-2,-0E0],"split_indices":[3,7,14,14,12,8,3,0,0,0,0,0,0,14,0,0,0],"split_type":[0,0,0,0,0,0,0,0,0,0,0,0,0,0,0,0,0],"sum_hessian":[1.14E2,6.8E1,4.6E1,1.8E1,5E1,2.1E1,2.5E1,1.6E1,2E0,9E0,4.1E1,1.7E1,4E0,1.8E1,7E0,1.4E1,4E0],"tree_param":{"num_deleted":"0","num_feature":"16","num_nodes":"17","size_leaf_vector":"1"}},{"base_weights":[3.9722072E-4,-1.5297045E-1,1.1704408E-1,-2.5511593E-1,-0E0,2.198877E-1,2.9820797E-4,-3.6439723E-1,-1.8985525E-2,9.20138E-3,1.6390119E-3,-1.0415516E-2,-0E0,2.627969E-3,-4.1284203E-3],"categories":[],"categories_nodes":[],"categories_segments":[],"categories_sizes":[],"default_left":[0,0,0,0,0,0,0,0,0,0,0,0,0,0,0],"id":41,"left_children":[1,3,5,7,-1,9,-1,11,13,-1,-1,-1,-1,-1,-1],"loss_changes":[2.096683E0,8.267683E-1,6.3861173E-1,6.094743E-1,0E0,4.852532E-1,0E0,2.746365E-1,3.477646E-1,0E0,0E0,0E0,0E0,0E0,0E0],"parents":[2147483647,0,0,1,1,2,2,3,3,5,5,7,7,8,8],"right_children":[2,4,6,8,-1,10,-1,12,14,-1,-1,-1,-1,-1,-1],"split_conditions":[-2.2641447E-1,5.857867E-1,-4.0567525E-2,-3.713583E-1,-0E0,3.1268972E-1,2.9820797E-4,2.623918E-1,-3.389845E-1,9.20138E-3,1.6390119E-3,-1.0415516E-2,-0E0,2.627969E-3,-4.1284203E-3],"split_indices":[15,3,1,15,0,15,0,0,15,0,0,0,0,0,0],"split_type":[0,0,0,0,0,0,0,0,0,0,0,0,0,0,0],"sum_hessian":[1.11E2,4.6E1,6.5E1,2.7E1,1.9E1,2.9E1,3.6E1,1.6E1,1.1E1,1.1E1,1.8E1,1.3E1,3E0,5E0,6E0],"tree_param":{"num_deleted":"0","num_feature":"16","num_nodes":"15","size_leaf_vector":"1"}}]},"name":"gbtree"},"learner_model_param":{"base_score":"9.000711E0","boost_from_average":"1","num_class":"0","num_feature":"16","num_target":"1"},"objective":{"name":"reg:squarederror","reg_loss_param":{"scale_pos_weight":"1"}}},"version":[3,0,0]}