{"learner":{"attributes":{"best_iteration":"62","best_score":"0.3598024564630845"},"feature_names":[],"feature_types":[],"gradient_booster":{"model":{"gbtree_model_param":{"num_parallel_tree":"1","num_trees":"73"},"iteration_indptr":[0,1,2,3,4,5,6,7,8,9,10,11,12,13,14,15,16,17,18,19,20,21,22,23,24,25,26,27,28,29,30,31,32,33,34,35,36,37,38,39,40,41,42,43,44,45,46,47,48,49,50,51,52,53,54,55,56,57,58,59,60,61,62,63,64,65,66,67,68,69,70,71,72,73],"tree_info":[0,0,0,0,0,0,0,0,0,0,0,0,0,0,0,0,0,0,0,0,0,0,0,0,0,0,0,0,0,0,0,0,0,0,0,0,0,0,0,0,0,0,0,0,0,0,0,0,0,0,0,0,0,0,0,0,0,0,0,0,0,0,0,0,0,0,0,0,0,0,0,0,0],"trees":[{"base_weights":[1.7115247E-2,-4.482511E-1,2.1903862E-1,-6.598627E-1,-2.6834174E-3,-2.029126E-4,2.880035E-1,-7.257461E-1,-0E0,1.03313085E-2,1.4524752E-1,-1.9504782E-2,-6.9612416E-4,-3.3691605E-3,4.6394346E-3],"categories":[],"categories_nodes":[],"categories_segments":[],"categories_sizes":[],"default_left":[0,0,0,0,0,0,0,0,0,0,0,0,0,0,0],"id":0,"left_children":[1,3,5,7,-1,-1,9,11,-1,-1,13,-1,-1,-1,-1],"loss_changes":[1.1105304E1,2.0062451E0,1.4282246E0,8.1800175E-1,0E0,0E0,7.3765755E-1,3.037014E-1,0E0,0E0,5.3134274E-1,0E0,0E0,0E0,0E0],"parents":[2147483647,0,0,1,1,2,2,3,3,6,6,7,7,10,10],"right_children":[2,4,6,8,-1,-1,10,12,-1,-1,14,-1,-1,-1,-1],"split_conditions":[-3.713583E-1,6.5249175E-1,-5.1536072E-2,5.28855E-1,-2.6834174E-3,-2.029126E-4,-2.0689137E-2,5.1588446E-1,-0E0,1.03313085E-2,-2.208708E-2,-1.9504782E-2,-6.9612416E-4,-3.3691605E-3,4.6394346E-3],"split_indices":[15,3,15,14,0,0,1,0,0,0,11,0,0,0,0],"split_type":[0,0,0,0,0,0,0,0,0,0,0,0,0,0,0],"sum_hessian":[1.12E2,3.2E1,8E1,1.7E1,1.5E1,1.8E1,6.2E1,1.5E1,2E0,2.8E1,3.4E1,1.3E1,2E0,2E0,3.2E1],"tree_param":{"num_deleted":"0","num_feature":"16","num_nodes":"15","size_leaf_vector":"1"}},{"base_weights":[1.5204352E-2,-4.5772758E-1,2.0805186E-1,-1.8506348E-2,-3.661232E-3,-5.9462567E-3,2.709787E-1,-2.9925888E-3,2.604999E-3,7.0615574E-3,-0E0],"categories":[],"categories_nodes":[],"categories_segments":[],"categories_sizes":[],"default_left":[0,0,0,0,0,0,0,0,0,0,0],"id":1,"left_children":[1,3,5,-1,-1,7,9,-1,-1,-1,-1],"loss_changes":[1.0311452E1,2.1240754E0,1.2091494E0,0E0,0E0,3.0672097E-1,2.5035954E-1,0E0,0E0,0E0,0E0],"parents":[2147483647,0,0,1,1,2,2,5,5,6,6],"right_children":[2,4,6,-1,-1,8,10,-1,-1,-1,-1],"split_conditions":[-3.713583E-1,-1.25E-1,-5.310812E-2,-1.8506348E-2,-3.661232E-3,-8.3333336E-2,2.55152E0,-2.9925888E-3,2.604999E-3,7.0615574E-3,-0E0],"split_indices":[15,12,15,0,0,12,1,0,0,0,0],"split_type":[0,0,0,0,0,0,0,0,0,0,0],"sum_hessian":[1.07E2,2.9E1,7.8E1,1.2E1,1.7E1,1.7E1,6.1E1,1E1,7E0,5.9E1,2E0],"tree_param":{"num_deleted":"0","num_feature":"16","num_nodes":"11","size_leaf_vector":"1"}},{"base_weights":[-0E0,-3.7443748E-1,2.5439045E-1,-5.9593546E-1,-2.6276999E-3,7.832165E-3,1.0871802E-3,-1.6208736E-2,-0E0],"categories":[],"categories_nodes":[],"categories_segments":[],"categories_sizes":[],"default_left":[0,0,0,0,0,0,0,0,0],"id":2,"left_children":[1,3,5,7,-1,-1,-1,-1,-1],"loss_changes":[1.1092606E1,2.3340077E0,6.6047096E-1,7.5712395E-1,0E0,0E0,0E0,0E0,0E0],"parents":[2147483647,0,0,1,1,2,2,3,3],"right_children":[2,4,6,8,-1,-1,-1,-1,-1],"split_conditions":[-6.8871714E-2,-1.25E-1,1.0196079E0,1E0,-2.6276999E-3,7.832165E-3,1.0871802E-3,-1.6208736E-2,-0E0],"split_indices":[15,12,9,4,0,0,0,0,0],"split_type":[0,0,0,0,0,0,0,0,0],"sum_hessian":[1.09E2,4.4E1,6.5E1,2.1E1,2.3E1,4.8E1,1.7E1,1.9E1,2E0],"tree_param":{"num_deleted":"0","num_feature":"16","num_nodes":"9","size_leaf_vector":"1"}},{"base_weights":[-1.1551441E-2,-4.7951436E-1,1.9112827E-1,-1.7611252E-2,-3.4115992E-3,-2.0128366E-2,2.573774E-1,-4.5411275E-3,1.4401106E-3,8.1823785E-3,7.9795625E-4],"categories":[],"categories_nodes":[],"categories_segments":[],"categories_sizes":[],"default_left":[0,0,0,0,0,0,0,0,0,0,0],"id":3,"left_children":[1,3,5,-1,-1,7,9,-1,-1,-1,-1],"loss_changes":[1.1390906E1,2.1436682E0,1.2676659E0,0E0,0E0,3.561744E-1,8.36503E-1,0E0,0E0,0E0,0E0],"parents":[2147483647,0,0,1,1,2,2,5,5,6,6],"right_children":[2,4,6,-1,-1,8,10,-1,-1,-1,-1],"split_conditions":[-3.713583E-1,-8.3333336E-2,-5.1536072E-2,-1.7611252E-2,-3.4115992E-3,-4.9674207E-1,7.4509805E-1,-4.5411275E-3,1.4401106E-3,8.1823785E-3,7.9795625E-4],"split_indices":[15,12,15,0,0,13,9,0,0,0,0],"split_type":[0,0,0,0,0,0,0,0,0,0,0],"sum_hessian":[1.12E2,3.3E1,7.9E1,1.7E1,1.6E1,1.8E1,6.1E1,6E0,1.2E1,4.4E1,1.7E1],"tree_param":{"num_deleted":"0","num_feature":"16","num_nodes":"11","size_leaf_vector":"1"}},{"base_weights":[-0E0,-3.314962E-1,2.478546E-1,-5.725238E-1,-2.594701E-4,6.754432E-3,-0E0,-1.8501267E-2,-4.4324375E-3],"categories":[],"categories_nodes":[],"categories_segments":[],"categories_sizes":[],"default_left":[0,0,0,0,0,0,0,0,0],"id":4,"left_children":[1,3,5,7,-1,-1,-1,-1,-1],"loss_changes":[9.586197E0,3.57725E0,4.1558075E-1,9.9463177E-1,0E0,0E0,0E0,0E0,0E0],"parents":[2147483647,0,0,1,1,2,2,3,3],"right_children":[2,4,6,8,-1,-1,-1,-1,-1],"split_conditions":[-6.8871714E-2,-8.3333336E-2,2.3616726E0,-3.9527804E-1,-2.594701E-4,6.754432E-3,-0E0,-1.8501267E-2,-4.4324375E-3],"split_indices":[15,12,0,15,0,0,0,0,0],"split_type":[0,0,0,0,0,0,0,0,0],"sum_hessian":[1.1E2,4.6E1,6.4E1,2.4E1,2.2E1,5.9E1,5E0,1.4E1,1E1],"tree_param":{"num_deleted":"0","num_feature":"16","num_nodes":"9","size_leaf_vector":"1"}},{"base_weights":[-0E0,1.8950547E-1,-2.541072E-1,2.197741E-1,-7.7425956E-4,4.9877893E-2,-3.781176E-1,5.9019206E-3,-5.1891414E-4,8.922451E-3,-2.0312073E-3,-4.9337944E-1,-0E0,-5.7515764E-1,3.175387E-3,-1.5604223E-2,-0E0],"categories":[],"categories_nodes":[],"categories_segments":[],"categories_sizes":[],"default_left":[0,0,0,0,0,0,0,0,0,0,0,0,0,0,0,0,0],"id":5,"left_children":[1,3,5,7,-1,9,11,-1,-1,-1,-1,13,-1,15,-1,-1,-1],"loss_changes":[5.584408E0,5.4313207E-1,2.0633216E0,3.4051776E-1,0E0,8.7601393E-1,1.4756289E0,0E0,0E0,0E0,0E0,1.8301511E0,0E0,7.197304E-1,0E0,0E0,0E0],"parents":[2147483647,0,0,1,1,2,2,3,3,5,5,6,6,11,11,13,13],"right_children":[2,4,6,8,-1,10,12,-1,-1,-1,-1,14,-1,16,-1,-1,-1],"split_conditions":[1.2982452E-1,2.5662563E0,-5.4288775E-1,1.705906E0,-7.7425956E-4,4.0096208E-1,-8.3333336E-2,5.9019206E-3,-5.1891414E-4,8.922451E-3,-2.0312073E-3,1.6647757E0,-0E0,1.0265602E0,3.175387E-3,-1.5604223E-2,-0E0],"split_indices":[3,0,14,8,0,3,12,0,0,0,0,14,0,8,0,0,0],"split_type":[0,0,0,0,0,0,0,0,0,0,0,0,0,0,0,0,0],"sum_hessian":[1.09E2,6.3E1,4.6E1,5.7E1,6E0,1.3E1,3.3E1,5.5E1,2E0,3E0,1E1,2.4E1,9E0,2.2E1,2E0,2E1,2E0],"tree_param":{"num_deleted":"0","num_feature":"16","num_nodes":"17","size_leaf_vector":"1"}},{"base_weights":[-4.9701994E-3,-4.8890367E-1,1.9519055E-1,-1.7505217E-2,-3.0184265E-3,-0E0,2.5111252E-1,2.7389318E-1,-0E0,-0E0,2.897407E-1,-0E0,7.6042973E-3],"categories":[],"categories_nodes":[],"categories_segments":[],"categories_sizes":[],"default_left":[0,0,0,0,0,0,0,0,0,0,0,0,0],"id":6,"left_children":[1,3,5,-1,-1,-1,7,9,-1,-1,11,-1,-1],"loss_changes":[1.13487425E1,2.0596704E0,9.621115E-1,0E0,0E0,0E0,3.2131386E-1,3.5463476E-1,0E0,0E0,2.9921246E-1,0E0,0E0],"parents":[2147483647,0,0,1,1,2,2,6,6,7,7,10,10],"right_children":[2,4,6,-1,-1,-1,8,10,-1,-1,12,-1,-1],"split_conditions":[-3.713583E-1,7.879735E-1,-5.1536072E-2,-1.7505217E-2,-3.0184265E-3,-0E0,2.3616726E0,-8.581451E0,-0E0,-0E0,-1.0188755E0,-0E0,7.6042973E-3],"split_indices":[15,3,15,0,0,0,0,3,0,0,14,0,0],"split_type":[0,0,0,0,0,0,0,0,0,0,0,0,0],"sum_hessian":[1.09E2,3.1E1,7.8E1,1.7E1,1.4E1,1.7E1,6.1E1,5.5E1,6E0,2E0,5.3E1,2E0,5.1E1],"tree_param":{"num_deleted":"0","num_feature":"16","num_nodes":"13","size_leaf_vector":"1"}},{"base_weights":[-2.1177456E-2,-2.8620315E-1,1.9903651E-1,-3.9159557E-1,-7.1671404E-2,2.2901778E-1,-0E0,-0E0,-4.3990627E-1,1.178073E-3,-4.0441896E-3,-0E0,6.11653E-3,-1.189867E-2,-0E0],"categories":[],"categories_nodes":[],"categories_segments":[],"categories_sizes":[],"default_left":[0,0,0,0,0,0,0,0,0,0,0,0,0,0,0],"id":7,"left_children":[1,3,5,7,9,11,-1,-1,13,-1,-1,-1,-1,-1,-1],"loss_changes":[6.5665593E0,8.80877E-1,4.092896E-1,5.3146935E-1,3.1335375E-1,2.767141E-1,0E0,0E0,4.876728E-1,0E0,0E0,0E0,0E0,0E0,0E0],"parents":[2147483647,0,0,1,1,2,2,3,3,4,4,5,5,8,8],"right_children":[2,4,6,8,10,12,-1,-1,14,-1,-1,-1,-1,-1,-1],"split_conditions":[2.4286933E-2,-8.3333336E-2,2.3616726E0,8.4469244E-2,7.0445305E-1,-8.581451E0,-0E0,-0E0,1E0,1.178073E-3,-4.0441896E-3,-0E0,6.11653E-3,-1.189867E-2,-0E0],"split_indices":[15,12,0,3,3,3,0,0,4,0,0,0,0,0,0],"split_type":[0,0,0,0,0,0,0,0,0,0,0,0,0,0,0],"sum_hessian":[1.05E2,4.8E1,5.7E1,2.9E1,1.9E1,5E1,7E0,4E0,2.5E1,7E0,1.2E1,2E0,4.8E1,2.3E1,2E0],"tree_param":{"num_deleted":"0","num_feature":"16","num_nodes":"15","size_leaf_vector":"1"}},{"base_weights":[-1.8207835E-2,-3.0966234E-1,2.2840787E-1,-4.8467886E-1,-2.0172202E-3,6.246533E-3,-0E0,-5.2564436E-1,-0E0,-1.4534609E-2,-0E0],"categories":[],"categories_nodes":[],"categories_segments":[],"categories_sizes":[],"default_left":[0,0,0,0,0,0,0,0,0,0,0],"id":8,"left_children":[1,3,5,7,-1,-1,-1,9,-1,-1,-1],"loss_changes":[8.006861E0,1.7007933E0,2.9834747E-1,5.8557653E-1,0E0,0E0,0E0,5.5947447E-1,0E0,0E0,0E0],"parents":[2147483647,0,0,1,1,2,2,3,3,7,7],"right_children":[2,4,6,8,-1,-1,-1,10,-1,-1,-1],"split_conditions":[-6.8871714E-2,-1.25E-1,1.8030478E0,1E0,-2.0172202E-3,6.246533E-3,-0E0,1.3700825E0,-0E0,-1.4534609E-2,-0E0],"split_indices":[15,12,1,4,0,0,0,8,0,0,0],"split_type":[0,0,0,0,0,0,0,0,0,0,0],"sum_hessian":[1.04E2,4.8E1,5.6E1,2.4E1,2.4E1,5.1E1,5E0,2.2E1,2E0,1.9E1,3E0],"tree_param":{"num_deleted":"0","num_feature":"16","num_nodes":"11","size_leaf_vector":"1"}},{"base_weights":[4.561147E-3,-3.2777652E-1,1.4013703E-1,-5.4637206E-1,-9.340887E-4,-7.947254E-4,1.8571149E-1,-1.4903364E-2,-0E0,-3.6338046E-3,1.912261E-3,2.3274954E-1,6.375471E-4,-0E0,6.27236E-3],"categories":[],"categories_nodes":[],"categories_segments":[],"categories_sizes":[],"default_left":[0,0,0,0,0,0,0,0,0,0,0,0,0,0,0],"id":9,"left_children":[1,3,5,7,-1,9,11,-1,-1,-1,-1,13,-1,-1,-1],"loss_changes":[5.109564E0,1.7582521E0,6.0437167E-1,2.841916E-1,0E0,3.0665904E-1,3.6199355E-1,0E0,0E0,0E0,0E0,2.909479E-1,0E0,0E0,0E0],"parents":[2147483647,0,0,1,1,2,2,3,3,5,5,6,6,11,11],"right_children":[2,4,6,8,-1,10,12,-1,-1,-1,-1,14,-1,-1,-1],"split_conditions":[-3.9527804E-1,-1.5277778E-1,-5.1536072E-2,7.879735E-1,-9.340887E-4,-2.0224719E-1,7.4509805E-1,-1.4903364E-2,-0E0,-3.6338046E-3,1.912261E-3,-8.581451E0,6.375471E-4,-0E0,6.27236E-3],"split_indices":[15,2,15,3,0,7,9,0,0,0,0,3,0,0,0],"split_type":[0,0,0,0,0,0,0,0,0,0,0,0,0,0,0],"sum_hessian":[1.08E2,2.9E1,7.9E1,1.4E1,1.5E1,1.8E1,6.1E1,1.2E1,2E0,7E0,1.1E1,4.4E1,1.7E1,2E0,4.2E1],"tree_param":{"num_deleted":"0","num_feature":"16","num_nodes":"15","size_leaf_vector":"1"}},{"base_weights":[6.4845555E-3,4.672098E-3,-1.8931465E-1,5.1395178E-2,-3.1368577E-1,8.524003E-3,-6.0125984E-2,-3.5814244E-1,2.907968E-3,-5.2064634E-3,1.1440249E-3,-4.7239226E-1,-3.530664E-2,-1.2904947E-2,-0E0,2.5420494E-3,-3.9870506E-3],"categories":[],"categories_nodes":[],"categories_segments":[],"categories_sizes":[],"default_left":[0,0,0,0,0,0,0,0,0,0,0,0,0,0,0,0,0],"id":10,"left_children":[1,-1,3,5,7,-1,9,11,-1,-1,-1,13,15,-1,-1,-1,-1],"loss_changes":[4.30852E0,0E0,1.8827412E0,8.7837696E-1,9.976387E-1,0E0,3.7284732E-1,1.1216931E0,0E0,0E0,0E0,6.146827E-1,3.2653144E-1,0E0,0E0,0E0,0E0],"parents":[2147483647,0,0,2,2,3,3,4,4,6,6,7,7,11,11,12,12],"right_children":[2,-1,4,6,8,-1,10,12,-1,-1,-1,14,16,-1,-1,-1,-1],"split_conditions":[0E0,4.672098E-3,-3.4804776E-1,-3.4510922E-1,3.4490705E0,8.524003E-3,-1.4451607E-1,-8.3333336E-2,2.907968E-3,-5.2064634E-3,1.1440249E-3,1.1536585E0,1.1235955E-1,-1.2904947E-2,-0E0,2.5420494E-3,-3.9870506E-3],"split_indices":[3,0,14,1,14,0,11,12,0,0,0,11,7,0,0,0,0],"split_type":[0,0,0,0,0,0,0,0,0,0,0,0,0,0,0,0,0],"sum_hessian":[1.15E2,6.1E1,5.4E1,1.8E1,3.6E1,4E0,1.4E1,3.4E1,2E0,6E0,8E0,2.3E1,1.1E1,2.1E1,2E0,4E0,7E0],"tree_param":{"num_deleted":"0","num_feature":"16","num_nodes":"17","size_leaf_vector":"1"}},{"base_weights":[8.423567E-3,-2.770542E-1,2.3262939E-1,-4.133859E-1,-1.1466207E-3,2.8572187E-1,1.000533E-3,-5.6391615E-1,-7.319829E-2,-0E0,7.6182396E-3,-6.0517114E-1,-0E0,4.995314E-4,-5.5705947E-3,-1.6907645E-2,-1.2035612E-3],"categories":[],"categories_nodes":[],"categories_segments":[],"categories_sizes":[],"default_left":[0,0,0,0,0,0,0,0,0,0,0,0,0,0,0,0,0],"id":11,"left_children":[1,3,5,7,-1,9,-1,11,13,-1,-1,15,-1,-1,-1,-1,-1],"loss_changes":[7.7284865E0,1.4046583E0,5.30164E-1,1.2137508E0,0E0,3.9227057E-1,0E0,2.5626564E-1,2.9887962E-1,0E0,0E0,3.2930946E-1,0E0,0E0,0E0,0E0,0E0],"parents":[2147483647,0,0,1,1,2,2,3,3,5,5,7,7,8,8,11,11],"right_children":[2,4,6,8,-1,10,-1,12,14,-1,-1,16,-1,-1,-1,-1,-1],"split_conditions":[-5.310812E-2,-3.9376307E-1,8.764045E-1,6.5249175E-1,-1.1466207E-3,-8.581451E0,1.000533E-3,1.219001E-1,0E0,-0E0,7.6182396E-3,7.748968E-1,-0E0,4.995314E-4,-5.5705947E-3,-1.6907645E-2,-1.2035612E-3],"split_indices":[15,15,7,3,0,3,0,8,8,0,0,1,0,0,0,0,0],"split_type":[0,0,0,0,0,0,0,0,0,0,0,0,0,0,0,0,0],"sum_hessian":[1.14E2,4.9E1,6.5E1,2.8E1,2.1E1,4.8E1,1.7E1,1.7E1,1.1E1,2E0,4.6E1,1.5E1,2E0,7E0,4E0,1.2E1,3E0],"tree_param":{"num_deleted":"0","num_feature":"16","num_nodes":"17","size_leaf_vector":"1"}},{"base_weights":[-0E0,-3.629211E-1,1.3353291E-1,-1.3907159E-2,-1.3003902E-3,-1.7859923E-3,1.7897275E-1,2.7446055E-3,-2.41622E-3,2.1911643E-1,-0E0,-0E0,5.8484017E-3],"categories":[],"categories_nodes":[],"categories_segments":[],"categories_sizes":[],"default_left":[0,0,0,0,0,0,0,0,0,0,0,0,0],"id":12,"left_children":[1,3,5,-1,-1,7,9,-1,-1,11,-1,-1,-1],"loss_changes":[5.9903893E0,1.6693683E0,6.161684E-1,0E0,0E0,2.8060344E-1,5.185385E-1,0E0,0E0,2.698927E-1,0E0,0E0,0E0],"parents":[2147483647,0,0,1,1,2,2,5,5,6,6,9,9],"right_children":[2,4,6,-1,-1,8,10,-1,-1,12,-1,-1,-1],"split_conditions":[-3.713583E-1,-1.5277778E-1,-5.1536072E-2,-1.3907159E-2,-1.3003902E-3,-2.9485896E-1,1.4762892E0,2.7446055E-3,-2.41622E-3,-8.581451E0,-0E0,-0E0,5.8484017E-3],"split_indices":[15,2,15,0,0,15,0,0,0,3,0,0,0],"split_type":[0,0,0,0,0,0,0,0,0,0,0,0,0],"sum_hessian":[1.15E2,3E1,8.5E1,1.6E1,1.4E1,2E1,6.5E1,7E0,1.3E1,5.3E1,1.2E1,2E0,5.1E1],"tree_param":{"num_deleted":"0","num_feature":"16","num_nodes":"13","size_leaf_vector":"1"}},{"base_weights":[1.574704E-2,-2.0591238E-1,1.8852608E-1,-3.8676515E-1,-0E0,2.9542786E-1,7.630929E-2,-4.421644E-1,5.834172E-4,1.2071159E-2,3.3975746E-3,-2.0964437E-3,3.180428E-3,-0E0,-1.2311782E-2],"categories":[],"categories_nodes":[],"categories_segments":[],"categories_sizes":[],"default_left":[0,0,0,0,0,0,0,0,0,0,0,0,0,0,0],"id":13,"left_children":[1,3,5,7,-1,9,11,13,-1,-1,-1,-1,-1,-1,-1],"loss_changes":[4.399153E0,1.7156801E0,5.58151E-1,7.829895E-1,0E0,4.3471575E-1,3.6860192E-1,6.1988163E-1,0E0,0E0,0E0,0E0,0E0,0E0,0E0],"parents":[2147483647,0,0,1,1,2,2,3,3,5,5,6,6,7,7],"right_children":[2,4,6,8,-1,10,12,14,-1,-1,-1,-1,-1,-1,-1],"split_conditions":[-6.8871714E-2,-8.3333336E-2,-6.374897E-2,1.3980432E0,-0E0,3.1268972E-1,2.0850573E-2,-5.675514E-1,5.834172E-4,1.2071159E-2,3.3975746E-3,-2.0964437E-3,3.180428E-3,-0E0,-1.2311782E-2],"split_indices":[15,12,1,13,0,15,11,14,0,0,0,0,0,0,0],"split_type":[0,0,0,0,0,0,0,0,0,0,0,0,0,0,0],"sum_hessian":[1.08E2,4.6E1,6.2E1,2.2E1,2.4E1,2.7E1,3.5E1,2E1,2E0,8E0,1.9E1,6E0,2.9E1,2E0,1.8E1],"tree_param":{"num_deleted":"0","num_feature":"16","num_nodes":"15","size_leaf_vector":"1"}},{"base_weights":[-0E0,-4.2809674E-1,1.5219107E-1,-1.4553121E-2,-0E0,-2.1191515E-4,5.0609913E-3],"categories":[],"categories_nodes":[],"categories_segments":[],"categories_sizes":[],"default_left":[0,0,0,0,0,0,0],"id":14,"left_children":[1,3,5,-1,-1,-1,-1],"loss_changes":[8.098667E0,2.0072584E0,8.303733E-1,0E0,0E0,0E0,0E0],"parents":[2147483647,0,0,1,1,2,2],"right_children":[2,4,6,-1,-1,-1,-1],"split_conditions":[-3.713583E-1,0E0,-5.1536072E-2,-1.4553121E-2,-0E0,-2.1191515E-4,5.0609913E-3],"split_indices":[15,2,15,0,0,0,0],"split_type":[0,0,0,0,0,0,0],"sum_hessian":[1.18E2,2.9E1,8.9E1,2E1,9E0,2E1,6.9E1],"tree_param":{"num_deleted":"0","num_feature":"16","num_nodes":"7","size_leaf_vector":"1"}},{"base_weights":[-6.3224914E-3,-4.0109873E-1,1.4501362E-1,-5.732572E-1,-2.4087613E-3,-0E0,1.9727013E-1,-6.1923283E-1,-0E0,2.193884E-3,-9.623729E-2,2.4712901E-1,9.679358E-4,-1.7382678E-2,-1.071338E-3,-5.80476E-3,-0E0,-0E0,2.803098E-1,7.512923E-3,-0E0],"categories":[],"categories_nodes":[],"categories_segments":[],"categories_sizes":[],"default_left":[0,0,0,0,0,0,0,0,0,0,0,0,0,0,0,0,0,0,0,0,0],"id":15,"left_children":[1,3,5,7,-1,9,11,13,-1,-1,15,17,-1,-1,-1,-1,-1,-1,19,-1,-1],"loss_changes":[7.385662E0,1.3488822E0,6.7001724E-1,3.5702372E-1,0E0,2.5365898E-1,3.6206174E-1,4.116292E-1,0E0,0E0,2.7004945E-1,3.4234762E-1,0E0,0E0,0E0,0E0,0E0,0E0,2.947209E-1,0E0,0E0],"parents":[2147483647,0,0,1,1,2,2,3,3,5,5,6,6,7,7,10,10,11,11,18,18],"right_children":[2,4,6,8,-1,10,12,14,-1,-1,16,18,-1,-1,-1,-1,-1,-1,20,-1,-1],"split_conditions":[-3.713583E-1,6.5249175E-1,2.4286933E-2,1.219001E-1,-2.4087613E-3,1.1585863E-1,7.4509805E-1,5.1588446E-1,-0E0,2.193884E-3,-4.9674207E-1,-1.2984116E0,9.679358E-4,-1.7382678E-2,-1.071338E-3,-5.80476E-3,-0E0,-0E0,3.0900854E-1,7.512923E-3,-0E0],"split_indices":[15,3,15,8,0,11,9,0,0,0,13,3,0,0,0,0,0,0,3,0,0],"split_type":[0,0,0,0,0,0,0,0,0,0,0,0,0,0,0,0,0,0,0,0,0],"sum_hessian":[1.15E2,3.1E1,8.4E1,1.7E1,1.4E1,2.3E1,6.1E1,1.5E1,2E0,1.2E1,1.1E1,4.3E1,1.8E1,1.2E1,3E0,4E0,7E0,6E0,3.7E1,3.5E1,2E0],"tree_param":{"num_deleted":"0","num_feature":"16","num_nodes":"21","size_leaf_vector":"1"}},{"base_weights":[-6.8679464E-4,1.8273072E-1,-6.217355E-2,-0E0,1.138487E-2,-2.8645992E-1,7.5521566E-2,-8.85502E-3,4.82545E-3,-8.717825E-2,-4.73201E-1,-2.3958876E-3,1.678885E-1,-1.7435965E-1,1.3563774E-3,-1.4465866E-2,-0E0,5.4239044E-3,-0E0,3.7867326E-4,-2.5002882E-1,-8.301893E-3,1.976429E-4],"categories":[],"categories_nodes":[],"categories_segments":[],"categories_sizes":[],"default_left":[0,0,0,0,0,0,0,0,0,0,0,0,0,0,0,0,0,0,0,0,0,0,0],"id":16,"left_children":[1,3,5,7,-1,9,11,-1,-1,13,15,-1,17,19,-1,-1,-1,-1,-1,-1,21,-1,-1],"loss_changes":[1.2602873E0,1.4666817E0,2.893252E0,1.6066058E0,0E0,9.525633E-1,9.794018E-1,0E0,0E0,3.5858446E-1,8.253765E-1,0E0,3.6933553E-1,3.4381473E-1,0E0,0E0,0E0,0E0,0E0,0E0,4.2455333E-1,0E0,0E0],"parents":[2147483647,0,0,1,1,2,2,3,3,5,5,6,6,9,9,10,10,12,12,13,13,20,20],"right_children":[2,4,6,8,-1,10,12,-1,-1,14,16,-1,18,20,-1,-1,-1,-1,-1,-1,22,-1,-1],"split_conditions":[-2.9213482E-1,-4.918932E-1,1.3888889E-2,8.262131E-2,1.138487E-2,-1.7887546E-1,2.0439394E-2,-8.85502E-3,4.82545E-3,-1.5277778E-1,5.1588446E-1,-2.3958876E-3,1.4762892E0,-4.30268E-1,1.3563774E-3,-1.4465866E-2,-0E0,5.4239044E-3,-0E0,3.7867326E-4,-2.7076045E-1,-8.301893E-3,1.976429E-4],"split_indices":[7,0,2,14,0,1,8,0,0,2,0,0,0,1,0,0,0,0,0,0,1,0,0],"split_type":[0,0,0,0,0,0,0,0,0,0,0,0,0,0,0,0,0,0,0,0,0,0,0],"sum_hessian":[1.09E2,2.4E1,8.5E1,1.6E1,8E0,3.2E1,5.3E1,5E0,1.1E1,1.9E1,1.3E1,1.7E1,3.6E1,1.3E1,6E0,1E1,3E0,2.8E1,8E0,3E0,1E1,8E0,2E0],"tree_param":{"num_deleted":"0","num_feature":"16","num_nodes":"23","size_leaf_vector":"1"}},{"base_weights":[-1.8752528E-2,1.050615E-1,-2.3633288E-1,2.0128572E-1,8.885068E-3,-3.6079374E-1,-6.6863686E-2,7.5322776E-3,1.4289723E-3,3.028338E-3,-3.055426E-1,-4.3925872E-1,2.5700466E-3,-0E0,-4.899172E-3,-0E0,-1.0254479E-2,-1.2408371E-2,-0E0],"categories":[],"categories_nodes":[],"categories_segments":[],"categories_sizes":[],"default_left":[0,0,0,0,0,0,0,0,0,0,0,0,0,0,0,0,0,0,0],"id":17,"left_children":[1,3,5,7,9,11,13,-1,-1,-1,15,17,-1,-1,-1,-1,-1,-1,-1],"loss_changes":[3.2778633E0,6.0838693E-1,6.831095E-1,3.0802262E-1,1.5910662E0,1.1474674E0,2.5529525E-1,0E0,0E0,0E0,5.247488E-1,6.554041E-1,0E0,0E0,0E0,0E0,0E0,0E0,0E0],"parents":[2147483647,0,0,1,1,2,2,3,3,4,4,5,5,6,6,10,10,11,11],"right_children":[2,4,6,8,10,12,14,-1,-1,-1,16,18,-1,-1,-1,-1,-1,-1,-1],"split_conditions":[2.701164E-1,1.6859967E-1,-1.5651876E-1,-6.374897E-2,-1.009794E-1,6.883514E-1,5.957257E-1,7.5322776E-3,1.4289723E-3,3.028338E-3,-4.2512032E-1,6.5249175E-1,2.5700466E-3,-0E0,-4.899172E-3,-0E0,-1.0254479E-2,-1.2408371E-2,-0E0],"split_indices":[3,14,8,1,3,14,8,0,0,0,11,3,0,0,0,0,0,0,0],"split_type":[0,0,0,0,0,0,0,0,0,0,0,0,0,0,0,0,0,0,0],"sum_hessian":[1.13E2,7.2E1,4.1E1,3.2E1,4E1,2E1,2.1E1,1.5E1,1.7E1,3.2E1,8E0,1.8E1,2E0,1.5E1,6E0,2E0,6E0,1.6E1,2E0],"tree_param":{"num_deleted":"0","num_feature":"16","num_nodes":"19","size_leaf_vector":"1"}},{"base_weights":[-1.22317495E-2,-3.3745727E-1,1.3701971E-1,-1.2627806E-2,-2.11243E-3,-0E0,1.7379497E-1,4.929542E-3,-4.9796276E-4],"categories":[],"categories_nodes":[],"categories_segments":[],"categories_sizes":[],"default_left":[0,0,0,0,0,0,0,0,0],"id":18,"left_children":[1,3,5,-1,-1,-1,7,-1,-1],"loss_changes":[5.896964E0,1.2475591E0,4.7849846E-1,0E0,0E0,0E0,3.859179E-1,0E0,0E0],"parents":[2147483647,0,0,1,1,2,2,6,6],"right_children":[2,4,6,-1,-1,-1,8,-1,-1],"split_conditions":[-3.713583E-1,6.5249175E-1,-6.8871714E-2,-1.2627806E-2,-2.11243E-3,-0E0,2.3616726E0,4.929542E-3,-4.9796276E-4],"split_indices":[15,3,15,0,0,0,0,0,0],"split_type":[0,0,0,0,0,0,0,0,0],"sum_hessian":[1.13E2,3.5E1,7.8E1,1.8E1,1.7E1,1.5E1,6.3E1,5.8E1,5E0],"tree_param":{"num_deleted":"0","num_feature":"16","num_nodes":"9","size_leaf_vector":"1"}},{"base_weights":[-1.6156157E-2,-2.7102324E-1,1.5953644E-1,-3.4757704E-1,-8.4659056E-4,2.4319282E-1,1.8199043E-3,-1.2737199E-2,-9.828669E-2,-0E0,6.895058E-3,1.001234E-3,-2.079018E-1,-7.8149475E-3,-0E0],"categories":[],"categories_nodes":[],"categories_segments":[],"categories_sizes":[],"default_left":[0,0,0,0,0,0,0,0,0,0,0,0,0,0,0],"id":19,"left_children":[1,3,5,7,-1,9,-1,-1,11,-1,-1,-1,13,-1,-1],"loss_changes":[5.054369E0,6.5045714E-1,2.8693473E-1,9.337797E-1,0E0,2.7106225E-1,0E0,0E0,3.7681198E-1,0E0,0E0,0E0,2.9030883E-1,0E0,0E0],"parents":[2147483647,0,0,1,1,2,2,3,3,5,5,8,8,12,12],"right_children":[2,4,6,8,-1,10,-1,-1,12,-1,-1,-1,14,-1,-1],"split_conditions":[-6.8871714E-2,7.879735E-1,-2.0689137E-2,-3.9376307E-1,-8.4659056E-4,-3.1032076E0,1.8199043E-3,-1.2737199E-2,-3.006536E-1,-0E0,6.895058E-3,1.001234E-3,6.353773E-2,-7.8149475E-3,-0E0],"split_indices":[15,3,1,15,0,3,0,0,9,0,0,0,0,0,0],"split_type":[0,0,0,0,0,0,0,0,0,0,0,0,0,0,0],"sum_hessian":[1.05E2,4.3E1,6.2E1,3E1,1.3E1,2.6E1,3.6E1,1.5E1,1.5E1,3E0,2.3E1,6E0,9E0,5E0,4E0],"tree_param":{"num_deleted":"0","num_feature":"16","num_nodes":"15","size_leaf_vector":"1"}},{"base_weights":[-1.0074854E-2,-3.378158E-1,1.1498028E-1,-1.29787475E-2,-2.1158603E-3,-2.9975697E-2,1.7449814E-1,-1.4303511E-1,2.158747E-3,4.89217E-3,-0E0,7.267653E-4,-2.3824872E-1,-7.7446452E-3,-0E0],"categories":[],"categories_nodes":[],"categories_segments":[],"categories_sizes":[],"default_left":[0,0,0,0,0,0,0,0,0,0,0,0,0,0,0],"id":20,"left_children":[1,3,5,-1,-1,7,9,11,-1,-1,-1,-1,13,-1,-1],"loss_changes":[5.0818853E0,1.1886129E0,8.3102E-1,0E0,0E0,4.1442296E-1,2.7615988E-1,3.7829465E-1,0E0,0E0,0E0,0E0,2.9812545E-1,0E0,0E0],"parents":[2147483647,0,0,1,1,2,2,5,5,6,6,7,7,12,12],"right_children":[2,4,6,-1,-1,8,10,12,-1,-1,-1,-1,14,-1,-1],"split_conditions":[-3.9376307E-1,-1.5277778E-1,2.4286933E-2,-1.29787475E-2,-2.1158603E-3,1.4812024E-2,2.3616726E0,-3.389845E-1,2.158747E-3,4.89217E-3,-0E0,7.267653E-4,1.3748628E-1,-7.7446452E-3,-0E0],"split_indices":[15,2,15,0,0,13,0,15,0,0,0,0,0,0,0],"split_type":[0,0,0,0,0,0,0,0,0,0,0,0,0,0,0],"sum_hessian":[1.15E2,3.1E1,8.4E1,1.5E1,1.6E1,2.3E1,6.1E1,1.3E1,1E1,5.5E1,6E0,4E0,9E0,7E0,2E0],"tree_param":{"num_deleted":"0","num_feature":"16","num_nodes":"15","size_leaf_vector":"1"}},{"base_weights":[-0E0,-2.4293531E-1,1.6277921E-1,-3.668175E-1,-1.5144598E-3,5.057786E-3,2.1609967E-4,-0E0,-1.0252917E-2],"categories":[],"categories_nodes":[],"categories_segments":[],"categories_sizes":[],"default_left":[0,0,0,0,0,0,0,0,0],"id":21,"left_children":[1,3,5,7,-1,-1,-1,-1,-1],"loss_changes":[4.414834E0,7.5655675E-1,3.2079542E-1,4.8780322E-1,0E0,0E0,0E0,0E0,0E0],"parents":[2147483647,0,0,1,1,2,2,3,3],"right_children":[2,4,6,8,-1,-1,-1,-1,-1],"split_conditions":[-1.0090745E-1,-8.3333336E-2,7.798514E-1,-5.675514E-1,-1.5144598E-3,5.057786E-3,2.1609967E-4,-0E0,-1.0252917E-2],"split_indices":[15,12,1,14,0,0,0,0,0],"split_type":[0,0,0,0,0,0,0,0,0],"sum_hessian":[1.05E2,4.1E1,6.4E1,2.1E1,2E1,4.8E1,1.6E1,2E0,1.9E1],"tree_param":{"num_deleted":"0","num_feature":"16","num_nodes":"9","size_leaf_vector":"1"}},{"base_weights":[-1.6694881E-2,-3.473902E-1,9.7717576E-2,-1.4769278E-2,-0E0,-1.7600156E-2,3.4605877E-3,-4.3014116E-3,1.5064365E-3],"categories":[],"categories_nodes":[],"categories_segments":[],"categories_sizes":[],"default_left":[0,0,0,0,0,0,0,0,0],"id":22,"left_children":[1,3,5,-1,-1,7,-1,-1,-1],"loss_changes":[4.021165E0,2.090964E0,4.1595614E-1,0E0,0E0,3.2753128E-1,0E0,0E0,0E0],"parents":[2147483647,0,0,1,1,2,2,5,5],"right_children":[2,4,6,-1,-1,8,-1,-1,-1],"split_conditions":[-3.713583E-1,6.5249175E-1,-1.0090745E-1,-1.4769278E-2,-0E0,8.723617E-2,3.4605877E-3,-4.3014116E-3,1.5064365E-3],"split_indices":[15,3,15,0,0,3,0,0,0],"split_type":[0,0,0,0,0,0,0,0,0],"sum_hessian":[9.7E1,2.4E1,7.3E1,1.2E1,1.2E1,1.7E1,5.6E1,6E0,1.1E1],"tree_param":{"num_deleted":"0","num_feature":"16","num_nodes":"9","size_leaf_vector":"1"}},{"base_weights":[6.446884E-3,-2.9280257E-1,1.3680874E-1,-1.1396448E-2,-9.7530306E-4,-0E0,1.7921175E-1,3.0016247E-3,-3.240762E-3,5.682697E-3,4.1937167E-4],"categories":[],"categories_nodes":[],"categories_segments":[],"categories_sizes":[],"default_left":[0,0,0,0,0,0,0,0,0,0,0],"id":23,"left_children":[1,3,5,-1,-1,7,9,-1,-1,-1,-1],"loss_changes":[4.232446E0,1.0847192E0,4.9253058E-1,0E0,0E0,3.7583017E-1,3.6168277E-1,0E0,0E0,0E0,0E0],"parents":[2147483647,0,0,1,1,2,2,5,5,6,6],"right_children":[2,4,6,-1,-1,8,10,-1,-1,-1,-1],"split_conditions":[-3.713583E-1,-1.5277778E-1,-6.8871714E-2,-1.1396448E-2,-9.7530306E-4,-2.9485896E-1,1.0196079E0,3.0016247E-3,-3.240762E-3,5.682697E-3,4.1937167E-4],"split_indices":[15,2,15,0,0,15,9,0,0,0,0],"split_type":[0,0,0,0,0,0,0,0,0,0,0],"sum_hessian":[1.03E2,2.9E1,7.4E1,1.5E1,1.4E1,1.7E1,5.7E1,8E0,9E0,4.1E1,1.6E1],"tree_param":{"num_deleted":"0","num_feature":"16","num_nodes":"11","size_leaf_vector":"1"}},{"base_weights":[8.765297E-3,-2.8025874E-1,1.256088E-1,-9.497198E-3,-5.888965E-4,2.4672683E-1,6.3788064E-2,1.0219975E-2,1.9419898E-3,-6.790656E-3,1.07566096E-1,3.3873972E-3,-1.8829474E-3],"categories":[],"categories_nodes":[],"categories_segments":[],"categories_sizes":[],"default_left":[0,0,0,0,0,0,0,0,0,0,0,0,0],"id":24,"left_children":[1,3,5,-1,-1,7,9,-1,-1,-1,11,-1,-1],"loss_changes":[4.0969353E0,6.896434E-1,4.8336327E-1,0E0,0E0,4.2030823E-1,9.984256E-1,0E0,0E0,0E0,3.7392616E-1,0E0,0E0],"parents":[2147483647,0,0,1,1,2,2,5,5,6,6,10,10],"right_children":[2,4,6,-1,-1,8,10,-1,-1,-1,12,-1,-1],"split_conditions":[-3.713583E-1,0E0,-3.4510922E-1,-9.497198E-3,-5.888965E-4,4.7810665E-1,-3.1807876E-1,1.0219975E-2,1.9419898E-3,-6.790656E-3,2.5662563E0,3.3873972E-3,-1.8829474E-3],"split_indices":[15,2,1,0,0,14,0,0,0,0,0,0,0],"split_type":[0,0,0,0,0,0,0,0,0,0,0,0,0],"sum_hessian":[1.16E2,3.1E1,8.5E1,2E1,1.1E1,2.3E1,6.2E1,8E0,1.5E1,4E0,5.8E1,5.3E1,5E0],"tree_param":{"num_deleted":"0","num_feature":"16","num_nodes":"13","size_leaf_vector":"1"}},{"base_weights":[-0E0,-2.5915387E-1,1.1277167E-1,-3.560598E-1,-1.0102728E-3,-0E0,1.4827071E-1,-0E0,-4.1780427E-1,4.165438E-3,-9.4931526E-4,-1.3140234E-2,-6.872138E-4],"categories":[],"categories_nodes":[],"categories_segments":[],"categories_sizes":[],"default_left":[0,0,0,0,0,0,0,0,0,0,0,0,0],"id":25,"left_children":[1,3,5,7,-1,-1,9,-1,11,-1,-1,-1,-1],"loss_changes":[3.2609215E0,5.0116706E-1,3.629756E-1,5.036285E-1,0E0,0E0,2.8716254E-1,0E0,5.066354E-1,0E0,0E0,0E0,0E0],"parents":[2147483647,0,0,1,1,2,2,3,3,6,6,8,8],"right_children":[2,4,6,8,-1,-1,10,-1,12,-1,-1,-1,-1],"split_conditions":[-3.713583E-1,1.5413257E-1,-5.1536072E-2,-5.7932585E-1,-1.0102728E-3,-0E0,3.2090082E0,-0E0,-1.5277778E-1,4.165438E-3,-9.4931526E-4,-1.3140234E-2,-6.872138E-4],"split_indices":[15,1,15,1,0,0,1,0,2,0,0,0,0],"split_type":[0,0,0,0,0,0,0,0,0,0,0,0,0],"sum_hessian":[1.06E2,3E1,7.6E1,1.8E1,1.2E1,1.7E1,5.9E1,3E0,1.5E1,5.6E1,3E0,1E1,5E0],"tree_param":{"num_deleted":"0","num_feature":"16","num_nodes":"13","size_leaf_vector":"1"}},{"base_weights":[8.337509E-3,-1.8776163E-1,1.5477003E-1,-9.52506E-3,-8.51693E-2,2.9050675E-1,8.6434275E-2,-1.4460227E-1,3.4254073E-4,-2.832872E-4,8.672584E-3,2.8017943E-3,-1.829855E-3,3.2448958E-4,-4.7594784E-3],"categories":[],"categories_nodes":[],"categories_segments":[],"categories_sizes":[],"default_left":[0,0,0,0,0,0,0,0,0,0,0,0,0,0,0],"id":26,"left_children":[1,3,5,-1,7,9,11,13,-1,-1,-1,-1,-1,-1,-1],"loss_changes":[3.51999E0,7.209461E-1,4.2454994E-1,0E0,2.9140443E-1,4.969511E-1,2.6730144E-1,2.779824E-1,0E0,0E0,0E0,0E0,0E0,0E0,0E0],"parents":[2147483647,0,0,1,1,2,2,4,4,5,5,6,6,7,7],"right_children":[2,4,6,-1,8,10,12,14,-1,-1,-1,-1,-1,-1,-1],"split_conditions":[-6.8871714E-2,-4.9674207E-1,-3.3234182E-1,-9.52506E-3,-4.170362E-1,-8.581451E0,1.2982452E-1,-1.7977528E-1,3.4254073E-4,-2.832872E-4,8.672584E-3,2.8017943E-3,-1.829855E-3,3.2448958E-4,-4.7594784E-3],"split_indices":[15,13,0,0,15,3,3,7,0,0,0,0,0,0,0],"split_type":[0,0,0,0,0,0,0,0,0,0,0,0,0,0,0],"sum_hessian":[1.16E2,4.8E1,6.8E1,1.2E1,3.6E1,1.7E1,5.1E1,2.4E1,1.2E1,2E0,1.5E1,4.7E1,4E0,4E0,2E1],"tree_param":{"num_deleted":"0","num_feature":"16","num_nodes":"15","size_leaf_vector":"1"}},{"base_weights":[-3.4533035E-2,6.918947E-2,-1.8678306E-1,-0E0,3.425774E-3,-3.3706313E-1,-0E0,2.009555E-3,-9.6730925E-2,-4.000427E-1,2.1312437E-3,4.5476584E-3,-1.7338404E-3,-0E0,-7.2466726E-3,-1.1102401E-2,-0E0],"categories":[],"categories_nodes":[],"categories_segments":[],"categories_sizes":[],"default_left":[0,0,0,0,0,0,0,0,0,0,0,0,0,0,0,0,0],"id":27,"left_children":[1,3,5,7,-1,9,11,-1,13,15,-1,-1,-1,-1,-1,-1,-1],"loss_changes":[1.8846334E0,3.762336E-1,1.3186425E0,3.0199298E-1,0E0,9.501023E-1,3.515877E-1,0E0,3.6368936E-1,5.1664186E-1,0E0,0E0,0E0,0E0,0E0,0E0,0E0],"parents":[2147483647,0,0,1,1,2,2,3,3,5,5,6,6,8,8,9,9],"right_children":[2,4,6,8,-1,10,12,-1,14,16,-1,-1,-1,-1,-1,-1,-1],"split_conditions":[1.582898E-1,1.219001E-1,-8.3333336E-2,-2.460476E-1,3.425774E-3,1.6647757E0,-3.0352077E-1,2.009555E-3,-3.557253E-2,1E0,2.1312437E-3,4.5476584E-3,-1.7338404E-3,-0E0,-7.2466726E-3,-1.1102401E-2,-0E0],"split_indices":[3,8,12,1,0,14,1,0,3,4,0,0,0,0,0,0,0],"split_type":[0,0,0,0,0,0,0,0,0,0,0,0,0,0,0,0,0],"sum_hessian":[1.1E2,6.5E1,4.5E1,3.1E1,3.4E1,2.3E1,2.2E1,1.5E1,1.6E1,2.1E1,2E0,4E0,1.8E1,1.3E1,3E0,1.9E1,2E0],"tree_param":{"num_deleted":"0","num_feature":"16","num_nodes":"17","size_leaf_vector":"1"}},{"base_weights":[-1.7511418E-2,-2.1738574E-1,3.6669148E-3,-3.1760797E-1,-1.2666502E-3,-4.6434358E-1,-1.3144835E-3,-1.2634031E-2,-0E0],"categories":[],"categories_nodes":[],"categories_segments":[],"categories_sizes":[],"default_left":[0,0,0,0,0,0,0,0,0],"id":28,"left_children":[1,3,-1,5,-1,7,-1,-1,-1],"loss_changes":[3.9958758E0,7.237196E-1,0E0,9.716759E-1,0E0,2.6483202E-1,0E0,0E0,0E0],"parents":[2147483647,0,0,1,1,3,3,5,5],"right_children":[2,4,-1,6,-1,8,-1,-1,-1],"split_conditions":[-2.9773133E-2,-1.5277778E-1,3.6669148E-3,-3.713583E-1,-1.2666502E-3,1.4206141E-1,-1.3144835E-3,-1.2634031E-2,-0E0],"split_indices":[15,2,0,15,0,1,0,0,0],"split_type":[0,0,0,0,0,0,0,0,0],"sum_hessian":[1.14E2,5.2E1,6.2E1,2.9E1,2.3E1,1.6E1,1.3E1,1.4E1,2E0],"tree_param":{"num_deleted":"0","num_feature":"16","num_nodes":"9","size_leaf_vector":"1"}},{"base_weights":[-1.6248548E-2,-3.4705535E-1,1.12361E-1,-1.3776409E-2,-2.0293163E-3,-4.2335052E-2,3.9287694E-3,-1.6823459E-1,1.5416614E-3,-7.451666E-3,-0E0],"categories":[],"categories_nodes":[],"categories_segments":[],"categories_sizes":[],"default_left":[0,0,0,0,0,0,0,0,0,0,0],"id":29,"left_children":[1,3,5,-1,-1,7,-1,9,-1,-1,-1],"loss_changes":[5.0592093E0,1.4076023E0,6.477665E-1,0E0,0E0,3.342657E-1,0E0,3.4084493E-1,0E0,0E0,0E0],"parents":[2147483647,0,0,1,1,2,2,5,5,7,7],"right_children":[2,4,6,-1,-1,8,-1,10,-1,-1,-1],"split_conditions":[-3.713583E-1,-1.5277778E-1,-6.8871714E-2,-1.3776409E-2,-2.0293163E-3,1.0180282E-1,3.9287694E-3,-1.6091675E-2,1.5416614E-3,-7.451666E-3,-0E0],"split_indices":[15,2,15,0,0,13,0,0,0,0,0],"split_type":[0,0,0,0,0,0,0,0,0,0,0],"sum_hessian":[1.1E2,3E1,8E1,1.4E1,1.6E1,1.6E1,6.4E1,8E0,8E0,4E0,4E0],"tree_param":{"num_deleted":"0","num_feature":"16","num_nodes":"11","size_leaf_vector":"1"}},{"base_weights":[-4.7169747E-3,-2.7239206E-1,1.025715E-1,-4.5958063E-1,-0E0,-3.6063683E-4,3.3264947E-3,-1.263239E-2,-0E0],"categories":[],"categories_nodes":[],"categories_segments":[],"categories_sizes":[],"default_left":[0,0,0,0,0,0,0,0,0],"id":30,"left_children":[1,3,5,7,-1,-1,-1,-1,-1],"loss_changes":[3.4252615E0,1.7700827E0,3.4845227E-1,3.9359283E-1,0E0,0E0,0E0,0E0,0E0],"parents":[2147483647,0,0,1,1,2,2,3,3],"right_children":[2,4,6,8,-1,-1,-1,-1,-1],"split_conditions":[-3.713583E-1,6.5249175E-1,-5.310812E-2,1.219001E-1,-0E0,-3.6063683E-4,3.3264947E-3,-1.263239E-2,-0E0],"split_indices":[15,3,15,8,0,0,0,0,0],"split_type":[0,0,0,0,0,0,0,0,0],"sum_hessian":[1.1E2,3.1E1,7.9E1,1.7E1,1.4E1,1.4E1,6.5E1,1.5E1,2E0],"tree_param":{"num_deleted":"0","num_feature":"16","num_nodes":"9","size_leaf_vector":"1"}},{"base_weights":[1.3245061E-3,2.489976E-3,-9.178324E-2,6.1825193E-2,-1.658585E-1,6.298861E-3,-8.3194435E-2,-4.0641296E-1,-1.5570075E-4,-4.875138E-3,2.761943E-3,-1.2049216E-2,-0E0],"categories":[],"categories_nodes":[],"categories_segments":[],"categories_sizes":[],"default_left":[0,0,0,0,0,0,0,0,0,0,0,0,0],"id":31,"left_children":[1,-1,3,5,7,-1,9,11,-1,-1,-1,-1,-1],"loss_changes":[1.0645101E0,0E0,7.317718E-1,6.7853147E-1,1.4196771E0,0E0,3.7989795E-1,5.758071E-1,0E0,0E0,0E0,0E0,0E0],"parents":[2147483647,0,0,2,2,3,3,4,4,6,6,7,7],"right_children":[2,-1,4,6,8,-1,10,12,-1,-1,-1,-1,-1],"split_conditions":[-2.0850202E-2,2.489976E-3,-2.9213482E-1,3.0900854E-1,-8.3333336E-2,6.298861E-3,-1.6993465E-1,1E0,-1.5570075E-4,-4.875138E-3,2.761943E-3,-1.2049216E-2,-0E0],"split_indices":[3,0,7,3,12,0,9,4,0,0,0,0,0],"split_type":[0,0,0,0,0,0,0,0,0,0,0,0,0],"sum_hessian":[1.09E2,5.5E1,5.4E1,1.6E1,3.8E1,7E0,9E0,1.2E1,2.6E1,7E0,2E0,1E1,2E0],"tree_param":{"num_deleted":"0","num_feature":"16","num_nodes":"13","size_leaf_vector":"1"}},{"base_weights":[-3.5298741E-3,-2.6466224E-1,8.404581E-2,-4.054151E-1,-5.042875E-5,2.556782E-3,-1.226858E-3,-1.1197015E-2,-0E0],"categories":[],"categories_nodes":[],"categories_segments":[],"categories_sizes":[],"default_left":[0,0,0,0,0,0,0,0,0],"id":32,"left_children":[1,3,5,7,-1,-1,-1,-1,-1],"loss_changes":[2.837189E0,9.986584E-1,2.5598764E-1,3.054006E-1,0E0,0E0,0E0,0E0,0E0],"parents":[2147483647,0,0,1,1,2,2,3,3],"right_children":[2,4,6,8,-1,-1,-1,-1,-1],"split_conditions":[-3.713583E-1,6.5249175E-1,2.5662563E0,1.219001E-1,-5.042875E-5,2.556782E-3,-1.226858E-3,-1.1197015E-2,-0E0],"split_indices":[15,3,0,8,0,0,0,0,0],"split_type":[0,0,0,0,0,0,0,0,0],"sum_hessian":[1.14E2,2.8E1,8.6E1,1.6E1,1.2E1,7.9E1,7E0,1.4E1,2E0],"tree_param":{"num_deleted":"0","num_feature":"16","num_nodes":"9","size_leaf_vector":"1"}},{"base_weights":[-1.9306986E-2,-3.2803714E-1,1.0509797E-1,-1.2987929E-2,-1.2023131E-3,5.862812E-2,6.471351E-3,-8.756797E-2,2.2178164E-3,-6.6340836E-3,1.3513266E-3],"categories":[],"categories_nodes":[],"categories_segments":[],"categories_sizes":[],"default_left":[0,0,0,0,0,0,0,0,0,0,0],"id":33,"left_children":[1,3,5,-1,-1,7,-1,9,-1,-1,-1],"loss_changes":[4.1850247E0,1.3740287E0,3.5933983E-1,0E0,0E0,3.1133378E-1,0E0,3.9911246E-1,0E0,0E0,0E0],"parents":[2147483647,0,0,1,1,2,2,5,5,7,7],"right_children":[2,4,6,-1,-1,8,-1,10,-1,-1,-1],"split_conditions":[-3.713583E-1,6.5249175E-1,2.6375386E-1,-1.2987929E-2,-1.2023131E-3,-6.8871714E-2,6.471351E-3,-4.9674207E-1,2.2178164E-3,-6.6340836E-3,1.3513266E-3],"split_indices":[15,3,3,0,0,15,0,13,0,0,0],"split_type":[0,0,0,0,0,0,0,0,0,0,0],"sum_hessian":[1E2,2.8E1,7.2E1,1.4E1,1.4E1,6.1E1,1.1E1,7E0,5.4E1,3E0,4E0],"tree_param":{"num_deleted":"0","num_feature":"16","num_nodes":"11","size_leaf_vector":"1"}},{"base_weights":[-0E0,-1.6209815E-1,1.3487907E-1,-2.5798666E-1,-7.75838E-4,2.4875188E-1,1.6843614E-3,-3.0312374E-1,1.0682825E-3,-4.6432062E-4,7.5696814E-3,-3.5730705E-1,-0E0,-9.799399E-3,-0E0],"categories":[],"categories_nodes":[],"categories_segments":[],"categories_sizes":[],"default_left":[0,0,0,0,0,0,0,0,0,0,0,0,0,0,0],"id":34,"left_children":[1,3,5,7,-1,9,-1,11,-1,-1,-1,13,-1,-1,-1],"loss_changes":[2.5266118E0,5.036011E-1,3.1069887E-1,5.227641E-1,0E0,4.2949057E-1,0E0,5.294957E-1,0E0,0E0,0E0,2.7718806E-1,0E0,0E0,0E0],"parents":[2147483647,0,0,1,1,2,2,3,3,5,5,7,7,11,11],"right_children":[2,4,6,8,-1,10,-1,12,-1,-1,-1,14,-1,-1,-1],"split_conditions":[-6.8871714E-2,-8.3333336E-2,-2.9984152E-1,1.3980432E0,-7.75838E-4,-8.581451E0,1.6843614E-3,1.1536585E0,1.0682825E-3,-4.6432062E-4,7.5696814E-3,5.857867E-1,-0E0,-9.799399E-3,-0E0],"split_indices":[15,12,0,13,0,3,0,11,0,0,0,3,0,0,0],"split_type":[0,0,0,0,0,0,0,0,0,0,0,0,0,0,0],"sum_hessian":[1.09E2,4.8E1,6.1E1,2.4E1,2.4E1,1.7E1,4.4E1,2.2E1,2E0,2E0,1.5E1,1.9E1,3E0,1.7E1,2E0],"tree_param":{"num_deleted":"0","num_feature":"16","num_nodes":"15","size_leaf_vector":"1"}},{"base_weights":[2.6643977E-3,2.6690844E-3,-9.6697785E-2,1.2563418E-1,-1.8169492E-1,2.76329E-1,-3.7728124E-3,-3.623966E-1,-5.251558E-4,9.819745E-3,-0E0,-1.034529E-2,-0E0],"categories":[],"categories_nodes":[],"categories_segments":[],"categories_sizes":[],"default_left":[0,0,0,0,0,0,0,0,0,0,0,0,0],"id":35,"left_children":[1,-1,3,5,7,9,-1,11,-1,-1,-1,-1,-1],"loss_changes":[1.2658644E0,0E0,1.2456226E0,9.254197E-1,1.170202E0,2.8058314E-1,0E0,4.7564912E-1,0E0,0E0,0E0,0E0,0E0],"parents":[2147483647,0,0,2,2,3,3,4,4,5,5,7,7],"right_children":[2,-1,4,6,8,10,-1,12,-1,-1,-1,-1,-1],"split_conditions":[-2.0850202E-2,2.6690844E-3,-2.9213482E-1,4.0096208E-1,-1.25E-1,-1.8055555E-1,-3.7728124E-3,1E0,-5.251558E-4,9.819745E-3,-0E0,-1.034529E-2,-0E0],"split_indices":[3,0,7,3,12,2,0,4,0,0,0,0,0],"split_type":[0,0,0,0,0,0,0,0,0,0,0,0,0],"sum_hessian":[1.15E2,5.8E1,5.7E1,1.4E1,4.3E1,1E1,4E0,1.7E1,2.6E1,5E0,5E0,1.5E1,2E0],"tree_param":{"num_deleted":"0","num_feature":"16","num_nodes":"13","size_leaf_vector":"1"}},{"base_weights":[-3.531118E-2,-1.3897336E-1,3.6612768E-2,3.9009668E-2,-3.4248802E-1,-2.0328811E-3,2.6148306E-3,-1.1948086E-1,4.63464E-3,-3.8299292E-1,-0E0,3.7631535E-3,-6.7628096E-3,-0E0,-1.0734041E-2],"categories":[],"categories_nodes":[],"categories_segments":[],"categories_sizes":[],"default_left":[0,0,0,0,0,0,0,0,0,0,0,0,0,0,0],"id":36,"left_children":[1,3,5,7,9,-1,-1,11,-1,13,-1,-1,-1,-1,-1],"loss_changes":[9.049854E-1,1.9611491E0,5.802128E-1,7.6506424E-1,4.2657852E-1,0E0,0E0,7.818154E-1,0E0,4.7882366E-1,0E0,0E0,0E0,0E0,0E0],"parents":[2147483647,0,0,1,1,2,2,3,3,4,4,7,7,9,9],"right_children":[2,4,6,8,10,-1,-1,12,-1,14,-1,-1,-1,-1,-1],"split_conditions":[-8.3333336E-2,-2.9213482E-1,9.8909006E-2,8.262131E-2,1E0,-2.0328811E-3,2.6148306E-3,-7.228419E-1,4.63464E-3,-4.30268E-1,-0E0,3.7631535E-3,-6.7628096E-3,-0E0,-1.0734041E-2],"split_indices":[12,7,8,14,4,0,0,14,0,1,0,0,0,0,0],"split_type":[0,0,0,0,0,0,0,0,0,0,0,0,0,0,0],"sum_hessian":[1.1E2,4.6E1,6.4E1,2.5E1,2.1E1,2.1E1,4.3E1,1.1E1,1.4E1,1.9E1,2E0,3E0,8E0,2E0,1.7E1],"tree_param":{"num_deleted":"0","num_feature":"16","num_nodes":"15","size_leaf_vector":"1"}},{"base_weights":[-1.2234306E-2,-2.777483E-1,1.01370364E-1,-8.920892E-3,-3.751465E-4,4.182081E-3,3.2612216E-4],"categories":[],"categories_nodes":[],"categories_segments":[],"categories_sizes":[],"default_left":[0,0,0,0,0,0,0],"id":37,"left_children":[1,3,5,-1,-1,-1,-1],"loss_changes":[3.7434852E0,6.1175776E-1,4.1217196E-1,0E0,0E0,0E0,0E0],"parents":[2147483647,0,0,1,1,2,2],"right_children":[2,4,6,-1,-1,-1,-1],"split_conditions":[-3.9376307E-1,5.2287585E-1,-2.0689137E-2,-8.920892E-3,-3.751465E-4,4.182081E-3,3.2612216E-4],"split_indices":[15,9,1,0,0,0,0],"split_type":[0,0,0,0,0,0,0],"sum_hessian":[1.15E2,3.4E1,8.1E1,2.4E1,1E1,4.2E1,3.9E1],"tree_param":{"num_deleted":"0","num_feature":"16","num_nodes":"7","size_leaf_vector":"1"}},{"base_weights":[-8.039266E-3,-2.600632E-1,8.909012E-2,-4.1850168E-1,-9.841553E-4,4.930429E-3,2.687825E-2,-1.2001765E-2,-0E0,-4.810207E-3,1.4661254E-3],"categories":[],"categories_nodes":[],"categories_segments":[],"categories_sizes":[],"default_left":[0,0,0,0,0,0,0,0,0,0,0],"id":38,"left_children":[1,3,5,7,-1,-1,9,-1,-1,-1,-1],"loss_changes":[2.8299236E0,8.956151E-1,4.3331504E-1,2.7676868E-1,0E0,0E0,3.8653427E-1,0E0,0E0,0E0,0E0],"parents":[2147483647,0,0,1,1,2,2,3,3,6,6],"right_children":[2,4,6,8,-1,-1,10,-1,-1,-1,-1],"split_conditions":[-3.713583E-1,6.5249175E-1,-3.4510922E-1,5.1588446E-1,-9.841553E-4,4.930429E-3,-3.2144338E-1,-1.2001765E-2,-0E0,-4.810207E-3,1.4661254E-3],"split_indices":[15,3,1,0,0,0,0,0,0,0,0],"split_type":[0,0,0,0,0,0,0,0,0,0,0],"sum_hessian":[1.06E2,2.9E1,7.7E1,1.4E1,1.5E1,2.3E1,5.4E1,1.1E1,3E0,3E0,5.1E1],"tree_param":{"num_deleted":"0","num_feature":"16","num_nodes":"11","size_leaf_vector":"1"}},{"base_weights":[-0E0,-7.4976176E-2,6.6536784E-2,5.1953718E-2,-2.850536E-1,-5.6463055E-4,2.7590913E-3,-5.481443E-2,3.169553E-1,-3.3841473E-1,-0E0,-8.8042235E-3,1.8207591E-3,9.762815E-3,-0E0,-1.0268394E-2,-0E0],"categories":[],"categories_nodes":[],"categories_segments":[],"categories_sizes":[],"default_left":[0,0,0,0,0,0,0,0,0,0,0,0,0,0,0,0,0],"id":39,"left_children":[1,3,5,7,9,-1,-1,11,13,15,-1,-1,-1,-1,-1,-1,-1],"loss_changes":[5.718214E-1,1.5449916E0,2.8795657E-1,1.141798E0,3.7170935E-1,0E0,0E0,1.207333E0,2.9345357E-1,3.27502E-1,0E0,0E0,0E0,0E0,0E0,0E0,0E0],"parents":[2147483647,0,0,1,1,2,2,3,3,4,4,7,7,8,8,9,9],"right_children":[2,4,6,8,10,-1,-1,12,14,16,-1,-1,-1,-1,-1,-1,-1],"split_conditions":[-8.3333336E-2,-3.8399488E-1,2.0439394E-2,-4.4690967E-1,1.3700825E0,-5.6463055E-4,2.7590913E-3,8.262131E-2,5.0170225E-1,4.6636358E-1,-0E0,-8.8042235E-3,1.8207591E-3,9.762815E-3,-0E0,-1.0268394E-2,-0E0],"split_indices":[12,11,8,0,8,0,0,14,13,11,0,0,0,0,0,0,0],"split_type":[0,0,0,0,0,0,0,0,0,0,0,0,0,0,0,0,0],"sum_hessian":[1.08E2,4.9E1,5.9E1,3.1E1,1.8E1,1.7E1,4.2E1,2.3E1,8E0,1.5E1,3E0,6E0,1.7E1,6E0,2E0,1.1E1,4E0],"tree_param":{"num_deleted":"0","num_feature":"16","num_nodes":"17","size_leaf_vector":"1"}},{"base_weights":[-2.1921102E-2,5.953079E-2,-1.6418251E-1,1.715879E-1,4.1388804E-3,-2.39502E-1,-6.403793E-6,-0E0,5.7091685E-3,-6.1355196E-3,1.1783346E-3,-0E0,-2.7015495E-1,-7.7139325E-3,-0E0],"categories":[],"categories_nodes":[],"categories_segments":[],"categories_sizes":[],"default_left":[0,0,0,0,0,0,0,0,0,0,0,0,0,0,0],"id":40,"left_children":[1,3,5,7,9,11,-1,-1,-1,-1,-1,-1,13,-1,-1],"loss_changes":[1.437596E0,3.9585653E-1,4.656638E-1,3.02346E-1,5.67399E-1,3.1489575E-1,0E0,0E0,0E0,0E0,0E0,0E0,3.2553482E-1,0E0,0E0],"parents":[2147483647,0,0,1,1,2,2,3,3,4,4,5,5,12,12],"right_children":[2,4,6,8,10,12,-1,-1,-1,-1,-1,-1,14,-1,-1],"split_conditions":[2.701164E-1,-2.875817E-1,8.3333336E-2,-3.1032076E0,-2.5E-1,-9.491024E-1,-6.403793E-6,-0E0,5.7091685E-3,-6.1355196E-3,1.1783346E-3,-0E0,2.7414477E-1,-7.7139325E-3,-0E0],"split_indices":[3,9,12,3,12,14,0,0,0,0,0,0,14,0,0],"split_type":[0,0,0,0,0,0,0,0,0,0,0,0,0,0,0],"sum_hessian":[1.14E2,7.2E1,4.2E1,1.9E1,5.3E1,2.6E1,1.6E1,4E0,1.5E1,4E0,4.9E1,2E0,2.4E1,2.1E1,3E0],"tree_param":{"num_deleted":"0","num_feature":"16","num_nodes":"15","size_leaf_vector":"1"}},{"base_weights":[-1.4368133E-2,-2.412485E-1,7.902025E-2,-3.835896E-1,-4.0639876E-4,-0E0,3.5322302E-3,-1.0651973E-2,-0E0,2.5408498E-3,-2.3273549E-3],"categories":[],"categories_nodes":[],"categories_segments":[],"categories_sizes":[],"default_left":[0,0,0,0,0,0,0,0,0,0,0],"id":41,"left_children":[1,3,5,7,-1,9,-1,-1,-1,-1,-1],"loss_changes":[2.5576384E0,9.551492E-1,3.931536E-1,3.4215975E-1,0E0,4.1708043E-1,0E0,0E0,0E0,0E0,0E0],"parents":[2147483647,0,0,1,1,2,2,3,3,5,5],"right_children":[2,4,6,8,-1,10,-1,-1,-1,-1,-1],"split_conditions":[-3.713583E-1,5.857867E-1,9.8909006E-2,1.219001E-1,-4.0639876E-4,-3.8399488E-1,3.5322302E-3,-1.0651973E-2,-0E0,2.5408498E-3,-2.3273549E-3],"split_indices":[15,3,8,8,0,11,0,0,0,0,0],"split_type":[0,0,0,0,0,0,0,0,0,0,0],"sum_hessian":[1.11E2,3.2E1,7.9E1,1.7E1,1.5E1,3.7E1,4.2E1,1.5E1,2E0,1.8E1,1.9E1],"tree_param":{"num_deleted":"0","num_feature":"16","num_nodes":"11","size_leaf_vector":"1"}},{"base_weights":[-0E0,-1.330108E-1,1.0688723E-1,-2.2435811E-1,-1.3886542E-4,1.8779403E-1,4.5179512E-4,-2.6661396E-1,1.0400364E-3,3.6744615E-1,4.477985E-4,-0E0,-7.588789E-3,-0E0,1.0817038E-2],"categories":[],"categories_nodes":[],"categories_segments":[],"categories_sizes":[],"default_left":[0,0,0,0,0,0,0,0,0,0,0,0,0,0,0],"id":42,"left_children":[1,3,5,7,-1,9,-1,11,-1,13,-1,-1,-1,-1,-1],"loss_changes":[1.6189194E0,4.9163347E-1,3.6207193E-1,4.3788004E-1,0E0,7.5367117E-1,0E0,3.5275662E-1,0E0,3.302275E-1,0E0,0E0,0E0,0E0,0E0],"parents":[2147483647,0,0,1,1,2,2,3,3,5,5,7,7,9,9],"right_children":[2,4,6,8,-1,10,-1,12,-1,14,-1,-1,-1,-1,-1],"split_conditions":[-6.8871714E-2,-8.3333336E-2,-2.0689137E-2,1.3980432E0,-1.3886542E-4,3.1268972E-1,4.5179512E-4,-5.675514E-1,1.0400364E-3,-5.2641696E-1,4.477985E-4,-0E0,-7.588789E-3,-0E0,1.0817038E-2],"split_indices":[15,12,1,13,0,15,0,14,0,1,0,0,0,0,0],"split_type":[0,0,0,0,0,0,0,0,0,0,0,0,0,0,0],"sum_hessian":[1.07E2,4.7E1,6E1,2.4E1,2.3E1,2.7E1,3.3E1,2.2E1,2E0,1E1,1.7E1,2E0,2E1,2E0,8E0],"tree_param":{"num_deleted":"0","num_feature":"16","num_nodes":"15","size_leaf_vector":"1"}},{"base_weights":[-4.5782947E-3,-1.4161201E-1,1.1478361E-1,-2.042972E-1,-4.1960465E-4,3.9733113E-3,-0E0,-7.8334985E-3,-7.2719547E-4],"categories":[],"categories_nodes":[],"categories_segments":[],"categories_sizes":[],"default_left":[0,0,0,0,0,0,0,0,0],"id":43,"left_children":[1,3,5,7,-1,-1,-1,-1,-1],"loss_changes":[1.907741E0,3.3384562E-1,3.0168504E-1,4.902618E-1,0E0,0E0,0E0,0E0,0E0],"parents":[2147483647,0,0,1,1,2,2,3,3],"right_children":[2,4,6,8,-1,-1,-1,-1,-1],"split_conditions":[-2.9773133E-2,-3.9527804E-1,9.569472E-1,7.879735E-1,-4.1960465E-4,3.9733113E-3,-0E0,-7.8334985E-3,-7.2719547E-4],"split_indices":[15,15,14,3,0,0,0,0,0],"split_type":[0,0,0,0,0,0,0,0,0],"sum_hessian":[1.09E2,5.2E1,5.7E1,3.1E1,2.1E1,4E1,1.7E1,1.6E1,1.5E1],"tree_param":{"num_deleted":"0","num_feature":"16","num_nodes":"9","size_leaf_vector":"1"}},{"base_weights":[-0E0,1.8292364E-3,-8.248212E-2,1.8319014E-1,-1.603324E-1,9.076623E-3,-0E0,-2.2234018E-1,-0E0,-2.5995603E-1,1.5464505E-3,-8.44346E-3,-0E0],"categories":[],"categories_nodes":[],"categories_segments":[],"categories_sizes":[],"default_left":[0,0,0,0,0,0,0,0,0,0,0,0,0],"id":44,"left_children":[1,-1,3,5,7,-1,-1,9,-1,11,-1,-1,-1],"loss_changes":[7.204466E-1,0E0,1.2829094E0,5.3557944E-1,4.350201E-1,0E0,0E0,4.9364734E-1,0E0,5.518997E-1,0E0,0E0,0E0],"parents":[2147483647,0,0,2,2,3,3,4,4,7,7,9,9],"right_children":[2,-1,4,6,8,-1,-1,10,-1,12,-1,-1,-1],"split_conditions":[-5.133591E-2,1.8292364E-3,-7.18105E-1,-2.460476E-1,5.0170225E-1,9.076623E-3,-0E0,1.3763736E0,-0E0,5.2287585E-1,1.5464505E-3,-8.44346E-3,-0E0],"split_indices":[3,0,14,1,13,0,0,14,0,9,0,0,0],"split_type":[0,0,0,0,0,0,0,0,0,0,0,0,0],"sum_hessian":[1.12E2,5.8E1,5.4E1,1E1,4.4E1,4E0,6E0,3E1,1.4E1,2.8E1,2E0,2E1,8E0],"tree_param":{"num_deleted":"0","num_feature":"16","num_nodes":"13","size_leaf_vector":"1"}},{"base_weights":[-4.841998E-3,2.1715388E-3,-1.0760712E-1,1.21507235E-1,-1.6478147E-1,7.147799E-3,-0E0,-2.2429138E-1,6.7099393E-4,-3.1771505E-1,-0E0,-8.823357E-3,-0E0],"categories":[],"categories_nodes":[],"categories_segments":[],"categories_sizes":[],"default_left":[0,0,0,0,0,0,0,0,0,0,0,0,0],"id":45,"left_children":[1,-1,3,5,7,-1,-1,9,-1,11,-1,-1,-1],"loss_changes":[1.1577479E0,0E0,8.668052E-1,3.4679657E-1,6.7592037E-1,0E0,0E0,7.385099E-1,0E0,4.004178E-1,0E0,0E0,0E0],"parents":[2147483647,0,0,2,2,3,3,4,4,7,7,9,9],"right_children":[2,-1,4,6,8,-1,-1,10,-1,12,-1,-1,-1],"split_conditions":[-2.0850202E-2,2.1715388E-3,-7.228419E-1,-3.6262342E-1,0E0,7.147799E-3,-0E0,8.124246E-1,6.7099393E-4,3.4490705E0,-0E0,-8.823357E-3,-0E0],"split_indices":[3,0,14,0,2,0,0,13,0,14,0,0,0],"split_type":[0,0,0,0,0,0,0,0,0,0,0,0,0],"sum_hessian":[1.15E2,5.9E1,5.6E1,9E0,4.7E1,3E0,6E0,3.7E1,1E1,2.4E1,1.3E1,2.2E1,2E0],"tree_param":{"num_deleted":"0","num_feature":"16","num_nodes":"13","size_leaf_vector":"1"}},{"base_weights":[2.3885744E-3,4.832233E-2,-1.23282656E-1,2.9174685E-1,5.411374E-3,-7.023718E-3,-1.9022542E-4,1.0247713E-2,-0E0,1.8987637E-3,-1.2052771E-1,1.7700683E-3,-2.4862412E-1,-9.485748E-3,-0E0],"categories":[],"categories_nodes":[],"categories_segments":[],"categories_sizes":[],"default_left":[0,0,0,0,0,0,0,0,0,0,0,0,0,0,0],"id":46,"left_children":[1,3,5,7,9,-1,-1,-1,-1,-1,11,-1,13,-1,-1],"loss_changes":[6.345059E-1,7.791536E-1,3.9687237E-1,2.8135073E-1,7.1157426E-1,0E0,0E0,0E0,0E0,0E0,8.067305E-1,0E0,6.5603006E-1,0E0,0E0],"parents":[2147483647,0,0,1,1,2,2,3,3,4,4,10,10,12,12],"right_children":[2,4,6,8,10,-1,-1,-1,-1,-1,12,-1,14,-1,-1],"split_conditions":[4.0096208E-1,-5.8731514E-1,-8.3333336E-2,-9.486773E-2,-3.557253E-2,-7.023718E-3,-1.9022542E-4,1.0247713E-2,-0E0,1.8987637E-3,-3.440571E-1,1.7700683E-3,-1.6666667E-1,-9.485748E-3,-0E0],"split_indices":[3,14,12,0,3,0,0,0,0,0,11,0,12,0,0],"split_type":[0,0,0,0,0,0,0,0,0,0,0,0,0,0,0],"sum_hessian":[1.08E2,8.3E1,2.5E1,8E0,7.5E1,7E0,1.8E1,4E0,4E0,5.1E1,2.4E1,9E0,1.5E1,9E0,6E0],"tree_param":{"num_deleted":"0","num_feature":"16","num_nodes":"15","size_leaf_vector":"1"}},{"base_weights":[-1.2422503E-3,-1.5485835E-1,2.7524908E-3,2.6771295E-4,-1.8630628E-1,-2.2753967E-1,-0E0,-7.3079774E-3,-4.1392926E-4],"categories":[],"categories_nodes":[],"categories_segments":[],"categories_sizes":[],"default_left":[0,0,0,0,0,0,0,0,0],"id":47,"left_children":[1,3,-1,-1,5,7,-1,-1,-1],"loss_changes":[2.053079E0,3.4536874E-1,0E0,0E0,2.586813E-1,3.446995E-1,0E0,0E0,0E0],"parents":[2147483647,0,0,1,1,4,4,5,5],"right_children":[2,4,-1,-1,6,8,-1,-1,-1],"split_conditions":[-6.8871714E-2,-8.188476E-1,2.7524908E-3,2.6771295E-4,8.124246E-1,6.535948E-2,-0E0,-7.3079774E-3,-4.1392926E-4],"split_indices":[15,14,0,0,13,9,0,0,0],"split_type":[0,0,0,0,0,0,0,0,0],"sum_hessian":[1.12E2,4.8E1,6.4E1,6E0,4.2E1,3.2E1,1E1,2.2E1,1E1],"tree_param":{"num_deleted":"0","num_feature":"16","num_nodes":"9","size_leaf_vector":"1"}},{"base_weights":[-2.600051E-2,-2.0983207E-1,1.0668138E-3,-8.429906E-3,-0E0],"categories":[],"categories_nodes":[],"categories_segments":[],"categories_sizes":[],"default_left":[0,0,0,0,0],"id":48,"left_children":[1,3,-1,-1,-1],"loss_changes":[1.5058099E0,7.8621674E-1,0E0,0E0,0E0],"parents":[2147483647,0,0,1,1],"right_children":[2,4,-1,-1,-1],"split_conditions":[-3.9376307E-1,1.5413257E-1,1.0668138E-3,-8.429906E-3,-0E0],"split_indices":[15,1,0,0,0],"split_type":[0,0,0,0,0],"sum_hessian":[1.08E2,2.9E1,7.9E1,1.6E1,1.3E1],"tree_param":{"num_deleted":"0","num_feature":"16","num_nodes":"5","size_leaf_vector":"1"}},{"base_weights":[-0E0,-2.2746392E-2,5.3809388E-3,-1.0375969E-1,4.3735962E-2,7.825596E-3,-2.4540254E-1,2.4584725E-3,-1.3551805E-3,-1.3879237E-1,3.572087E-3,-2.8026468E-1,-0E0,1.3899128E-3,-6.030145E-3,-0E0,-7.950905E-3],"categories":[],"categories_nodes":[],"categories_segments":[],"categories_sizes":[],"default_left":[0,0,0,0,0,0,0,0,0,0,0,0,0,0,0,0,0],"id":49,"left_children":[1,3,-1,5,7,9,11,-1,-1,13,-1,15,-1,-1,-1,-1,-1],"loss_changes":[5.852787E-1,5.8656704E-1,0E0,8.8411254E-1,3.331232E-1,6.5520185E-1,2.7356172E-1,0E0,0E0,4.0984586E-1,0E0,2.835784E-1,0E0,0E0,0E0,0E0,0E0],"parents":[2147483647,0,0,1,1,3,3,4,4,5,5,6,6,9,9,11,11],"right_children":[2,4,-1,6,8,10,12,-1,-1,14,-1,16,-1,-1,-1,-1,-1],"split_conditions":[1E0,-8.3333336E-2,5.3809388E-3,-2.9213482E-1,9.150327E-1,8.262131E-2,1E0,2.4584725E-3,-1.3551805E-3,-7.18105E-1,3.572087E-3,-4.30268E-1,-0E0,1.3899128E-3,-6.030145E-3,-0E0,-7.950905E-3],"split_indices":[5,12,0,7,9,14,4,0,0,14,0,1,0,0,0,0,0],"split_type":[0,0,0,0,0,0,0,0,0,0,0,0,0,0,0,0,0],"sum_hessian":[1.06E2,9.8E1,8E0,4.6E1,5.2E1,2.6E1,2E1,3.6E1,1.6E1,1.1E1,1.5E1,1.8E1,2E0,3E0,8E0,2E0,1.6E1],"tree_param":{"num_deleted":"0","num_feature":"16","num_nodes":"17","size_leaf_vector":"1"}},{"base_weights":[-7.324213E-5,-1.8313663E-1,1.8463526E-3,-7.424284E-3,-3.9795987E-4],"categories":[],"categories_nodes":[],"categories_segments":[],"categories_sizes":[],"default_left":[0,0,0,0,0],"id":50,"left_children":[1,3,-1,-1,-1],"loss_changes":[1.640625E0,5.3404963E-1,0E0,0E0,0E0],"parents":[2147483647,0,0,1,1],"right_children":[2,4,-1,-1,-1],"split_conditions":[-3.713583E-1,1.5413257E-1,1.8463526E-3,-7.424284E-3,-3.9795987E-4],"split_indices":[15,1,0,0,0],"split_type":[0,0,0,0,0],"sum_hessian":[1.11E2,3.2E1,7.9E1,1.6E1,1.6E1],"tree_param":{"num_deleted":"0","num_feature":"16","num_nodes":"5","size_leaf_vector":"1"}},{"base_weights":[-2.1817254E-2,-1.5524305E-1,7.814899E-2,-0E0,-2.0964396E-1,1.5262733E-1,-0E0,-3.036802E-1,-1.195544E-3,7.008535E-3,1.0038817E-3,-9.430707E-3,-0E0],"categories":[],"categories_nodes":[],"categories_segments":[],"categories_sizes":[],"default_left":[0,0,0,0,0,0,0,0,0,0,0,0,0],"id":51,"left_children":[1,3,5,-1,7,9,-1,11,-1,-1,-1,-1,-1],"loss_changes":[1.5871716E0,4.0697634E-1,3.337699E-1,0E0,3.7921345E-1,2.8487545E-1,0E0,5.0750494E-1,0E0,0E0,0E0,0E0,0E0],"parents":[2147483647,0,0,1,1,2,2,4,4,5,5,7,7],"right_children":[2,4,6,-1,8,10,-1,12,-1,-1,-1,-1,-1],"split_conditions":[-5.310812E-2,-6.1133295E-1,-2.0689137E-2,-0E0,-3.713583E-1,3.1268972E-1,-0E0,5.1588446E-1,-1.195544E-3,7.008535E-3,1.0038817E-3,-9.430707E-3,-0E0],"split_indices":[15,15,1,0,15,15,0,0,0,0,0,0,0],"split_type":[0,0,0,0,0,0,0,0,0,0,0,0,0],"sum_hessian":[1.1E2,4.8E1,6.2E1,1.4E1,3.4E1,2.8E1,3.4E1,1.8E1,1.6E1,9E0,1.9E1,1.4E1,4E0],"tree_param":{"num_deleted":"0","num_feature":"16","num_nodes":"13","size_leaf_vector":"1"}},{"base_weights":[7.1190484E-3,-1.7479843E-1,2.138376E-3,-7.124582E-3,-0E0],"categories":[],"categories_nodes":[],"categories_segments":[],"categories_sizes":[],"default_left":[0,0,0,0,0],"id":52,"left_children":[1,3,-1,-1,-1],"loss_changes":[1.6214638E0,5.601262E-1,0E0,0E0,0E0],"parents":[2147483647,0,0,1,1],"right_children":[2,4,-1,-1,-1],"split_conditions":[-3.713583E-1,6.5249175E-1,2.138376E-3,-7.124582E-3,-0E0],"split_indices":[15,3,0,0,0],"split_type":[0,0,0,0,0],"sum_hessian":[1.09E2,3E1,7.9E1,1.6E1,1.4E1],"tree_param":{"num_deleted":"0","num_feature":"16","num_nodes":"5","size_leaf_vector":"1"}},{"base_weights":[-6.6017886E-3,-2.0744826E-1,7.768915E-2,4.452143E-5,-6.338888E-3,1.2516385E-1,-0E0,7.817765E-3,7.001085E-2,-1.7368693E-3,2.7500005E-3],"categories":[],"categories_nodes":[],"categories_segments":[],"categories_sizes":[],"default_left":[0,0,0,0,0,0,0,0,0,0,0],"id":53,"left_children":[1,3,5,-1,-1,7,-1,-1,9,-1,-1],"loss_changes":[2.0636728E0,4.544052E-1,3.401931E-1,0E0,0E0,3.2367688E-1,0E0,0E0,3.0790874E-1,0E0,0E0],"parents":[2147483647,0,0,1,1,2,2,5,5,8,8],"right_children":[2,4,6,-1,-1,8,-1,-1,10,-1,-1],"split_conditions":[-3.713583E-1,-8.312152E-1,5.033229E-1,4.452143E-5,-6.338888E-3,-1.8055555E-1,-0E0,7.817765E-3,-2.0224719E-1,-1.7368693E-3,2.7500005E-3],"split_indices":[15,14,14,0,0,2,0,0,7,0,0],"split_type":[0,0,0,0,0,0,0,0,0,0,0],"sum_hessian":[1.12E2,3.3E1,7.9E1,5E0,2.8E1,5E1,2.9E1,6E0,4.4E1,7E0,3.7E1],"tree_param":{"num_deleted":"0","num_feature":"16","num_nodes":"11","size_leaf_vector":"1"}},{"base_weights":[-2.7840374E-2,-1.4121744E-1,1.5185347E-3,-5.829074E-3,-2.1467354E-4],"categories":[],"categories_nodes":[],"categories_segments":[],"categories_sizes":[],"default_left":[0,0,0,0,0],"id":54,"left_children":[1,3,-1,-1,-1],"loss_changes":[1.1719794E0,5.243236E-1,0E0,0E0,0E0],"parents":[2147483647,0,0,1,1],"right_children":[2,4,-1,-1,-1],"split_conditions":[-6.8871714E-2,-8.3333336E-2,1.5185347E-3,-5.829074E-3,-2.1467354E-4],"split_indices":[15,12,0,0,0],"split_type":[0,0,0,0,0],"sum_hessian":[1.07E2,4.8E1,5.9E1,2.5E1,2.3E1],"tree_param":{"num_deleted":"0","num_feature":"16","num_nodes":"5","size_leaf_vector":"1"}},{"base_weights":[-1.1673331E-2,-1.3917004E-1,5.730527E-2,-5.7907263E-3,-4.2077896E-4,2.0146572E-3,-2.0554608E-3],"categories":[],"categories_nodes":[],"categories_segments":[],"categories_sizes":[],"default_left":[0,0,0,0,0,0,0],"id":55,"left_children":[1,3,5,-1,-1,-1,-1],"loss_changes":[1.0236617E0,3.5639107E-1,2.5478715E-1,0E0,0E0,0E0,0E0],"parents":[2147483647,0,0,1,1,2,2],"right_children":[2,4,6,-1,-1,-1,-1],"split_conditions":[-1.8698455E-1,-1.5651876E-1,2.5662563E0,-5.7907263E-3,-4.2077896E-4,2.0146572E-3,-2.0554608E-3],"split_indices":[15,8,0,0,0,0,0],"split_type":[0,0,0,0,0,0,0],"sum_hessian":[1.06E2,3.8E1,6.8E1,1.8E1,2E1,6.2E1,6E0],"tree_param":{"num_deleted":"0","num_feature":"16","num_nodes":"7","size_leaf_vector":"1"}},{"base_weights":[-1.6761338E-2,-2.1735245E-1,6.34712E-2,-9.138863E-3,-1.0683815E-3,2.3322569E-3,-9.734561E-4],"categories":[],"categories_nodes":[],"categories_segments":[],"categories_sizes":[],"default_left":[0,0,0,0,0,0,0],"id":56,"left_children":[1,3,5,-1,-1,-1,-1],"loss_changes":[1.9847804E0,7.0069826E-1,2.92497E-1,0E0,0E0,0E0,0E0],"parents":[2147483647,0,0,1,1,2,2],"right_children":[2,4,6,-1,-1,-1,-1],"split_conditions":[-3.713583E-1,-1.5277778E-1,1.0196079E0,-9.138863E-3,-1.0683815E-3,2.3322569E-3,-9.734561E-4],"split_indices":[15,2,9,0,0,0,0],"split_type":[0,0,0,0,0,0,0],"sum_hessian":[1.13E2,3.2E1,8.1E1,1.4E1,1.8E1,6.6E1,1.5E1],"tree_param":{"num_deleted":"0","num_feature":"16","num_nodes":"7","size_leaf_vector":"1"}},{"base_weights":[-9.958363E-3,-9.339632E-2,1.0527888E-3,5.5337746E-2,-3.1099474E-1,1.24944516E-1,-3.0255208E-3,-0E0,-8.968005E-3,-0E0,7.408584E-3,-4.376709E-3,2.338052E-3],"categories":[],"categories_nodes":[],"categories_segments":[],"categories_sizes":[],"default_left":[0,0,0,0,0,0,0,0,0,0,0,0,0],"id":57,"left_children":[1,3,-1,5,7,9,-1,-1,-1,11,-1,-1,-1],"loss_changes":[5.1435876E-1,1.6674368E0,0E0,4.1662723E-1,3.978696E-1,5.396308E-1,0E0,0E0,0E0,3.479431E-1,0E0,0E0,0E0],"parents":[2147483647,0,0,1,1,3,3,4,4,5,5,9,9],"right_children":[2,4,-1,6,8,10,-1,-1,-1,12,-1,-1,-1],"split_conditions":[-8.3333336E-2,-3.8399488E-1,1.0527888E-3,4.0096208E-1,-4.30268E-1,-4.801141E-1,-3.0255208E-3,-0E0,-8.968005E-3,8.262131E-2,7.408584E-3,-4.376709E-3,2.338052E-3],"split_indices":[12,11,0,3,1,1,0,0,0,14,0,0,0],"split_type":[0,0,0,0,0,0,0,0,0,0,0,0,0],"sum_hessian":[1.07E2,4.3E1,6.4E1,2.6E1,1.7E1,2.1E1,5E0,2E0,1.5E1,1.4E1,7E0,4E0,1E1],"tree_param":{"num_deleted":"0","num_feature":"16","num_nodes":"13","size_leaf_vector":"1"}},{"base_weights":[2.112734E-2,-1.4819321E-1,9.793866E-2,-2.0860806E-1,1.6491847E-4,2.2934577E-1,3.3511676E-2,-0E0,-2.8276783E-1,1.1958823E-3,8.380297E-3,-2.780507E-3,1.6645783E-3,-8.397709E-3,-0E0],"categories":[],"categories_nodes":[],"categories_segments":[],"categories_sizes":[],"default_left":[0,0,0,0,0,0,0,0,0,0,0,0,0,0,0],"id":58,"left_children":[1,3,5,7,-1,9,11,-1,13,-1,-1,-1,-1,-1,-1],"loss_changes":[1.5198532E0,4.176032E-1,5.664154E-1,3.6244786E-1,0E0,2.6144588E-1,3.0243358E-1,0E0,3.025937E-1,0E0,0E0,0E0,0E0,0E0,0E0],"parents":[2147483647,0,0,1,1,2,2,3,3,5,5,6,6,8,8],"right_children":[2,4,6,8,-1,10,12,-1,14,-1,-1,-1,-1,-1,-1],"split_conditions":[-3.713583E-1,9.432137E-1,-3.3234182E-1,-6.374457E-1,1.6491847E-4,-5.4053813E-1,-2.5977027E-1,-0E0,5.1588446E-1,1.1958823E-3,8.380297E-3,-2.780507E-3,1.6645783E-3,-8.397709E-3,-0E0],"split_indices":[15,3,0,15,0,3,1,0,0,0,0,0,0,0,0],"split_type":[0,0,0,0,0,0,0,0,0,0,0,0,0,0,0],"sum_hessian":[1.11E2,3.2E1,7.9E1,2.4E1,8E0,2.1E1,5.8E1,8E0,1.6E1,1.1E1,1E1,7E0,5.1E1,1.3E1,3E0],"tree_param":{"num_deleted":"0","num_feature":"16","num_nodes":"15","size_leaf_vector":"1"}},{"base_weights":[-4.7727353E-3,-1.9765761E-1,1.7683674E-3,-2.75828E-1,-0E0,-9.2833275E-3,-5.581025E-2,3.5911717E-3,-4.49449E-3],"categories":[],"categories_nodes":[],"categories_segments":[],"categories_sizes":[],"default_left":[0,0,0,0,0,0,0,0,0],"id":59,"left_children":[1,3,-1,5,-1,-1,7,-1,-1],"loss_changes":[1.7090523E0,4.7910964E-1,0E0,2.50409E-1,0E0,0E0,4.1392192E-1,0E0,0E0],"parents":[2147483647,0,0,1,1,3,3,6,6],"right_children":[2,4,-1,6,-1,-1,8,-1,-1],"split_conditions":[-3.713583E-1,7.879735E-1,1.7683674E-3,8.262131E-2,-0E0,-9.2833275E-3,-1.8055555E-1,3.5911717E-3,-4.49449E-3],"split_indices":[15,3,0,14,0,0,2,0,0],"split_type":[0,0,0,0,0,0,0,0,0],"sum_hessian":[1.07E2,3E1,7.7E1,2E1,1E1,1.1E1,9E0,2E0,7E0],"tree_param":{"num_deleted":"0","num_feature":"16","num_nodes":"9","size_leaf_vector":"1"}},{"base_weights":[-1.1434406E-2,-3.0623993E-3,8.6110756E-2,1.9588713E-1,3.0844388E-4,3.3849514E-1,-0E0,-0E0,1.0362833E-2],"categories":[],"categories_nodes":[],"categories_segments":[],"categories_sizes":[],"default_left":[0,0,0,0,0,0,0,0,0],"id":60,"left_children":[1,-1,3,5,-1,7,-1,-1,-1],"loss_changes":[1.2594101E0,0E0,3.901139E-1,4.926651E-1,0E0,3.146441E-1,0E0,0E0,0E0],"parents":[2147483647,0,0,2,2,3,3,5,5],"right_children":[2,-1,4,6,-1,8,-1,-1,-1],"split_conditions":[-5.310812E-2,-3.0623993E-3,2.6163575E-1,-9.486773E-2,3.0844388E-4,-4.2096794E-1,-0E0,-0E0,1.0362833E-2],"split_indices":[15,0,15,0,0,0,0,0,0],"split_type":[0,0,0,0,0,0,0,0,0],"sum_hessian":[1.08E2,5.2E1,5.6E1,1.8E1,3.8E1,8E0,1E1,2E0,6E0],"tree_param":{"num_deleted":"0","num_feature":"16","num_nodes":"9","size_leaf_vector":"1"}},{"base_weights":[-2.1970144E-2,-1.6912141E-1,4.3578558E-2,-5.971524E-3,-3.06362E-5,1.3287848E-1,-0E0,1.4876659E-4,2.8621352E-1,-5.1454897E-3,6.1630626E-4,9.605345E-3,-0E0],"categories":[],"categories_nodes":[],"categories_segments":[],"categories_sizes":[],"default_left":[0,0,0,0,0,0,0,0,0,0,0,0,0],"id":61,"left_children":[1,3,5,-1,-1,7,9,-1,11,-1,-1,-1,-1],"loss_changes":[1.1997218E0,3.5373688E-1,3.1312644E-1,0E0,0E0,3.9292905E-1,3.0908027E-1,0E0,3.946312E-1,0E0,0E0,0E0,0E0],"parents":[2147483647,0,0,1,1,2,2,5,5,6,6,8,8],"right_children":[2,4,6,-1,-1,8,10,-1,12,-1,-1,-1,-1],"split_conditions":[-3.713583E-1,3.949253E-1,-3.4510922E-1,-5.971524E-3,-3.06362E-5,-4.3991223E-1,-3.1807876E-1,1.4876659E-4,-3.3234182E-1,-5.1454897E-3,6.1630626E-4,9.605345E-3,-0E0],"split_indices":[15,1,1,0,0,0,0,0,0,0,0,0,0],"split_type":[0,0,0,0,0,0,0,0,0,0,0,0,0],"sum_hessian":[1.13E2,3.5E1,7.8E1,2.2E1,1.3E1,2.3E1,5.5E1,1.6E1,7E0,3E0,5.2E1,5E0,2E0],"tree_param":{"num_deleted":"0","num_feature":"16","num_nodes":"13","size_leaf_vector":"1"}},{"base_weights":[5.0752377E-3,-8.634309E-2,7.720664E-2,6.211232E-4,-1.4235471E-1,3.1674379E-3,-1.846981E-4,-2.6461995E-1,-1.6861472E-4,1.106288E-4,-8.259599E-3],"categories":[],"categories_nodes":[],"categories_segments":[],"categories_sizes":[],"default_left":[0,0,0,0,0,0,0,0,0,0,0],"id":62,"left_children":[1,3,5,-1,7,-1,-1,9,-1,-1,-1],"loss_changes":[7.4173474E-1,3.5520422E-1,3.2522604E-1,0E0,4.5723146E-1,0E0,0E0,4.2744303E-1,0E0,0E0,0E0],"parents":[2147483647,0,0,1,1,2,2,4,4,7,7],"right_children":[2,4,6,-1,8,-1,-1,10,-1,-1,-1],"split_conditions":[2.4286933E-2,-3.2058856E-1,6.013072E-1,6.211232E-4,-1.25E-1,3.1674379E-3,-1.846981E-4,-4.2096794E-1,-1.6861472E-4,1.106288E-4,-8.259599E-3],"split_indices":[15,11,9,0,12,0,0,0,0,0,0],"split_type":[0,0,0,0,0,0,0,0,0,0,0],"sum_hessian":[1.06E2,4.4E1,6.2E1,1.3E1,3.1E1,4.1E1,2.1E1,1.3E1,1.8E1,2E0,1.1E1],"tree_param":{"num_deleted":"0","num_feature":"16","num_nodes":"11","size_leaf_vector":"1"}},{"base_weights":[-1.1128317E-2,-1.5892288E-1,2.634455E-3,4.2539547E-4,-1.9150756E-1,2.1252455E-4,-5.2538523E-3],"categories":[],"categories_nodes":[],"categories_segments":[],"categories_sizes":[],"default_left":[0,0,0,0,0,0,0],"id":63,"left_children":[1,3,-1,-1,5,-1,-1],"loss_changes":[2.017173E0,3.821795E-1,0E0,0E0,2.6033413E-1,0E0,0E0],"parents":[2147483647,0,0,1,1,4,4],"right_children":[2,4,-1,-1,6,-1,-1],"split_conditions":[-6.8871714E-2,-8.188476E-1,2.634455E-3,4.2539547E-4,-1.009794E-1,2.1252455E-4,-5.2538523E-3],"split_indices":[15,14,0,0,3,0,0],"split_type":[0,0,0,0,0,0,0],"sum_hessian":[1.09E2,4.9E1,6E1,6E0,4.3E1,2E0,4.1E1],"tree_param":{"num_deleted":"0","num_feature":"16","num_nodes":"7","size_leaf_vector":"1"}},{"base_weights":[-2.0064007E-2,-1.7368987E-1,4.6576407E-2,-5.495304E-3,-0E0,1.2746622E-1,-0E0,5.086757E-4,2.5259024E-1,-0E0,8.3393995E-3],"categories":[],"categories_nodes":[],"categories_segments":[],"categories_sizes":[],"default_left":[0,0,0,0,0,0,0,0,0,0,0],"id":64,"left_children":[1,3,5,-1,-1,7,-1,-1,9,-1,-1],"loss_changes":[1.2616132E0,2.9405642E-1,3.3499753E-1,0E0,0E0,2.950372E-1,0E0,0E0,2.5957006E-1,0E0,0E0],"parents":[2147483647,0,0,1,1,2,2,5,5,8,8],"right_children":[2,4,6,-1,-1,8,-1,-1,10,-1,-1],"split_conditions":[-3.713583E-1,8.124246E-1,-3.4510922E-1,-5.495304E-3,-0E0,-4.801141E-1,-0E0,5.086757E-4,-1.5698962E-1,-0E0,8.3393995E-3],"split_indices":[15,13,1,0,0,1,0,0,15,0,0],"split_type":[0,0,0,0,0,0,0,0,0,0,0],"sum_hessian":[1.12E2,3.4E1,7.8E1,2.6E1,8E0,2.8E1,5E1,1.9E1,9E0,3E0,6E0],"tree_param":{"num_deleted":"0","num_feature":"16","num_nodes":"11","size_leaf_vector":"1"}},{"base_weights":[-2.0608379E-2,-1.25141E-1,5.6496684E-2,-1.6507104E-1,9.074043E-4,1.4946093E-1,-0E0,-5.7327966E-3,-0E0,2.897779E-1,-0E0,-0E0,9.131237E-3],"categories":[],"categories_nodes":[],"categories_segments":[],"categories_sizes":[],"default_left":[0,0,0,0,0,0,0,0,0,0,0,0,0],"id":65,"left_children":[1,3,5,7,-1,9,-1,-1,-1,11,-1,-1,-1],"loss_changes":[9.1059226E-1,3.851204E-1,2.8397894E-1,3.6783135E-1,0E0,4.014187E-1,0E0,0E0,0E0,2.5226313E-1,0E0,0E0,0E0],"parents":[2147483647,0,0,1,1,2,2,3,3,5,5,9,9],"right_children":[2,4,6,8,-1,10,-1,-1,-1,12,-1,-1,-1],"split_conditions":[-6.8871714E-2,1.1637957E0,2.5628498E-1,7.8431375E-2,9.074043E-4,-1.5252957E-1,-0E0,-5.7327966E-3,-0E0,-4.2096794E-1,-0E0,-0E0,9.131237E-3],"split_indices":[15,13,15,9,0,0,0,0,0,0,0,0,0],"split_type":[0,0,0,0,0,0,0,0,0,0,0,0,0],"sum_hessian":[1.03E2,4.5E1,5.8E1,3.8E1,7E0,1.8E1,4E1,2.5E1,1.3E1,7E0,1.1E1,2E0,5E0],"tree_param":{"num_deleted":"0","num_feature":"16","num_nodes":"13","size_leaf_vector":"1"}},{"base_weights":[-0E0,-1.22539416E-1,7.578511E-2,-5.492934E-3,-0E0,1.3863799E-1,1.4973296E-4,2.5190327E-3,-2.3419105E-3,7.0293E-3,1.7391732E-4],"categories":[],"categories_nodes":[],"categories_segments":[],"categories_sizes":[],"default_left":[0,0,0,0,0,0,0,0,0,0,0],"id":66,"left_children":[1,3,5,-1,7,9,-1,-1,-1,-1,-1],"loss_changes":[1.1053624E0,4.9953127E-1,2.616776E-1,0E0,2.6292723E-1,5.4420424E-1,0E0,0E0,0E0,0E0,0E0],"parents":[2147483647,0,0,1,1,2,2,4,4,5,5],"right_children":[2,4,6,-1,8,10,-1,-1,-1,-1,-1],"split_conditions":[-6.8871714E-2,-1.3008194E-1,-6.374897E-2,-5.492934E-3,-1.3071896E-1,3.1268972E-1,1.4973296E-4,2.5190327E-3,-2.3419105E-3,7.0293E-3,1.7391732E-4],"split_indices":[15,8,1,0,9,15,0,0,0,0,0],"split_type":[0,0,0,0,0,0,0,0,0,0,0],"sum_hessian":[1.12E2,4.2E1,7E1,2.1E1,2.1E1,3.2E1,3.8E1,9E0,1.2E1,1.2E1,2E1],"tree_param":{"num_deleted":"0","num_feature":"16","num_nodes":"11","size_leaf_vector":"1"}},{"base_weights":[-2.3033744E-2,-1.5297094E-1,6.865523E-2,-5.5608503E-3,-3.0771625E-5,1.358758E-1,-0E0,6.915033E-3,5.9409306E-4],"categories":[],"categories_nodes":[],"categories_segments":[],"categories_sizes":[],"default_left":[0,0,0,0,0,0,0,0,0],"id":67,"left_children":[1,3,5,-1,-1,7,-1,-1,-1],"loss_changes":[1.4703566E0,4.5240295E-1,2.724316E-1,0E0,0E0,3.6960167E-1,0E0,0E0,0E0],"parents":[2147483647,0,0,1,1,2,2,5,5],"right_children":[2,4,6,-1,-1,8,-1,-1,-1],"split_conditions":[-6.8871714E-2,1.5413257E-1,-2.0689137E-2,-5.5608503E-3,-3.0771625E-5,3.1268972E-1,-0E0,6.915033E-3,5.9409306E-4],"split_indices":[15,1,1,0,0,15,0,0,0],"split_type":[0,0,0,0,0,0,0,0,0],"sum_hessian":[1.14E2,4.8E1,6.6E1,3E1,1.8E1,2.9E1,3.7E1,9E0,2E1],"tree_param":{"num_deleted":"0","num_feature":"16","num_nodes":"9","size_leaf_vector":"1"}},{"base_weights":[-1.1435225E-2,-1.5933765E-1,4.2304598E-2,-2.789228E-1,-0E0,8.884485E-2,-7.713007E-4,-0E0,-8.688234E-3,2.1155046E-1,3.4115437E-2,3.4091023E-3,-4.1585173E-3,-0E0,7.3050554E-3,-2.3707214E-3,2.0285228E-3],"categories":[],"categories_nodes":[],"categories_segments":[],"categories_sizes":[],"default_left":[0,0,0,0,0,0,0,0,0,0,0,0,0,0,0,0,0],"id":68,"left_children":[1,3,5,7,-1,9,-1,11,-1,13,15,-1,-1,-1,-1,-1,-1],"loss_changes":[9.8842865E-1,7.44343E-1,3.23895E-1,2.771808E-1,0E0,2.559054E-1,0E0,2.8212336E-1,0E0,3.329674E-1,2.9735243E-1,0E0,0E0,0E0,0E0,0E0,0E0],"parents":[2147483647,0,0,1,1,2,2,3,3,5,5,7,7,9,9,10,10],"right_children":[2,4,6,8,-1,10,-1,12,-1,14,16,-1,-1,-1,-1,-1,-1],"split_conditions":[-3.713583E-1,7.8431375E-2,5.033229E-1,-5.7932585E-1,-0E0,-3.4510922E-1,-7.713007E-4,-4.315323E-1,-8.688234E-3,-4.801141E-1,-2.5977027E-1,3.4091023E-3,-4.1585173E-3,-0E0,7.3050554E-3,-2.3707214E-3,2.0285228E-3],"split_indices":[15,9,14,1,0,1,0,15,0,1,1,0,0,0,0,0,0],"split_type":[0,0,0,0,0,0,0,0,0,0,0,0,0,0,0,0,0],"sum_hessian":[1.12E2,3E1,8.2E1,1.7E1,1.3E1,5.3E1,2.9E1,5E0,1.2E1,1.1E1,4.2E1,2E0,3E0,3E0,8E0,8E0,3.4E1],"tree_param":{"num_deleted":"0","num_feature":"16","num_nodes":"17","size_leaf_vector":"1"}},{"base_weights":[-7.910993E-3,2.310658E-2,-2.803842E-3,-0E0,5.052159E-3,7.8273955E-4,-1.3539481E-1,-5.530802E-3,1.5183161E-4],"categories":[],"categories_nodes":[],"categories_segments":[],"categories_sizes":[],"default_left":[0,0,0,0,0,0,0,0,0],"id":69,"left_children":[1,3,-1,5,-1,-1,7,-1,-1],"loss_changes":[4.246083E-1,3.396503E-1,0E0,3.5521322E-1,0E0,0E0,2.7898628E-1,0E0,0E0],"parents":[2147483647,0,0,1,1,3,3,6,6],"right_children":[2,4,-1,6,-1,-1,8,-1,-1],"split_conditions":[4.2871076E-1,3.1941578E-1,-2.803842E-3,1.4304903E-1,5.052159E-3,7.8273955E-4,1.4812024E-2,-5.530802E-3,1.5183161E-4],"split_indices":[3,3,0,3,0,0,13,0,0],"split_type":[0,0,0,0,0,0,0,0,0],"sum_hessian":[1.14E2,8.7E1,2.7E1,8.1E1,6E0,6.9E1,1.2E1,8E0,4E0],"tree_param":{"num_deleted":"0","num_feature":"16","num_nodes":"9","size_leaf_vector":"1"}},{"base_weights":[-1.7936846E-2,-1.3686939E-1,7.9858274E-4,-5.970524E-3,-0E0],"categories":[],"categories_nodes":[],"categories_segments":[],"categories_sizes":[],"default_left":[0,0,0,0,0],"id":70,"left_children":[1,3,-1,-1,-1],"loss_changes":[6.890705E-1,4.088593E-1,0E0,0E0,0E0],"parents":[2147483647,0,0,1,1],"right_children":[2,4,-1,-1,-1],"split_conditions":[-3.713583E-1,5.857867E-1,7.9858274E-4,-5.970524E-3,-0E0],"split_indices":[15,3,0,0,0],"split_type":[0,0,0,0,0],"sum_hessian":[1.03E2,3.1E1,7.2E1,1.5E1,1.6E1],"tree_param":{"num_deleted":"0","num_feature":"16","num_nodes":"5","size_leaf_vector":"1"}},{"base_weights":[-8.725056E-3,-3.187484E-2,4.439024E-3,5.085729E-4,-1.1163185E-1,-2.0595539E-1,-0E0,-0E0,-6.9342353E-3],"categories":[],"categories_nodes":[],"categories_segments":[],"categories_sizes":[],"default_left":[0,0,0,0,0,0,0,0,0],"id":71,"left_children":[1,3,-1,-1,5,7,-1,-1,-1],"loss_changes":[4.639385E-1,4.9633718E-1,0E0,0E0,4.1734648E-1,2.7259344E-1,0E0,0E0,0E0],"parents":[2147483647,0,0,1,1,4,4,5,5],"right_children":[2,4,-1,-1,6,8,-1,-1,-1],"split_conditions":[1E0,1.7977504E-1,4.439024E-3,5.085729E-4,-1.25E-1,-5.7932585E-1,-0E0,-0E0,-6.9342353E-3],"split_indices":[5,3,0,0,12,1,0,0,0],"split_type":[0,0,0,0,0,0,0,0,0],"sum_hessian":[1.13E2,1.05E2,8E0,6.2E1,4.3E1,2E1,2.3E1,7E0,1.3E1],"tree_param":{"num_deleted":"0","num_feature":"16","num_nodes":"9","size_leaf_vector":"1"}},{"base_weights":[7.5881034E-3,-8.7602094E-2,9.801587E-2,-1.3622E-1,-0E0,2.1186551E-1,2.4663609E-2,-5.1432285E-3,2.764836E-4,9.765767E-4,8.54451E-3,-1.7192224E-3,2.558055E-3],"categories":[],"categories_nodes":[],"categories_segments":[],"categories_sizes":[],"default_left":[0,0,0,0,0,0,0,0,0,0,0,0,0],"id":72,"left_children":[1,3,5,7,-1,9,11,-1,-1,-1,-1,-1,-1],"loss_changes":[1.0025995E0,2.776058E-1,4.0069395E-1,4.6972835E-1,0E0,2.8360075E-1,3.5367826E-1,0E0,0E0,0E0,0E0,0E0,0E0],"parents":[2147483647,0,0,1,1,2,2,3,3,5,5,6,6],"right_children":[2,4,6,8,-1,10,12,-1,-1,-1,-1,-1,-1],"split_conditions":[-6.8871714E-2,5.857867E-1,-1.5277778E-1,1.219001E-1,-0E0,-4.918932E-1,4.877287E-1,-5.1432285E-3,2.764836E-4,9.765767E-4,8.54451E-3,-1.7192224E-3,2.558055E-3],"split_indices":[15,3,2,8,0,0,11,0,0,0,0,0,0],"split_type":[0,0,0,0,0,0,0,0,0,0,0,0,0],"sum_hessian":[1.09E2,5.1E1,5.8E1,3.4E1,1.7E1,1.8E1,4E1,2.4E1,1E1,1.1E1,7E0,1.6E1,2.4E1],"tree_param":{"num_deleted":"0","num_feature":"16","num_nodes":"13","size_leaf_vector":"1"}}]},"name":"gbtree"},"learner_model_param":{"base_score":"8.99933E0","boost_from_average":"1","num_class":"0","num_feature":"16","num_target":"1"},"objective":{"name":"reg:squarederror","reg_loss_param":{"scale_pos_weight":"1"}}},"version":[3,0,0]}