{"learner":{"attributes":{"best_iteration":"66","best_score":"0.37216817631441"},"feature_names":[],"feature_types":[],"gradient_booster":{"model":{"gbtree_model_param":{"num_parallel_tree":"1","num_trees":"77"},"iteration_indptr":[0,1,2,3,4,5,6,7,8,9,10,11,12,13,14,15,16,17,18,19,20,21,22,23,24,25,26,27,28,29,30,31,32,33,34,35,36,37,38,39,40,41,42,43,44,45,46,47,48,49,50,51,52,53,54,55,56,57,58,59,60,61,62,63,64,65,66,67,68,69,70,71,72,73,74,75,76,77],"tree_info":[0,0,0,0,0,0,0,0,0,0,0,0,0,0,0,0,0,0,0,0,0,0,0,0,0,0,0,0,0,0,0,0,0,0,0,0,0,0,0,0,0,0,0,0,0,0,0,0,0,0,0,0,0,0,0,0,0,0,0,0,0,0,0,0,0,0,0,0,0,0,0,0,0,0,0,0,0],"trees":[{"base_weights":[8.55351E-3,-3.1585687E-1,2.0729612E-1,-5.1708525E-1,-5.221744E-4,-0E0,2.5492162E-1,-0E0,-6.710806E-1,-5.1618125E-3,1.723732E-1,6.8052867E-3,-4.618757E-4,-1.4494234E-4,-1.9164223E-2,-0E0,8.18076E-3],"categories":[],"categories_nodes":[],"categories_segments":[],"categories_sizes":[],"default_left":[0,0,0,0,0,0,0,0,0,0,0,0,0,0,0,0,0],"id":0,"left_children":[1,3,5,7,-1,9,11,-1,13,-1,15,-1,-1,-1,-1,-1,-1],"loss_changes":[7.632507E0,2.3883662E0,7.3020387E-1,1.9636917E0,0E0,7.466875E-1,4.0507913E-1,0E0,9.1426945E-1,0E0,3.5432425E-1,0E0,0E0,0E0,0E0,0E0,0E0],"parents":[2147483647,0,0,1,1,2,2,3,3,5,5,6,6,8,8,10,10],"right_children":[2,4,6,8,-1,10,12,-1,14,-1,16,-1,-1,-1,-1,-1,-1],"split_conditions":[-2.2641447E-1,-1.6666667E-1,-2.4121096E-2,-3.8399488E-1,-5.221744E-4,1.0180282E-1,3.4068313E0,-0E0,-1.8055555E-1,-5.1618125E-3,1.6488512E-1,6.8052867E-3,-4.618757E-4,-1.4494234E-4,-1.9164223E-2,-0E0,8.18076E-3],"split_indices":[15,12,15,11,0,13,1,0,2,0,3,0,0,0,0,0,0],"split_type":[0,0,0,0,0,0,0,0,0,0,0,0,0,0,0,0,0],"sum_hessian":[1.12E2,4.1E1,7.1E1,2.2E1,1.9E1,1.4E1,5.7E1,6E0,1.6E1,6E0,8E0,5.5E1,2E0,3E0,1.3E1,5E0,3E0],"tree_param":{"num_deleted":"0","num_feature":"16","num_nodes":"17","size_leaf_vector":"1"}},{"base_weights":[1.7903855E-2,-3.1741756E-1,2.1449937E-1,-0E0,-4.935463E-1,6.617558E-3,-0E0,-1.7217316E-2,-1.2476517E-1,1.64077E-3,-2.5726914E-1,-1.0084358E-2,-0E0],"categories":[],"categories_nodes":[],"categories_segments":[],"categories_sizes":[],"default_left":[0,0,0,0,0,0,0,0,0,0,0,0,0],"id":1,"left_children":[1,3,5,-1,7,-1,-1,-1,9,-1,11,-1,-1],"loss_changes":[7.4815903E0,2.5173812E0,8.3328223E-1,0E0,1.352953E0,0E0,0E0,0E0,5.015613E-1,0E0,5.253634E-1,0E0,0E0],"parents":[2147483647,0,0,1,1,2,2,4,4,8,8,10,10],"right_children":[2,4,6,-1,8,-1,-1,-1,10,-1,12,-1,-1],"split_conditions":[-2.2641447E-1,-5.828051E-1,1.0196079E0,-0E0,-3.713583E-1,6.617558E-3,-0E0,-1.7217316E-2,-3.389845E-1,1.64077E-3,-1.6666667E-1,-1.0084358E-2,-0E0],"split_indices":[15,15,9,0,15,0,0,0,15,0,2,0,0],"split_type":[0,0,0,0,0,0,0,0,0,0,0,0,0],"sum_hessian":[1.07E2,3.8E1,6.9E1,1.4E1,2.4E1,5.6E1,1.3E1,1.3E1,1.1E1,4E0,7E0,4E0,3E0],"tree_param":{"num_deleted":"0","num_feature":"16","num_nodes":"13","size_leaf_vector":"1"}},{"base_weights":[-6.3537946E-3,-4.0399677E-1,2.100814E-1,-6.3488835E-1,-1.6813839E-3,5.6805806E-3,-7.5152324E-4,-1.77728E-2,-0E0],"categories":[],"categories_nodes":[],"categories_segments":[],"categories_sizes":[],"default_left":[0,0,0,0,0,0,0,0,0],"id":2,"left_children":[1,3,5,7,-1,-1,-1,-1,-1],"loss_changes":[1.0056812E1,2.796351E0,4.094491E-1,8.881588E-1,0E0,0E0,0E0,0E0,0E0],"parents":[2147483647,0,0,1,1,2,2,3,3],"right_children":[2,4,6,8,-1,-1,-1,-1,-1],"split_conditions":[-2.2641447E-1,-1.6666667E-1,2.55152E0,5.0170225E-1,-1.6813839E-3,5.6805806E-3,-7.5152324E-4,-1.77728E-2,-0E0],"split_indices":[15,12,1,13,0,0,0,0,0],"split_type":[0,0,0,0,0,0,0,0,0],"sum_hessian":[1.09E2,3.8E1,7.1E1,2E1,1.8E1,6.8E1,3E0,1.7E1,3E0],"tree_param":{"num_deleted":"0","num_feature":"16","num_nodes":"9","size_leaf_vector":"1"}},{"base_weights":[-1.6244287E-2,-3.617816E-1,2.0064315E-1,-5.690587E-1,-8.5969985E-4,6.1986065E-3,-0E0,-1.652105E-2,5.4428977E-4,-4.484231E-3,2.2784302E-3],"categories":[],"categories_nodes":[],"categories_segments":[],"categories_sizes":[],"default_left":[0,0,0,0,0,0,0,0,0,0,0],"id":3,"left_children":[1,3,5,7,-1,-1,9,-1,-1,-1,-1],"loss_changes":[8.9744E0,2.845676E0,7.391615E-1,1.7972641E0,0E0,0E0,3.451248E-1,0E0,0E0,0E0,0E0],"parents":[2147483647,0,0,1,1,2,2,3,3,6,6],"right_children":[2,4,6,8,-1,-1,10,-1,-1,-1,-1],"split_conditions":[-2.2641447E-1,-1.6666667E-1,1.2424893E0,1.1637957E0,-8.5969985E-4,6.1986065E-3,3.0880043E-1,-1.652105E-2,5.4428977E-4,-4.484231E-3,2.2784302E-3],"split_indices":[15,12,1,13,0,0,15,0,0,0,0],"split_type":[0,0,0,0,0,0,0,0,0,0,0],"sum_hessian":[1.12E2,4.3E1,6.9E1,2.4E1,1.9E1,5.6E1,1.3E1,2.1E1,3E0,4E0,9E0],"tree_param":{"num_deleted":"0","num_feature":"16","num_nodes":"11","size_leaf_vector":"1"}},{"base_weights":[4.1379377E-2,-2.717225E-1,2.168615E-1,-8.845954E-3,-4.54736E-1,2.5534788E-1,-0E0,-1.4132677E-1,1.5409364E-3,-1.2301772E-2,-0E0,6.820978E-3,-0E0,9.896348E-4,-6.1813258E-3],"categories":[],"categories_nodes":[],"categories_segments":[],"categories_sizes":[],"default_left":[0,0,0,0,0,0,0,0,0,0,0,0,0,0,0],"id":4,"left_children":[1,3,5,7,9,11,-1,13,-1,-1,-1,-1,-1,-1,-1],"loss_changes":[6.420416E0,1.7970512E0,7.200837E-1,2.6312485E-1,3.464327E-1,3.0736732E-1,0E0,3.185388E-1,0E0,0E0,0E0,0E0,0E0,0E0,0E0],"parents":[2147483647,0,0,1,1,2,2,3,3,4,4,5,5,7,7],"right_children":[2,4,6,8,10,12,-1,14,-1,-1,-1,-1,-1,-1,-1],"split_conditions":[-2.3860456E-1,-1.0061036E-1,1.2598153E0,-1.5277778E-1,6.1061126E-1,2.9759446E-1,-0E0,4.2871076E-1,1.5409364E-3,-1.2301772E-2,-0E0,6.820978E-3,-0E0,9.896348E-4,-6.1813258E-3],"split_indices":[15,14,1,2,14,3,0,3,0,0,0,0,0,0,0],"split_type":[0,0,0,0,0,0,0,0,0,0,0,0,0,0,0],"sum_hessian":[1.1E2,3.8E1,7.2E1,1.8E1,2E1,6.2E1,1E1,7E0,1.1E1,1.8E1,2E0,5.8E1,4E0,2E0,5E0],"tree_param":{"num_deleted":"0","num_feature":"16","num_nodes":"15","size_leaf_vector":"1"}},{"base_weights":[2.1992058E-2,2.2072168E-1,-1.5497433E-1,6.1259223E-3,-0E0,1.5126374E-2,-3.3713704E-1,7.211873E-3,-9.453835E-2,-0E0,-4.6783903E-1,-2.8310707E-1,2.231594E-3,4.7963806E-3,-5.334889E-3,-1.5041406E-2,-0E0,-0E0,-9.900898E-3],"categories":[],"categories_nodes":[],"categories_segments":[],"categories_sizes":[],"default_left":[0,0,0,0,0,0,0,0,0,0,0,0,0,0,0,0,0,0,0],"id":5,"left_children":[1,3,5,-1,-1,7,9,-1,11,13,15,17,-1,-1,-1,-1,-1,-1,-1],"loss_changes":[4.102473E0,3.8836622E-1,2.0213068E0,0E0,0E0,1.1772457E0,1.457978E0,0E0,1.0497994E0,6.0886645E-1,1.4101791E0,3.2785285E-1,0E0,0E0,0E0,0E0,0E0,0E0,0E0],"parents":[2147483647,0,0,1,1,2,2,5,5,6,6,8,8,9,9,10,10,11,11],"right_children":[2,4,6,-1,-1,8,10,-1,12,14,16,18,-1,-1,-1,-1,-1,-1,-1],"split_conditions":[-1.009794E-1,3.006536E0,-1.0524151E-1,6.1259223E-3,-0E0,2.5259033E-1,-2.9213482E-1,7.211873E-3,1.7977528E-1,3.1293634E-1,4.494382E-2,-3.267974E-1,2.231594E-3,4.7963806E-3,-5.334889E-3,-1.5041406E-2,-0E0,-0E0,-9.900898E-3],"split_indices":[3,9,14,0,0,3,7,0,7,3,7,9,0,0,0,0,0,0,0],"split_type":[0,0,0,0,0,0,0,0,0,0,0,0,0,0,0,0,0,0,0],"sum_hessian":[1.09E2,5.2E1,5.7E1,4.8E1,4E0,3E1,2.7E1,8E0,2.2E1,8E0,1.9E1,1.1E1,1.1E1,5E0,3E0,1.4E1,5E0,5E0,6E0],"tree_param":{"num_deleted":"0","num_feature":"16","num_nodes":"19","size_leaf_vector":"1"}},{"base_weights":[-0E0,-2.2639333E-1,1.9635381E-1,-5.64624E-1,-2.411087E-2,5.5846237E-3,-0E0,-1.809041E-2,-1.4904414E-1,-1.1069726E-1,7.907511E-2,7.575054E-4,-8.431597E-3,-2.0140974E-1,3.389389E-3,4.0711164E-3,-2.220897E-3,-3.3201447E-1,-0E0,-1.0203609E-2,-0E0],"categories":[],"categories_nodes":[],"categories_segments":[],"categories_sizes":[],"default_left":[0,0,0,0,0,0,0,0,0,0,0,0,0,0,0,0,0,0,0,0,0],"id":6,"left_children":[1,3,5,7,9,-1,-1,-1,11,13,15,-1,-1,17,-1,-1,-1,19,-1,-1,-1],"loss_changes":[5.164461E0,3.4456468E0,3.9837503E-1,5.6190157E-1,3.8726407E-1,0E0,0E0,0E0,5.12992E-1,6.6923594E-1,3.263881E-1,0E0,0E0,5.463195E-1,0E0,0E0,0E0,3.7118912E-1,0E0,0E0,0E0],"parents":[2147483647,0,0,1,1,2,2,3,3,4,4,8,8,9,9,10,10,13,13,17,17],"right_children":[2,4,6,8,10,-1,-1,-1,12,14,16,-1,-1,18,-1,-1,-1,20,-1,-1,-1],"split_conditions":[-5.310812E-2,-2.9247594E-1,1.9128124E0,-3.713583E-1,5.0170225E-1,5.5846237E-3,-0E0,-1.809041E-2,-3.440571E-1,7.3738784E-1,9.3310076E-1,7.575054E-4,-8.431597E-3,4.3314907E-1,3.389389E-3,4.0711164E-3,-2.220897E-3,-6.8871714E-2,-0E0,-1.0203609E-2,-0E0],"split_indices":[15,8,0,15,13,0,0,0,11,8,8,0,0,3,0,0,0,15,0,0,0],"split_type":[0,0,0,0,0,0,0,0,0,0,0,0,0,0,0,0,0,0,0,0,0],"sum_hessian":[1.09E2,5.1E1,5.8E1,1.6E1,3.5E1,5.2E1,6E0,9E0,7E0,2.1E1,1.4E1,4E0,3E0,1.7E1,4E0,1.1E1,3E0,9E0,8E0,7E0,2E0],"tree_param":{"num_deleted":"0","num_feature":"16","num_nodes":"21","size_leaf_vector":"1"}},{"base_weights":[-0E0,-3.6203203E-1,1.15299076E-1,-1.390663E-2,-0E0,-0E0,1.969068E-1,5.009675E-3,-1.910962E-1,-0E0,5.9032007E-3,-3.2619223E-1,-4.888791E-4,-0E0,-1.1232758E-2],"categories":[],"categories_nodes":[],"categories_segments":[],"categories_sizes":[],"default_left":[0,0,0,0,0,0,0,0,0,0,0,0,0,0,0],"id":7,"left_children":[1,3,5,-1,-1,7,9,-1,11,-1,-1,13,-1,-1,-1],"loss_changes":[4.72768E0,1.8106937E0,8.3466804E-1,0E0,0E0,1.5681534E0,4.674046E-1,0E0,3.376276E-1,0E0,0E0,5.9876347E-1,0E0,0E0,0E0],"parents":[2147483647,0,0,1,1,2,2,5,5,6,6,8,8,11,11],"right_children":[2,4,6,-1,-1,8,10,-1,12,-1,-1,14,-1,-1,-1],"split_conditions":[-3.713583E-1,6.5249175E-1,4.07638E-2,-1.390663E-2,-0E0,-2.9213482E-1,-2.0224719E-1,5.009675E-3,-2.0833333E-1,-0E0,5.9032007E-3,-3.389845E-1,-4.888791E-4,-0E0,-1.1232758E-2],"split_indices":[15,3,8,0,0,7,7,0,12,0,0,15,0,0,0],"split_type":[0,0,0,0,0,0,0,0,0,0,0,0,0,0,0],"sum_hessian":[1.05E2,2.4E1,8.1E1,1.4E1,1E1,3.4E1,4.7E1,1.6E1,1.8E1,7E0,4E1,7E0,1.1E1,2E0,5E0],"tree_param":{"num_deleted":"0","num_feature":"16","num_nodes":"15","size_leaf_vector":"1"}},{"base_weights":[-5.215149E-3,-3.134327E-1,1.9529514E-1,-5.5580986E-1,-4.9614673E-4,6.411377E-3,-1.458844E-3,-1.5679829E-2,1.0509748E-4],"categories":[],"categories_nodes":[],"categories_segments":[],"categories_sizes":[],"default_left":[0,0,0,0,0,0,0,0,0],"id":8,"left_children":[1,3,5,7,-1,-1,-1,-1,-1],"loss_changes":[6.9050813E0,2.8976946E0,1.1632428E0,1.1978521E0,0E0,0E0,0E0,0E0,0E0],"parents":[2147483647,0,0,1,1,2,2,3,3],"right_children":[2,4,6,8,-1,-1,-1,-1,-1],"split_conditions":[-2.3860456E-1,-1.6666667E-1,1.2424893E0,1.2513537E0,-4.9614673E-4,6.411377E-3,-1.458844E-3,-1.5679829E-2,1.0509748E-4],"split_indices":[15,12,1,8,0,0,0,0,0],"split_type":[0,0,0,0,0,0,0,0,0],"sum_hessian":[1.04E2,4.1E1,6.3E1,2E1,2.1E1,5.2E1,1.1E1,1.8E1,2E0],"tree_param":{"num_deleted":"0","num_feature":"16","num_nodes":"9","size_leaf_vector":"1"}},{"base_weights":[-3.7443478E-2,-3.4881163E-1,1.2189552E-1,-5.257761E-1,-0E0,1.5878999E-1,-7.742791E-4,-1.5736286E-2,-1.1988227E-1,4.7611343E-3,-1.2301159E-3,1.3554974E-3,-7.943897E-3],"categories":[],"categories_nodes":[],"categories_segments":[],"categories_sizes":[],"default_left":[0,0,0,0,0,0,0,0,0,0,0,0,0],"id":9,"left_children":[1,3,5,7,-1,9,-1,-1,11,-1,-1,-1,-1],"loss_changes":[5.7714415E0,2.5197248E0,4.941554E-1,5.513077E-1,0E0,5.0738764E-1,0E0,0E0,5.274421E-1,0E0,0E0,0E0,0E0],"parents":[2147483647,0,0,1,1,2,2,3,3,5,5,8,8],"right_children":[2,4,6,8,-1,10,-1,-1,12,-1,-1,-1,-1],"split_conditions":[-2.3860456E-1,7.334351E-1,1.3202615E0,-3.9087927E-1,-0E0,2.5259033E-1,-7.742791E-4,-1.5736286E-2,-3.389845E-1,4.7611343E-3,-1.2301159E-3,1.3554974E-3,-7.943897E-3],"split_indices":[15,3,9,15,0,3,0,0,15,0,0,0,0],"split_type":[0,0,0,0,0,0,0,0,0,0,0,0,0],"sum_hessian":[1.08E2,3.6E1,7.2E1,2.3E1,1.3E1,6E1,1.2E1,1.6E1,7E0,5.4E1,6E0,4E0,3E0],"tree_param":{"num_deleted":"0","num_feature":"16","num_nodes":"13","size_leaf_vector":"1"}},{"base_weights":[-3.8592108E-3,4.9279146E-3,-2.1454524E-1,-0E0,-3.9621082E-1,1.20582394E-1,-2.1043716E-1,-4.5691374E-1,3.2714566E-3,-1.7121182E-4,6.9834925E-3,-8.791984E-3,6.5095094E-4,-5.319001E-1,-0E0,-1.5662635E-2,-3.849495E-4],"categories":[],"categories_nodes":[],"categories_segments":[],"categories_sizes":[],"default_left":[0,0,0,0,0,0,0,0,0,0,0,0,0,0,0,0,0],"id":10,"left_children":[1,-1,3,5,7,9,11,13,-1,-1,-1,-1,-1,15,-1,-1,-1],"loss_changes":[5.172609E0,0E0,2.474137E0,8.3641624E-1,1.411511E0,5.7088035E-1,5.464093E-1,1.2039776E0,0E0,0E0,0E0,0E0,0E0,1.0532293E0,0E0,0E0,0E0],"parents":[2147483647,0,0,2,2,3,3,4,4,5,5,6,6,7,7,13,13],"right_children":[2,-1,4,6,8,10,12,14,-1,-1,-1,-1,-1,16,-1,-1,-1],"split_conditions":[-1.0408747E-2,4.9279146E-3,-1.0524151E-1,1.1585863E-1,3.4490705E0,7.433217E-2,-8.988764E-2,5.0170225E-1,3.2714566E-3,-1.7121182E-4,6.9834925E-3,-8.791984E-3,6.5095094E-4,4.494382E-2,-0E0,-1.5662635E-2,-3.849495E-4],"split_indices":[3,0,14,11,14,13,7,13,0,0,0,0,0,7,0,0,0],"split_type":[0,0,0,0,0,0,0,0,0,0,0,0,0,0,0,0,0],"sum_hessian":[1.15E2,5.8E1,5.7E1,2.7E1,3E1,1.9E1,8E0,2.8E1,2E0,1.1E1,8E0,5E0,3E0,2.4E1,4E0,1.9E1,5E0],"tree_param":{"num_deleted":"0","num_feature":"16","num_nodes":"17","size_leaf_vector":"1"}},{"base_weights":[-0E0,-3.6628047E-1,2.021749E-1,-4.827406E-1,-0E0,2.4301504E-1,-0E0,-1.5174054E-2,-1.4587328E-1,2.6560885E-1,-0E0,2.1046277E-3,-7.4917874E-3,-0E0,7.0216097E-3],"categories":[],"categories_nodes":[],"categories_segments":[],"categories_sizes":[],"default_left":[0,0,0,0,0,0,0,0,0,0,0,0,0,0,0],"id":11,"left_children":[1,3,5,7,-1,9,-1,-1,11,13,-1,-1,-1,-1,-1],"loss_changes":[9.003809E0,1.9707689E0,6.413431E-1,7.9082537E-1,0E0,3.884778E-1,0E0,0E0,6.8753946E-1,3.3826685E-1,0E0,0E0,0E0,0E0,0E0],"parents":[2147483647,0,0,1,1,2,2,3,3,5,5,8,8,9,9],"right_children":[2,4,6,8,-1,10,-1,-1,12,14,-1,-1,-1,-1,-1],"split_conditions":[-2.2641447E-1,7.334351E-1,1.1764706E0,-3.713583E-1,-0E0,3.1293634E-1,-0E0,-1.5174054E-2,-3.3968085E-1,-8.581451E0,-0E0,2.1046277E-3,-7.4917874E-3,-0E0,7.0216097E-3],"split_indices":[15,3,9,15,0,3,0,0,15,3,0,0,0,0,0],"split_type":[0,0,0,0,0,0,0,0,0,0,0,0,0,0,0],"sum_hessian":[1.14E2,4E1,7.4E1,3E1,1E1,6.1E1,1.3E1,1.9E1,1.1E1,5.6E1,5E0,4E0,7E0,2E0,5.4E1],"tree_param":{"num_deleted":"0","num_feature":"16","num_nodes":"15","size_leaf_vector":"1"}},{"base_weights":[-3.100477E-2,-3.457366E-1,1.3358164E-1,-4.7886452E-1,-2.5348895E-4,-0E0,1.6918083E-1,-6.0057867E-1,-1.1317128E-1,-4.8125214E-3,1.0434589E-1,1.876958E-1,-8.1774493E-4,-1.673281E-2,-0E0,2.411272E-3,-8.781578E-3,-0E0,6.31537E-3,5.175705E-3,-0E0],"categories":[],"categories_nodes":[],"categories_segments":[],"categories_sizes":[],"default_left":[0,0,0,0,0,0,0,0,0,0,0,0,0,0,0,0,0,0,0,0,0],"id":12,"left_children":[1,3,5,7,-1,9,11,13,15,-1,17,19,-1,-1,-1,-1,-1,-1,-1,-1,-1],"loss_changes":[6.3848753E0,1.6861911E0,3.989042E-1,7.896576E-1,0E0,4.7285786E-1,3.2084572E-1,8.9337015E-1,8.443702E-1,0E0,3.2072982E-1,2.9023004E-1,0E0,0E0,0E0,0E0,0E0,0E0,0E0,0E0,0E0],"parents":[2147483647,0,0,1,1,2,2,3,3,5,5,6,6,7,7,8,8,10,10,11,11],"right_children":[2,4,6,8,-1,10,12,14,16,-1,18,20,-1,-1,-1,-1,-1,-1,-1,-1,-1],"split_conditions":[-2.2641447E-1,-1.5277778E-1,-2.4121096E-2,-3.713583E-1,-2.5348895E-4,0E0,3.4068313E0,7.334351E-1,-5.93686E-2,-4.8125214E-3,1.6488512E-1,1.2982452E-1,-8.1774493E-4,-1.673281E-2,-0E0,2.411272E-3,-8.781578E-3,-0E0,6.31537E-3,5.175705E-3,-0E0],"split_indices":[15,2,15,15,0,13,1,3,11,0,3,3,0,0,0,0,0,0,0,0,0],"split_type":[0,0,0,0,0,0,0,0,0,0,0,0,0,0,0,0,0,0,0,0,0],"sum_hessian":[1.15E2,3.9E1,7.6E1,2.6E1,1.3E1,1.6E1,6E1,1.7E1,9E0,5E0,1.1E1,5.7E1,3E0,1.5E1,2E0,5E0,4E0,7E0,4E0,5.3E1,4E0],"tree_param":{"num_deleted":"0","num_feature":"16","num_nodes":"21","size_leaf_vector":"1"}},{"base_weights":[-1.0489319E-2,-2.7064696E-1,2.0223051E-1,-4.604172E-1,-8.553148E-3,5.432048E-3,-4.8249244E-4,-1.38423415E-2,4.562683E-4,3.399597E-2,-4.6385597E-3,-9.295442E-4,4.1457782E-3],"categories":[],"categories_nodes":[],"categories_segments":[],"categories_sizes":[],"default_left":[0,0,0,0,0,0,0,0,0,0,0,0,0],"id":13,"left_children":[1,3,5,7,9,-1,-1,-1,-1,11,-1,-1,-1],"loss_changes":[6.3894196E0,2.4098532E0,3.0226636E-1,1.5666747E0,2.8226E-1,0E0,0E0,0E0,0E0,2.8417423E-1,0E0,0E0,0E0],"parents":[2147483647,0,0,1,1,2,2,3,3,4,4,9,9],"right_children":[2,4,6,8,10,-1,-1,-1,-1,12,-1,-1,-1],"split_conditions":[-5.310812E-2,-1.6666667E-1,2.55152E0,1.2513537E0,5.2650267E-1,5.432048E-3,-4.8249244E-4,-1.38423415E-2,4.562683E-4,-5.286825E-3,-4.6385597E-3,-9.295442E-4,4.1457782E-3],"split_indices":[15,12,1,8,11,0,0,0,0,8,0,0,0],"split_type":[0,0,0,0,0,0,0,0,0,0,0,0,0],"sum_hessian":[1.08E2,4.9E1,5.9E1,2.6E1,2.3E1,5.7E1,2E0,2.2E1,4E0,1.9E1,4E0,1.2E1,7E0],"tree_param":{"num_deleted":"0","num_feature":"16","num_nodes":"13","size_leaf_vector":"1"}},{"base_weights":[-9.801463E-4,-2.931491E-1,1.3948023E-1,-4.941893E-1,-1.7702258E-4,-0E0,1.8301152E-1,-1.1896516E-1,-1.5097446E-2,5.014571E-3,-8.98386E-2,5.0459174E-3,-8.027465E-4,-8.42955E-3,1.8084958E-3,-2.3497833E-1,3.4056016E-4,-8.7022595E-3,-0E0],"categories":[],"categories_nodes":[],"categories_segments":[],"categories_sizes":[],"default_left":[0,0,0,0,0,0,0,0,0,0,0,0,0,0,0,0,0,0,0],"id":14,"left_children":[1,3,5,7,-1,9,11,13,-1,-1,15,-1,-1,-1,-1,17,-1,-1,-1],"loss_changes":[5.190714E0,2.1739595E0,5.358418E-1,4.2678928E-1,0E0,4.5106405E-1,3.5177946E-1,6.296404E-1,0E0,0E0,3.7754732E-1,0E0,0E0,0E0,0E0,3.8421106E-1,0E0,0E0,0E0],"parents":[2147483647,0,0,1,1,2,2,3,3,5,5,6,6,7,7,10,10,15,15],"right_children":[2,4,6,8,-1,10,12,14,-1,-1,16,-1,-1,-1,-1,18,-1,-1,-1],"split_conditions":[-2.2641447E-1,-1.6666667E-1,3.215544E-2,-3.6663437E-1,-1.7702258E-4,-4.2512032E-1,3.006536E0,-4.866512E-1,-1.5097446E-2,5.014571E-3,-1.6666667E-1,5.0459174E-3,-8.027465E-4,-8.42955E-3,1.8084958E-3,3.2182366E-1,3.4056016E-4,-8.7022595E-3,-0E0],"split_indices":[15,12,15,11,0,11,9,0,0,0,12,0,0,0,0,11,0,0,0],"split_type":[0,0,0,0,0,0,0,0,0,0,0,0,0,0,0,0,0,0,0],"sum_hessian":[1.18E2,3.8E1,8E1,2E1,1.8E1,1.9E1,6.1E1,7E0,1.3E1,4E0,1.5E1,5.8E1,3E0,3E0,4E0,6E0,9E0,4E0,2E0],"tree_param":{"num_deleted":"0","num_feature":"16","num_nodes":"19","size_leaf_vector":"1"}},{"base_weights":[1.1941287E-2,-2.624311E-1,1.7410614E-1,-3.9150837E-1,-0E0,2.9864213E-1,8.727475E-2,-1.2789204E-2,-8.695691E-2,-0E0,8.220638E-3,-3.7239038E-3,1.573305E-1,2.0686588E-3,-6.6978307E-3,-0E0,4.6519144E-3],"categories":[],"categories_nodes":[],"categories_segments":[],"categories_sizes":[],"default_left":[0,0,0,0,0,0,0,0,0,0,0,0,0,0,0,0,0],"id":15,"left_children":[1,3,5,7,-1,9,11,-1,13,-1,-1,-1,15,-1,-1,-1,-1],"loss_changes":[5.3970737E0,1.4570065E0,5.924661E-1,6.835437E-1,0E0,3.2351208E-1,9.5421344E-1,0E0,5.6622756E-1,0E0,0E0,0E0,2.5629222E-1,0E0,0E0,0E0,0E0],"parents":[2147483647,0,0,1,1,2,2,3,3,5,5,6,6,8,8,12,12],"right_children":[2,4,6,8,-1,10,12,-1,14,-1,-1,-1,16,-1,-1,-1,-1],"split_conditions":[-2.2641447E-1,6.5249175E-1,-2.0915033E-1,-3.713583E-1,-0E0,-3.8856165E0,-4.570799E-2,-1.2789204E-2,-5.93686E-2,-0E0,8.220638E-3,-3.7239038E-3,4.0061086E-2,2.0686588E-3,-6.6978307E-3,-0E0,4.6519144E-3],"split_indices":[15,3,9,15,0,3,8,0,11,0,0,0,11,0,0,0,0],"split_type":[0,0,0,0,0,0,0,0,0,0,0,0,0,0,0,0,0],"sum_hessian":[1.15E2,4.1E1,7.4E1,2.6E1,1.5E1,2.5E1,4.9E1,1.6E1,1E1,2E0,2.3E1,9E0,4E1,5E0,5E0,5E0,3.5E1],"tree_param":{"num_deleted":"0","num_feature":"16","num_nodes":"17","size_leaf_vector":"1"}},{"base_weights":[-8.151465E-4,-1.1174652E-1,1.2579429E-1,1.4416318E-1,-2.5948003E-1,-7.63253E-2,5.053853E-3,-1.8761782E-1,7.085576E-3,-4.8104125E-1,-0E0,1.9284744E-3,-1.8796387E-1,-8.693787E-3,1.2074236E-3,-0E0,-1.5584988E-2,3.766129E-4,-6.959051E-3],"categories":[],"categories_nodes":[],"categories_segments":[],"categories_sizes":[],"default_left":[0,0,0,0,0,0,0,0,0,0,0,0,0,0,0,0,0,0,0],"id":16,"left_children":[1,3,5,7,9,11,-1,13,-1,15,-1,-1,17,-1,-1,-1,-1,-1,-1],"loss_changes":[1.6236385E0,2.5777617E0,9.1461027E-1,1.3564278E0,2.344995E0,3.6063188E-1,0E0,4.9967757E-1,0E0,1.5944567E0,0E0,0E0,3.3105987E-1,0E0,0E0,0E0,0E0,0E0,0E0],"parents":[2147483647,0,0,1,1,2,2,3,3,4,4,5,5,7,7,9,9,12,12],"right_children":[2,4,6,8,10,12,-1,14,-1,16,-1,-1,18,-1,-1,-1,-1,-1,-1],"split_conditions":[1.219001E-1,-3.8399488E-1,-1.25E-1,4.9755245E-2,4.494382E-2,5.4535794E-1,5.053853E-3,-4.918932E-1,7.085576E-3,-3.1949553E-1,-0E0,1.9284744E-3,-1.8055555E-1,-8.693787E-3,1.2074236E-3,-0E0,-1.5584988E-2,3.766129E-4,-6.959051E-3],"split_indices":[8,11,2,14,7,8,0,0,0,1,0,0,2,0,0,0,0,0,0],"split_type":[0,0,0,0,0,0,0,0,0,0,0,0,0,0,0,0,0,0,0],"sum_hessian":[1.09E2,6E1,4.9E1,2.1E1,3.9E1,1.2E1,3.7E1,5E0,1.6E1,1.9E1,2E1,4E0,8E0,3E0,2E0,5E0,1.4E1,2E0,6E0],"tree_param":{"num_deleted":"0","num_feature":"16","num_nodes":"19","size_leaf_vector":"1"}},{"base_weights":[-2.8985986E-2,1.5274362E-1,-1.9538398E-1,4.4555576E-3,-4.3656855E-4,2.6710185E-3,-2.663408E-1,-0E0,-3.6397332E-1,5.9475703E-3,-8.370798E-3,-4.5730844E-1,-0E0,-1.2892528E-2,-9.97458E-4],"categories":[],"categories_nodes":[],"categories_segments":[],"categories_sizes":[],"default_left":[0,0,0,0,0,0,0,0,0,0,0,0,0,0,0],"id":17,"left_children":[1,3,5,-1,-1,-1,7,9,11,-1,-1,13,-1,-1,-1],"loss_changes":[3.644404E0,3.2021642E-1,1.5251477E0,0E0,0E0,0E0,1.4376731E0,1.6604273E0,1.3548017E0,0E0,0E0,4.7351742E-1,0E0,0E0,0E0],"parents":[2147483647,0,0,1,1,2,2,6,6,7,7,8,8,11,11],"right_children":[2,4,6,-1,-1,-1,8,10,12,-1,-1,14,-1,-1,-1],"split_conditions":[-1.0408747E-2,1.8901378E0,-7.18105E-1,4.4555576E-3,-4.3656855E-4,2.6710185E-3,-3.8399488E-1,3.1293634E-1,6.5249175E-1,5.9475703E-3,-8.370798E-3,7.3738784E-1,-0E0,-1.2892528E-2,-9.97458E-4],"split_indices":[3,0,14,0,0,0,11,3,3,0,0,8,0,0,0],"split_type":[0,0,0,0,0,0,0,0,0,0,0,0,0,0,0],"sum_hessian":[1.13E2,5.3E1,6E1,4.8E1,5E0,1E1,5E1,1.4E1,3.6E1,9E0,5E0,2.8E1,8E0,2.3E1,5E0],"tree_param":{"num_deleted":"0","num_feature":"16","num_nodes":"15","size_leaf_vector":"1"}},{"base_weights":[-2.3376048E-2,-2.8758848E-1,1.3371766E-1,-4.2974076E-1,-0E0,4.175715E-3,-0E0,-1.2284543E-2,-5.201749E-4],"categories":[],"categories_nodes":[],"categories_segments":[],"categories_sizes":[],"default_left":[0,0,0,0,0,0,0,0,0],"id":18,"left_children":[1,3,5,7,-1,-1,-1,-1,-1],"loss_changes":[5.031605E0,1.869478E0,3.557719E-1,5.281553E-1,0E0,0E0,0E0,0E0,0E0],"parents":[2147483647,0,0,1,1,2,2,3,3],"right_children":[2,4,6,8,-1,-1,-1,-1,-1],"split_conditions":[-2.2641447E-1,5.857867E-1,1.2598153E0,7.3738784E-1,-0E0,4.175715E-3,-0E0,-1.2284543E-2,-5.201749E-4],"split_indices":[15,3,1,8,0,0,0,0,0],"split_type":[0,0,0,0,0,0,0,0,0],"sum_hessian":[1.13E2,4.2E1,7.1E1,2.7E1,1.5E1,5.7E1,1.4E1,2.2E1,5E0],"tree_param":{"num_deleted":"0","num_feature":"16","num_nodes":"9","size_leaf_vector":"1"}},{"base_weights":[-4.046867E-3,-3.6381283E-1,1.1991992E-1,-1.4351095E-2,-0E0,-1.1477195E-2,1.4411497E-1,-5.352836E-3,2.765549E-3,4.3998337E-3,-0E0],"categories":[],"categories_nodes":[],"categories_segments":[],"categories_sizes":[],"default_left":[0,0,0,0,0,0,0,0,0,0,0],"id":19,"left_children":[1,3,5,-1,-1,7,9,-1,-1,-1,-1],"loss_changes":[5.0892515E0,2.1916225E0,3.211249E-1,0E0,0E0,4.5830953E-1,3.061973E-1,0E0,0E0,0E0,0E0],"parents":[2147483647,0,0,1,1,2,2,5,5,6,6],"right_children":[2,4,6,-1,-1,8,10,-1,-1,-1,-1],"split_conditions":[-3.713583E-1,7.334351E-1,-2.3860456E-1,-1.4351095E-2,-0E0,1.7102616E-1,1.0196079E0,-5.352836E-3,2.765549E-3,4.3998337E-3,-0E0],"split_indices":[15,3,15,0,0,3,9,0,0,0,0],"split_type":[0,0,0,0,0,0,0,0,0,0,0],"sum_hessian":[1.05E2,2.6E1,7.9E1,1.5E1,1.1E1,1E1,6.9E1,4E0,6E0,5.5E1,1.4E1],"tree_param":{"num_deleted":"0","num_feature":"16","num_nodes":"11","size_leaf_vector":"1"}},{"base_weights":[-0E0,-2.2004533E-1,1.2516657E-1,-3.779162E-1,5.220389E-5,1.6128732E-1,-8.0650096E-4,-1.1253154E-2,-0E0,4.6459413E-3,-0E0],"categories":[],"categories_nodes":[],"categories_segments":[],"categories_sizes":[],"default_left":[0,0,0,0,0,0,0,0,0,0,0],"id":20,"left_children":[1,3,5,7,-1,9,-1,-1,-1,-1,-1],"loss_changes":[3.3361015E0,1.6785686E0,5.1620173E-1,7.740574E-1,0E0,3.2496583E-1,0E0,0E0,0E0,0E0,0E0],"parents":[2147483647,0,0,1,1,2,2,3,3,5,5],"right_children":[2,4,6,8,-1,10,-1,-1,-1,-1,-1],"split_conditions":[-2.2641447E-1,-1.6666667E-1,1.2598153E0,1.1637957E0,5.220389E-5,2.5259033E-1,-8.0650096E-4,-1.1253154E-2,-0E0,4.6459413E-3,-0E0],"split_indices":[15,12,1,13,0,3,0,0,0,0,0],"split_type":[0,0,0,0,0,0,0,0,0,0,0],"sum_hessian":[1.15E2,4E1,7.5E1,2.3E1,1.7E1,6.3E1,1.2E1,1.9E1,4E0,5.6E1,7E0],"tree_param":{"num_deleted":"0","num_feature":"16","num_nodes":"11","size_leaf_vector":"1"}},{"base_weights":[-0E0,-3.444593E-1,1.1312332E-1,-1.265246E-2,-0E0,-0E0,1.6936591E-1,-8.748895E-2,3.0015614E-3,4.7486923E-3,-8.2157424E-4,-6.6164457E-3,9.043232E-5],"categories":[],"categories_nodes":[],"categories_segments":[],"categories_sizes":[],"default_left":[0,0,0,0,0,0,0,0,0,0,0,0,0],"id":21,"left_children":[1,3,5,-1,-1,7,9,11,-1,-1,-1,-1,-1],"loss_changes":[4.4501276E0,1.6130555E0,5.808368E-1,0E0,0E0,3.371009E-1,3.2401013E-1,4.3866134E-1,0E0,0E0,0E0,0E0,0E0],"parents":[2147483647,0,0,1,1,2,2,5,5,6,6,7,7],"right_children":[2,4,6,-1,-1,8,10,12,-1,-1,-1,-1,-1],"split_conditions":[-3.713583E-1,7.334351E-1,3.215544E-2,-1.265246E-2,-0E0,5.0170225E-1,3.4068313E0,-2.4288951E-1,3.0015614E-3,4.7486923E-3,-8.2157424E-4,-6.6164457E-3,9.043232E-5],"split_indices":[15,3,15,0,0,13,1,14,0,0,0,0,0],"split_type":[0,0,0,0,0,0,0,0,0,0,0,0,0],"sum_hessian":[1.05E2,2.5E1,8E1,1.6E1,9E0,2.6E1,5.4E1,1.7E1,9E0,5.1E1,3E0,5E0,1.2E1],"tree_param":{"num_deleted":"0","num_feature":"16","num_nodes":"13","size_leaf_vector":"1"}},{"base_weights":[-3.3583057E-3,-2.380644E-1,1.2315647E-1,-3.4756717E-1,-0E0,5.9000026E-3,6.31268E-2,-4.2753708E-1,-0E0,-2.7264196E-3,1.0390883E-1,-1.2599175E-2,-1.4017402E-3,3.412297E-3,-1.0808429E-3],"categories":[],"categories_nodes":[],"categories_segments":[],"categories_sizes":[],"default_left":[0,0,0,0,0,0,0,0,0,0,0,0,0,0,0],"id":22,"left_children":[1,3,5,7,-1,-1,9,11,-1,-1,13,-1,-1,-1,-1],"loss_changes":[3.132806E0,9.5517516E-1,2.7867532E-1,8.494661E-1,0E0,0E0,3.9221346E-1,2.8749633E-1,0E0,0E0,2.713057E-1,0E0,0E0,0E0,0E0],"parents":[2147483647,0,0,1,1,2,2,3,3,6,6,7,7,10,10],"right_children":[2,4,6,8,-1,-1,10,12,-1,-1,14,-1,-1,-1,-1],"split_conditions":[-2.2641447E-1,6.5249175E-1,-4.2512032E-1,1.1637957E0,-0E0,5.9000026E-3,-1.6666667E-1,-3.713583E-1,-0E0,-2.7264196E-3,2.5662563E0,-1.2599175E-2,-1.4017402E-3,3.412297E-3,-1.0808429E-3],"split_indices":[15,3,11,13,0,0,12,15,0,0,0,0,0,0,0],"split_type":[0,0,0,0,0,0,0,0,0,0,0,0,0,0,0],"sum_hessian":[9.7E1,3.4E1,6.3E1,2.2E1,1.2E1,1.6E1,4.7E1,1.8E1,4E0,6E0,4.1E1,1.3E1,5E0,3.6E1,5E0],"tree_param":{"num_deleted":"0","num_feature":"16","num_nodes":"15","size_leaf_vector":"1"}},{"base_weights":[-3.179873E-2,-2.9118857E-1,1.272437E-1,-4.0568215E-1,-0E0,-0E0,4.1859406E-3,-1.1665194E-2,-2.2001994E-4,-1.976431E-1,4.062595E-3,-8.302994E-3,6.017536E-5],"categories":[],"categories_nodes":[],"categories_segments":[],"categories_sizes":[],"default_left":[0,0,0,0,0,0,0,0,0,0,0,0,0],"id":23,"left_children":[1,3,5,7,-1,9,-1,-1,-1,11,-1,-1,-1],"loss_changes":[4.5888095E0,1.4160211E0,4.070016E-1,5.329609E-1,0E0,6.8743795E-1,0E0,0E0,0E0,4.1715482E-1,0E0,0E0,0E0],"parents":[2147483647,0,0,1,1,2,2,3,3,5,5,9,9],"right_children":[2,4,6,8,-1,10,-1,-1,-1,12,-1,-1,-1],"split_conditions":[-2.2641447E-1,-1.5277778E-1,3.215544E-2,1.1637957E0,-0E0,0E0,4.1859406E-3,-1.1665194E-2,-2.2001994E-4,3.2182366E-1,4.062595E-3,-8.302994E-3,6.017536E-5],"split_indices":[15,2,15,13,0,13,0,0,0,11,0,0,0],"split_type":[0,0,0,0,0,0,0,0,0,0,0,0,0],"sum_hessian":[1.03E2,3.9E1,6.4E1,2.7E1,1.2E1,1.4E1,5E1,2.2E1,5E0,7E0,7E0,4E0,3E0],"tree_param":{"num_deleted":"0","num_feature":"16","num_nodes":"13","size_leaf_vector":"1"}},{"base_weights":[1.2160705E-2,-1.7456232E-1,4.404502E-3,-3.42266E-1,-0E0,-0E0,-1.2442384E-2],"categories":[],"categories_nodes":[],"categories_segments":[],"categories_sizes":[],"default_left":[0,0,0,0,0,0,0],"id":24,"left_children":[1,3,-1,5,-1,-1,-1],"loss_changes":[3.7681177E0,1.734139E0,0E0,1.622057E0,0E0,0E0,0E0],"parents":[2147483647,0,0,1,1,3,3],"right_children":[2,4,-1,6,-1,-1,-1],"split_conditions":[-5.490896E-2,-1.6666667E-1,4.404502E-3,-1.8055555E-1,-0E0,-0E0,-1.2442384E-2],"split_indices":[15,12,0,2,0,0,0],"split_type":[0,0,0,0,0,0,0],"sum_hessian":[1.16E2,5.3E1,6.3E1,2.6E1,2.7E1,9E0,1.7E1],"tree_param":{"num_deleted":"0","num_feature":"16","num_nodes":"7","size_leaf_vector":"1"}},{"base_weights":[-0E0,-1.8348266E-1,1.04534574E-1,-3.3485782E-1,-0E0,3.552346E-3,-4.76761E-4,-0E0,-1.1903583E-2],"categories":[],"categories_nodes":[],"categories_segments":[],"categories_sizes":[],"default_left":[0,0,0,0,0,0,0,0,0],"id":25,"left_children":[1,3,5,7,-1,-1,-1,-1,-1],"loss_changes":[2.1557102E0,1.1594514E0,3.9527583E-1,9.911232E-1,0E0,0E0,0E0,0E0,0E0],"parents":[2147483647,0,0,1,1,2,2,3,3],"right_children":[2,4,6,8,-1,-1,-1,-1,-1],"split_conditions":[-2.2641447E-1,-1.6666667E-1,1.2598153E0,-2.6966292E-1,-0E0,3.552346E-3,-4.76761E-4,-0E0,-1.1903583E-2],"split_indices":[15,12,1,7,0,0,0,0,0],"split_type":[0,0,0,0,0,0,0,0,0],"sum_hessian":[1.06E2,3.7E1,6.9E1,1.9E1,1.8E1,5.5E1,1.4E1,7E0,1.2E1],"tree_param":{"num_deleted":"0","num_feature":"16","num_nodes":"9","size_leaf_vector":"1"}},{"base_weights":[3.686215E-2,-1.1277919E-1,4.309096E-3,1.8254226E-2,-2.7259347E-1,3.0467964E-3,-1.8227963E-1,-3.6478707E-1,-0E0,-7.387926E-3,6.0303737E-5,-1.8509071E-2,-1.1900514E-2,-6.206979E-3,2.6323306E-3],"categories":[],"categories_nodes":[],"categories_segments":[],"categories_sizes":[],"default_left":[0,0,0,0,0,0,0,0,0,0,0,0,0,0,0],"id":26,"left_children":[1,3,-1,5,7,-1,9,11,-1,-1,-1,13,-1,-1,-1],"loss_changes":[2.5149307E0,1.3232598E0,0E0,7.496798E-1,6.84479E-1,0E0,3.6024812E-1,5.6096387E-1,0E0,0E0,0E0,4.1892937E-1,0E0,0E0,0E0],"parents":[2147483647,0,0,1,1,3,3,4,4,6,6,7,7,11,11],"right_children":[2,4,-1,6,8,-1,10,12,-1,-1,-1,14,-1,-1,-1],"split_conditions":[-5.490896E-2,-8.407946E-2,4.309096E-3,1.1585863E-1,7.804198E-2,3.0467964E-3,-8.988764E-2,-3.8399488E-1,-0E0,-7.387926E-3,6.0303737E-5,8.262131E-2,-1.1900514E-2,-6.206979E-3,2.6323306E-3],"split_indices":[15,14,0,11,8,0,7,11,0,0,0,14,0,0,0],"split_type":[0,0,0,0,0,0,0,0,0,0,0,0,0,0,0],"sum_hessian":[1.16E2,5.4E1,6.2E1,3E1,2.4E1,2.2E1,8E0,1.7E1,7E0,5E0,3E0,6E0,1.1E1,2E0,4E0],"tree_param":{"num_deleted":"0","num_feature":"16","num_nodes":"15","size_leaf_vector":"1"}},{"base_weights":[-0E0,3.0859322E-3,-1.09918E-1,3.270481E-2,-2.4862278E-1,3.2067148E-3,-6.909909E-2,-2.9654294E-1,2.5650875E-3,-4.495473E-3,1.989605E-3,-3.619175E-1,4.8751384E-4,-9.9992445E-3,-0E0],"categories":[],"categories_nodes":[],"categories_segments":[],"categories_sizes":[],"default_left":[0,0,0,0,0,0,0,0,0,0,0,0,0,0,0],"id":27,"left_children":[1,-1,3,5,7,-1,9,11,-1,-1,-1,13,-1,-1,-1],"loss_changes":[1.591836E0,0E0,1.3116655E0,3.6114526E-1,7.310693E-1,0E0,3.4534538E-1,7.918353E-1,0E0,0E0,0E0,2.883489E-1,0E0,0E0,0E0],"parents":[2147483647,0,0,2,2,3,3,4,4,6,6,7,7,11,11],"right_children":[2,-1,4,6,8,-1,10,12,-1,-1,-1,14,-1,-1,-1],"split_conditions":[-1.0408747E-2,3.0859322E-3,-1.0524151E-1,2.4085304E-1,3.4490705E0,3.2067148E-3,1.8681492E0,1.219001E-1,2.5650875E-3,-4.495473E-3,1.989605E-3,6.666667E-1,4.8751384E-4,-9.9992445E-3,-0E0],"split_indices":[3,0,14,8,14,0,8,8,0,0,0,12,0,0,0],"split_type":[0,0,0,0,0,0,0,0,0,0,0,0,0,0,0],"sum_hessian":[1.1E2,5.3E1,5.7E1,2.8E1,2.9E1,1.6E1,1.2E1,2.7E1,2E0,8E0,4E0,2.3E1,4E0,2E1,3E0],"tree_param":{"num_deleted":"0","num_feature":"16","num_nodes":"15","size_leaf_vector":"1"}},{"base_weights":[-0E0,-2.1161298E-1,3.250952E-3,-3.2488096E-1,-0E0,-9.937469E-3,-0E0],"categories":[],"categories_nodes":[],"categories_segments":[],"categories_sizes":[],"default_left":[0,0,0,0,0,0,0],"id":28,"left_children":[1,3,-1,5,-1,-1,-1],"loss_changes":[3.3420606E0,1.0313826E0,0E0,5.9946847E-1,0E0,0E0,0E0],"parents":[2147483647,0,0,1,1,3,3],"right_children":[2,4,-1,6,-1,-1,-1],"split_conditions":[-2.2641447E-1,-1.5277778E-1,3.250952E-3,1.1637957E0,-0E0,-9.937469E-3,-0E0],"split_indices":[15,2,0,13,0,0,0],"split_type":[0,0,0,0,0,0,0],"sum_hessian":[1.14E2,4.3E1,7.1E1,2.6E1,1.7E1,2E1,6E0],"tree_param":{"num_deleted":"0","num_feature":"16","num_nodes":"7","size_leaf_vector":"1"}},{"base_weights":[2.9206965E-2,-1.7139809E-1,1.4764307E-1,-3.5612997E-1,-1.076416E-2,2.3078513E-1,7.495711E-2,-1.1160991E-2,-4.7490906E-4,2.0176559E-3,-5.59641E-3,-4.258442E-4,6.607572E-3,-2.6496153E-3,3.1316672E-3],"categories":[],"categories_nodes":[],"categories_segments":[],"categories_sizes":[],"default_left":[0,0,0,0,0,0,0,0,0,0,0,0,0,0,0],"id":29,"left_children":[1,3,5,7,9,11,13,-1,-1,-1,-1,-1,-1,-1,-1],"loss_changes":[2.7757013E0,1.1009791E0,2.6737952E-1,3.474021E-1,6.56513E-1,3.6800814E-1,4.8657736E-1,0E0,0E0,0E0,0E0,0E0,0E0,0E0,0E0],"parents":[2147483647,0,0,1,1,2,2,3,3,4,4,5,5,6,6],"right_children":[2,4,6,8,10,12,14,-1,-1,-1,-1,-1,-1,-1,-1],"split_conditions":[-2.2641447E-1,-2.9247594E-1,-2.0915033E-1,-4.113759E-1,6.4843334E-2,-8.581451E0,-5.1299717E-2,-1.1160991E-2,-4.7490906E-4,2.0176559E-3,-5.59641E-3,-4.258442E-4,6.607572E-3,-2.6496153E-3,3.1316672E-3],"split_indices":[15,8,9,15,11,3,8,0,0,0,0,0,0,0,0],"split_type":[0,0,0,0,0,0,0,0,0,0,0,0,0,0,0],"sum_hessian":[1.1E2,3.9E1,7.1E1,1.5E1,2.4E1,2.7E1,4.4E1,1E1,5E0,1.7E1,7E0,2E0,2.5E1,7E0,3.7E1],"tree_param":{"num_deleted":"0","num_feature":"16","num_nodes":"15","size_leaf_vector":"1"}},{"base_weights":[-1.0255164E-2,-2.3029117E-1,1.10381395E-1,-3.7449363E-1,-0E0,3.4086243E-3,-2.3787E-3,-1.1260561E-2,-0E0,-1.4661828E-1,4.8139193E-3,-6.6807456E-3,7.128591E-4],"categories":[],"categories_nodes":[],"categories_segments":[],"categories_sizes":[],"default_left":[0,0,0,0,0,0,0,0,0,0,0,0,0],"id":30,"left_children":[1,3,5,7,-1,-1,9,-1,-1,11,-1,-1,-1],"loss_changes":[3.1497211E0,1.3223138E0,2.7283192E-1,7.8566766E-1,0E0,0E0,4.881402E-1,0E0,0E0,3.6507052E-1,0E0,0E0,0E0],"parents":[2147483647,0,0,1,1,2,2,3,3,6,6,9,9],"right_children":[2,4,6,8,-1,-1,10,-1,-1,12,-1,-1,-1],"split_conditions":[-2.2641447E-1,-1.6666667E-1,1.4304903E-1,1.1637957E0,-0E0,3.4086243E-3,-1.946088E-1,-1.1260561E-2,-0E0,-1.6666667E-1,4.8139193E-3,-6.6807456E-3,7.128591E-4],"split_indices":[15,12,3,13,0,0,14,0,0,12,0,0,0],"split_type":[0,0,0,0,0,0,0,0,0,0,0,0,0],"sum_hessian":[1.1E2,3.9E1,7.1E1,2.2E1,1.7E1,6E1,1.1E1,1.8E1,4E0,8E0,3E0,5E0,3E0],"tree_param":{"num_deleted":"0","num_feature":"16","num_nodes":"13","size_leaf_vector":"1"}},{"base_weights":[-2.302107E-3,2.9042861E-3,-1.1746284E-1,1.3566665E-1,-1.9138725E-1,6.3032205E-3,-3.5656523E-3,-4.6376675E-1,-9.0199354E-4,-7.784386E-4,-1.3564387E-2,-4.235174E-3,3.5429556E-2,2.363716E-3,-2.3886783E-3],"categories":[],"categories_nodes":[],"categories_segments":[],"categories_sizes":[],"default_left":[0,0,0,0,0,0,0,0,0,0,0,0,0,0,0],"id":31,"left_children":[1,-1,3,5,7,-1,-1,9,11,-1,-1,-1,13,-1,-1],"loss_changes":[1.5831709E0,0E0,1.2452683E0,6.396149E-1,2.38094E0,0E0,0E0,3.7623644E-1,2.7968654E-1,0E0,0E0,0E0,2.5190085E-1,0E0,0E0],"parents":[2147483647,0,0,2,2,3,3,4,4,7,7,8,8,12,12],"right_children":[2,-1,4,6,8,-1,-1,10,12,-1,-1,-1,14,-1,-1],"split_conditions":[-1.009794E-1,2.9042861E-3,-3.8399488E-1,3.1293634E-1,-1.6666667E-1,6.3032205E-3,-3.5656523E-3,-3.267974E-1,-1.5277778E-1,-7.784386E-4,-1.3564387E-2,-4.235174E-3,9.150327E-1,2.363716E-3,-2.3886783E-3],"split_indices":[3,0,11,3,12,0,0,9,2,0,0,0,9,0,0],"split_type":[0,0,0,0,0,0,0,0,0,0,0,0,0,0,0],"sum_hessian":[1.09E2,5.2E1,5.7E1,1.1E1,4.6E1,9E0,2E0,1.6E1,3E1,4E0,1.2E1,5E0,2.5E1,2E1,5E0],"tree_param":{"num_deleted":"0","num_feature":"16","num_nodes":"15","size_leaf_vector":"1"}},{"base_weights":[-1.9401973E-2,-3.0212307E-1,6.411649E-2,-1.0908226E-2,-0E0,-1.7786874E-2,3.112105E-3,4.9791196E-3,-1.1777512E-1,-3.208439E-1,1.3255939E-3,-0E0,-9.861432E-3],"categories":[],"categories_nodes":[],"categories_segments":[],"categories_sizes":[],"default_left":[0,0,0,0,0,0,0,0,0,0,0,0,0],"id":32,"left_children":[1,3,5,-1,-1,7,-1,-1,9,11,-1,-1,-1],"loss_changes":[2.9374623E0,1.1110358E0,5.07778E-1,0E0,0E0,9.064008E-1,0E0,0E0,1.2245307E0,5.049709E-1,0E0,0E0,0E0],"parents":[2147483647,0,0,1,1,2,2,5,5,8,8,9,9],"right_children":[2,4,6,-1,-1,8,-1,-1,10,12,-1,-1,-1],"split_conditions":[-3.713583E-1,7.334351E-1,1.0714452E-1,-1.0908226E-2,-0E0,-3.440571E-1,3.112105E-3,4.9791196E-3,-1.6666667E-1,-1.009794E-1,1.3255939E-3,-0E0,-9.861432E-3],"split_indices":[15,3,15,0,0,11,0,0,12,3,0,0,0],"split_type":[0,0,0,0,0,0,0,0,0,0,0,0,0],"sum_hessian":[1.14E2,2.5E1,8.9E1,1.6E1,9E0,3.6E1,5.3E1,9E0,2.7E1,1.2E1,1.5E1,2E0,1E1],"tree_param":{"num_deleted":"0","num_feature":"16","num_nodes":"13","size_leaf_vector":"1"}},{"base_weights":[1.1064973E-2,-2.551828E-1,1.17072485E-1,-0E0,-1.1163845E-2,5.8349255E-3,5.5448484E-2,-7.7396045E-3,2.7617614E-3],"categories":[],"categories_nodes":[],"categories_segments":[],"categories_sizes":[],"default_left":[0,0,0,0,0,0,0,0,0],"id":33,"left_children":[1,3,5,-1,-1,-1,7,-1,-1],"loss_changes":[2.970529E0,1.5686911E0,3.9471614E-1,0E0,0E0,0E0,1.194931E0,0E0,0E0],"parents":[2147483647,0,0,1,1,2,2,6,6],"right_children":[2,4,6,-1,-1,-1,8,-1,-1],"split_conditions":[-3.713583E-1,-5.932665E-1,-3.6663437E-1,-0E0,-1.1163845E-2,5.8349255E-3,-2.0833333E-1,-7.7396045E-3,2.7617614E-3],"split_indices":[15,15,11,0,0,0,12,0,0],"split_type":[0,0,0,0,0,0,0,0,0],"sum_hessian":[1E2,2.6E1,7.4E1,1.2E1,1.4E1,2E1,5.4E1,4E0,5E1],"tree_param":{"num_deleted":"0","num_feature":"16","num_nodes":"9","size_leaf_vector":"1"}},{"base_weights":[-1.0348948E-2,-1.691168E-1,3.1108165E-3,-3.0560976E-1,-0E0,-9.603538E-3,3.2415118E-3],"categories":[],"categories_nodes":[],"categories_segments":[],"categories_sizes":[],"default_left":[0,0,0,0,0,0,0],"id":34,"left_children":[1,3,-1,5,-1,-1,-1],"loss_changes":[2.4989123E0,1.289892E0,0E0,1.318687E0,0E0,0E0,0E0],"parents":[2147483647,0,0,1,1,3,3],"right_children":[2,4,-1,6,-1,-1,-1],"split_conditions":[-5.310812E-2,-1.6666667E-1,3.1108165E-3,1.2513537E0,-0E0,-9.603538E-3,3.2415118E-3],"split_indices":[15,12,0,8,0,0,0],"split_type":[0,0,0,0,0,0,0],"sum_hessian":[1.09E2,5.1E1,5.8E1,2.7E1,2.4E1,2.4E1,3E0],"tree_param":{"num_deleted":"0","num_feature":"16","num_nodes":"7","size_leaf_vector":"1"}},{"base_weights":[-3.7819752E-3,2.720232E-3,-1.2855032E-1,-9.749735E-3,-7.6270575E-4,-1.2692666E-1,7.88384E-2,1.1242238E-3,-5.4584397E-3,3.8707044E-3,-1.4426699E-3],"categories":[],"categories_nodes":[],"categories_segments":[],"categories_sizes":[],"default_left":[0,0,0,0,0,0,0,0,0,0,0],"id":35,"left_children":[1,-1,3,-1,5,7,9,-1,-1,-1,-1],"loss_changes":[1.7215197E0,0E0,1.8304741E0,0E0,5.0116295E-1,4.258312E-1,3.5546076E-1,0E0,0E0,0E0,0E0],"parents":[2147483647,0,0,2,2,4,4,5,5,6,6],"right_children":[2,-1,4,-1,6,8,10,-1,-1,-1,-1],"split_conditions":[-2.0850202E-2,2.720232E-3,-3.3665413E-1,-9.749735E-3,-1.5277778E-1,2.5259033E-1,7.1336985E-1,1.1242238E-3,-5.4584397E-3,3.8707044E-3,-1.4426699E-3],"split_indices":[3,0,13,0,2,3,1,0,0,0,0],"split_type":[0,0,0,0,0,0,0,0,0,0,0],"sum_hessian":[1.15E2,5.9E1,5.6E1,1.5E1,4.1E1,1.7E1,2.4E1,5E0,1.2E1,1.7E1,7E0],"tree_param":{"num_deleted":"0","num_feature":"16","num_nodes":"11","size_leaf_vector":"1"}},{"base_weights":[-1.8700633E-2,-9.212596E-2,5.6634672E-2,-0E0,-3.003141E-1,-2.2405551E-3,2.720644E-3,6.301053E-2,-1.5159222E-1,1.5146541E-3,-3.7653422E-1,-1.0493258E-2,3.4524377E-3,-5.9439237E-3,1.3077719E-3,-1.2674275E-2,-0E0,3.5781376E-3,-2.1333987E-1,-8.912789E-3,1.7739972E-3],"categories":[],"categories_nodes":[],"categories_segments":[],"categories_sizes":[],"default_left":[0,0,0,0,0,0,0,0,0,0,0,0,0,0,0,0,0,0,0,0,0],"id":36,"left_children":[1,3,5,7,9,-1,-1,11,13,-1,15,17,-1,-1,-1,-1,-1,-1,19,-1,-1],"loss_changes":[6.6028523E-1,1.2367147E0,4.6546614E-1,4.5117933E-1,7.4262714E-1,0E0,0E0,2.5204432E-1,3.5489383E-1,0E0,9.8864937E-1,7.114354E-1,0E0,0E0,0E0,0E0,0E0,0E0,6.3015217E-1,0E0,0E0],"parents":[2147483647,0,0,1,1,2,2,3,3,4,4,7,7,8,8,10,10,11,11,18,18],"right_children":[2,4,6,8,10,-1,-1,12,14,-1,16,18,-1,-1,-1,-1,-1,-1,20,-1,-1],"split_conditions":[4.1666668E-2,-1.4353277E-1,-3.5458714E-2,6.396294E-1,-3.1460676E-1,-2.2405551E-3,2.720644E-3,8.262131E-2,-1.5277778E-1,1.5146541E-3,4.494382E-2,-1.0524151E-1,3.4524377E-3,-5.9439237E-3,1.3077719E-3,-1.2674275E-2,-0E0,3.5781376E-3,-1.6666667E-1,-8.912789E-3,1.7739972E-3],"split_indices":[12,1,8,8,7,0,0,14,2,0,7,14,0,0,0,0,0,0,2,0,0],"split_type":[0,0,0,0,0,0,0,0,0,0,0,0,0,0,0,0,0,0,0,0,0],"sum_hessian":[1.1E2,5.8E1,5.2E1,4.2E1,1.6E1,1.1E1,4.1E1,3.2E1,1E1,2E0,1.4E1,1.5E1,1.7E1,8E0,2E0,1E1,4E0,8E0,7E0,5E0,2E0],"tree_param":{"num_deleted":"0","num_feature":"16","num_nodes":"21","size_leaf_vector":"1"}},{"base_weights":[-2.4079766E-2,-2.1198653E-1,8.355471E-2,-3.3705547E-1,-0E0,-1.3770037E-3,2.966486E-3,-9.994502E-3,-0E0,-5.9260386E-3,1.8200392E-3],"categories":[],"categories_nodes":[],"categories_segments":[],"categories_sizes":[],"default_left":[0,0,0,0,0,0,0,0,0,0,0],"id":37,"left_children":[1,3,5,7,-1,9,-1,-1,-1,-1,-1],"loss_changes":[2.5100577E0,1.19309E0,2.7556998E-1,6.7790914E-1,0E0,5.1942384E-1,0E0,0E0,0E0,0E0,0E0],"parents":[2147483647,0,0,1,1,2,2,3,3,5,5],"right_children":[2,4,6,8,-1,10,-1,-1,-1,-1,-1],"split_conditions":[-2.2641447E-1,-1.6666667E-1,-3.116769E-1,1.1637957E0,-0E0,-1.6666667E-1,2.966486E-3,-9.994502E-3,-0E0,-5.9260386E-3,1.8200392E-3],"split_indices":[15,12,14,13,0,12,0,0,0,0,0],"split_type":[0,0,0,0,0,0,0,0,0,0,0],"sum_hessian":[1.15E2,4.2E1,7.3E1,2.5E1,1.7E1,1.9E1,5.4E1,2.1E1,4E0,4E0,1.5E1],"tree_param":{"num_deleted":"0","num_feature":"16","num_nodes":"11","size_leaf_vector":"1"}},{"base_weights":[7.6097255E-3,-1.6932848E-1,7.754889E-2,-8.411042E-3,4.8971403E-4,2.466339E-1,-0E0,9.8368665E-3,1.6932916E-3,-2.216311E-1,1.4884007E-3,-0E0,-7.465926E-3],"categories":[],"categories_nodes":[],"categories_segments":[],"categories_sizes":[],"default_left":[0,0,0,0,0,0,0,0,0,0,0,0,0],"id":38,"left_children":[1,3,5,-1,-1,7,9,-1,-1,11,-1,-1,-1],"loss_changes":[1.3643001E0,1.112709E0,9.941519E-1,0E0,0E0,3.6585832E-1,8.000926E-1,0E0,0E0,3.2242846E-1,0E0,0E0,0E0],"parents":[2147483647,0,0,1,1,2,2,5,5,6,6,9,9],"right_children":[2,4,6,-1,-1,8,10,-1,-1,12,-1,-1,-1],"split_conditions":[-3.713583E-1,5.857867E-1,-3.6663437E-1,-8.411042E-3,4.8971403E-4,2.6163575E-1,-1.6666667E-1,9.8368665E-3,1.6932916E-3,-1.009794E-1,1.4884007E-3,-0E0,-7.465926E-3],"split_indices":[15,3,11,0,0,15,12,0,0,3,0,0,0],"split_type":[0,0,0,0,0,0,0,0,0,0,0,0,0],"sum_hessian":[1.06E2,2.7E1,7.9E1,1.4E1,1.3E1,2.1E1,5.8E1,8E0,1.3E1,9E0,4.9E1,2E0,7E0],"tree_param":{"num_deleted":"0","num_feature":"16","num_nodes":"13","size_leaf_vector":"1"}},{"base_weights":[-0E0,-6.545742E-2,7.8726545E-2,9.80542E-2,-2.0300418E-1,-2.066343E-2,3.2447265E-3,-0E0,2.606136E-1,-3.5007674E-1,-1.4657046E-3,-5.427162E-3,1.6047013E-3,-6.381941E-3,1.88147E-3,8.555809E-3,-0E0,-0E0,-1.1126473E-2],"categories":[],"categories_nodes":[],"categories_segments":[],"categories_sizes":[],"default_left":[0,0,0,0,0,0,0,0,0,0,0,0,0,0,0,0,0,0,0],"id":39,"left_children":[1,3,5,7,9,11,-1,13,15,17,-1,-1,-1,-1,-1,-1,-1,-1,-1],"loss_changes":[5.893538E-1,1.5622857E0,3.0932948E-1,5.5574703E-1,5.609484E-1,4.0159836E-1,0E0,5.283653E-1,3.8079816E-1,4.5383143E-1,0E0,0E0,0E0,0E0,0E0,0E0,0E0,0E0,0E0],"parents":[2147483647,0,0,1,1,2,2,3,3,4,4,5,5,7,7,8,8,9,9],"right_children":[2,4,6,8,10,12,-1,14,16,18,-1,-1,-1,-1,-1,-1,-1,-1,-1],"split_conditions":[1.219001E-1,-3.6663437E-1,4.1666668E-2,-4.918932E-1,-8.3333336E-2,-3.465843E-1,3.2447265E-3,8.262131E-2,-7.719127E-2,-3.006536E-1,-1.4657046E-3,-5.427162E-3,1.6047013E-3,-6.381941E-3,1.88147E-3,8.555809E-3,-0E0,-0E0,-1.1126473E-2],"split_indices":[8,11,12,0,2,14,0,14,0,9,0,0,0,0,0,0,0,0,0],"split_type":[0,0,0,0,0,0,0,0,0,0,0,0,0,0,0,0,0,0,0],"sum_hessian":[1.08E2,6.1E1,4.7E1,2.7E1,3.4E1,1.4E1,3.3E1,1.8E1,9E0,1.3E1,2.1E1,4E0,1E1,3E0,1.5E1,7E0,2E0,4E0,9E0],"tree_param":{"num_deleted":"0","num_feature":"16","num_nodes":"19","size_leaf_vector":"1"}},{"base_weights":[-2.4220549E-2,4.468222E-2,-1.5422498E-1,1.455441E-1,-1.14103565E-2,-8.925373E-3,1.9813087E-4,6.4254478E-3,4.0043026E-4,1.3628512E-3,-1.9838798E-1,1.8876794E-3,-7.931621E-3],"categories":[],"categories_nodes":[],"categories_segments":[],"categories_sizes":[],"default_left":[0,0,0,0,0,0,0,0,0,0,0,0,0],"id":40,"left_children":[1,3,5,7,9,-1,-1,-1,-1,-1,11,-1,-1],"loss_changes":[1.1204617E0,4.9793017E-1,1.5799243E0,3.1676257E-1,7.178844E-1,0E0,0E0,0E0,0E0,0E0,6.85225E-1,0E0,0E0],"parents":[2147483647,0,0,1,1,2,2,3,3,4,4,10,10],"right_children":[2,4,6,8,10,-1,-1,-1,-1,-1,12,-1,-1],"split_conditions":[2.5259033E-1,6.0510304E-2,-1.6666667E-1,-4.0567525E-2,-1.009794E-1,-8.925373E-3,1.9813087E-4,6.4254478E-3,4.0043026E-4,1.3628512E-3,-2.9213482E-1,1.8876794E-3,-7.931621E-3],"split_indices":[3,14,12,1,3,0,0,0,0,0,7,0,0],"split_type":[0,0,0,0,0,0,0,0,0,0,0,0,0],"sum_hessian":[1.14E2,7.4E1,4E1,2.7E1,4.7E1,1.7E1,2.3E1,1.1E1,1.6E1,3.5E1,1.2E1,3E0,9E0],"tree_param":{"num_deleted":"0","num_feature":"16","num_nodes":"13","size_leaf_vector":"1"}},{"base_weights":[-2.6214568E-2,-2.7665213E-1,6.5375745E-2,-1.047179E-2,-0E0,-1.8140538E-2,2.741501E-3,3.018124E-3,-9.790035E-2,-7.4484805E-3,8.477482E-4],"categories":[],"categories_nodes":[],"categories_segments":[],"categories_sizes":[],"default_left":[0,0,0,0,0,0,0,0,0,0,0],"id":41,"left_children":[1,3,5,-1,-1,7,-1,-1,9,-1,-1],"loss_changes":[2.7741745E0,1.2848148E0,3.597886E-1,0E0,0E0,3.5897535E-1,0E0,0E0,7.342341E-1,0E0,0E0],"parents":[2147483647,0,0,1,1,2,2,5,5,8,8],"right_children":[2,4,6,-1,-1,8,-1,-1,10,-1,-1],"split_conditions":[-3.713583E-1,7.334351E-1,3.215544E-2,-1.047179E-2,-0E0,-3.440571E-1,2.741501E-3,3.018124E-3,-1.6666667E-1,-7.4484805E-3,8.477482E-4],"split_indices":[15,3,15,0,0,11,0,0,12,0,0],"split_type":[0,0,0,0,0,0,0,0,0,0,0],"sum_hessian":[1.11E2,2.9E1,8.2E1,1.8E1,1.1E1,2.6E1,5.6E1,7E0,1.9E1,7E0,1.2E1],"tree_param":{"num_deleted":"0","num_feature":"16","num_nodes":"11","size_leaf_vector":"1"}},{"base_weights":[-6.3207555E-3,-1.2835313E-1,1.02994114E-1,-2.2565994E-1,1.7820109E-3,1.9281311E-1,6.0082285E-4,-7.676903E-3,7.811538E-4,-0E0,6.1883437E-3],"categories":[],"categories_nodes":[],"categories_segments":[],"categories_sizes":[],"default_left":[0,0,0,0,0,0,0,0,0,0,0],"id":42,"left_children":[1,3,5,7,-1,9,-1,-1,-1,-1,-1],"loss_changes":[1.5304772E0,1.1961764E0,3.119377E-1,9.7010875E-1,0E0,3.452614E-1,0E0,0E0,0E0,0E0,0E0],"parents":[2147483647,0,0,1,1,2,2,3,3,5,5],"right_children":[2,4,6,8,-1,10,-1,-1,-1,-1,-1],"split_conditions":[-5.310812E-2,6.5249175E-1,-5.3749718E-2,7.570336E-1,1.7820109E-3,-3.1032076E0,6.0082285E-4,-7.676903E-3,7.811538E-4,-0E0,6.1883437E-3],"split_indices":[15,3,1,13,0,3,0,0,0,0,0],"split_type":[0,0,0,0,0,0,0,0,0,0,0],"sum_hessian":[1.07E2,5.2E1,5.5E1,3.6E1,1.6E1,2.1E1,3.4E1,2.8E1,8E0,4E0,1.7E1],"tree_param":{"num_deleted":"0","num_feature":"16","num_nodes":"11","size_leaf_vector":"1"}},{"base_weights":[-9.640368E-3,-2.17035E-1,1.8414619E-3,-0E0,-1.1052913E-2],"categories":[],"categories_nodes":[],"categories_segments":[],"categories_sizes":[],"default_left":[0,0,0,0,0],"id":43,"left_children":[1,3,-1,-1,-1],"loss_changes":[2.056823E0,1.6001117E0,0E0,0E0,0E0],"parents":[2147483647,0,0,1,1],"right_children":[2,4,-1,-1,-1],"split_conditions":[-3.9087927E-1,-5.828051E-1,1.8414619E-3,-0E0,-1.1052913E-2],"split_indices":[15,15,0,0,0],"split_type":[0,0,0,0,0],"sum_hessian":[1.09E2,3.1E1,7.8E1,1.8E1,1.3E1],"tree_param":{"num_deleted":"0","num_feature":"16","num_nodes":"5","size_leaf_vector":"1"}},{"base_weights":[-0E0,2.0177495E-3,-7.2198495E-2,3.3728577E-2,-2.3165123E-1,3.6260665E-3,-1.4711574E-2,-7.171119E-3,2.2224495E-3,-5.2361707E-3,1.3781122E-3],"categories":[],"categories_nodes":[],"categories_segments":[],"categories_sizes":[],"default_left":[0,0,0,0,0,0,0,0,0,0,0],"id":44,"left_children":[1,-1,3,5,7,-1,9,-1,-1,-1,-1],"loss_changes":[6.9513714E-1,0E0,1.1452729E0,2.6719546E-1,6.372726E-1,0E0,4.7612613E-1,0E0,0E0,0E0,0E0],"parents":[2147483647,0,0,2,2,3,3,4,4,6,6],"right_children":[2,-1,4,6,8,-1,10,-1,-1,-1,-1],"split_conditions":[-1.1911204E-1,2.0177495E-3,-8.407946E-2,2.5259033E-1,3.4490705E0,3.6260665E-3,-1.6666667E-1,-7.171119E-3,2.2224495E-3,-5.2361707E-3,1.3781122E-3],"split_indices":[3,0,14,3,14,0,2,0,0,0,0],"split_type":[0,0,0,0,0,0,0,0,0,0,0],"sum_hessian":[1.12E2,5.4E1,5.8E1,3.5E1,2.3E1,1.1E1,2.4E1,2.1E1,2E0,6E0,1.8E1],"tree_param":{"num_deleted":"0","num_feature":"16","num_nodes":"11","size_leaf_vector":"1"}},{"base_weights":[4.851715E-4,1.6994044E-1,-5.1646892E-2,-7.7695237E-4,2.018987E-1,-2.68115E-1,1.6433744E-2,5.8944062E-3,-0E0,-8.8959996E-4,-9.40673E-3,-1.2346333E-1,2.17301E-3,8.8053755E-4,-4.8659067E-3],"categories":[],"categories_nodes":[],"categories_segments":[],"categories_sizes":[],"default_left":[0,0,0,0,0,0,0,0,0,0,0,0,0,0,0],"id":45,"left_children":[1,3,5,-1,7,9,11,-1,-1,-1,-1,13,-1,-1,-1],"loss_changes":[1.1248717E0,2.8622758E-1,1.4645559E0,0E0,2.5580835E-1,3.7940288E-1,7.2799575E-1,0E0,0E0,0E0,0E0,3.5317034E-1,0E0,0E0,0E0],"parents":[2147483647,0,0,1,1,2,2,4,4,5,5,6,6,11,11],"right_children":[2,4,6,-1,8,10,12,-1,-1,-1,-1,14,-1,-1,-1],"split_conditions":[-3.8399488E-1,-8.581451E0,-1.5277778E-1,-7.7695237E-4,2.9759446E-1,-9.890244E-2,-3.5458714E-2,5.8944062E-3,-0E0,-8.8959996E-4,-9.40673E-3,-1.5252957E-1,2.17301E-3,8.8053755E-4,-4.8659067E-3],"split_indices":[11,3,2,0,3,11,8,0,0,0,0,0,0,0,0],"split_type":[0,0,0,0,0,0,0,0,0,0,0,0,0,0,0],"sum_hessian":[1.15E2,2.7E1,8.8E1,2E0,2.5E1,2E1,6.8E1,2.2E1,3E0,9E0,1.1E1,2E1,4.8E1,5E0,1.5E1],"tree_param":{"num_deleted":"0","num_feature":"16","num_nodes":"15","size_leaf_vector":"1"}},{"base_weights":[-3.0800555E-2,1.8733217E-3,-1.3433674E-1,-2.6611403E-1,-1.4822296E-2,7.3425275E-5,-8.3045E-3,-1.4930733E-1,1.1999435E-3,1.5289366E-3,-6.4401734E-3],"categories":[],"categories_nodes":[],"categories_segments":[],"categories_sizes":[],"default_left":[0,0,0,0,0,0,0,0,0,0,0],"id":46,"left_children":[1,-1,3,5,7,-1,-1,9,-1,-1,-1],"loss_changes":[1.27961E0,0E0,8.109027E-1,6.061523E-1,3.739712E-1,0E0,0E0,4.642231E-1,0E0,0E0,0E0],"parents":[2147483647,0,0,2,2,3,3,4,4,7,7],"right_children":[2,-1,4,6,8,-1,-1,10,-1,-1,-1],"split_conditions":[-1.1911204E-1,1.8733217E-3,0E0,-5.0521123E-1,-1.6666667E-1,7.3425275E-5,-8.3045E-3,-4.2512032E-1,1.1999435E-3,1.5289366E-3,-6.4401734E-3],"split_indices":[3,0,13,14,2,0,0,11,0,0,0],"split_type":[0,0,0,0,0,0,0,0,0,0,0],"sum_hessian":[1.08E2,5.2E1,5.6E1,2.3E1,3.3E1,4E0,1.9E1,1.1E1,2.2E1,3E0,8E0],"tree_param":{"num_deleted":"0","num_feature":"16","num_nodes":"11","size_leaf_vector":"1"}},{"base_weights":[2.2148495E-3,-1.7147185E-1,6.92249E-2,-7.877101E-3,-0E0,2.111657E-1,4.159594E-3,-0E0,6.6779903E-3,-2.0884496E-1,7.3075704E-2,-0E0,-7.6682777E-3,-1.2698378E-3,2.8708407E-3],"categories":[],"categories_nodes":[],"categories_segments":[],"categories_sizes":[],"default_left":[0,0,0,0,0,0,0,0,0,0,0,0,0,0,0],"id":47,"left_children":[1,3,5,-1,-1,7,9,-1,-1,11,13,-1,-1,-1,-1],"loss_changes":[1.3449228E0,8.1118214E-1,7.1889496E-1,0E0,0E0,2.5431204E-1,9.606112E-1,0E0,0E0,4.059143E-1,3.2276073E-1,0E0,0E0,0E0,0E0],"parents":[2147483647,0,0,1,1,2,2,5,5,6,6,9,9,10,10],"right_children":[2,4,6,-1,-1,8,10,-1,-1,12,14,-1,-1,-1,-1],"split_conditions":[-3.9087927E-1,6.5249175E-1,-3.6663437E-1,-7.877101E-3,-0E0,-1.188439E0,-1.6666667E-1,-0E0,6.6779903E-3,0E0,4.07638E-2,-0E0,-7.6682777E-3,-1.2698378E-3,2.8708407E-3],"split_indices":[15,3,11,0,0,3,12,0,0,3,8,0,0,0,0],"split_type":[0,0,0,0,0,0,0,0,0,0,0,0,0,0,0],"sum_hessian":[1.12E2,2.8E1,8.4E1,1.4E1,1.4E1,2.2E1,6.2E1,6E0,1.6E1,1.2E1,5E1,4E0,8E0,1E1,4E1],"tree_param":{"num_deleted":"0","num_feature":"16","num_nodes":"15","size_leaf_vector":"1"}},{"base_weights":[-3.314117E-2,-2.1639927E-1,2.9644229E-2,-0E0,-1.07388105E-2,1.749312E-1,-1.8696839E-2,-3.3813242E-3,2.0969766E-3,7.600864E-3,3.4594475E-4,-5.3816265E-3,3.7784994E-2,-3.4821306E-3,1.7845087E-3],"categories":[],"categories_nodes":[],"categories_segments":[],"categories_sizes":[],"default_left":[0,0,0,0,0,0,0,0,0,0,0,0,0,0,0],"id":48,"left_children":[1,3,5,7,-1,9,11,-1,-1,-1,-1,-1,13,-1,-1],"loss_changes":[1.3800659E0,1.2471979E0,6.674122E-1,2.8002653E-1,0E0,3.4687185E-1,8.1557363E-1,0E0,0E0,0E0,0E0,0E0,3.1399578E-1,0E0,0E0],"parents":[2147483647,0,0,1,1,2,2,3,3,5,5,6,6,12,12],"right_children":[2,4,6,8,-1,10,12,-1,-1,-1,-1,-1,14,-1,-1],"split_conditions":[-3.713583E-1,-5.9044945E-1,-3.6663437E-1,9.060781E-2,-1.07388105E-2,2.6163575E-1,-4.570799E-2,-3.3813242E-3,2.0969766E-3,7.600864E-3,3.4594475E-4,-5.3816265E-3,-1.0383596E-1,-3.4821306E-3,1.7845087E-3],"split_indices":[15,15,11,13,0,15,8,0,0,0,0,0,11,0,0],"split_type":[0,0,0,0,0,0,0,0,0,0,0,0,0,0,0],"sum_hessian":[1.08E2,2.7E1,8.1E1,1.6E1,1.1E1,2E1,6.1E1,7E0,9E0,8E0,1.2E1,1.3E1,4.8E1,4E0,4.4E1],"tree_param":{"num_deleted":"0","num_feature":"16","num_nodes":"15","size_leaf_vector":"1"}},{"base_weights":[-1.618172E-2,1.0871438E-1,-6.441884E-2,-0E0,6.9349245E-3,-3.2995978E-1,7.7759137E-4,-7.0878603E-3,2.8272278E-3,1.190626E-3,-9.786038E-3],"categories":[],"categories_nodes":[],"categories_segments":[],"categories_sizes":[],"default_left":[0,0,0,0,0,0,0,0,0,0,0],"id":49,"left_children":[1,3,5,7,-1,9,-1,-1,-1,-1,-1],"loss_changes":[6.6648984E-1,6.132084E-1,2.2734513E0,8.1387407E-1,0E0,7.483175E-1,0E0,0E0,0E0,0E0,0E0],"parents":[2147483647,0,0,1,1,2,2,3,3,5,5],"right_children":[2,4,6,8,-1,10,-1,-1,-1,-1,-1],"split_conditions":[-3.8399488E-1,-4.918932E-1,-1.6666667E-1,8.262131E-2,6.9349245E-3,-5.2641696E-1,7.7759137E-4,-7.0878603E-3,2.8272278E-3,1.190626E-3,-9.786038E-3],"split_indices":[11,0,12,14,0,1,0,0,0,0,0],"split_type":[0,0,0,0,0,0,0,0,0,0,0],"sum_hessian":[1.06E2,2.6E1,8E1,1.7E1,9E0,2E1,6E1,4E0,1.3E1,2E0,1.8E1],"tree_param":{"num_deleted":"0","num_feature":"16","num_nodes":"11","size_leaf_vector":"1"}},{"base_weights":[-2.026184E-3,-1.6715008E-1,1.4036198E-3,-2.952937E-1,-0E0,-8.4361695E-3,-0E0],"categories":[],"categories_nodes":[],"categories_segments":[],"categories_sizes":[],"default_left":[0,0,0,0,0,0,0],"id":50,"left_children":[1,3,-1,5,-1,-1,-1],"loss_changes":[1.1770686E0,7.9234576E-1,0E0,2.9236293E-1,0E0,0E0,0E0],"parents":[2147483647,0,0,1,1,3,3],"right_children":[2,4,-1,6,-1,-1,-1],"split_conditions":[-3.713583E-1,-1.5277778E-1,1.4036198E-3,7.334351E-1,-0E0,-8.4361695E-3,-0E0],"split_indices":[15,2,0,3,0,0,0],"split_type":[0,0,0,0,0,0,0],"sum_hessian":[1.11E2,2.9E1,8.2E1,1.6E1,1.3E1,1.4E1,2E0],"tree_param":{"num_deleted":"0","num_feature":"16","num_nodes":"7","size_leaf_vector":"1"}},{"base_weights":[-4.528038E-3,-1.5227824E-1,8.086137E-2,1.0851165E-4,-2.3009522E-1,1.1645794E-1,-2.4508103E-4,-8.214773E-3,-2.841787E-2,-0E0,4.0244213E-3,1.8483921E-3,-5.6357915E-3,-4.203862E-3,1.9333974E-3],"categories":[],"categories_nodes":[],"categories_segments":[],"categories_sizes":[],"default_left":[0,0,0,0,0,0,0,0,0,0,0,0,0,0,0],"id":51,"left_children":[1,3,5,-1,7,9,-1,-1,11,13,-1,-1,-1,-1,-1],"loss_changes":[1.5036141E0,6.361455E-1,2.8064048E-1,0E0,4.5024097E-1,3.2269633E-1,0E0,0E0,4.3149284E-1,2.928108E-1,0E0,0E0,0E0,0E0,0E0],"parents":[2147483647,0,0,1,1,2,2,4,4,5,5,8,8,9,9],"right_children":[2,4,6,-1,8,10,-1,-1,12,14,-1,-1,-1,-1,-1],"split_conditions":[-2.2641447E-1,-5.932665E-1,5.9406954E-1,1.0851165E-4,-3.713583E-1,-3.116769E-1,-2.4508103E-4,-8.214773E-3,-2.9549292E-1,-2.0224719E-1,4.0244213E-3,1.8483921E-3,-5.6357915E-3,-4.203862E-3,1.9333974E-3],"split_indices":[15,15,1,0,15,14,0,0,15,7,0,0,0,0,0],"split_type":[0,0,0,0,0,0,0,0,0,0,0,0,0,0,0],"sum_hessian":[1.1E2,4.1E1,6.9E1,1.3E1,2.8E1,5.2E1,1.7E1,1.6E1,1.2E1,1.4E1,3.8E1,8E0,4E0,4E0,1E1],"tree_param":{"num_deleted":"0","num_feature":"16","num_nodes":"15","size_leaf_vector":"1"}},{"base_weights":[1.4518449E-3,-1.3424501E-1,2.0585572E-3,-2.456686E-1,3.7612987E-4,-0E0,-8.057437E-3],"categories":[],"categories_nodes":[],"categories_segments":[],"categories_sizes":[],"default_left":[0,0,0,0,0,0,0],"id":52,"left_children":[1,3,-1,5,-1,-1,-1],"loss_changes":[1.2527932E0,7.955156E-1,0E0,4.8657203E-1,0E0,0E0,0E0],"parents":[2147483647,0,0,1,1,3,3],"right_children":[2,4,-1,6,-1,-1,-1],"split_conditions":[-2.2641447E-1,-1.6666667E-1,2.0585572E-3,-3.8399488E-1,3.7612987E-4,-0E0,-8.057437E-3],"split_indices":[15,12,0,11,0,0,0],"split_type":[0,0,0,0,0,0,0],"sum_hessian":[1.09E2,3.8E1,7.1E1,2.2E1,1.6E1,6E0,1.6E1],"tree_param":{"num_deleted":"0","num_feature":"16","num_nodes":"7","size_leaf_vector":"1"}},{"base_weights":[-5.603861E-3,-8.999417E-2,1.8098349E-3,-2.1268727E-1,-0E0,-6.367816E-3,-0E0,-3.2095269E-3,5.2807845E-2,2.9615683E-3,-2.001021E-3],"categories":[],"categories_nodes":[],"categories_segments":[],"categories_sizes":[],"default_left":[0,0,0,0,0,0,0,0,0,0,0],"id":53,"left_children":[1,3,-1,5,7,-1,-1,-1,9,-1,-1],"loss_changes":[7.900883E-1,5.811556E-1,0E0,2.6696682E-1,3.1846172E-1,0E0,0E0,0E0,2.97137E-1,0E0,0E0],"parents":[2147483647,0,0,1,1,3,3,4,4,8,8],"right_children":[2,4,-1,6,8,-1,-1,-1,10,-1,-1],"split_conditions":[-5.310812E-2,-2.0833333E-1,1.8098349E-3,8.471202E-1,-1.5277778E-1,-6.367816E-3,-0E0,-3.2095269E-3,-8.6849835E-3,2.9615683E-3,-2.001021E-3],"split_indices":[15,12,0,14,2,0,0,0,14,0,0],"split_type":[0,0,0,0,0,0,0,0,0,0,0],"sum_hessian":[1.12E2,5.6E1,5.6E1,2E1,3.6E1,1.7E1,3E0,1.1E1,2.5E1,1.9E1,6E0],"tree_param":{"num_deleted":"0","num_feature":"16","num_nodes":"11","size_leaf_vector":"1"}},{"base_weights":[-1.779035E-3,-1.2446744E-1,4.2314213E-2,-6.2282677E-3,2.338949E-4,1.7580128E-1,-4.5970995E-3,7.518214E-3,4.4024465E-4,-1.8854569E-1,7.9719024E-4,8.588427E-4,-7.0137302E-3],"categories":[],"categories_nodes":[],"categories_segments":[],"categories_sizes":[],"default_left":[0,0,0,0,0,0,0,0,0,0,0,0,0],"id":54,"left_children":[1,3,5,-1,-1,7,9,-1,-1,11,-1,-1,-1],"loss_changes":[6.4907014E-1,6.462603E-1,5.8166766E-1,0E0,0E0,3.185467E-1,4.964518E-1,0E0,0E0,3.8855493E-1,0E0,0E0,0E0],"parents":[2147483647,0,0,1,1,2,2,5,5,6,6,9,9],"right_children":[2,4,6,-1,-1,8,10,-1,-1,12,-1,-1,-1],"split_conditions":[-3.9087927E-1,6.5249175E-1,-2.6966292E-1,-6.2282677E-3,2.338949E-4,2.6163575E-1,-1.6666667E-1,7.518214E-3,4.4024465E-4,-3.6663437E-1,7.9719024E-4,8.588427E-4,-7.0137302E-3],"split_indices":[15,3,7,0,0,15,12,0,0,11,0,0,0],"split_type":[0,0,0,0,0,0,0,0,0,0,0,0,0],"sum_hessian":[1.07E2,2.9E1,7.8E1,1.5E1,1.4E1,2E1,5.8E1,8E0,1.2E1,9E0,4.9E1,2E0,7E0],"tree_param":{"num_deleted":"0","num_feature":"16","num_nodes":"13","size_leaf_vector":"1"}},{"base_weights":[-6.241377E-3,-1.2560634E-1,2.103876E-3,-2.0841579E-1,-0E0,-0E0,-3.2750168E-1,-3.2975622E-3,2.7149643E-3,-0E0,-9.623962E-3],"categories":[],"categories_nodes":[],"categories_segments":[],"categories_sizes":[],"default_left":[0,0,0,0,0,0,0,0,0,0,0],"id":55,"left_children":[1,3,-1,5,-1,7,9,-1,-1,-1,-1],"loss_changes":[1.2351E0,4.8465955E-1,0E0,7.0286536E-1,0E0,2.5992492E-1,3.127309E-1,0E0,0E0,0E0,0E0],"parents":[2147483647,0,0,1,1,3,3,5,5,6,6],"right_children":[2,4,-1,6,-1,8,10,-1,-1,-1,-1],"split_conditions":[-5.310812E-2,-1.6666667E-1,2.103876E-3,-3.6663437E-1,-0E0,-4.801141E-1,-4.4690967E-1,-3.2975622E-3,2.7149643E-3,-0E0,-9.623962E-3],"split_indices":[15,12,0,11,0,1,0,0,0,0,0],"split_type":[0,0,0,0,0,0,0,0,0,0,0],"sum_hessian":[1.06E2,4.7E1,5.9E1,2.6E1,2.1E1,1.1E1,1.5E1,5E0,6E0,3E0,1.2E1],"tree_param":{"num_deleted":"0","num_feature":"16","num_nodes":"11","size_leaf_vector":"1"}},{"base_weights":[-0E0,-1.7384483E-1,1.5032459E-3,-8.282364E-3,3.8308752E-4],"categories":[],"categories_nodes":[],"categories_segments":[],"categories_sizes":[],"default_left":[0,0,0,0,0],"id":56,"left_children":[1,3,-1,-1,-1],"loss_changes":[1.2719741E0,1.0823684E0,0E0,0E0,0E0],"parents":[2147483647,0,0,1,1],"right_children":[2,4,-1,-1,-1],"split_conditions":[-3.713583E-1,6.5249175E-1,1.5032459E-3,-8.282364E-3,3.8308752E-4],"split_indices":[15,3,0,0,0],"split_type":[0,0,0,0,0],"sum_hessian":[1.13E2,2.8E1,8.5E1,1.5E1,1.3E1],"tree_param":{"num_deleted":"0","num_feature":"16","num_nodes":"5","size_leaf_vector":"1"}},{"base_weights":[1.552745E-2],"categories":[],"categories_nodes":[],"categories_segments":[],"categories_sizes":[],"default_left":[0],"id":57,"left_children":[-1],"loss_changes":[0E0],"parents":[2147483647],"right_children":[-1],"split_conditions":[3.8818625E-4],"split_indices":[0],"split_type":[0],"sum_hessian":[1.07E2],"tree_param":{"num_deleted":"0","num_feature":"16","num_nodes":"1","size_leaf_vector":"1"}},{"base_weights":[3.3343502E-3,-1.8186454E-1,7.5266086E-2,-7.3479037E-3,-0E0,4.0186644E-3,7.4130786E-3,-3.0303344E-3,1.8057078E-3],"categories":[],"categories_nodes":[],"categories_segments":[],"categories_sizes":[],"default_left":[0,0,0,0,0,0,0,0,0],"id":58,"left_children":[1,3,5,-1,-1,-1,7,-1,-1],"loss_changes":[1.5306014E0,5.563005E-1,4.3027478E-1,0E0,0E0,0E0,4.654126E-1,0E0,0E0],"parents":[2147483647,0,0,1,1,2,2,6,6],"right_children":[2,4,6,-1,-1,-1,8,-1,-1],"split_conditions":[-3.713583E-1,7.334351E-1,-2.0915033E-1,-7.3479037E-3,-0E0,4.0186644E-3,4.07638E-2,-3.0303344E-3,1.8057078E-3],"split_indices":[15,3,9,0,0,0,8,0,0],"split_type":[0,0,0,0,0,0,0,0,0],"sum_hessian":[1.11E2,2.8E1,8.3E1,1.5E1,1.3E1,3.2E1,5.1E1,1.4E1,3.7E1],"tree_param":{"num_deleted":"0","num_feature":"16","num_nodes":"9","size_leaf_vector":"1"}},{"base_weights":[-1.5674902E-2,-2.0079899E-1,5.082535E-2,-8.226607E-3,3.5602625E-5,1.391582E-1,-0E0,3.7793673E-4,2.4343227E-1,-4.8049833E-3,1.3554507E-3,7.6305466E-3,-0E0],"categories":[],"categories_nodes":[],"categories_segments":[],"categories_sizes":[],"default_left":[0,0,0,0,0,0,0,0,0,0,0,0,0],"id":59,"left_children":[1,3,5,-1,-1,7,9,-1,11,-1,-1,-1,-1],"loss_changes":[1.4560525E0,9.497496E-1,3.3878732E-1,0E0,0E0,2.5232536E-1,6.043276E-1,0E0,2.713443E-1,0E0,0E0,0E0,0E0],"parents":[2147483647,0,0,1,1,2,2,5,5,6,6,8,8],"right_children":[2,4,6,-1,-1,8,10,-1,12,-1,-1,-1,-1],"split_conditions":[-3.9087927E-1,7.334351E-1,-3.6663437E-1,-8.226607E-3,3.5602625E-5,-4.801141E-1,-5.1299717E-2,3.7793673E-4,2.6163575E-1,-4.8049833E-3,1.3554507E-3,7.6305466E-3,-0E0],"split_indices":[15,3,11,0,0,1,8,0,15,0,0,0,0],"split_type":[0,0,0,0,0,0,0,0,0,0,0,0,0],"sum_hessian":[1.07E2,2.8E1,7.9E1,1.7E1,1.1E1,2.5E1,5.4E1,1.5E1,1E1,9E0,4.5E1,8E0,2E0],"tree_param":{"num_deleted":"0","num_feature":"16","num_nodes":"13","size_leaf_vector":"1"}},{"base_weights":[-2.5641114E-2,-1.318524E-1,4.7155753E-2,-2.0019199E-1,-0E0,4.0274174E-3,-0E0,-3.2329164E-4,-6.8822443E-3,-4.0024943E-3,8.9083705E-4],"categories":[],"categories_nodes":[],"categories_segments":[],"categories_sizes":[],"default_left":[0,0,0,0,0,0,0,0,0,0,0],"id":60,"left_children":[1,3,5,7,-1,-1,9,-1,-1,-1,-1],"loss_changes":[9.1774154E-1,4.5932174E-1,3.8414523E-1,3.2929373E-1,0E0,0E0,3.230995E-1,0E0,0E0,0E0,0E0],"parents":[2147483647,0,0,1,1,2,2,3,3,6,6],"right_children":[2,4,6,8,-1,-1,10,-1,-1,-1,-1],"split_conditions":[-2.2641447E-1,5.0170225E-1,-4.4966593E-1,-8.407946E-2,-0E0,4.0274174E-3,-4.570799E-2,-3.2329164E-4,-6.8822443E-3,-4.0024943E-3,8.9083705E-4],"split_indices":[15,13,1,14,0,0,8,0,0,0,0],"split_type":[0,0,0,0,0,0,0,0,0,0,0],"sum_hessian":[1.08E2,4.5E1,6.3E1,2.9E1,1.6E1,1.7E1,4.6E1,1.1E1,1.8E1,7E0,3.9E1],"tree_param":{"num_deleted":"0","num_feature":"16","num_nodes":"11","size_leaf_vector":"1"}},{"base_weights":[-0E0,-1.6499951E-1,6.241851E-2,-0E0,-7.6689343E-3,1.7467429E-1,4.926622E-3,8.567558E-3,-0E0,-1.8748598E-1,1.7890824E-3,1.0284147E-3,-6.5412666E-3],"categories":[],"categories_nodes":[],"categories_segments":[],"categories_sizes":[],"default_left":[0,0,0,0,0,0,0,0,0,0,0,0,0],"id":61,"left_children":[1,3,5,-1,-1,7,9,-1,-1,11,-1,-1,-1],"loss_changes":[1.2723708E0,7.0749456E-1,4.7694737E-1,0E0,0E0,6.5951633E-1,8.0194926E-1,0E0,0E0,3.886913E-1,0E0,0E0,0E0],"parents":[2147483647,0,0,1,1,2,2,5,5,6,6,9,9],"right_children":[2,4,6,-1,-1,8,10,-1,-1,12,-1,-1,-1],"split_conditions":[-3.713583E-1,-5.828051E-1,-3.6663437E-1,-0E0,-7.6689343E-3,2.6163575E-1,-1.6666667E-1,8.567558E-3,-0E0,-5.2641696E-1,1.7890824E-3,1.0284147E-3,-6.5412666E-3],"split_indices":[15,15,11,0,0,15,12,0,0,1,0,0,0],"split_type":[0,0,0,0,0,0,0,0,0,0,0,0,0],"sum_hessian":[1.13E2,3.1E1,8.2E1,1.7E1,1.4E1,2.3E1,5.9E1,9E0,1.4E1,1.2E1,4.7E1,2E0,1E1],"tree_param":{"num_deleted":"0","num_feature":"16","num_nodes":"13","size_leaf_vector":"1"}},{"base_weights":[2.727898E-2,1.6599031E-1,-1.8079832E-2,6.2957214E-4,6.949709E-3,-2.54603E-1,1.1315157E-3,9.2977437E-4,-7.956156E-3],"categories":[],"categories_nodes":[],"categories_segments":[],"categories_sizes":[],"default_left":[0,0,0,0,0,0,0,0,0],"id":62,"left_children":[1,3,5,-1,-1,7,-1,-1,-1],"loss_changes":[7.586181E-1,3.194492E-1,1.3750232E0,0E0,0E0,5.1597655E-1,0E0,0E0,0E0],"parents":[2147483647,0,0,1,1,2,2,5,5],"right_children":[2,4,6,-1,-1,8,-1,-1,-1],"split_conditions":[-3.6663437E-1,-4.866512E-1,-1.6666667E-1,6.2957214E-4,6.949709E-3,-4.2189443E-1,1.1315157E-3,9.2977437E-4,-7.956156E-3],"split_indices":[11,0,12,0,0,0,0,0,0],"split_type":[0,0,0,0,0,0,0,0,0],"sum_hessian":[1.06E2,2.6E1,8E1,1.5E1,1.1E1,1.6E1,6.4E1,2E0,1.4E1],"tree_param":{"num_deleted":"0","num_feature":"16","num_nodes":"9","size_leaf_vector":"1"}},{"base_weights":[-3.474465E-3,-1.342725E-1,7.544002E-2,-2.1501419E-1,-0E0,1.6712782E-1,-2.999251E-5,-6.540262E-3,-0E0,5.200082E-3,-1.485361E-3],"categories":[],"categories_nodes":[],"categories_segments":[],"categories_sizes":[],"default_left":[0,0,0,0,0,0,0,0,0,0,0],"id":63,"left_children":[1,3,5,7,-1,9,-1,-1,-1,-1,-1],"loss_changes":[1.2201957E0,5.4349315E-1,5.624714E-1,3.8140368E-1,0E0,4.2216069E-1,0E0,0E0,0E0,0E0,0E0],"parents":[2147483647,0,0,1,1,2,2,3,3,5,5],"right_children":[2,4,6,8,-1,10,-1,-1,-1,-1,-1],"split_conditions":[-2.2641447E-1,6.5249175E-1,-7.8612715E-2,7.570336E-1,-0E0,3.1293634E-1,-2.999251E-5,-6.540262E-3,-0E0,5.200082E-3,-1.485361E-3],"split_indices":[15,3,1,13,0,3,0,0,0,0,0],"split_type":[0,0,0,0,0,0,0,0,0,0,0],"sum_hessian":[1.09E2,4.2E1,6.7E1,2.6E1,1.6E1,3.1E1,3.6E1,2.2E1,4E0,2.8E1,3E0],"tree_param":{"num_deleted":"0","num_feature":"16","num_nodes":"11","size_leaf_vector":"1"}},{"base_weights":[-1.0722236E-2,-1.5317412E-1,4.314898E-2,-6.9461935E-3,-0E0,1.4133653E-1,-0E0,1.8435331E-4,7.2673024E-3,-3.280069E-3,1.1050443E-3],"categories":[],"categories_nodes":[],"categories_segments":[],"categories_sizes":[],"default_left":[0,0,0,0,0,0,0,0,0,0,0],"id":64,"left_children":[1,3,5,-1,-1,7,9,-1,-1,-1,-1],"loss_changes":[9.534961E-1,6.95938E-1,3.9201543E-1,0E0,0E0,4.2349166E-1,3.920994E-1,0E0,0E0,0E0,0E0],"parents":[2147483647,0,0,1,1,2,2,5,5,6,6],"right_children":[2,4,6,-1,-1,8,10,-1,-1,-1,-1],"split_conditions":[-4.113759E-1,6.5249175E-1,-3.6663437E-1,-6.9461935E-3,-0E0,-4.801141E-1,4.07638E-2,1.8435331E-4,7.2673024E-3,-3.280069E-3,1.1050443E-3],"split_indices":[15,3,11,0,0,1,8,0,0,0,0],"split_type":[0,0,0,0,0,0,0,0,0,0,0],"sum_hessian":[1.12E2,3.1E1,8.1E1,1.6E1,1.5E1,2.4E1,5.7E1,1.6E1,8E0,1.4E1,4.3E1],"tree_param":{"num_deleted":"0","num_feature":"16","num_nodes":"11","size_leaf_vector":"1"}},{"base_weights":[-8.087934E-3,-1.4245686E-1,6.7891896E-2,3.937863E-4,-2.5957307E-1,2.5771612E-3,-8.108808E-4,-7.337337E-3,-0E0],"categories":[],"categories_nodes":[],"categories_segments":[],"categories_sizes":[],"default_left":[0,0,0,0,0,0,0,0,0],"id":65,"left_children":[1,3,5,-1,7,-1,-1,-1,-1],"loss_changes":[1.1509702E0,8.8078225E-1,2.8183457E-1,0E0,3.0610955E-1,0E0,0E0,0E0,0E0],"parents":[2147483647,0,0,1,1,2,2,4,4],"right_children":[2,4,6,-1,8,-1,-1,-1,-1],"split_conditions":[-2.2641447E-1,-5.828051E-1,7.798514E-1,3.937863E-4,1.7977528E-1,2.5771612E-3,-8.108808E-4,-7.337337E-3,-0E0],"split_indices":[15,15,1,0,7,0,0,0,0],"split_type":[0,0,0,0,0,0,0,0,0],"sum_hessian":[1.03E2,3.8E1,6.5E1,1.6E1,2.2E1,5.1E1,1.4E1,2E1,2E0],"tree_param":{"num_deleted":"0","num_feature":"16","num_nodes":"9","size_leaf_vector":"1"}},{"base_weights":[4.3872534E-3,-1.3448733E-1,1.3614816E-3,-0E0,-2.3957619E-1,-0E0,-7.3810234E-3],"categories":[],"categories_nodes":[],"categories_segments":[],"categories_sizes":[],"default_left":[0,0,0,0,0,0,0],"id":66,"left_children":[1,3,-1,-1,5,-1,-1],"loss_changes":[7.967789E-1,3.560878E-1,0E0,0E0,2.8710765E-1,0E0,0E0],"parents":[2147483647,0,0,1,1,4,4],"right_children":[2,4,-1,-1,6,-1,-1],"split_conditions":[-3.713583E-1,-5.828051E-1,1.3614816E-3,-0E0,-5.3950906E-1,-0E0,-7.3810234E-3],"split_indices":[15,15,0,0,1,0,0],"split_type":[0,0,0,0,0,0,0],"sum_hessian":[1.12E2,2.6E1,8.6E1,1.4E1,1.2E1,2E0,1E1],"tree_param":{"num_deleted":"0","num_feature":"16","num_nodes":"7","size_leaf_vector":"1"}},{"base_weights":[-0E0,-1.2840018E-1,5.132623E-2,4.2943662E-4,-7.4363127E-3,1.5661152E-1,-0E0,-1.1076693E-3,4.8534353E-3,-1.2757206E-1,1.0537723E-3,9.7541366E-4,-5.8043287E-3],"categories":[],"categories_nodes":[],"categories_segments":[],"categories_sizes":[],"default_left":[0,0,0,0,0,0,0,0,0,0,0,0,0],"id":67,"left_children":[1,3,5,-1,-1,7,9,-1,-1,11,-1,-1,-1],"loss_changes":[7.6895744E-1,9.298259E-1,4.4135427E-1,0E0,0E0,2.9737794E-1,3.455334E-1,0E0,0E0,3.790606E-1,0E0,0E0,0E0],"parents":[2147483647,0,0,1,1,2,2,5,5,6,6,9,9],"right_children":[2,4,6,-1,-1,8,10,-1,-1,12,-1,-1,-1],"split_conditions":[-3.713583E-1,-5.932665E-1,-3.6663437E-1,4.2943662E-4,-7.4363127E-3,-8.581451E0,-1.5730338E-1,-1.1076693E-3,4.8534353E-3,0E0,1.0537723E-3,9.7541366E-4,-5.8043287E-3],"split_indices":[15,15,11,0,0,3,7,0,0,3,0,0,0],"split_type":[0,0,0,0,0,0,0,0,0,0,0,0,0],"sum_hessian":[1.14E2,2.9E1,8.5E1,1.6E1,1.3E1,2.4E1,6.1E1,2E0,2.2E1,1.2E1,4.9E1,4E0,8E0],"tree_param":{"num_deleted":"0","num_feature":"16","num_nodes":"13","size_leaf_vector":"1"}},{"base_weights":[-1.8059583E-2,-1.23662665E-1,9.580941E-4,-5.602326E-3,-0E0],"categories":[],"categories_nodes":[],"categories_segments":[],"categories_sizes":[],"default_left":[0,0,0,0,0],"id":68,"left_children":[1,3,-1,-1,-1],"loss_changes":[7.3843926E-1,5.148937E-1,0E0,0E0,0E0],"parents":[2147483647,0,0,1,1],"right_children":[2,4,-1,-1,-1],"split_conditions":[-2.2641447E-1,-1.5277778E-1,9.580941E-4,-5.602326E-3,-0E0],"split_indices":[15,2,0,0,0],"split_type":[0,0,0,0,0],"sum_hessian":[1.12E2,4E1,7.2E1,2E1,2E1],"tree_param":{"num_deleted":"0","num_feature":"16","num_nodes":"5","size_leaf_vector":"1"}},{"base_weights":[-2.157664E-2,1.0613654E-3,-9.0971224E-2,-1.507511E-1,1.031622E-3,1.4894289E-2,-2.3346603E-1,4.205846E-3,-3.7909807E-3,-3.1542668E-1,-0E0,-8.866847E-3,-0E0],"categories":[],"categories_nodes":[],"categories_segments":[],"categories_sizes":[],"default_left":[0,0,0,0,0,0,0,0,0,0,0,0,0],"id":69,"left_children":[1,-1,3,5,-1,7,9,-1,-1,11,-1,-1,-1],"loss_changes":[5.5502623E-1,0E0,5.438231E-1,7.093091E-1,0E0,5.1727265E-1,7.206514E-1,0E0,0E0,2.669587E-1,0E0,0E0,0E0],"parents":[2147483647,0,0,2,2,3,3,5,5,6,6,9,9],"right_children":[2,-1,4,6,-1,8,10,-1,-1,12,-1,-1,-1],"split_conditions":[-2.0850202E-2,1.0613654E-3,6.5249175E-1,-3.6663437E-1,1.031622E-3,3.1293634E-1,7.3738784E-1,4.205846E-3,-3.7909807E-3,7.1910113E-1,-0E0,-8.866847E-3,-0E0],"split_indices":[3,0,3,11,0,3,8,0,0,7,0,0,0],"split_type":[0,0,0,0,0,0,0,0,0,0,0,0,0],"sum_hessian":[1.14E2,5.7E1,5.7E1,4.1E1,1.6E1,1.3E1,2.8E1,8E0,5E0,2.1E1,7E0,1.8E1,3E0],"tree_param":{"num_deleted":"0","num_feature":"16","num_nodes":"13","size_leaf_vector":"1"}},{"base_weights":[-8.407557E-3,-6.2375557E-2,1.7146737E-3,5.1081292E-2,-1.4273334E-1,-0E0,4.7757714E-3,-4.9878457E-3,-0E0,-6.0989144E-3,9.798026E-2,-0E0,6.5438575E-3],"categories":[],"categories_nodes":[],"categories_segments":[],"categories_sizes":[],"default_left":[0,0,0,0,0,0,0,0,0,0,0,0,0],"id":70,"left_children":[1,3,-1,5,7,9,-1,-1,-1,-1,11,-1,-1],"loss_changes":[4.5502198E-1,6.775863E-1,0E0,2.7231652E-1,3.8803732E-1,6.738782E-1,0E0,0E0,0E0,0E0,3.4586257E-1,0E0,0E0],"parents":[2147483647,0,0,1,1,3,3,4,4,5,5,10,10],"right_children":[2,4,-1,6,8,10,-1,-1,-1,-1,12,-1,-1],"split_conditions":[1.219001E-1,-3.6663437E-1,1.7146737E-3,-2.7076045E-1,6.5249175E-1,8.262131E-2,4.7757714E-3,-4.9878457E-3,-0E0,-6.0989144E-3,-3.654827E-1,-0E0,6.5438575E-3],"split_indices":[8,11,0,1,3,14,0,0,0,0,3,0,0],"split_type":[0,0,0,0,0,0,0,0,0,0,0,0,0],"sum_hessian":[1.03E2,6.4E1,3.9E1,2.5E1,3.9E1,1.9E1,6E0,2.8E1,1.1E1,5E0,1.4E1,1E1,4E0],"tree_param":{"num_deleted":"0","num_feature":"16","num_nodes":"13","size_leaf_vector":"1"}},{"base_weights":[-9.267505E-3,8.2837464E-4,-7.078621E-2,-3.8543858E-3,1.3985774E-3],"categories":[],"categories_nodes":[],"categories_segments":[],"categories_sizes":[],"default_left":[0,0,0,0,0],"id":71,"left_children":[1,-1,3,-1,-1],"loss_changes":[3.2716537E-1,0E0,6.242932E-1,0E0,0E0],"parents":[2147483647,0,0,2,2],"right_children":[2,-1,4,-1,-1],"split_conditions":[1.2982452E-1,8.2837464E-4,5.0170225E-1,-3.8543858E-3,1.3985774E-3],"split_indices":[3,0,13,0,0],"split_type":[0,0,0,0,0],"sum_hessian":[1.13E2,6.4E1,4.9E1,3.1E1,1.8E1],"tree_param":{"num_deleted":"0","num_feature":"16","num_nodes":"5","size_leaf_vector":"1"}},{"base_weights":[2.0723944E-3,-1.2966497E-1,6.0326315E-2,-5.925208E-3,5.675833E-4,2.0321482E-1,-0E0,8.030029E-3,9.092725E-4,-3.3798625E-3,1.4475003E-3],"categories":[],"categories_nodes":[],"categories_segments":[],"categories_sizes":[],"default_left":[0,0,0,0,0,0,0,0,0,0,0],"id":72,"left_children":[1,3,5,-1,-1,7,9,-1,-1,-1,-1],"loss_changes":[8.6299187E-1,6.524716E-1,7.115191E-1,0E0,0E0,2.9837275E-1,5.0894696E-1,0E0,0E0,0E0,0E0],"parents":[2147483647,0,0,1,1,2,2,5,5,6,6],"right_children":[2,4,6,-1,-1,8,10,-1,-1,-1,-1],"split_conditions":[-3.713583E-1,6.5249175E-1,-3.6663437E-1,-5.925208E-3,5.675833E-4,2.6163575E-1,4.07638E-2,8.030029E-3,9.092725E-4,-3.3798625E-3,1.4475003E-3],"split_indices":[15,3,11,0,0,15,8,0,0,0,0],"split_type":[0,0,0,0,0,0,0,0,0,0,0],"sum_hessian":[1.09E2,3E1,7.9E1,1.8E1,1.2E1,2.1E1,5.8E1,9E0,1.2E1,1.6E1,4.2E1],"tree_param":{"num_deleted":"0","num_feature":"16","num_nodes":"11","size_leaf_vector":"1"}},{"base_weights":[-0E0,-4.8193533E-2,1.3149977E-3,6.234842E-2,-1.2435461E-1,1.1854713E-1,-2.050257E-3,-0E0,-5.1536425E-3,5.538897E-3,-0E0],"categories":[],"categories_nodes":[],"categories_segments":[],"categories_sizes":[],"default_left":[0,0,0,0,0,0,0,0,0,0,0],"id":73,"left_children":[1,3,-1,5,7,9,-1,-1,-1,-1,-1],"loss_changes":[2.9782993E-1,5.949642E-1,0E0,2.6363048E-1,4.4189018E-1,3.4647268E-1,0E0,0E0,0E0,0E0,0E0],"parents":[2147483647,0,0,1,1,3,3,4,4,5,5],"right_children":[2,4,-1,6,8,10,-1,-1,-1,-1,-1],"split_conditions":[1.219001E-1,-3.6663437E-1,1.3149977E-3,3.6097652E-1,-8.407946E-2,1.2747427E1,-2.050257E-3,-0E0,-5.1536425E-3,5.538897E-3,-0E0],"split_indices":[8,11,0,3,14,14,0,0,0,0,0],"split_type":[0,0,0,0,0,0,0,0,0,0,0],"sum_hessian":[1.11E2,6.1E1,5E1,2.3E1,3.8E1,1.9E1,4E0,1.6E1,2.2E1,1E1,9E0],"tree_param":{"num_deleted":"0","num_feature":"16","num_nodes":"11","size_leaf_vector":"1"}},{"base_weights":[-2.376557E-2,-1.498291E-1,2.6638402E-2,-5.8723125E-3,-0E0,3.017101E-3,-4.2891395E-3,-1.6137025E-1,9.94798E-4,1.015397E-3,-5.786345E-3],"categories":[],"categories_nodes":[],"categories_segments":[],"categories_sizes":[],"default_left":[0,0,0,0,0,0,0,0,0,0,0],"id":74,"left_children":[1,3,5,-1,-1,-1,7,9,-1,-1,-1],"loss_changes":[7.4631155E-1,4.8939246E-1,2.737862E-1,0E0,0E0,0E0,4.7617728E-1,3.2865417E-1,0E0,0E0,0E0],"parents":[2147483647,0,0,1,1,2,2,6,6,7,7],"right_children":[2,4,6,-1,-1,-1,8,10,-1,-1,-1],"split_conditions":[-3.713583E-1,-1.5277778E-1,-3.440571E-1,-5.8723125E-3,-0E0,3.017101E-3,-1.6666667E-1,-5.2641696E-1,9.94798E-4,1.015397E-3,-5.786345E-3],"split_indices":[15,2,11,0,0,0,12,1,0,0,0],"split_type":[0,0,0,0,0,0,0,0,0,0,0],"sum_hessian":[1.04E2,3E1,7.4E1,1.9E1,1.1E1,1.9E1,5.5E1,1.2E1,4.3E1,2E0,1E1],"tree_param":{"num_deleted":"0","num_feature":"16","num_nodes":"11","size_leaf_vector":"1"}},{"base_weights":[-0E0,-9.503497E-2,1.0029617E-3,6.0297357E-4,-5.791416E-3],"categories":[],"categories_nodes":[],"categories_segments":[],"categories_sizes":[],"default_left":[0,0,0,0,0],"id":75,"left_children":[1,3,-1,-1,-1],"loss_changes":[4.433906E-1,6.4791733E-1,0E0,0E0,0E0],"parents":[2147483647,0,0,1,1],"right_children":[2,4,-1,-1,-1],"split_conditions":[-3.9087927E-1,-5.828051E-1,1.0029617E-3,6.0297357E-4,-5.791416E-3],"split_indices":[15,15,0,0,0],"split_type":[0,0,0,0,0],"sum_hessian":[1.14E2,3E1,8.4E1,1.6E1,1.4E1],"tree_param":{"num_deleted":"0","num_feature":"16","num_nodes":"5","size_leaf_vector":"1"}},{"base_weights":[-0E0,1.3497255E-3,-5.2559026E-2,2.8403124E-2,-1.5731156E-1,3.3485943E-3,-1.8074816E-3,2.8397705E-2,-5.932074E-3,3.926781E-3,-2.8951345E-3],"categories":[],"categories_nodes":[],"categories_segments":[],"categories_sizes":[],"default_left":[0,0,0,0,0,0,0,0,0,0,0],"id":76,"left_children":[1,-1,3,5,7,-1,-1,9,-1,-1,-1],"loss_changes":[3.4332216E-1,0E0,5.887828E-1,4.358529E-1,5.452553E-1,0E0,0E0,2.7499902E-1,0E0,0E0,0E0],"parents":[2147483647,0,0,2,2,3,3,4,4,7,7],"right_children":[2,-1,4,6,8,-1,-1,10,-1,-1,-1],"split_conditions":[-4.1880924E-2,1.3497255E-3,-1.0524151E-1,2.4085304E-1,-2.9213482E-1,3.3485943E-3,-1.8074816E-3,3.1293634E-1,-5.932074E-3,3.926781E-3,-2.8951345E-3],"split_indices":[3,0,14,8,7,0,0,3,0,0,0],"split_type":[0,0,0,0,0,0,0,0,0,0,0],"sum_hessian":[1.14E2,5.6E1,5.8E1,3.2E1,2.6E1,1.7E1,1.5E1,7E0,1.9E1,5E0,2E0],"tree_param":{"num_deleted":"0","num_feature":"16","num_nodes":"11","size_leaf_vector":"1"}}]},"name":"gbtree"},"learner_model_param":{"base_score":"8.97964E0","boost_from_average":"1","num_class":"0","num_feature":"16","num_target":"1"},"objective":{"name":"reg:squarederror","reg_loss_param":{"scale_pos_weight":"1"}}},"version":[3,0,0]}