{"learner":{"attributes":{"best_iteration":"27","best_score":"0.30131833693560434"},"feature_names":[],"feature_types":[],"gradient_booster":{"model":{"gbtree_model_param":{"num_parallel_tree":"1","num_trees":"38"},"iteration_indptr":[0,1,2,3,4,5,6,7,8,9,10,11,12,13,14,15,16,17,18,19,20,21,22,23,24,25,26,27,28,29,30,31,32,33,34,35,36,37,38],"tree_info":[0,0,0,0,0,0,0,0,0,0,0,0,0,0,0,0,0,0,0,0,0,0,0,0,0,0,0,0,0,0,0,0,0,0,0,0,0,0],"trees":[{"base_weights":[5.5006826E-3,-3.7071678E-1,2.520505E-1,-5.614032E-1,-0E0,7.628374E-3,4.4378475E-4,-1.9873857E-2,-1.3007377E-1,1.639468E-3,-7.99774E-3],"categories":[],"categories_nodes":[],"categories_segments":[],"categories_sizes":[],"default_left":[0,0,0,0,0,0,0,0,0,0,0],"id":0,"left_children":[1,3,5,7,-1,-1,-1,-1,9,-1,-1],"loss_changes":[1.09929285E1,3.2222548E0,7.5361633E-1,2.3405714E0,0E0,0E0,0E0,0E0,7.5085855E-1,0E0,0E0],"parents":[2147483647,0,0,1,1,2,2,3,3,8,8],"right_children":[2,4,6,8,-1,-1,-1,-1,10,-1,-1],"split_conditions":[-2.2641447E-1,7.0445305E-1,1.2598153E0,-3.713583E-1,-0E0,7.628374E-3,4.4378475E-4,-1.9873857E-2,-3.389845E-1,1.639468E-3,-7.99774E-3],"split_indices":[15,3,1,15,0,0,0,0,15,0,0],"split_type":[0,0,0,0,0,0,0,0,0,0,0],"sum_hessian":[1.12E2,4.3E1,6.9E1,2.7E1,1.6E1,5.4E1,1.5E1,1.5E1,1.2E1,6E0,6E0],"tree_param":{"num_deleted":"0","num_feature":"16","num_nodes":"11","size_leaf_vector":"1"}},{"base_weights":[-1.15314815E-2,-5.2916133E-1,1.9047256E-1,-1.8652547E-3,-7.309719E-1,-0E0,2.6067185E-1,-8.046753E-1,-1.651546E-3,-1.2704214E-1,2.5309229E-3,8.103836E-3,2.6189655E-3,-2.1660227E-2,-8.6701394E-4,6.779491E-4,-2.759496E-1,-9.945668E-3,-0E0],"categories":[],"categories_nodes":[],"categories_segments":[],"categories_sizes":[],"default_left":[0,0,0,0,0,0,0,0,0,0,0,0,0,0,0,0,0,0,0],"id":1,"left_children":[1,3,5,-1,7,9,11,13,-1,15,-1,-1,-1,-1,-1,-1,17,-1,-1],"loss_changes":[1.2042489E1,2.468214E0,1.154161E0,0E0,5.192833E-1,3.6649525E-1,3.0838823E-1,4.137888E-1,0E0,4.3562424E-1,0E0,0E0,0E0,0E0,0E0,0E0,3.8147014E-1,0E0,0E0],"parents":[2147483647,0,0,1,1,2,2,4,4,5,5,6,6,7,7,9,9,16,16],"right_children":[2,4,6,-1,8,10,12,14,-1,16,-1,-1,-1,-1,-1,-1,18,-1,-1],"split_conditions":[-3.713583E-1,-3.3598086E-1,-5.1536072E-2,-1.8652547E-3,7.6934165E-1,-2.0833333E-1,6.013072E-1,1.0265602E0,-1.651546E-3,-3.389845E-1,2.5309229E-3,8.103836E-3,2.6189655E-3,-2.1660227E-2,-8.6701394E-4,6.779491E-4,5.0170225E-1,-9.945668E-3,-0E0],"split_indices":[15,14,15,0,1,12,9,8,0,15,0,0,0,0,0,0,13,0,0],"split_type":[0,0,0,0,0,0,0,0,0,0,0,0,0,0,0,0,0,0,0],"sum_hessian":[1.07E2,2.9E1,7.8E1,1.1E1,1.8E1,2.1E1,5.7E1,1.5E1,3E0,1E1,1.1E1,3.6E1,2.1E1,1.3E1,2E0,5E0,5E0,3E0,2E0],"tree_param":{"num_deleted":"0","num_feature":"16","num_nodes":"19","size_leaf_vector":"1"}},{"base_weights":[-1.5364379E-3,-4.3095753E-1,2.4139926E-1,-6.6360116E-1,-1.6909298E-1,6.385978E-3,-5.5023364E-4,-0E0,-1.7904049E-2,1.6457798E-3,-2.5714323E-1,-1.08984485E-2,-0E0],"categories":[],"categories_nodes":[],"categories_segments":[],"categories_sizes":[],"default_left":[0,0,0,0,0,0,0,0,0,0,0,0,0],"id":2,"left_children":[1,3,5,7,9,-1,-1,-1,-1,-1,11,-1,-1],"loss_changes":[1.217613E1,1.8633332E0,3.8486814E-1,4.6091557E-1,6.6324383E-1,0E0,0E0,0E0,0E0,0E0,8.299676E-1,0E0,0E0],"parents":[2147483647,0,0,1,1,2,2,3,3,4,4,10,10],"right_children":[2,4,6,8,10,-1,-1,-1,-1,-1,12,-1,-1],"split_conditions":[-2.3860456E-1,-2.9247594E-1,3.4068313E0,-5.932665E-1,-3.0352077E-1,6.385978E-3,-5.5023364E-4,-0E0,-1.7904049E-2,1.6457798E-3,1.5413257E-1,-1.08984485E-2,-0E0],"split_indices":[15,8,1,15,1,0,0,0,0,0,1,0,0],"split_type":[0,0,0,0,0,0,0,0,0,0,0,0,0],"sum_hessian":[1.09E2,3.9E1,7E1,1.7E1,2.2E1,6.8E1,2E0,2E0,1.5E1,5E0,1.7E1,8E0,9E0],"tree_param":{"num_deleted":"0","num_feature":"16","num_nodes":"13","size_leaf_vector":"1"}},{"base_weights":[-2.8692292E-2,-3.6220616E-1,2.128095E-1,-5.107994E-1,-2.0013656E-3,-0E0,2.5451133E-1,-0E0,-5.745252E-1,-3.8137313E-3,3.7925232E-3,7.014365E-3,-1.0883757E-3,-1.832412E-2,-1.3449231E-1,8.1627397E-4,-7.86229E-3],"categories":[],"categories_nodes":[],"categories_segments":[],"categories_sizes":[],"default_left":[0,0,0,0,0,0,0,0,0,0,0,0,0,0,0,0,0],"id":3,"left_children":[1,3,5,7,-1,9,11,-1,13,-1,-1,-1,-1,-1,15,-1,-1],"loss_changes":[9.632397E0,1.7377906E0,6.871762E-1,1.1884003E0,0E0,3.9367586E-1,5.92E-1,0E0,1.2949743E0,0E0,0E0,0E0,0E0,0E0,5.2474666E-1,0E0,0E0],"parents":[2147483647,0,0,1,1,2,2,3,3,5,5,6,6,8,8,14,14],"right_children":[2,4,6,8,-1,10,12,-1,14,-1,-1,-1,-1,-1,16,-1,-1],"split_conditions":[-1.9810812E-1,-8.3333336E-2,2.4286933E-2,-1.1867843E0,-2.0013656E-3,0E0,3.4068313E0,-0E0,-3.713583E-1,-3.8137313E-3,3.7925232E-3,7.014365E-3,-1.0883757E-3,-1.832412E-2,-3.389845E-1,8.1627397E-4,-7.86229E-3],"split_indices":[15,12,15,15,0,13,1,0,15,0,0,0,0,0,15,0,0],"split_type":[0,0,0,0,0,0,0,0,0,0,0,0,0,0,0,0,0],"sum_hessian":[1.12E2,4.7E1,6.5E1,2.8E1,1.9E1,1E1,5.5E1,3E0,2.5E1,6E0,4E0,5.2E1,3E0,1.6E1,9E0,5E0,4E0],"tree_param":{"num_deleted":"0","num_feature":"16","num_nodes":"17","size_leaf_vector":"1"}},{"base_weights":[-3.2529093E-2,-4.01353E-1,1.9817497E-1,-5.636393E-1,-9.0616796E-4,6.266708E-3,-1.4331283E-4,-6.1271524E-1,-0E0,-1.6753696E-2,-1.19413206E-4],"categories":[],"categories_nodes":[],"categories_segments":[],"categories_sizes":[],"default_left":[0,0,0,0,0,0,0,0,0,0,0],"id":4,"left_children":[1,3,5,7,-1,-1,-1,9,-1,-1,-1],"loss_changes":[1.0017276E1,2.3844934E0,8.683245E-1,6.3452816E-1,0E0,0E0,0E0,6.790037E-1,0E0,0E0,0E0],"parents":[2147483647,0,0,1,1,2,2,3,3,7,7],"right_children":[2,4,6,8,-1,-1,-1,10,-1,-1,-1],"split_conditions":[-1.9810812E-1,7.0445305E-1,1.2598153E0,1E0,-9.0616796E-4,6.266708E-3,-1.4331283E-4,7.842326E-1,-0E0,-1.6753696E-2,-1.19413206E-4],"split_indices":[15,3,1,4,0,0,0,14,0,0,0],"split_type":[0,0,0,0,0,0,0,0,0,0,0],"sum_hessian":[1.1E2,4.2E1,6.8E1,2.7E1,1.5E1,5.5E1,1.3E1,2.4E1,3E0,2.1E1,3E0],"tree_param":{"num_deleted":"0","num_feature":"16","num_nodes":"11","size_leaf_vector":"1"}},{"base_weights":[3.0105533E-2,1.602207E-1,-1.8798468E-1,2.4320693E-1,2.199942E-3,4.4067316E-2,-3.490061E-1,9.419092E-3,9.855102E-2,2.388036E-3,-6.8807337E-3,3.2893128E-3,-2.6002044E-3,-4.221924E-1,3.1593305E-3,-6.2087956E-3,4.315697E-3,-5.202988E-1,1.7027326E-3,-5.748606E-1,-0E0,-1.6542692E-2,-1.8443762E-3],"categories":[],"categories_nodes":[],"categories_segments":[],"categories_sizes":[],"default_left":[0,0,0,0,0,0,0,0,0,0,0,0,0,0,0,0,0,0,0,0,0,0,0],"id":5,"left_children":[1,3,5,7,9,11,13,-1,15,-1,-1,-1,-1,17,-1,-1,-1,19,-1,21,-1,-1,-1],"loss_changes":[3.286706E0,8.638103E-1,1.7638315E0,5.782869E-1,8.097815E-1,3.1159073E-1,1.2270346E0,0E0,8.52142E-1,0E0,0E0,0E0,0E0,1.4833989E0,0E0,0E0,0E0,6.237788E-1,0E0,3.8354254E-1,0E0,0E0,0E0],"parents":[2147483647,0,0,1,1,2,2,3,3,4,4,5,5,6,6,8,8,13,13,17,17,19,19],"right_children":[2,4,6,8,10,12,14,-1,16,-1,-1,-1,-1,18,-1,-1,-1,20,-1,22,-1,-1,-1],"split_conditions":[2.701164E-1,5.9199494E-1,-3.6651197E-1,1.237596E-1,-1.0408747E-2,1.4695437E0,6.883514E-1,9.419092E-3,1.3748628E-1,2.388036E-3,-6.8807337E-3,3.2893128E-3,-2.6002044E-3,7.0445305E-1,3.1593305E-3,-6.2087956E-3,4.315697E-3,2.119095E0,1.7027326E-3,-1.6666667E-1,-0E0,-1.6542692E-2,-1.8443762E-3],"split_indices":[3,14,14,0,3,3,14,0,0,0,0,0,0,3,0,0,0,11,0,12,0,0,0],"split_type":[0,0,0,0,0,0,0,0,0,0,0,0,0,0,0,0,0,0,0,0,0,0,0],"sum_hessian":[1.09E2,7E1,3.9E1,4.3E1,2.7E1,1.6E1,2.3E1,1.8E1,2.5E1,2.3E1,4E0,1.2E1,4E0,2.1E1,2E0,2E0,2.3E1,1.8E1,3E0,1.6E1,2E0,1.2E1,4E0],"tree_param":{"num_deleted":"0","num_feature":"16","num_nodes":"23","size_leaf_vector":"1"}},{"base_weights":[1.2727237E-3,-3.65871E-1,2.2701477E-1,-1.543953E-3,-5.3771126E-1,1.480549E-1,1.0983794E-2,-5.9368515E-1,-0E0,-1.1714393E-3,4.619653E-3,-6.419307E-1,-0E0,-1.8786876E-2,-1.1790271E-1,-6.759499E-3,3.2660263E-4],"categories":[],"categories_nodes":[],"categories_segments":[],"categories_sizes":[],"default_left":[0,0,0,0,0,0,0,0,0,0,0,0,0,0,0,0,0],"id":6,"left_children":[1,3,5,-1,7,9,-1,11,-1,-1,-1,13,-1,-1,15,-1,-1],"loss_changes":[9.559136E0,1.9172435E0,7.529111E-1,0E0,6.208234E-1,5.1145923E-1,0E0,5.7675457E-1,0E0,0E0,0E0,5.7633877E-1,0E0,0E0,2.8502968E-1,0E0,0E0],"parents":[2147483647,0,0,1,1,2,2,4,4,5,5,7,7,11,11,14,14],"right_children":[2,4,6,-1,8,10,-1,12,-1,-1,-1,14,-1,-1,16,-1,-1],"split_conditions":[-2.3860456E-1,-1.946088E-1,8.56002E-2,-1.543953E-3,1.3980432E0,-5.1536072E-2,1.0983794E-2,7.6934165E-1,-0E0,-1.1714393E-3,4.619653E-3,-3.713583E-1,-0E0,-1.8786876E-2,1.7977504E-1,-6.759499E-3,3.2660263E-4],"split_indices":[15,14,3,0,13,15,0,1,0,0,0,15,0,0,3,0,0],"split_type":[0,0,0,0,0,0,0,0,0,0,0,0,0,0,0,0,0],"sum_hessian":[1.09E2,4E1,6.9E1,1.7E1,2.3E1,5.6E1,1.3E1,2E1,3E0,7E0,4.9E1,1.8E1,2E0,1.3E1,5E0,2E0,3E0],"tree_param":{"num_deleted":"0","num_feature":"16","num_nodes":"17","size_leaf_vector":"1"}},{"base_weights":[2.2484323E-2,-2.975323E-1,5.206156E-3,-4.4968826E-1,-0E0,-1.61103E-2,-6.547713E-2,1.953448E-3,-6.754171E-3],"categories":[],"categories_nodes":[],"categories_segments":[],"categories_sizes":[],"default_left":[0,0,0,0,0,0,0,0,0],"id":7,"left_children":[1,3,-1,5,-1,-1,7,-1,-1],"loss_changes":[6.631134E0,1.773536E0,0E0,1.5509629E0,0E0,0E0,5.475506E-1,0E0,0E0],"parents":[2147483647,0,0,1,1,3,3,6,6],"right_children":[2,4,-1,6,-1,-1,8,-1,-1],"split_conditions":[-2.3860456E-1,7.0445305E-1,5.206156E-3,-3.713583E-1,-0E0,-1.61103E-2,-3.389845E-1,1.953448E-3,-6.754171E-3],"split_indices":[15,3,0,15,0,0,15,0,0],"split_type":[0,0,0,0,0,0,0,0,0],"sum_hessian":[1.05E2,3.7E1,6.8E1,2.3E1,1.4E1,1.3E1,1E1,6E0,4E0],"tree_param":{"num_deleted":"0","num_feature":"16","num_nodes":"9","size_leaf_vector":"1"}},{"base_weights":[-2.7810626E-2,-3.5602954E-1,2.0411986E-1,-5.5998594E-1,-9.105798E-3,6.1374283E-3,-0E0,-6.172129E-1,-0E0,1.3700895E-3,-3.803237E-3,-1.7196571E-2,-1.5974222E-3],"categories":[],"categories_nodes":[],"categories_segments":[],"categories_sizes":[],"default_left":[0,0,0,0,0,0,0,0,0,0,0,0,0],"id":8,"left_children":[1,3,5,7,9,-1,-1,11,-1,-1,-1,-1,-1],"loss_changes":[8.4984455E0,3.0447311E0,5.369952E-1,1.1580706E0,2.646326E-1,0E0,0E0,5.8139515E-1,0E0,0E0,0E0,0E0,0E0],"parents":[2147483647,0,0,1,1,2,2,3,3,4,4,7,7],"right_children":[2,4,6,8,10,-1,-1,12,-1,-1,-1,-1,-1],"split_conditions":[-2.2641447E-1,7.0445305E-1,1.2598153E0,1.2513537E0,0E0,6.1374283E-3,-0E0,-1.25E-1,-0E0,1.3700895E-3,-3.803237E-3,-1.7196571E-2,-1.5974222E-3],"split_indices":[15,3,1,8,8,0,0,12,0,0,0,0,0],"split_type":[0,0,0,0,0,0,0,0,0,0,0,0,0],"sum_hessian":[1.04E2,4.3E1,6.1E1,2.5E1,1.8E1,5E1,1.1E1,2.3E1,2E0,1.2E1,6E0,1.9E1,4E0],"tree_param":{"num_deleted":"0","num_feature":"16","num_nodes":"13","size_leaf_vector":"1"}},{"base_weights":[-0E0,-3.5260147E-1,2.030676E-1,-5.5699605E-1,-1.51598E-3,2.5540012E-1,4.651795E-3,-1.547718E-2,-0E0,1.6156288E-3,-4.019489E-3,6.782026E-3,-0E0,-3.8555562E-3,2.5030738E-3],"categories":[],"categories_nodes":[],"categories_segments":[],"categories_sizes":[],"default_left":[0,0,0,0,0,0,0,0,0,0,0,0,0,0,0],"id":9,"left_children":[1,3,5,7,9,11,13,-1,-1,-1,-1,-1,-1,-1,-1],"loss_changes":[8.190483E0,2.7516785E0,6.550157E-1,7.123127E-1,2.8023872E-1,2.5179625E-1,3.4334615E-1,0E0,0E0,0E0,0E0,0E0,0E0,0E0,0E0],"parents":[2147483647,0,0,1,1,2,2,3,3,4,4,5,5,6,6],"right_children":[2,4,6,8,10,12,14,-1,-1,-1,-1,-1,-1,-1,-1],"split_conditions":[-2.2641447E-1,7.0445305E-1,1.0196079E0,1E0,0E0,2.693956E1,-3.2074902E-2,-1.547718E-2,-0E0,1.6156288E-3,-4.019489E-3,6.782026E-3,-0E0,-3.8555562E-3,2.5030738E-3],"split_indices":[15,3,9,4,8,14,8,0,0,0,0,0,0,0,0],"split_type":[0,0,0,0,0,0,0,0,0,0,0,0,0,0,0],"sum_hessian":[1.08E2,3.8E1,7E1,2.2E1,1.6E1,5.3E1,1.7E1,1.9E1,3E0,1.1E1,5E0,5E1,3E0,4E0,1.3E1],"tree_param":{"num_deleted":"0","num_feature":"16","num_nodes":"15","size_leaf_vector":"1"}},{"base_weights":[8.583794E-3,1.2520005E-1,-2.0085233E-1,2.1548612E-1,-9.348046E-3,2.2518395E-2,-3.4010234E-1,1.0497841E-2,1.163982E-1,2.5122492E-3,-3.6596143E-1,5.3453175E-3,-9.2450355E-4,-4.077213E-1,2.927631E-3,-8.397352E-2,4.7328766E-3,-1.1390084E-2,-0E0,-5.1435685E-1,-0E0,5.4444664E-4,-7.1481145E-3,-5.746689E-1,-0E0,-1.6374744E-2,-3.039712E-4],"categories":[],"categories_nodes":[],"categories_segments":[],"categories_sizes":[],"default_left":[0,0,0,0,0,0,0,0,0,0,0,0,0,0,0,0,0,0,0,0,0,0,0,0,0,0,0],"id":10,"left_children":[1,3,5,7,9,11,13,-1,15,-1,17,-1,-1,19,-1,21,-1,-1,-1,23,-1,-1,-1,25,-1,-1,-1],"loss_changes":[2.9519558E0,1.0552572E0,1.4757745E0,6.1709213E-1,1.5470878E0,3.0896893E-1,1.1335459E0,0E0,6.748915E-1,0E0,2.8449428E-1,0E0,0E0,1.1845059E0,0E0,3.7305352E-1,0E0,0E0,0E0,6.8597937E-1,0E0,0E0,0E0,5.411205E-1,0E0,0E0,0E0],"parents":[2147483647,0,0,1,1,2,2,3,3,4,4,5,5,6,6,8,8,10,10,13,13,15,15,19,19,23,23],"right_children":[2,4,6,8,10,12,14,-1,16,-1,18,-1,-1,20,-1,22,-1,-1,-1,24,-1,-1,-1,26,-1,-1,-1],"split_conditions":[2.701164E-1,5.0312144E-1,-3.6651197E-1,-2.7450982E-1,-2.579305E-1,-3.2844383E-1,1.7164608E0,1.0497841E-2,-3.5458714E-2,2.5122492E-3,0E0,5.3453175E-3,-9.2450355E-4,7.0445305E-1,2.927631E-3,6.535948E-2,4.7328766E-3,-1.1390084E-2,-0E0,2.1143012E-1,-0E0,5.4444664E-4,-7.1481145E-3,-1.6666667E-1,-0E0,-1.6374744E-2,-3.039712E-4],"split_indices":[3,14,14,9,3,1,14,0,8,0,13,0,0,3,0,9,0,0,0,11,0,0,0,12,0,0,0],"split_type":[0,0,0,0,0,0,0,0,0,0,0,0,0,0,0,0,0,0,0,0,0,0,0,0,0,0,0],"sum_hessian":[1.15E2,7.6E1,3.9E1,4.6E1,3E1,1.5E1,2.4E1,1E1,3.6E1,2.4E1,6E0,3E0,1.2E1,2.2E1,2E0,8E0,2.8E1,4E0,2E0,1.7E1,5E0,6E0,2E0,1.5E1,2E0,1.2E1,3E0],"tree_param":{"num_deleted":"0","num_feature":"16","num_nodes":"27","size_leaf_vector":"1"}},{"base_weights":[-1.7138388E-2,-3.6363578E-1,1.871744E-1,-4.985041E-1,-2.5288478E-2,5.660873E-3,-0E0,-5.6963235E-1,-0E0,1.1765191E-3,-4.926229E-3,-3.8054406E-3,2.4954665E-3,-1.5704496E-2,-0E0],"categories":[],"categories_nodes":[],"categories_segments":[],"categories_sizes":[],"default_left":[0,0,0,0,0,0,0,0,0,0,0,0,0,0,0],"id":11,"left_children":[1,3,5,7,9,-1,11,13,-1,-1,-1,-1,-1,-1,-1],"loss_changes":[8.627084E0,1.8226318E0,5.0818896E-1,1.0952773E0,3.0992E-1,0E0,3.0828738E-1,7.447157E-1,0E0,0E0,0E0,0E0,0E0,0E0,0E0],"parents":[2147483647,0,0,1,1,2,2,3,3,4,4,6,6,7,7],"right_children":[2,4,6,8,10,-1,12,14,-1,-1,-1,-1,-1,-1,-1],"split_conditions":[-2.2641447E-1,7.0445305E-1,1.2598153E0,6.8224216E-1,0E0,5.660873E-3,-3.2074902E-2,1E0,-0E0,1.1765191E-3,-4.926229E-3,-3.8054406E-3,2.4954665E-3,-1.5704496E-2,-0E0],"split_indices":[15,3,1,8,8,0,8,4,0,0,0,0,0,0,0],"split_type":[0,0,0,0,0,0,0,0,0,0,0,0,0,0,0],"sum_hessian":[1.14E2,4.2E1,7.2E1,2.8E1,1.4E1,5.8E1,1.4E1,2.4E1,4E0,1E1,4E0,4E0,1E1,2.1E1,3E0],"tree_param":{"num_deleted":"0","num_feature":"16","num_nodes":"15","size_leaf_vector":"1"}},{"base_weights":[-0E0,-3.2994786E-1,1.8888378E-1,-4.7959784E-1,3.7353104E-5,5.937449E-3,-0E0,-6.20535E-1,-1.01172596E-1,-1.8531173E-2,-2.0909635E-3,2.2359963E-3,-6.4121815E-3],"categories":[],"categories_nodes":[],"categories_segments":[],"categories_sizes":[],"default_left":[0,0,0,0,0,0,0,0,0,0,0,0,0],"id":12,"left_children":[1,3,5,7,-1,-1,-1,9,11,-1,-1,-1,-1],"loss_changes":[7.609493E0,2.4009624E0,7.603557E-1,1.1716089E0,0E0,0E0,0E0,8.46468E-1,5.467758E-1,0E0,0E0,0E0,0E0],"parents":[2147483647,0,0,1,1,2,2,3,3,7,7,8,8],"right_children":[2,4,6,8,-1,-1,-1,10,12,-1,-1,-1,-1],"split_conditions":[-2.2641447E-1,7.0445305E-1,1.2598153E0,-3.9087927E-1,3.7353104E-5,5.937449E-3,-0E0,-1.6748802E-1,-3.3968085E-1,-1.8531173E-2,-2.0909635E-3,2.2359963E-3,-6.4121815E-3],"split_indices":[15,3,1,15,0,0,0,8,15,0,0,0,0],"split_type":[0,0,0,0,0,0,0,0,0,0,0,0,0],"sum_hessian":[1.15E2,4.1E1,7.4E1,2.8E1,1.3E1,5.9E1,1.5E1,1.8E1,1E1,1.3E1,5E0,4E0,6E0],"tree_param":{"num_deleted":"0","num_feature":"16","num_nodes":"13","size_leaf_vector":"1"}},{"base_weights":[-6.2438674E-5,-3.275989E-1,1.9361664E-1,-0E0,-4.8751456E-1,6.0944874E-3,-0E0,-5.408644E-1,1.7609853E-4,-6.412775E-4,-6.37901E-1,-1.7011642E-2,-2.0813766E-4],"categories":[],"categories_nodes":[],"categories_segments":[],"categories_sizes":[],"default_left":[0,0,0,0,0,0,0,0,0,0,0,0,0],"id":13,"left_children":[1,3,5,-1,7,-1,-1,9,-1,-1,11,-1,-1],"loss_changes":[7.348814E0,2.105142E0,7.367861E-1,0E0,9.7882414E-1,0E0,0E0,1.0021644E0,0E0,0E0,2.808056E-1,0E0,0E0],"parents":[2147483647,0,0,1,1,2,2,4,4,7,7,10,10],"right_children":[2,4,6,-1,8,-1,-1,10,-1,-1,12,-1,-1],"split_conditions":[-2.3860456E-1,-3.3598086E-1,1.3202615E0,-0E0,1.2513537E0,6.0944874E-3,-0E0,-8.0624E-1,1.7609853E-4,-6.412775E-4,3.949253E-1,-1.7011642E-2,-2.0813766E-4],"split_indices":[15,14,9,0,8,0,0,15,0,0,1,0,0],"split_type":[0,0,0,0,0,0,0,0,0,0,0,0,0],"sum_hessian":[1.08E2,4E1,6.8E1,1.5E1,2.5E1,5.4E1,1.4E1,2.3E1,2E0,5E0,1.8E1,1.6E1,2E0],"tree_param":{"num_deleted":"0","num_feature":"16","num_nodes":"13","size_leaf_vector":"1"}},{"base_weights":[2.2835968E-2,-2.673137E-1,1.9292255E-1,-4.0343514E-1,-0E0,5.97054E-3,-0E0,-5.0376916E-1,-3.9650055E-4,2.4067496E-3,-2.9750878E-3,2.595994E-3,-3.0019241E-3,-1.6422365E-2,-1.2259439E-1,1.5391464E-3,-7.5719315E-3],"categories":[],"categories_nodes":[],"categories_segments":[],"categories_sizes":[],"default_left":[0,0,0,0,0,0,0,0,0,0,0,0,0,0,0,0,0],"id":14,"left_children":[1,3,5,7,9,-1,11,13,-1,-1,-1,-1,-1,-1,15,-1,-1],"loss_changes":[6.1468344E0,1.550142E0,7.1988726E-1,9.1135025E-1,2.6944208E-1,0E0,2.75395E-1,7.196131E-1,0E0,0E0,0E0,0E0,0E0,0E0,5.435994E-1,0E0,0E0],"parents":[2147483647,0,0,1,1,2,2,3,3,4,4,6,6,7,7,14,14],"right_children":[2,4,6,8,10,-1,12,14,-1,-1,-1,-1,-1,-1,16,-1,-1],"split_conditions":[-1.9810812E-1,7.0445305E-1,1.3202615E0,-1.6748802E-1,-3.037917E-1,5.97054E-3,1.569499E0,-3.713583E-1,-3.9650055E-4,2.4067496E-3,-2.9750878E-3,2.595994E-3,-3.0019241E-3,-1.6422365E-2,-3.6663437E-1,1.5391464E-3,-7.5719315E-3],"split_indices":[15,3,9,8,11,0,0,15,0,0,0,0,0,0,11,0,0],"split_type":[0,0,0,0,0,0,0,0,0,0,0,0,0,0,0,0,0],"sum_hessian":[1.18E2,4.2E1,7.6E1,2.6E1,1.6E1,6.1E1,1.5E1,1.9E1,7E0,8E0,8E0,8E0,7E0,1.1E1,8E0,4E0,4E0],"tree_param":{"num_deleted":"0","num_feature":"16","num_nodes":"17","size_leaf_vector":"1"}},{"base_weights":[-1.3277501E-2,-2.8568754E-1,1.6166614E-1,-4.323671E-1,-3.1238334E-4,3.4643024E-1,6.766571E-2,-5.886967E-1,-5.325279E-2,1.2114441E-3,1.2572146E-2,1.267151E-1,-1.5691045E-1,-6.511621E-1,-1.0497959E-3,2.5722466E-3,-5.8631664E-3,3.8006853E-3,-1.2343869E-3,-6.8397555E-3,4.6556396E-4,-1.7695673E-2,-1.0917661E-4],"categories":[],"categories_nodes":[],"categories_segments":[],"categories_sizes":[],"default_left":[0,0,0,0,0,0,0,0,0,0,0,0,0,0,0,0,0,0,0,0,0,0,0],"id":15,"left_children":[1,3,5,7,-1,9,11,13,15,-1,-1,17,19,21,-1,-1,-1,-1,-1,-1,-1,-1,-1],"loss_changes":[5.8585434E0,1.746624E0,1.0288572E0,1.441134E0,0E0,7.431097E-1,7.802411E-1,3.2711315E-1,5.19223E-1,0E0,0E0,2.7459592E-1,3.5535255E-1,3.4568834E-1,0E0,0E0,0E0,0E0,0E0,0E0,0E0,0E0,0E0],"parents":[2147483647,0,0,1,1,2,2,3,3,5,5,6,6,7,7,8,8,11,11,12,12,13,13],"right_children":[2,4,6,8,-1,10,12,14,16,-1,-1,18,20,22,-1,-1,-1,-1,-1,-1,-1,-1,-1],"split_conditions":[-1.9810812E-1,7.0445305E-1,-3.3489978E-1,-3.713583E-1,-3.1238334E-4,-3.709894E-1,-1.1744144E-2,7.6934165E-1,-3.389845E-1,1.2114441E-3,1.2572146E-2,3.4068313E0,1.4671126E-1,1.3440752E-1,-1.0497959E-3,2.5722466E-3,-5.8631664E-3,3.8006853E-3,-1.2343869E-3,-6.8397555E-3,4.6556396E-4,-1.7695673E-2,-1.0917661E-4],"split_indices":[15,3,1,15,0,3,3,1,15,0,0,1,11,8,0,0,0,0,0,0,0,0,0],"split_type":[0,0,0,0,0,0,0,0,0,0,0,0,0,0,0,0,0,0,0,0,0,0,0],"sum_hessian":[1.15E2,4.5E1,7E1,2.7E1,1.8E1,1.9E1,5.1E1,1.7E1,1E1,9E0,1E1,4.3E1,8E0,1.4E1,3E0,5E0,5E0,4E1,3E0,5E0,3E0,1.2E1,2E0],"tree_param":{"num_deleted":"0","num_feature":"16","num_nodes":"23","size_leaf_vector":"1"}},{"base_weights":[-1.2882534E-2,-1.1035854E-1,4.542574E-3,8.143836E-2,-2.07389E-1,-8.6100295E-2,2.800145E-1,-3.955676E-1,2.0684907E-3,-9.205154E-3,3.9935806E-3,1.2020721E-2,-0E0,-8.865514E-4,-4.8450068E-1,-1.4885972E-2,-3.094889E-3],"categories":[],"categories_nodes":[],"categories_segments":[],"categories_sizes":[],"default_left":[0,0,0,0,0,0,0,0,0,0,0,0,0,0,0,0,0],"id":16,"left_children":[1,3,-1,5,7,9,11,13,-1,-1,-1,-1,-1,-1,15,-1,-1],"loss_changes":[2.1754801E0,1.5703892E0,0E0,1.0768507E0,3.2151647E0,1.4335892E0,8.2825184E-1,8.3675337E-1,0E0,0E0,0E0,0E0,0E0,0E0,5.147352E-1,0E0,0E0],"parents":[2147483647,0,0,1,1,3,3,4,4,5,5,6,6,7,7,14,14],"right_children":[2,4,-1,6,8,10,12,14,-1,-1,-1,-1,-1,-1,16,-1,-1],"split_conditions":[4.0051872E-1,-3.8399488E-1,4.542574E-3,-5.615194E-1,1.8055555E-1,2.1668886E1,-2.7450982E-1,-4.2189443E-1,2.0684907E-3,-9.205154E-3,3.9935806E-3,1.2020721E-2,-0E0,-8.865514E-4,0E0,-1.4885972E-2,-3.094889E-3],"split_indices":[11,11,0,1,2,14,9,0,0,0,0,0,0,0,2,0,0],"split_type":[0,0,0,0,0,0,0,0,0,0,0,0,0,0,0,0,0],"sum_hessian":[1.09E2,7.5E1,3.4E1,2.4E1,5.1E1,1.3E1,1.1E1,3.1E1,2E1,6E0,7E0,5E0,6E0,8E0,2.3E1,1.5E1,8E0],"tree_param":{"num_deleted":"0","num_feature":"16","num_nodes":"17","size_leaf_vector":"1"}},{"base_weights":[-2.1873934E-2,1.2730938E-1,-1.5525556E-1,3.7102804E-3,-1.25353E-3,1.0787888E-1,-3.0976224E-1,8.820993E-3,-0E0,-3.612584E-1,2.7108141E-3,-4.0606582E-1,2.5352808E-3,-4.5026892E-1,-0E0,-5.181467E-1,-8.4309E-2,-1.500011E-2,-1.0262787E-3,6.7236455E-4,-6.881129E-3],"categories":[],"categories_nodes":[],"categories_segments":[],"categories_sizes":[],"default_left":[0,0,0,0,0,0,0,0,0,0,0,0,0,0,0,0,0,0,0,0,0],"id":17,"left_children":[1,3,5,-1,-1,7,9,-1,-1,11,-1,13,-1,15,-1,17,19,-1,-1,-1,-1],"loss_changes":[2.3985112E0,2.7317482E-1,2.8200264E0,0E0,0E0,7.614496E-1,1.1534882E0,0E0,0E0,1.0848665E0,0E0,8.112483E-1,0E0,4.6312094E-1,0E0,7.313533E-1,3.4819362E-1,0E0,0E0,0E0,0E0],"parents":[2147483647,0,0,1,1,2,2,5,5,6,6,9,9,11,11,13,13,15,15,16,16],"right_children":[2,4,6,-1,-1,8,10,-1,-1,12,-1,14,-1,16,-1,18,20,-1,-1,-1,-1],"split_conditions":[-1.0408747E-2,2.7502139E0,-3.4804776E-1,3.7102804E-3,-1.25353E-3,4.007984E-1,1.2513537E0,8.820993E-3,-0E0,3.4490705E0,2.7108141E-3,5.857867E-1,2.5352808E-3,6.4388067E-1,-0E0,4.0051872E-1,-2.781909E-1,-1.500011E-2,-1.0262787E-3,6.7236455E-4,-6.881129E-3],"split_indices":[3,1,14,0,0,3,8,0,0,14,0,3,0,13,0,11,0,0,0,0,0],"split_type":[0,0,0,0,0,0,0,0,0,0,0,0,0,0,0,0,0,0,0,0,0],"sum_hessian":[1.13E2,5.2E1,6.1E1,4.9E1,3E0,2.2E1,3.9E1,5E0,1.7E1,3.6E1,3E0,3.4E1,2E0,3.1E1,3E0,2.4E1,7E0,1.9E1,5E0,5E0,2E0],"tree_param":{"num_deleted":"0","num_feature":"16","num_nodes":"21","size_leaf_vector":"1"}},{"base_weights":[-1.3659752E-2,-2.8127828E-1,1.5681872E-1,-4.2835045E-1,-3.7718663E-4,3.127446E-1,7.3506616E-2,-5.460545E-1,-0E0,7.538559E-4,1.1592269E-2,-3.2573682E-3,1.3396153E-1,-1.4596917E-2,-0E0,-4.3190923E-3,2.576175E-3,4.0261727E-3,-1.2390709E-3],"categories":[],"categories_nodes":[],"categories_segments":[],"categories_sizes":[],"default_left":[0,0,0,0,0,0,0,0,0,0,0,0,0,0,0,0,0,0,0],"id":18,"left_children":[1,3,5,7,-1,9,11,13,15,-1,-1,-1,17,-1,-1,-1,-1,-1,-1],"loss_changes":[5.5192704E0,1.6595953E0,7.06851E-1,1.2961683E0,0E0,7.132826E-1,7.2171986E-1,2.7974653E-1,2.7364755E-1,0E0,0E0,0E0,2.9373217E-1,0E0,0E0,0E0,0E0,0E0,0E0],"parents":[2147483647,0,0,1,1,2,2,3,3,5,5,6,6,7,7,8,8,12,12],"right_children":[2,4,6,8,-1,10,12,14,16,-1,-1,-1,18,-1,-1,-1,-1,-1,-1],"split_conditions":[-2.2641447E-1,7.0445305E-1,-3.975978E-1,7.570336E-1,-3.7718663E-4,-3.709894E-1,2.4286933E-2,7.6934165E-1,-4.0476325E-1,7.538559E-4,1.1592269E-2,-3.2573682E-3,3.4068313E0,-1.4596917E-2,-0E0,-4.3190923E-3,2.576175E-3,4.0261727E-3,-1.2390709E-3],"split_indices":[15,3,1,13,0,3,15,1,8,0,0,0,1,0,0,0,0,0,0],"split_type":[0,0,0,0,0,0,0,0,0,0,0,0,0,0,0,0,0,0,0],"sum_hessian":[1.13E2,4.4E1,6.9E1,2.6E1,1.8E1,1.9E1,5E1,1.9E1,7E0,9E0,1E1,9E0,4.1E1,1.7E1,2E0,3E0,4E0,3.8E1,3E0],"tree_param":{"num_deleted":"0","num_feature":"16","num_nodes":"19","size_leaf_vector":"1"}},{"base_weights":[-5.097186E-5,-2.8999382E-1,1.6495338E-1,-4.3171117E-1,-2.6269938E-4,1.7824702E-1,-8.2139793E-4,-1.2081093E-2,-0E0,4.8517487E-3,-0E0],"categories":[],"categories_nodes":[],"categories_segments":[],"categories_sizes":[],"default_left":[0,0,0,0,0,0,0,0,0,0,0],"id":19,"left_children":[1,3,5,7,-1,9,-1,-1,-1,-1,-1],"loss_changes":[5.4082785E0,1.4509668E0,2.640413E-1,7.8242445E-1,0E0,2.528913E-1,0E0,0E0,0E0,0E0,0E0],"parents":[2147483647,0,0,1,1,2,2,3,3,5,5],"right_children":[2,4,6,8,-1,10,-1,-1,-1,-1,-1],"split_conditions":[-2.2641447E-1,7.0445305E-1,3.4068313E0,1.1637957E0,-2.6269938E-4,3.0900854E-1,-8.2139793E-4,-1.2081093E-2,-0E0,4.8517487E-3,-0E0],"split_indices":[15,3,1,13,0,3,0,0,0,0,0],"split_type":[0,0,0,0,0,0,0,0,0,0,0],"sum_hessian":[1.05E2,3.8E1,6.7E1,2.3E1,1.5E1,6.5E1,2E0,2.1E1,2E0,6.1E1,4E0],"tree_param":{"num_deleted":"0","num_feature":"16","num_nodes":"11","size_leaf_vector":"1"}},{"base_weights":[-1.852395E-2,-2.892583E-1,1.4959304E-1,-4.140475E-1,-3.8111833E-4,3.053756E-1,7.799097E-2,-4.7579437E-1,-0E0,1.7378217E-3,1.1718515E-2,-1.8224554E-1,3.3653758E-3,-1.3128447E-2,-0E0,-0E0,-6.7518214E-3],"categories":[],"categories_nodes":[],"categories_segments":[],"categories_sizes":[],"default_left":[0,0,0,0,0,0,0,0,0,0,0,0,0,0,0,0,0],"id":20,"left_children":[1,3,5,7,-1,9,11,13,-1,-1,-1,15,-1,-1,-1,-1,-1],"loss_changes":[5.6008472E0,1.430403E0,5.942948E-1,8.252444E-1,0E0,4.605565E-1,9.14113E-1,5.309038E-1,0E0,0E0,0E0,2.7124324E-1,0E0,0E0,0E0,0E0,0E0],"parents":[2147483647,0,0,1,1,2,2,3,3,5,5,6,6,7,7,11,11],"right_children":[2,4,6,8,-1,10,12,14,-1,-1,-1,16,-1,-1,-1,-1,-1],"split_conditions":[-1.9810812E-1,5.857867E-1,-3.3489978E-1,6.8224216E-1,-3.8111833E-4,-1.0408747E-2,-1.6666667E-1,1E0,-0E0,1.7378217E-3,1.1718515E-2,-1.2769644E-1,3.3653758E-3,-1.3128447E-2,-0E0,-0E0,-6.7518214E-3],"split_indices":[15,3,1,8,0,3,12,4,0,0,0,3,0,0,0,0,0],"split_type":[0,0,0,0,0,0,0,0,0,0,0,0,0,0,0,0,0],"sum_hessian":[1.15E2,4.4E1,7.1E1,2.8E1,1.6E1,1.7E1,5.4E1,2.4E1,4E0,1E1,7E0,7E0,4.7E1,2.1E1,3E0,2E0,5E0],"tree_param":{"num_deleted":"0","num_feature":"16","num_nodes":"17","size_leaf_vector":"1"}},{"base_weights":[8.246814E-3,-3.673834E-1,1.533739E-1,-1.44618675E-2,-1.6679241E-4,2.1823217E-1,-0E0,-3.3459486E-4,2.3524292E-1,1.1852645E-2,1.4798418E-1,-2.5299098E-3,4.41946E-3],"categories":[],"categories_nodes":[],"categories_segments":[],"categories_sizes":[],"default_left":[0,0,0,0,0,0,0,0,0,0,0,0,0],"id":21,"left_children":[1,3,5,-1,-1,7,-1,-1,9,-1,11,-1,-1],"loss_changes":[6.0263925E0,2.0747986E0,7.2603333E-1,0E0,0E0,3.1843138E-1,0E0,0E0,6.20697E-1,0E0,4.193061E-1,0E0,0E0],"parents":[2147483647,0,0,1,1,2,2,5,5,8,8,10,10],"right_children":[2,4,6,-1,-1,8,-1,-1,10,-1,12,-1,-1],"split_conditions":[-3.713583E-1,7.0445305E-1,5.033229E-1,-1.44618675E-2,-1.6679241E-4,-5.1368517E-1,-0E0,-3.3459486E-4,-3.3489978E-1,1.1852645E-2,-3.1807876E-1,-2.5299098E-3,4.41946E-3],"split_indices":[15,3,14,0,0,1,0,0,1,0,0,0,0],"split_type":[0,0,0,0,0,0,0,0,0,0,0,0,0],"sum_hessian":[1.05E2,2.7E1,7.8E1,1.5E1,1.2E1,5.2E1,2.6E1,2E0,5E1,8E0,4.2E1,2E0,4E1],"tree_param":{"num_deleted":"0","num_feature":"16","num_nodes":"13","size_leaf_vector":"1"}},{"base_weights":[1.5418025E-2,-3.6492756E-1,1.6357546E-1,-1.4304637E-2,-0E0,8.3361E-3,7.871606E-2,-1.72793E-1,3.8603027E-3,-2.4384566E-1,3.2508848E-4,1.3018346E-4,-8.507541E-3],"categories":[],"categories_nodes":[],"categories_segments":[],"categories_sizes":[],"default_left":[0,0,0,0,0,0,0,0,0,0,0,0,0],"id":22,"left_children":[1,3,5,-1,-1,-1,7,9,-1,11,-1,-1,-1],"loss_changes":[5.791663E0,1.9340279E0,8.315978E-1,0E0,0E0,0E0,1.161693E0,2.8165287E-1,0E0,4.1650045E-1,0E0,0E0,0E0],"parents":[2147483647,0,0,1,1,2,2,6,6,7,7,9,9],"right_children":[2,4,6,-1,-1,-1,8,10,-1,12,-1,-1,-1],"split_conditions":[-3.713583E-1,9.432137E-1,-3.6663437E-1,-1.4304637E-2,-0E0,8.3361E-3,-1.6666667E-1,-5.490896E-2,3.8603027E-3,-3.5274893E-1,3.2508848E-4,1.3018346E-4,-8.507541E-3],"split_indices":[15,3,11,0,0,0,12,15,0,15,0,0,0],"split_type":[0,0,0,0,0,0,0,0,0,0,0,0,0],"sum_hessian":[9.7E1,2.5E1,7.2E1,1.4E1,1.1E1,1.9E1,5.3E1,1E1,4.3E1,8E0,2E0,2E0,6E0],"tree_param":{"num_deleted":"0","num_feature":"16","num_nodes":"13","size_leaf_vector":"1"}},{"base_weights":[-4.924241E-2,-3.3338112E-1,1.3319944E-1,-4.6376348E-1,-2.4060363E-2,4.4223517E-3,-6.176843E-4,-5.9527546E-1,-8.6230054E-2,1.2395642E-3,-4.2377603E-3,-1.619083E-2,-0E0,2.3160407E-3,-5.473806E-3],"categories":[],"categories_nodes":[],"categories_segments":[],"categories_sizes":[],"default_left":[0,0,0,0,0,0,0,0,0,0,0,0,0,0,0],"id":23,"left_children":[1,3,5,7,9,-1,-1,11,13,-1,-1,-1,-1,-1,-1],"loss_changes":[5.7563257E0,1.5201697E0,5.3500044E-1,1.0124207E0,2.6483673E-1,0E0,0E0,4.9519825E-1,4.1827154E-1,0E0,0E0,0E0,0E0,0E0,0E0],"parents":[2147483647,0,0,1,1,2,2,3,3,4,4,7,7,8,8],"right_children":[2,4,6,8,10,-1,-1,12,14,-1,-1,-1,-1,-1,-1],"split_conditions":[-2.2641447E-1,7.0445305E-1,1.243155E0,-3.9087927E-1,0E0,4.4223517E-3,-6.176843E-4,5.2287585E-1,-3.5155532E-1,1.2395642E-3,-4.2377603E-3,-1.619083E-2,-0E0,2.3160407E-3,-5.473806E-3],"split_indices":[15,3,0,15,8,0,0,9,15,0,0,0,0,0,0],"split_type":[0,0,0,0,0,0,0,0,0,0,0,0,0,0,0],"sum_hessian":[1.03E2,4E1,6.3E1,2.6E1,1.4E1,5.1E1,1.2E1,1.7E1,9E0,9E0,5E0,1.5E1,2E0,3E0,6E0],"tree_param":{"num_deleted":"0","num_feature":"16","num_nodes":"15","size_leaf_vector":"1"}},{"base_weights":[3.6186602E-3,-2.7979377E-1,1.3245258E-1,-4.7020294E-2,-4.657092E-1,1.7138208E-1,-1.0613718E-3,3.0312596E-3,-2.9717078E-3,-0E0,-1.3636951E-2,-0E0,2.0757784E-1,3.3337858E-3,-1.0650404E-1,-0E0,5.6644618E-3,-6.3833515E-3,1.5258187E-3],"categories":[],"categories_nodes":[],"categories_segments":[],"categories_sizes":[],"default_left":[0,0,0,0,0,0,0,0,0,0,0,0,0,0,0,0,0,0,0],"id":24,"left_children":[1,3,5,7,9,11,-1,-1,-1,-1,-1,13,15,-1,17,-1,-1,-1,-1],"loss_changes":[4.4340906E0,1.3411226E0,6.592114E-1,3.0942523E-1,6.802559E-1,3.912239E-1,0E0,0E0,0E0,0E0,0E0,3.0582E-1,2.772298E-1,0E0,3.9407587E-1,0E0,0E0,0E0,0E0],"parents":[2147483647,0,0,1,1,2,2,3,3,4,4,5,5,11,11,12,12,14,14],"right_children":[2,4,6,8,10,12,-1,-1,-1,-1,-1,14,16,-1,18,-1,-1,-1,-1],"split_conditions":[-3.713583E-1,-6.1133295E-1,1.569499E0,-1.8055555E-1,-4.7542027E-1,-1.3385916E-1,-1.0613718E-3,3.0312596E-3,-2.9717078E-3,-0E0,-1.3636951E-2,-2.9549292E-1,-8.312152E-1,3.3337858E-3,-3.9834207E-1,-0E0,5.6644618E-3,-6.3833515E-3,1.5258187E-3],"split_indices":[15,15,0,2,14,15,0,0,0,0,0,15,14,0,0,0,0,0,0],"split_type":[0,0,0,0,0,0,0,0,0,0,0,0,0,0,0,0,0,0,0],"sum_hessian":[1.16E2,3.4E1,8.2E1,1.8E1,1.6E1,6.9E1,1.3E1,3E0,1.5E1,3E0,1.3E1,1.4E1,5.5E1,7E0,7E0,4E0,5.1E1,4E0,3E0],"tree_param":{"num_deleted":"0","num_feature":"16","num_nodes":"19","size_leaf_vector":"1"}},{"base_weights":[-2.674122E-2,-3.3519897E-1,1.10598706E-1,-1.3965118E-2,-1.4211907E-3,1.8730727E-1,2.6376486E-2,5.6990953E-3,-0E0,-5.374747E-3,1.9998741E-3],"categories":[],"categories_nodes":[],"categories_segments":[],"categories_sizes":[],"default_left":[0,0,0,0,0,0,0,0,0,0,0],"id":25,"left_children":[1,3,5,-1,-1,7,9,-1,-1,-1,-1],"loss_changes":[4.858404E0,1.8502531E0,3.979286E-1,0E0,0E0,3.7329304E-1,5.691592E-1,0E0,0E0,0E0,0E0],"parents":[2147483647,0,0,1,1,2,2,5,5,6,6],"right_children":[2,4,6,-1,-1,8,10,-1,-1,-1,-1],"split_conditions":[-3.713583E-1,-1.388889E-1,-4.0567525E-2,-1.3965118E-2,-1.4211907E-3,3.0900854E-1,2.247191E-2,5.6990953E-3,-0E0,-5.374747E-3,1.9998741E-3],"split_indices":[15,2,1,0,0,3,7,0,0,0,0],"split_type":[0,0,0,0,0,0,0,0,0,0,0],"sum_hessian":[1.06E2,3.2E1,7.4E1,1.5E1,1.7E1,3.4E1,4E1,2.9E1,5E0,4E0,3.6E1],"tree_param":{"num_deleted":"0","num_feature":"16","num_nodes":"11","size_leaf_vector":"1"}},{"base_weights":[1.1019568E-2,-3.134015E-1,1.4677247E-1,-1.33117605E-2,-1.0671344E-3,8.589768E-3,6.8785414E-2,-2.6082462E-1,1.3407081E-1,3.71307E-4,-9.160976E-3,-8.900735E-4,4.5593567E-3],"categories":[],"categories_nodes":[],"categories_segments":[],"categories_sizes":[],"default_left":[0,0,0,0,0,0,0,0,0,0,0,0,0],"id":26,"left_children":[1,3,5,-1,-1,-1,7,9,11,-1,-1,-1,-1],"loss_changes":[5.3572555E0,1.7957318E0,1.095392E0,0E0,0E0,0E0,1.5457224E0,4.945109E-1,5.7728195E-1,0E0,0E0,0E0,0E0],"parents":[2147483647,0,0,1,1,2,2,6,6,7,7,8,8],"right_children":[2,4,6,-1,-1,-1,8,10,12,-1,-1,-1,-1],"split_conditions":[-3.713583E-1,5.317605E-1,-3.6663437E-1,-1.33117605E-2,-1.0671344E-3,8.589768E-3,-1.6666667E-1,2.824997E-3,1.1642884E-2,3.71307E-4,-9.160976E-3,-8.900735E-4,4.5593567E-3],"split_indices":[15,3,11,0,0,0,12,3,8,0,0,0,0],"split_type":[0,0,0,0,0,0,0,0,0,0,0,0,0],"sum_hessian":[1.16E2,3.2E1,8.4E1,1.5E1,1.7E1,1.9E1,6.5E1,8E0,5.7E1,2E0,6E0,1.1E1,4.6E1],"tree_param":{"num_deleted":"0","num_feature":"16","num_nodes":"13","size_leaf_vector":"1"}},{"base_weights":[-2.9703842E-2,2.7137822E-3,-1.5084851E-1,6.517209E-2,-2.5011164E-1,-8.776084E-2,9.556629E-3,-4.3532875E-1,-3.209441E-4,-6.3152644E-3,2.1167293E-3,-4.667875E-1,-0E0,-3.429475E-3,-1.4698552E-2],"categories":[],"categories_nodes":[],"categories_segments":[],"categories_sizes":[],"default_left":[0,0,0,0,0,0,0,0,0,0,0,0,0,0,0],"id":27,"left_children":[1,-1,3,5,7,9,-1,11,-1,-1,-1,13,-1,-1,-1],"loss_changes":[1.9752277E0,0E0,1.4926497E0,1.2778399E0,1.8007705E0,6.1104894E-1,0E0,2.595148E-1,0E0,0E0,0E0,3.2616997E-1,0E0,0E0,0E0],"parents":[2147483647,0,0,2,2,3,3,4,4,5,5,7,7,11,11],"right_children":[2,-1,4,6,8,10,-1,12,-1,-1,-1,14,-1,-1,-1],"split_conditions":[-2.0850202E-2,2.7137822E-3,-3.3489978E-1,-4.2096794E-1,-8.3333336E-2,1.0160725E-1,9.556629E-3,6.4566636E-1,-3.209441E-4,-6.3152644E-3,2.1167293E-3,-1.7887546E-1,-0E0,-3.429475E-3,-1.4698552E-2],"split_indices":[3,0,1,0,12,14,0,8,0,0,0,1,0,0,0],"split_type":[0,0,0,0,0,0,0,0,0,0,0,0,0,0,0],"sum_hessian":[1.1E2,5E1,6E1,1.8E1,4.2E1,1.3E1,5E0,2.1E1,2.1E1,7E0,6E0,1.9E1,2E0,8E0,1.1E1],"tree_param":{"num_deleted":"0","num_feature":"16","num_nodes":"15","size_leaf_vector":"1"}},{"base_weights":[-1.9719554E-2,-2.211208E-1,1.15082964E-1,-0E0,-3.1504428E-1,2.766534E-1,3.5147358E-2,-0E0,-3.656274E-1,1.182735E-2,1.9901346E-4,-1.2257458E-1,2.9532553E-3,-4.2967442E-1,-0E0,-6.964194E-3,-0E0,-4.7334692E-1,-0E0,-1.4333737E-2,-1.2032251E-1,1.4819424E-3,-6.828971E-3],"categories":[],"categories_nodes":[],"categories_segments":[],"categories_sizes":[],"default_left":[0,0,0,0,0,0,0,0,0,0,0,0,0,0,0,0,0,0,0,0,0,0,0],"id":28,"left_children":[1,3,5,-1,7,9,11,-1,13,-1,-1,15,-1,17,-1,-1,-1,19,-1,-1,21,-1,-1],"loss_changes":[3.3215342E0,9.046993E-1,7.6468587E-1,0E0,6.1868834E-1,9.292139E-1,7.49121E-1,0E0,7.6415205E-1,0E0,0E0,3.0404624E-1,0E0,5.575342E-1,0E0,0E0,0E0,3.1070518E-1,0E0,0E0,4.3044433E-1,0E0,0E0],"parents":[2147483647,0,0,1,1,2,2,4,4,5,5,6,6,8,8,11,11,13,13,17,17,20,20],"right_children":[2,4,6,-1,8,10,12,-1,14,-1,-1,16,-1,18,-1,-1,-1,20,-1,-1,22,-1,-1],"split_conditions":[-1.9810812E-1,-2.8925714E-1,-3.3489978E-1,-0E0,-8.0624E-1,1.3696384E1,1.4671126E-1,-0E0,1.3440752E-1,1.182735E-2,1.9901346E-4,2.4286933E-2,2.9532553E-3,1E0,-0E0,-6.964194E-3,-0E0,-3.713583E-1,-0E0,-1.4333737E-2,-3.3968085E-1,1.4819424E-3,-6.828971E-3],"split_indices":[15,14,1,0,15,14,11,0,8,0,0,15,0,4,0,0,0,15,0,0,15,0,0],"split_type":[0,0,0,0,0,0,0,0,0,0,0,0,0,0,0,0,0,0,0,0,0,0,0],"sum_hessian":[1.14E2,4.6E1,6.8E1,1.6E1,3E1,1.8E1,5E1,4E0,2.6E1,8E0,1E1,1.5E1,3.5E1,2.2E1,4E0,4E0,1.1E1,2E1,2E0,1.3E1,7E0,3E0,4E0],"tree_param":{"num_deleted":"0","num_feature":"16","num_nodes":"23","size_leaf_vector":"1"}},{"base_weights":[-1.3652349E-2,-3.329178E-1,1.1021802E-1,-4.4552892E-1,-0E0,2.551893E-1,4.081707E-2,-0E0,-1.2450979E-2,-0E0,1.0141927E-2,-4.1320794E-3,8.444217E-2,-2.061469E-3,2.964595E-3],"categories":[],"categories_nodes":[],"categories_segments":[],"categories_sizes":[],"default_left":[0,0,0,0,0,0,0,0,0,0,0,0,0,0,0],"id":29,"left_children":[1,3,5,7,-1,9,11,-1,-1,-1,-1,-1,13,-1,-1],"loss_changes":[4.706152E0,1.1502047E0,6.852467E-1,7.178154E-1,0E0,7.908424E-1,5.78459E-1,0E0,0E0,0E0,0E0,0E0,3.6492804E-1,0E0,0E0],"parents":[2147483647,0,0,1,1,2,2,3,3,5,5,6,6,12,12],"right_children":[2,4,6,8,-1,10,12,-1,-1,-1,-1,-1,14,-1,-1],"split_conditions":[-3.9087927E-1,5.2287585E-1,-3.6663437E-1,-9.491024E-1,-0E0,-3.709894E-1,-3.5458714E-2,-0E0,-1.2450979E-2,-0E0,1.0141927E-2,-4.1320794E-3,-1.0383596E-1,-2.061469E-3,2.964595E-3],"split_indices":[15,9,11,14,0,3,8,0,0,0,0,0,11,0,0],"split_type":[0,0,0,0,0,0,0,0,0,0,0,0,0,0,0],"sum_hessian":[1.1E2,3E1,8E1,2.1E1,9E0,2.1E1,5.9E1,2E0,1.9E1,1E1,1.1E1,7E0,5.2E1,6E0,4.6E1],"tree_param":{"num_deleted":"0","num_feature":"16","num_nodes":"15","size_leaf_vector":"1"}},{"base_weights":[2.4439493E-2,-1.8389434E-1,1.5665077E-1,-2.809891E-1,-0E0,8.3031E-2,3.6465672E-1,-4.2269835E-1,-3.173918E-2,2.6258042E-3,-3.1763718E-3,-0E0,3.4303938E-3,1.0732523E-2,-0E0,-0E0,-1.2290558E-2,2.9250486E-3,-5.2723046E-3],"categories":[],"categories_nodes":[],"categories_segments":[],"categories_sizes":[],"default_left":[0,0,0,0,0,0,0,0,0,0,0,0,0,0,0,0,0,0,0],"id":30,"left_children":[1,3,5,7,9,11,13,15,17,-1,-1,-1,-1,-1,-1,-1,-1,-1,-1],"loss_changes":[3.2161806E0,8.243067E-1,8.2517064E-1,8.132386E-1,2.9125488E-1,2.7702618E-1,2.9396057E-1,6.194401E-1,5.369529E-1,0E0,0E0,0E0,0E0,0E0,0E0,0E0,0E0,0E0,0E0],"parents":[2147483647,0,0,1,1,2,2,3,3,4,4,5,5,6,6,7,7,8,8],"right_children":[2,4,6,8,10,12,14,16,18,-1,-1,-1,-1,-1,-1,-1,-1,-1,-1],"split_conditions":[-2.2641447E-1,7.0445305E-1,8.56002E-2,-3.9087927E-1,0E0,1.1642884E-2,4.007984E-1,-7.3362297E-1,-3.389845E-1,2.6258042E-3,-3.1763718E-3,-0E0,3.4303938E-3,1.0732523E-2,-0E0,-0E0,-1.2290558E-2,2.9250486E-3,-5.2723046E-3],"split_indices":[15,3,3,15,8,8,3,15,15,0,0,0,0,0,0,0,0,0,0],"split_type":[0,0,0,0,0,0,0,0,0,0,0,0,0,0,0,0,0,0,0],"sum_hessian":[1.1E2,4.1E1,6.9E1,2.6E1,1.5E1,5.6E1,1.3E1,1.4E1,1.2E1,9E0,6E0,2.3E1,3.3E1,1E1,3E0,2E0,1.2E1,6E0,6E0],"tree_param":{"num_deleted":"0","num_feature":"16","num_nodes":"19","size_leaf_vector":"1"}},{"base_weights":[2.53942E-2,3.2852457E-3,-7.34909E-2,1.23922445E-1,-2.2487782E-1,-0E0,4.4900635E-3,-4.7321704E-1,-2.641471E-4,-1.3333532E-2,-0E0],"categories":[],"categories_nodes":[],"categories_segments":[],"categories_sizes":[],"default_left":[0,0,0,0,0,0,0,0,0,0,0],"id":31,"left_children":[1,-1,3,5,7,-1,-1,9,-1,-1,-1],"loss_changes":[1.2363473E0,0E0,1.8862373E0,2.543155E-1,1.6783701E0,0E0,0E0,3.6913157E-1,0E0,0E0,0E0],"parents":[2147483647,0,0,2,2,3,3,4,4,7,7],"right_children":[2,-1,4,6,8,-1,-1,10,-1,-1,-1],"split_conditions":[-2.0850202E-2,3.2852457E-3,-2.460476E-1,-5.7932585E-1,-8.3333336E-2,-0E0,4.4900635E-3,1.3440752E-1,-2.641471E-4,-1.3333532E-2,-0E0],"split_indices":[3,0,1,1,12,0,0,8,0,0,0],"split_type":[0,0,0,0,0,0,0,0,0,0,0],"sum_hessian":[1.09E2,5.4E1,5.5E1,2.3E1,3.2E1,6E0,1.7E1,1.2E1,2E1,1E1,2E0],"tree_param":{"num_deleted":"0","num_feature":"16","num_nodes":"11","size_leaf_vector":"1"}},{"base_weights":[5.5697225E-3,-2.3609224E-1,9.861514E-2,-3.8271165E-1,-0E0,-0E0,3.9938483E-3,-1.135022E-2,-0E0,3.730904E-3,-4.073345E-3],"categories":[],"categories_nodes":[],"categories_segments":[],"categories_sizes":[],"default_left":[0,0,0,0,0,0,0,0,0,0,0],"id":32,"left_children":[1,3,5,7,-1,9,-1,-1,-1,-1,-1],"loss_changes":[2.6685476E0,1.1910632E0,5.0473297E-1,3.984475E-1,0E0,1.0187819E0,0E0,0E0,0E0,0E0,0E0],"parents":[2147483647,0,0,1,1,2,2,3,3,5,5],"right_children":[2,4,6,8,-1,10,-1,-1,-1,-1,-1],"split_conditions":[-3.713583E-1,9.432137E-1,1.1642884E-2,1.4206141E-1,-0E0,-3.6663437E-1,3.9938483E-3,-1.135022E-2,-0E0,3.730904E-3,-4.073345E-3],"split_indices":[15,3,8,1,0,11,0,0,0,0,0],"split_type":[0,0,0,0,0,0,0,0,0,0,0],"sum_hessian":[1.14E2,2.9E1,8.5E1,1.7E1,1.2E1,3.5E1,5E1,1.3E1,4E0,1.9E1,1.6E1],"tree_param":{"num_deleted":"0","num_feature":"16","num_nodes":"11","size_leaf_vector":"1"}},{"base_weights":[-4.457067E-2,-3.2567173E-1,5.9280667E-2,-8.7480154E-4,-4.7026655E-1,4.834211E-3,3.8049414E-3,-1.3148615E-2,-0E0,-3.423575E-1,9.533335E-2,1.1293929E-4,-1.1200751E-2,-2.9831743E-4,3.2956381E-3],"categories":[],"categories_nodes":[],"categories_segments":[],"categories_sizes":[],"default_left":[0,0,0,0,0,0,0,0,0,0,0,0,0,0,0],"id":33,"left_children":[1,3,5,-1,7,-1,9,-1,-1,11,13,-1,-1,-1,-1],"loss_changes":[3.195574E0,9.8021007E-1,4.9504822E-1,0E0,4.7290516E-1,0E0,1.9322872E0,0E0,0E0,6.4267874E-1,2.5505286E-1,0E0,0E0,0E0,0E0],"parents":[2147483647,0,0,1,1,2,2,4,4,6,6,9,9,10,10],"right_children":[2,4,6,-1,8,-1,10,-1,-1,12,14,-1,-1,-1,-1],"split_conditions":[-3.713583E-1,-6.63101E-1,-3.6663437E-1,-8.7480154E-4,7.0445305E-1,4.834211E-3,-1.6666667E-1,-1.3148615E-2,-0E0,-3.5274893E-1,1.1642884E-2,1.1293929E-4,-1.1200751E-2,-2.9831743E-4,3.2956381E-3],"split_indices":[15,15,11,0,3,0,12,0,0,15,8,0,0,0,0],"split_type":[0,0,0,0,0,0,0,0,0,0,0,0,0,0,0],"sum_hessian":[1E2,2.6E1,7.4E1,1.1E1,1.5E1,1.7E1,5.7E1,1.3E1,2E0,9E0,4.8E1,2E0,7E0,1E1,3.8E1],"tree_param":{"num_deleted":"0","num_feature":"16","num_nodes":"15","size_leaf_vector":"1"}},{"base_weights":[-4.0109176E-2,-2.5552288E-1,9.523416E-2,-4.1210198E-1,-3.395426E-4,3.6708713E-3,-9.0445904E-4,-1.247927E-2,-7.571098E-4],"categories":[],"categories_nodes":[],"categories_segments":[],"categories_sizes":[],"default_left":[0,0,0,0,0,0,0,0,0],"id":34,"left_children":[1,3,5,7,-1,-1,-1,-1,-1],"loss_changes":[3.429202E0,1.5338101E0,5.4091436E-1,6.1628485E-1,0E0,0E0,0E0,0E0,0E0],"parents":[2147483647,0,0,1,1,2,2,3,3],"right_children":[2,4,6,8,-1,-1,-1,-1,-1],"split_conditions":[-2.2641447E-1,-8.3333336E-2,1.0196079E0,1.3980432E0,-3.395426E-4,3.6708713E-3,-9.0445904E-4,-1.247927E-2,-7.571098E-4],"split_indices":[15,12,9,13,0,0,0,0,0],"split_type":[0,0,0,0,0,0,0,0,0],"sum_hessian":[1.09E2,4.2E1,6.7E1,2.3E1,1.9E1,5E1,1.7E1,1.7E1,6E0],"tree_param":{"num_deleted":"0","num_feature":"16","num_nodes":"9","size_leaf_vector":"1"}},{"base_weights":[-0E0,8.527022E-2,-1.488787E-1,1.5832089E-1,-2.9957775E-2,1.0869335E-3,-2.8299177E-1,6.4992914E-3,7.341884E-4,5.435669E-4,-5.49456E-3,-3.5712436E-1,-0E0,-1.0751415E-2,-0E0],"categories":[],"categories_nodes":[],"categories_segments":[],"categories_sizes":[],"default_left":[0,0,0,0,0,0,0,0,0,0,0,0,0,0,0],"id":35,"left_children":[1,3,5,7,9,-1,11,-1,-1,-1,-1,13,-1,-1,-1],"loss_changes":[1.5647336E0,7.1188295E-1,1.3126533E0,5.063989E-1,3.9526877E-1,0E0,7.147348E-1,0E0,0E0,0E0,0E0,6.0936046E-1,0E0,0E0,0E0],"parents":[2147483647,0,0,1,1,2,2,3,3,4,4,6,6,11,11],"right_children":[2,4,6,8,10,-1,12,-1,-1,-1,-1,14,-1,-1,-1],"split_conditions":[2.6375386E-1,5.033229E-1,-3.6651197E-1,-4.0567525E-2,-1.009794E-1,1.0869335E-3,7.0445305E-1,6.4992914E-3,7.341884E-4,5.435669E-4,-5.49456E-3,2.7414477E-1,-0E0,-1.0751415E-2,-0E0],"split_indices":[3,14,14,1,3,0,3,0,0,0,0,14,0,0,0],"split_type":[0,0,0,0,0,0,0,0,0,0,0,0,0,0,0],"sum_hessian":[1.15E2,7.3E1,4.2E1,4.6E1,2.7E1,1.7E1,2.5E1,2.2E1,2.4E1,2.2E1,5E0,2E1,5E0,1.6E1,4E0],"tree_param":{"num_deleted":"0","num_feature":"16","num_nodes":"15","size_leaf_vector":"1"}},{"base_weights":[6.487196E-3,1.5906322E-1,-3.4020755E-2,-0E0,7.816466E-3,-2.5930333E-1,5.4916736E-2,-4.635864E-3,2.3312706E-3,8.792709E-4,-9.634311E-3,-1.3674916E-3,2.8695725E-3],"categories":[],"categories_nodes":[],"categories_segments":[],"categories_sizes":[],"default_left":[0,0,0,0,0,0,0,0,0,0,0,0,0],"id":36,"left_children":[1,3,5,7,-1,9,11,-1,-1,-1,-1,-1,-1],"loss_changes":[7.704486E-1,7.469741E-1,1.9448589E0,3.5789552E-1,0E0,1.2084318E0,4.8240215E-1,0E0,0E0,0E0,0E0,0E0,0E0],"parents":[2147483647,0,0,1,1,2,2,3,3,5,5,6,6],"right_children":[2,4,6,8,-1,10,12,-1,-1,-1,-1,-1,-1],"split_conditions":[-4.30268E-1,-5.615194E-1,-8.3333336E-2,4.9755245E-2,7.816466E-3,-1.8055555E-1,2.0439394E-2,-4.635864E-3,2.3312706E-3,8.792709E-4,-9.634311E-3,-1.3674916E-3,2.8695725E-3],"split_indices":[1,1,12,14,0,2,8,0,0,0,0,0,0],"split_type":[0,0,0,0,0,0,0,0,0,0,0,0,0],"sum_hessian":[1.1E2,2.3E1,8.7E1,1.2E1,1.1E1,2.4E1,6.3E1,4E0,8E0,7E0,1.7E1,2E1,4.3E1],"tree_param":{"num_deleted":"0","num_feature":"16","num_nodes":"13","size_leaf_vector":"1"}},{"base_weights":[-0E0,-2.3283616E-1,1.5211467E-1,-3.5082233E-1,-0E0,2.1212026E-3,9.079898E-3,-9.777827E-3,-0E0],"categories":[],"categories_nodes":[],"categories_segments":[],"categories_sizes":[],"default_left":[0,0,0,0,0,0,0,0,0],"id":37,"left_children":[1,3,5,7,-1,-1,-1,-1,-1],"loss_changes":[4.2989483E0,1.1787255E0,7.7072847E-1,4.528315E-1,0E0,0E0,0E0,0E0,0E0],"parents":[2147483647,0,0,1,1,2,2,3,3],"right_children":[2,4,6,8,-1,-1,-1,-1,-1],"split_conditions":[-2.2641447E-1,7.0445305E-1,8.56002E-2,6.8224216E-1,-0E0,2.1212026E-3,9.079898E-3,-9.777827E-3,-0E0],"split_indices":[15,3,3,8,0,0,0,0,0],"split_type":[0,0,0,0,0,0,0,0,0],"sum_hessian":[1.15E2,4.4E1,7.1E1,2.7E1,1.7E1,5.9E1,1.2E1,2.4E1,3E0],"tree_param":{"num_deleted":"0","num_feature":"16","num_nodes":"9","size_leaf_vector":"1"}}]},"name":"gbtree"},"learner_model_param":{"base_score":"9.00586E0","boost_from_average":"1","num_class":"0","num_feature":"16","num_target":"1"},"objective":{"name":"reg:squarederror","reg_loss_param":{"scale_pos_weight":"1"}}},"version":[3,0,0]}