{"learner":{"attributes":{"best_iteration":"66","best_score":"0.37280862471636605"},"feature_names":[],"feature_types":[],"gradient_booster":{"model":{"gbtree_model_param":{"num_parallel_tree":"1","num_trees":"77"},"iteration_indptr":[0,1,2,3,4,5,6,7,8,9,10,11,12,13,14,15,16,17,18,19,20,21,22,23,24,25,26,27,28,29,30,31,32,33,34,35,36,37,38,39,40,41,42,43,44,45,46,47,48,49,50,51,52,53,54,55,56,57,58,59,60,61,62,63,64,65,66,67,68,69,70,71,72,73,74,75,76,77],"tree_info":[0,0,0,0,0,0,0,0,0,0,0,0,0,0,0,0,0,0,0,0,0,0,0,0,0,0,0,0,0,0,0,0,0,0,0,0,0,0,0,0,0,0,0,0,0,0,0,0,0,0,0,0,0,0,0,0,0,0,0,0,0,0,0,0,0,0,0,0,0,0,0,0,0,0,0,0,0],"trees":[{"base_weights":[2.2603245E-2,-4.0059122E-1,2.0636722E-1,-6.506586E-1,-1.45275E-3,-2.09031E-2,2.4372593E-1,-1.7447546E-2,-3.3891242E-4,1.9616473E-3,-7.202498E-3,9.541143E-3,1.5972301E-1,-2.303119E-3,1.9466902E-1,2.137279E-1,-5.270854E-4,6.1297542E-3,-0E0],"categories":[],"categories_nodes":[],"categories_segments":[],"categories_sizes":[],"default_left":[0,0,0,0,0,0,0,0,0,0,0,0,0,0,0,0,0,0,0],"id":0,"left_children":[1,3,5,7,-1,9,11,-1,-1,-1,-1,-1,13,-1,15,17,-1,-1,-1],"loss_changes":[9.193844E0,2.6244993E0,8.159194E-1,2.6922894E-1,0E0,5.2141416E-1,4.2164707E-1,0E0,0E0,0E0,0E0,0E0,5.746436E-1,0E0,2.9637325E-1,2.650056E-1,0E0,0E0,0E0],"parents":[2147483647,0,0,1,1,2,2,3,3,5,5,6,6,12,12,14,14,15,15],"right_children":[2,4,6,8,-1,10,12,-1,-1,-1,-1,-1,14,-1,16,18,-1,-1,-1],"split_conditions":[-3.6487162E-1,7.334351E-1,-2.2641447E-1,7.6934165E-1,-1.45275E-3,-2.7168244E-1,-2.6966292E-1,-1.7447546E-2,-3.3891242E-4,1.9616473E-3,-7.202498E-3,9.541143E-3,-2.0224719E-1,-2.303119E-3,2.5662563E0,7.249751E-1,-5.270854E-4,6.1297542E-3,-0E0],"split_indices":[15,3,15,1,0,15,7,0,0,0,0,0,7,0,0,14,0,0,0],"split_type":[0,0,0,0,0,0,0,0,0,0,0,0,0,0,0,0,0,0,0],"sum_hessian":[1.12E2,3.2E1,8E1,1.6E1,1.6E1,1E1,7E1,1.4E1,2E0,8E0,2E0,2E1,5E1,4E0,4.6E1,4.4E1,2E0,3.7E1,7E0],"tree_param":{"num_deleted":"0","num_feature":"16","num_nodes":"19","size_leaf_vector":"1"}},{"base_weights":[7.6747574E-3,-4.4433933E-1,2.0852537E-1,-9.045334E-4,-6.386176E-1,2.4839367E-1,-1.0679724E-3,-6.8326336E-1,-0E0,-0E0,6.9272565E-3,-1.8261472E-2,-4.2458702E-4],"categories":[],"categories_nodes":[],"categories_segments":[],"categories_sizes":[],"default_left":[0,0,0,0,0,0,0,0,0,0,0,0,0],"id":1,"left_children":[1,3,5,-1,7,9,-1,11,-1,-1,-1,-1,-1],"loss_changes":[1.0261968E1,2.3849301E0,9.1573477E-1,0E0,3.941698E-1,4.4887924E-1,0E0,3.022337E-1,0E0,0E0,0E0,0E0,0E0],"parents":[2147483647,0,0,1,1,2,2,4,4,5,5,7,7],"right_children":[2,4,6,-1,8,10,-1,12,-1,-1,-1,-1,-1],"split_conditions":[-3.6487162E-1,-2.8925714E-1,1.1476315E0,-9.045334E-4,7.570336E-1,-2.2641447E-1,-1.0679724E-3,0E0,-0E0,-0E0,6.9272565E-3,-1.8261472E-2,-4.2458702E-4],"split_indices":[15,14,1,0,13,15,0,12,0,0,0,0,0],"split_type":[0,0,0,0,0,0,0,0,0,0,0,0,0],"sum_hessian":[1.07E2,3.1E1,7.6E1,1.2E1,1.9E1,6.7E1,9E0,1.7E1,2E0,8E0,5.9E1,1.5E1,2E0],"tree_param":{"num_deleted":"0","num_feature":"16","num_nodes":"13","size_leaf_vector":"1"}},{"base_weights":[2.4364876E-2,-4.0510684E-1,2.0257124E-1,-6.1918575E-1,-1.5670812E-3,6.0494863E-3,-0E0,-1.6731607E-2,-0E0,-4.6360414E-3,1.8652648E-3],"categories":[],"categories_nodes":[],"categories_segments":[],"categories_sizes":[],"default_left":[0,0,0,0,0,0,0,0,0,0,0],"id":2,"left_children":[1,3,5,7,-1,-1,9,-1,-1,-1,-1],"loss_changes":[8.816349E0,2.0471492E0,6.2555623E-1,3.6238194E-1,0E0,0E0,2.754218E-1,0E0,0E0,0E0,0E0],"parents":[2147483647,0,0,1,1,2,2,3,3,6,6],"right_children":[2,4,6,8,-1,-1,10,-1,-1,-1,-1],"split_conditions":[-3.9376307E-1,0E0,1.1476315E0,1.219001E-1,-1.5670812E-3,6.0494863E-3,-7.024971E-2,-1.6731607E-2,-0E0,-4.6360414E-3,1.8652648E-3],"split_indices":[15,12,1,8,0,0,8,0,0,0,0],"split_type":[0,0,0,0,0,0,0,0,0,0,0],"sum_hessian":[1.09E2,3E1,7.9E1,1.6E1,1.4E1,6.5E1,1.4E1,1.4E1,2E0,2E0,1.2E1],"tree_param":{"num_deleted":"0","num_feature":"16","num_nodes":"11","size_leaf_vector":"1"}},{"base_weights":[-3.0709082E-2,-3.133327E-1,2.377366E-1,-3.8249126E-1,5.094309E-2,6.5292725E-3,-9.010117E-4,-5.766857E-1,-2.8839163E-3,4.386259E-3,-1.9441628E-3,-1.5599094E-2,-0E0],"categories":[],"categories_nodes":[],"categories_segments":[],"categories_sizes":[],"default_left":[0,0,0,0,0,0,0,0,0,0,0,0,0],"id":3,"left_children":[1,3,5,7,9,-1,-1,11,-1,-1,-1,-1,-1],"loss_changes":[9.053836E0,1.6745958E0,5.111511E-1,2.1100879E0,2.711188E-1,0E0,0E0,7.8235817E-1,0E0,0E0,0E0,0E0,0E0],"parents":[2147483647,0,0,1,1,2,2,3,3,4,4,7,7],"right_children":[2,4,6,8,10,-1,-1,12,-1,-1,-1,-1,-1],"split_conditions":[-2.9773133E-2,1.23407E0,3.4068313E0,-1.25E-1,-1.3483146E-1,6.5292725E-3,-9.010117E-4,4.8161831E-1,-2.8839163E-3,4.386259E-3,-1.9441628E-3,-1.5599094E-2,-0E0],"split_indices":[15,13,1,12,7,0,0,11,0,0,0,0,0],"split_type":[0,0,0,0,0,0,0,0,0,0,0,0,0],"sum_hessian":[1.12E2,5.5E1,5.7E1,4.7E1,8E0,5.4E1,3E0,2.4E1,2.3E1,5E0,3E0,2.2E1,2E0],"tree_param":{"num_deleted":"0","num_feature":"16","num_nodes":"13","size_leaf_vector":"1"}},{"base_weights":[-0E0,-3.4310326E-1,2.1538089E-1,-4.8144683E-1,-8.992087E-4,2.7615523E-1,-1.9995158E-4,-1.4956007E-2,-8.178393E-2,7.349971E-3,-0E0,1.5813367E-3,-7.223729E-3],"categories":[],"categories_nodes":[],"categories_segments":[],"categories_sizes":[],"default_left":[0,0,0,0,0,0,0,0,0,0,0,0,0],"id":4,"left_children":[1,3,5,7,-1,9,-1,-1,11,-1,-1,-1,-1],"loss_changes":[8.60173E0,1.6232362E0,1.0992324E0,9.337492E-1,0E0,3.3585024E-1,0E0,0E0,4.9978507E-1,0E0,0E0,0E0,0E0],"parents":[2147483647,0,0,1,1,2,2,3,3,5,5,8,8],"right_children":[2,4,6,8,-1,10,-1,-1,12,-1,-1,-1,-1],"split_conditions":[-1.9810812E-1,7.334351E-1,1.2598153E0,-3.6487162E-1,-8.992087E-4,4.007984E-1,-1.9995158E-4,-1.4956007E-2,-3.0176935E-1,7.349971E-3,-0E0,1.5813367E-3,-7.223729E-3],"split_indices":[15,3,1,15,0,3,0,0,15,0,0,0,0],"split_type":[0,0,0,0,0,0,0,0,0,0,0,0,0],"sum_hessian":[1.1E2,4.1E1,6.9E1,2.6E1,1.5E1,5.5E1,1.4E1,1.8E1,8E0,5.2E1,3E0,5E0,3E0],"tree_param":{"num_deleted":"0","num_feature":"16","num_nodes":"13","size_leaf_vector":"1"}},{"base_weights":[2.9851783E-2,1.3928765E-1,-2.0041211E-1,7.150481E-3,4.627192E-2,-0E0,-4.1685468E-1,1.6004716E-1,-3.1113178E-1,2.181518E-3,-4.682899E-3,-5.529448E-1,-1.0526371E-3,-8.1050425E-4,4.9352343E-3,-1.118515E-2,3.7493926E-4,-1.6716875E-2,-0E0],"categories":[],"categories_nodes":[],"categories_segments":[],"categories_sizes":[],"default_left":[0,0,0,0,0,0,0,0,0,0,0,0,0,0,0,0,0,0,0],"id":5,"left_children":[1,3,5,-1,7,9,11,13,15,-1,-1,17,-1,-1,-1,-1,-1,-1,-1],"loss_changes":[2.9081545E0,9.0580547E-1,1.7486817E0,0E0,2.3300223E0,3.689342E-1,6.239865E-1,4.083954E-1,7.964293E-1,0E0,0E0,8.729763E-1,0E0,0E0,0E0,0E0,0E0,0E0,0E0],"parents":[2147483647,0,0,1,1,2,2,4,4,5,5,6,6,7,7,8,8,11,11],"right_children":[2,4,6,-1,8,10,12,14,16,-1,-1,18,-1,-1,-1,-1,-1,-1,-1],"split_conditions":[3.1293634E-1,-2.6966292E-1,-2.8925714E-1,7.150481E-3,-1.1744144E-2,9.3310076E-1,-1.6666667E-1,-3.1053046E-2,3.2607946E-1,2.181518E-3,-4.682899E-3,8.262131E-2,-1.0526371E-3,-8.1050425E-4,4.9352343E-3,-1.118515E-2,3.7493926E-4,-1.6716875E-2,-0E0],"split_indices":[3,7,14,0,3,8,12,8,11,0,0,14,0,0,0,0,0,0,0],"split_type":[0,0,0,0,0,0,0,0,0,0,0,0,0,0,0,0,0,0,0],"sum_hessian":[1.09E2,7.6E1,3.3E1,2.5E1,5.1E1,1.8E1,1.5E1,4.1E1,1E1,1.5E1,3E0,9E0,6E0,5E0,3.6E1,7E0,3E0,7E0,2E0],"tree_param":{"num_deleted":"0","num_feature":"16","num_nodes":"19","size_leaf_vector":"1"}},{"base_weights":[7.871925E-3,-4.1006953E-1,1.82096E-1,-6.4044696E-1,-2.0122433E-3,1.581338E-2,2.4253082E-1,-1.8436715E-2,-2.51658E-3,-1.7372441E-1,1.2970605E-1,2.7582672E-1,7.6010596E-4,-7.3248297E-3,-0E0,-0E0,5.4959273E-3,-0E0,7.362872E-3],"categories":[],"categories_nodes":[],"categories_segments":[],"categories_sizes":[],"default_left":[0,0,0,0,0,0,0,0,0,0,0,0,0,0,0,0,0,0,0],"id":6,"left_children":[1,3,5,7,-1,9,11,-1,-1,13,15,17,-1,-1,-1,-1,-1,-1,-1],"loss_changes":[8.361902E0,2.074782E0,7.123029E-1,3.7377977E-1,0E0,6.549002E-1,2.6133776E-1,0E0,0E0,3.2694572E-1,3.075476E-1,2.567265E-1,0E0,0E0,0E0,0E0,0E0,0E0,0E0],"parents":[2147483647,0,0,1,1,2,2,3,3,5,5,6,6,9,9,10,10,11,11],"right_children":[2,4,6,8,-1,10,12,-1,-1,14,16,18,-1,-1,-1,-1,-1,-1,-1],"split_conditions":[-3.6487162E-1,7.334351E-1,-5.1536072E-2,8.262131E-2,-2.0122433E-3,-1.7650703E-1,1.2598153E0,-1.8436715E-2,-2.51658E-3,3.2607946E-1,1.6488512E-1,-8.726226E-1,7.6010596E-4,-7.3248297E-3,-0E0,-0E0,5.4959273E-3,-0E0,7.362872E-3],"split_indices":[15,3,15,14,0,13,1,0,0,11,3,14,0,0,0,0,0,0,0],"split_type":[0,0,0,0,0,0,0,0,0,0,0,0,0,0,0,0,0,0,0],"sum_hessian":[1.09E2,3E1,7.9E1,1.5E1,1.5E1,2.4E1,5.5E1,1.1E1,4E0,7E0,1.7E1,4.5E1,1E1,4E0,3E0,7E0,1E1,3E0,4.2E1],"tree_param":{"num_deleted":"0","num_feature":"16","num_nodes":"19","size_leaf_vector":"1"}},{"base_weights":[1.0624908E-2,-3.877511E-1,1.7101817E-1,-1.4859517E-2,-3.6086512E-4,8.228989E-3,5.7169106E-3,-1.7093387E-1,1.2373712E-1,-0E0,-7.137203E-3,-0E0,5.4434007E-3],"categories":[],"categories_nodes":[],"categories_segments":[],"categories_sizes":[],"default_left":[0,0,0,0,0,0,0,0,0,0,0,0,0],"id":7,"left_children":[1,3,5,-1,-1,7,-1,9,11,-1,-1,-1,-1],"loss_changes":[7.078206E0,2.156299E0,6.542361E-1,0E0,0E0,6.035607E-1,0E0,3.0448303E-1,2.9405016E-1,0E0,0E0,0E0,0E0],"parents":[2147483647,0,0,1,1,2,2,5,5,7,7,8,8],"right_children":[2,4,6,-1,-1,8,-1,10,12,-1,-1,-1,-1],"split_conditions":[-3.6487162E-1,0E0,-5.1536072E-2,-1.4859517E-2,-3.6086512E-4,-1.7650703E-1,5.7169106E-3,-5.428642E-1,1.6488512E-1,-0E0,-7.137203E-3,-0E0,5.4434007E-3],"split_indices":[15,2,15,0,0,13,0,13,3,0,0,0,0],"split_type":[0,0,0,0,0,0,0,0,0,0,0,0,0],"sum_hessian":[1.05E2,2.8E1,7.7E1,1.6E1,1.2E1,2.3E1,5.4E1,7E0,1.6E1,3E0,4E0,7E0,9E0],"tree_param":{"num_deleted":"0","num_feature":"16","num_nodes":"13","size_leaf_vector":"1"}},{"base_weights":[-4.341283E-2,-2.9574454E-1,5.1112357E-3,-3.7343466E-1,3.2862133E-4,-1.1011986E-3,-4.2892602E-1,-5.941891E-1,-4.2729876E-3,-1.7706597E-2,-0E0],"categories":[],"categories_nodes":[],"categories_segments":[],"categories_sizes":[],"default_left":[0,0,0,0,0,0,0,0,0,0,0],"id":8,"left_children":[1,3,-1,5,-1,-1,7,9,-1,-1,-1],"loss_changes":[6.9715714E0,1.4931664E0,0E0,5.763383E-1,0E0,0E0,9.374628E-1,1.540916E0,0E0,0E0,0E0],"parents":[2147483647,0,0,1,1,3,3,6,6,7,7],"right_children":[2,4,-1,6,-1,-1,8,10,-1,-1,-1],"split_conditions":[-2.9773133E-2,4.4444445E-1,5.1112357E-3,-3.9440423E-1,3.2862133E-4,-1.1011986E-3,-1.25E-1,4.8161831E-1,-4.2729876E-3,-1.7706597E-2,-0E0],"split_indices":[15,2,0,11,0,0,12,11,0,0,0],"split_type":[0,0,0,0,0,0,0,0,0,0,0],"sum_hessian":[1.04E2,5.2E1,5.2E1,4.2E1,1E1,8E0,3.4E1,1.7E1,1.7E1,1.4E1,3E0],"tree_param":{"num_deleted":"0","num_feature":"16","num_nodes":"11","size_leaf_vector":"1"}},{"base_weights":[-6.8783103E-3,-3.6299703E-1,1.8167044E-1,-5.463531E-1,-1.7830263E-3,3.3495063E-1,9.65708E-2,-1.5399112E-2,1.7901306E-5,1.1765617E-2,2.0701967E-3,-4.3358426E-3,1.7211054E-1,-3.7293622E-4,5.0258497E-3],"categories":[],"categories_nodes":[],"categories_segments":[],"categories_sizes":[],"default_left":[0,0,0,0,0,0,0,0,0,0,0,0,0,0,0],"id":9,"left_children":[1,3,5,7,-1,9,11,-1,-1,-1,-1,-1,13,-1,-1],"loss_changes":[7.790091E0,1.7825103E0,6.859634E-1,1.1425757E0,0E0,4.4614434E-1,1.2155306E0,0E0,0E0,0E0,0E0,0E0,3.310747E-1,0E0,0E0],"parents":[2147483647,0,0,1,1,2,2,3,3,5,5,6,6,12,12],"right_children":[2,4,6,8,-1,10,12,-1,-1,-1,-1,-1,14,-1,-1],"split_conditions":[-2.2641447E-1,7.2543705E-1,-2.6966292E-1,1.23407E0,-1.7830263E-3,2.6163575E-1,-3.1053046E-2,-1.5399112E-2,1.7901306E-5,1.1765617E-2,2.0701967E-3,-4.3358426E-3,-2.0224719E-1,-3.7293622E-4,5.0258497E-3],"split_indices":[15,3,7,13,0,15,8,0,0,0,0,0,7,0,0],"split_type":[0,0,0,0,0,0,0,0,0,0,0,0,0,0,0],"sum_hessian":[1.08E2,3.7E1,7.1E1,2E1,1.7E1,2E1,5.1E1,1.8E1,2E0,1E1,1E1,9E0,4.2E1,4E0,3.8E1],"tree_param":{"num_deleted":"0","num_feature":"16","num_nodes":"15","size_leaf_vector":"1"}},{"base_weights":[-0E0,1.7453787E-1,-1.6293459E-1,4.9058413E-3,-1.0788536E-3,4.5021888E-2,-4.2151415E-1,2.9317242E-1,-5.5309985E-2,-4.8891073E-1,4.6718153E-4,-0E0,9.0913875E-3,-1.3652232E-1,2.8826778E-3,-5.589993E-1,-0E0,-6.275362E-3,-0E0,-1.5097913E-2,-0E0],"categories":[],"categories_nodes":[],"categories_segments":[],"categories_sizes":[],"default_left":[0,0,0,0,0,0,0,0,0,0,0,0,0,0,0,0,0,0,0,0,0],"id":10,"left_children":[1,3,5,-1,-1,7,9,11,13,15,-1,-1,-1,17,-1,19,-1,-1,-1,-1,-1],"loss_changes":[3.4678903E0,3.6716616E-1,3.6316214E0,0E0,0E0,1.0855515E0,1.0952749E0,3.1420004E-1,4.5848513E-1,1.008892E0,0E0,0E0,0E0,4.3124884E-1,0E0,4.980917E-1,0E0,0E0,0E0,0E0,0E0],"parents":[2147483647,0,0,1,1,2,2,5,5,6,6,7,7,8,8,9,9,13,13,15,15],"right_children":[2,4,6,-1,-1,8,10,12,14,16,-1,-1,-1,18,-1,20,-1,-1,-1,-1,-1],"split_conditions":[0E0,3.4068313E0,-6.682313E-2,4.9058413E-3,-1.0788536E-3,-3.6663437E-1,1.3980432E0,-9.491024E-1,5.443648E-1,1.253088E0,4.6718153E-4,-0E0,9.0913875E-3,1.5413257E-1,2.8826778E-3,1.6647757E0,-0E0,-6.275362E-3,-0E0,-1.5097913E-2,-0E0],"split_indices":[3,1,14,0,0,11,13,14,11,11,0,0,0,1,0,14,0,0,0,0,0],"split_type":[0,0,0,0,0,0,0,0,0,0,0,0,0,0,0,0,0,0,0,0,0],"sum_hessian":[1.15E2,5.5E1,6E1,5.2E1,3E0,3.4E1,2.6E1,9E0,2.5E1,2.3E1,3E0,2E0,7E0,1.9E1,6E0,2E1,3E0,1E1,9E0,1.8E1,2E0],"tree_param":{"num_deleted":"0","num_feature":"16","num_nodes":"21","size_leaf_vector":"1"}},{"base_weights":[-0E0,-3.8443017E-1,1.6766049E-1,-1.3875142E-2,-2.2960529E-3,2.0596835E-1,-9.662171E-3,-1.9470928E-2,6.043564E-3,-4.8889825E-3,1.3179807E-3,2.088611E-3,-6.443581E-3],"categories":[],"categories_nodes":[],"categories_segments":[],"categories_sizes":[],"default_left":[0,0,0,0,0,0,0,0,0,0,0,0,0],"id":11,"left_children":[1,3,5,-1,-1,7,9,11,-1,-1,-1,-1,-1],"loss_changes":[7.769507E0,1.38451E0,6.594839E-1,0E0,0E0,6.820245E-1,2.8456274E-1,4.2732075E-1,0E0,0E0,0E0,0E0,0E0],"parents":[2147483647,0,0,1,1,2,2,5,5,6,6,7,7],"right_children":[2,4,6,-1,-1,8,10,12,-1,-1,-1,-1,-1],"split_conditions":[-3.6487162E-1,7.2543705E-1,1.2598153E0,-1.3875142E-2,-2.2960529E-3,-2.2641447E-1,-7.024971E-2,-2.7168244E-1,6.043564E-3,-4.8889825E-3,1.3179807E-3,2.088611E-3,-6.443581E-3],"split_indices":[15,3,1,0,0,15,8,15,0,0,0,0,0],"split_type":[0,0,0,0,0,0,0,0,0,0,0,0,0],"sum_hessian":[1.14E2,3.3E1,8.1E1,1.8E1,1.5E1,6.8E1,1.3E1,8E0,6E1,3E0,1E1,6E0,2E0],"tree_param":{"num_deleted":"0","num_feature":"16","num_nodes":"13","size_leaf_vector":"1"}},{"base_weights":[-1.0965692E-3,-3.756455E-1,1.4205515E-1,-1.3275196E-2,-1.7319716E-3,-0E0,1.9541661E-1,-3.5118372E-3,9.847934E-2,5.389921E-3,-1.0577444E-3,6.010221E-3,-2.7942392E-3],"categories":[],"categories_nodes":[],"categories_segments":[],"categories_sizes":[],"default_left":[0,0,0,0,0,0,0,0,0,0,0,0,0],"id":12,"left_children":[1,3,5,-1,-1,7,9,-1,11,-1,-1,-1,-1],"loss_changes":[6.6338573E0,1.2732534E0,7.3557055E-1,0E0,0E0,4.1671455E-1,4.1546893E-1,0E0,6.080301E-1,0E0,0E0,0E0,0E0],"parents":[2147483647,0,0,1,1,2,2,5,5,6,6,8,8],"right_children":[2,4,6,-1,-1,8,10,-1,12,-1,-1,-1,-1],"split_conditions":[-3.6487162E-1,7.334351E-1,-5.1536072E-2,-1.3275196E-2,-1.7319716E-3,1.7102616E-1,3.4068313E0,-3.5118372E-3,7.332901E-2,5.389921E-3,-1.0577444E-3,6.010221E-3,-2.7942392E-3],"split_indices":[15,3,15,0,0,3,1,0,11,0,0,0,0],"split_type":[0,0,0,0,0,0,0,0,0,0,0,0,0],"sum_hessian":[1.15E2,3.1E1,8.4E1,1.8E1,1.3E1,2.2E1,6.2E1,1E1,1.2E1,5.9E1,3E0,8E0,4E0],"tree_param":{"num_deleted":"0","num_feature":"16","num_nodes":"13","size_leaf_vector":"1"}},{"base_weights":[1.0052921E-2,-3.3498287E-1,1.8171301E-1,-4.7875458E-1,-0E0,3.1298083E-1,9.8876454E-2,-0E0,-1.3141257E-2,1.1929672E-2,2.1999527E-3,-2.1007569E-3,1.5031089E-1,-5.354455E-4,4.457698E-3],"categories":[],"categories_nodes":[],"categories_segments":[],"categories_sizes":[],"default_left":[0,0,0,0,0,0,0,0,0,0,0,0,0,0,0],"id":13,"left_children":[1,3,5,7,-1,9,11,-1,-1,-1,-1,-1,13,-1,-1],"loss_changes":[6.7557597E0,1.6367445E0,5.6966186E-1,6.484909E-1,0E0,6.059592E-1,5.834394E-1,0E0,0E0,0E0,0E0,0E0,2.948817E-1,0E0,0E0],"parents":[2147483647,0,0,1,1,2,2,3,3,5,5,6,6,12,12],"right_children":[2,4,6,8,-1,10,12,-1,-1,-1,-1,-1,14,-1,-1],"split_conditions":[-3.9376307E-1,2.247191E-1,-2.6966292E-1,-9.491024E-1,-0E0,2.6163575E-1,-4.570799E-2,-0E0,-1.3141257E-2,1.1929672E-2,2.1999527E-3,-2.1007569E-3,-2.0224719E-1,-5.354455E-4,4.457698E-3],"split_indices":[15,7,7,14,0,15,8,0,0,0,0,0,7,0,0],"split_type":[0,0,0,0,0,0,0,0,0,0,0,0,0,0,0],"sum_hessian":[1.08E2,3.4E1,7.4E1,2.2E1,1.2E1,2.3E1,5.1E1,2E0,2E1,1E1,1.3E1,9E0,4.2E1,4E0,3.8E1],"tree_param":{"num_deleted":"0","num_feature":"16","num_nodes":"15","size_leaf_vector":"1"}},{"base_weights":[9.807022E-3,-2.2330408E-1,2.01222E-1,-3.463219E-1,-1.9599397E-3,5.577615E-3,-1.5636315E-5,-4.107645E-2,-5.475592E-1,2.505515E-3,-2.4576485E-1,-1.5977487E-2,-0E0,-8.826856E-3,-0E0],"categories":[],"categories_nodes":[],"categories_segments":[],"categories_sizes":[],"default_left":[0,0,0,0,0,0,0,0,0,0,0,0,0,0,0],"id":14,"left_children":[1,3,5,7,-1,-1,-1,9,11,-1,13,-1,-1,-1,-1],"loss_changes":[5.569882E0,7.24432E-1,3.9645743E-1,1.3750606E0,0E0,0E0,0E0,5.9271413E-1,8.668232E-1,0E0,2.968961E-1,0E0,0E0,0E0,0E0],"parents":[2147483647,0,0,1,1,2,2,3,3,7,7,8,8,10,10],"right_children":[2,4,6,8,-1,-1,-1,10,12,-1,14,-1,-1,-1,-1],"split_conditions":[-5.310812E-2,-1.25E-1,2.261438E0,-2.4719101E-1,-1.9599397E-3,5.577615E-3,-1.5636315E-5,3.1293634E-1,4.8161831E-1,2.505515E-3,3.1941578E-1,-1.5977487E-2,-0E0,-8.826856E-3,-0E0],"split_indices":[15,12,9,7,0,0,0,3,11,0,3,0,0,0,0],"split_type":[0,0,0,0,0,0,0,0,0,0,0,0,0,0,0],"sum_hessian":[1.18E2,5.2E1,6.6E1,2.4E1,2.8E1,6.1E1,5E0,1.2E1,1.2E1,7E0,5E0,1E1,2E0,3E0,2E0],"tree_param":{"num_deleted":"0","num_feature":"16","num_nodes":"15","size_leaf_vector":"1"}},{"base_weights":[-2.75106E-2,-3.3491862E-1,1.1599127E-1,-1.3336931E-2,-1.5808434E-3,-0E0,1.5823406E-1,4.0956135E-3,-1.4221494E-1,4.440436E-3,-1.0715727E-3,-7.1740025E-3,-0E0],"categories":[],"categories_nodes":[],"categories_segments":[],"categories_sizes":[],"default_left":[0,0,0,0,0,0,0,0,0,0,0,0,0],"id":15,"left_children":[1,3,5,-1,-1,7,9,-1,11,-1,-1,-1,-1],"loss_changes":[5.451002E0,1.7740898E0,4.5492327E-1,0E0,0E0,6.221314E-1,3.2416928E-1,0E0,3.0410686E-1,0E0,0E0,0E0,0E0],"parents":[2147483647,0,0,1,1,2,2,5,5,6,6,8,8],"right_children":[2,4,6,-1,-1,8,10,-1,12,-1,-1,-1,-1],"split_conditions":[-3.6487162E-1,7.334351E-1,-5.1536072E-2,-1.3336931E-2,-1.5808434E-3,-5.93686E-2,3.4068313E0,4.0956135E-3,3.2607946E-1,4.440436E-3,-1.0715727E-3,-7.1740025E-3,-0E0],"split_indices":[15,3,15,0,0,11,1,0,11,0,0,0,0],"split_type":[0,0,0,0,0,0,0,0,0,0,0,0,0],"sum_hessian":[1.15E2,3.6E1,7.9E1,1.8E1,1.8E1,2E1,5.9E1,8E0,1.2E1,5.6E1,3E0,4E0,8E0],"tree_param":{"num_deleted":"0","num_feature":"16","num_nodes":"13","size_leaf_vector":"1"}},{"base_weights":[-2.0178555E-2,-1.0408534E-1,1.6081078E-1,6.672791E-2,-2.0213218E-1,4.7858036E-3,-4.3370025E-4,-7.0818394E-2,2.6318344E-1,-4.7292972E-1,-0E0,-7.0175566E-3,1.0431217E-3,1.036642E-2,7.291285E-4,-1.8506317E-3,-1.430087E-2],"categories":[],"categories_nodes":[],"categories_segments":[],"categories_sizes":[],"default_left":[0,0,0,0,0,0,0,0,0,0,0,0,0,0,0,0,0],"id":16,"left_children":[1,3,5,7,9,-1,-1,11,13,15,-1,-1,-1,-1,-1,-1,-1],"loss_changes":[1.7443444E0,1.449559E0,2.74926E-1,9.663426E-1,3.0701973E0,0E0,0E0,5.9719366E-1,2.941332E-1,5.224047E-1,0E0,0E0,0E0,0E0,0E0,0E0,0E0],"parents":[2147483647,0,0,1,1,2,2,3,3,4,4,7,7,8,8,9,9],"right_children":[2,4,6,8,10,-1,-1,12,14,16,-1,-1,-1,-1,-1,-1,-1],"split_conditions":[4.877287E-1,-3.8399488E-1,2.3616726E0,-4.531513E-1,0E0,4.7858036E-3,-4.3370025E-4,4.9755245E-2,-2.875817E-1,-3.2844383E-1,-0E0,-7.0175566E-3,1.0431217E-3,1.036642E-2,7.291285E-4,-1.8506317E-3,-1.430087E-2],"split_indices":[11,11,0,0,2,0,0,14,9,1,0,0,0,0,0,0,0],"split_type":[0,0,0,0,0,0,0,0,0,0,0,0,0,0,0,0,0],"sum_hessian":[1.09E2,7.7E1,3.2E1,2.7E1,5E1,2.9E1,3E0,1.6E1,1.1E1,2E1,3E1,5E0,1.1E1,4E0,7E0,6E0,1.4E1],"tree_param":{"num_deleted":"0","num_feature":"16","num_nodes":"17","size_leaf_vector":"1"}},{"base_weights":[-3.1300105E-2,1.4077646E-1,-1.6491167E-1,4.085248E-3,-1.0592042E-3,3.8883854E-2,-3.1041944E-1,6.88283E-3,-4.2021133E-2,-3.5282546E-1,2.9736327E-3,-4.7784573E-3,1.1645037E-3,-3.986521E-1,2.7856722E-3,-4.7558475E-1,-0E0,-5.1527333E-1,-0E0,-1.37689905E-2,-0E0],"categories":[],"categories_nodes":[],"categories_segments":[],"categories_sizes":[],"default_left":[0,0,0,0,0,0,0,0,0,0,0,0,0,0,0,0,0,0,0,0,0],"id":17,"left_children":[1,3,5,-1,-1,7,9,-1,11,13,-1,-1,-1,15,-1,17,-1,19,-1,-1,-1],"loss_changes":[2.769409E0,2.8612614E-1,2.1821477E0,0E0,0E0,7.172217E-1,9.960542E-1,0E0,4.1267785E-1,1.1107297E0,0E0,0E0,0E0,1.1650653E0,0E0,7.0774794E-1,0E0,5.0929976E-1,0E0,0E0,0E0],"parents":[2147483647,0,0,1,1,2,2,5,5,6,6,8,8,9,9,13,13,15,15,17,17],"right_children":[2,4,6,-1,-1,8,10,-1,12,14,-1,-1,-1,16,-1,18,-1,20,-1,-1,-1],"split_conditions":[0E0,3.4068313E0,-2.5036675E-1,4.085248E-3,-1.0592042E-3,-3.4510922E-1,1.2513537E0,6.88283E-3,6.535948E-2,3.4490705E0,2.9736327E-3,-4.7784573E-3,1.1645037E-3,4.8161831E-1,2.7856722E-3,1.3980432E0,-0E0,1.25E-1,-0E0,-1.37689905E-2,-0E0],"split_indices":[3,1,14,0,0,1,8,0,9,14,0,0,0,11,0,13,0,2,0,0,0],"split_type":[0,0,0,0,0,0,0,0,0,0,0,0,0,0,0,0,0,0,0,0,0],"sum_hessian":[1.13E2,4.8E1,6.5E1,4.5E1,3E0,2.7E1,3.8E1,6E0,2.1E1,3.6E1,2E0,8E0,1.3E1,3.4E1,2E0,2.8E1,6E0,2.6E1,2E0,2.4E1,2E0],"tree_param":{"num_deleted":"0","num_feature":"16","num_nodes":"21","size_leaf_vector":"1"}},{"base_weights":[-4.5083366E-2,-2.8598675E-1,1.5845042E-1,-3.9458594E-1,-2.2094466E-3,4.427751E-3,-1.0469789E-3,-1.206671E-2,-1.9865066E-3],"categories":[],"categories_nodes":[],"categories_segments":[],"categories_sizes":[],"default_left":[0,0,0,0,0,0,0,0,0],"id":18,"left_children":[1,3,5,7,-1,-1,-1,-1,-1],"loss_changes":[5.921841E0,8.7579966E-1,3.2115817E-1,5.707741E-1,0E0,0E0,0E0,0E0,0E0],"parents":[2147483647,0,0,1,1,2,2,3,3],"right_children":[2,4,6,8,-1,-1,-1,-1,-1],"split_conditions":[-5.490896E-2,4.494382E-2,3.4068313E0,5.0170225E-1,-2.2094466E-3,4.427751E-3,-1.0469789E-3,-1.206671E-2,-1.9865066E-3],"split_indices":[15,7,1,13,0,0,0,0,0],"split_type":[0,0,0,0,0,0,0,0,0],"sum_hessian":[1.13E2,5.2E1,6.1E1,3E1,2.2E1,5.8E1,3E0,2.1E1,9E0],"tree_param":{"num_deleted":"0","num_feature":"16","num_nodes":"9","size_leaf_vector":"1"}},{"base_weights":[-1.9096574E-2,-2.9580078E-1,1.3297836E-1,-4.3476135E-1,-6.669142E-4,-0E0,1.7470169E-1,-5.576661E-1,-3.5199173E-2,-5.0111776E-3,2.7266312E-3,4.9100732E-3,-0E0,-1.5799318E-2,-4.6633426E-4,1.5968367E-3,-5.965981E-3],"categories":[],"categories_nodes":[],"categories_segments":[],"categories_sizes":[],"default_left":[0,0,0,0,0,0,0,0,0,0,0,0,0,0,0,0,0],"id":19,"left_children":[1,3,5,7,-1,9,11,13,15,-1,-1,-1,-1,-1,-1,-1,-1],"loss_changes":[4.7684574E0,1.289437E0,3.9902496E-1,9.464073E-1,0E0,5.2589786E-1,2.8461564E-1,4.394555E-1,3.348869E-1,0E0,0E0,0E0,0E0,0E0,0E0,0E0,0E0],"parents":[2147483647,0,0,1,1,2,2,3,3,5,5,6,6,7,7,8,8],"right_children":[2,4,6,8,-1,10,12,14,16,-1,-1,-1,-1,-1,-1,-1,-1],"split_conditions":[-2.2641447E-1,7.334351E-1,2.4286933E-2,-3.9376307E-1,-6.669142E-4,-1.1015523E-1,1.8675475E0,7.6934165E-1,-2.7168244E-1,-5.0111776E-3,2.7266312E-3,4.9100732E-3,-0E0,-1.5799318E-2,-4.6633426E-4,1.5968367E-3,-5.965981E-3],"split_indices":[15,3,15,15,0,13,1,1,15,0,0,0,0,0,0,0,0],"split_type":[0,0,0,0,0,0,0,0,0,0,0,0,0,0,0,0,0],"sum_hessian":[1.05E2,3.7E1,6.8E1,2.2E1,1.5E1,1.7E1,5.1E1,1.5E1,7E0,5E0,1.2E1,4.7E1,4E0,1.2E1,3E0,5E0,2E0],"tree_param":{"num_deleted":"0","num_feature":"16","num_nodes":"17","size_leaf_vector":"1"}},{"base_weights":[-5.9214933E-3,-3.1939495E-1,1.2346454E-1,-4.6105352E-1,-6.4114743E-4,-1.1973145E-3,4.395179E-3,-1.2658752E-2,-0E0,1.2061115E-3,-4.3205433E-3],"categories":[],"categories_nodes":[],"categories_segments":[],"categories_sizes":[],"default_left":[0,0,0,0,0,0,0,0,0,0,0],"id":20,"left_children":[1,3,5,7,-1,9,-1,-1,-1,-1,-1],"loss_changes":[5.0226426E0,1.2827766E0,6.28479E-1,5.169897E-1,0E0,3.0387634E-1,0E0,0E0,0E0,0E0,0E0],"parents":[2147483647,0,0,1,1,2,2,3,3,5,5],"right_children":[2,4,6,8,-1,10,-1,-1,-1,-1,-1],"split_conditions":[-3.6487162E-1,0E0,-5.1536072E-2,7.6934165E-1,-6.4114743E-4,2.7777778E-2,4.395179E-3,-1.2658752E-2,-0E0,1.2061115E-3,-4.3205433E-3],"split_indices":[15,2,15,1,0,2,0,0,0,0,0],"split_type":[0,0,0,0,0,0,0,0,0,0,0],"sum_hessian":[1.15E2,3.3E1,8.2E1,2E1,1.3E1,2.3E1,5.9E1,1.8E1,2E0,1.8E1,5E0],"tree_param":{"num_deleted":"0","num_feature":"16","num_nodes":"11","size_leaf_vector":"1"}},{"base_weights":[-3.4653104E-3,-2.7983254E-1,1.4175723E-1,-4.213215E-1,-0E0,1.7520663E-1,-0E0,-1.150352E-2,-0E0,-0E0,5.31151E-3],"categories":[],"categories_nodes":[],"categories_segments":[],"categories_sizes":[],"default_left":[0,0,0,0,0,0,0,0,0,0,0],"id":21,"left_children":[1,3,5,7,-1,9,-1,-1,-1,-1,-1],"loss_changes":[4.54869E0,1.4334548E0,3.6959767E-1,4.4909334E-1,0E0,3.176291E-1,0E0,0E0,0E0,0E0,0E0],"parents":[2147483647,0,0,1,1,2,2,3,3,5,5],"right_children":[2,4,6,8,-1,10,-1,-1,-1,-1,-1],"split_conditions":[-2.2641447E-1,1.7977528E-1,1.2598153E0,1E0,-0E0,-4.3991223E-1,-0E0,-1.150352E-2,-0E0,-0E0,5.31151E-3],"split_indices":[15,7,1,4,0,0,0,0,0,0,0],"split_type":[0,0,0,0,0,0,0,0,0,0,0],"sum_hessian":[1.05E2,3.6E1,6.9E1,2.2E1,1.4E1,5.6E1,1.3E1,2E1,2E0,1.2E1,4.4E1],"tree_param":{"num_deleted":"0","num_feature":"16","num_nodes":"11","size_leaf_vector":"1"}},{"base_weights":[3.8401715E-2,-2.9239714E-1,1.729542E-1,-0E0,-1.10012675E-2,8.52067E-3,9.127985E-2,-1.5874387E-3,3.4486712E-3],"categories":[],"categories_nodes":[],"categories_segments":[],"categories_sizes":[],"default_left":[0,0,0,0,0,0,0,0,0],"id":22,"left_children":[1,3,5,-1,-1,-1,7,-1,-1],"loss_changes":[4.602458E0,1.2539351E0,7.397313E-1,0E0,0E0,0E0,4.6853656E-1,0E0,0E0],"parents":[2147483647,0,0,1,1,2,2,6,6],"right_children":[2,4,6,-1,-1,-1,8,-1,-1],"split_conditions":[-3.6487162E-1,-2.8925714E-1,-4.2512032E-1,-0E0,-1.10012675E-2,8.52067E-3,-1.6666667E-1,-1.5874387E-3,3.4486712E-3],"split_indices":[15,14,11,0,0,0,12,0,0],"split_type":[0,0,0,0,0,0,0,0,0],"sum_hessian":[9.7E1,2.6E1,7.1E1,1E1,1.6E1,1.8E1,5.3E1,1E1,4.3E1],"tree_param":{"num_deleted":"0","num_feature":"16","num_nodes":"9","size_leaf_vector":"1"}},{"base_weights":[-4.6277117E-2,-3.6591217E-1,9.662857E-2,-1.3363172E-2,-1.8088131E-3,2.6351517E-1,2.5528135E-2,1.1935401E-2,1.5226204E-3,-1.582288E-1,2.4748193E-3,3.6163838E-4,-6.238533E-3],"categories":[],"categories_nodes":[],"categories_segments":[],"categories_sizes":[],"default_left":[0,0,0,0,0,0,0,0,0,0,0,0,0],"id":23,"left_children":[1,3,5,-1,-1,7,9,-1,-1,11,-1,-1,-1],"loss_changes":[5.0961366E0,1.3295851E0,7.5669914E-1,0E0,0E0,5.713421E-1,8.208565E-1,0E0,0E0,3.6685556E-1,0E0,0E0,0E0],"parents":[2147483647,0,0,1,1,2,2,5,5,6,6,9,9],"right_children":[2,4,6,-1,-1,8,10,-1,-1,12,-1,-1,-1],"split_conditions":[-3.6487162E-1,7.334351E-1,-4.2512032E-1,-1.3363172E-2,-1.8088131E-3,2.6163575E-1,-4.570799E-2,1.1935401E-2,1.5226204E-3,-2.4719101E-1,2.4748193E-3,3.6163838E-4,-6.238533E-3],"split_indices":[15,3,11,0,0,15,8,0,0,7,0,0,0],"split_type":[0,0,0,0,0,0,0,0,0,0,0,0,0],"sum_hessian":[1.03E2,3.1E1,7.2E1,1.7E1,1.4E1,1.7E1,5.5E1,5E0,1.2E1,1.3E1,4.2E1,4E0,9E0],"tree_param":{"num_deleted":"0","num_feature":"16","num_nodes":"13","size_leaf_vector":"1"}},{"base_weights":[5.5130045E-3,-2.3680091E-1,1.5777838E-1,-2.9488647E-1,-0E0,5.2427948E-3,-1.2828063E-3,-3.5654053E-1,-1.21997E-2,-0E0,-3.8989496E-1,1.9282984E-3,-5.7865907E-3,-1.0666101E-2,-0E0],"categories":[],"categories_nodes":[],"categories_segments":[],"categories_sizes":[],"default_left":[0,0,0,0,0,0,0,0,0,0,0,0,0,0,0],"id":24,"left_children":[1,3,5,7,-1,-1,-1,9,11,-1,13,-1,-1,-1,-1],"loss_changes":[4.5082326E0,6.534538E-1,9.317199E-1,4.908595E-1,0E0,0E0,0E0,4.3042326E-1,3.4947184E-1,0E0,2.79119E-1,0E0,0E0,0E0,0E0],"parents":[2147483647,0,0,1,1,2,2,3,3,7,7,8,8,10,10],"right_children":[2,4,6,8,-1,-1,-1,10,12,-1,14,-1,-1,-1,-1],"split_conditions":[-2.2641447E-1,2.777778E-1,1.2598153E0,-3.6487162E-1,-0E0,5.2427948E-3,-1.2828063E-3,-9.491024E-1,-3.001572E-1,-0E0,5.2287585E-1,1.9282984E-3,-5.7865907E-3,-1.0666101E-2,-0E0],"split_indices":[15,2,1,15,0,0,0,14,15,0,9,0,0,0,0],"split_type":[0,0,0,0,0,0,0,0,0,0,0,0,0,0,0],"sum_hessian":[1.16E2,4.3E1,7.3E1,3.4E1,9E0,6E1,1.3E1,2.6E1,8E0,2E0,2.4E1,6E0,2E0,2.1E1,3E0],"tree_param":{"num_deleted":"0","num_feature":"16","num_nodes":"15","size_leaf_vector":"1"}},{"base_weights":[-2.3753488E-2,-2.793102E-1,1.20144986E-1,-1.1056247E-2,-2.168624E-3,1.6741045E-1,-6.3287E-4,4.9870666E-3,-0E0,4.0740604E-3,-1.1710655E-1,-5.6678667E-3,8.5385324E-4],"categories":[],"categories_nodes":[],"categories_segments":[],"categories_sizes":[],"default_left":[0,0,0,0,0,0,0,0,0,0,0,0,0],"id":25,"left_children":[1,3,5,-1,-1,7,-1,-1,9,-1,11,-1,-1],"loss_changes":[4.2078953E0,9.5625734E-1,5.632496E-1,0E0,0E0,3.46493E-1,0E0,0E0,2.7634457E-1,0E0,2.6162985E-1,0E0,0E0],"parents":[2147483647,0,0,1,1,2,2,5,5,8,8,10,10],"right_children":[2,4,6,-1,-1,8,-1,-1,10,-1,12,-1,-1],"split_conditions":[-2.2641447E-1,-4.1666668E-2,1.2598153E0,-1.1056247E-2,-2.168624E-3,1.2982452E-1,-6.3287E-4,4.9870666E-3,-1.8698455E-1,4.0740604E-3,2.9643586E-1,-5.6678667E-3,8.5385324E-4],"split_indices":[15,12,1,0,0,3,0,0,15,0,3,0,0],"split_type":[0,0,0,0,0,0,0,0,0,0,0,0,0],"sum_hessian":[1.06E2,3.8E1,6.8E1,1.7E1,2.1E1,5.3E1,1.5E1,4.5E1,8E0,2E0,6E0,4E0,2E0],"tree_param":{"num_deleted":"0","num_feature":"16","num_nodes":"13","size_leaf_vector":"1"}},{"base_weights":[-1.8851303E-4,-2.8852367E-1,1.2160362E-1,-1.1751114E-2,-5.8314815E-2,7.1560307E-3,6.027978E-2,-5.2334517E-3,-0E0,-2.0293067E-1,1.24251775E-1,3.3424303E-4,-3.072826E-1,-7.224572E-4,3.9609205E-3,-1.0458156E-2,-0E0],"categories":[],"categories_nodes":[],"categories_segments":[],"categories_sizes":[],"default_left":[0,0,0,0,0,0,0,0,0,0,0,0,0,0,0,0,0],"id":26,"left_children":[1,3,5,-1,7,-1,9,-1,-1,11,13,-1,15,-1,-1,-1,-1],"loss_changes":[4.3860435E0,1.2597587E0,6.642268E-1,0E0,2.555549E-1,0E0,1.2101889E0,0E0,0E0,4.3665755E-1,3.7411356E-1,0E0,4.960358E-1,0E0,0E0,0E0,0E0],"parents":[2147483647,0,0,1,1,2,2,4,4,6,6,9,9,10,10,12,12],"right_children":[2,4,6,-1,8,-1,10,-1,-1,12,14,-1,16,-1,-1,-1,-1],"split_conditions":[-3.6487162E-1,7.334351E-1,-5.24144E-1,-1.1751114E-2,-1.0037817E0,7.1560307E-3,-1.6666667E-1,-5.2334517E-3,-0E0,-3.8399488E-1,-2.514874E-2,3.3424303E-4,3.2607946E-1,-7.224572E-4,3.9609205E-3,-1.0458156E-2,-0E0],"split_indices":[15,3,8,0,15,0,12,0,0,11,8,0,11,0,0,0,0],"split_type":[0,0,0,0,0,0,0,0,0,0,0,0,0,0,0,0,0],"sum_hessian":[1.16E2,3.4E1,8.2E1,1.6E1,1.8E1,1.7E1,6.5E1,4E0,1.4E1,1E1,5.5E1,3E0,7E0,8E0,4.7E1,5E0,2E0],"tree_param":{"num_deleted":"0","num_feature":"16","num_nodes":"17","size_leaf_vector":"1"}},{"base_weights":[-4.269336E-3,6.6544116E-2,-1.5865669E-1,1.5971552E-1,-1.2076654E-2,-3.5464426E-4,-3.6766997E-1,3.2715636E-4,6.3729994E-3,-2.8230578E-1,1.3964906E-3,6.5891813E-3,-7.5878285E-2,-1.2596296E-2,-2.4825247E-5,-0E0,-9.931326E-3,-1.7783137E-1,5.917348E-4,-0E0,-6.9602663E-3],"categories":[],"categories_nodes":[],"categories_segments":[],"categories_sizes":[],"default_left":[0,0,0,0,0,0,0,0,0,0,0,0,0,0,0,0,0,0,0,0,0],"id":27,"left_children":[1,3,5,7,9,11,13,-1,-1,15,-1,-1,17,-1,-1,-1,-1,19,-1,-1,-1],"loss_changes":[1.3146585E0,6.4083517E-1,1.1261922E0,4.1857237E-1,9.443604E-1,5.231281E-1,5.702994E-1,0E0,0E0,3.467611E-1,0E0,0E0,3.2505202E-1,0E0,0E0,0E0,0E0,3.553332E-1,0E0,0E0,0E0],"parents":[2147483647,0,0,1,1,2,2,3,3,4,4,5,5,6,6,9,9,12,12,17,17],"right_children":[2,4,6,8,10,12,14,-1,-1,16,-1,-1,18,-1,-1,-1,-1,20,-1,-1,-1],"split_conditions":[3.1293634E-1,-7.8612715E-2,-6.682313E-2,-4.3991223E-1,-1.6666667E-1,4.2871076E-1,8.262131E-2,3.2715636E-4,6.3729994E-3,-1.5686275E-1,1.3964906E-3,6.5891813E-3,7.8431375E-2,-1.2596296E-2,-2.4825247E-5,-0E0,-9.931326E-3,-3.006536E-1,5.917348E-4,-0E0,-6.9602663E-3],"split_indices":[3,1,14,0,12,3,14,0,0,9,0,0,9,0,0,0,0,9,0,0,0],"split_type":[0,0,0,0,0,0,0,0,0,0,0,0,0,0,0,0,0,0,0,0,0],"sum_hessian":[1.1E2,7.5E1,3.5E1,3.5E1,4E1,2.3E1,1.2E1,1.7E1,1.8E1,7E0,3.3E1,2E0,2.1E1,7E0,5E0,3E0,4E0,1.1E1,1E1,4E0,7E0],"tree_param":{"num_deleted":"0","num_feature":"16","num_nodes":"21","size_leaf_vector":"1"}},{"base_weights":[-3.1973753E-2,-1.9242816E-1,2.719568E-3,-2.4821283E-1,2.4110412E-2,-7.899793E-4,-3.420294E-1,-2.4750952E-3,3.863208E-3,-9.587312E-3,-0E0],"categories":[],"categories_nodes":[],"categories_segments":[],"categories_sizes":[],"default_left":[0,0,0,0,0,0,0,0,0,0,0],"id":28,"left_children":[1,3,-1,5,7,-1,9,-1,-1,-1,-1],"loss_changes":[2.7604604E0,8.0516005E-1,0E0,7.780137E-1,2.92516E-1,0E0,3.593285E-1,0E0,0E0,0E0,0E0],"parents":[2147483647,0,0,1,1,3,3,4,4,6,6],"right_children":[2,4,-1,6,8,-1,10,-1,-1,-1,-1],"split_conditions":[-5.310812E-2,1.23407E0,2.719568E-3,-2.8925714E-1,-4.3991223E-1,-7.899793E-4,4.8161831E-1,-2.4750952E-3,3.863208E-3,-9.587312E-3,-0E0],"split_indices":[15,13,0,14,0,0,11,0,0,0,0],"split_type":[0,0,0,0,0,0,0,0,0,0,0],"sum_hessian":[1.14E2,5.4E1,6E1,4.4E1,1E1,1.6E1,2.8E1,4E0,6E0,2.4E1,4E0],"tree_param":{"num_deleted":"0","num_feature":"16","num_nodes":"11","size_leaf_vector":"1"}},{"base_weights":[-3.595024E-4,-2.9959118E-1,1.3036366E-1,-1.1522494E-2,-8.4558513E-4,2.5371242E-1,5.1594056E-2,8.556257E-3,9.243958E-4,-5.1895913E-2,3.887298E-3,2.8441704E-4,-5.6184446E-3],"categories":[],"categories_nodes":[],"categories_segments":[],"categories_sizes":[],"default_left":[0,0,0,0,0,0,0,0,0,0,0,0,0],"id":29,"left_children":[1,3,5,-1,-1,7,9,-1,-1,11,-1,-1,-1],"loss_changes":[4.6441097E0,1.3123262E0,6.1421096E-1,0E0,0E0,3.5091484E-1,6.664389E-1,0E0,0E0,4.0597352E-1,0E0,0E0,0E0],"parents":[2147483647,0,0,1,1,2,2,5,5,6,6,9,9],"right_children":[2,4,6,-1,-1,8,10,-1,-1,12,-1,-1,-1],"split_conditions":[-3.6487162E-1,7.334351E-1,-1.4765146E-1,-1.1522494E-2,-8.4558513E-4,1.3696384E1,4.877287E-1,8.556257E-3,9.243958E-4,0E0,3.887298E-3,2.8441704E-4,-5.6184446E-3],"split_indices":[15,3,11,0,0,14,11,0,0,3,0,0,0],"split_type":[0,0,0,0,0,0,0,0,0,0,0,0,0],"sum_hessian":[1.1E2,3.3E1,7.7E1,1.8E1,1.5E1,2.5E1,5.2E1,1.5E1,1E1,2.5E1,2.7E1,1.9E1,6E0],"tree_param":{"num_deleted":"0","num_feature":"16","num_nodes":"13","size_leaf_vector":"1"}},{"base_weights":[-0E0,-2.2865249E-1,9.747296E-2,-1.0046164E-3,-9.521036E-3,2.6121575E-1,5.676009E-2,9.520176E-3,-0E0,-9.46795E-3,3.076384E-3,-1.6476074E-1,1.3949904E-3,-6.1728456E-3,-0E0],"categories":[],"categories_nodes":[],"categories_segments":[],"categories_sizes":[],"default_left":[0,0,0,0,0,0,0,0,0,0,0,0,0,0,0],"id":30,"left_children":[1,3,5,-1,-1,7,9,-1,-1,11,-1,13,-1,-1,-1],"loss_changes":[2.5875583E0,7.6757956E-1,3.708976E-1,0E0,0E0,3.1146455E-1,3.6783165E-1,0E0,0E0,4.4571075E-1,0E0,2.7367526E-1,0E0,0E0,0E0],"parents":[2147483647,0,0,1,1,2,2,5,5,6,6,9,9,11,11],"right_children":[2,4,6,-1,-1,8,10,-1,-1,12,-1,14,-1,-1,-1],"split_conditions":[-3.6487162E-1,-5.828051E-1,-5.8731514E-1,-1.0046164E-3,-9.521036E-3,2.6163575E-1,3.0880043E-1,9.520176E-3,-0E0,-1.1015523E-1,3.076384E-3,3.2607946E-1,1.3949904E-3,-6.1728456E-3,-0E0],"split_indices":[15,15,14,0,0,15,15,0,0,13,0,11,0,0,0],"split_type":[0,0,0,0,0,0,0,0,0,0,0,0,0,0,0],"sum_hessian":[1.1E2,3.1E1,7.9E1,1.7E1,1.4E1,1E1,6.9E1,5E0,5E0,3.3E1,3.6E1,1E1,2.3E1,7E0,3E0],"tree_param":{"num_deleted":"0","num_feature":"16","num_nodes":"15","size_leaf_vector":"1"}},{"base_weights":[1.7857205E-2,3.233923E-3,-8.234841E-2,1.351734E-1,-1.6193745E-1,-8.106008E-4,6.9961655E-3,-3.3053237E-1,-5.612378E-4,1.9576608E-3,-4.4571957E-1,-1.3030514E-2,-0E0],"categories":[],"categories_nodes":[],"categories_segments":[],"categories_sizes":[],"default_left":[0,0,0,0,0,0,0,0,0,0,0,0,0],"id":31,"left_children":[1,-1,3,5,7,-1,-1,9,-1,-1,11,-1,-1],"loss_changes":[1.3130375E0,0E0,1.1174042E0,5.3080034E-1,9.263747E-1,0E0,0E0,1.1874385E0,0E0,0E0,6.612396E-1,0E0,0E0],"parents":[2147483647,0,0,2,2,3,3,4,4,7,7,10,10],"right_children":[2,-1,4,6,8,-1,-1,10,-1,-1,12,-1,-1],"split_conditions":[0E0,3.233923E-3,-2.9213482E-1,-5.176188E-1,-4.1666668E-2,-8.106008E-4,6.9961655E-3,-4.30268E-1,-5.612378E-4,1.9576608E-3,4.8161831E-1,-1.3030514E-2,-0E0],"split_indices":[3,0,7,1,12,0,0,1,0,0,11,0,0],"split_type":[0,0,0,0,0,0,0,0,0,0,0,0,0],"sum_hessian":[1.09E2,5.3E1,5.6E1,1.3E1,4.3E1,6E0,7E0,1.6E1,2.7E1,3E0,1.3E1,1.1E1,2E0],"tree_param":{"num_deleted":"0","num_feature":"16","num_nodes":"13","size_leaf_vector":"1"}},{"base_weights":[-3.1793034E-3,-2.3030712E-1,7.9333946E-2,-3.5728115E-1,-9.5349597E-4,-1.8521748E-2,1.2826198E-1,-0E0,-1.029116E-2,2.518553E-3,-1.9380143E-1,3.6800548E-3,-1.2431423E-3,-8.017355E-3,-0E0],"categories":[],"categories_nodes":[],"categories_segments":[],"categories_sizes":[],"default_left":[0,0,0,0,0,0,0,0,0,0,0,0,0,0,0],"id":32,"left_children":[1,3,5,7,-1,9,11,-1,-1,-1,13,-1,-1,-1,-1],"loss_changes":[2.326412E0,6.11547E-1,4.71151E-1,2.649958E-1,0E0,7.222412E-1,2.719338E-1,0E0,0E0,0E0,4.3241984E-1,0E0,0E0,0E0,0E0],"parents":[2147483647,0,0,1,1,2,2,3,3,5,5,6,6,10,10],"right_children":[2,4,6,8,-1,10,12,-1,-1,-1,14,-1,-1,-1,-1],"split_conditions":[-3.6487162E-1,7.2543705E-1,2.4286933E-2,-7.3362297E-1,-9.5349597E-4,-5.5004265E-2,3.4068313E0,-0E0,-1.029116E-2,2.518553E-3,3.2607946E-1,3.6800548E-3,-1.2431423E-3,-8.017355E-3,-0E0],"split_indices":[15,3,15,15,0,0,1,0,0,0,11,0,0,0,0],"split_type":[0,0,0,0,0,0,0,0,0,0,0,0,0,0,0],"sum_hessian":[1.14E2,3E1,8.4E1,1.5E1,1.5E1,2.6E1,5.8E1,3E0,1.2E1,1.5E1,1.1E1,5.5E1,3E0,6E0,5E0],"tree_param":{"num_deleted":"0","num_feature":"16","num_nodes":"15","size_leaf_vector":"1"}},{"base_weights":[-1.7031241E-2,-2.640414E-1,2.0379375E-3,-3.9219895E-1,-1.00246E-3,-1.1268939E-2,-0E0],"categories":[],"categories_nodes":[],"categories_segments":[],"categories_sizes":[],"default_left":[0,0,0,0,0,0,0],"id":33,"left_children":[1,3,-1,5,-1,-1,-1],"loss_changes":[2.6677964E0,6.760876E-1,0E0,5.068388E-1,0E0,0E0,0E0],"parents":[2147483647,0,0,1,1,3,3],"right_children":[2,4,-1,6,-1,-1,-1],"split_conditions":[-3.6487162E-1,7.2543705E-1,2.0379375E-3,-1.6748802E-1,-1.00246E-3,-1.1268939E-2,-0E0],"split_indices":[15,3,0,8,0,0,0],"split_type":[0,0,0,0,0,0,0],"sum_hessian":[1E2,2.8E1,7.2E1,1.5E1,1.3E1,1.3E1,2E0],"tree_param":{"num_deleted":"0","num_feature":"16","num_nodes":"7","size_leaf_vector":"1"}},{"base_weights":[-1.2528068E-2,-2.5483102E-1,2.3559514E-3,-9.442135E-3,-3.8978684E-5],"categories":[],"categories_nodes":[],"categories_segments":[],"categories_sizes":[],"default_left":[0,0,0,0,0],"id":34,"left_children":[1,3,-1,-1,-1],"loss_changes":[3.0586355E0,9.8195887E-1,0E0,0E0,0E0],"parents":[2147483647,0,0,1,1],"right_children":[2,4,-1,-1,-1],"split_conditions":[-3.6487162E-1,5.2287585E-1,2.3559514E-3,-9.442135E-3,-3.8978684E-5],"split_indices":[15,9,0,0,0],"split_type":[0,0,0,0,0],"sum_hessian":[1.09E2,3.3E1,7.6E1,2E1,1.3E1],"tree_param":{"num_deleted":"0","num_feature":"16","num_nodes":"5","size_leaf_vector":"1"}},{"base_weights":[-2.6444286E-2,9.1417715E-2,-1.4738894E-1,3.720153E-3,-0E0,1.2122406E-1,-2.3638386E-1,8.536784E-3,-0E0,-3.2499617E-1,-2.3951994E-4,-3.907896E-1,2.4296565E-3,-4.471133E-1,-0E0,-1.2044496E-2,-0E0],"categories":[],"categories_nodes":[],"categories_segments":[],"categories_sizes":[],"default_left":[0,0,0,0,0,0,0,0,0,0,0,0,0,0,0,0,0],"id":35,"left_children":[1,3,5,-1,-1,7,9,-1,-1,11,-1,13,-1,15,-1,-1,-1],"loss_changes":[1.7587385E0,3.690483E-1,1.6165271E0,0E0,0E0,3.9884275E-1,8.300023E-1,0E0,0E0,1.180893E0,0E0,8.396802E-1,0E0,4.213171E-1,0E0,0E0,0E0],"parents":[2147483647,0,0,1,1,2,2,5,5,6,6,9,9,11,11,13,13],"right_children":[2,4,6,-1,-1,8,10,-1,-1,12,-1,14,-1,16,-1,-1,-1],"split_conditions":[0E0,5.033229E-1,-7.18105E-1,3.720153E-3,-0E0,4.007984E-1,-4.1666668E-2,8.536784E-3,-0E0,1.2513537E0,-2.3951994E-4,4.8161831E-1,2.4296565E-3,1.6647757E0,-0E0,-1.2044496E-2,-0E0],"split_indices":[3,14,14,0,0,3,12,0,0,8,0,11,0,14,0,0,0],"split_type":[0,0,0,0,0,0,0,0,0,0,0,0,0,0,0,0,0],"sum_hessian":[1.15E2,5.7E1,5.8E1,3.6E1,2.1E1,1.3E1,4.5E1,2E0,1.1E1,3E1,1.5E1,2.7E1,3E0,2.4E1,3E0,2.2E1,2E0],"tree_param":{"num_deleted":"0","num_feature":"16","num_nodes":"17","size_leaf_vector":"1"}},{"base_weights":[-0E0,1.5211374E-1,-5.5455867E-2,-4.682873E-3,8.01501E-3,-2.1763802E-1,5.4374527E-2,-3.6166345E-3,1.9399365E-3,-1.5204454E-4,-3.5548052E-1,-1.5881223E-3,2.58655E-3,-1.1430091E-2,-4.1098494E-4],"categories":[],"categories_nodes":[],"categories_segments":[],"categories_sizes":[],"default_left":[0,0,0,0,0,0,0,0,0,0,0,0,0,0,0],"id":36,"left_children":[1,3,5,7,-1,9,11,-1,-1,-1,13,-1,-1,-1,-1],"loss_changes":[9.5168185E-1,9.1095656E-1,1.6653206E0,2.6767862E-1,0E0,9.4136214E-1,3.486034E-1,0E0,0E0,0E0,5.257354E-1,0E0,0E0,0E0,0E0],"parents":[2147483647,0,0,1,1,2,2,3,3,5,5,6,6,10,10],"right_children":[2,4,6,8,-1,10,12,-1,-1,-1,14,-1,-1,-1,-1],"split_conditions":[-2.9213482E-1,-5.176188E-1,8.3333336E-2,8.262131E-2,8.01501E-3,-1.7887546E-1,-3.5149284E-2,-3.6166345E-3,1.9399365E-3,-1.5204454E-4,-4.1666668E-2,-1.5881223E-3,2.58655E-3,-1.1430091E-2,-4.1098494E-4],"split_indices":[7,1,12,14,0,1,8,0,0,0,12,0,0,0,0],"split_type":[0,0,0,0,0,0,0,0,0,0,0,0,0,0,0],"sum_hessian":[1.1E2,2.6E1,8.4E1,1.4E1,1.2E1,3.4E1,5E1,6E0,8E0,1.6E1,1.8E1,1.2E1,3.8E1,1.2E1,6E0],"tree_param":{"num_deleted":"0","num_feature":"16","num_nodes":"15","size_leaf_vector":"1"}},{"base_weights":[-1.9503613E-3,-2.5859702E-1,1.03013724E-1,-3.7935436E-1,-1.8782412E-4,2.0226887E-1,4.8760775E-2,-1.0532488E-2,-0E0,5.746772E-4,9.858401E-3,-2.4616383E-1,2.5602232E-3,-8.630257E-3,-0E0],"categories":[],"categories_nodes":[],"categories_segments":[],"categories_sizes":[],"default_left":[0,0,0,0,0,0,0,0,0,0,0,0,0,0,0],"id":37,"left_children":[1,3,5,7,-1,9,11,-1,-1,-1,-1,13,-1,-1,-1],"loss_changes":[3.3477037E0,9.419668E-1,3.25476E-1,4.3422675E-1,0E0,7.138492E-1,1.0196159E0,0E0,0E0,0E0,0E0,3.1810802E-1,0E0,0E0,0E0],"parents":[2147483647,0,0,1,1,2,2,3,3,5,5,6,6,11,11],"right_children":[2,4,6,8,-1,10,12,-1,-1,-1,-1,14,-1,-1,-1],"split_conditions":[-3.9376307E-1,0E0,-5.24144E-1,7.6934165E-1,-1.8782412E-4,-4.3991223E-1,-2.0833333E-1,-1.0532488E-2,-0E0,5.746772E-4,9.858401E-3,1.0667091E-1,2.5602232E-3,-8.630257E-3,-0E0],"split_indices":[15,2,8,1,0,0,12,0,0,0,0,14,0,0,0],"split_type":[0,0,0,0,0,0,0,0,0,0,0,0,0,0,0],"sum_hessian":[1.15E2,3.3E1,8.2E1,2E1,1.3E1,2.3E1,5.9E1,1.8E1,2E0,1.5E1,8E0,6E0,5.3E1,4E0,2E0],"tree_param":{"num_deleted":"0","num_feature":"16","num_nodes":"15","size_leaf_vector":"1"}},{"base_weights":[3.209231E-4,-2.1209131E-1,1.0276623E-1,-8.763359E-3,-0E0,1.6897708E-1,3.4926186E-4,-0E0,5.9613837E-3],"categories":[],"categories_nodes":[],"categories_segments":[],"categories_sizes":[],"default_left":[0,0,0,0,0,0,0,0,0],"id":38,"left_children":[1,3,5,-1,-1,7,-1,-1,-1],"loss_changes":[2.4153452E0,9.22037E-1,3.741998E-1,0E0,0E0,4.3557703E-1,0E0,0E0,0E0],"parents":[2147483647,0,0,1,1,2,2,5,5],"right_children":[2,4,6,-1,-1,8,-1,-1,-1],"split_conditions":[-3.6487162E-1,7.334351E-1,-5.3749718E-2,-8.763359E-3,-0E0,-4.3991223E-1,3.4926186E-4,-0E0,5.9613837E-3],"split_indices":[15,3,1,0,0,0,0,0,0],"split_type":[0,0,0,0,0,0,0,0,0],"sum_hessian":[1.06E2,3.2E1,7.4E1,1.7E1,1.5E1,3.8E1,3.6E1,1.3E1,2.5E1],"tree_param":{"num_deleted":"0","num_feature":"16","num_nodes":"9","size_leaf_vector":"1"}},{"base_weights":[-1.0727148E-2,-6.587621E-2,2.9528541E-3,7.060253E-2,-1.6059369E-1,-2.1858828E-2,5.7749483E-3,-4.5301408E-1,-2.5704037E-4,-4.396226E-3,1.4132307E-3,-1.2570942E-2,-0E0],"categories":[],"categories_nodes":[],"categories_segments":[],"categories_sizes":[],"default_left":[0,0,0,0,0,0,0,0,0,0,0,0,0],"id":39,"left_children":[1,3,-1,5,7,9,-1,11,-1,-1,-1,-1,-1],"loss_changes":[7.9859877E-1,1.1421516E0,0E0,6.1297625E-1,2.0620267E0,3.6618832E-1,0E0,2.8010416E-1,0E0,0E0,0E0,0E0,0E0],"parents":[2147483647,0,0,1,1,3,3,4,4,5,5,7,7],"right_children":[2,4,-1,6,8,10,-1,12,-1,-1,-1,-1,-1],"split_conditions":[5.443648E-1,-3.8399488E-1,2.9528541E-3,-4.531513E-1,-1.6666667E-1,1.6647757E0,5.7749483E-3,5.0170225E-1,-2.5704037E-4,-4.396226E-3,1.4132307E-3,-1.2570942E-2,-0E0],"split_indices":[11,11,0,0,12,14,0,13,0,0,0,0,0],"split_type":[0,0,0,0,0,0,0,0,0,0,0,0,0],"sum_hessian":[1.08E2,7.9E1,2.9E1,3.1E1,4.8E1,2E1,1.1E1,1.3E1,3.5E1,7E0,1.3E1,1.1E1,2E0],"tree_param":{"num_deleted":"0","num_feature":"16","num_nodes":"13","size_leaf_vector":"1"}},{"base_weights":[-3.90955E-2,2.1967948E-3,-1.5821022E-1,-2.0298462E-4,-3.516043E-1,-4.0061256E-1,4.4315337E-4,-1.0872781E-2,-0E0],"categories":[],"categories_nodes":[],"categories_segments":[],"categories_sizes":[],"default_left":[0,0,0,0,0,0,0,0,0],"id":40,"left_children":[1,-1,3,-1,5,7,-1,-1,-1],"loss_changes":[1.8538249E0,0E0,1.6893132E0,0E0,6.576657E-1,3.238094E-1,0E0,0E0,0E0],"parents":[2147483647,0,0,2,2,4,4,5,5],"right_children":[2,-1,4,-1,6,8,-1,-1,-1],"split_conditions":[0E0,2.1967948E-3,-1.0524151E-1,-2.0298462E-4,1.3980432E0,1.25E-1,4.4315337E-4,-1.0872781E-2,-0E0],"split_indices":[3,0,14,0,13,2,0,0,0],"split_type":[0,0,0,0,0,0,0,0,0],"sum_hessian":[1.14E2,5.4E1,6E1,3.7E1,2.3E1,2.1E1,2E0,1.9E1,2E0],"tree_param":{"num_deleted":"0","num_feature":"16","num_nodes":"9","size_leaf_vector":"1"}},{"base_weights":[-0E0,-2.1831551E-1,8.379664E-2,-3.131851E-1,-0E0,1.2089702E-1,-1.4891763E-3,-9.269913E-3,-0E0,-0E0,1.5556872E-1,1.0335015E-2,2.4920194E-3],"categories":[],"categories_nodes":[],"categories_segments":[],"categories_sizes":[],"default_left":[0,0,0,0,0,0,0,0,0,0,0,0,0],"id":41,"left_children":[1,3,5,7,-1,9,-1,-1,-1,-1,11,-1,-1],"loss_changes":[2.1900144E0,6.1024463E-1,4.9917972E-1,3.3665538E-1,0E0,3.1275618E-1,0E0,0E0,0E0,0E0,4.502771E-1,0E0,0E0],"parents":[2147483647,0,0,1,1,2,2,3,3,5,5,10,10],"right_children":[2,4,6,8,-1,10,-1,-1,-1,-1,12,-1,-1],"split_conditions":[-3.9376307E-1,5.2287585E-1,1.2598153E0,0E0,-0E0,-4.3991223E-1,-1.4891763E-3,-9.269913E-3,-0E0,-0E0,-4.6002552E-1,1.0335015E-2,2.4920194E-3],"split_indices":[15,9,1,2,0,0,0,0,0,0,1,0,0],"split_type":[0,0,0,0,0,0,0,0,0,0,0,0,0],"sum_hessian":[1.11E2,3E1,8.1E1,1.9E1,1.1E1,6.7E1,1.4E1,1.5E1,4E0,1.5E1,5.2E1,4E0,4.8E1],"tree_param":{"num_deleted":"0","num_feature":"16","num_nodes":"13","size_leaf_vector":"1"}},{"base_weights":[-5.282325E-3,-2.3360644E-1,1.0609472E-1,-9.144344E-3,-4.665871E-4,2.4610177E-1,3.2914583E-2,1.0051011E-2,6.170447E-4,-4.3211356E-3,2.5055893E-3],"categories":[],"categories_nodes":[],"categories_segments":[],"categories_sizes":[],"default_left":[0,0,0,0,0,0,0,0,0,0,0],"id":42,"left_children":[1,3,5,-1,-1,7,9,-1,-1,-1,-1],"loss_changes":[2.9477723E0,9.1605663E-1,6.3359517E-1,0E0,0E0,6.0598683E-1,8.0022955E-1,0E0,0E0,0E0,0E0],"parents":[2147483647,0,0,1,1,2,2,5,5,6,6],"right_children":[2,4,6,-1,-1,8,10,-1,-1,-1,-1],"split_conditions":[-3.6487162E-1,7.334351E-1,-2.6966292E-1,-9.144344E-3,-4.665871E-4,2.6163575E-1,-3.1053046E-2,1.0051011E-2,6.170447E-4,-4.3211356E-3,2.5055893E-3],"split_indices":[15,3,7,0,0,15,8,0,0,0,0],"split_type":[0,0,0,0,0,0,0,0,0,0,0],"sum_hessian":[1.07E2,3.5E1,7.2E1,1.9E1,1.6E1,2E1,5.2E1,9E0,1.1E1,1E1,4.2E1],"tree_param":{"num_deleted":"0","num_feature":"16","num_nodes":"11","size_leaf_vector":"1"}},{"base_weights":[-2.9517924E-3,-2.3006257E-1,1.1371467E-1,-3.983341E-1,-0E0,2.4109708E-1,4.886325E-2,-1.0889586E-2,-0E0,-0E0,9.580723E-3,-3.771953E-3,2.9387397E-3],"categories":[],"categories_nodes":[],"categories_segments":[],"categories_sizes":[],"default_left":[0,0,0,0,0,0,0,0,0,0,0,0,0],"id":43,"left_children":[1,3,5,7,-1,9,11,-1,-1,-1,-1,-1,-1],"loss_changes":[3.1189287E0,1.4264596E0,4.6648324E-1,3.1944942E-1,0E0,6.7479384E-1,8.238954E-1,0E0,0E0,0E0,0E0,0E0,0E0],"parents":[2147483647,0,0,1,1,2,2,3,3,5,5,6,6],"right_children":[2,4,6,8,-1,10,12,-1,-1,-1,-1,-1,-1],"split_conditions":[-3.6487162E-1,7.334351E-1,-2.6966292E-1,7.6934165E-1,-0E0,-5.381278E-1,-3.1053046E-2,-1.0889586E-2,-0E0,-0E0,9.580723E-3,-3.771953E-3,2.9387397E-3],"split_indices":[15,3,7,1,0,1,8,0,0,0,0,0,0],"split_type":[0,0,0,0,0,0,0,0,0,0,0,0,0],"sum_hessian":[1.09E2,3.7E1,7.2E1,1.9E1,1.8E1,1.9E1,5.3E1,1.7E1,2E0,9E0,1E1,1.1E1,4.2E1],"tree_param":{"num_deleted":"0","num_feature":"16","num_nodes":"13","size_leaf_vector":"1"}},{"base_weights":[-1.6501766E-2,6.839911E-2,-1.305618E-1,3.1237637E-3,-0E0,-2.3052974E-1,5.202798E-4,2.0645559E-5,-2.6649556E-1,-8.411941E-3,-0E0,3.194188E-3,-5.940518E-3],"categories":[],"categories_nodes":[],"categories_segments":[],"categories_sizes":[],"default_left":[0,0,0,0,0,0,0,0,0,0,0,0,0],"id":44,"left_children":[1,3,5,-1,-1,7,-1,-1,9,-1,11,-1,-1],"loss_changes":[1.1745998E0,2.743579E-1,8.951325E-1,0E0,0E0,3.857882E-1,0E0,0E0,4.9449754E-1,0E0,4.493084E-1,0E0,0E0],"parents":[2147483647,0,0,1,1,2,2,5,5,8,8,10,10],"right_children":[2,4,6,-1,-1,8,-1,-1,10,-1,12,-1,-1],"split_conditions":[1.10000335E-1,5.033229E-1,1.9974476E-1,3.1237637E-3,-0E0,-7.850484E-1,5.202798E-4,2.0645559E-5,8.262131E-2,-8.411941E-3,-2.781909E-1,3.194188E-3,-5.940518E-3],"split_indices":[3,14,1,0,0,14,0,0,14,0,0,0,0],"split_type":[0,0,0,0,0,0,0,0,0,0,0,0,0],"sum_hessian":[1.12E2,6.3E1,4.9E1,3.4E1,2.9E1,3E1,1.9E1,3E0,2.7E1,2E1,7E0,5E0,2E0],"tree_param":{"num_deleted":"0","num_feature":"16","num_nodes":"13","size_leaf_vector":"1"}},{"base_weights":[-0E0,6.1449297E-2,-1.2678798E-1,1.8074203E-1,-0E0,-2.4870196E-1,8.018958E-5,4.590859E-4,6.524323E-3,-6.1567784E-3,1.582282E-3,-7.1170814E-3,-0E0],"categories":[],"categories_nodes":[],"categories_segments":[],"categories_sizes":[],"default_left":[0,0,0,0,0,0,0,0,0,0,0,0,0],"id":45,"left_children":[1,3,5,7,9,11,-1,-1,-1,-1,-1,-1,-1],"loss_changes":[9.341921E-1,6.8106693E-1,7.1114856E-1,2.6883942E-1,1.005037E0,2.5053644E-1,0E0,0E0,0E0,0E0,0E0,0E0,0E0],"parents":[2147483647,0,0,1,1,2,2,3,3,4,4,5,5],"right_children":[2,4,6,8,10,12,-1,-1,-1,-1,-1,-1,-1],"split_conditions":[3.0900854E-1,-2.4719101E-1,7.8431375E-2,-4.918932E-1,-8.199667E-2,6.0510304E-2,8.018958E-5,4.590859E-4,6.524323E-3,-6.1567784E-3,1.582282E-3,-7.1170814E-3,-0E0],"split_indices":[3,7,9,0,8,14,0,0,0,0,0,0,0],"split_type":[0,0,0,0,0,0,0,0,0,0,0,0,0],"sum_hessian":[1.15E2,8E1,3.5E1,2.7E1,5.3E1,1.8E1,1.7E1,1.2E1,1.5E1,1E1,4.3E1,1.6E1,2E0],"tree_param":{"num_deleted":"0","num_feature":"16","num_nodes":"13","size_leaf_vector":"1"}},{"base_weights":[-0E0,5.7005018E-2,-1.2509364E-1,4.075826E-3,-1.2843153E-2,4.9124178E-2,-2.7197093E-1,-2.1751553E-1,1.37548E-3,6.5849037E-3,-7.8000297E-4,-3.430907E-1,-0E0,6.728378E-4,-8.106332E-3,-1.0213836E-2,-0E0],"categories":[],"categories_nodes":[],"categories_segments":[],"categories_sizes":[],"default_left":[0,0,0,0,0,0,0,0,0,0,0,0,0,0,0,0,0],"id":46,"left_children":[1,3,5,-1,7,9,11,13,-1,-1,-1,15,-1,-1,-1,-1,-1],"loss_changes":[8.01461E-1,6.635765E-1,1.018708E0,0E0,7.944175E-1,4.2283815E-1,4.2588794E-1,5.277819E-1,0E0,0E0,0E0,4.7804534E-1,0E0,0E0,0E0,0E0,0E0],"parents":[2147483647,0,0,1,1,2,2,4,4,5,5,6,6,7,7,11,11],"right_children":[2,4,6,-1,8,10,12,14,-1,-1,-1,16,-1,-1,-1,-1,-1],"split_conditions":[3.1293634E-1,-2.5527246E-2,-2.8925714E-1,4.075826E-3,-1.6666667E-1,-3.6663437E-1,8.262131E-2,-4.2512032E-1,1.37548E-3,6.5849037E-3,-7.8000297E-4,5.857867E-1,-0E0,6.728378E-4,-8.106332E-3,-1.0213836E-2,-0E0],"split_indices":[3,0,14,0,12,11,14,11,0,0,0,3,0,0,0,0,0],"split_type":[0,0,0,0,0,0,0,0,0,0,0,0,0,0,0,0,0],"sum_hessian":[1.08E2,7.7E1,3.1E1,3.1E1,4.6E1,1.4E1,1.7E1,1.1E1,3.5E1,3E0,1.1E1,1.3E1,4E0,3E0,8E0,1.1E1,2E0],"tree_param":{"num_deleted":"0","num_feature":"16","num_nodes":"17","size_leaf_vector":"1"}},{"base_weights":[-7.4854773E-3,-2.1306078E-1,7.89351E-2,-8.813596E-3,-6.1233406E-4,5.261132E-3,1.2327133E-2,-1.9445862E-1,6.944708E-2,-7.4919327E-3,6.23138E-5,-1.577163E-3,2.606142E-3],"categories":[],"categories_nodes":[],"categories_segments":[],"categories_sizes":[],"default_left":[0,0,0,0,0,0,0,0,0,0,0,0,0],"id":47,"left_children":[1,3,5,-1,-1,-1,7,9,11,-1,-1,-1,-1],"loss_changes":[2.164479E0,7.789843E-1,6.244804E-1,0E0,0E0,0E0,7.118626E-1,3.8052508E-1,2.7699858E-1,0E0,0E0,0E0,0E0],"parents":[2147483647,0,0,1,1,2,2,6,6,7,7,8,8],"right_children":[2,4,6,-1,-1,-1,8,10,12,-1,-1,-1,-1],"split_conditions":[-3.6487162E-1,7.334351E-1,-3.8399488E-1,-8.813596E-3,-6.1233406E-4,5.261132E-3,-1.6666667E-1,3.2607946E-1,-3.1053046E-2,-7.4919327E-3,6.23138E-5,-1.577163E-3,2.606142E-3],"split_indices":[15,3,11,0,0,0,12,11,8,0,0,0,0],"split_type":[0,0,0,0,0,0,0,0,0,0,0,0,0],"sum_hessian":[1.12E2,3.3E1,7.9E1,1.6E1,1.7E1,2.2E1,5.7E1,9E0,4.8E1,6E0,3E0,7E0,4.1E1],"tree_param":{"num_deleted":"0","num_feature":"16","num_nodes":"13","size_leaf_vector":"1"}},{"base_weights":[-2.2580096E-2,-2.0122412E-1,9.400352E-2,-2.9183772E-1,-4.2403568E-4,2.1302564E-1,2.517503E-2,-4.0678203E-1,-2.0515766E-2,6.801227E-4,8.051622E-3,1.5419706E-3,-3.231011E-3,-1.1187485E-2,-0E0,1.8248027E-3,-5.5514616E-3],"categories":[],"categories_nodes":[],"categories_segments":[],"categories_sizes":[],"default_left":[0,0,0,0,0,0,0,0,0,0,0,0,0,0,0,0,0],"id":48,"left_children":[1,3,5,7,-1,9,11,13,15,-1,-1,-1,-1,-1,-1,-1,-1],"loss_changes":[2.4313002E0,6.355523E-1,4.4710916E-1,7.198858E-1,0E0,2.855153E-1,2.7989438E-1,2.777779E-1,3.7077498E-1,0E0,0E0,0E0,0E0,0E0,0E0,0E0,0E0],"parents":[2147483647,0,0,1,1,2,2,3,3,5,5,6,6,7,7,8,8],"right_children":[2,4,6,8,-1,10,12,14,16,-1,-1,-1,-1,-1,-1,-1,-1],"split_conditions":[-1.9810812E-1,7.334351E-1,-3.4510922E-1,-3.6487162E-1,-4.2403568E-4,-5.381278E-1,1.2982452E-1,7.6934165E-1,-2.7168244E-1,6.801227E-4,8.051622E-3,1.5419706E-3,-3.231011E-3,-1.1187485E-2,-0E0,1.8248027E-3,-5.5514616E-3],"split_indices":[15,3,1,15,0,1,3,1,15,0,0,0,0,0,0,0,0],"split_type":[0,0,0,0,0,0,0,0,0,0,0,0,0,0,0,0,0],"sum_hessian":[1.08E2,4.3E1,6.5E1,2.6E1,1.7E1,1.9E1,4.6E1,1.6E1,1E1,1E1,9E0,4.1E1,5E0,1.4E1,2E0,7E0,3E0],"tree_param":{"num_deleted":"0","num_feature":"16","num_nodes":"17","size_leaf_vector":"1"}},{"base_weights":[-0E0,1.2974976E-1,-4.2055707E-2,-0E0,7.0545087E-3,-2.8268456E-1,1.0753683E-3,-4.480379E-3,2.6577795E-3,-0E0,-3.396835E-1,-9.412228E-4,-1.0699737E-2],"categories":[],"categories_nodes":[],"categories_segments":[],"categories_sizes":[],"default_left":[0,0,0,0,0,0,0,0,0,0,0,0,0],"id":49,"left_children":[1,3,5,7,-1,9,-1,-1,-1,-1,11,-1,-1],"loss_changes":[6.4431745E-1,5.78315E-1,1.8477049E0,4.3688363E-1,0E0,4.8749232E-1,0E0,0E0,0E0,0E0,3.0411267E-1,0E0,0E0],"parents":[2147483647,0,0,1,1,2,2,3,3,5,5,10,10],"right_children":[2,4,6,8,-1,10,-1,-1,-1,-1,12,-1,-1],"split_conditions":[-4.224163E-1,-4.918932E-1,-4.1666668E-2,8.262131E-2,7.0545087E-3,-1.8055555E-1,1.0753683E-3,-4.480379E-3,2.6577795E-3,-0E0,-2.7184147E-1,-9.412228E-4,-1.0699737E-2],"split_indices":[11,0,12,14,0,2,0,0,0,0,1,0,0],"split_type":[0,0,0,0,0,0,0,0,0,0,0,0,0],"sum_hessian":[1.06E2,2.6E1,8E1,1.6E1,1E1,2E1,6E1,5E0,1.1E1,3E0,1.7E1,6E0,1.1E1],"tree_param":{"num_deleted":"0","num_feature":"16","num_nodes":"13","size_leaf_vector":"1"}},{"base_weights":[-1.14317825E-2,-1.8576089E-1,1.7115896E-3,-7.850039E-3,-3.660031E-4],"categories":[],"categories_nodes":[],"categories_segments":[],"categories_sizes":[],"default_left":[0,0,0,0,0],"id":50,"left_children":[1,3,-1,-1,-1],"loss_changes":[1.6861975E0,6.9732213E-1,0E0,0E0,0E0],"parents":[2147483647,0,0,1,1],"right_children":[2,4,-1,-1,-1],"split_conditions":[-3.6487162E-1,7.334351E-1,1.7115896E-3,-7.850039E-3,-3.660031E-4],"split_indices":[15,3,0,0,0],"split_type":[0,0,0,0,0],"sum_hessian":[1.11E2,3.5E1,7.6E1,1.7E1,1.8E1],"tree_param":{"num_deleted":"0","num_feature":"16","num_nodes":"5","size_leaf_vector":"1"}},{"base_weights":[-3.3313837E-2,-1.7275313E-1,2.1978365E-3,-0E0,-1.9748628E-1,-2.1491696E-1,2.2916184E-4,-2.3971134E-1,-0E0,-2.7914613E-1,-0E0,-7.7042687E-3,-0E0],"categories":[],"categories_nodes":[],"categories_segments":[],"categories_sizes":[],"default_left":[0,0,0,0,0,0,0,0,0,0,0,0,0],"id":51,"left_children":[1,3,-1,-1,5,7,-1,9,-1,11,-1,-1,-1],"loss_changes":[2.0056782E0,3.132198E-1,0E0,0E0,2.7110124E-1,2.593956E-1,0E0,4.2251968E-1,0E0,2.5937223E-1,0E0,0E0,0E0],"parents":[2147483647,0,0,1,1,4,4,5,5,7,7,9,9],"right_children":[2,4,-1,-1,6,8,-1,10,-1,12,-1,-1,-1],"split_conditions":[-5.310812E-2,-8.188476E-1,2.1978365E-3,-0E0,2.2865293E0,5.443648E-1,2.2916184E-4,1.23407E0,-0E0,5.168539E-1,-0E0,-7.7042687E-3,-0E0],"split_indices":[15,14,0,0,0,11,0,13,0,7,0,0,0],"split_type":[0,0,0,0,0,0,0,0,0,0,0,0,0],"sum_hessian":[1.1E2,5.2E1,5.8E1,5E0,4.7E1,4.5E1,2E0,4E1,5E0,3.4E1,6E0,3E1,4E0],"tree_param":{"num_deleted":"0","num_feature":"16","num_nodes":"13","size_leaf_vector":"1"}},{"base_weights":[-1.4300372E-2,-2.0301183E-1,1.3739797E-3,-7.6606693E-3,-0E0],"categories":[],"categories_nodes":[],"categories_segments":[],"categories_sizes":[],"default_left":[0,0,0,0,0],"id":52,"left_children":[1,3,-1,-1,-1],"loss_changes":[1.568655E0,5.8544743E-1,0E0,0E0,0E0],"parents":[2147483647,0,0,1,1],"right_children":[2,4,-1,-1,-1],"split_conditions":[-3.9376307E-1,7.334351E-1,1.3739797E-3,-7.6606693E-3,-0E0],"split_indices":[15,3,0,0,0],"split_type":[0,0,0,0,0],"sum_hessian":[1.09E2,2.9E1,8E1,1.7E1,1.2E1],"tree_param":{"num_deleted":"0","num_feature":"16","num_nodes":"5","size_leaf_vector":"1"}},{"base_weights":[-1.9218057E-2,-1.7504795E-1,1.2793978E-3,-2.6809114E-1,-0E0,-0E0,-8.44087E-3],"categories":[],"categories_nodes":[],"categories_segments":[],"categories_sizes":[],"default_left":[0,0,0,0,0,0,0],"id":53,"left_children":[1,3,-1,5,-1,-1,-1],"loss_changes":[1.347878E0,5.811764E-1,0E0,3.4806406E-1,0E0,0E0,0E0],"parents":[2147483647,0,0,1,1,3,3],"right_children":[2,4,-1,6,-1,-1,-1],"split_conditions":[-3.6487162E-1,5.0980395E-1,1.2793978E-3,-3.1460676E-1,-0E0,-0E0,-8.44087E-3],"split_indices":[15,9,0,7,0,0,0],"split_type":[0,0,0,0,0,0,0],"sum_hessian":[1.12E2,3.5E1,7.7E1,2.1E1,1.4E1,6E0,1.5E1],"tree_param":{"num_deleted":"0","num_feature":"16","num_nodes":"7","size_leaf_vector":"1"}},{"base_weights":[-1.4220891E-2,-1.2173399E-1,8.533152E-2,-1.6841584E-1,1.9352118E-3,1.9880517E-1,2.660843E-4,-0E0,-5.5109537E-3,-0E0,9.319379E-3],"categories":[],"categories_nodes":[],"categories_segments":[],"categories_sizes":[],"default_left":[0,0,0,0,0,0,0,0,0,0,0],"id":54,"left_children":[1,3,5,7,-1,9,-1,-1,-1,-1,-1],"loss_changes":[1.2336204E0,6.0727483E-1,3.9613503E-1,3.9799476E-1,0E0,6.488625E-1,0E0,0E0,0E0,0E0,0E0],"parents":[2147483647,0,0,1,1,2,2,3,3,5,5],"right_children":[2,4,6,8,-1,10,-1,-1,-1,-1,-1],"split_conditions":[-5.310812E-2,4.4444445E-1,-2.9213482E-1,-3.8399488E-1,1.9352118E-3,-4.918932E-1,2.660843E-4,-0E0,-5.5109537E-3,-0E0,9.319379E-3],"split_indices":[15,2,7,11,0,0,0,0,0,0,0],"split_type":[0,0,0,0,0,0,0,0,0,0,0],"sum_hessian":[1.07E2,5.3E1,5.4E1,4.5E1,8E0,1.7E1,3.7E1,1.2E1,3.3E1,1E1,7E0],"tree_param":{"num_deleted":"0","num_feature":"16","num_nodes":"11","size_leaf_vector":"1"}},{"base_weights":[-0E0,-1.5328418E-1,9.769336E-2,-5.2872375E-3,-0E0,1.6788012E-1,6.19612E-4,2.7917427E-1,3.808764E-4,9.229297E-3,-0E0],"categories":[],"categories_nodes":[],"categories_segments":[],"categories_sizes":[],"default_left":[0,0,0,0,0,0,0,0,0,0,0],"id":55,"left_children":[1,3,5,-1,-1,7,-1,9,-1,-1,-1],"loss_changes":[1.699337E0,3.6335242E-1,2.5890213E-1,0E0,0E0,4.024877E-1,0E0,2.8132892E-1,0E0,0E0,0E0],"parents":[2147483647,0,0,1,1,2,2,5,5,7,7],"right_children":[2,4,6,-1,-1,8,-1,10,-1,-1,-1],"split_conditions":[-1.9810812E-1,8.3333336E-2,-6.374897E-2,-5.2872375E-3,-0E0,3.1268972E-1,6.19612E-4,8.7801385E-1,3.808764E-4,9.229297E-3,-0E0],"split_indices":[15,12,1,0,0,15,0,13,0,0,0],"split_type":[0,0,0,0,0,0,0,0,0,0,0],"sum_hessian":[1.06E2,4.1E1,6.5E1,2.8E1,1.3E1,2.8E1,3.7E1,1.3E1,1.5E1,8E0,5E0],"tree_param":{"num_deleted":"0","num_feature":"16","num_nodes":"11","size_leaf_vector":"1"}},{"base_weights":[3.6063509E-3,-1.197968E-1,8.694818E-2,-1.9954133E-1,4.2567714E-4,1.6327617E-1,7.6816924E-4,-6.609571E-3,-0E0,6.204586E-3,-0E0,-3.61613E-3,1.3081451E-3],"categories":[],"categories_nodes":[],"categories_segments":[],"categories_sizes":[],"default_left":[0,0,0,0,0,0,0,0,0,0,0,0,0],"id":56,"left_children":[1,3,5,7,-1,9,11,-1,-1,-1,-1,-1,-1],"loss_changes":[1.221478E0,5.9225696E-1,4.1742235E-1,3.1848395E-1,0E0,4.1283035E-1,2.9319796E-1,0E0,0E0,0E0,0E0,0E0,0E0],"parents":[2147483647,0,0,1,1,2,2,3,3,5,5,6,6],"right_children":[2,4,6,8,-1,10,12,-1,-1,-1,-1,-1,-1],"split_conditions":[-2.2641447E-1,7.334351E-1,1.1111111E-1,-3.6487162E-1,4.2567714E-4,3.106155E-1,-3.1053046E-2,-6.609571E-3,-0E0,6.204586E-3,-0E0,-3.61613E-3,1.3081451E-3],"split_indices":[15,3,2,15,0,15,8,0,0,0,0,0,0],"split_type":[0,0,0,0,0,0,0,0,0,0,0,0,0],"sum_hessian":[1.13E2,4.3E1,7E1,2.8E1,1.5E1,3.3E1,3.7E1,1.9E1,9E0,1.9E1,1.4E1,6E0,3.1E1],"tree_param":{"num_deleted":"0","num_feature":"16","num_nodes":"13","size_leaf_vector":"1"}},{"base_weights":[-0E0,1.3106371E-1,-3.8743667E-2,-0E0,6.428947E-3,-2.492543E-1,6.400745E-4,-3.4480938E-1,7.630122E-5,-0E0,-1.009732E-2],"categories":[],"categories_nodes":[],"categories_segments":[],"categories_sizes":[],"default_left":[0,0,0,0,0,0,0,0,0,0,0],"id":57,"left_children":[1,3,5,-1,-1,7,-1,9,-1,-1,-1],"loss_changes":[5.708761E-1,4.5472622E-1,1.3105867E0,0E0,0E0,6.82842E-1,0E0,4.478693E-1,0E0,0E0,0E0],"parents":[2147483647,0,0,1,1,2,2,5,5,7,7],"right_children":[2,4,6,-1,-1,8,-1,10,-1,-1,-1],"split_conditions":[-3.8399488E-1,-4.918932E-1,-4.1666668E-2,-0E0,6.428947E-3,4.8161831E-1,6.400745E-4,0E0,7.630122E-5,-0E0,-1.009732E-2],"split_indices":[11,0,12,0,0,11,0,3,0,0,0],"split_type":[0,0,0,0,0,0,0,0,0,0,0],"sum_hessian":[1.07E2,2.2E1,8.5E1,1.2E1,1E1,1.9E1,6.6E1,1.4E1,5E0,2E0,1.2E1],"tree_param":{"num_deleted":"0","num_feature":"16","num_nodes":"11","size_leaf_vector":"1"}},{"base_weights":[-6.688119E-3,-1.3061033E-1,6.321592E-2,-4.5964983E-3,-0E0,6.988344E-3,5.89185E-4],"categories":[],"categories_nodes":[],"categories_segments":[],"categories_sizes":[],"default_left":[0,0,0,0,0,0,0],"id":58,"left_children":[1,3,5,-1,-1,-1,-1],"loss_changes":[1.0477309E0,3.0571294E-1,4.8608807E-1,0E0,0E0,0E0,0E0],"parents":[2147483647,0,0,1,1,2,2],"right_children":[2,4,6,-1,-1,-1,-1],"split_conditions":[-2.2641447E-1,5.0980395E-1,-7.196378E-1,-4.5964983E-3,-0E0,6.988344E-3,5.89185E-4],"split_indices":[15,9,14,0,0,0,0],"split_type":[0,0,0,0,0,0,0],"sum_hessian":[1.11E2,4.1E1,7E1,2.8E1,1.3E1,6E0,6.4E1],"tree_param":{"num_deleted":"0","num_feature":"16","num_nodes":"7","size_leaf_vector":"1"}},{"base_weights":[-2.0889996E-2,-1.9633766E-1,5.113591E-2,-7.5060087E-3,-0E0,2.1561913E-3,-1.2966939E-3],"categories":[],"categories_nodes":[],"categories_segments":[],"categories_sizes":[],"default_left":[0,0,0,0,0,0,0],"id":59,"left_children":[1,3,5,-1,-1,-1,-1],"loss_changes":[1.4895842E0,6.081792E-1,3.169319E-1,0E0,0E0,0E0,0E0],"parents":[2147483647,0,0,1,1,2,2],"right_children":[2,4,6,-1,-1,-1,-1],"split_conditions":[-3.6487162E-1,1.5413257E-1,8.316493E-1,-7.5060087E-3,-0E0,2.1561913E-3,-1.2966939E-3],"split_indices":[15,1,1,0,0,0,0],"split_type":[0,0,0,0,0,0,0],"sum_hessian":[1.07E2,3.1E1,7.6E1,1.8E1,1.3E1,6E1,1.6E1],"tree_param":{"num_deleted":"0","num_feature":"16","num_nodes":"7","size_leaf_vector":"1"}},{"base_weights":[-3.12282E-2,-1.6606502E-1,3.8170323E-2,-2.4662594E-1,-0E0,3.4618024E-3,-0E0,-0E0,-6.9842427E-3,-4.109067E-3,1.0697598E-3],"categories":[],"categories_nodes":[],"categories_segments":[],"categories_sizes":[],"default_left":[0,0,0,0,0,0,0,0,0,0,0],"id":60,"left_children":[1,3,5,7,-1,-1,9,-1,-1,-1,-1],"loss_changes":[1.1167022E0,4.9495292E-1,3.2288218E-1,3.003168E-1,0E0,0E0,4.48015E-1,0E0,0E0,0E0,0E0],"parents":[2147483647,0,0,1,1,2,2,3,3,6,6],"right_children":[2,4,6,8,-1,-1,10,-1,-1,-1,-1],"split_conditions":[-3.6487162E-1,3.949253E-1,-4.0476325E-1,-9.491024E-1,-0E0,3.4618024E-3,-3.1053046E-2,-0E0,-6.9842427E-3,-4.109067E-3,1.0697598E-3],"split_indices":[15,1,8,14,0,0,8,0,0,0,0],"split_type":[0,0,0,0,0,0,0,0,0,0,0],"sum_hessian":[1.08E2,3.7E1,7.1E1,2.3E1,1.4E1,1.9E1,5.2E1,2E0,2.1E1,1E1,4.2E1],"tree_param":{"num_deleted":"0","num_feature":"16","num_nodes":"11","size_leaf_vector":"1"}},{"base_weights":[-0E0,-1.7279166E-1,8.245508E-2,-6.199486E-3,-0E0,4.478276E-3,2.52383E-2,-5.461357E-3,1.8817887E-3],"categories":[],"categories_nodes":[],"categories_segments":[],"categories_sizes":[],"default_left":[0,0,0,0,0,0,0,0,0],"id":61,"left_children":[1,3,5,-1,-1,-1,7,-1,-1],"loss_changes":[1.6805402E0,4.4845593E-1,3.587765E-1,0E0,0E0,0E0,7.135535E-1,0E0,0E0],"parents":[2147483647,0,0,1,1,2,2,6,6],"right_children":[2,4,6,-1,-1,-1,8,-1,-1],"split_conditions":[-3.6487162E-1,8.3333336E-2,-4.0476325E-1,-6.199486E-3,-0E0,4.478276E-3,-2.0833333E-1,-5.461357E-3,1.8817887E-3],"split_indices":[15,12,8,0,0,0,12,0,0],"split_type":[0,0,0,0,0,0,0,0,0],"sum_hessian":[1.13E2,3.4E1,7.9E1,2.2E1,1.2E1,2.4E1,5.5E1,6E0,4.9E1],"tree_param":{"num_deleted":"0","num_feature":"16","num_nodes":"9","size_leaf_vector":"1"}},{"base_weights":[2.1766427E-3,1.444977E-1,-4.5682874E-2,6.2520923E-3,-0E0,-3.3054772E-1,5.8968907E-4,-0E0,-9.676396E-3],"categories":[],"categories_nodes":[],"categories_segments":[],"categories_sizes":[],"default_left":[0,0,0,0,0,0,0,0,0],"id":62,"left_children":[1,3,5,-1,-1,7,-1,-1,-1],"loss_changes":[8.084797E-1,4.5765507E-1,1.7780217E0,0E0,0E0,4.1000748E-1,0E0,0E0,0E0],"parents":[2147483647,0,0,1,1,2,2,5,5],"right_children":[2,4,6,-1,-1,8,-1,-1,-1],"split_conditions":[-3.6663437E-1,2.5628498E-1,-1.25E-1,6.2520923E-3,-0E0,0E0,5.8968907E-4,-0E0,-9.676396E-3],"split_indices":[11,15,12,0,0,3,0,0,0],"split_type":[0,0,0,0,0,0,0,0,0],"sum_hessian":[1.06E2,2.7E1,7.9E1,1.4E1,1.3E1,1.4E1,6.5E1,2E0,1.2E1],"tree_param":{"num_deleted":"0","num_feature":"16","num_nodes":"9","size_leaf_vector":"1"}},{"base_weights":[-2.8621089E-3,-1.5212972E-1,8.7942064E-2,-0E0,-2.331373E-1,1.5381834E-1,2.2036664E-4,-7.120143E-3,8.389715E-4,6.391262E-3,9.662383E-5],"categories":[],"categories_nodes":[],"categories_segments":[],"categories_sizes":[],"default_left":[0,0,0,0,0,0,0,0,0,0,0],"id":63,"left_children":[1,3,5,-1,7,9,-1,-1,-1,-1,-1],"loss_changes":[1.597339E0,4.960332E-1,2.9769087E-1,0E0,5.2667415E-1,4.3482322E-1,0E0,0E0,0E0,0E0,0E0],"parents":[2147483647,0,0,1,1,2,2,4,4,5,5],"right_children":[2,4,6,-1,8,10,-1,-1,-1,-1,-1],"split_conditions":[-2.2641447E-1,-2.8925714E-1,-7.8612715E-2,-0E0,1.3980432E0,3.1268972E-1,2.2036664E-4,-7.120143E-3,8.389715E-4,6.391262E-3,9.662383E-5],"split_indices":[15,14,1,0,13,15,0,0,0,0,0],"split_type":[0,0,0,0,0,0,0,0,0,0,0],"sum_hessian":[1.09E2,4.2E1,6.7E1,1.7E1,2.5E1,3.2E1,3.5E1,2.2E1,3E0,1.6E1,1.6E1],"tree_param":{"num_deleted":"0","num_feature":"16","num_nodes":"11","size_leaf_vector":"1"}},{"base_weights":[-2.1068735E-2,-1.4170727E-1,9.2538394E-4,-5.929475E-3,-0E0],"categories":[],"categories_nodes":[],"categories_segments":[],"categories_sizes":[],"default_left":[0,0,0,0,0],"id":64,"left_children":[1,3,-1,-1,-1],"loss_changes":[8.695648E-1,5.086877E-1,0E0,0E0,0E0],"parents":[2147483647,0,0,1,1],"right_children":[2,4,-1,-1,-1],"split_conditions":[-3.6487162E-1,7.334351E-1,9.2538394E-4,-5.929475E-3,-0E0],"split_indices":[15,3,0,0,0],"split_type":[0,0,0,0,0],"sum_hessian":[1.12E2,3.7E1,7.5E1,2E1,1.7E1],"tree_param":{"num_deleted":"0","num_feature":"16","num_nodes":"5","size_leaf_vector":"1"}},{"base_weights":[-1.351023E-2,-1.904847E-1,8.855877E-2,-2.5510135E-1,-0E0,1.3219407E-1,-2.34644E-3,-8.17963E-3,-1.9784305E-4,2.14987E-1,1.0298629E-3,1.0281495E-2,2.2404825E-3],"categories":[],"categories_nodes":[],"categories_segments":[],"categories_sizes":[],"default_left":[0,0,0,0,0,0,0,0,0,0,0,0,0],"id":65,"left_children":[1,3,5,7,-1,9,-1,-1,-1,11,-1,-1,-1],"loss_changes":[2.0235865E0,4.1395926E-1,6.040064E-1,3.8253605E-1,0E0,3.0727625E-1,0E0,0E0,0E0,3.4732175E-1,0E0,0E0,0E0],"parents":[2147483647,0,0,1,1,2,2,3,3,5,5,9,9],"right_children":[2,4,6,8,-1,10,-1,-1,-1,12,-1,-1,-1],"split_conditions":[-2.2641447E-1,5.2287585E-1,1.0440058E0,7.4215037E-1,-0E0,3.1268972E-1,-2.34644E-3,-8.17963E-3,-1.9784305E-4,-1.8055555E-1,1.0298629E-3,1.0281495E-2,2.2404825E-3],"split_indices":[15,9,1,13,0,15,0,0,0,2,0,0,0],"split_type":[0,0,0,0,0,0,0,0,0,0,0,0,0],"sum_hessian":[1.03E2,3.8E1,6.5E1,2.6E1,1.2E1,5.5E1,1E1,1.8E1,8E0,2.4E1,3.1E1,5E0,1.9E1],"tree_param":{"num_deleted":"0","num_feature":"16","num_nodes":"13","size_leaf_vector":"1"}},{"base_weights":[1.7199224E-2,-1.2357969E-1,7.402139E-2,-5.400812E-3,-0E0,6.230254E-3,9.990234E-4],"categories":[],"categories_nodes":[],"categories_segments":[],"categories_sizes":[],"default_left":[0,0,0,0,0,0,0],"id":66,"left_children":[1,3,5,-1,-1,-1,-1],"loss_changes":[9.3611944E-1,3.670575E-1,3.6562255E-1,0E0,0E0,0E0,0E0],"parents":[2147483647,0,0,1,1,2,2],"right_children":[2,4,6,-1,-1,-1,-1],"split_conditions":[-3.6487162E-1,1.5413257E-1,-7.196378E-1,-5.400812E-3,-0E0,6.230254E-3,9.990234E-4],"split_indices":[15,1,14,0,0,0,0],"split_type":[0,0,0,0,0,0,0],"sum_hessian":[1.12E2,2.9E1,8.3E1,1.5E1,1.4E1,8E0,7.5E1],"tree_param":{"num_deleted":"0","num_feature":"16","num_nodes":"7","size_leaf_vector":"1"}},{"base_weights":[-2.6086796E-5,-1.3755374E-1,8.645919E-2,-1.9251567E-1,-0E0,3.6309715E-3,-0E0,-6.790592E-3,-2.1009383E-4],"categories":[],"categories_nodes":[],"categories_segments":[],"categories_sizes":[],"default_left":[0,0,0,0,0,0,0,0,0],"id":67,"left_children":[1,3,5,7,-1,-1,-1,-1,-1],"loss_changes":[1.4596213E0,3.6097872E-1,3.334633E-1,3.8248265E-1,0E0,0E0,0E0,0E0,0E0],"parents":[2147483647,0,0,1,1,2,2,3,3],"right_children":[2,4,6,8,-1,-1,-1,-1,-1],"split_conditions":[-1.9810812E-1,5.2287585E-1,-4.0567525E-2,7.4215037E-1,-0E0,3.6309715E-3,-0E0,-6.790592E-3,-2.1009383E-4],"split_indices":[15,9,1,13,0,0,0,0,0],"split_type":[0,0,0,0,0,0,0,0,0],"sum_hessian":[1.14E2,4.5E1,6.9E1,3.1E1,1.4E1,3.8E1,3.1E1,1.9E1,1.2E1],"tree_param":{"num_deleted":"0","num_feature":"16","num_nodes":"9","size_leaf_vector":"1"}},{"base_weights":[-6.111154E-3,-1.2698776E-1,4.277836E-2,-0E0,-5.8209696E-3,1.5848327E-1,-1.8530301E-3,3.1839323E-1,-3.0237657E-4,-3.0890794E-3,8.872297E-4,-0E0,9.412057E-3],"categories":[],"categories_nodes":[],"categories_segments":[],"categories_sizes":[],"default_left":[0,0,0,0,0,0,0,0,0,0,0,0,0],"id":68,"left_children":[1,3,5,-1,-1,7,9,11,-1,-1,-1,-1,-1],"loss_changes":[7.352556E-1,4.6857607E-1,4.897158E-1,0E0,0E0,8.3156556E-1,3.255457E-1,3.0181003E-1,0E0,0E0,0E0,0E0,0E0],"parents":[2147483647,0,0,1,1,2,2,5,5,6,6,7,7],"right_children":[2,4,6,-1,-1,8,10,12,-1,-1,-1,-1,-1],"split_conditions":[-3.6487162E-1,-1.7129005E-1,-2.6966292E-1,-0E0,-5.8209696E-3,2.6163575E-1,-3.1053046E-2,-5.2641696E-1,-3.0237657E-4,-3.0890794E-3,8.872297E-4,-0E0,9.412057E-3],"split_indices":[15,14,7,0,0,15,8,1,0,0,0,0,0],"split_type":[0,0,0,0,0,0,0,0,0,0,0,0,0],"sum_hessian":[1.12E2,3.3E1,7.9E1,1.7E1,1.6E1,2.2E1,5.7E1,1.1E1,1.1E1,1.4E1,4.3E1,2E0,9E0],"tree_param":{"num_deleted":"0","num_feature":"16","num_nodes":"13","size_leaf_vector":"1"}},{"base_weights":[-9.46715E-3,-1.535229E-1,2.1491261E-2,-0E0,-5.826394E-3,7.3492313E-3,-1.3324491E-2,-1.7775571E-1,7.952236E-4,-0E0,-6.180828E-3],"categories":[],"categories_nodes":[],"categories_segments":[],"categories_sizes":[],"default_left":[0,0,0,0,0,0,0,0,0,0,0],"id":69,"left_children":[1,3,5,-1,-1,-1,7,9,-1,-1,-1],"loss_changes":[5.883796E-1,3.423192E-1,1.0509037E0,0E0,0E0,0E0,7.349575E-1,2.6808786E-1,0E0,0E0,0E0],"parents":[2147483647,0,0,1,1,2,2,6,6,7,7],"right_children":[2,4,6,-1,-1,-1,8,10,-1,-1,-1],"split_conditions":[-4.3991223E-1,-5.4053813E-1,-1.8055555E-1,-0E0,-5.826394E-3,7.3492313E-3,-8.199667E-2,-1.5252957E-1,7.952236E-4,-0E0,-6.180828E-3],"split_indices":[0,3,2,0,0,0,8,0,0,0,0],"split_type":[0,0,0,0,0,0,0,0,0,0,0],"sum_hessian":[1.14E2,2E1,9.4E1,7E0,1.3E1,9E0,8.5E1,1.8E1,6.7E1,6E0,1.2E1],"tree_param":{"num_deleted":"0","num_feature":"16","num_nodes":"11","size_leaf_vector":"1"}},{"base_weights":[-2.2760678E-2,-1.2812926E-1,1.7835855E-3,-2.0372815E-1,4.934489E-4,-5.7836487E-3,-0E0],"categories":[],"categories_nodes":[],"categories_segments":[],"categories_sizes":[],"default_left":[0,0,0,0,0,0,0],"id":70,"left_children":[1,3,-1,5,-1,-1,-1],"loss_changes":[1.1107215E0,6.857253E-1,0E0,2.9002905E-1,0E0,0E0,0E0],"parents":[2147483647,0,0,1,1,3,3],"right_children":[2,4,-1,6,-1,-1,-1],"split_conditions":[-5.310812E-2,7.334351E-1,1.7835855E-3,1.253088E0,4.934489E-4,-5.7836487E-3,-0E0],"split_indices":[15,3,0,11,0,0,0],"split_type":[0,0,0,0,0,0,0],"sum_hessian":[1.03E2,5E1,5.3E1,3.4E1,1.6E1,3.1E1,3E0],"tree_param":{"num_deleted":"0","num_feature":"16","num_nodes":"7","size_leaf_vector":"1"}},{"base_weights":[5.8263084E-3,1.7448775E-1,-1.739404E-2,7.028987E-3,-0E0,7.939474E-4,-3.3839464E-3],"categories":[],"categories_nodes":[],"categories_segments":[],"categories_sizes":[],"default_left":[0,0,0,0,0,0,0],"id":71,"left_children":[1,3,5,-1,-1,-1,-1],"loss_changes":[5.297181E-1,4.0672398E-1,6.565939E-1,0E0,0E0,0E0,0E0],"parents":[2147483647,0,0,1,1,2,2],"right_children":[2,4,6,-1,-1,-1,-1],"split_conditions":[-7.196378E-1,1.0675312E0,2.5259033E-1,7.028987E-3,-0E0,7.939474E-4,-3.3839464E-3],"split_indices":[14,3,3,0,0,0,0],"split_type":[0,0,0,0,0,0,0],"sum_hessian":[1.13E2,1.3E1,1E2,8E0,5E0,7E1,3E1],"tree_param":{"num_deleted":"0","num_feature":"16","num_nodes":"7","size_leaf_vector":"1"}},{"base_weights":[-1.4292832E-2,-9.513876E-2,1.6882664E-3,-3.440177E-3,1.8617393E-3],"categories":[],"categories_nodes":[],"categories_segments":[],"categories_sizes":[],"default_left":[0,0,0,0,0],"id":72,"left_children":[1,3,-1,-1,-1],"loss_changes":[7.7772814E-1,4.969017E-1,0E0,0E0,0E0],"parents":[2147483647,0,0,1,1],"right_children":[2,4,-1,-1,-1],"split_conditions":[-2.9773133E-2,4.4444445E-1,1.6882664E-3,-3.440177E-3,1.8617393E-3],"split_indices":[15,2,0,0,0],"split_type":[0,0,0,0,0],"sum_hessian":[1.09E2,5.7E1,5.2E1,4.8E1,9E0],"tree_param":{"num_deleted":"0","num_feature":"16","num_nodes":"5","size_leaf_vector":"1"}},{"base_weights":[5.8465158E-3,1.2626648E-1,-3.1790875E-2,1.6576065E-1,-1.1818853E-3,-2.429888E-1,6.3814496E-4,9.354491E-5,6.2184273E-3,-7.956498E-3,-0E0],"categories":[],"categories_nodes":[],"categories_segments":[],"categories_sizes":[],"default_left":[0,0,0,0,0,0,0,0,0,0,0],"id":73,"left_children":[1,3,5,7,-1,9,-1,-1,-1,-1,-1],"loss_changes":[5.7078725E-1,2.838652E-1,1.1678956E0,2.6545393E-1,0E0,4.6088195E-1,0E0,0E0,0E0,0E0,0E0],"parents":[2147483647,0,0,1,1,2,2,3,3,5,5],"right_children":[2,4,6,8,-1,10,-1,-1,-1,-1,-1],"split_conditions":[-2.6966292E-1,4.007984E-1,-4.1666668E-2,-5.381278E-1,-1.1818853E-3,4.8161831E-1,6.3814496E-4,9.354491E-5,6.2184273E-3,-7.956498E-3,-0E0],"split_indices":[7,3,12,1,0,11,0,0,0,0,0],"split_type":[0,0,0,0,0,0,0,0,0,0,0],"sum_hessian":[1.11E2,2.7E1,8.4E1,2.4E1,3E0,1.7E1,6.7E1,1.1E1,1.3E1,1.3E1,4E0],"tree_param":{"num_deleted":"0","num_feature":"16","num_nodes":"11","size_leaf_vector":"1"}},{"base_weights":[-2.6035678E-2,-1.3096015E-1,2.5422486E-2,-5.7123597E-3,-2.0702796E-4,2.9490392E-3,-1.9205846E-4],"categories":[],"categories_nodes":[],"categories_segments":[],"categories_sizes":[],"default_left":[0,0,0,0,0,0,0],"id":74,"left_children":[1,3,5,-1,-1,-1,-1],"loss_changes":[6.342839E-1,3.5933518E-1,2.693865E-1,0E0,0E0,0E0,0E0],"parents":[2147483647,0,0,1,1,2,2],"right_children":[2,4,6,-1,-1,-1,-1],"split_conditions":[-3.6487162E-1,1.5413257E-1,-4.0476325E-1,-5.7123597E-3,-2.0702796E-4,2.9490392E-3,-1.9205846E-4],"split_indices":[15,1,8,0,0,0,0],"split_type":[0,0,0,0,0,0,0],"sum_hessian":[1.04E2,3.5E1,6.9E1,1.6E1,1.9E1,1.9E1,5E1],"tree_param":{"num_deleted":"0","num_feature":"16","num_nodes":"7","size_leaf_vector":"1"}},{"base_weights":[-1.7155875E-2,-1.3695885E-1,1.263514E-3,-1.8219104E-1,-0E0,-6.590873E-3,-3.2945487E-4],"categories":[],"categories_nodes":[],"categories_segments":[],"categories_sizes":[],"default_left":[0,0,0,0,0,0,0],"id":75,"left_children":[1,3,-1,5,-1,-1,-1],"loss_changes":[1.0117468E0,2.9170185E-1,0E0,3.5200965E-1,0E0,0E0,0E0],"parents":[2147483647,0,0,1,1,3,3],"right_children":[2,4,-1,6,-1,-1,-1],"split_conditions":[-2.2641447E-1,7.4215037E-1,1.263514E-3,0E0,-0E0,-6.590873E-3,-3.2945487E-4],"split_indices":[15,13,0,2,0,0,0],"split_type":[0,0,0,0,0,0,0],"sum_hessian":[1.14E2,4.2E1,7.2E1,3.1E1,1.1E1,1.8E1,1.3E1],"tree_param":{"num_deleted":"0","num_feature":"16","num_nodes":"7","size_leaf_vector":"1"}},{"base_weights":[1.5415793E-2,1.279497E-1,-1.7083721E-2,-0E0,7.3599885E-3,-1.9985196E-1,1.1611093E-2,-0E0,-6.558063E-3,1.0700623E-3,-3.844538E-3],"categories":[],"categories_nodes":[],"categories_segments":[],"categories_sizes":[],"default_left":[0,0,0,0,0,0,0,0,0,0,0],"id":76,"left_children":[1,3,5,-1,-1,7,9,-1,-1,-1,-1],"loss_changes":[4.817293E-1,6.8711126E-1,5.632899E-1,0E0,0E0,2.8102207E-1,3.9393175E-1,0E0,0E0,0E0,0E0],"parents":[2147483647,0,0,1,1,2,2,5,5,6,6],"right_children":[2,4,6,-1,-1,8,10,-1,-1,-1,-1],"split_conditions":[-4.224163E-1,-4.918932E-1,-2.9247594E-1,-0E0,7.3599885E-3,-2.4719101E-1,9.569472E-1,-0E0,-6.558063E-3,1.0700623E-3,-3.844538E-3],"split_indices":[11,0,8,0,0,7,14,0,0,0,0],"split_type":[0,0,0,0,0,0,0,0,0,0,0],"sum_hessian":[1.14E2,2.6E1,8.8E1,1.6E1,1E1,1.1E1,7.7E1,2E0,9E0,6.9E1,8E0],"tree_param":{"num_deleted":"0","num_feature":"16","num_nodes":"11","size_leaf_vector":"1"}}]},"name":"gbtree"},"learner_model_param":{"base_score":"8.993855E0","boost_from_average":"1","num_class":"0","num_feature":"16","num_target":"1"},"objective":{"name":"reg:squarederror","reg_loss_param":{"scale_pos_weight":"1"}}},"version":[3,0,0]}