{"learner":{"attributes":{"best_iteration":"80","best_score":"0.35909366607666016"},"feature_names":[],"feature_types":[],"gradient_booster":{"model":{"gbtree_model_param":{"num_parallel_tree":"1","num_trees":"91"},"iteration_indptr":[0,1,2,3,4,5,6,7,8,9,10,11,12,13,14,15,16,17,18,19,20,21,22,23,24,25,26,27,28,29,30,31,32,33,34,35,36,37,38,39,40,41,42,43,44,45,46,47,48,49,50,51,52,53,54,55,56,57,58,59,60,61,62,63,64,65,66,67,68,69,70,71,72,73,74,75,76,77,78,79,80,81,82,83,84,85,86,87,88,89,90,91],"tree_info":[0,0,0,0,0,0,0,0,0,0,0,0,0,0,0,0,0,0,0,0,0,0,0,0,0,0,0,0,0,0,0,0,0,0,0,0,0,0,0,0,0,0,0,0,0,0,0,0,0,0,0,0,0,0,0,0,0,0,0,0,0,0,0,0,0,0,0,0,0,0,0,0,0,0,0,0,0,0,0,0,0,0,0,0,0,0,0,0,0,0,0],"trees":[{"base_weights":[2.747549E-2,-2.8392106E-1,3.1383935E-1,-6.067979E-1,-2.1830764E-2,4.1343838E-1,1.794681E-1,-1.678922E-2,-1.0698977E-4,-1.10139325E-1,2.2794872E-3,-0E0,1.0956572E-2,5.1951013E-3,-7.362825E-4,-7.7159377E-3,-0E0],"categories":[],"categories_nodes":[],"categories_segments":[],"categories_sizes":[],"default_left":[0,0,0,0,0,0,0,0,0,0,0,0,0,0,0,0,0],"id":0,"left_children":[1,3,5,7,9,11,13,-1,-1,15,-1,-1,-1,-1,-1,-1,-1],"loss_changes":[1.0623284E1,4.4833765E0,3.3959436E-1,6.7573166E-1,3.9701444E-1,2.818575E-1,2.9699898E-1,0E0,0E0,4.2935753E-1,0E0,0E0,0E0,0E0,0E0,0E0,0E0],"parents":[2147483647,0,0,1,1,2,2,3,3,4,4,5,5,6,6,9,9],"right_children":[2,4,6,8,10,12,14,-1,-1,16,-1,-1,-1,-1,-1,-1,-1],"split_conditions":[-5.490896E-2,-2.0833333E-1,-4.0567525E-2,5.0170225E-1,-3.9087927E-1,-4.8632607E0,7.6937824E-2,-1.678922E-2,-1.0698977E-4,-1.5277778E-1,2.2794872E-3,-0E0,1.0956572E-2,5.1951013E-3,-7.362825E-4,-7.7159377E-3,-0E0],"split_indices":[15,12,1,13,15,3,3,0,0,2,0,0,0,0,0,0,0],"split_type":[0,0,0,0,0,0,0,0,0,0,0,0,0,0,0,0,0],"sum_hessian":[1.12E2,5.3E1,5.9E1,2.1E1,3.2E1,2.8E1,3.1E1,1.8E1,3E0,2E1,1.2E1,2E0,2.6E1,2.9E1,2E0,4E0,1.6E1],"tree_param":{"num_deleted":"0","num_feature":"16","num_nodes":"17","size_leaf_vector":"1"}},{"base_weights":[-3.518688E-3,-3.6167213E-1,2.1197052E-1,-5.653365E-1,-1.0658792E-3,2.599304E-1,-2.1023436E-4,-6.982285E-1,-1.5626805E-1,1.5110502E-3,7.696771E-3,-2.0229984E-3,-1.9470723E-2,4.1828884E-4,-8.997311E-3],"categories":[],"categories_nodes":[],"categories_segments":[],"categories_sizes":[],"default_left":[0,0,0,0,0,0,0,0,0,0,0,0,0,0,0],"id":1,"left_children":[1,3,5,7,-1,9,-1,11,13,-1,-1,-1,-1,-1,-1],"loss_changes":[8.856395E0,2.4989262E0,8.5340023E-1,6.6254234E-1,0E0,3.5657787E-1,0E0,3.0623913E-1,5.6344956E-1,0E0,0E0,0E0,0E0,0E0,0E0],"parents":[2147483647,0,0,1,1,2,2,3,3,5,5,7,7,8,8],"right_children":[2,4,6,8,-1,10,-1,12,14,-1,-1,-1,-1,-1,-1],"split_conditions":[-2.2641447E-1,-8.3333336E-2,1.2598153E0,-3.9376307E-1,-1.0658792E-3,2.4286933E-2,-2.1023436E-4,-5.7932585E-1,-2.9549292E-1,1.5110502E-3,7.696771E-3,-2.0229984E-3,-1.9470723E-2,4.1828884E-4,-8.997311E-3],"split_indices":[15,12,1,15,0,15,0,1,15,0,0,0,0,0,0],"split_type":[0,0,0,0,0,0,0,0,0,0,0,0,0,0,0],"sum_hessian":[1.07E2,4E1,6.7E1,2.2E1,1.8E1,5.6E1,1.1E1,1.4E1,8E0,1.4E1,4.2E1,3E0,1.1E1,5E0,3E0],"tree_param":{"num_deleted":"0","num_feature":"16","num_nodes":"15","size_leaf_vector":"1"}},{"base_weights":[-4.1584156E-2,-3.8621587E-1,2.393404E-1,-6.8123955E-1,9.9484685E-5,6.5156156E-3,-6.525942E-4,-7.2288924E-1,-1.9167409E-3,-2.162564E-2,-2.7811843E-1,7.9468926E-5,-1.02556385E-2],"categories":[],"categories_nodes":[],"categories_segments":[],"categories_sizes":[],"default_left":[0,0,0,0,0,0,0,0,0,0,0,0,0],"id":2,"left_children":[1,3,5,7,-1,-1,-1,9,-1,-1,11,-1,-1],"loss_changes":[1.1274024E1,6.324026E0,4.7638083E-1,2.5418854E-1,0E0,0E0,0E0,4.392109E-1,0E0,0E0,6.318996E-1,0E0,0E0],"parents":[2147483647,0,0,1,1,2,2,3,3,7,7,10,10],"right_children":[2,4,6,8,-1,-1,-1,10,-1,-1,12,-1,-1],"split_conditions":[-5.490896E-2,-1.25E-1,2.2333758E0,6.8224216E-1,9.9484685E-5,6.5156156E-3,-6.525942E-4,-3.6487162E-1,-1.9167409E-3,-2.162564E-2,-3.6663437E-1,7.9468926E-5,-1.02556385E-2],"split_indices":[15,12,1,8,0,0,0,15,0,0,11,0,0],"split_type":[0,0,0,0,0,0,0,0,0,0,0,0,0],"sum_hessian":[1.09E2,4.9E1,6E1,2.7E1,2.2E1,5.7E1,3E0,2.4E1,3E0,1.5E1,9E0,3E0,6E0],"tree_param":{"num_deleted":"0","num_feature":"16","num_nodes":"13","size_leaf_vector":"1"}},{"base_weights":[-3.8917884E-2,-3.552215E-1,2.3338233E-1,-5.5917567E-1,-5.7098875E-4,6.235137E-3,-5.3936173E-4,-1.5349683E-2,-0E0],"categories":[],"categories_nodes":[],"categories_segments":[],"categories_sizes":[],"default_left":[0,0,0,0,0,0,0,0,0],"id":3,"left_children":[1,3,5,7,-1,-1,-1,-1,-1],"loss_changes":[1.0286858E1,3.484877E0,3.6937594E-1,1.0232086E0,0E0,0E0,0E0,0E0,0E0],"parents":[2147483647,0,0,1,1,2,2,3,3],"right_children":[2,4,6,8,-1,-1,-1,-1,-1],"split_conditions":[-5.490896E-2,-8.3333336E-2,3.2090082E0,3.6993206E-1,-5.7098875E-4,6.235137E-3,-5.3936173E-4,-1.5349683E-2,-0E0],"split_indices":[15,12,1,11,0,0,0,0,0],"split_type":[0,0,0,0,0,0,0,0,0],"sum_hessian":[1.12E2,5.2E1,6E1,3E1,2.2E1,5.8E1,2E0,2.7E1,3E0],"tree_param":{"num_deleted":"0","num_feature":"16","num_nodes":"9","size_leaf_vector":"1"}},{"base_weights":[4.5378604E-3,-3.1230286E-1,2.6838678E-1,-4.9470347E-1,-8.8965066E-4,3.0040228E-1,-0E0,-5.432211E-1,-0E0,-0E0,7.846995E-3,-0E0,-5.8828396E-1,-1.7875684E-2,-2.1412377E-1,7.014095E-4,-1.1050088E-2],"categories":[],"categories_nodes":[],"categories_segments":[],"categories_sizes":[],"default_left":[0,0,0,0,0,0,0,0,0,0,0,0,0,0,0,0,0],"id":4,"left_children":[1,3,5,7,-1,9,-1,11,-1,-1,-1,-1,13,-1,15,-1,-1],"loss_changes":[9.764178E0,2.3761182E0,4.5261765E-1,9.457288E-1,0E0,2.707224E-1,0E0,7.6102734E-1,0E0,0E0,0E0,0E0,3.4916496E-1,0E0,8.9883184E-1,0E0,0E0],"parents":[2147483647,0,0,1,1,2,2,3,3,5,5,7,7,12,12,14,14],"right_children":[2,4,6,8,-1,10,-1,12,-1,-1,-1,-1,14,-1,16,-1,-1],"split_conditions":[-5.310812E-2,-8.3333336E-2,1.2598153E0,1.3980432E0,-8.8965066E-4,-3.1032076E0,-0E0,-5.675514E-1,-0E0,-0E0,7.846995E-3,-0E0,-3.6487162E-1,-1.7875684E-2,-3.001572E-1,7.014095E-4,-1.1050088E-2],"split_indices":[15,12,1,13,0,3,0,14,0,0,0,0,15,0,15,0,0],"split_type":[0,0,0,0,0,0,0,0,0,0,0,0,0,0,0,0,0],"sum_hessian":[1.1E2,4.9E1,6.1E1,2.7E1,2.2E1,5.3E1,8E0,2.5E1,2E0,2E0,5.1E1,2E0,2.3E1,1.4E1,9E0,5E0,4E0],"tree_param":{"num_deleted":"0","num_feature":"16","num_nodes":"17","size_leaf_vector":"1"}},{"base_weights":[7.3497853E-4,1.9710255E-1,-2.4608973E-1,2.4225296E-1,-0E0,-4.19892E-1,-0E0,6.591166E-3,-9.875844E-4,-4.9014887E-1,3.1467248E-3,4.8561376E-3,-1.5154801E-3,-0E0,-1.3177906E-2],"categories":[],"categories_nodes":[],"categories_segments":[],"categories_sizes":[],"default_left":[0,0,0,0,0,0,0,0,0,0,0,0,0,0,0],"id":5,"left_children":[1,3,5,7,-1,9,11,-1,-1,13,-1,-1,-1,-1,-1],"loss_changes":[5.602864E0,5.9509134E-1,2.1428363E0,4.485972E-1,0E0,1.4927745E0,3.2425934E-1,0E0,0E0,4.7845173E-1,0E0,0E0,0E0,0E0,0E0],"parents":[2147483647,0,0,1,1,2,2,3,3,5,5,6,6,9,9],"right_children":[2,4,6,8,-1,10,12,-1,-1,14,-1,-1,-1,-1,-1],"split_conditions":[1.582898E-1,1.3202615E0,-8.3333336E-2,2.0945349E0,-0E0,1.6647757E0,-1.3483146E-1,6.591166E-3,-9.875844E-4,-5.596348E-1,3.1467248E-3,4.8561376E-3,-1.5154801E-3,-0E0,-1.3177906E-2],"split_indices":[3,9,12,8,0,14,7,0,0,14,0,0,0,0,0],"split_type":[0,0,0,0,0,0,0,0,0,0,0,0,0,0,0],"sum_hessian":[1.09E2,6.2E1,4.7E1,5E1,1.2E1,2.6E1,2.1E1,4.8E1,2E0,2.4E1,2E0,3E0,1.8E1,2E0,2.2E1],"tree_param":{"num_deleted":"0","num_feature":"16","num_nodes":"15","size_leaf_vector":"1"}},{"base_weights":[-1.184547E-2,-2.9238382E-1,2.3093174E-1,-4.9738684E-1,-0E0,6.832581E-3,-0E0,-6.485392E-1,-1.8900351E-1,-1.7643264E-2,-0E0,8.939732E-4,-3.3239207E-1,-1.0890894E-2,-0E0],"categories":[],"categories_nodes":[],"categories_segments":[],"categories_sizes":[],"default_left":[0,0,0,0,0,0,0,0,0,0,0,0,0,0,0],"id":6,"left_children":[1,3,5,7,-1,-1,-1,9,11,-1,-1,-1,13,-1,-1],"loss_changes":[7.9230886E0,3.3811817E0,5.6701255E-1,7.5088406E-1,0E0,0E0,0E0,5.142126E-1,6.920222E-1,0E0,0E0,0E0,3.425455E-1,0E0,0E0],"parents":[2147483647,0,0,1,1,2,2,3,3,7,7,8,8,12,12],"right_children":[2,4,6,8,-1,-1,-1,10,12,-1,-1,-1,14,-1,-1],"split_conditions":[-5.310812E-2,-8.3333336E-2,1.2598153E0,-3.6487162E-1,-0E0,6.832581E-3,-0E0,7.804198E-2,-2.9549292E-1,-1.7643264E-2,-0E0,8.939732E-4,-2.0833333E-1,-1.0890894E-2,-0E0],"split_indices":[15,12,1,15,0,0,0,8,15,0,0,0,12,0,0],"split_type":[0,0,0,0,0,0,0,0,0,0,0,0,0,0,0],"sum_hessian":[1.09E2,5.1E1,5.8E1,2.9E1,2.2E1,4.8E1,1E1,1.6E1,1.3E1,1.4E1,2E0,5E0,8E0,5E0,3E0],"tree_param":{"num_deleted":"0","num_feature":"16","num_nodes":"15","size_leaf_vector":"1"}},{"base_weights":[7.584353E-3,-2.2254243E-1,2.1691395E-1,-1.2151781E-2,2.5519513E-4,3.5823712E-1,3.4270498E-3,2.1696703E-3,1.2818687E-2],"categories":[],"categories_nodes":[],"categories_segments":[],"categories_sizes":[],"default_left":[0,0,0,0,0,0,0,0,0],"id":7,"left_children":[1,3,5,-1,-1,7,-1,-1,-1],"loss_changes":[5.3934026E0,3.427872E0,3.0128002E-1,0E0,0E0,3.3842015E-1,0E0,0E0,0E0],"parents":[2147483647,0,0,1,1,2,2,5,5],"right_children":[2,4,6,-1,-1,8,-1,-1,-1],"split_conditions":[-5.310812E-2,-1.6666667E-1,-2.9213482E-1,-1.2151781E-2,2.5519513E-4,-4.840912E-1,3.4270498E-3,2.1696703E-3,1.2818687E-2],"split_indices":[15,12,7,0,0,0,0,0,0],"split_type":[0,0,0,0,0,0,0,0,0],"sum_hessian":[1.05E2,4.9E1,5.6E1,2.2E1,2.7E1,1.4E1,4.2E1,8E0,6E0],"tree_param":{"num_deleted":"0","num_feature":"16","num_nodes":"9","size_leaf_vector":"1"}},{"base_weights":[-3.185185E-2,-3.0108207E-1,2.136316E-1,-5.8201206E-1,-0E0,5.8991737E-3,-6.783874E-4,-1.5412742E-2,-0E0,1.081505E-3,-4.8036706E-3],"categories":[],"categories_nodes":[],"categories_segments":[],"categories_sizes":[],"default_left":[0,0,0,0,0,0,0,0,0,0,0],"id":8,"left_children":[1,3,5,7,9,-1,-1,-1,-1,-1,-1],"loss_changes":[7.3649454E0,4.465499E0,4.1515636E-1,3.7685108E-1,2.895759E-1,0E0,0E0,0E0,0E0,0E0,0E0],"parents":[2147483647,0,0,1,1,2,2,3,3,4,4],"right_children":[2,4,6,8,10,-1,-1,-1,-1,-1,-1],"split_conditions":[-5.310812E-2,-8.3333336E-2,3.2090082E0,6.8224216E-1,5.2650267E-1,5.8991737E-3,-6.783874E-4,-1.5412742E-2,-0E0,1.081505E-3,-4.8036706E-3],"split_indices":[15,12,1,8,11,0,0,0,0,0,0],"split_type":[0,0,0,0,0,0,0,0,0,0,0],"sum_hessian":[1.04E2,5E1,5.4E1,2.4E1,2.6E1,5.1E1,3E0,2.2E1,2E0,2.3E1,3E0],"tree_param":{"num_deleted":"0","num_feature":"16","num_nodes":"11","size_leaf_vector":"1"}},{"base_weights":[-1.0678621E-2,-2.9197106E-1,2.1174556E-1,-5.105053E-1,-0E0,1.0158969E-2,1.19890206E-1,-0E0,-5.531848E-1,1.5058705E-1,-5.6834624E-4,-1.7641257E-2,-2.185761E-1,-0E0,4.5097326E-3,7.463379E-4,-3.6126238E-1,-1.106049E-2,-0E0],"categories":[],"categories_nodes":[],"categories_segments":[],"categories_sizes":[],"default_left":[0,0,0,0,0,0,0,0,0,0,0,0,0,0,0,0,0,0,0],"id":9,"left_children":[1,3,5,7,-1,-1,9,-1,11,13,-1,-1,15,-1,-1,-1,17,-1,-1],"loss_changes":[7.224608E0,3.2979374E0,7.541287E-1,7.272072E-1,0E0,0E0,2.7983963E-1,0E0,4.9342346E-1,2.6637542E-1,0E0,0E0,6.842996E-1,0E0,0E0,0E0,2.9338825E-1,0E0,0E0],"parents":[2147483647,0,0,1,1,2,2,3,3,6,6,8,8,9,9,12,12,16,16],"right_children":[2,4,6,8,-1,-1,10,-1,12,14,-1,-1,16,-1,-1,-1,18,-1,-1],"split_conditions":[-5.310812E-2,-8.3333336E-2,-2.9213482E-1,-5.675514E-1,-0E0,1.0158969E-2,9.569472E-1,-0E0,-3.6487162E-1,4.1666668E-2,-5.6834624E-4,-1.7641257E-2,-4.0476325E-1,-0E0,4.5097326E-3,7.463379E-4,-2.0833333E-1,-1.106049E-2,-0E0],"split_indices":[15,12,7,14,0,0,14,0,15,12,0,0,8,0,0,0,12,0,0],"split_type":[0,0,0,0,0,0,0,0,0,0,0,0,0,0,0,0,0,0,0],"sum_hessian":[1.08E2,4.8E1,6E1,2.6E1,2.2E1,1.4E1,4.6E1,2E0,2.4E1,4E1,6E0,1.3E1,1.1E1,5E0,3.5E1,4E0,7E0,5E0,2E0],"tree_param":{"num_deleted":"0","num_feature":"16","num_nodes":"19","size_leaf_vector":"1"}},{"base_weights":[-1.3821686E-3,1.657951E-1,-2.0881373E-1,2.0817198E-1,-0E0,1.1848998E-1,-2.986544E-1,5.8355294E-3,-5.715877E-5,6.829381E-3,-9.481615E-4,-4.240674E-1,-0E0,-4.8583794E-1,2.890299E-3,-5.434302E-1,-0E0,-2.0081298E-1,-1.6904794E-2,-7.801591E-3,6.372804E-4],"categories":[],"categories_nodes":[],"categories_segments":[],"categories_sizes":[],"default_left":[0,0,0,0,0,0,0,0,0,0,0,0,0,0,0,0,0,0,0,0,0],"id":10,"left_children":[1,3,5,7,-1,9,11,-1,-1,-1,-1,13,-1,15,-1,17,-1,19,-1,-1,-1],"loss_changes":[4.2477026E0,4.905002E-1,1.8279107E0,3.7861562E-1,0E0,4.5699835E-1,1.7862301E0,0E0,0E0,0E0,0E0,1.4281092E0,0E0,9.2202663E-1,0E0,4.2481613E-1,0E0,4.823537E-1,0E0,0E0,0E0],"parents":[2147483647,0,0,1,1,2,2,3,3,5,5,6,6,11,11,13,13,15,15,17,17],"right_children":[2,4,6,8,-1,10,12,-1,-1,-1,-1,14,-1,16,-1,18,-1,20,-1,-1,-1],"split_conditions":[1.582898E-1,1.3202615E0,-7.18105E-1,1.6722357E0,-0E0,9.860001E-1,-8.3333336E-2,5.8355294E-3,-5.715877E-5,6.829381E-3,-9.481615E-4,1.6647757E0,-0E0,3.6993206E-1,2.890299E-3,-3.7043998E-1,-0E0,-2.2222222E-1,-1.6904794E-2,-7.801591E-3,6.372804E-4],"split_indices":[3,9,14,8,0,3,12,0,0,0,0,14,0,11,0,11,0,9,0,0,0],"split_type":[0,0,0,0,0,0,0,0,0,0,0,0,0,0,0,0,0,0,0,0,0],"sum_hessian":[1.15E2,6.3E1,5.2E1,5E1,1.3E1,1E1,4.2E1,4.6E1,4E0,5E0,5E0,2.9E1,1.3E1,2.7E1,2E0,2.4E1,3E0,1E1,1.4E1,7E0,3E0],"tree_param":{"num_deleted":"0","num_feature":"16","num_nodes":"21","size_leaf_vector":"1"}},{"base_weights":[-6.8671377E-3,-3.5733634E-1,2.0683558E-1,-5.0679135E-1,-3.8923245E-2,6.4289845E-3,-0E0,-6.60705E-1,-1.1205077E-1,1.3784496E-3,-4.4005434E-3,-1.8322447E-2,-1.2259175E-3,2.2101093E-3,-9.17509E-3],"categories":[],"categories_nodes":[],"categories_segments":[],"categories_sizes":[],"default_left":[0,0,0,0,0,0,0,0,0,0,0,0,0,0,0],"id":11,"left_children":[1,3,5,7,9,-1,-1,11,13,-1,-1,-1,-1,-1,-1],"loss_changes":[9.119191E0,1.9255362E0,8.1374073E-1,1.2848396E0,3.337879E-1,0E0,0E0,4.6668148E-1,9.149354E-1,0E0,0E0,0E0,0E0,0E0,0E0],"parents":[2147483647,0,0,1,1,2,2,3,3,4,4,7,7,8,8],"right_children":[2,4,6,8,10,-1,-1,12,14,-1,-1,-1,-1,-1,-1],"split_conditions":[-2.2641447E-1,5.857867E-1,1.2598153E0,-3.6487162E-1,0E0,6.4289845E-3,-0E0,7.6934165E-1,-3.001572E-1,1.3784496E-3,-4.4005434E-3,-1.8322447E-2,-1.2259175E-3,2.2101093E-3,-9.17509E-3],"split_indices":[15,3,1,15,8,0,0,1,15,0,0,0,0,0,0],"split_type":[0,0,0,0,0,0,0,0,0,0,0,0,0,0,0],"sum_hessian":[1.14E2,4.3E1,7.1E1,2.7E1,1.6E1,5.7E1,1.4E1,1.7E1,1E1,9E0,7E0,1.4E1,3E0,6E0,4E0],"tree_param":{"num_deleted":"0","num_feature":"16","num_nodes":"15","size_leaf_vector":"1"}},{"base_weights":[3.1150954E-3,-2.6440328E-1,2.2487582E-1,-5.0185615E-1,-8.822115E-2,8.935076E-3,2.3940278E-3,-1.6368588E-2,-8.534532E-2,1.9785268E-3,-1.4334138E-1,7.9697167E-4,-5.9046824E-3,-8.16741E-3,-2.30468E-2,-2.3809392E-3,3.0517755E-3],"categories":[],"categories_nodes":[],"categories_segments":[],"categories_sizes":[],"default_left":[0,0,0,0,0,0,0,0,0,0,0,0,0,0,0,0,0],"id":12,"left_children":[1,3,5,7,9,-1,-1,-1,11,-1,13,-1,-1,-1,15,-1,-1],"loss_changes":[7.222312E0,1.8890142E0,8.539529E-1,8.774905E-1,4.0209892E-1,0E0,0E0,0E0,2.9374066E-1,0E0,5.0647694E-1,0E0,0E0,0E0,2.7614665E-1,0E0,0E0],"parents":[2147483647,0,0,1,1,2,2,3,3,4,4,8,8,10,10,14,14],"right_children":[2,4,6,8,10,-1,-1,-1,12,-1,14,-1,-1,-1,16,-1,-1],"split_conditions":[-5.310812E-2,-2.9247594E-1,-4.0567525E-2,-3.6487162E-1,1.582898E-1,8.935076E-3,2.3940278E-3,-1.6368588E-2,-2.9549292E-1,1.9785268E-3,3.6679253E-1,7.9697167E-4,-5.9046824E-3,-8.16741E-3,-3.9087927E-1,-2.3809392E-3,3.0517755E-3],"split_indices":[15,8,1,15,3,0,0,0,15,0,3,0,0,0,15,0,0],"split_type":[0,0,0,0,0,0,0,0,0,0,0,0,0,0,0,0,0],"sum_hessian":[1.15E2,5.1E1,6.4E1,1.8E1,3.3E1,2.7E1,3.7E1,1.1E1,7E0,6E0,2.7E1,4E0,3E0,7E0,2E1,1.6E1,4E0],"tree_param":{"num_deleted":"0","num_feature":"16","num_nodes":"17","size_leaf_vector":"1"}},{"base_weights":[4.9506566E-3,-2.3163779E-1,2.3206547E-1,-4.903436E-1,5.892587E-4,6.538167E-3,-0E0,-0E0,-5.330622E-1,-5.8086574E-1,-2.915551E-4,-1.5968004E-2,-6.022365E-4],"categories":[],"categories_nodes":[],"categories_segments":[],"categories_sizes":[],"default_left":[0,0,0,0,0,0,0,0,0,0,0,0,0],"id":13,"left_children":[1,3,5,7,-1,-1,-1,-1,9,11,-1,-1,-1],"loss_changes":[6.1795144E0,3.891483E0,3.8646507E-1,6.7766666E-1,0E0,0E0,0E0,0E0,3.9978504E-1,4.380045E-1,0E0,0E0,0E0],"parents":[2147483647,0,0,1,1,2,2,3,3,8,8,9,9],"right_children":[2,4,6,8,-1,-1,-1,-1,10,12,-1,-1,-1],"split_conditions":[-5.310812E-2,-8.3333336E-2,1.8030478E0,-5.675514E-1,5.892587E-4,6.538167E-3,-0E0,-0E0,5.0170225E-1,3.6993206E-1,-2.915551E-4,-1.5968004E-2,-6.022365E-4],"split_indices":[15,12,1,14,0,0,0,0,13,11,0,0,0],"split_type":[0,0,0,0,0,0,0,0,0,0,0,0,0],"sum_hessian":[1.08E2,5.2E1,5.6E1,2.5E1,2.7E1,4.9E1,7E0,2E0,2.3E1,2E1,3E0,1.7E1,3E0],"tree_param":{"num_deleted":"0","num_feature":"16","num_nodes":"13","size_leaf_vector":"1"}},{"base_weights":[4.4344645E-3,-2.4214697E-1,2.0050776E-1,-3.660789E-1,-3.527236E-2,5.9606927E-3,3.780455E-4,-5.037981E-1,-1.0142431E-1,3.124309E-3,-2.3464062E-3,-1.3715266E-2,-0E0,1.8530459E-3,-6.613473E-3],"categories":[],"categories_nodes":[],"categories_segments":[],"categories_sizes":[],"default_left":[0,0,0,0,0,0,0,0,0,0,0,0,0,0,0],"id":14,"left_children":[1,3,5,7,9,-1,-1,11,13,-1,-1,-1,-1,-1,-1],"loss_changes":[6.0275636E0,1.1915574E0,3.8156366E-1,7.636304E-1,2.679944E-1,0E0,0E0,3.176937E-1,6.172585E-1,0E0,0E0,0E0,0E0,0E0,0E0],"parents":[2147483647,0,0,1,1,2,2,3,3,4,4,7,7,8,8],"right_children":[2,4,6,8,10,-1,-1,12,14,-1,-1,-1,-1,-1,-1],"split_conditions":[-5.310812E-2,-8.3333336E-2,1.569499E0,-3.6487162E-1,-1.1235955E-1,5.9606927E-3,3.780455E-4,7.804198E-2,-3.5815164E-1,3.124309E-3,-2.3464062E-3,-1.3715266E-2,-0E0,1.8530459E-3,-6.613473E-3],"split_indices":[15,12,0,15,7,0,0,8,8,0,0,0,0,0,0],"split_type":[0,0,0,0,0,0,0,0,0,0,0,0,0,0,0],"sum_hessian":[1.18E2,5.1E1,6.7E1,2.9E1,2.2E1,5.3E1,1.4E1,1.6E1,1.3E1,3E0,1.9E1,1.4E1,2E0,6E0,7E0],"tree_param":{"num_deleted":"0","num_feature":"16","num_nodes":"15","size_leaf_vector":"1"}},{"base_weights":[-2.7415872E-2,-2.8570002E-1,1.9812359E-1,-4.1503394E-1,-1.9743802E-2,3.552296E-1,1.1241226E-1,-6.1999017E-1,-1.4297508E-1,1.2905515E-3,-3.6176548E-3,4.4052067E-4,1.0995172E-2,-1.3486274E-3,3.995286E-3,-1.7289838E-2,-1.0712169E-3,1.9572163E-3,-2.508738E-1,-0E0,-3.2715163E-1,-1.0291902E-2,-0E0],"categories":[],"categories_nodes":[],"categories_segments":[],"categories_sizes":[],"default_left":[0,0,0,0,0,0,0,0,0,0,0,0,0,0,0,0,0,0,0,0,0,0,0],"id":15,"left_children":[1,3,5,7,9,11,13,15,17,-1,-1,-1,-1,-1,-1,-1,-1,-1,19,-1,21,-1,-1],"loss_changes":[7.136157E0,1.7752447E0,5.417223E-1,1.4755692E0,2.7295288E-1,3.4670877E-1,4.5495248E-1,4.0834713E-1,6.510686E-1,0E0,0E0,0E0,0E0,0E0,0E0,0E0,0E0,0E0,4.0640903E-1,0E0,5.0410724E-1,0E0,0E0],"parents":[2147483647,0,0,1,1,2,2,3,3,4,4,5,5,6,6,7,7,8,8,18,18,20,20],"right_children":[2,4,6,8,10,12,14,16,18,-1,-1,-1,-1,-1,-1,-1,-1,-1,20,-1,22,-1,-1],"split_conditions":[-5.310812E-2,5.857867E-1,-2.9213482E-1,-3.9376307E-1,0E0,-1.188439E0,2.0850573E-2,7.6934165E-1,-3.001572E-1,1.2905515E-3,-3.6176548E-3,4.4052067E-4,1.0995172E-2,-1.3486274E-3,3.995286E-3,-1.7289838E-2,-1.0712169E-3,1.9572163E-3,-1.3799924E-1,-0E0,1.1536585E0,-1.0291902E-2,-0E0],"split_indices":[15,3,7,15,8,3,11,1,15,0,0,0,0,0,0,0,0,0,3,0,11,0,0],"split_type":[0,0,0,0,0,0,0,0,0,0,0,0,0,0,0,0,0,0,0,0,0,0,0],"sum_hessian":[1.15E2,5.4E1,6.1E1,3.4E1,2E1,1.6E1,4.5E1,1.6E1,1.8E1,1.2E1,8E0,5E0,1.1E1,8E0,3.7E1,1.3E1,3E0,5E0,1.3E1,3E0,1E1,8E0,2E0],"tree_param":{"num_deleted":"0","num_feature":"16","num_nodes":"23","size_leaf_vector":"1"}},{"base_weights":[-4.070461E-3,-8.81138E-2,4.784673E-3,1.7953199E-1,-1.3921475E-1,8.592806E-3,-0E0,-2.9744557E-1,3.4411784E-2,-1.2172075E-2,-0E0,5.9572584E-3,-8.316204E-2,-1.13932945E-1,3.954934E-3,-8.99424E-3,7.956048E-4,-5.851218E-3,5.0422054E-4],"categories":[],"categories_nodes":[],"categories_segments":[],"categories_sizes":[],"default_left":[0,0,0,0,0,0,0,0,0,0,0,0,0,0,0,0,0,0,0],"id":16,"left_children":[1,3,-1,5,7,-1,-1,9,11,-1,13,-1,15,17,-1,-1,-1,-1,-1],"loss_changes":[1.8657393E0,1.1996994E0,0E0,3.3276924E-1,2.1328359E0,0E0,0E0,2.0760758E0,1.0063434E0,0E0,4.0094483E-1,0E0,9.504994E-1,3.3563584E-1,0E0,0E0,0E0,0E0,0E0],"parents":[2147483647,0,0,1,1,3,3,4,4,7,7,8,8,10,10,12,12,13,13],"right_children":[2,4,-1,6,8,-1,-1,10,12,-1,14,-1,16,18,-1,-1,-1,-1,-1],"split_conditions":[5.443648E-1,-7.196378E-1,4.784673E-3,-2.460476E-1,1.0667091E-1,8.592806E-3,-0E0,-1.3913737E-1,-2.9213482E-1,-1.2172075E-2,2.7777778E-2,5.9572584E-3,0E0,-2.4174634E-1,3.954934E-3,-8.99424E-3,7.956048E-4,-5.851218E-3,5.0422054E-4],"split_indices":[11,14,0,1,14,0,0,8,7,0,2,0,2,14,0,0,0,0,0],"split_type":[0,0,0,0,0,0,0,0,0,0,0,0,0,0,0,0,0,0,0],"sum_hessian":[1.09E2,7.9E1,3E1,1E1,6.9E1,3E0,7E0,3.6E1,3.3E1,2E1,1.6E1,1.2E1,2.1E1,1.1E1,5E0,5E0,1.6E1,6E0,5E0],"tree_param":{"num_deleted":"0","num_feature":"16","num_nodes":"19","size_leaf_vector":"1"}},{"base_weights":[-1.5263857E-2,1.2637813E-1,-1.7524995E-1,1.7118758E-1,-1.7198048E-3,-1.9319266E-2,-3.2835189E-1,6.504471E-3,3.939128E-2,2.5589583E-3,-8.722809E-2,-3.9098555E-1,2.4566113E-3,3.5660625E-3,-5.077047E-3,-4.177187E-3,2.652542E-4,-1.0800913E-2,-0E0],"categories":[],"categories_nodes":[],"categories_segments":[],"categories_sizes":[],"default_left":[0,0,0,0,0,0,0,0,0,0,0,0,0,0,0,0,0,0,0],"id":17,"left_children":[1,3,5,7,-1,9,11,-1,13,-1,15,17,-1,-1,-1,-1,-1,-1,-1],"loss_changes":[2.7370431E0,6.287677E-1,1.2114434E0,4.7178757E-1,0E0,3.0200762E-1,9.863732E-1,0E0,7.656929E-1,0E0,2.6803505E-1,4.882288E-1,0E0,0E0,0E0,0E0,0E0,0E0,0E0],"parents":[2147483647,0,0,1,1,2,2,3,3,5,5,6,6,8,8,10,10,11,11],"right_children":[2,4,6,8,-1,10,12,-1,14,-1,16,18,-1,-1,-1,-1,-1,-1,-1],"split_conditions":[1.582898E-1,1.3202615E0,-1.0061036E-1,2.925974E-1,-1.7198048E-3,-7.850484E-1,1.6647757E0,6.504471E-3,-4.4056728E-1,2.5589583E-3,-1.5686275E-1,2.119095E0,2.4566113E-3,3.5660625E-3,-5.077047E-3,-4.177187E-3,2.652542E-4,-1.0800913E-2,-0E0],"split_indices":[3,9,14,14,0,14,14,0,3,0,9,11,0,0,0,0,0,0,0],"split_type":[0,0,0,0,0,0,0,0,0,0,0,0,0,0,0,0,0,0,0],"sum_hessian":[1.13E2,5.9E1,5.4E1,5E1,9E0,3E1,2.4E1,2.6E1,2.4E1,8E0,2.2E1,2.2E1,2E0,1.9E1,5E0,1.3E1,9E0,2E1,2E0],"tree_param":{"num_deleted":"0","num_feature":"16","num_nodes":"19","size_leaf_vector":"1"}},{"base_weights":[-2.1711543E-2,-2.726575E-1,1.8214412E-1,-3.997228E-1,-7.1212446E-4,6.7800763E-3,1.9916957E-3,-5.6985426E-1,-1.4605811E-1,-1.5514389E-2,-0E0,2.378606E-3,-7.688895E-3],"categories":[],"categories_nodes":[],"categories_segments":[],"categories_sizes":[],"default_left":[0,0,0,0,0,0,0,0,0,0,0,0,0],"id":18,"left_children":[1,3,5,7,-1,-1,-1,9,11,-1,-1,-1,-1],"loss_changes":[6.1697884E0,1.4797745E0,3.8181114E-1,9.112172E-1,0E0,0E0,0E0,3.4680367E-1,9.4697785E-1,0E0,0E0,0E0,0E0],"parents":[2147483647,0,0,1,1,2,2,3,3,7,7,8,8],"right_children":[2,4,6,8,-1,-1,-1,10,12,-1,-1,-1,-1],"split_conditions":[-5.310812E-2,5.857867E-1,-5.5401247E-2,-3.6487162E-1,-7.1212446E-4,6.7800763E-3,1.9916957E-3,7.6934165E-1,-3.001572E-1,-1.5514389E-2,-0E0,2.378606E-3,-7.688895E-3],"split_indices":[15,3,1,15,0,0,0,1,15,0,0,0,0],"split_type":[0,0,0,0,0,0,0,0,0,0,0,0,0],"sum_hessian":[1.13E2,5.1E1,6.2E1,3.1E1,2E1,2.8E1,3.4E1,1.5E1,1.6E1,1.3E1,2E0,6E0,1E1],"tree_param":{"num_deleted":"0","num_feature":"16","num_nodes":"13","size_leaf_vector":"1"}},{"base_weights":[-6.328698E-3,-2.1732545E-1,1.8017517E-1,-3.2379705E-1,1.4804889E-4,7.2073485E-3,1.6030178E-3,-5.5138075E-1,-6.852646E-2,-1.5381417E-2,-1.015636E-3,2.2821694E-3,-1.7024665E-1,-0E0,-5.8179437E-3],"categories":[],"categories_nodes":[],"categories_segments":[],"categories_sizes":[],"default_left":[0,0,0,0,0,0,0,0,0,0,0,0,0,0,0],"id":19,"left_children":[1,3,5,7,-1,-1,-1,9,11,-1,-1,-1,13,-1,-1],"loss_changes":[4.4215684E0,1.4055302E0,5.2837265E-1,1.7983706E0,0E0,0E0,0E0,2.5372696E-1,4.517436E-1,0E0,0E0,0E0,2.5289214E-1,0E0,0E0],"parents":[2147483647,0,0,1,1,2,2,3,3,7,7,8,8,12,12],"right_children":[2,4,6,8,-1,-1,-1,10,12,-1,-1,-1,14,-1,-1],"split_conditions":[-5.310812E-2,7.334351E-1,-4.0567525E-2,-3.6487162E-1,1.4804889E-4,7.2073485E-3,1.6030178E-3,7.6934165E-1,-2.9549292E-1,-1.5381417E-2,-1.015636E-3,2.2821694E-3,-1.3799924E-1,-0E0,-5.8179437E-3],"split_indices":[15,3,1,15,0,0,0,1,15,0,0,0,3,0,0],"split_type":[0,0,0,0,0,0,0,0,0,0,0,0,0,0,0],"sum_hessian":[1.05E2,5E1,5.5E1,3.4E1,1.6E1,2.4E1,3.1E1,1.5E1,1.9E1,1.2E1,3E0,6E0,1.3E1,3E0,1E1],"tree_param":{"num_deleted":"0","num_feature":"16","num_nodes":"15","size_leaf_vector":"1"}},{"base_weights":[-1.6673503E-2,-2.6122218E-1,1.9603822E-1,-4.3521997E-1,-4.1721543E-4,8.4948605E-3,2.896121E-3,-1.4737231E-2,-1.3634E-1,1.6069036E-3,-2.7790934E-1,-9.338957E-3,-0E0],"categories":[],"categories_nodes":[],"categories_segments":[],"categories_sizes":[],"default_left":[0,0,0,0,0,0,0,0,0,0,0,0,0],"id":20,"left_children":[1,3,5,7,-1,-1,-1,-1,9,-1,11,-1,-1],"loss_changes":[6.369484E0,2.2403424E0,4.2354727E-1,9.268799E-1,0E0,0E0,0E0,0E0,6.165916E-1,0E0,2.9795277E-1,0E0,0E0],"parents":[2147483647,0,0,1,1,2,2,3,3,8,8,10,10],"right_children":[2,4,6,8,-1,-1,-1,-1,10,-1,12,-1,-1],"split_conditions":[-5.310812E-2,-8.3333336E-2,-2.9213482E-1,-3.6487162E-1,-4.1721543E-4,8.4948605E-3,2.896121E-3,-1.4737231E-2,-2.9549292E-1,1.6069036E-3,-2.0833333E-1,-9.338957E-3,-0E0],"split_indices":[15,12,7,15,0,0,0,0,15,0,12,0,0],"split_type":[0,0,0,0,0,0,0,0,0,0,0,0,0],"sum_hessian":[1.15E2,5.4E1,6.1E1,2.9E1,2.5E1,1.6E1,4.5E1,1.6E1,1.3E1,5E0,8E0,5E0,3E0],"tree_param":{"num_deleted":"0","num_feature":"16","num_nodes":"13","size_leaf_vector":"1"}},{"base_weights":[-8.937019E-3,-2.6414827E-1,1.3606364E-1,-4.431367E-1,-1.7260462E-4,7.879336E-3,8.541167E-2,-5.8593786E-1,-1.2140912E-1,-0E0,3.7265487E-3,-1.6248578E-2,-0E0,1.5832722E-3,-8.186421E-3],"categories":[],"categories_nodes":[],"categories_segments":[],"categories_sizes":[],"default_left":[0,0,0,0,0,0,0,0,0,0,0,0,0,0,0],"id":21,"left_children":[1,3,5,7,-1,-1,9,11,13,-1,-1,-1,-1,-1,-1],"loss_changes":[4.192156E0,1.7200897E0,3.8514233E-1,5.477395E-1,0E0,0E0,3.6235854E-1,3.0214024E-1,6.5404963E-1,0E0,0E0,0E0,0E0,0E0,0E0],"parents":[2147483647,0,0,1,1,2,2,3,3,6,6,7,7,8,8],"right_children":[2,4,6,8,-1,-1,10,12,14,-1,-1,-1,-1,-1,-1],"split_conditions":[-2.2641447E-1,0E0,-6.0012263E-1,-3.9376307E-1,-1.7260462E-4,7.879336E-3,3.0880043E-1,9.30861E-3,-2.9549292E-1,-0E0,3.7265487E-3,-1.6248578E-2,-0E0,1.5832722E-3,-8.186421E-3],"split_indices":[15,7,14,15,0,0,15,1,15,0,0,0,0,0,0],"split_type":[0,0,0,0,0,0,0,0,0,0,0,0,0,0,0],"sum_hessian":[1.05E2,3.8E1,6.7E1,2E1,1.8E1,9E0,5.8E1,1.1E1,9E0,2.5E1,3.3E1,9E0,2E0,5E0,4E0],"tree_param":{"num_deleted":"0","num_feature":"16","num_nodes":"15","size_leaf_vector":"1"}},{"base_weights":[-1.2651567E-3,-2.7413502E-1,1.5970829E-1,-3.6918885E-1,-0E0,5.0784256E-3,-6.8478426E-4,-5.25934E-1,-6.331296E-2,-6.95909E-2,-1.5336874E-2,2.6312934E-3,-8.07727E-3,-6.001694E-3,1.8110952E-3],"categories":[],"categories_nodes":[],"categories_segments":[],"categories_sizes":[],"default_left":[0,0,0,0,0,0,0,0,0,0,0,0,0,0,0],"id":22,"left_children":[1,3,5,7,-1,-1,-1,9,11,13,-1,-1,-1,-1,-1],"loss_changes":[4.613449E0,9.161365E-1,6.138679E-1,1.0141764E0,0E0,0E0,0E0,2.764535E-1,8.411021E-1,3.0952176E-1,0E0,0E0,0E0,0E0,0E0],"parents":[2147483647,0,0,1,1,2,2,3,3,7,7,8,8,9,9],"right_children":[2,4,6,8,-1,-1,-1,10,12,14,-1,-1,-1,-1,-1],"split_conditions":[-2.2641447E-1,7.334351E-1,1.569499E0,-3.9376307E-1,-0E0,5.0784256E-3,-6.8478426E-4,-3.1460676E-1,-2.9549292E-1,8.262131E-2,-1.5336874E-2,2.6312934E-3,-8.07727E-3,-6.001694E-3,1.8110952E-3],"split_indices":[15,3,0,15,0,0,0,7,15,14,0,0,0,0,0],"split_type":[0,0,0,0,0,0,0,0,0,0,0,0,0,0,0],"sum_hessian":[9.7E1,3.6E1,6.1E1,2.5E1,1.1E1,5.1E1,1E1,1.4E1,1.1E1,4E0,1E1,7E0,4E0,2E0,2E0],"tree_param":{"num_deleted":"0","num_feature":"16","num_nodes":"15","size_leaf_vector":"1"}},{"base_weights":[-9.23061E-3,-2.5619546E-1,3.823526E-3,-0E0,-3.857112E-1,-7.3189236E-4,-4.9011207E-1,-1.3696166E-2,-0E0],"categories":[],"categories_nodes":[],"categories_segments":[],"categories_sizes":[],"default_left":[0,0,0,0,0,0,0,0,0],"id":23,"left_children":[1,3,-1,-1,5,-1,7,-1,-1],"loss_changes":[4.4438405E0,1.6167736E0,0E0,0E0,8.76997E-1,0E0,7.480655E-1,0E0,0E0],"parents":[2147483647,0,0,1,1,4,4,6,6],"right_children":[2,4,-1,-1,6,-1,8,-1,-1],"split_conditions":[-2.2641447E-1,-6.1133295E-1,3.823526E-3,-0E0,-1.991665E-1,-7.3189236E-4,1.1536585E0,-1.3696166E-2,-0E0],"split_indices":[15,15,0,0,14,0,11,0,0],"split_type":[0,0,0,0,0,0,0,0,0],"sum_hessian":[1.03E2,4.1E1,6.2E1,1.4E1,2.7E1,8E0,1.9E1,1.7E1,2E0],"tree_param":{"num_deleted":"0","num_feature":"16","num_nodes":"9","size_leaf_vector":"1"}},{"base_weights":[4.089348E-3,-2.654317E-1,1.1784574E-1,-7.326417E-4,-4.1369122E-1,-0E0,1.6568504E-1,-1.2157365E-2,-1.8936346E-4,5.1317266E-3,-0E0],"categories":[],"categories_nodes":[],"categories_segments":[],"categories_sizes":[],"default_left":[0,0,0,0,0,0,0,0,0,0,0],"id":24,"left_children":[1,3,5,-1,7,-1,9,-1,-1,-1,-1],"loss_changes":[3.7142844E0,1.0231509E0,4.456514E-1,0E0,3.9401174E-1,0E0,3.82748E-1,0E0,0E0,0E0,0E0],"parents":[2147483647,0,0,1,1,2,2,4,4,6,6],"right_children":[2,4,6,-1,8,-1,10,-1,-1,-1,-1],"split_conditions":[-3.9527804E-1,-1.1626806E-1,2.4286933E-2,-7.326417E-4,7.6934165E-1,-0E0,1.2598153E0,-1.2157365E-2,-1.8936346E-4,5.1317266E-3,-0E0],"split_indices":[15,14,15,0,1,0,1,0,0,0,0],"split_type":[0,0,0,0,0,0,0,0,0,0,0],"sum_hessian":[1.16E2,3.2E1,8.4E1,1.5E1,1.7E1,2.7E1,5.7E1,1.3E1,4E0,4.5E1,1.2E1],"tree_param":{"num_deleted":"0","num_feature":"16","num_nodes":"11","size_leaf_vector":"1"}},{"base_weights":[-0E0,-1.7967217E-1,1.5406184E-1,-3.9099827E-1,-0E0,2.3603472E-1,6.6569485E-2,-1.0869981E-2,-0E0,1.2302984E-3,8.147548E-3,-1.981463E-3,2.936674E-3],"categories":[],"categories_nodes":[],"categories_segments":[],"categories_sizes":[],"default_left":[0,0,0,0,0,0,0,0,0,0,0,0,0],"id":25,"left_children":[1,3,5,7,-1,9,11,-1,-1,-1,-1,-1,-1],"loss_changes":[3.1307802E0,2.0507421E0,2.5786984E-1,5.080819E-1,0E0,2.5552475E-1,3.1878242E-1,0E0,0E0,0E0,0E0,0E0,0E0],"parents":[2147483647,0,0,1,1,2,2,3,3,5,5,6,6],"right_children":[2,4,6,8,-1,10,12,-1,-1,-1,-1,-1,-1],"split_conditions":[-5.1536072E-2,-1.25E-1,-4.0567525E-2,1.1536585E0,-0E0,-3.654827E-1,2.0850573E-2,-1.0869981E-2,-0E0,1.2302984E-3,8.147548E-3,-1.981463E-3,2.936674E-3],"split_indices":[15,12,1,11,0,3,11,0,0,0,0,0,0],"split_type":[0,0,0,0,0,0,0,0,0,0,0,0,0],"sum_hessian":[1.06E2,4.9E1,5.7E1,2.1E1,2.8E1,2.4E1,3.3E1,1.9E1,2E0,1.1E1,1.3E1,6E0,2.7E1],"tree_param":{"num_deleted":"0","num_feature":"16","num_nodes":"13","size_leaf_vector":"1"}},{"base_weights":[3.8245101E-3,-2.4419709E-1,1.1712772E-1,-1.1455334E-2,-0E0,-2.5897138E-4,1.6271532E-1,-0E0,1.8298577E-1,7.895152E-3,1.1348072E-1,-2.1439116E-3,4.007123E-3],"categories":[],"categories_nodes":[],"categories_segments":[],"categories_sizes":[],"default_left":[0,0,0,0,0,0,0,0,0,0,0,0,0],"id":26,"left_children":[1,3,5,-1,-1,-1,7,-1,9,-1,11,-1,-1],"loss_changes":[3.4074264E0,1.858001E0,5.6375146E-1,0E0,0E0,0E0,2.5808966E-1,0E0,2.5213766E-1,0E0,5.115396E-1,0E0,0E0],"parents":[2147483647,0,0,1,1,2,2,6,6,8,8,10,10],"right_children":[2,4,6,-1,-1,-1,8,-1,10,-1,12,-1,-1],"split_conditions":[-3.6487162E-1,5.317605E-1,-5.1536072E-2,-1.1455334E-2,-0E0,-2.5897138E-4,-1.2984116E0,-0E0,-1.4765146E-1,7.895152E-3,2.0850573E-2,-2.1439116E-3,4.007123E-3],"split_indices":[15,3,15,0,0,0,3,0,11,0,11,0,0],"split_type":[0,0,0,0,0,0,0,0,0,0,0,0,0],"sum_hessian":[1.16E2,3.4E1,8.2E1,1.6E1,1.8E1,2E1,6.2E1,6E0,5.6E1,1.3E1,4.3E1,6E0,3.7E1],"tree_param":{"num_deleted":"0","num_feature":"16","num_nodes":"13","size_leaf_vector":"1"}},{"base_weights":[-1.1993426E-2,-1.6033964E-1,8.4242865E-2,3.1648956E-3,-2.699116E-1,-1.6543116E-4,1.557427E-1,2.5825743E-3,-3.260669E-1,6.0694376E-3,6.675875E-4,-9.322392E-3,1.9225971E-3],"categories":[],"categories_nodes":[],"categories_segments":[],"categories_sizes":[],"default_left":[0,0,0,0,0,0,0,0,0,0,0,0,0],"id":27,"left_children":[1,3,5,-1,7,-1,9,-1,11,-1,-1,-1,-1],"loss_changes":[1.6980736E0,1.670324E0,5.147629E-1,0E0,9.719651E-1,0E0,3.3559942E-1,0E0,8.5093236E-1,0E0,0E0,0E0,0E0],"parents":[2147483647,0,0,1,1,2,2,4,4,6,6,8,8],"right_children":[2,4,6,-1,8,-1,10,-1,12,-1,-1,-1,-1],"split_conditions":[-8.3333336E-2,-1.2769644E-1,9.8909006E-2,3.1648956E-3,-5.675514E-1,-1.6543116E-4,3.2964492E-1,2.5825743E-3,1.6647757E0,6.0694376E-3,6.675875E-4,-9.322392E-3,1.9225971E-3],"split_indices":[12,3,8,0,14,0,1,0,14,0,0,0,0],"split_type":[0,0,0,0,0,0,0,0,0,0,0,0,0],"sum_hessian":[1.1E2,4.4E1,6.6E1,1.1E1,3.3E1,2.8E1,3.8E1,3E0,3E1,1.9E1,1.9E1,2.8E1,2E0],"tree_param":{"num_deleted":"0","num_feature":"16","num_nodes":"13","size_leaf_vector":"1"}},{"base_weights":[-1.4756118E-2,-2.1133503E-1,1.6366808E-1,-3.131681E-2,-3.3046478E-1,6.5199444E-3,1.5976796E-3,3.629161E-4,-4.2609307E-3,-3.5887155E-1,-0E0,-4.026297E-1,-0E0,-1.0822124E-1,-5.2636176E-1,-6.396629E-3,9.2313875E-4,-0E0,-1.4894376E-2],"categories":[],"categories_nodes":[],"categories_segments":[],"categories_sizes":[],"default_left":[0,0,0,0,0,0,0,0,0,0,0,0,0,0,0,0,0,0,0],"id":28,"left_children":[1,3,5,7,9,-1,-1,-1,-1,11,-1,13,-1,15,17,-1,-1,-1,-1],"loss_changes":[4.261374E0,1.0736289E0,4.1739297E-1,2.5275433E-1,3.9841342E-1,0E0,0E0,0E0,0E0,4.0119696E-1,0E0,5.4855776E-1,0E0,4.099493E-1,6.531997E-1,0E0,0E0,0E0,0E0],"parents":[2147483647,0,0,1,1,2,2,3,3,4,4,9,9,11,11,13,13,14,14],"right_children":[2,4,6,8,10,-1,-1,-1,-1,12,-1,14,-1,16,18,-1,-1,-1,-1],"split_conditions":[-2.9773133E-2,-1.1626806E-1,-4.0567525E-2,6.4843334E-2,1.1536585E0,6.5199444E-3,1.5976796E-3,3.629161E-4,-4.2609307E-3,1.25E-1,-0E0,-3.6663437E-1,-0E0,-2.875817E-1,-4.295258E-1,-6.396629E-3,9.2313875E-4,-0E0,-1.4894376E-2],"split_indices":[15,14,1,11,11,0,0,0,0,2,0,11,0,9,0,0,0,0,0],"split_type":[0,0,0,0,0,0,0,0,0,0,0,0,0,0,0,0,0,0,0],"sum_hessian":[1.14E2,5.5E1,5.9E1,2.5E1,3E1,2.5E1,3.4E1,1.9E1,6E0,2.8E1,2E0,2.4E1,4E0,1E1,1.4E1,5E0,5E0,2E0,1.2E1],"tree_param":{"num_deleted":"0","num_feature":"16","num_nodes":"19","size_leaf_vector":"1"}},{"base_weights":[-4.1299332E-2,-2.4168092E-1,3.2336544E-3,-1.0822722E-3,-3.495816E-1,-4.378866E-1,-0E0,-4.8616594E-1,-0E0,-1.3090171E-2,-0E0],"categories":[],"categories_nodes":[],"categories_segments":[],"categories_sizes":[],"default_left":[0,0,0,0,0,0,0,0,0,0,0],"id":29,"left_children":[1,3,-1,-1,5,7,-1,9,-1,-1,-1],"loss_changes":[4.035389E0,9.5653296E-1,0E0,0E0,9.872899E-1,7.095208E-1,0E0,3.7793827E-1,0E0,0E0,0E0],"parents":[2147483647,0,0,1,1,4,4,5,5,7,7],"right_children":[2,4,-1,-1,6,8,-1,10,-1,-1,-1],"split_conditions":[-5.310812E-2,-1.991665E-1,3.2336544E-3,-1.0822722E-3,-1.8698455E-1,1E0,-0E0,0E0,-0E0,-1.3090171E-2,-0E0],"split_indices":[15,14,0,0,15,4,0,2,0,0,0],"split_type":[0,0,0,0,0,0,0,0,0,0,0],"sum_hessian":[1.1E2,5.1E1,5.9E1,2.1E1,3E1,2.3E1,7E0,2.1E1,2E0,1.9E1,2E0],"tree_param":{"num_deleted":"0","num_feature":"16","num_nodes":"11","size_leaf_vector":"1"}},{"base_weights":[-2.2887142E-2,-3.4195685E-1,1.0129178E-1,-1.316779E-2,-1.12097E-3,-3.0221151E-2,1.5964834E-1,-2.2767724E-1,2.3501501E-3,2.515018E-3,7.737756E-3,1.163008E-3,-9.337757E-3],"categories":[],"categories_nodes":[],"categories_segments":[],"categories_sizes":[],"default_left":[0,0,0,0,0,0,0,0,0,0,0,0,0],"id":30,"left_children":[1,3,5,-1,-1,7,9,11,-1,-1,-1,-1,-1],"loss_changes":[4.714564E0,1.5276675E0,7.0949006E-1,0E0,0E0,7.7840835E-1,2.623402E-1,6.914497E-1,0E0,0E0,0E0,0E0,0E0],"parents":[2147483647,0,0,1,1,2,2,5,5,6,6,7,7],"right_children":[2,4,6,-1,-1,8,10,12,-1,-1,-1,-1,-1],"split_conditions":[-3.6487162E-1,5.857867E-1,-5.1536072E-2,-1.316779E-2,-1.12097E-3,-2.0833333E-1,7.6937824E-2,-2.9549292E-1,2.3501501E-3,2.515018E-3,7.737756E-3,1.163008E-3,-9.337757E-3],"split_indices":[15,3,15,0,0,12,3,15,0,0,0,0,0],"split_type":[0,0,0,0,0,0,0,0,0,0,0,0,0],"sum_hessian":[1.1E2,3E1,8E1,1.6E1,1.4E1,2.3E1,5.7E1,9E0,1.4E1,4.7E1,1E1,3E0,6E0],"tree_param":{"num_deleted":"0","num_feature":"16","num_nodes":"13","size_leaf_vector":"1"}},{"base_weights":[4.125969E-2,1.2406205E-1,-5.4023325E-2,5.309611E-3,4.969003E-2,-1.7097962E-1,1.2857149E-3,-6.047221E-3,9.6013285E-2,6.2714405E-2,-4.2322257E-1,-2.7892226E-4,3.5508082E-3,-1.0605119E-3,5.654774E-3,-0E0,-1.1987904E-2],"categories":[],"categories_nodes":[],"categories_segments":[],"categories_sizes":[],"default_left":[0,0,0,0,0,0,0,0,0,0,0,0,0,0,0,0,0],"id":31,"left_children":[1,3,5,-1,7,9,-1,-1,11,13,15,-1,-1,-1,-1,-1,-1],"loss_changes":[9.390599E-1,2.7534676E-1,7.260933E-1,0E0,5.8347136E-1,1.8581618E0,0E0,0E0,2.527053E-1,3.9067814E-1,2.7699518E-1,0E0,0E0,0E0,0E0,0E0,0E0],"parents":[2147483647,0,0,1,1,2,2,4,4,5,5,8,8,9,9,10,10],"right_children":[2,4,6,-1,8,10,-1,-1,12,14,16,-1,-1,-1,-1,-1,-1],"split_conditions":[1.582898E-1,-1.5686275E-1,-8.3333336E-2,5.309611E-3,-1.6666667E-1,-5.24144E-1,1.2857149E-3,-6.047221E-3,6.0452618E-2,-5.7932585E-1,-3.6663437E-1,-2.7892226E-4,3.5508082E-3,-1.0605119E-3,5.654774E-3,-0E0,-1.1987904E-2],"split_indices":[3,9,12,0,2,8,0,0,11,1,11,0,0,0,0,0,0],"split_type":[0,0,0,0,0,0,0,0,0,0,0,0,0,0,0,0,0],"sum_hessian":[1.09E2,6E1,4.9E1,2.2E1,3.8E1,2.4E1,2.5E1,2E0,3.6E1,1.3E1,1.1E1,9E0,2.7E1,8E0,5E0,2E0,9E0],"tree_param":{"num_deleted":"0","num_feature":"16","num_nodes":"17","size_leaf_vector":"1"}},{"base_weights":[5.4466296E-3,-1.6403721E-1,1.5007529E-1,-2.860417E-1,-0E0,4.62546E-3,-0E0,-1.8191459E-2,-3.68892E-1,-3.9656614E-3,2.4031054E-3,-1.1528151E-2,-0E0],"categories":[],"categories_nodes":[],"categories_segments":[],"categories_sizes":[],"default_left":[0,0,0,0,0,0,0,0,0,0,0,0,0],"id":32,"left_children":[1,3,5,7,-1,-1,-1,9,11,-1,-1,-1,-1],"loss_changes":[2.960764E0,1.1926484E0,2.9941761E-1,5.42902E-1,0E0,0E0,0E0,2.7904236E-1,7.358773E-1,0E0,0E0,0E0,0E0],"parents":[2147483647,0,0,1,1,2,2,3,3,7,7,8,8],"right_children":[2,4,6,8,-1,-1,-1,10,12,-1,-1,-1,-1],"split_conditions":[-5.1536072E-2,-8.3333336E-2,1.3202615E0,-3.7043998E-1,-0E0,4.62546E-3,-0E0,-2.2222222E-1,3.6993206E-1,-3.9656614E-3,2.4031054E-3,-1.1528151E-2,-0E0],"split_indices":[15,12,9,11,0,0,0,9,11,0,0,0,0],"split_type":[0,0,0,0,0,0,0,0,0,0,0,0,0],"sum_hessian":[1.14E2,5.1E1,6.3E1,2.9E1,2.2E1,4.9E1,1.4E1,9E0,2E1,5E0,4E0,1.5E1,5E0],"tree_param":{"num_deleted":"0","num_feature":"16","num_nodes":"13","size_leaf_vector":"1"}},{"base_weights":[-2.0733517E-2,-3.297099E-1,9.817298E-2,-1.2892524E-2,-1.8658883E-4,-3.1109307E-2,1.5294339E-1,3.0277555E-3,-1.6282815E-1,1.3065421E-3,2.253329E-1,-8.1646545E-3,4.7034863E-4,8.648347E-3,1.6638906E-3],"categories":[],"categories_nodes":[],"categories_segments":[],"categories_sizes":[],"default_left":[0,0,0,0,0,0,0,0,0,0,0,0,0,0,0],"id":33,"left_children":[1,3,5,-1,-1,7,9,-1,11,-1,13,-1,-1,-1,-1],"loss_changes":[4.0084224E0,1.605278E0,6.0707104E-1,0E0,0E0,5.5688685E-1,2.59534E-1,0E0,6.056672E-1,0E0,3.1930745E-1,0E0,0E0,0E0,0E0],"parents":[2147483647,0,0,1,1,2,2,5,5,6,6,8,8,10,10],"right_children":[2,4,6,-1,-1,8,10,-1,12,-1,14,-1,-1,-1,-1],"split_conditions":[-3.6487162E-1,7.334351E-1,-5.1536072E-2,-1.2892524E-2,-1.8658883E-4,-2.9549292E-1,-5.671341E-1,3.0277555E-3,-1.6666667E-1,1.3065421E-3,2.6819456E-2,-8.1646545E-3,4.7034863E-4,8.648347E-3,1.6638906E-3],"split_indices":[15,3,15,0,0,15,3,0,12,0,0,0,0,0,0],"split_type":[0,0,0,0,0,0,0,0,0,0,0,0,0,0,0],"sum_hessian":[1E2,2.7E1,7.3E1,1.5E1,1.2E1,2E1,5.3E1,8E0,1.2E1,2.7E1,2.6E1,6E0,6E0,1.1E1,1.5E1],"tree_param":{"num_deleted":"0","num_feature":"16","num_nodes":"15","size_leaf_vector":"1"}},{"base_weights":[-0E0,-2.7022374E-1,1.20075084E-1,-0E0,-4.9191713E-1,7.551983E-3,6.6129476E-2,-1.4333235E-2,-0E0,-6.1507113E-2,3.0319977E-3,2.6458981E-3,-1.8388532E-1,-7.8105847E-3,-0E0],"categories":[],"categories_nodes":[],"categories_segments":[],"categories_sizes":[],"default_left":[0,0,0,0,0,0,0,0,0,0,0,0,0,0,0],"id":34,"left_children":[1,3,5,-1,7,-1,9,-1,-1,11,-1,-1,13,-1,-1],"loss_changes":[3.8114946E0,2.295379E0,5.633565E-1,0E0,7.917247E-1,0E0,5.251645E-1,0E0,0E0,5.19158E-1,0E0,0E0,3.393709E-1,0E0,0E0],"parents":[2147483647,0,0,1,1,2,2,4,4,6,6,9,9,12,12],"right_children":[2,4,6,-1,8,-1,10,-1,-1,12,-1,-1,14,-1,-1],"split_conditions":[-3.6487162E-1,-6.1133295E-1,-5.8731514E-1,-0E0,7.334351E-1,7.551983E-3,-2.9773133E-2,-1.4333235E-2,-0E0,-3.001572E-1,3.0319977E-3,2.6458981E-3,-2.0833333E-1,-7.8105847E-3,-0E0],"split_indices":[15,15,14,0,3,0,15,0,0,15,0,0,12,0,0],"split_type":[0,0,0,0,0,0,0,0,0,0,0,0,0,0,0],"sum_hessian":[1.09E2,3.3E1,7.6E1,1.6E1,1.7E1,1.2E1,6.4E1,1.4E1,3E0,1.7E1,4.7E1,6E0,1.1E1,5E0,6E0],"tree_param":{"num_deleted":"0","num_feature":"16","num_nodes":"15","size_leaf_vector":"1"}},{"base_weights":[-9.965527E-3,-1.612476E-1,8.158854E-2,2.4967846E-2,-3.5595545E-1,-3.3662778E-3,9.957141E-2,-8.3080575E-2,7.2757886E-3,-4.6991974E-1,-0E0,-0E0,3.4751208E-3,-6.456192E-3,2.445531E-3,-6.584239E-5,-1.3349026E-2],"categories":[],"categories_nodes":[],"categories_segments":[],"categories_sizes":[],"default_left":[0,0,0,0,0,0,0,0,0,0,0,0,0,0,0,0,0],"id":35,"left_children":[1,3,5,7,9,-1,11,13,-1,15,-1,-1,-1,-1,-1,-1,-1],"loss_changes":[1.7191924E0,1.8857378E0,3.2259542E-1,9.296229E-1,9.8099947E-1,0E0,3.149467E-1,8.0219305E-1,0E0,3.3406353E-1,0E0,0E0,0E0,0E0,0E0,0E0,0E0],"parents":[2147483647,0,0,1,1,2,2,3,3,4,4,6,6,7,7,9,9],"right_children":[2,4,6,8,10,-1,12,14,-1,16,-1,-1,-1,-1,-1,-1,-1],"split_conditions":[-8.3333336E-2,-2.9213482E-1,-1.8055555E-1,-4.801141E-1,3.6993206E-1,-3.3662778E-3,2.0439394E-2,8.262131E-2,7.2757886E-3,-3.6654904E-1,-0E0,-0E0,3.4751208E-3,-6.456192E-3,2.445531E-3,-6.584239E-5,-1.3349026E-2],"split_indices":[12,7,2,1,11,0,8,14,0,1,0,0,0,0,0,0,0],"split_type":[0,0,0,0,0,0,0,0,0,0,0,0,0,0,0,0,0],"sum_hessian":[1.15E2,4.4E1,7.1E1,2.3E1,2.1E1,2E0,6.9E1,1.7E1,6E0,1.5E1,6E0,1.9E1,5E1,9E0,8E0,3E0,1.2E1],"tree_param":{"num_deleted":"0","num_feature":"16","num_nodes":"17","size_leaf_vector":"1"}},{"base_weights":[8.466982E-3,-8.18252E-2,7.780328E-2,8.121009E-2,-2.843834E-1,2.955847E-3,-1.2612959E-3,-7.130033E-2,9.078574E-3,-0E0,-1.1251025E-2,-5.9977877E-3,2.4722547E-3],"categories":[],"categories_nodes":[],"categories_segments":[],"categories_sizes":[],"default_left":[0,0,0,0,0,0,0,0,0,0,0,0,0],"id":36,"left_children":[1,3,5,7,9,-1,-1,11,-1,-1,-1,-1,-1],"loss_changes":[7.3124284E-1,1.7637715E0,4.0319264E-1,1.4327943E0,1.036248E0,0E0,0E0,7.277142E-1,0E0,0E0,0E0,0E0,0E0],"parents":[2147483647,0,0,1,1,2,2,3,3,4,4,7,7],"right_children":[2,4,6,8,10,-1,-1,12,-1,-1,-1,-1,-1],"split_conditions":[-8.3333336E-2,-2.9213482E-1,4.7810665E-1,-4.801141E-1,-1.728699E-1,2.955847E-3,-1.2612959E-3,4.9755245E-2,9.078574E-3,-0E0,-1.1251025E-2,-5.9977877E-3,2.4722547E-3],"split_indices":[12,7,14,1,1,0,0,14,0,0,0,0,0],"split_type":[0,0,0,0,0,0,0,0,0,0,0,0,0],"sum_hessian":[1.1E2,4.5E1,6.5E1,2.5E1,2E1,5.2E1,1.3E1,1.7E1,8E0,9E0,1.1E1,9E0,8E0],"tree_param":{"num_deleted":"0","num_feature":"16","num_nodes":"13","size_leaf_vector":"1"}},{"base_weights":[-2.9050524E-4,-1.5218148E-1,1.3792597E-1,-7.479491E-3,-0E0,4.20177E-3,-0E0],"categories":[],"categories_nodes":[],"categories_segments":[],"categories_sizes":[],"default_left":[0,0,0,0,0,0,0],"id":37,"left_children":[1,3,5,-1,-1,-1,-1],"loss_changes":[2.566936E0,1.441544E0,2.6578784E-1,0E0,0E0,0E0,0E0],"parents":[2147483647,0,0,1,1,2,2],"right_children":[2,4,6,-1,-1,-1,-1],"split_conditions":[-5.1536072E-2,-8.3333336E-2,1.3202615E0,-7.479491E-3,-0E0,4.20177E-3,-0E0],"split_indices":[15,12,9,0,0,0,0],"split_type":[0,0,0,0,0,0,0],"sum_hessian":[1.15E2,5.6E1,5.9E1,2.8E1,2.8E1,4.8E1,1.1E1],"tree_param":{"num_deleted":"0","num_feature":"16","num_nodes":"7","size_leaf_vector":"1"}},{"base_weights":[-1.9611103E-2,-1.8165563E-1,1.1069674E-1,-3.1294367E-1,-0E0,1.9139123E-1,8.6752075E-4,-7.3789895E-2,-1.1324642E-2,4.485801E-4,7.5754276E-3,-4.658768E-3,2.3728358E-3],"categories":[],"categories_nodes":[],"categories_segments":[],"categories_sizes":[],"default_left":[0,0,0,0,0,0,0,0,0,0,0,0,0],"id":38,"left_children":[1,3,5,7,-1,9,-1,11,-1,-1,-1,-1,-1],"loss_changes":[2.4109302E0,1.2875426E0,2.634639E-1,6.937926E-1,0E0,3.6566007E-1,0E0,4.1180494E-1,0E0,0E0,0E0,0E0,0E0],"parents":[2147483647,0,0,1,1,2,2,3,3,5,5,7,7],"right_children":[2,4,6,8,-1,10,-1,12,-1,-1,-1,-1,-1],"split_conditions":[-2.9773133E-2,-8.3333336E-2,-5.5401247E-2,-3.7043998E-1,-0E0,-3.654827E-1,8.6752075E-4,-2.2222222E-1,-1.1324642E-2,4.485801E-4,7.5754276E-3,-4.658768E-3,2.3728358E-3],"split_indices":[15,12,1,11,0,3,0,9,0,0,0,0,0],"split_type":[0,0,0,0,0,0,0,0,0,0,0,0,0],"sum_hessian":[1.06E2,4.8E1,5.8E1,2.7E1,2.1E1,2.3E1,3.5E1,1.3E1,1.4E1,1.2E1,1.1E1,9E0,4E0],"tree_param":{"num_deleted":"0","num_feature":"16","num_nodes":"13","size_leaf_vector":"1"}},{"base_weights":[-2.5712693E-2,-1.6069849E-1,1.8791892E-3,-2.566322E-1,2.2017197E-3,4.6672444E-3,-3.2376966E-1,-3.7951672E-1,-0E0,-1.0886829E-2,-2.079251E-4],"categories":[],"categories_nodes":[],"categories_segments":[],"categories_sizes":[],"default_left":[0,0,0,0,0,0,0,0,0,0,0],"id":39,"left_children":[1,3,-1,5,-1,-1,7,9,-1,-1,-1],"loss_changes":[1.5948304E0,1.3517208E0,0E0,1.412283E0,0E0,0E0,6.716535E-1,4.433236E-1,0E0,0E0,0E0],"parents":[2147483647,0,0,1,1,3,3,6,6,7,7],"right_children":[2,4,-1,6,-1,-1,8,10,-1,-1,-1],"split_conditions":[-8.3333336E-2,1.6647757E0,1.8791892E-3,-5.675514E-1,2.2017197E-3,4.6672444E-3,3.6993206E-1,5.0170225E-1,-0E0,-1.0886829E-2,-2.079251E-4],"split_indices":[12,14,0,14,0,0,11,13,0,0,0],"split_type":[0,0,0,0,0,0,0,0,0,0,0],"sum_hessian":[1.08E2,4.7E1,6.1E1,3.5E1,1.2E1,3E0,3.2E1,2.7E1,5E0,2.2E1,5E0],"tree_param":{"num_deleted":"0","num_feature":"16","num_nodes":"11","size_leaf_vector":"1"}},{"base_weights":[-1.5192527E-2,-1.2051362E-1,4.8153397E-2,3.6065433E-2,-3.0281687E-1,7.3674135E-2,-2.2858453E-3,-7.652753E-2,7.049081E-3,-0E0,-3.3657852E-1,-3.360452E-3,2.340554E-3,-3.1728423E-1,3.3599082E-3,-0E0,-9.294099E-3,-0E0,-9.642762E-3],"categories":[],"categories_nodes":[],"categories_segments":[],"categories_sizes":[],"default_left":[0,0,0,0,0,0,0,0,0,0,0,0,0,0,0,0,0,0,0],"id":40,"left_children":[1,3,5,7,9,11,-1,13,-1,-1,15,-1,-1,17,-1,-1,-1,-1,-1],"loss_changes":[8.331753E-1,1.5008061E0,2.7830726E-1,9.1907203E-1,2.8072572E-1,3.0377084E-1,0E0,1.2634189E0,0E0,0E0,2.594347E-1,0E0,0E0,2.5564265E-1,0E0,0E0,0E0,0E0,0E0],"parents":[2147483647,0,0,1,1,2,2,3,3,4,4,5,5,7,7,10,10,13,13],"right_children":[2,4,6,8,10,12,-1,14,-1,-1,16,-1,-1,18,-1,-1,-1,-1,-1],"split_conditions":[-8.3333336E-2,-2.9213482E-1,3.2090082E0,-3.398693E-1,-3.398693E-1,-1.8055555E-1,-2.2858453E-3,8.262131E-2,7.049081E-3,-0E0,-1.2769644E-1,-3.360452E-3,2.340554E-3,-5.596348E-1,3.3599082E-3,-0E0,-9.294099E-3,-0E0,-9.642762E-3],"split_indices":[12,7,1,9,9,2,0,14,0,0,3,0,0,14,0,0,0,0,0],"split_type":[0,0,0,0,0,0,0,0,0,0,0,0,0,0,0,0,0,0,0],"sum_hessian":[1.14E2,4.4E1,7E1,2.4E1,2E1,6.3E1,7E0,1.7E1,7E0,2E0,1.8E1,2E0,6.1E1,8E0,9E0,2E0,1.6E1,2E0,6E0],"tree_param":{"num_deleted":"0","num_feature":"16","num_nodes":"19","size_leaf_vector":"1"}},{"base_weights":[1.5080594E-2,-2.3626488E-1,1.1883552E-1,-1.0640244E-2,-6.003811E-4,6.6859233E-3,5.8521926E-2,-5.004607E-3,1.07456185E-1,-1.3400863E-3,3.5030853E-3],"categories":[],"categories_nodes":[],"categories_segments":[],"categories_sizes":[],"default_left":[0,0,0,0,0,0,0,0,0,0,0],"id":41,"left_children":[1,3,5,-1,-1,-1,7,-1,9,-1,-1],"loss_changes":[3.0372655E0,1.1306869E0,5.7218516E-1,0E0,0E0,0E0,8.800606E-1,0E0,3.739485E-1,0E0,0E0],"parents":[2147483647,0,0,1,1,2,2,6,6,8,8],"right_children":[2,4,6,-1,-1,-1,8,-1,10,-1,-1],"split_conditions":[-3.6487162E-1,-1.5277778E-1,-3.6663437E-1,-1.0640244E-2,-6.003811E-4,6.6859233E-3,-1.6666667E-1,-5.004607E-3,-3.2074902E-2,-1.3400863E-3,3.5030853E-3],"split_indices":[15,2,11,0,0,0,12,0,8,0,0],"split_type":[0,0,0,0,0,0,0,0,0,0,0],"sum_hessian":[1.11E2,3E1,8.1E1,1.3E1,1.7E1,1.8E1,6.3E1,7E0,5.6E1,7E0,4.9E1],"tree_param":{"num_deleted":"0","num_feature":"16","num_nodes":"11","size_leaf_vector":"1"}},{"base_weights":[5.5895075E-3,-2.0249969E-1,1.04539864E-1,-9.546423E-3,-0E0,5.3236657E-3,5.5950794E-2,-1.5871625E-1,1.16187245E-1,6.636066E-4,-7.215135E-3,-1.0024592E-3,3.6153116E-3],"categories":[],"categories_nodes":[],"categories_segments":[],"categories_sizes":[],"default_left":[0,0,0,0,0,0,0,0,0,0,0,0,0],"id":42,"left_children":[1,3,5,-1,-1,-1,7,9,11,-1,-1,-1,-1],"loss_changes":[2.3101587E0,1.3876696E0,2.6422977E-1,0E0,0E0,0E0,8.427742E-1,4.5649227E-1,2.9088742E-1,0E0,0E0,0E0,0E0],"parents":[2147483647,0,0,1,1,2,2,6,6,7,7,8,8],"right_children":[2,4,6,-1,-1,-1,8,10,12,-1,-1,-1,-1],"split_conditions":[-3.6487162E-1,5.857867E-1,-4.0476325E-1,-9.546423E-3,-0E0,5.3236657E-3,-1.25E-1,8.4469244E-2,1.1642884E-2,6.636066E-4,-7.215135E-3,-1.0024592E-3,3.6153116E-3],"split_indices":[15,3,8,0,0,0,12,3,8,0,0,0,0],"split_type":[0,0,0,0,0,0,0,0,0,0,0,0,0],"sum_hessian":[1.07E2,3.2E1,7.5E1,1.6E1,1.6E1,1.7E1,5.8E1,1E1,4.8E1,4E0,6E0,5E0,4.3E1],"tree_param":{"num_deleted":"0","num_feature":"16","num_nodes":"13","size_leaf_vector":"1"}},{"base_weights":[2.6951762E-4,-1.7183469E-1,8.756843E-2,-8.511129E-3,-0E0,5.9664636E-3,4.464552E-2,-3.883881E-2,2.1457614E-3,9.4263133E-4,-5.462268E-3],"categories":[],"categories_nodes":[],"categories_segments":[],"categories_sizes":[],"default_left":[0,0,0,0,0,0,0,0,0,0,0],"id":43,"left_children":[1,3,5,-1,-1,-1,7,9,-1,-1,-1],"loss_changes":[1.7092165E0,1.152838E0,3.5847604E-1,0E0,0E0,0E0,2.6254904E-1,3.9680076E-1,0E0,0E0,0E0],"parents":[2147483647,0,0,1,1,2,2,6,6,7,7],"right_children":[2,4,6,-1,-1,-1,8,10,-1,-1,-1],"split_conditions":[-3.6487162E-1,5.857867E-1,-6.0012263E-1,-8.511129E-3,-0E0,5.9664636E-3,-2.0833333E-1,-3.5815164E-1,2.1457614E-3,9.4263133E-4,-5.462268E-3],"split_indices":[15,3,14,0,0,0,12,8,0,0,0],"split_type":[0,0,0,0,0,0,0,0,0,0,0],"sum_hessian":[1.09E2,3.4E1,7.5E1,1.6E1,1.8E1,1.1E1,6.4E1,1.8E1,4.6E1,1.3E1,5E0],"tree_param":{"num_deleted":"0","num_feature":"16","num_nodes":"11","size_leaf_vector":"1"}},{"base_weights":[-1.0255913E-2,1.618602E-3,-8.879482E-2,1.7061902E-2,-2.3253986E-1,-8.574287E-2,2.5931029E-3,-6.939297E-3,1.2874412E-3,1.1149234E-3,-4.2984686E-3],"categories":[],"categories_nodes":[],"categories_segments":[],"categories_sizes":[],"default_left":[0,0,0,0,0,0,0,0,0,0,0],"id":44,"left_children":[1,-1,3,5,7,9,-1,-1,-1,-1,-1],"loss_changes":[7.100848E-1,0E0,1.0206685E0,3.6350918E-1,4.9220657E-1,2.6314798E-1,0E0,0E0,0E0,0E0,0E0],"parents":[2147483647,0,0,2,2,3,3,4,4,5,5],"right_children":[2,-1,4,6,8,10,-1,-1,-1,-1,-1],"split_conditions":[2.824997E-3,1.618602E-3,-1.0061036E-1,-1.5686275E-1,1.6647757E0,-6.0012263E-1,2.5931029E-3,-6.939297E-3,1.2874412E-3,1.1149234E-3,-4.2984686E-3],"split_indices":[3,0,14,9,14,14,0,0,0,0,0],"split_type":[0,0,0,0,0,0,0,0,0,0,0],"sum_hessian":[1.12E2,5.5E1,5.7E1,3.3E1,2.4E1,1.3E1,2E1,2.2E1,2E0,4E0,9E0],"tree_param":{"num_deleted":"0","num_feature":"16","num_nodes":"11","size_leaf_vector":"1"}},{"base_weights":[6.6991565E-3,7.550728E-2,-7.43626E-2,3.434175E-3,-4.9143843E-4,1.0566327E-1,-1.3344489E-1,6.204534E-3,-8.3260983E-4,-3.906937E-3,1.2757371E-3],"categories":[],"categories_nodes":[],"categories_segments":[],"categories_sizes":[],"default_left":[0,0,0,0,0,0,0,0,0,0,0],"id":45,"left_children":[1,3,5,-1,-1,7,9,-1,-1,-1,-1],"loss_changes":[6.810685E-1,4.597853E-1,6.295078E-1,0E0,0E0,3.8225305E-1,2.532339E-1,0E0,0E0,0E0,0E0],"parents":[2147483647,0,0,1,1,2,2,5,5,6,6],"right_children":[2,4,6,-1,-1,8,10,-1,-1,-1,-1],"split_conditions":[1.582898E-1,5.033229E-1,-7.228419E-1,3.434175E-3,-4.9143843E-4,1.0675312E0,1.6647757E0,6.204534E-3,-8.3260983E-4,-3.906937E-3,1.2757371E-3],"split_indices":[3,14,14,0,0,3,14,0,0,0,0],"split_type":[0,0,0,0,0,0,0,0,0,0,0],"sum_hessian":[1.15E2,6.5E1,5E1,4.1E1,2.4E1,1E1,4E1,5E0,5E0,3.8E1,2E0],"tree_param":{"num_deleted":"0","num_feature":"16","num_nodes":"11","size_leaf_vector":"1"}},{"base_weights":[5.440315E-3,8.3272256E-2,-9.342288E-2,3.7584677E-3,-6.3442303E-7,3.2090615E-3,-1.891638E-1,-6.3324034E-2,3.4565255E-3,-3.0813998E-1,-2.3356653E-4,-1.5224881E-1,1.8239612E-3,-9.722865E-3,-0E0,-5.8772224E-3,5.028649E-5],"categories":[],"categories_nodes":[],"categories_segments":[],"categories_sizes":[],"default_left":[0,0,0,0,0,0,0,0,0,0,0,0,0,0,0,0,0],"id":46,"left_children":[1,3,5,-1,-1,7,9,11,-1,13,-1,15,-1,-1,-1,-1,-1],"loss_changes":[8.811288E-1,4.3163937E-1,5.252106E-1,0E0,0E0,2.897465E-1,4.2988348E-1,2.8267416E-1,0E0,5.139036E-1,0E0,2.6740167E-1,0E0,0E0,0E0,0E0,0E0],"parents":[2147483647,0,0,1,1,2,2,5,5,6,6,7,7,9,9,11,11],"right_children":[2,4,6,-1,-1,8,10,12,-1,14,-1,16,-1,-1,-1,-1,-1],"split_conditions":[1.4304903E-1,4.7810665E-1,-3.019146E-1,3.7584677E-3,-6.3442303E-7,-2.2222222E-1,-1.25E-1,8.262131E-2,3.4565255E-3,3.6993206E-1,-2.3356653E-4,-4.801141E-1,1.8239612E-3,-9.722865E-3,-0E0,-5.8772224E-3,5.028649E-5],"split_indices":[3,14,11,0,0,9,12,14,0,11,0,1,0,0,0,0,0],"split_type":[0,0,0,0,0,0,0,0,0,0,0,0,0,0,0,0,0],"sum_hessian":[1.08E2,6.3E1,4.5E1,3.6E1,2.7E1,2.2E1,2.3E1,1.4E1,8E0,1.1E1,1.2E1,1E1,4E0,9E0,2E0,7E0,3E0],"tree_param":{"num_deleted":"0","num_feature":"16","num_nodes":"17","size_leaf_vector":"1"}},{"base_weights":[5.8378984E-4,-2.1758954E-1,9.8106064E-2,-9.957512E-3,-0E0,5.0013587E-3,4.62484E-2,-1.262457E-1,9.943859E-2,-2.2566496E-1,4.6306482E-4,-6.7509693E-4,3.351513E-3,-0E0,-7.619376E-3],"categories":[],"categories_nodes":[],"categories_segments":[],"categories_sizes":[],"default_left":[0,0,0,0,0,0,0,0,0,0,0,0,0,0,0],"id":47,"left_children":[1,3,5,-1,-1,-1,7,9,11,13,-1,-1,-1,-1,-1],"loss_changes":[2.4843864E0,1.2541454E0,3.1054395E-1,0E0,0E0,0E0,6.0665226E-1,3.0618155E-1,2.8094375E-1,2.5483733E-1,0E0,0E0,0E0,0E0,0E0],"parents":[2147483647,0,0,1,1,2,2,6,6,7,7,8,8,9,9],"right_children":[2,4,6,-1,-1,-1,8,10,12,14,-1,-1,-1,-1,-1],"split_conditions":[-3.6487162E-1,5.317605E-1,-3.570108E-1,-9.957512E-3,-0E0,5.0013587E-3,-8.3333336E-2,3.2607946E-1,1.1642884E-2,2.824997E-3,4.6306482E-4,-6.7509693E-4,3.351513E-3,-0E0,-7.619376E-3],"split_indices":[15,3,11,0,0,0,12,11,8,3,0,0,0,0,0],"split_type":[0,0,0,0,0,0,0,0,0,0,0,0,0,0,0],"sum_hessian":[1.12E2,3.2E1,8E1,1.5E1,1.7E1,2.1E1,5.9E1,1.1E1,4.8E1,7E0,4E0,8E0,4E1,2E0,5E0],"tree_param":{"num_deleted":"0","num_feature":"16","num_nodes":"15","size_leaf_vector":"1"}},{"base_weights":[-0E0,-1.9821174E-1,8.9065045E-2,-8.8108E-3,-0E0,5.7299845E-3,1.697776E-2,-2.4223328E-3,2.5685667E-3],"categories":[],"categories_nodes":[],"categories_segments":[],"categories_sizes":[],"default_left":[0,0,0,0,0,0,0,0,0],"id":48,"left_children":[1,3,5,-1,-1,-1,7,-1,-1],"loss_changes":[2.0567157E0,9.880538E-1,6.80909E-1,0E0,0E0,0E0,5.987357E-1,0E0,0E0],"parents":[2147483647,0,0,1,1,2,2,6,6],"right_children":[2,4,6,-1,-1,-1,8,-1,-1],"split_conditions":[-3.6487162E-1,5.857867E-1,-1.4765146E-1,-8.8108E-3,-0E0,5.7299845E-3,3.2607946E-1,-2.4223328E-3,2.5685667E-3],"split_indices":[15,3,11,0,0,0,11,0,0],"split_type":[0,0,0,0,0,0,0,0,0],"sum_hessian":[1.08E2,3.3E1,7.5E1,1.6E1,1.7E1,2.1E1,5.4E1,2.1E1,3.3E1],"tree_param":{"num_deleted":"0","num_feature":"16","num_nodes":"9","size_leaf_vector":"1"}},{"base_weights":[-2.5268199E-2,1.5364693E-1,-6.1316118E-2,8.137292E-3,-0E0,-1.8041117E-1,5.3538015E-4,-2.7926588E-1,1.6848363E-3,-8.160419E-3,4.0770165E-4],"categories":[],"categories_nodes":[],"categories_segments":[],"categories_sizes":[],"default_left":[0,0,0,0,0,0,0,0,0,0,0],"id":49,"left_children":[1,3,5,-1,-1,7,-1,9,-1,-1,-1],"loss_changes":[7.022636E-1,3.81457E-1,1.0180719E0,0E0,0E0,1.1672324E0,0E0,5.8167696E-1,0E0,0E0,0E0],"parents":[2147483647,0,0,1,1,2,2,5,5,7,7],"right_children":[2,4,6,-1,-1,8,-1,10,-1,-1,-1],"split_conditions":[-7.196378E-1,-2.460476E-1,-1.25E-1,8.137292E-3,-0E0,1.3763736E0,5.3538015E-4,1E0,1.6848363E-3,-8.160419E-3,4.0770165E-4],"split_indices":[14,1,12,0,0,14,0,4,0,0,0],"split_type":[0,0,0,0,0,0,0,0,0,0,0],"sum_hessian":[1.06E2,1.4E1,9.2E1,4E0,1E1,3.8E1,5.4E1,2.8E1,1E1,2.5E1,3E0],"tree_param":{"num_deleted":"0","num_feature":"16","num_nodes":"11","size_leaf_vector":"1"}},{"base_weights":[-3.4930932E-3,-1.2826228E-1,1.1678028E-1,-2.403304E-1,2.2788851E-4,4.2784573E-3,-0E0,-5.265427E-2,-3.266327E-1,-3.9119306E-3,1.5608608E-3,-1.0243079E-2,-0E0],"categories":[],"categories_nodes":[],"categories_segments":[],"categories_sizes":[],"default_left":[0,0,0,0,0,0,0,0,0,0,0,0,0],"id":50,"left_children":[1,3,5,7,-1,-1,-1,9,11,-1,-1,-1,-1],"loss_changes":[1.7752516E0,1.0161961E0,3.8837504E-1,3.4688258E-1,0E0,0E0,0E0,2.6896665E-1,6.4396644E-1,0E0,0E0,0E0,0E0],"parents":[2147483647,0,0,1,1,2,2,3,3,7,7,8,8],"right_children":[2,4,6,8,-1,-1,-1,10,12,-1,-1,-1,-1],"split_conditions":[-5.1536072E-2,-8.3333336E-2,5.751634E-1,-3.6663437E-1,2.2788851E-4,4.2784573E-3,-0E0,-2.7450982E-1,3.6993206E-1,-3.9119306E-3,1.5608608E-3,-1.0243079E-2,-0E0],"split_indices":[15,12,9,11,0,0,0,9,11,0,0,0,0],"split_type":[0,0,0,0,0,0,0,0,0,0,0,0,0],"sum_hessian":[1.11E2,5.6E1,5.5E1,3.1E1,2.5E1,3.7E1,1.8E1,1.3E1,1.8E1,8E0,5E0,1.4E1,4E0],"tree_param":{"num_deleted":"0","num_feature":"16","num_nodes":"13","size_leaf_vector":"1"}},{"base_weights":[2.277871E-3,-9.90315E-2,1.0677058E-1,-0E0,-1.555182E-1,1.8536533E-1,4.854621E-4,-1.9789709E-1,4.804997E-6,9.439341E-3,2.0929694E-3,-3.1448394E-1,-4.7184207E-4,-0E0,-9.864788E-3],"categories":[],"categories_nodes":[],"categories_segments":[],"categories_sizes":[],"default_left":[0,0,0,0,0,0,0,0,0,0,0,0,0,0,0],"id":51,"left_children":[1,3,5,-1,7,9,-1,11,-1,-1,-1,13,-1,-1,-1],"loss_changes":[1.2416246E0,3.430555E-1,3.1398052E-1,0E0,3.2667142E-1,2.6166135E-1,0E0,5.033438E-1,0E0,0E0,0E0,5.269325E-1,0E0,0E0,0E0],"parents":[2147483647,0,0,1,1,2,2,4,4,5,5,7,7,11,11],"right_children":[2,4,6,-1,8,10,-1,12,-1,-1,-1,14,-1,-1,-1],"split_conditions":[-5.1536072E-2,-3.019146E-1,-4.0567525E-2,-0E0,8.0340946E-1,-6.0012263E-1,4.854621E-4,4.181019E-1,4.804997E-6,9.439341E-3,2.0929694E-3,-1.3799924E-1,-4.7184207E-4,-0E0,-9.864788E-3],"split_indices":[15,11,1,0,11,14,0,3,0,0,0,3,0,0,0],"split_type":[0,0,0,0,0,0,0,0,0,0,0,0,0,0,0],"sum_hessian":[1.1E2,5.4E1,5.6E1,2E1,3.4E1,2.5E1,3.1E1,2.8E1,6E0,4E0,2.1E1,1.4E1,1.4E1,3E0,1.1E1],"tree_param":{"num_deleted":"0","num_feature":"16","num_nodes":"15","size_leaf_vector":"1"}},{"base_weights":[-0E0,-7.8249976E-2,1.1693818E-1,-1.3217516E-1,6.79634E-2,5.016459E-4,2.486106E-1,-2.2825885E-1,-3.0744373E-5,4.384944E-3,-2.0898443E-3,8.4796995E-3,-0E0,-6.8305694E-3,2.3770552E-4],"categories":[],"categories_nodes":[],"categories_segments":[],"categories_sizes":[],"default_left":[0,0,0,0,0,0,0,0,0,0,0,0,0,0,0],"id":52,"left_children":[1,3,5,7,9,-1,11,13,-1,-1,-1,-1,-1,-1,-1],"loss_changes":[1.0765215E0,5.8933485E-1,4.9370712E-1,5.6776226E-1,3.892645E-1,0E0,2.9467225E-1,4.1927004E-1,0E0,0E0,0E0,0E0,0E0,0E0,0E0],"parents":[2147483647,0,0,1,1,2,2,3,3,4,4,6,6,7,7],"right_children":[2,4,6,8,10,-1,12,14,-1,-1,-1,-1,-1,-1,-1],"split_conditions":[1.0714452E-1,7.4215037E-1,-3.709894E-1,-1.25E-1,5.2650267E-1,5.016459E-4,2.5E-1,1.1536585E0,-3.0744373E-5,4.384944E-3,-2.0898443E-3,8.4796995E-3,-0E0,-6.8305694E-3,2.3770552E-4],"split_indices":[15,13,3,12,11,0,12,11,0,0,0,0,0,0,0],"split_type":[0,0,0,0,0,0,0,0,0,0,0,0,0,0,0],"sum_hessian":[1.09E2,6.4E1,4.5E1,4.9E1,1.5E1,3E1,1.5E1,2.5E1,2.4E1,1E1,5E0,9E0,6E0,2.2E1,3E0],"tree_param":{"num_deleted":"0","num_feature":"16","num_nodes":"15","size_leaf_vector":"1"}},{"base_weights":[-0E0,-1.7199855E-1,8.616962E-2,-3.239043E-1,-8.277497E-5,5.5733733E-3,3.00851E-2,-5.329805E-2,-1.0713009E-2,-2.7558398E-3,1.5485458E-3,-4.931997E-3,3.260225E-3],"categories":[],"categories_nodes":[],"categories_segments":[],"categories_sizes":[],"default_left":[0,0,0,0,0,0,0,0,0,0,0,0,0],"id":53,"left_children":[1,3,5,7,-1,-1,9,11,-1,-1,-1,-1,-1],"loss_changes":[1.7588519E0,8.775326E-1,4.8511565E-1,2.793753E-1,0E0,0E0,2.8396243E-1,3.9452314E-1,0E0,0E0,0E0,0E0,0E0],"parents":[2147483647,0,0,1,1,2,2,3,3,6,6,7,7],"right_children":[2,4,6,8,-1,-1,10,12,-1,-1,-1,-1,-1],"split_conditions":[-3.6487162E-1,-1.5277778E-1,-2.9213482E-1,-3.1460676E-1,-8.277497E-5,5.5733733E-3,-2.0833333E-1,4.9755245E-2,-1.0713009E-2,-2.7558398E-3,1.5485458E-3,-4.931997E-3,3.260225E-3],"split_indices":[15,2,7,7,0,0,12,14,0,0,0,0,0],"split_type":[0,0,0,0,0,0,0,0,0,0,0,0,0],"sum_hessian":[1.12E2,3.6E1,7.6E1,1.6E1,2E1,1.7E1,5.9E1,7E0,9E0,7E0,5.2E1,5E0,2E0],"tree_param":{"num_deleted":"0","num_feature":"16","num_nodes":"13","size_leaf_vector":"1"}},{"base_weights":[-6.171637E-3,-9.599128E-2,1.9635102E-3,-1.4167866E-1,1.1526875E-3,-3.35872E-4,-2.0042856E-1,-2.5064456E-1,2.62647E-4,-9.380336E-3,-1.4936379E-3],"categories":[],"categories_nodes":[],"categories_segments":[],"categories_sizes":[],"default_left":[0,0,0,0,0,0,0,0,0,0,0],"id":54,"left_children":[1,3,-1,5,-1,-1,7,9,-1,-1,-1],"loss_changes":[8.7414056E-1,4.3438894E-1,0E0,2.553755E-1,0E0,0E0,4.1774428E-1,3.5394764E-1,0E0,0E0,0E0],"parents":[2147483647,0,0,1,1,3,3,6,6,7,7],"right_children":[2,4,-1,6,-1,-1,8,10,-1,-1,-1],"split_conditions":[-2.9773133E-2,4.027778E-1,1.9635102E-3,-3.260438E-1,1.1526875E-3,-3.35872E-4,1.1536585E0,-1.25E-1,2.62647E-4,-9.380336E-3,-1.4936379E-3],"split_indices":[15,2,0,11,0,0,11,12,0,0,0],"split_type":[0,0,0,0,0,0,0,0,0,0,0],"sum_hessian":[1.07E2,5.4E1,5.3E1,4.3E1,1.1E1,1.7E1,2.6E1,2.2E1,4E0,1E1,1.2E1],"tree_param":{"num_deleted":"0","num_feature":"16","num_nodes":"11","size_leaf_vector":"1"}},{"base_weights":[1.2780377E-3,-1.3554841E-1,1.02901444E-1,-2.2925752E-1,-2.8057996E-4,2.009608E-1,2.1565272E-2,-6.7411326E-3,2.2822552E-4,-0E0,6.7766993E-3,-2.6970927E-3,1.8530339E-3],"categories":[],"categories_nodes":[],"categories_segments":[],"categories_sizes":[],"default_left":[0,0,0,0,0,0,0,0,0,0,0,0,0],"id":55,"left_children":[1,3,5,7,-1,9,11,-1,-1,-1,-1,-1,-1],"loss_changes":[1.558332E0,4.365461E-1,4.2621034E-1,3.4870553E-1,0E0,3.2222366E-1,3.0362433E-1,0E0,0E0,0E0,0E0,0E0,0E0],"parents":[2147483647,0,0,1,1,2,2,3,3,5,5,6,6],"right_children":[2,4,6,8,-1,10,12,-1,-1,-1,-1,-1,-1],"split_conditions":[-1.8698455E-1,-1.6666667E-1,-7.8612715E-2,1E0,-2.8057996E-4,-4.801141E-1,1.1642884E-2,-6.7411326E-3,2.2822552E-4,-0E0,6.7766993E-3,-2.6970927E-3,1.8530339E-3],"split_indices":[15,12,1,4,0,1,8,0,0,0,0,0,0],"split_type":[0,0,0,0,0,0,0,0,0,0,0,0,0],"sum_hessian":[1.06E2,4.3E1,6.3E1,2.1E1,2.2E1,2.4E1,3.9E1,1.9E1,2E0,8E0,1.6E1,8E0,3.1E1],"tree_param":{"num_deleted":"0","num_feature":"16","num_nodes":"13","size_leaf_vector":"1"}},{"base_weights":[5.8167838E-3,-1.6675459E-1,7.989109E-2,-6.832108E-3,-3.2417316E-5,-0E0,1.1534954E-1,3.2439872E-3,-1.1432294E-1,1.5773356E-1,-0E0,-6.78067E-3,3.8261537E-4,9.0816775E-3,2.3651307E-3],"categories":[],"categories_nodes":[],"categories_segments":[],"categories_sizes":[],"default_left":[0,0,0,0,0,0,0,0,0,0,0,0,0,0,0],"id":56,"left_children":[1,3,5,-1,-1,7,9,-1,11,13,-1,-1,-1,-1,-1],"loss_changes":[1.5011141E0,4.9703074E-1,2.858836E-1,0E0,0E0,4.3918943E-1,2.506798E-1,0E0,4.7283107E-1,2.609787E-1,0E0,0E0,0E0,0E0,0E0],"parents":[2147483647,0,0,1,1,2,2,5,5,6,6,8,8,9,9],"right_children":[2,4,6,-1,-1,8,10,-1,12,14,-1,-1,-1,-1,-1],"split_conditions":[-3.6487162E-1,1.5413257E-1,-5.1536072E-2,-6.832108E-3,-3.2417316E-5,-2.9549292E-1,6.013072E-1,3.2439872E-3,-2.0833333E-1,-6.0012263E-1,-0E0,-6.78067E-3,3.8261537E-4,9.0816775E-3,2.3651307E-3],"split_indices":[15,1,15,0,0,15,9,0,12,14,0,0,0,0,0],"split_type":[0,0,0,0,0,0,0,0,0,0,0,0,0,0,0],"sum_hessian":[1.13E2,3.1E1,8.2E1,1.6E1,1.5E1,2.3E1,5.9E1,9E0,1.4E1,4E1,1.9E1,6E0,8E0,4E0,3.6E1],"tree_param":{"num_deleted":"0","num_feature":"16","num_nodes":"15","size_leaf_vector":"1"}},{"base_weights":[1.7639998E-2,7.104643E-2,-4.0605474E-2,-2.266248E-3,1.0091285E-1,1.6878279E-3,-2.0823814E-1,1.5093534E-1,-4.4739395E-4,-0E0,-7.1555264E-3,6.551565E-3,6.298706E-4,-4.862395E-3,3.384303E-3],"categories":[],"categories_nodes":[],"categories_segments":[],"categories_sizes":[],"default_left":[0,0,0,0,0,0,0,0,0,0,0,0,0,0,0],"id":57,"left_children":[1,3,5,-1,7,-1,9,11,-1,13,-1,-1,-1,-1,-1],"loss_changes":[3.6600387E-1,3.37953E-1,1.0388925E0,0E0,3.9845496E-1,0E0,2.9412824E-1,4.558488E-1,0E0,3.8332808E-1,0E0,0E0,0E0,0E0,0E0],"parents":[2147483647,0,0,1,1,2,2,4,4,6,6,7,7,9,9],"right_children":[2,4,6,-1,8,-1,10,12,-1,14,-1,-1,-1,-1,-1],"split_conditions":[1.8817017E-2,-4.635688E-1,-1.2769644E-1,-2.266248E-3,7.2543705E-1,1.6878279E-3,-2.9213482E-1,-1.5094963E-1,-4.4739395E-4,8.262131E-2,-7.1555264E-3,6.551565E-3,6.298706E-4,-4.862395E-3,3.384303E-3],"split_indices":[14,1,3,0,3,0,7,1,0,14,0,0,0,0,0],"split_type":[0,0,0,0,0,0,0,0,0,0,0,0,0,0,0],"sum_hessian":[1.07E2,5.9E1,4.8E1,6E0,5.3E1,2.9E1,1.9E1,3.9E1,1.4E1,7E0,1.2E1,1.7E1,2.2E1,3E0,4E0],"tree_param":{"num_deleted":"0","num_feature":"16","num_nodes":"15","size_leaf_vector":"1"}},{"base_weights":[-1.9266047E-2,-1.1948725E-1,2.1900858E-3,-6.7947158E-3,-5.475338E-4],"categories":[],"categories_nodes":[],"categories_segments":[],"categories_sizes":[],"default_left":[0,0,0,0,0],"id":58,"left_children":[1,3,-1,-1,-1],"loss_changes":[1.2757521E0,7.905942E-1,0E0,0E0,0E0],"parents":[2147483647,0,0,1,1],"right_children":[2,4,-1,-1,-1],"split_conditions":[2.4286933E-2,-1.6666667E-1,2.1900858E-3,-6.7947158E-3,-5.475338E-4],"split_indices":[15,2,0,0,0],"split_type":[0,0,0,0,0],"sum_hessian":[1.11E2,5.9E1,5.2E1,1.9E1,4E1],"tree_param":{"num_deleted":"0","num_feature":"16","num_nodes":"5","size_leaf_vector":"1"}},{"base_weights":[1.4994195E-2,-1.9991763E-1,1.12629145E-1,-3.5120225E-1,-0E0,3.766646E-3,-7.633941E-5,-1.02414815E-2,-0E0],"categories":[],"categories_nodes":[],"categories_segments":[],"categories_sizes":[],"default_left":[0,0,0,0,0,0,0,0,0],"id":59,"left_children":[1,3,5,7,-1,-1,-1,-1,-1],"loss_changes":[2.3625035E0,1.0263255E0,4.1047013E-1,3.638525E-1,0E0,0E0,0E0,0E0,0E0],"parents":[2147483647,0,0,1,1,2,2,3,3],"right_children":[2,4,6,8,-1,-1,-1,-1,-1],"split_conditions":[-3.6487162E-1,-1.5277778E-1,7.798514E-1,7.334351E-1,-0E0,3.766646E-3,-7.633941E-5,-1.02414815E-2,-0E0],"split_indices":[15,2,1,3,0,0,0,0,0],"split_type":[0,0,0,0,0,0,0,0,0],"sum_hessian":[1.07E2,3.1E1,7.6E1,1.6E1,1.5E1,5.9E1,1.7E1,1.3E1,3E0],"tree_param":{"num_deleted":"0","num_feature":"16","num_nodes":"9","size_leaf_vector":"1"}},{"base_weights":[-1.6916057E-2,-1.5484199E-1,1.2010706E-3,-2.8801954E-1,-0E0,-0E0,-8.770779E-3],"categories":[],"categories_nodes":[],"categories_segments":[],"categories_sizes":[],"default_left":[0,0,0,0,0,0,0],"id":60,"left_children":[1,3,-1,5,-1,-1,-1],"loss_changes":[1.0677422E0,6.9455004E-1,0E0,2.9015124E-1,0E0,0E0,0E0],"parents":[2147483647,0,0,1,1,3,3],"right_children":[2,4,-1,6,-1,-1,-1],"split_conditions":[-3.9376307E-1,-1.5277778E-1,1.2010706E-3,-5.7932585E-1,-0E0,-0E0,-8.770779E-3],"split_indices":[15,2,0,1,0,0,0],"split_type":[0,0,0,0,0,0,0],"sum_hessian":[1.08E2,3.5E1,7.3E1,1.6E1,1.9E1,4E0,1.2E1],"tree_param":{"num_deleted":"0","num_feature":"16","num_nodes":"7","size_leaf_vector":"1"}},{"base_weights":[-1.2655644E-2,-1.8994941E-1,5.7619188E-2,-2.6972438E-4,-2.996882E-1,2.1258949E-1,4.047187E-4,-0E0,-8.666802E-3,7.731271E-3,-0E0],"categories":[],"categories_nodes":[],"categories_segments":[],"categories_sizes":[],"default_left":[0,0,0,0,0,0,0,0,0,0,0],"id":61,"left_children":[1,3,5,-1,7,9,-1,-1,-1,-1,-1],"loss_changes":[1.5427457E0,5.6245255E-1,4.3897447E-1,0E0,3.8219178E-1,3.0366725E-1,0E0,0E0,0E0,0E0,0E0],"parents":[2147483647,0,0,1,1,2,2,4,4,5,5],"right_children":[2,4,6,-1,8,10,-1,-1,-1,-1,-1],"split_conditions":[-3.6487162E-1,-6.3333577E-1,-5.8731514E-1,-2.6972438E-4,-9.491024E-1,2.6163575E-1,4.047187E-4,-0E0,-8.666802E-3,7.731271E-3,-0E0],"split_indices":[15,15,14,0,14,15,0,0,0,0,0],"split_type":[0,0,0,0,0,0,0,0,0,0,0],"sum_hessian":[1.13E2,3.2E1,8.1E1,1.5E1,1.7E1,1.2E1,6.9E1,2E0,1.5E1,7E0,5E0],"tree_param":{"num_deleted":"0","num_feature":"16","num_nodes":"11","size_leaf_vector":"1"}},{"base_weights":[2.5191216E-2,-4.8609138E-2,8.551909E-2,1.5305929E-2,-3.7492719E-3,2.0009065E-1,7.1429514E-4,-7.5690856E-4,4.233161E-3,2.3082379E-4,9.344212E-3],"categories":[],"categories_nodes":[],"categories_segments":[],"categories_sizes":[],"default_left":[0,0,0,0,0,0,0,0,0,0,0],"id":62,"left_children":[1,3,5,7,-1,9,-1,-1,-1,-1,-1],"loss_changes":[5.168314E-1,3.7610936E-1,3.0935848E-1,2.8769153E-1,0E0,4.4795424E-1,0E0,0E0,0E0,0E0,0E0],"parents":[2147483647,0,0,1,1,2,2,3,3,5,5],"right_children":[2,4,6,8,-1,10,-1,-1,-1,-1,-1],"split_conditions":[-5.1536072E-2,1.8817017E-2,-3.2144338E-1,-1.1890417E-1,-3.7492719E-3,-4.840912E-1,7.1429514E-4,-7.5690856E-4,4.233161E-3,2.3082379E-4,9.344212E-3],"split_indices":[15,14,0,14,0,0,0,0,0,0,0],"split_type":[0,0,0,0,0,0,0,0,0,0,0],"sum_hessian":[1.06E2,4.5E1,6.1E1,2.7E1,1.8E1,1.5E1,4.6E1,2.1E1,6E0,1E1,5E0],"tree_param":{"num_deleted":"0","num_feature":"16","num_nodes":"11","size_leaf_vector":"1"}},{"base_weights":[1.0076168E-2,-1.11085E-1,6.803834E-2,-2.2889978E-1,-0E0,5.896683E-3,5.9604686E-4,-0E0,-8.689054E-3],"categories":[],"categories_nodes":[],"categories_segments":[],"categories_sizes":[],"default_left":[0,0,0,0,0,0,0,0,0],"id":63,"left_children":[1,3,5,7,-1,-1,-1,-1,-1],"loss_changes":[7.9929537E-1,4.7884876E-1,4.7353852E-1,4.7227943E-1,0E0,0E0,0E0,0E0,0E0],"parents":[2147483647,0,0,1,1,2,2,3,3],"right_children":[2,4,6,8,-1,-1,-1,-1,-1],"split_conditions":[-3.6487162E-1,-1.5277778E-1,-6.0012263E-1,-4.2512032E-1,-0E0,5.896683E-3,5.9604686E-4,-0E0,-8.689054E-3],"split_indices":[15,2,14,11,0,0,0,0,0],"split_type":[0,0,0,0,0,0,0,0,0],"sum_hessian":[1.09E2,3.2E1,7.7E1,1.4E1,1.8E1,1.1E1,6.6E1,6E0,8E0],"tree_param":{"num_deleted":"0","num_feature":"16","num_nodes":"9","size_leaf_vector":"1"}},{"base_weights":[-2.2654781E-2,-1.5534997E-1,1.0430085E-3,-6.668298E-3,-1.7437468E-4],"categories":[],"categories_nodes":[],"categories_segments":[],"categories_sizes":[],"default_left":[0,0,0,0,0],"id":64,"left_children":[1,3,-1,-1,-1],"loss_changes":[1.0547683E0,5.533206E-1,0E0,0E0,0E0],"parents":[2147483647,0,0,1,1],"right_children":[2,4,-1,-1,-1],"split_conditions":[-3.6487162E-1,5.857867E-1,1.0430085E-3,-6.668298E-3,-1.7437468E-4],"split_indices":[15,3,0,0,0],"split_type":[0,0,0,0,0],"sum_hessian":[1.12E2,3.7E1,7.5E1,1.8E1,1.9E1],"tree_param":{"num_deleted":"0","num_feature":"16","num_nodes":"5","size_leaf_vector":"1"}},{"base_weights":[-0E0,-1.550034E-1,6.739321E-2,-7.3134797E-3,-0E0,2.4531817E-3,-1.0234863E-3],"categories":[],"categories_nodes":[],"categories_segments":[],"categories_sizes":[],"default_left":[0,0,0,0,0,0,0],"id":65,"left_children":[1,3,5,-1,-1,-1,-1],"loss_changes":[1.1523238E0,6.0718346E-1,2.9164258E-1,0E0,0E0,0E0,0E0],"parents":[2147483647,0,0,1,1,2,2],"right_children":[2,4,6,-1,-1,-1,-1],"split_conditions":[-3.6487162E-1,-1.5277778E-1,1.2598153E0,-7.3134797E-3,-0E0,2.4531817E-3,-1.0234863E-3],"split_indices":[15,2,1,0,0,0,0],"split_type":[0,0,0,0,0,0,0],"sum_hessian":[1.03E2,3E1,7.3E1,1.3E1,1.7E1,6E1,1.3E1],"tree_param":{"num_deleted":"0","num_feature":"16","num_nodes":"7","size_leaf_vector":"1"}},{"base_weights":[-7.90085E-3,-1.1200982E-1,1.1267547E-3,-1.886745E-1,3.0972224E-4,-6.307623E-3,-0E0],"categories":[],"categories_nodes":[],"categories_segments":[],"categories_sizes":[],"default_left":[0,0,0,0,0,0,0],"id":66,"left_children":[1,3,-1,5,-1,-1,-1],"loss_changes":[6.8139976E-1,4.840173E-1,0E0,2.904395E-1,0E0,0E0,0E0],"parents":[2147483647,0,0,1,1,3,3],"right_children":[2,4,-1,6,-1,-1,-1],"split_conditions":[-2.2641447E-1,1.5413257E-1,1.1267547E-3,7.4215037E-1,3.0972224E-4,-6.307623E-3,-0E0],"split_indices":[15,1,0,13,0,0,0],"split_type":[0,0,0,0,0,0,0],"sum_hessian":[1.12E2,3.9E1,7.3E1,2.5E1,1.4E1,1.7E1,8E0],"tree_param":{"num_deleted":"0","num_feature":"16","num_nodes":"7","size_leaf_vector":"1"}},{"base_weights":[-1.6173108E-2,-1.3604337E-1,9.427524E-4,-6.163991E-3,-0E0],"categories":[],"categories_nodes":[],"categories_segments":[],"categories_sizes":[],"default_left":[0,0,0,0,0],"id":67,"left_children":[1,3,-1,-1,-1],"loss_changes":[8.162208E-1,5.151709E-1,0E0,0E0,0E0],"parents":[2147483647,0,0,1,1],"right_children":[2,4,-1,-1,-1],"split_conditions":[-3.6487162E-1,5.317605E-1,9.427524E-4,-6.163991E-3,-0E0],"split_indices":[15,3,0,0,0],"split_type":[0,0,0,0,0],"sum_hessian":[1.14E2,3.6E1,7.8E1,1.7E1,1.9E1],"tree_param":{"num_deleted":"0","num_feature":"16","num_nodes":"5","size_leaf_vector":"1"}},{"base_weights":[6.8303896E-3,-1.23717174E-1,6.683677E-2,-0E0,-2.2444141E-1,5.441578E-3,2.7021646E-4,-8.495267E-3,-0E0],"categories":[],"categories_nodes":[],"categories_segments":[],"categories_sizes":[],"default_left":[0,0,0,0,0,0,0,0,0],"id":68,"left_children":[1,3,5,-1,7,-1,-1,-1,-1],"loss_changes":[9.1097957E-1,4.3893117E-1,6.0599494E-1,0E0,4.6109897E-1,0E0,0E0,0E0,0E0],"parents":[2147483647,0,0,1,1,2,2,4,4],"right_children":[2,4,6,-1,8,-1,-1,-1,-1],"split_conditions":[-3.6487162E-1,-1.7129005E-1,-2.9213482E-1,-0E0,8.262131E-2,5.441578E-3,2.7021646E-4,-8.495267E-3,-0E0],"split_indices":[15,14,7,0,14,0,0,0,0],"split_type":[0,0,0,0,0,0,0,0,0],"sum_hessian":[1.12E2,3.2E1,8E1,1.6E1,1.6E1,1.7E1,6.3E1,9E0,7E0],"tree_param":{"num_deleted":"0","num_feature":"16","num_nodes":"9","size_leaf_vector":"1"}},{"base_weights":[1.682081E-2,1.4062773E-1,-2.2942213E-2,-0E0,6.877103E-3,-1.2376118E-1,4.874285E-2,-4.9182815E-3,-0E0,2.3234254E-3,-1.2983055E-3],"categories":[],"categories_nodes":[],"categories_segments":[],"categories_sizes":[],"default_left":[0,0,0,0,0,0,0,0,0,0,0],"id":69,"left_children":[1,3,5,-1,-1,7,9,-1,-1,-1,-1],"loss_changes":[6.368114E-1,6.2562686E-1,6.979566E-1,0E0,0E0,3.6659962E-1,2.6688E-1,0E0,0E0,0E0,0E0],"parents":[2147483647,0,0,1,1,2,2,5,5,6,6],"right_children":[2,4,6,-1,-1,8,10,-1,-1,-1,-1],"split_conditions":[-3.3932054E-1,-4.531513E-1,1.219001E-1,-0E0,6.877103E-3,4.027778E-1,1.1829551E0,-4.9182815E-3,-0E0,2.3234254E-3,-1.2983055E-3],"split_indices":[11,0,8,0,0,2,8,0,0,0,0],"split_type":[0,0,0,0,0,0,0,0,0,0,0],"sum_hessian":[1.14E2,2.8E1,8.6E1,1.5E1,1.3E1,3.7E1,4.9E1,2.2E1,1.5E1,3.7E1,1.2E1],"tree_param":{"num_deleted":"0","num_feature":"16","num_nodes":"11","size_leaf_vector":"1"}},{"base_weights":[-9.853386E-3,-1.770066E-1,5.8566473E-2,-7.293936E-3,-0E0,4.143465E-3,-0E0],"categories":[],"categories_nodes":[],"categories_segments":[],"categories_sizes":[],"default_left":[0,0,0,0,0,0,0],"id":70,"left_children":[1,3,5,-1,-1,-1,-1],"loss_changes":[1.3016572E0,6.102871E-1,4.6553835E-1,0E0,0E0,0E0,0E0],"parents":[2147483647,0,0,1,1,2,2],"right_children":[2,4,6,-1,-1,-1,-1],"split_conditions":[-3.6487162E-1,7.334351E-1,-2.875817E-1,-7.293936E-3,-0E0,4.143465E-3,-0E0],"split_indices":[15,3,9,0,0,0,0],"split_type":[0,0,0,0,0,0,0],"sum_hessian":[1.03E2,3E1,7.3E1,1.6E1,1.4E1,2.3E1,5E1],"tree_param":{"num_deleted":"0","num_feature":"16","num_nodes":"7","size_leaf_vector":"1"}},{"base_weights":[-0E0,1.492417E-1,-4.4101626E-2,-0E0,7.7511533E-3,-2.533895E-1,7.7706383E-4,-3.2960658E-3,2.89529E-3,-2.9947102E-1,-0E0,-0E0,-8.393014E-3],"categories":[],"categories_nodes":[],"categories_segments":[],"categories_sizes":[],"default_left":[0,0,0,0,0,0,0,0,0,0,0,0,0],"id":71,"left_children":[1,3,5,7,-1,9,-1,-1,-1,11,-1,-1,-1],"loss_changes":[7.720899E-1,6.113707E-1,1.587724E0,3.193753E-1,0E0,3.163998E-1,0E0,0E0,0E0,2.926545E-1,0E0,0E0,0E0],"parents":[2147483647,0,0,1,1,2,2,3,3,5,5,9,9],"right_children":[2,4,6,8,-1,10,-1,-1,-1,12,-1,-1,-1],"split_conditions":[-3.7043998E-1,-4.801141E-1,-1.25E-1,8.262131E-2,7.7511533E-3,3.6993206E-1,7.7706383E-4,-3.2960658E-3,2.89529E-3,2.824997E-3,-0E0,-0E0,-8.393014E-3],"split_indices":[11,1,12,14,0,11,0,0,0,3,0,0,0],"split_type":[0,0,0,0,0,0,0,0,0,0,0,0,0],"sum_hessian":[1.13E2,2.3E1,9E1,1.4E1,9E0,2.3E1,6.7E1,6E0,8E0,1.9E1,4E0,2E0,1.7E1],"tree_param":{"num_deleted":"0","num_feature":"16","num_nodes":"13","size_leaf_vector":"1"}},{"base_weights":[-1.7314767E-2,-1.4613172E-1,3.527658E-2,-6.9603636E-3,-0E0,1.5638962E-1,-1.9617935E-3,-0E0,6.569713E-3,-4.2040474E-3,3.3287115E-2,-2.7728071E-3,1.9230702E-3],"categories":[],"categories_nodes":[],"categories_segments":[],"categories_sizes":[],"default_left":[0,0,0,0,0,0,0,0,0,0,0,0,0],"id":72,"left_children":[1,3,5,-1,-1,7,9,-1,-1,-1,11,-1,-1],"loss_changes":[8.245336E-1,7.534517E-1,4.259042E-1,0E0,0E0,3.3738166E-1,4.3968984E-1,0E0,0E0,0E0,3.4660774E-1,0E0,0E0],"parents":[2147483647,0,0,1,1,2,2,5,5,6,6,10,10],"right_children":[2,4,6,-1,-1,8,10,-1,-1,-1,12,-1,-1],"split_conditions":[-3.6487162E-1,5.857867E-1,-3.570108E-1,-6.9603636E-3,-0E0,-4.840912E-1,-7.881816E-2,-0E0,6.569713E-3,-4.2040474E-3,-1.5730338E-1,-2.7728071E-3,1.9230702E-3],"split_indices":[15,3,11,0,0,0,8,0,0,0,7,0,0],"split_type":[0,0,0,0,0,0,0,0,0,0,0,0,0],"sum_hessian":[1.09E2,3.2E1,7.7E1,1.6E1,1.6E1,1.8E1,5.9E1,9E0,9E0,1E1,4.9E1,8E0,4.1E1],"tree_param":{"num_deleted":"0","num_feature":"16","num_nodes":"13","size_leaf_vector":"1"}},{"base_weights":[-1.3496629E-2,4.6228513E-2,-9.4730124E-2,3.9936504E-3,-0E0,-4.910303E-3,3.9700526E-4,-5.9034536E-3,7.07732E-4],"categories":[],"categories_nodes":[],"categories_segments":[],"categories_sizes":[],"default_left":[0,0,0,0,0,0,0,0,0],"id":73,"left_children":[1,3,5,-1,7,-1,-1,-1,-1],"loss_changes":[5.902455E-1,3.8315675E-1,6.7360115E-1,0E0,3.989123E-1,0E0,0E0,0E0,0E0],"parents":[2147483647,0,0,1,1,2,2,4,4],"right_children":[2,4,6,-1,8,-1,-1,-1,-1],"split_conditions":[1.582898E-1,-1.5686275E-1,-8.3333336E-2,3.9936504E-3,-2.0833333E-1,-4.910303E-3,3.9700526E-4,-5.9034536E-3,7.07732E-4],"split_indices":[3,9,12,0,12,0,0,0,0],"split_type":[0,0,0,0,0,0,0,0,0],"sum_hessian":[1.11E2,6.2E1,4.9E1,1.7E1,4.5E1,2.6E1,2.3E1,3E0,4.2E1],"tree_param":{"num_deleted":"0","num_feature":"16","num_nodes":"9","size_leaf_vector":"1"}},{"base_weights":[-2.8045846E-2,-1.16387635E-1,1.531477E-3,-2.117859E-1,-3.5400688E-5,-2.4480374E-1,3.837221E-4,-6.0062066E-2,-9.2087565E-3,-4.5263097E-3,4.0507047E-3],"categories":[],"categories_nodes":[],"categories_segments":[],"categories_sizes":[],"default_left":[0,0,0,0,0,0,0,0,0,0,0],"id":74,"left_children":[1,3,-1,5,-1,7,-1,9,-1,-1,-1],"loss_changes":[8.951115E-1,5.44335E-1,0E0,3.2616818E-1,0E0,3.788668E-1,0E0,5.536519E-1,0E0,0E0,0E0],"parents":[2147483647,0,0,1,1,3,3,5,5,7,7],"right_children":[2,4,-1,6,-1,8,-1,10,-1,-1,-1],"split_conditions":[-2.9773133E-2,-1.6666667E-1,1.531477E-3,1.1536585E0,-3.5400688E-5,-3.6663437E-1,3.837221E-4,8.262131E-2,-9.2087565E-3,-4.5263097E-3,4.0507047E-3],"split_indices":[15,12,0,11,0,11,0,14,0,0,0],"split_type":[0,0,0,0,0,0,0,0,0,0,0],"sum_hessian":[1.04E2,5.4E1,5E1,2.6E1,2.8E1,2.4E1,2E0,1.3E1,1.1E1,1E1,3E0],"tree_param":{"num_deleted":"0","num_feature":"16","num_nodes":"11","size_leaf_vector":"1"}},{"base_weights":[-0E0,-1.2924555E-1,5.8394067E-2,-6.3516297E-3,-1.3339073E-4,2.1946296E-1,5.273653E-4,-0E0,7.978129E-3],"categories":[],"categories_nodes":[],"categories_segments":[],"categories_sizes":[],"default_left":[0,0,0,0,0,0,0,0,0],"id":75,"left_children":[1,3,5,-1,-1,7,-1,-1,-1],"loss_changes":[8.978448E-1,4.5601833E-1,3.952314E-1,0E0,0E0,3.172745E-1,0E0,0E0,0E0],"parents":[2147483647,0,0,1,1,2,2,5,5],"right_children":[2,4,6,-1,-1,8,-1,-1,-1],"split_conditions":[-3.9087927E-1,-1.5277778E-1,-5.8731514E-1,-6.3516297E-3,-1.3339073E-4,-3.557253E-2,5.273653E-4,-0E0,7.978129E-3],"split_indices":[15,2,14,0,0,3,0,0,0],"split_type":[0,0,0,0,0,0,0,0,0],"sum_hessian":[1.14E2,3.3E1,8.1E1,1.3E1,2E1,1E1,7.1E1,4E0,6E0],"tree_param":{"num_deleted":"0","num_feature":"16","num_nodes":"9","size_leaf_vector":"1"}},{"base_weights":[-0E0,1.0387682E-1,-3.813605E-2,6.206659E-3,-0E0,7.457149E-4,-1.13294E-1,-3.9461246E-3,8.888277E-4],"categories":[],"categories_nodes":[],"categories_segments":[],"categories_sizes":[],"default_left":[0,0,0,0,0,0,0,0,0],"id":76,"left_children":[1,3,5,-1,-1,-1,7,-1,-1],"loss_changes":[4.6072644E-1,3.797091E-1,5.074956E-1,0E0,0E0,0E0,3.7691307E-1,0E0,0E0],"parents":[2147483647,0,0,1,1,2,2,6,6],"right_children":[2,4,6,-1,-1,-1,8,-1,-1],"split_conditions":[-4.7386655E-1,-8.988764E-2,-1.009794E-1,6.206659E-3,-0E0,7.457149E-4,5.857867E-1,-3.9461246E-3,8.888277E-4],"split_indices":[14,7,3,0,0,0,3,0,0],"split_type":[0,0,0,0,0,0,0,0,0],"sum_hessian":[1.14E2,2.7E1,8.7E1,8E0,1.9E1,4.4E1,4.3E1,3.5E1,8E0],"tree_param":{"num_deleted":"0","num_feature":"16","num_nodes":"9","size_leaf_vector":"1"}},{"base_weights":[-0E0,-1.15264125E-1,5.1808544E-2,-0E0,-5.1173833E-3,5.961944E-3,2.544874E-4],"categories":[],"categories_nodes":[],"categories_segments":[],"categories_sizes":[],"default_left":[0,0,0,0,0,0,0],"id":77,"left_children":[1,3,5,-1,-1,-1,-1],"loss_changes":[7.5159836E-1,3.76064E-1,5.486784E-1,0E0,0E0,0E0,0E0],"parents":[2147483647,0,0,1,1,2,2],"right_children":[2,4,6,-1,-1,-1,-1],"split_conditions":[-3.6487162E-1,-1.1626806E-1,-5.8731514E-1,-0E0,-5.1173833E-3,5.961944E-3,2.544874E-4],"split_indices":[15,14,14,0,0,0,0],"split_type":[0,0,0,0,0,0,0],"sum_hessian":[1.17E2,3.6E1,8.1E1,1.8E1,1.8E1,1E1,7.1E1],"tree_param":{"num_deleted":"0","num_feature":"16","num_nodes":"7","size_leaf_vector":"1"}},{"base_weights":[1.2864923E-2,-5.6725644E-2,6.630324E-2,-1.7620994E-1,-0E0,2.1471097E-1,6.1255664E-4,-0E0,-7.324369E-3,8.329553E-3,-0E0],"categories":[],"categories_nodes":[],"categories_segments":[],"categories_sizes":[],"default_left":[0,0,0,0,0,0,0,0,0,0,0],"id":78,"left_children":[1,3,5,7,-1,9,-1,-1,-1,-1,-1],"loss_changes":[4.353602E-1,3.9052862E-1,3.1084725E-1,4.437194E-1,0E0,2.5631738E-1,0E0,0E0,0E0,0E0,0E0],"parents":[2147483647,0,0,1,1,2,2,3,3,5,5],"right_children":[2,4,6,8,-1,10,-1,-1,-1,-1,-1],"split_conditions":[-2.2641447E-1,3.1941578E-1,-5.8731514E-1,-3.7043998E-1,-0E0,4.877287E-1,6.1255664E-4,-0E0,-7.324369E-3,8.329553E-3,-0E0],"split_indices":[15,3,14,11,0,11,0,0,0,0,0],"split_type":[0,0,0,0,0,0,0,0,0,0,0],"sum_hessian":[1.09E2,4.4E1,6.5E1,1.4E1,3E1,9E0,5.6E1,6E0,8E0,4E0,5E0],"tree_param":{"num_deleted":"0","num_feature":"16","num_nodes":"11","size_leaf_vector":"1"}},{"base_weights":[-1.5795209E-2,-1.1775329E-1,1.7307025E-3,-1.740781E-1,-0E0,-0E0,-5.777322E-3,-3.4151857E-3,2.7965226E-3],"categories":[],"categories_nodes":[],"categories_segments":[],"categories_sizes":[],"default_left":[0,0,0,0,0,0,0,0,0],"id":79,"left_children":[1,3,-1,5,-1,7,-1,-1,-1],"loss_changes":[1.0405205E0,3.9711887E-1,0E0,3.0193508E-1,0E0,2.8364444E-1,0E0,0E0,0E0],"parents":[2147483647,0,0,1,1,3,3,5,5],"right_children":[2,4,-1,6,-1,8,-1,-1,-1],"split_conditions":[-5.310812E-2,5.2287585E-1,1.7307025E-3,-3.7043998E-1,-0E0,4.9755245E-2,-5.777322E-3,-3.4151857E-3,2.7965226E-3],"split_indices":[15,9,0,11,0,14,0,0,0],"split_type":[0,0,0,0,0,0,0,0,0],"sum_hessian":[1.11E2,5.2E1,5.9E1,3.5E1,1.7E1,1.1E1,2.4E1,6E0,5E0],"tree_param":{"num_deleted":"0","num_feature":"16","num_nodes":"9","size_leaf_vector":"1"}},{"base_weights":[4.953799E-3,-7.562294E-2,5.707403E-2,8.7852E-4,-4.140782E-3,5.2886247E-3,4.145922E-4],"categories":[],"categories_nodes":[],"categories_segments":[],"categories_sizes":[],"default_left":[0,0,0,0,0,0,0],"id":80,"left_children":[1,3,5,-1,-1,-1,-1],"loss_changes":[4.6755156E-1,4.863086E-1,3.4367245E-1,0E0,0E0,0E0,0E0],"parents":[2147483647,0,0,1,1,2,2],"right_children":[2,4,6,-1,-1,-1,-1],"split_conditions":[-1.8698455E-1,-3.188961E-1,-5.8731514E-1,8.7852E-4,-4.140782E-3,5.2886247E-3,4.145922E-4],"split_indices":[15,11,14,0,0,0,0],"split_type":[0,0,0,0,0,0,0],"sum_hessian":[1.06E2,3.8E1,6.8E1,1.6E1,2.2E1,9E0,5.9E1],"tree_param":{"num_deleted":"0","num_feature":"16","num_nodes":"7","size_leaf_vector":"1"}},{"base_weights":[5.628529E-3,-1.0880029E-1,5.7848107E-2,-0E0,-6.9855675E-3,4.745687E-4,4.9305875E-3],"categories":[],"categories_nodes":[],"categories_segments":[],"categories_sizes":[],"default_left":[0,0,0,0,0,0,0],"id":81,"left_children":[1,3,5,-1,-1,-1,-1],"loss_changes":[6.440059E-1,5.912441E-1,3.2563874E-1,0E0,0E0,0E0,0E0],"parents":[2147483647,0,0,1,1,2,2],"right_children":[2,4,6,-1,-1,-1,-1],"split_conditions":[-3.6487162E-1,-4.90311E-1,2.924712E-1,-0E0,-6.9855675E-3,4.745687E-4,4.9305875E-3],"split_indices":[15,15,3,0,0,0,0],"split_type":[0,0,0,0,0,0,0],"sum_hessian":[1.04E2,2.9E1,7.5E1,2E1,9E0,6.4E1,1.1E1],"tree_param":{"num_deleted":"0","num_feature":"16","num_nodes":"7","size_leaf_vector":"1"}},{"base_weights":[-0E0,-1.326755E-1,6.5672085E-2,-6.8094754E-3,-0E0,2.1281831E-1,5.6432684E-5,7.2099613E-3,-0E0],"categories":[],"categories_nodes":[],"categories_segments":[],"categories_sizes":[],"default_left":[0,0,0,0,0,0,0,0,0],"id":82,"left_children":[1,3,5,-1,-1,7,-1,-1,-1],"loss_changes":[9.286016E-1,5.4265386E-1,6.074662E-1,0E0,0E0,2.7753955E-1,0E0,0E0,0E0],"parents":[2147483647,0,0,1,1,2,2,5,5],"right_children":[2,4,6,-1,-1,8,-1,-1,-1],"split_conditions":[-3.6487162E-1,-1.5277778E-1,-3.570108E-1,-6.8094754E-3,-0E0,1.4572651E1,5.6432684E-5,7.2099613E-3,-0E0],"split_indices":[15,2,11,0,0,15,0,0,0],"split_type":[0,0,0,0,0,0,0,0,0],"sum_hessian":[1.02E2,3.1E1,7.1E1,1.2E1,1.9E1,1.7E1,5.4E1,1.1E1,6E0],"tree_param":{"num_deleted":"0","num_feature":"16","num_nodes":"9","size_leaf_vector":"1"}},{"base_weights":[-0E0,9.2575856E-2,-2.9437272E-2,-2.2707788E-2,7.867837E-3,-1.8168871E-1,3.2579186E-4,-3.593405E-3,1.8169702E-3,-6.03009E-3,3.7094115E-4],"categories":[],"categories_nodes":[],"categories_segments":[],"categories_sizes":[],"default_left":[0,0,0,0,0,0,0,0,0,0,0],"id":83,"left_children":[1,3,5,7,-1,9,-1,-1,-1,-1,-1],"loss_changes":[3.2518068E-1,8.9727545E-1,6.1565727E-1,3.1319246E-1,0E0,3.4284556E-1,0E0,0E0,0E0,0E0,0E0],"parents":[2147483647,0,0,1,1,2,2,3,3,5,5],"right_children":[2,4,6,8,-1,10,-1,-1,-1,-1,-1],"split_conditions":[-2.9213482E-1,-4.801141E-1,-8.3333336E-2,8.262131E-2,7.867837E-3,1E0,3.2579186E-4,-3.593405E-3,1.8169702E-3,-6.03009E-3,3.7094115E-4],"split_indices":[7,1,12,14,0,4,0,0,0,0,0],"split_type":[0,0,0,0,0,0,0,0,0,0,0],"sum_hessian":[1.06E2,2.6E1,8E1,1.8E1,8E0,1.7E1,6.3E1,9E0,9E0,1.4E1,3E0],"tree_param":{"num_deleted":"0","num_feature":"16","num_nodes":"11","size_leaf_vector":"1"}},{"base_weights":[-1.3875042E-2,-1.15311354E-1,1.1794706E-3,-1.8701217E-1,1.5119892E-3,-5.748518E-3,-0E0],"categories":[],"categories_nodes":[],"categories_segments":[],"categories_sizes":[],"default_left":[0,0,0,0,0,0,0],"id":84,"left_children":[1,3,-1,5,-1,-1,-1],"loss_changes":[7.554015E-1,6.7630184E-1,0E0,3.7105727E-1,0E0,0E0,0E0],"parents":[2147483647,0,0,1,1,3,3],"right_children":[2,4,-1,6,-1,-1,-1],"split_conditions":[-8.3333336E-2,2.4286933E-2,1.1794706E-3,3.6993206E-1,1.5119892E-3,-5.748518E-3,-0E0],"split_indices":[12,15,0,11,0,0,0],"split_type":[0,0,0,0,0,0,0],"sum_hessian":[1.11E2,4.3E1,6.8E1,3.2E1,1.1E1,2.7E1,5E0],"tree_param":{"num_deleted":"0","num_feature":"16","num_nodes":"7","size_leaf_vector":"1"}},{"base_weights":[-8.278581E-3,-1.2958382E-1,4.0303648E-2,-5.7691457E-3,-0E0,1.9351645E-4,4.437808E-3],"categories":[],"categories_nodes":[],"categories_segments":[],"categories_sizes":[],"default_left":[0,0,0,0,0,0,0],"id":85,"left_children":[1,3,5,-1,-1,-1,-1],"loss_changes":[7.405585E-1,4.7877687E-1,2.9416132E-1,0E0,0E0,0E0,0E0],"parents":[2147483647,0,0,1,1,2,2],"right_children":[2,4,6,-1,-1,-1,-1],"split_conditions":[-3.6487162E-1,7.334351E-1,2.9643586E-1,-5.7691457E-3,-0E0,1.9351645E-4,4.437808E-3],"split_indices":[15,3,3,0,0,0,0],"split_type":[0,0,0,0,0,0,0],"sum_hessian":[1.13E2,3.3E1,8E1,1.7E1,1.6E1,7E1,1E1],"tree_param":{"num_deleted":"0","num_feature":"16","num_nodes":"7","size_leaf_vector":"1"}},{"base_weights":[-0E0,-1.0799305E-1,4.7041304E-2,-0E0,-1.9666465E-1,1.455895E-1,4.854066E-5,-7.116156E-3,5.90188E-4,-0E0,6.5486617E-3],"categories":[],"categories_nodes":[],"categories_segments":[],"categories_sizes":[],"default_left":[0,0,0,0,0,0,0,0,0,0,0],"id":86,"left_children":[1,3,5,-1,7,9,-1,-1,-1,-1,-1],"loss_changes":[5.855172E-1,3.4018248E-1,2.844463E-1,0E0,5.058427E-1,4.0197882E-1,0E0,0E0,0E0,0E0,0E0],"parents":[2147483647,0,0,1,1,2,2,4,4,5,5],"right_children":[2,4,6,-1,8,10,-1,-1,-1,-1,-1],"split_conditions":[-3.9087927E-1,-6.1133295E-1,-1.4765146E-1,-0E0,8.262131E-2,-5.4053813E-1,4.854066E-5,-7.116156E-3,5.90188E-4,-0E0,6.5486617E-3],"split_indices":[15,15,11,0,14,3,0,0,0,0,0],"split_type":[0,0,0,0,0,0,0,0,0,0,0],"sum_hessian":[1.06E2,3.2E1,7.4E1,1.6E1,1.6E1,1.8E1,5.6E1,1.2E1,4E0,9E0,9E0],"tree_param":{"num_deleted":"0","num_feature":"16","num_nodes":"11","size_leaf_vector":"1"}},{"base_weights":[3.388037E-3,-1.8085784E-3,1.8606046E-3],"categories":[],"categories_nodes":[],"categories_segments":[],"categories_sizes":[],"default_left":[0,0,0],"id":87,"left_children":[1,-1,-1],"loss_changes":[6.2488747E-1,0E0,0E0],"parents":[2147483647,0,0],"right_children":[2,-1,-1],"split_conditions":[-5.490896E-2,-1.8085784E-3,1.8606046E-3],"split_indices":[15,0,0],"split_type":[0,0,0],"sum_hessian":[1.09E2,5E1,5.9E1],"tree_param":{"num_deleted":"0","num_feature":"16","num_nodes":"3","size_leaf_vector":"1"}},{"base_weights":[1.0688539E-2,-9.9016055E-2,6.911168E-2,-4.700311E-3,-0E0,1.4004281E-1,1.01995014E-4,2.154424E-1,2.1296357E-5,-0E0,6.784598E-3],"categories":[],"categories_nodes":[],"categories_segments":[],"categories_sizes":[],"default_left":[0,0,0,0,0,0,0,0,0,0,0],"id":88,"left_children":[1,3,5,-1,-1,7,-1,9,-1,-1,-1],"loss_changes":[7.394435E-1,3.8253564E-1,3.0245486E-1,0E0,0E0,2.7491546E-1,0E0,2.6369578E-1,0E0,0E0,0E0],"parents":[2147483647,0,0,1,1,2,2,5,5,7,7],"right_children":[2,4,6,-1,-1,8,-1,10,-1,-1,-1],"split_conditions":[-3.6487162E-1,5.857867E-1,-7.855663E-2,-4.700311E-3,-0E0,3.106155E-1,1.01995014E-4,-4.3991223E-1,2.1296357E-5,-0E0,6.784598E-3],"split_indices":[15,3,0,0,0,15,0,0,0,0,0],"split_type":[0,0,0,0,0,0,0,0,0,0,0],"sum_hessian":[1.1E2,3.5E1,7.5E1,1.8E1,1.7E1,3.1E1,4.4E1,1.7E1,1.4E1,4E0,1.3E1],"tree_param":{"num_deleted":"0","num_feature":"16","num_nodes":"11","size_leaf_vector":"1"}},{"base_weights":[1.1039812E-2,1.2132359E-1,-1.0704027E-2,7.6674507E-3,-0E0,-7.3274724E-2,9.5182564E-4,1.3377613E-3,-1.5631756E-1,-4.738892E-3,3.012826E-4],"categories":[],"categories_nodes":[],"categories_segments":[],"categories_sizes":[],"default_left":[0,0,0,0,0,0,0,0,0,0,0],"id":89,"left_children":[1,3,5,-1,-1,7,-1,-1,9,-1,-1],"loss_changes":[3.2815927E-1,4.6835443E-1,3.214163E-1,0E0,0E0,5.705075E-1,0E0,0E0,2.5527942E-1,0E0,0E0],"parents":[2147483647,0,0,1,1,2,2,5,5,8,8],"right_children":[2,4,6,-1,-1,8,-1,-1,10,-1,-1],"split_conditions":[-5.8731514E-1,-8.988764E-2,-8.3333336E-2,7.6674507E-3,-0E0,8.4469244E-2,9.5182564E-4,1.3377613E-3,1.1536585E0,-4.738892E-3,3.012826E-4],"split_indices":[14,7,12,0,0,3,0,0,11,0,0],"split_type":[0,0,0,0,0,0,0,0,0,0,0],"sum_hessian":[1.13E2,1.9E1,9.4E1,5E0,1.4E1,4.4E1,5E1,1.6E1,2.8E1,2.5E1,3E0],"tree_param":{"num_deleted":"0","num_feature":"16","num_nodes":"11","size_leaf_vector":"1"}},{"base_weights":[1.4426365E-2,1.3950983E-1,-2.2745552E-2,-0E0,6.968397E-3,-1.20507345E-1,6.734776E-4,-5.1666396E-3,-0E0],"categories":[],"categories_nodes":[],"categories_segments":[],"categories_sizes":[],"default_left":[0,0,0,0,0,0,0,0,0],"id":90,"left_children":[1,3,5,-1,-1,7,-1,-1,-1],"loss_changes":[5.762415E-1,4.941696E-1,4.6894264E-1,0E0,0E0,3.608923E-1,0E0,0E0,0E0],"parents":[2147483647,0,0,1,1,2,2,5,5],"right_children":[2,4,6,-1,-1,8,-1,-1,-1],"split_conditions":[-3.6663437E-1,-4.801141E-1,-2.2641447E-1,-0E0,6.968397E-3,5.2287585E-1,6.734776E-4,-5.1666396E-3,-0E0],"split_indices":[11,1,15,0,0,9,0,0,0],"split_type":[0,0,0,0,0,0,0,0,0],"sum_hessian":[1.08E2,2.5E1,8.3E1,1.5E1,1E1,2.9E1,5.4E1,1.6E1,1.3E1],"tree_param":{"num_deleted":"0","num_feature":"16","num_nodes":"9","size_leaf_vector":"1"}}]},"name":"gbtree"},"learner_model_param":{"base_score":"9.003394E0","boost_from_average":"1","num_class":"0","num_feature":"16","num_target":"1"},"objective":{"name":"reg:squarederror","reg_loss_param":{"scale_pos_weight":"1"}}},"version":[3,0,0]}